SVM-light Version V6.20
0 # kernel type
3 # kernel parameter -d 
1 # kernel parameter -g 
1 # kernel parameter -s 
1 # kernel parameter -r 
empty# kernel parameter -u 
11718 # highest feature index 
96 # number of training documents 
2 # number of support vectors plus 1 
0 # threshold b, each following line is a SV (starting with alpha*y)
1 1:-0.17310415 2:-0.11086057 3:-0.35920033 4:0.26581439 5:0.062339339 6:0.16858852 7:-0.41381338 8:-0.098024815 9:-0.093076482 10:-0.29676586 11:-0.098393574 12:0.097022101 13:0.36880994 14:0.26580939 15:-0.11471122 16:-0.060288578 17:-0.048736949 18:0.33191922 19:-0.074146152 20:0.38462064 21:-0.074146152 22:0.21608481 23:-0.025825121 24:0.32682541 25:-0.32402474 26:-0.32402474 27:-0.047274288 28:0.46509624 29:-0.60325849 30:0.12608586 31:-0.32402474 32:-0.32402474 33:0.025159968 34:0.17057513 35:0.56054187 36:0.71880066 37:-0.220333 38:-0.11183259 39:-0.17037244 40:-0.013071308 41:-0.10388274 42:-0.20744824 43:-0.3293677 44:-0.098291457 45:-0.70276403 46:0.61265457 47:0.012834341 48:-0.26695004 49:0.20735811 50:-0.25332186 51:0.012557437 52:-0.31312364 53:-0.17673409 54:-0.25332186 55:0.2771925 56:-0.23222816 57:0.062331311 58:0.023189846 59:-0.16043991 60:-0.014490565 61:-0.068565175 62:-0.024419012 63:-0.25276965 64:-0.39938575 65:-0.46591541 66:-0.2206796 67:-0.65227604 68:0.2833451 69:-0.057958052 70:0.42158699 71:-0.10354021 72:0.70731574 73:0.32524213 74:0.11889247 75:0.024455192 76:0.23437551 77:0.32524213 78:0.046927888 79:-0.1752156 80:0.11699641 81:0.38853723 82:0.51216 83:-0.15054205 84:-0.15054205 85:-0.15459216 86:-0.086959861 87:-0.145263 88:0.040288247 89:0.16319351 90:0.029917749 91:0.27437279 92:0.27537599 93:-0.15211709 94:-0.15603162 95:0.32889521 96:0.27537599 97:0.01339854 98:-0.045508262 99:-0.42087939 100:-0.15251312 101:0.37781674 102:0.30977264 103:-0.35814488 104:0.49472475 105:-0.11567929 106:0.15544605 107:0.35672095 108:0.26931077 109:0.40148607 110:0.37724566 111:-0.0028752973 112:0.16321163 113:-0.31271952 115:0.078636557 117:-0.025053827 118:0.10601807 119:0.043521672 120:0.51441509 121:0.39445102 122:0.341672 123:-0.25781929 124:0.20661552 125:-0.59354538 126:0.050697796 127:-0.20639636 128:0.15917517 129:0.23124515 130:0.0066919462 131:0.28916183 132:-0.22237282 133:0.12189903 134:-0.32998779 135:0.19231543 136:0.4437924 137:-0.030478854 138:0.5218913 139:0.85364008 140:0.26128682 141:0.0064047673 142:0.004599914 143:-0.096512258 144:-0.20873757 145:0.19231543 146:0.19231543 147:-0.10542193 148:0.16620588 149:-0.071426414 150:-0.03500304 151:0.37443793 152:-0.028705126 153:-0.29250744 154:-0.073877044 155:-0.6481697 156:-0.22523528 157:-0.21830377 158:0.15247311 159:0.25376359 160:-0.46228576 161:0.18762761 162:0.47903883 163:-0.46187946 164:-0.10642698 165:-0.27214989 166:0.67357641 167:-0.30128589 168:0.13921724 169:0.31956747 170:0.00047334904 171:0.29049265 172:0.13907176 173:0.13907176 174:-0.241191 175:0.17723568 176:0.13907176 177:-0.058637217 178:0.13907176 179:-0.19778441 180:-0.27658153 181:-0.20543015 182:0.13907176 183:-0.60474831 184:-0.41348508 185:-0.094059102 186:0.043412849 187:-0.034538012 188:0.30527881 189:0.12452847 190:0.26537219 191:-0.050150361 192:-0.050150361 193:0.23135078 194:0.31049314 195:-0.055884331 196:-0.091286376 197:0.28054082 198:0.16797793 199:0.23043276 200:0.73811436 201:-0.068378262 202:0.51452339 203:0.79048038 204:-0.58300543 205:0.4526628 206:0.061255548 207:-0.1782304 208:0.38204822 209:0.27553326 210:-0.10826978 211:0.1738278 212:-0.084046431 213:0.28693596 214:0.089093 215:0.20246659 216:0.13553369 217:0.76669973 218:-0.19230077 219:0.080358103 220:-0.22800587 221:-0.19230077 222:0.14595588 223:-0.08194562 224:-0.072493114 225:-0.19230077 226:0.40495318 227:-0.020522835 228:-0.19209942 229:-0.16854046 230:-0.036757655 231:-0.19230077 232:-0.60668647 233:0.07262633 234:-0.68399364 235:0.11308341 236:0.16397415 237:-0.3318651 238:-0.22611757 239:-0.51182145 240:-0.13714352 241:0.14786696 242:-0.47835562 243:-0.21747315 244:-0.12577145 245:-0.24168283 246:0.096983343 247:0.13832289 248:-0.12577145 249:-0.055140406 250:0.29025066 251:-0.12577145 252:-0.12577145 253:0.32012817 254:0.34303996 255:0.066851273 256:-0.90215683 257:0.12508905 258:0.088930532 259:0.023555217 260:-1.2864504 261:-0.24252057 262:0.34209257 263:0.28077954 264:0.25571325 265:-0.49390405 266:-0.16273965 267:0.34323132 268:-0.012241153 269:-0.10863356 270:-0.1586258 271:0.056581002 272:0.20513639 273:-0.06704887 274:0.06163061 275:-0.10863356 276:-0.22936131 277:-0.10992643 278:0.076335467 279:0.21491604 280:0.3594408 281:-0.36703682 282:0.0091651948 283:-0.2091333 284:-0.10863356 285:-0.10863356 286:-0.24331617 287:-0.10863356 288:-0.10863356 289:-0.38450262 290:0.77474833 291:0.29232454 292:0.35087705 293:-0.0066125342 294:-0.21642855 295:-0.21852803 296:-0.085806809 297:0.24025096 298:0.12584034 299:-0.068582118 300:0.10589755 301:-0.18361017 302:-0.23537207 303:0.14463063 304:-0.76187396 305:0.033362005 306:-0.3248702 307:0.37435928 308:0.15825881 309:0.32209653 310:-0.21854934 311:-0.038860217 312:-0.06056447 313:0.18077262 314:0.3088429 315:0.44536918 316:0.072646968 317:0.083196551 318:-0.23494163 319:-0.40450856 320:-0.50675166 321:0.067640059 322:0.2746599 323:-0.097243175 324:0.48845711 325:-0.097210065 326:0.078263626 327:0.71051311 328:-0.37441224 329:-0.097210065 330:0.16369209 331:-0.097210065 332:-0.37441224 333:-0.02928455 334:0.025714375 335:-0.11380953 336:-0.23616931 337:0.19977714 338:0.14810146 340:0.15265766 341:-0.50063455 342:0.095894039 343:0.30603489 344:0.52942592 345:-0.1724548 346:0.095894039 347:0.095894039 348:-0.24361685 349:-0.078970157 350:0.14420374 351:-0.16993798 352:-0.24361685 353:0.47063261 354:-0.24361685 355:-0.21192242 356:-0.68366915 357:0.27479002 358:-0.11512283 359:0.29358029 360:0.04453421 361:-0.44855472 362:-0.39324975 363:-0.29129726 364:0.44091547 365:0.51880413 366:-0.28469256 367:-0.20615421 368:0.13747194 369:0.12736996 370:-0.0051307036 371:0.046861153 372:-0.24767487 373:-0.011979503 374:0.056451708 375:-0.34832811 376:0.327824 377:0.053388327 378:-0.096472889 379:0.067569032 380:0.70267344 381:0.1832577 382:0.34434158 383:0.30966315 384:0.34434158 385:-0.22248712 386:0.34521627 387:-0.38728893 388:0.020339327 389:-0.16594315 390:0.020339327 391:0.020339327 392:0.25200686 393:-0.26494566 394:0.020339327 395:-0.29120034 396:0.20017985 398:0.32935947 399:-0.1389681 400:-0.036367029 401:-0.12854406 402:-0.2055424 404:-0.099117994 405:-0.064054906 407:-0.071033336 408:0.023205621 409:-0.025904272 410:-0.12772903 411:-0.12304016 412:0.23269664 414:0.20894426 415:-0.27685821 416:0.4802129 417:-0.40285304 418:-0.0079319505 419:0.0033278205 420:-0.027322246 421:-0.032443732 422:-0.63034803 423:-0.39089662 424:0.17848824 425:-0.21278048 426:-0.031603705 427:0.11357663 428:0.14578131 429:0.74498314 430:-0.40109727 431:-0.16401283 432:0.23029168 433:-0.0079319505 434:0.34831387 435:-0.23593538 436:-0.0079319505 437:0.0015537348 438:-0.45604363 439:0.046783675 440:-0.17399538 441:0.056577664 442:-0.34982982 443:-0.36829084 444:0.006655388 445:-0.44813588 446:0.30905327 447:-0.21571158 448:-0.72120279 449:0.093144782 450:-0.036438011 451:-0.22576246 452:-0.20117563 453:-0.21571158 454:0.015558408 455:-0.052705653 456:0.077096172 457:0.16102716 458:-0.16064674 459:0.31808639 460:0.076961629 461:0.76455122 462:0.27417764 463:0.12426364 464:-0.3018932 465:-0.056016423 466:0.17026417 467:0.36583897 468:0.0064505762 469:0.50538933 470:0.38240382 471:0.233748 472:0.2448613 473:0.17026417 474:-0.0026748758 475:0.71521693 476:-0.19942605 477:-0.43869603 478:0.42189768 479:0.20966649 480:0.22976683 481:-0.10841723 483:-0.14126332 484:0.51469743 485:-0.47092077 486:-0.83834654 488:0.17973194 489:0.13752533 490:0.23806703 491:0.20586929 492:-0.039527752 493:-0.35008445 494:-0.21648186 495:-0.17272325 496:-0.19147958 497:-0.14604384 498:-0.31283623 499:-0.16171832 500:-0.2341523 501:0.079657331 502:0.073845536 503:0.41178778 504:-0.22715113 505:0.30673677 506:0.23576811 507:-0.31283623 508:0.1336042 509:-0.14265059 510:0.35787699 511:0.69242686 512:-0.68218511 513:-0.44876137 514:0.030406458 515:-0.12809311 516:0.39086908 517:0.010791041 518:0.049548361 519:0.1736787 520:-0.17377467 521:-0.073708497 522:-0.35683373 523:-0.52138019 524:0.21077454 525:-0.31350353 526:-0.12046383 527:0.13176195 528:-0.34770748 529:-0.19848306 530:-0.27720216 531:-0.27720216 532:-0.16881067 533:0.017539136 534:-0.020029429 535:-0.0083345799 536:0.26966065 537:-0.114879 538:-0.092949092 539:-0.55740798 540:-0.21003261 541:-0.049509611 542:0.3744939 543:0.69679564 544:0.1044291 545:0.42959437 546:0.52036268 547:-0.029739242 548:-0.47423166 549:0.092659451 550:0.011381854 551:-0.27706471 552:-0.060798015 553:0.33182186 554:-0.19031966 555:-0.8111487 556:0.37911543 557:-0.37864912 558:0.67931336 559:-0.48979524 560:-0.11689188 561:0.11058746 562:-0.4063307 563:-0.13035728 564:0.43649262 565:-0.19365743 566:-0.37629387 567:-0.040435839 568:0.30219728 569:-0.11254629 570:0.047733482 571:0.36620221 573:-0.1831152 574:0.043260667 575:0.37978223 576:0.1557361 577:0.11042061 578:0.58420408 579:0.69442439 583:0.088304453 585:0.36205262 586:-0.13189059 588:-0.046904724 589:0.26725513 590:-0.88027155 591:-0.57479471 592:0.28658944 593:0.1480094 594:-0.20941527 595:0.074458987 596:-0.20941527 597:-0.32132706 598:0.41296065 599:-0.32132706 600:-0.32132706 601:0.19347793 602:0.080195524 603:-0.5723654 604:-0.15722677 605:0.030305378 606:0.14433885 607:-0.011052929 608:-0.20562744 609:-0.12304761 610:-0.067790106 611:0.20679229 612:0.10891734 613:-0.34738135 614:0.35736534 615:-0.087285221 616:-0.12213305 617:-0.088958547 618:-0.0031792966 619:0.4947933 620:0.026930556 621:0.60342562 622:-0.30364794 623:0.18234797 624:0.35690063 625:0.0021295941 626:0.41151077 628:-0.2187939 629:-0.59004897 631:0.18125167 632:0.18347949 633:0.1069951 634:0.16550772 635:-0.1285871 637:0.088925309 638:-0.022767641 639:0.40140086 640:0.41200769 641:0.28795961 642:0.26252639 643:0.30393824 644:0.71899122 645:0.32957524 646:0.44273895 647:0.064590782 648:0.095966831 649:-0.038068268 650:0.35880613 651:0.052020438 652:0.26678529 653:-0.12522264 654:0.038355142 655:0.21616107 656:0.67302883 657:-0.59935868 658:0.25166044 659:-0.08525721 660:0.15093085 661:-0.076563574 662:-0.43915364 663:-0.32291037 664:-0.28864858 665:0.36938167 666:0.32966173 667:-0.32089439 668:0.018112386 669:-0.26463872 670:0.07124123 671:0.10800091 672:0.037894111 673:-0.11090534 674:-0.16667055 675:-0.27517402 676:0.39018321 677:0.27420035 678:0.16856413 679:-0.10546041 680:0.20754571 681:0.56436968 682:-0.069257386 683:0.25768536 684:0.28379172 685:0.13706 686:-0.18125406 687:-0.097819567 688:-0.065930188 689:0.1184677 690:-0.34727445 691:-0.19777933 692:-0.13053587 693:-0.069257386 694:-0.71300197 695:-0.069257386 696:-0.069257386 697:-0.13317235 698:-0.13317235 699:-0.13317235 700:-0.13317235 701:-0.13317235 702:-0.055276476 703:-0.069227628 704:0.32461187 705:-0.13317235 706:-0.066142499 707:-0.20852897 708:0.048439473 709:-0.16353478 710:0.36959177 711:-1.0343212 712:0.14848875 713:-0.176568 714:0.021625988 715:-0.60737944 716:-0.32980144 717:-0.078202508 718:0.10777757 719:-0.19179194 720:-0.078202508 721:0.060102239 722:0.052087761 723:-0.078202508 724:-0.13858439 725:0.20631009 726:-0.05018004 727:-0.25436187 728:-0.83351654 729:0.30720586 730:-0.76358724 731:0.081386887 732:0.14637949 733:0.56838775 734:0.27424055 735:0.12938699 736:0.56838775 737:0.10271912 738:0.23976906 739:0.23061417 740:-0.08697141 741:0.26964119 742:0.13649502 743:0.067339361 744:-0.16048671 745:0.1201391 746:0.61516529 747:0.096436143 748:0.29583526 749:0.18164806 750:0.17310916 751:0.088699996 752:-0.11145756 753:-0.33133009 754:-0.58427817 755:-0.37568915 756:-0.17962904 757:0.27738434 758:-0.17366098 759:0.20951214 760:-0.32257232 761:-0.17366098 762:0.070614457 763:-0.17366098 764:-0.17366098 765:0.23495264 766:-0.17366098 767:0.057689384 768:0.079691932 769:-0.29694924 770:-0.19641803 771:0.23698564 772:0.29472861 773:-0.058566757 774:-0.17366098 775:-0.1378307 776:-0.17366098 777:-0.17366098 778:-0.51684719 779:0.10356058 780:-0.3077642 781:-0.3161256 782:0.16761641 783:0.16009375 784:0.16761641 785:-0.12951909 786:0.1310865 787:-0.21798827 788:-0.067376658 789:-0.13190427 790:-0.35543981 791:-0.16528381 792:-0.17070019 793:0.31278563 794:0.19965775 795:-0.019901726 796:-0.022412894 797:0.2575798 798:0.14800164 799:0.24211237 800:0.48131675 802:-0.40445098 804:-0.0088742524 805:0.13556115 806:0.13556115 807:0.13556115 808:0.04686553 809:0.13556115 810:0.22112082 811:-0.050213762 812:0.13556115 813:-0.10737865 814:0.40453532 815:-0.026105473 816:-0.026105473 817:-0.40861821 818:-0.026105473 819:-0.28887963 820:-0.094296604 821:0.15252517 822:0.006438842 823:-0.026105473 824:-0.026105473 825:-0.026105473 826:-0.072662622 827:0.013558042 828:-0.24941537 829:-0.071824394 830:-0.50803524 831:-0.21372975 832:-0.24291401 833:0.70360559 834:-0.18603836 835:0.28927964 836:-0.28863302 837:-0.1340691 838:-0.64366746 839:0.40307635 840:0.37098634 841:0.22476469 842:0.04942904 843:-0.22147219 844:-0.15867803 845:0.26154348 846:-0.056534413 847:-0.023487618 848:0.9620657 849:-0.023487618 850:-0.023487618 851:-0.046205372 852:-0.1515076 853:-0.18417899 854:-0.27845335 855:0.16964303 856:0.37478578 857:0.55009782 858:0.059291389 859:0.1364252 860:0.11290228 861:-0.070559897 862:0.75871009 863:0.0010046815 864:0.058589462 865:-0.18212128 866:0.41226509 867:0.16964303 868:-0.082134455 869:-0.55992067 870:-0.32575867 871:-0.55992067 872:0.085271955 873:0.23786886 874:-0.30043828 875:-0.043439075 876:0.20039816 877:-0.053921595 878:0.23786886 879:0.23786886 880:-0.21336339 881:0.23786886 882:0.50420225 883:0.059538994 884:0.24161102 885:-0.01707587 886:0.059538994 887:-0.17743976 888:-0.17743976 889:0.54523367 890:-0.25214231 891:-0.19839141 892:0.74118149 893:-0.14564317 894:0.0028428847 895:-0.60754538 896:-0.19839141 897:-0.3597008 898:-0.15886725 899:-0.38730067 900:-0.19104715 901:0.010844349 902:-0.22654358 903:1.2969831 904:-0.095582008 905:0.067343593 906:-0.52881736 907:-0.20707501 908:0.16679032 909:-0.19697677 910:-0.14296268 911:-0.19104715 912:0.34819892 913:-0.062507734 914:-0.062507734 915:0.073826939 916:0.1387504 917:0.62826699 918:-0.096200652 919:0.073826939 920:-0.069356829 921:-0.034678414 922:-0.034678414 923:-0.10859614 924:-0.2884925 925:-0.034678414 926:-0.14449029 927:-0.10096766 928:-0.034678414 929:-0.034678414 930:0.055089537 931:-0.076226771 932:-0.034678414 933:-0.034678414 934:-0.034678414 935:-0.034678414 936:0.24303766 937:-0.49978724 938:-0.034678414 939:-0.034678414 940:-0.034678414 941:0.037695196 942:-0.034678414 943:-0.034678414 944:-0.034678414 945:-0.10275812 946:-0.0035744007 947:-0.0035744007 948:-0.0035744007 949:0.12766857 950:0.092881963 951:0.41462004 952:0.17593271 953:0.22406845 954:0.26505795 955:-0.067727193 956:-0.062197737 957:0.1288584 958:-0.21345113 959:0.081012219 960:-0.014321083 961:0.1288584 962:0.12664667 963:0.1388962 964:0.1288584 965:0.30621469 966:-0.006967132 967:0.48232934 968:0.57112163 969:-0.26471174 970:-0.26471174 971:0.17338106 972:-0.26471174 973:-0.22955552 974:-0.72219503 975:0.048641652 976:-0.029205792 977:0.31239101 978:-0.24105205 979:-0.24105205 980:-0.24105205 981:-0.17084308 982:0.073209129 983:-0.81680632 984:0.44778538 985:-0.073282346 986:-0.49132416 987:-0.19943832 988:-0.35894793 989:-0.30519971 990:-0.18558884 991:-0.86454064 992:-0.23425151 993:0.32631803 994:0.089858241 995:0.072442651 996:0.086516134 997:0.22248521 998:-0.45240554 999:0.19405882 1000:0.19405882 1001:0.19405882 1002:0.19405882 1003:0.19405882 1004:0.010837804 1005:0.19405882 1006:0.31641948 1007:-0.15295276 1008:-0.1305843 1009:0.57771766 1010:-0.23811725 1011:0.60316193 1012:-0.079663225 1013:0.050405782 1014:0.58341581 1015:0.0047243182 1016:-0.10187425 1017:-0.31188589 1018:-0.40475193 1019:-0.2650454 1020:-0.52445507 1021:-0.18878357 1022:0.45018658 1023:0.22461477 1024:0.29122761 1025:0.32049459 1026:0.14862932 1027:0.0096703209 1028:0.8911804 1029:-0.088142231 1030:-0.046942189 1034:-0.17739736 1035:-0.0094908932 1036:-0.42922899 1037:0.1600236 1039:-0.45884356 1040:0.19629881 1041:0.11909839 1042:0.52474374 1043:0.38888678 1046:-0.53091079 1047:0.2850354 1048:-0.088040568 1049:-0.5636273 1050:0.50746173 1051:0.12759027 1052:0.12759027 1053:0.097580738 1054:-0.61422384 1055:0.31398606 1056:0.12759027 1057:-0.1823891 1058:0.12759027 1059:0.47324759 1060:0.12759027 1061:0.40721437 1062:0.12759027 1063:0.404576 1064:0.40096524 1065:0.57401884 1066:0.56052017 1067:0.76881367 1068:0.22205395 1069:0.38411555 1070:-0.092752293 1071:-0.48214588 1072:-0.48214588 1073:-0.25095901 1074:0.11506696 1075:0.056742646 1076:-0.29276681 1077:0.40211132 1078:-0.011300862 1079:0.0205574 1080:-0.51377225 1081:0.63955283 1082:0.54866433 1083:0.34304556 1084:0.071559459 1085:-0.30551642 1086:0.16275601 1087:-0.36769801 1088:0.30104703 1089:0.42456189 1090:-0.59091377 1091:0.025946179 1092:-0.81876183 1093:-0.2392399 1094:0.16404192 1095:0.8087092 1096:0.8087092 1097:0.39955521 1098:0.085685104 1099:-0.11058266 1100:0.46401119 1101:-0.041575998 1102:0.2994253 1103:-0.084069982 1104:-0.016270619 1105:0.085685104 1106:0.093357369 1107:0.085685104 1108:0.36328119 1109:0.37558597 1110:0.19659753 1111:0.48705855 1112:-0.38262117 1113:-0.15867102 1114:-0.028513296 1115:-0.043430697 1116:0.12426584 1117:-0.29267529 1118:-0.054061394 1119:-0.054061394 1120:0.30615512 1121:-0.054061394 1122:0.11265765 1123:-0.19862556 1124:0.61483634 1125:0.091704249 1126:-0.054061394 1127:-0.054061394 1128:-0.054061394 1129:0.53675622 1130:0.29352364 1131:0.065047614 1132:0.16475971 1133:-0.25834808 1134:-0.17364244 1135:-0.24389203 1136:-0.24015455 1137:-0.27030754 1138:-0.27030754 1139:0.060445137 1140:0.017462974 1141:-0.27030754 1142:-0.015108515 1143:-0.27030754 1144:0.25049657 1145:-0.1196053 1146:-0.27030754 1147:-0.27030754 1148:-0.071366429 1149:-0.22377567 1150:-0.48846313 1151:-0.071366429 1152:-0.071366429 1153:-0.0051131872 1154:-0.086994953 1155:-0.11646975 1156:-0.6690172 1157:-0.76507849 1158:-0.3105782 1159:-0.15193972 1160:-0.15193972 1161:-0.57390696 1162:-0.15193972 1163:0.35542241 1164:0.54765105 1165:0.54765105 1166:0.16207568 1167:0.51249206 1168:0.085758425 1169:-0.22471 1170:0.58788317 1171:0.027210176 1172:0.46582744 1173:0.53969991 1174:0.53969991 1175:0.51503104 1176:0.27608243 1177:-0.048213556 1178:0.052462138 1179:0.12468889 1180:-0.25369039 1181:0.0093654972 1182:0.0093654972 1183:-0.65631676 1184:0.0093654972 1185:-0.26763049 1186:0.33862871 1187:-0.6840086 1188:-0.22318794 1189:-0.22318794 1190:-0.22318794 1191:-0.41709805 1192:-0.18623176 1193:-0.55722439 1194:0.32910001 1195:0.36778867 1196:0.29004946 1197:0.043636207 1198:0.20403244 1199:0.25419506 1200:0.27081278 1201:0.34538525 1202:0.18186682 1203:0.29004946 1204:-0.063140705 1205:-0.21952376 1206:0.18234797 1207:-0.14654796 1208:0.18234797 1209:0.32760361 1210:0.18234797 1211:-0.44573039 1212:0.043261852 1213:0.09016078 1214:0.35635617 1215:0.32201752 1216:0.18234797 1217:0.064833552 1218:0.18234797 1219:0.31881198 1220:0.18234797 1221:0.69614393 1222:0.02561879 1223:0.19857222 1224:-0.043118924 1225:-0.043118924 1226:-0.043118924 1227:-0.043118924 1228:0.023018925 1229:0.50650311 1230:-0.016646748 1231:0.6026175 1232:0.016540671 1233:0.016540671 1234:-0.0057903137 1235:-0.16465966 1236:0.41453627 1237:0.096476316 1238:0.17576703 1239:-0.45818448 1240:0.016540671 1241:0.016540671 1242:0.016540671 1243:-0.19250016 1244:-0.18819401 1245:0.016540671 1246:0.016540671 1247:0.70296389 1248:-0.1223669 1249:0.010784861 1250:0.61534607 1251:-0.31371763 1252:0.35094592 1253:-0.28366268 1254:0.25170848 1255:-0.42399567 1256:-0.30137679 1257:0.15994996 1259:-0.42159829 1260:0.0031214699 1261:0.053954531 1262:0.30843067 1263:0.13455638 1264:-0.056962002 1265:0.27534583 1266:0.020148071 1267:-0.48925886 1268:0.26400569 1269:0.16382571 1270:0.12681711 1271:0.070935138 1272:-0.3644278 1273:-0.26298496 1274:-0.19711846 1275:0.049135413 1276:0.2964716 1277:-0.25557294 1278:-0.12383419 1279:-0.34677169 1280:-0.097868651 1281:0.80848616 1282:0.14997967 1283:-0.18134028 1284:0.19987978 1285:-0.12648161 1286:-0.14597237 1287:-0.45793071 1288:-0.12648161 1289:0.20131026 1290:-0.062575221 1291:0.013105321 1292:-0.12648161 1293:-0.018377526 1294:-0.12648161 1295:0.020378986 1296:-0.27814874 1297:-0.22750127 1298:-0.12648161 1299:0.019424535 1300:-0.052341834 1301:-0.0078500202 1302:0.023209916 1303:-0.12648161 1304:0.0063826507 1305:0.050449792 1306:-0.85140878 1307:-0.12887195 1308:-0.45829239 1309:0.34273979 1310:0.092507087 1311:-0.29797959 1312:-0.12879761 1313:0.004563211 1314:0.15823351 1315:0.31723118 1316:-0.36293569 1317:0.094284348 1318:-0.53491312 1319:0.021499343 1320:0.043364268 1321:0.2711688 1322:-0.47951245 1323:0.80036622 1324:0.32594287 1325:-0.50471032 1326:-0.081464157 1327:-0.068450972 1328:-0.1335519 1329:-0.029973635 1330:-0.1293093 1331:0.7947892 1332:-0.12453014 1333:-0.26931 1334:0.13446012 1335:-0.32124421 1336:-0.12328824 1337:0.16300848 1338:0.075174913 1339:-0.12328824 1340:0.56982654 1341:0.15624006 1342:-0.12545064 1343:-0.071193591 1344:-0.26640093 1345:0.40070483 1346:0.14102268 1347:-0.45479426 1348:0.53522933 1349:-0.30970001 1350:-0.32206902 1351:-0.03487293 1352:-0.094001606 1353:0.01497286 1354:0.052526202 1355:-0.036838289 1356:0.5772633 1357:0.27888584 1358:0.35020792 1359:-0.31871274 1360:0.29258531 1361:-0.35498181 1362:0.31419176 1363:0.025117703 1364:-0.33154425 1365:0.14145263 1366:0.14145263 1367:0.14145263 1368:0.60168976 1369:-0.047612011 1370:-0.29954901 1371:0.21557565 1372:0.21557565 1373:0.048027005 1374:-0.17333813 1375:-0.11654378 1376:-0.25354612 1377:-0.25354612 1378:-0.27443048 1379:-0.067306444 1380:-0.27443048 1381:0.0083909761 1382:-0.35847124 1383:0.46820763 1384:0.2071095 1385:-0.040508598 1386:0.10862028 1387:-0.00019366261 1388:0.16167034 1389:0.36458975 1390:0.12070384 1391:0.12070384 1392:-0.036042687 1393:-0.036042687 1395:0.30748543 1396:-0.2608251 1397:-0.0037105561 1399:-0.12252732 1400:0.2981475 1401:-0.029613052 1402:0.6283384 1403:-0.1028042 1404:0.087103598 1405:-0.013628179 1406:0.29364824 1407:-0.11818921 1408:0.20503847 1409:0.23346855 1410:0.30384964 1411:0.13834324 1412:0.28653345 1413:0.39989179 1414:0.0044025737 1415:-0.39222604 1416:-0.045292668 1417:-0.045292668 1418:-0.045292668 1419:-0.045292668 1420:0.43462986 1421:-0.48513785 1422:-0.16955714 1423:0.087486647 1424:0.18663722 1425:-0.045292668 1426:-0.045292668 1427:-0.34631956 1428:-0.13208073 1429:-0.11036333 1430:-0.045292668 1431:-0.045292668 1434:0.29052189 1435:0.1597067 1436:0.56170166 1437:-0.48727465 1438:-0.59071207 1440:-0.10695609 1441:-0.54048365 1442:-0.27427518 1443:0.39447397 1444:0.56828761 1445:0.25754547 1446:0.37814003 1447:0.5249387 1448:0.39447397 1449:-0.34787521 1450:-0.41417822 1451:-0.021234054 1452:1.0713848 1453:-0.30239323 1454:-0.24988505 1455:0.2456616 1456:-0.10419182 1457:-0.24965797 1458:-0.10419182 1459:0.2813876 1460:0.33956203 1461:-0.10419182 1462:-0.16785678 1463:-0.17183298 1464:-0.080459535 1465:-0.11800636 1466:-0.13022633 1467:0.021881832 1469:-0.19269145 1470:0.29025704 1471:-0.0040501063 1472:-0.0040501063 1473:0.0063214041 1474:-0.0040501063 1475:-0.43512142 1476:-0.1390117 1477:0.48484915 1478:-0.20167017 1479:-0.012089218 1480:0.023992054 1481:0.43092126 1482:-0.34011135 1483:-0.067568436 1484:0.53568697 1485:0.22242126 1486:-0.18428367 1487:-0.65153313 1488:-0.17151929 1489:0.25372481 1490:-0.19669668 1491:0.10173213 1492:-0.068716422 1493:0.13891168 1494:0.0048655677 1495:0.071027346 1496:0.30399126 1497:0.10516729 1498:-0.27347502 1499:-0.43334901 1500:-0.37884802 1501:0.15291974 1502:-0.078797683 1503:-0.43679473 1504:-0.019596076 1505:-0.26867339 1506:-0.62501812 1507:-0.21098259 1508:0.21211182 1509:0.080976911 1510:-0.084151208 1511:-0.5090723 1512:-0.11105575 1513:0.21950436 1514:-0.13327606 1515:0.27886659 1516:0.05679344 1517:0.05679344 1518:0.40160215 1519:0.55019867 1520:-0.0016149062 1521:0.26534927 1522:0.34939003 1523:0.20120983 1524:0.37873593 1525:0.34939003 1526:-0.36986291 1527:-0.2930603 1528:-0.2930603 1529:-0.2930603 1530:0.17396194 1531:-0.25664616 1532:0.05596384 1533:-0.086778343 1534:-0.48973212 1535:-0.42171174 1536:0.31364304 1537:0.80849171 1538:-0.25277883 1539:-0.15415674 1543:0.21888523 1544:0.043631848 1545:0.39945188 1546:-0.013628179 1547:-0.013628179 1548:-0.013628179 1549:-0.12089296 1550:-0.37246045 1551:-0.12089296 1552:-0.12089296 1553:0.38213235 1554:-0.1466237 1555:-0.10087504 1556:1.134154 1557:-0.39876452 1558:-0.05243361 1559:-0.015900867 1560:0.10283226 1561:-0.36618611 1562:0.29557657 1563:0.35943344 1564:0.46613541 1565:-0.30481181 1566:0.10770828 1567:0.10770828 1568:-0.048329167 1569:0.69532949 1570:0.10770828 1571:-0.24216101 1572:-0.31895959 1573:0.94030941 1574:-0.058363527 1575:0.87811196 1576:0.17083365 1577:-0.11402327 1578:-0.11349521 1579:-0.11402327 1580:-0.11402327 1581:-0.11402327 1582:0.14776443 1583:-0.42038557 1584:-0.67312449 1585:-0.60512745 1586:-0.064761162 1587:-0.064761162 1588:-0.064761162 1589:-0.064761162 1590:0.30437604 1591:-0.064761162 1592:-0.15443997 1593:0.3283886 1594:-0.064761162 1595:-0.11141441 1596:-0.064761162 1597:-0.15534951 1598:0.063104093 1599:0.0039094896 1600:-0.064761162 1601:-0.064761162 1602:0.57663763 1603:-0.53598422 1604:-0.080343261 1605:-0.13356586 1606:0.053159017 1607:-0.42739382 1608:-0.20237741 1609:0.27599964 1610:-0.016575536 1611:-0.26723108 1612:-0.26635215 1613:0.074958079 1614:0.44503823 1615:0.62197286 1616:-0.05203731 1617:0.22731012 1618:-0.4403387 1619:0.56088763 1620:0.081351437 1621:0.18502495 1622:-0.22319156 1623:-0.31584817 1624:-0.17526382 1625:0.24754474 1626:0.34708843 1627:-0.31584817 1628:-0.31584817 1629:0.52453291 1630:0.091612406 1631:0.10524873 1632:-0.22659984 1633:-0.43708703 1634:0.65552086 1635:0.29689726 1636:0.083724193 1637:-0.1830761 1638:0.4343552 1639:-0.57367152 1640:-0.28358054 1641:-0.035512734 1642:-0.047392584 1643:-0.12691645 1644:-0.067388274 1645:-0.019833589 1646:-0.067388274 1647:0.035555173 1648:-0.067388274 1649:-0.15299734 1650:-0.035814885 1651:0.53836024 1652:0.13389167 1653:-0.28358054 1654:0.16103663 1655:-0.007556573 1656:-0.28358054 1657:0.43463665 1658:-0.091985978 1659:-0.015430365 1660:-0.091985978 1661:-0.1230258 1662:-0.091985978 1663:-0.053427335 1664:-0.091985978 1665:-0.4065029 1666:0.052498505 1667:-0.14905737 1668:0.31307489 1669:-0.32323283 1670:-0.045182586 1671:0.19782571 1672:-0.095738143 1673:0.26158771 1674:-0.33216593 1675:0.42358476 1676:0.64628518 1677:0.2947529 1678:-0.25983217 1679:-0.25983217 1680:0.12234206 1681:-0.16555627 1682:-0.25983217 1683:0.31756243 1684:-0.25983217 1685:0.2920931 1686:-0.25983217 1687:-0.20051624 1688:0.190442 1689:0.3835111 1690:-0.25983217 1691:-0.25983217 1692:-0.27037692 1693:-0.25983217 1694:-0.76317459 1695:0.70950222 1696:-0.2621085 1697:-0.396301 1698:-0.2621085 1699:-0.2621085 1700:-0.22058517 1701:-0.28684902 1702:-0.030234145 1703:0.51649886 1704:0.38654926 1705:-0.23927583 1706:0.575562 1707:0.13676578 1708:0.13676578 1709:0.13676578 1710:0.16390042 1711:0.13676578 1712:0.47060424 1713:-0.26588157 1714:0.41528913 1715:0.50047147 1716:-0.018910984 1717:0.13831639 1718:0.50309098 1719:0.50309098 1720:0.39738727 1721:-0.13987087 1722:0.30693266 1723:-0.069079146 1724:-0.18202078 1725:-0.27926174 1726:-0.22247753 1727:-0.25724769 1728:-0.25724769 1729:-0.15151237 1730:-0.21048047 1731:0.0082033193 1732:0.25234094 1733:-0.36174276 1734:-0.0042294785 1735:-0.03059129 1736:-0.0042294785 1737:0.27458248 1738:0.11035514 1739:0.072530173 1740:0.11035514 1741:0.22420359 1742:-0.15114595 1743:0.11035514 1744:-0.014455864 1745:0.11035514 1746:0.11035514 1747:-0.1219945 1748:0.12743014 1749:0.11035514 1750:-0.32498416 1751:-0.11715495 1752:-0.49378803 1753:-0.27593091 1754:-0.18368191 1755:-0.27593091 1756:0.68325001 1757:-0.094990186 1758:-0.29943135 1759:-0.071198583 1760:-0.15623605 1761:-0.071198583 1762:-0.071198583 1763:-0.41341668 1764:-0.091445528 1765:-0.038430151 1766:-0.15897165 1767:0.22416112 1768:-0.1039814 1769:0.57997477 1770:-0.19976582 1771:-0.018594282 1772:0.65949273 1773:0.07283669 1774:-0.12882534 1775:0.30117783 1776:-0.54860294 1777:-0.34750319 1778:0.51361477 1779:-0.32951581 1781:0.051328387 1782:-0.23156162 1783:0.051328387 1784:0.16584978 1785:-0.10200654 1786:-1.1885678 1787:-0.034784656 1788:0.16255195 1789:-0.58282864 1790:0.6518299 1791:-0.21772811 1792:0.27915645 1793:-0.0024050109 1794:0.075037226 1795:0.075037226 1796:-0.17822327 1797:-0.40295365 1798:-0.40295365 1799:-0.09157639 1800:-0.55234975 1801:-0.55234975 1802:-0.55234975 1803:-0.11841401 1804:-0.059410516 1805:-0.25279492 1806:0.065666668 1807:0.034530401 1808:-0.066242717 1809:-0.28217891 1810:0.098753273 1811:0.2492633 1812:-0.079859644 1813:0.017887792 1814:0.20894274 1815:0.31270647 1816:0.035378307 1817:0.36031151 1818:-0.091426551 1819:0.041959703 1820:0.044881493 1821:0.30698618 1822:0.72746664 1823:0.42264947 1824:0.3328079 1825:-0.42753077 1826:0.27576682 1827:0.45033413 1828:-0.056801226 1829:0.047291584 1830:-0.34953919 1831:-0.13066031 1832:-0.21042001 1833:0.1698672 1834:0.1698672 1835:0.1698672 1836:0.23695038 1837:-0.16186213 1838:0.13837072 1839:0.1698672 1840:0.21516053 1841:0.21767904 1842:-0.088642366 1843:0.1698672 1844:0.16813157 1845:0.11164239 1846:0.1698672 1847:0.27792385 1848:-0.15013783 1849:0.1698672 1850:-0.24410571 1851:0.19847234 1852:0.24116004 1853:-0.15562443 1854:0.016094584 1855:-0.21988012 1856:0.016094584 1857:0.016094584 1858:0.31415415 1859:0.016094584 1860:-0.65387887 1861:-0.70843488 1862:-0.32127076 1863:-0.47939903 1864:-0.32127076 1865:-0.010141269 1866:0.037546892 1867:-0.18465218 1868:0.056163374 1869:-0.044378951 1870:-0.21719886 1871:0.1970828 1872:-0.11592998 1873:-0.31608313 1874:0.43301114 1875:-0.011923922 1876:0.1970828 1877:0.1970828 1878:0.099872656 1879:-0.0058992184 1880:-0.074823715 1881:0.15315458 1882:0.56530952 1883:-0.21296468 1884:0.28688145 1885:0.31510851 1886:-0.11464725 1887:-0.11464725 1888:0.30305248 1889:0.61353767 1890:0.81280452 1891:-0.31783068 1892:-0.12392229 1893:-0.13448554 1894:-0.11464725 1895:-0.45030558 1896:-0.23063508 1897:0.10147661 1898:0.076020472 1899:0.39023802 1900:1.1500368 1901:0.52479005 1902:0.11480366 1903:0.28692636 1904:0.098614834 1905:0.27047291 1908:-0.35711411 1909:-0.10464032 1911:-0.19005442 1912:0.23114403 1914:0.26498306 1915:-0.16587257 1917:0.60460675 1918:0.36583385 1919:0.262283 1920:-0.06320975 1921:-1.8715779 1922:0.65162444 1923:-0.84878343 1924:0.14198197 1925:-0.1382404 1926:0.29080531 1927:-0.021601014 1928:-0.1981868 1929:-0.18457901 1931:0.52847838 1932:-0.42238241 1933:-0.27410355 1934:0.23907119 1935:-0.26243135 1936:0.13830474 1937:-0.13597479 1938:-0.13597479 1939:0.15222315 1940:0.26856846 1941:-0.13597479 1942:-0.99505556 1943:0.19626687 1944:-0.19412734 1945:0.18639681 1946:0.085310213 1947:-0.18797645 1948:0.34964681 1949:0.37122989 1950:-0.3114388 1951:0.52525979 1953:-0.2013291 1954:-0.086100027 1955:-0.11614126 1957:0.072176956 1958:-0.29283097 1959:-0.33634859 1960:-0.33634859 1961:-0.026766384 1962:-0.19534005 1963:-0.33634859 1964:-0.10744738 1965:-0.34767833 1966:-0.10183906 1967:-0.097767495 1968:0.10945838 1969:0.086831175 1970:-0.03007878 1971:0.47678745 1972:0.36318073 1973:-0.19005442 1974:-0.19005442 1975:-0.34690666 1976:-0.39186606 1977:-0.079511575 1978:-0.079676107 1979:0.92781681 1980:0.71310854 1981:-0.35505444 1982:0.031150924 1983:0.16435957 1984:-0.19020893 1985:-0.19020893 1986:0.39304185 1987:0.39304185 1988:0.26971304 1989:0.26971304 1990:0.26971304 1991:-0.13181792 1992:0.57028323 1993:-0.17040521 1994:-0.15431684 1995:0.016486336 1996:-0.10449085 1997:0.15616742 1998:-0.10449085 1999:0.060301203 2000:-0.3778685 2001:-0.10449085 2002:-0.353944 2003:-0.14617793 2004:-0.25448605 2005:-0.20651695 2006:-0.047192741 2007:0.0091548832 2008:-0.37692744 2009:-0.053298686 2010:-1.0386469 2011:0.22477821 2012:0.02656767 2013:-0.50671738 2014:-0.26413617 2016:-0.1435391 2017:0.043989766 2018:0.2552855 2019:0.39276496 2022:-0.50494254 2023:0.69692552 2024:0.15903446 2025:0.15903446 2026:0.45119706 2027:-0.24925064 2028:-0.47029564 2029:0.24397349 2030:0.31945363 2031:0.11451238 2032:0.066441089 2033:0.079449482 2034:0.18664661 2035:0.35523883 2036:0.079449482 2037:0.12817763 2038:0.065689139 2039:0.079449482 2040:0.20036392 2041:0.20036392 2042:-0.12908682 2043:0.41539887 2044:-0.12908682 2045:-0.12908682 2046:0.74868298 2047:0.53912008 2048:-0.27149639 2049:-0.18288599 2050:-0.21363856 2051:-0.21656936 2052:-0.21363856 2053:0.2090596 2054:0.026533345 2055:-0.11569334 2056:0.20914245 2057:0.0062763072 2058:-0.032388411 2059:-0.033701107 2060:-0.080937892 2061:0.60116106 2062:0.38240337 2063:0.49674565 2064:0.49674565 2065:0.64918792 2066:-0.11443888 2067:0.087549075 2068:-0.027004352 2069:-0.28347665 2070:-0.0460709 2071:0.12112254 2072:0.25664577 2073:-0.040975653 2074:0.088602528 2075:0.71575016 2076:0.55704165 2077:-0.040975653 2078:-0.040975653 2079:-0.040975653 2080:-0.51650262 2081:0.68185878 2082:0.12468944 2083:-0.056400478 2084:0.30296597 2085:0.039525792 2086:0.1256125 2087:0.56906283 2088:0.38556162 2089:0.076708212 2090:0.076708212 2091:0.15411264 2092:0.15023668 2093:-0.53770554 2094:0.58920312 2095:-0.045777593 2096:0.064866081 2097:0.076708212 2098:0.17013122 2099:0.066022553 2100:-0.20120649 2101:0.018061031 2102:0.13919993 2103:0.16916956 2104:-0.46645376 2105:0.50368875 2106:-0.51041341 2107:0.22315192 2108:0.041584689 2109:-0.3311927 2110:-0.044369821 2111:-0.059664525 2112:0.2981858 2113:0.14396538 2114:-0.069554292 2115:0.10779538 2116:0.10813569 2117:-0.074082591 2118:-0.074082591 2119:0.047495693 2120:-0.026772661 2121:0.054968849 2122:0.1202148 2123:0.041087691 2124:-0.026772661 2125:-0.15310127 2126:-0.23019077 2127:-0.1703669 2128:-0.10702199 2129:-0.23019077 2130:0.44511077 2131:0.67448431 2132:0.2344204 2133:0.67448431 2134:0.67448431 2135:-0.058335502 2136:0.020555671 2137:0.21850227 2138:0.0017412811 2139:-0.036362704 2140:-0.0083216047 2141:0.21463619 2142:-0.14654449 2143:0.0039415108 2144:0.22568461 2145:-0.064564221 2146:-0.0083216047 2147:-0.0083216047 2148:-0.0083216047 2149:0.46794483 2150:-0.012203251 2151:0.37945464 2152:-0.0083216047 2153:-0.023464017 2154:-0.14307712 2155:-0.12286562 2156:0.40435055 2157:-0.097397774 2158:0.68923426 2159:0.61874241 2160:0.73229468 2161:0.39816868 2162:0.96733332 2163:0.40206677 2164:0.46039331 2165:0.14477986 2166:0.14477986 2167:0.14477986 2168:-0.63842291 2169:0.26292631 2170:0.15748446 2171:-0.22214524 2172:0.27474156 2173:-0.3194584 2174:0.3532986 2175:0.0082155094 2176:0.66656464 2177:-0.29541987 2178:0.27474156 2179:-0.10871752 2180:0.1266726 2181:0.66177368 2182:0.1266726 2183:0.1266726 2184:-0.10191131 2185:-0.26376045 2186:0.060410779 2187:0.18223259 2188:0.18223259 2189:0.18223259 2190:0.079538487 2191:-0.21223709 2192:0.43576652 2193:0.085221477 2194:0.18223259 2195:0.068060115 2198:-0.22093259 2199:0.12735346 2200:-0.30778304 2201:0.056534525 2202:-0.21165831 2203:-0.011088544 2204:-0.22093259 2205:-0.34078312 2206:0.18278907 2208:-0.10429033 2209:-0.29995331 2210:-0.20312527 2211:-0.11628444 2212:0.50564915 2213:-0.2750724 2214:-0.094563589 2215:-0.28054807 2216:-0.11628444 2217:-0.48123926 2218:0.29615256 2219:-0.38874719 2220:-0.31524619 2222:0.16063559 2223:0.080317795 2224:-0.68801665 2227:-0.2238788 2229:0.0027624459 2230:-0.16049218 2233:0.22320655 2235:-0.19209351 2236:-0.24548866 2237:0.47688463 2238:0.47688463 2239:0.46760961 2240:0.47688463 2241:0.5193029 2242:-0.34722176 2243:-0.34722176 2244:0.070902355 2245:-0.26662984 2246:-0.34556529 2247:-0.30013177 2248:-0.30013177 2249:-0.30013177 2250:-0.40931007 2251:-0.13918655 2252:0.19301583 2253:-0.19061624 2254:0.088336103 2255:0.26606908 2256:0.33066654 2257:-0.15716437 2258:-0.71558458 2259:0.49127463 2260:-0.5651629 2261:-0.058139034 2262:0.15971294 2263:0.15971294 2264:0.24576803 2265:0.35764736 2266:0.35764736 2267:0.12050927 2268:0.12050927 2269:-0.042238396 2270:0.13149853 2271:0.12050927 2272:0.12050927 2273:0.11037327 2274:0.092735454 2275:-0.14392665 2276:-0.14392665 2277:-0.14392665 2278:-0.14392665 2279:-0.14392665 2280:-0.47354341 2281:-0.032520197 2282:-0.032520197 2283:0.13883023 2284:-0.013988895 2285:0.011541729 2286:-0.025259465 2287:0.15969241 2288:-0.42351016 2289:0.1763752 2290:-0.042375416 2291:-0.2608251 2292:0.20140633 2293:-0.26766142 2294:-0.2608251 2295:-0.011260922 2296:-0.12176238 2297:-0.12176238 2298:-0.12176238 2299:-0.28020728 2300:0.29310748 2301:0.0998092 2302:0.18761101 2303:0.14082213 2304:0.18761101 2305:0.18761101 2306:0.35765007 2307:-0.077127486 2308:-0.1019121 2309:0.28513169 2310:0.51249588 2311:0.58401275 2312:-0.24486957 2313:0.59402812 2314:0.95234382 2315:0.61647123 2316:-0.048483297 2317:-0.81406218 2318:0.37246373 2319:-0.27957574 2320:0.42614159 2321:0.18922712 2322:0.30930892 2323:0.24646018 2324:-0.072297744 2325:0.49392009 2326:0.17314613 2327:0.22342917 2328:0.01145684 2329:0.18482266 2330:0.18482266 2331:0.17467529 2332:0.18482266 2333:0.12109434 2334:0.60684955 2335:0.096734732 2336:0.23117338 2337:0.15101326 2338:-0.15930606 2339:0.27807012 2340:0.091496773 2341:-0.33683345 2342:0.39445302 2343:-0.083986372 2344:-0.42552784 2345:0.30137539 2346:0.19267838 2348:0.084181033 2349:0.44611901 2350:-0.30970564 2351:-0.05883228 2352:-0.075320408 2353:0.43512633 2354:-0.20598908 2355:0.15029635 2356:-0.20433147 2357:-0.15799777 2358:-0.23371555 2359:-0.23371555 2360:-0.19424187 2361:0.50821394 2362:0.73598647 2363:0.50821394 2364:0.25554448 2365:0.15429306 2366:-0.031285163 2367:-0.21277261 2368:-0.4901334 2369:0.34791651 2370:0.07577917 2371:-0.012438581 2372:0.043434836 2373:-0.36812899 2374:0.098453365 2375:0.28953958 2376:0.1002553 2377:0.07577917 2378:0.58524376 2379:-0.017760033 2380:0.25010359 2381:-0.49115214 2382:-0.046310738 2383:-0.017760033 2384:-0.017760033 2385:0.34842074 2386:0.39928657 2387:-0.017760033 2388:0.022886118 2389:-0.08803755 2390:0.42830789 2391:0.41770455 2392:0.10564535 2393:0.90529084 2394:-0.13527684 2395:0.32000187 2396:-0.12944008 2399:-0.17165805 2400:0.019709656 2402:0.0302602 2403:0.43583289 2404:0.16071823 2407:0.079596274 2408:0.061733779 2409:0.061733779 2410:0.62095678 2411:0.77857924 2412:0.18094072 2413:0.18094072 2414:0.18094072 2415:0.36250797 2416:0.6205135 2417:0.18094072 2418:0.16684137 2419:0.26862425 2420:0.18094072 2421:0.58573121 2422:0.077751137 2423:0.077751137 2424:-0.18271159 2425:0.21739705 2426:0.22554323 2427:-0.3128354 2428:0.39244819 2429:0.25958174 2430:0.098839805 2431:0.077751137 2432:0.41746622 2433:0.077751137 2434:0.43248287 2435:0.077751137 2436:-0.039335549 2437:0.077751137 2438:0.63495046 2439:-0.1987786 2440:0.41522944 2441:-0.04602357 2442:0.11888326 2443:-0.36530843 2444:-0.75885016 2445:0.22248478 2446:-0.022240818 2447:0.060816482 2448:0.28444526 2449:-0.25483933 2450:0.0094814217 2451:0.47836161 2452:-0.26517045 2453:-0.37983996 2454:-0.37983996 2455:-0.18813568 2456:-0.2992126 2457:0.095218778 2458:0.036308248 2459:0.036308248 2460:-0.27440983 2461:-0.041561581 2462:-0.072286934 2463:0.14535896 2464:0.036308248 2465:0.29475069 2466:0.47072902 2467:0.057161562 2468:0.52302784 2469:0.036308248 2470:0.036308248 2471:0.017643303 2472:0.032741532 2473:0.097175337 2474:0.39776483 2475:-0.30785438 2476:0.21214336 2477:0.057441633 2478:0.0068446086 2479:-0.28009558 2480:0.032741532 2481:0.30435213 2482:0.068433449 2483:0.4035708 2484:0.26463798 2485:0.032741532 2486:0.51939976 2487:-0.053568929 2488:0.032741532 2489:0.22473823 2490:-0.1789692 2491:-0.65101266 2492:-0.65101266 2493:-0.33491543 2494:0.072487198 2495:-0.0023417717 2496:-0.21605913 2497:0.21419017 2498:0.51240623 2499:0.060546786 2500:-0.088916227 2501:-0.027929271 2502:-0.0023417717 2503:0.33500227 2504:0.16706432 2505:0.52435952 2506:0.47720879 2507:-0.23252562 2508:-0.13358732 2509:-0.4195168 2510:-0.16020718 2511:-0.11849003 2512:0.31457388 2513:-0.21454793 2514:-0.18220456 2515:-0.18517606 2516:-0.21454793 2517:0.66684818 2518:-0.20983458 2519:-0.14689519 2520:-0.14689519 2521:-0.33808479 2522:-0.028544161 2523:-0.14233747 2524:0.13101366 2525:-0.079602003 2526:-0.036395159 2527:-0.079602003 2528:-0.079602003 2529:-0.079602003 2530:0.25974783 2531:0.13452882 2532:0.25974783 2533:-0.07639733 2534:-0.23686764 2535:-0.34693053 2536:-0.07639733 2538:-0.065278552 2540:0.65967405 2541:0.082981162 2542:-0.019001346 2543:-0.3244032 2544:-0.0036385984 2545:0.026907299 2547:0.33709219 2548:-0.085095763 2549:-0.1281682 2551:-0.067284629 2552:-0.067284629 2553:0.10632694 2554:0.007111053 2555:-0.15682487 2556:0.33653098 2557:-0.067284629 2558:0.051336039 2559:0.18093686 2560:0.18093686 2561:-0.19478701 2562:-0.23631036 2563:-0.82506323 2564:-0.23631036 2565:-0.23631036 2566:-0.1904005 2567:-0.31948996 2568:-0.13509032 2569:-0.13337447 2570:-0.86716133 2571:0.26398611 2572:-0.3064037 2573:-0.22845976 2574:0.66090894 2575:0.5841608 2576:0.17929803 2577:-0.14830701 2578:0.047556348 2579:0.047556348 2580:0.40522534 2581:-0.37962121 2582:-0.26459983 2583:-0.48975477 2584:0.13093467 2585:-0.30311683 2586:0.28685388 2587:0.070274152 2588:0.47236332 2589:0.35329753 2590:-0.022643214 2591:0.27989665 2592:-0.29962736 2593:0.27989665 2594:0.41047987 2595:-0.43969491 2596:-0.43969491 2597:-0.43969491 2598:-0.1979364 2599:0.38045478 2600:0.25680885 2601:0.24349777 2602:-0.083600245 2603:0.3770403 2604:0.033805713 2605:-0.027451739 2606:-0.040629573 2607:0.11381733 2608:0.18123043 2609:-0.081929974 2610:-0.25256604 2611:0.19471443 2612:0.19471443 2613:0.19471443 2614:0.19471443 2615:-0.17390554 2616:-0.12797655 2617:0.19471443 2618:0.010345859 2619:0.43142065 2620:0.0012308293 2621:-0.080561221 2622:0.070381239 2623:0.070381239 2624:0.39149225 2625:0.56062883 2626:0.56062883 2627:0.021248844 2628:-0.21810003 2629:-0.038740795 2630:0.021248844 2631:-0.53939265 2632:0.021248844 2633:0.23873334 2634:-0.15996327 2635:0.35182425 2636:-0.21733929 2637:-0.16490224 2642:0.41693255 2643:0.11870113 2644:-0.15071234 2645:-0.30099314 2646:-0.19738325 2647:-0.31960711 2648:-0.27702817 2649:-0.30978832 2650:-0.4509075 2651:0.19846316 2652:0.17423981 2653:0.11375084 2654:-0.15218732 2655:0.53336388 2656:0.19846316 2657:0.07444942 2658:0.19846316 2659:-0.013590259 2660:0.1590599 2661:0.048087824 2662:0.023283072 2663:-0.039594699 2664:-0.039594699 2665:-0.095042318 2666:-0.052381873 2667:0.7252233 2668:-0.16904199 2669:-0.17575733 2670:-0.20321052 2671:0.39249358 2672:-0.14930351 2673:0.52615184 2674:0.67020613 2675:0.39249358 2676:0.18996833 2677:0.39249358 2678:0.14586057 2679:-0.20843296 2680:0.14586057 2681:0.038578715 2682:0.3983081 2683:0.016376864 2684:-0.090571873 2685:0.37253809 2686:-0.08638072 2687:-0.069303282 2688:0.49649838 2689:0.028933488 2690:0.12934297 2691:0.12934297 2692:-0.21772811 2693:-0.67025536 2694:-0.12651274 2695:-0.24634905 2696:-0.21772811 2697:0.73072094 2698:-0.32703558 2699:-0.475963 2700:0.3362658 2701:-0.72738862 2702:0.77748483 2703:0.044533983 2704:0.0065514706 2705:0.071165062 2706:0.044533983 2707:0.083907172 2708:-0.28975141 2709:-0.18439321 2710:-0.10109085 2711:-0.64744121 2712:0.205044 2713:-0.022157414 2714:-0.22218849 2715:0.014351279 2716:-0.18811737 2717:-0.10880943 2718:0.12379559 2719:0.33507904 2720:0.014351279 2722:0.38245487 2723:0.46375373 2725:0.44136322 2726:0.68051231 2727:0.37245324 2728:-0.072237708 2731:0.46819171 2732:0.30479246 2733:0.42446485 2734:-0.11776574 2735:-0.11776574 2736:0.79533708 2739:-0.6475023 2740:-0.42571461 2741:-0.18378198 2742:-0.58173996 2743:0.45539796 2744:-0.14133359 2745:-0.083317697 2746:-0.2556915 2747:0.40828294 2748:-0.84762609 2749:-0.061697967 2750:0.12429873 2751:0.18250971 2752:0.19325744 2753:0.25245211 2754:-0.6814602 2755:-0.37132794 2756:0.017424293 2757:-0.26180342 2758:0.60895008 2759:0.78671974 2760:0.16071823 2761:0.50407904 2762:0.48100808 2763:0.52432257 2764:0.80718696 2765:-0.52421176 2766:0.018125063 2767:0.40948775 2768:0.37779307 2769:0.46359369 2770:0.65792269 2771:0.65792269 2773:0.0032487432 2774:0.9667877 2775:-0.074718341 2776:-0.074718341 2777:-0.074718341 2778:-0.26569134 2779:-0.097656414 2782:0.27067375 2784:-0.061333768 2785:-0.12860878 2786:-0.18242568 2787:-0.061333768 2788:-0.14902382 2789:-0.14902382 2790:0.16738702 2791:0.24094833 2792:0.16738702 2793:0.16738702 2794:0.16738702 2795:0.30775136 2796:0.16738702 2797:0.40486231 2798:-0.10298883 2799:0.5028801 2800:0.080973573 2801:0.24372125 2802:0.15141405 2803:0.28180292 2804:0.34704539 2805:0.13904516 2806:0.13904516 2807:-0.1358826 2808:-0.49605703 2809:-0.075277522 2810:0.1210545 2811:-0.17808053 2812:0.01393549 2813:-0.38415253 2814:0.18835412 2815:0.9138034 2816:-0.098135009 2817:0.66010261 2818:0.15130523 2819:0.25021628 2820:0.31230488 2821:0.15615244 2822:0.036713839 2823:-0.23313065 2824:0.14478037 2825:-0.0030741326 2826:-0.0030741326 2827:0.024756085 2828:0.25788543 2829:-0.26630637 2830:-0.0030741326 2831:-0.0030741326 2832:-0.0030741326 2833:-0.031846151 2834:-0.0030741326 2835:0.055486754 2836:0.21520863 2837:-0.08821775 2838:-0.08821775 2839:-0.08821775 2840:0.077289961 2841:0.57644856 2842:0.17613116 2843:0.049699105 2844:0.55401689 2845:-0.074305817 2846:0.057484575 2847:0.25235936 2848:0.41949743 2849:0.31083941 2850:0.26115593 2851:-0.13471946 2852:0.12394917 2853:0.14282915 2854:0.50640607 2855:-0.32841888 2856:-0.13471946 2857:-0.011422467 2858:0.49288028 2859:-0.25506395 2860:-0.012062285 2861:-0.055318989 2862:-0.17581838 2863:-0.056748945 2864:-0.23000865 2866:0.31082028 2867:0.44224873 2868:0.40832487 2869:0.17398073 2870:0.083583191 2871:0.4155277 2872:0.17398073 2873:0.20831588 2874:0.17398073 2875:0.30151111 2876:0.11776362 2877:0.16550772 2878:0.4824076 2879:0.30972043 2880:0.16550772 2881:0.16550772 2882:0.16550772 2883:0.16550772 2884:-0.089292124 2885:0.011012322 2886:0.28252336 2887:0.28659579 2888:-0.013098915 2889:0.45280755 2890:0.32943788 2891:0.34888506 2892:0.32943788 2893:-0.31916404 2894:-0.097011104 2895:-0.07173489 2896:-0.097011104 2897:-0.097011104 2898:-0.14503446 2899:-0.064872831 2900:0.032138277 2901:0.10315308 2902:0.36991805 2903:0.25207832 2904:0.28145894 2906:0.087782599 2907:0.62964571 2908:0.33173862 2909:-0.19918799 2910:-0.6879009 2911:-0.19516321 2912:-0.20913838 2913:0.37328443 2914:0.78771675 2915:0.37570745 2916:0.11004347 2917:-0.039751533 2918:-0.00070889574 2919:-0.089761652 2920:0.14284192 2921:-0.025053827 2922:-1.7925706 2923:-0.014189753 2924:-0.086850442 2925:0.23315527 2926:0.014281068 2927:-0.28994659 2928:-0.066401146 2929:0.26098117 2930:-0.086850442 2931:0.032901164 2932:-0.25334549 2933:-0.19238102 2934:0.35373008 2935:0.15554723 2936:0.35373008 2937:-0.20761441 2938:0.70746017 2939:0.024537733 2940:0.68098909 2941:-0.65694183 2943:0.012835453 2944:0.13286464 2945:-0.1724143 2946:0.23226725 2947:-0.18576191 2948:0.42602009 2949:0.23482299 2950:0.42602009 2951:0.42602009 2952:-0.49566746 2953:-0.25688839 2954:-0.59525621 2955:0.26811957 2956:-0.25688839 2957:0.13038057 2958:-0.0049816244 2959:-0.30379882 2960:-0.051404007 2961:-0.25688839 2962:-0.20256029 2963:-0.25688839 2964:-0.41551271 2965:0.08347109 2966:0.08347109 2967:-0.25688839 2968:0.73748308 2969:0.21087468 2970:-0.23955619 2971:-0.22038025 2972:-0.01890179 2973:0.32134426 2974:-0.01890179 2975:-0.4000107 2976:-0.48561686 2977:-0.28076008 2978:-0.049556471 2979:-0.049556471 2980:-0.049556471 2981:-0.35830486 2982:-0.091182157 2983:0.32668522 2984:-0.049556471 2985:0.19166702 2986:-0.75418168 2987:0.3145045 2988:-0.55597615 2989:-0.1018355 2990:-0.21012287 2991:0.10951554 2992:0.10951554 2993:-0.029034212 2994:0.063401006 2995:0.12998906 2996:0.12998906 2997:0.14260539 2998:0.018642526 2999:0.31290644 3000:0.015675383 3001:0.21573734 3002:-0.3524096 3003:-0.10898221 3005:-0.63954091 3006:0.53981942 3007:0.46368328 3008:0.21861604 3009:0.012022309 3010:0.040666599 3011:0.012022309 3012:0.37693736 3013:0.24852195 3014:0.012022309 3015:0.59818202 3016:0.36955002 3017:-0.95198816 3018:0.57223654 3019:-0.07639733 3020:-0.052548081 3021:0.12076371 3022:-0.26751769 3023:0.67067474 3024:0.23238863 3025:0.23238863 3026:-0.091522865 3027:0.072055019 3028:0.47807407 3029:-0.41412953 3030:-0.11447613 3031:0.18227644 3032:0.12498602 3033:-0.29118642 3034:-0.43483892 3035:0.24957104 3036:0.12547971 3037:0.67065823 3038:0.26629096 3039:0.17069118 3040:-0.45798326 3041:-0.43218833 3042:-0.43218833 3043:0.077942982 3044:0.30732718 3045:0.10472812 3046:-0.094454281 3047:0.1033565 3048:-0.047227141 3049:0.078008346 3050:-0.24267946 3051:-0.047227141 3052:0.22782318 3053:-0.26253068 3054:-0.15656121 3055:-0.019937066 3056:-0.26805812 3057:-0.17881818 3058:-0.26512864 3059:0.058946136 3060:-0.027597612 3061:-0.2383485 3062:-0.071928449 3063:-0.071928449 3065:0.27380919 3066:0.27380919 3067:0.27380919 3068:0.64723438 3069:-0.15958171 3070:-0.083394885 3071:-0.099391736 3072:-0.1129707 3073:0.16297702 3074:-0.56170201 3075:-0.2962144 3076:-0.20262641 3077:0.15504259 3078:0.18399873 3081:-0.0043436121 3082:-0.3763707 3083:-0.57265133 3084:-0.15363717 3085:0.87930596 3086:0.011144187 3087:0.26248673 3088:0.20080613 3089:-0.23539013 3090:-0.23539013 3091:-0.23539013 3092:-0.23539013 3093:-0.172575 3094:-0.44686794 3095:-0.47801018 3096:-0.34567145 3097:-0.46725976 3098:-0.42034933 3099:-0.41159248 3100:-0.25814855 3101:-0.25814855 3102:-0.19995229 3103:-0.25814855 3104:-0.9839747 3105:-0.05438152 3106:0.18762118 3107:0.32019752 3108:-0.50245106 3109:-0.69370919 3110:-0.20720728 3115:0.3518188 3117:-0.16258967 3118:0.62136364 3119:-0.18916124 3121:0.12029444 3124:-0.42875582 3127:0.05043466 3128:-0.34892133 3129:-0.34892133 3130:-0.34892133 3131:0.093793847 3132:-0.078780092 3133:0.36931577 3134:0.093793847 3135:0.56446528 3136:-0.043093637 3137:0.24538548 3138:-0.057592761 3139:0.36772153 3140:0.28544393 3141:-0.057592761 3142:-0.11070853 3143:-0.075068288 3144:-0.057592761 3145:0.20652841 3146:-0.045213588 3147:-0.1249211 3148:0.20090781 3149:-0.057592761 3150:-0.057592761 3151:-0.20299688 3152:-0.15897477 3153:-0.084040761 3154:-0.084040761 3155:-0.14451081 3156:0.32257125 3157:-0.7000739 3158:-0.20326364 3159:0.18313651 3160:-0.28420597 3161:0.32702452 3162:0.42738003 3163:0.089742452 3164:0.42738003 3165:-0.33378309 3166:0.064219922 3167:0.42738003 3168:-0.15094817 3169:0.26538566 3170:0.27395549 3171:0.36424053 3172:-0.11907586 3173:-0.18479031 3174:0.25642306 3175:0.21373262 3176:-0.27811599 3177:-0.23433304 3178:-0.23602 3179:-0.12874027 3180:-0.12874027 3181:0.00055503822 3182:-0.28916544 3183:0.43841016 3184:0.12269281 3185:0.12269281 3186:0.15570681 3187:0.12269281 3188:0.114839 3189:-0.32052568 3190:-0.030787425 3191:0.0015068386 3192:0.69645542 3193:0.024963286 3195:-0.062802672 3196:-0.21456423 3197:0.3049536 3198:-0.093398377 3199:0.43972883 3200:0.43972883 3201:1.0804141 3202:0.096514843 3203:0.23128961 3204:0.07377544 3205:0.07377544 3206:0.55982924 3207:0.088852838 3208:-0.1121406 3209:-0.34463012 3210:-0.22176768 3211:0.32040903 3212:-0.40925011 3213:-0.084723674 3214:-0.21181735 3215:0.83098495 3216:-0.21181735 3217:-0.21181735 3218:-0.20414509 3219:-0.21181735 3220:-0.24021341 3221:0.12711638 3222:-0.25351137 3223:-0.29033551 3224:-0.180154 3225:0.053234939 3226:-0.05400737 3227:0.92981493 3228:0.13001661 3229:-0.25731608 3230:-0.15543211 3231:-0.37958956 3232:-0.37958956 3233:-0.37958956 3234:-0.23532134 3235:0.67054343 3236:0.21832108 3237:0.32880282 3238:0.21832108 3239:0.14598225 3240:-0.36681551 3241:0.2361131 3242:0.18168822 3243:0.26892614 3244:0.0034187385 3245:0.09553849 3246:-0.013814506 3247:0.23168059 3248:0.26263019 3249:0.26263019 3250:0.13479574 3251:0.075396158 3253:-0.053426098 3254:-0.053426098 3255:-0.14660406 3256:-0.053426098 3257:-0.053426098 3258:-0.053426098 3259:-0.053426098 3260:-0.12354963 3261:0.41883862 3262:0.25405934 3263:-0.053426098 3264:0.031805228 3265:0.13845354 3266:-0.053426098 3267:-0.36091903 3268:0.22164884 3269:-0.24485891 3270:-0.053426098 3271:-0.053426098 3272:-0.2297958 3273:-0.37682882 3274:-0.053426098 3275:-0.37020069 3276:-0.1247696 3277:0.085929148 3278:0.042993832 3279:-0.45636976 3280:0.24681178 3281:0.93290693 3282:-0.023661146 3283:-0.023661146 3284:-0.18269034 3285:-0.18269034 3286:0.10308393 3287:-0.01747578 3288:0.80002934 3289:-0.15714224 3291:0.086574398 3292:-0.38023543 3295:0.38987613 3296:0.034826715 3297:0.14569888 3298:-0.41114509 3299:0.66703707 3300:-0.10389612 3301:-0.10398653 3302:-0.20239678 3303:0.034753688 3304:0.49395862 3305:0.24625082 3306:0.18908753 3307:0.29644984 3309:-0.2907106 3310:-0.20726259 3311:0.38811633 3312:-0.17561866 3314:-0.29862496 3315:-0.48213437 3316:-0.35106042 3317:-0.24627727 3318:-0.18407291 3319:-0.24627727 3320:-0.24627727 3321:-0.24627727 3322:-0.036358308 3323:-0.24627727 3324:-0.73638785 3325:-0.067852959 3326:0.40808362 3327:-0.15430899 3328:-0.29317808 3329:-0.24627727 3330:0.38183284 3331:0.1249037 3332:0.20386404 3333:0.43595731 3334:0.20386404 3335:-0.095179506 3336:-0.066277735 3337:0.34660655 3338:0.4072524 3339:0.11842863 3340:0.083690435 3341:0.083690435 3342:0.0053573088 3343:0.0053573088 3344:0.57289803 3345:-0.088753089 3346:0.1726888 3347:0.34838653 3348:-0.29178938 3349:0.49732512 3350:0.072654553 3351:-0.012235204 3352:-0.06062768 3353:0.084393732 3354:0.21619228 3355:-0.29915261 3356:0.21633418 3357:-0.057697088 3358:0.41495222 3359:-0.5931344 3360:0.3138265 3361:-0.061681978 3362:0.12041669 3363:0.0082710264 3364:0.12041669 3365:0.12041669 3366:0.007433801 3367:0.19372757 3368:0.12041669 3369:0.12305649 3370:0.12305649 3371:0.032123685 3372:0.032123685 3373:0.032123685 3374:0.040928323 3375:0.032123685 3376:0.032123685 3377:0.6040833 3378:0.032123685 3379:0.10488993 3380:-0.025880445 3381:-0.21437703 3382:0.087769017 3383:-0.047131188 3384:-0.42655981 3385:-0.1330484 3386:-0.054239079 3387:0.13675132 3388:-0.21255533 3389:0.090882957 3390:0.12715474 3391:-0.0093879951 3392:0.10854737 3393:0.032609958 3395:-0.20843743 3396:-0.25409439 3397:-0.083590016 3398:0.17188311 3400:-0.40584284 3401:-0.22366665 3402:-0.0036022936 3403:-0.16219692 3404:0.36139807 3405:-0.13415781 3407:0.24219455 3408:-0.32120097 3411:-0.23643911 3412:0.48527968 3413:0.33815464 3414:0.012835453 3415:0.12892425 3416:-0.53653389 3417:0.25564936 3418:0.25564936 3419:0.53175926 3420:-0.11380623 3421:0.58410525 3422:-0.44891861 3423:0.29246807 3424:0.30676904 3425:0.29246807 3426:0.35099593 3427:0.45814553 3428:0.45814553 3429:0.18049525 3430:0.45814553 3431:-0.050993446 3432:0.54202384 3433:-0.20304869 3434:0.26541898 3435:0.15988328 3438:0.011939461 3439:0.36885998 3440:0.43570074 3441:0.56754071 3442:0.32819185 3443:-0.0078273509 3444:-0.50346124 3445:-0.13185151 3446:0.022949276 3447:-0.19667959 3448:0.23135546 3449:0.20235677 3450:0.20235677 3451:-0.14018975 3452:0.18488464 3453:0.18488464 3454:0.054936912 3455:0.40991122 3456:-0.040438168 3457:0.18488464 3458:-0.08914388 3459:-0.08914388 3460:-0.27955276 3461:-0.08914388 3462:-0.39190063 3463:-0.032985881 3464:-0.24350923 3465:-0.10695735 3466:0.12949909 3467:-0.48153639 3468:-0.10695735 3469:-0.10695735 3470:-0.18188129 3471:-0.10695735 3472:0.68306267 3473:0.078907743 3474:0.18834478 3475:-0.086310461 3476:0.22825158 3477:0.1378092 3478:0.055192877 3479:0.1378092 3480:-0.20800103 3481:-0.040310718 3482:-0.10029493 3483:0.36058235 3484:0.026907299 3485:0.026907299 3486:0.026907299 3487:0.02187237 3488:0.026907299 3489:-0.030906251 3490:0.0094245048 3491:0.026907299 3492:0.21330202 3493:-0.26462668 3494:-0.32842603 3495:-0.38534939 3496:-0.048022076 3497:0.22007409 3498:-1.1927483 3499:-0.00097292103 3500:0.12652752 3501:-0.12126344 3502:-0.15690175 3503:-0.12126344 3504:0.13880092 3505:-0.12126344 3506:-0.28078511 3507:-0.12126344 3508:-0.51025969 3510:0.38934305 3511:-0.27341852 3512:-0.016698804 3513:0.075818218 3514:0.32517201 3515:0.16063508 3516:0.32517201 3517:0.32517201 3518:0.39914384 3519:0.28700817 3520:0.10654275 3521:0.39303514 3522:0.39303514 3523:0.51236427 3524:0.059869774 3525:0.059869774 3526:0.059869774 3527:0.40478539 3528:-0.1559227 3529:0.48423365 3530:0.26983145 3531:0.38586816 3532:0.35553491 3533:0.16483532 3534:0.01706877 3535:-0.064050071 3536:-0.064050071 3537:-0.064050071 3538:-0.064050071 3539:-0.064050071 3540:-0.064050071 3541:-0.0042657522 3542:-0.10854617 3543:0.0018968678 3544:-0.10854617 3545:0.23949593 3546:0.23845783 3547:0.30163413 3548:0.16623004 3549:0.47853643 3550:0.21731162 3551:0.043849632 3552:-0.054468665 3553:0.016675675 3554:-0.010847508 3555:0.53909707 3556:0.1933542 3557:-0.010847508 3558:-0.041665543 3559:-0.010847508 3560:-0.0091670211 3561:0.31220677 3562:-0.42847946 3563:-0.30079126 3564:0.29933828 3565:-0.04388418 3566:-0.19458754 3567:0.28919083 3568:0.36889565 3569:0.49151549 3570:0.49151549 3571:0.80922514 3572:0.61037016 3573:-0.22701934 3574:-0.27639255 3575:-0.43984517 3576:-0.069717869 3577:-0.17567506 3578:-0.087270714 3579:-0.48357552 3580:-0.1607144 3583:0.19267838 3584:0.64644122 3585:0.82131881 3586:0.0062960014 3587:-0.28771719 3588:-0.42502168 3589:-0.020411709 3590:0.1732877 3591:0.1732877 3592:0.1732877 3593:0.1732877 3594:0.1732877 3595:-0.11952821 3596:0.17592365 3597:0.1732877 3598:-0.0005845055 3599:0.13791239 3600:-0.092277713 3601:-0.29464418 3602:-0.29464418 3603:-0.25689194 3604:0.59948313 3605:-0.35100493 3606:-0.35100493 3608:-0.31949127 3609:0.85399753 3610:-0.14138068 3611:-0.24257809 3612:0.17739183 3613:0.053446356 3614:0.10500908 3615:0.45555893 3616:0.16566923 3617:0.20429677 3618:0.20429677 3619:0.20429677 3620:-0.18898679 3621:-0.029405875 3622:-0.15117122 3623:0.20429677 3624:-0.26994637 3625:-0.17927462 3626:-0.26289326 3627:1.0542756 3628:0.22055362 3629:0.082750715 3630:0.19212657 3631:0.19212657 3632:0.11048173 3633:0.17403792 3634:0.11048173 3635:0.19188969 3636:0.11048173 3637:-0.063480042 3638:0.39621285 3639:0.55807763 3640:0.077970512 3641:0.077970512 3642:0.045659192 3643:0.077970512 3644:0.24812159 3645:0.0025555268 3646:-0.55620098 3647:0.21612813 3648:0.42080781 3649:0.27401721 3650:-0.12719473 3651:0.31106153 3652:-0.1297812 3653:-0.16942057 3654:-0.1351904 3655:-0.1351904 3656:-0.33176568 3657:0.086384326 3658:-0.49528119 3659:-0.18648617 3660:0.3125391 3661:0.15626955 3662:0.15626955 3663:0.15626955 3664:0.15626955 3665:-0.16499862 3666:-0.37713391 3667:-0.20297363 3668:0.33372265 3670:0.96636748 3671:0.31599435 3672:0.30063438 3673:-0.071242191 3674:-0.079633392 3675:-0.21113734 3676:-0.015210555 3677:-0.079633392 3678:-0.079633392 3679:-0.21331871 3680:-0.079633392 3681:-0.46242186 3682:-0.16161986 3683:-0.079633392 3684:-0.079633392 3685:-0.079633392 3686:0.0067497687 3687:-0.13088238 3688:0.5337466 3689:0.11044303 3690:0.10283022 3691:0.11044303 3692:-0.32922831 3693:-0.32922831 3694:0.072894253 3695:-0.32922831 3696:-0.32922831 3697:0.23956414 3698:-0.7259509 3699:0.18984872 3700:-0.4415735 3701:-0.23752236 3702:0.16666992 3703:-0.23752236 3704:-0.23752236 3705:-0.23752236 3706:-0.092192538 3707:0.16034782 3708:-0.092192538 3709:0.40949726 3710:-0.0023881693 3711:-0.0023881693 3712:0.009944587 3713:0.28646013 3714:-0.0023881693 3715:-0.0023881693 3716:-0.20309375 3717:-0.0023881693 3718:-0.0023881693 3719:0.27947536 3720:0.2901288 3721:0.081667885 3722:0.081667885 3723:-0.14219287 3724:0.48909852 3725:-0.11376449 3726:0.72550863 3727:0.19348693 3728:-0.11376449 3729:-0.038585704 3730:-0.11376449 3731:-0.11376449 3732:-0.13456757 3733:-0.13456757 3734:-0.13456757 3735:-0.42196 3736:-0.33027485 3737:-0.051005095 3738:0.57892007 3739:0.44358465 3740:0.20873514 3741:0.20873514 3742:0.20873514 3743:0.20873514 3744:-0.63102365 3745:0.20873514 3746:-0.024089208 3747:0.20873514 3748:0.20873514 3749:0.29322276 3750:0.21372379 3751:0.20873514 3752:0.17680576 3753:-0.18096495 3754:-0.076780669 3755:-0.20420122 3756:-0.18007724 3757:-0.060998652 3758:-0.060998652 3762:-0.084557258 3764:-0.34400642 3766:0.085913621 3771:-0.19977576 3772:0.29805955 3773:0.074108355 3774:-0.24285285 3775:-0.1671506 3776:-0.27034807 3777:-0.16893676 3778:-0.24285285 3779:0.10122783 3780:-0.25451025 3781:-0.25451025 3782:-0.2981362 3783:-0.16825436 3784:-0.25451025 3787:0.1308755 3789:0.13512239 3790:0.052207548 3791:-0.29732212 3792:-0.2639617 3793:-0.3376931 3794:-0.21966699 3795:0.90905869 3796:-0.10983349 3797:0.34170964 3798:0.38350055 3799:0.58600616 3802:0.062877774 3803:0.062877774 3804:-0.5697149 3805:-0.57274377 3806:0.062877774 3807:0.062877774 3808:-0.096628807 3809:0.062877774 3810:0.12575555 3811:0.062877774 3812:0.32694569 3813:0.062877774 3814:-0.088813752 3815:-0.088813752 3816:0.74249268 3817:0.041955002 3818:-0.054982312 3819:-0.013998593 3820:1.1271921 3821:-0.27055907 3822:-0.51092547 3823:-0.64059526 3824:0.071403235 3825:0.16853434 3826:0.21190779 3827:0.2346303 3828:0.043930702 3829:0.00016963162 3830:0.2346303 3831:-0.050961997 3832:0.10286127 3833:0.25684285 3834:0.37898529 3835:-0.094593644 3836:-0.37964499 3837:-0.094593644 3838:0.020723889 3839:-0.078040078 3840:0.75724006 3841:0.31724298 3842:0.36560345 3843:0.45804918 3844:-0.35714573 3845:0.12939721 3846:0.12637836 3848:0.28217366 3851:-0.047820006 3853:-0.069070749 3858:-0.30419505 3859:0.15070224 3861:0.15055907 3864:-0.29805771 3867:0.092647046 3868:0.34943068 3869:0.11262125 3870:0.11262125 3871:-0.030912671 3872:-0.030912671 3873:0.44495121 3874:-0.14386167 3875:-0.030912671 3876:0.2951991 3877:-0.22818153 3878:0.2363093 3879:-0.052764796 3880:0.50060552 3881:0.092344016 3882:0.003531558 3883:-0.071964279 3884:-0.32123724 3885:0.16306923 3886:0.10520298 3887:-0.071964279 3888:-0.071964279 3889:-0.071964279 3890:-0.071964279 3891:0.12908725 3892:-0.071964279 3893:0.13259761 3894:0.37289649 3895:-0.022112623 3896:0.015064244 3897:-0.14850228 3898:-0.14850228 3899:0.068224505 3900:0.028179282 3901:0.028179282 3902:-0.10129461 3903:0.48806009 3904:0.53696692 3905:0.2500799 3906:-0.069535337 3907:-0.35608083 3908:-0.094656289 3909:-0.069535337 3910:-0.069535337 3911:-0.069535337 3912:-0.069535337 3913:-0.22033226 3914:-0.064707823 3915:-0.36048928 3916:0.24073681 3917:-0.064707823 3918:-0.037417751 3919:0.34956133 3920:-0.12890533 3921:-0.2188305 3922:0.39039174 3923:0.43011248 3924:0.32597184 3925:-0.42693236 3926:-0.087594867 3927:-0.25716686 3928:0.43135118 3929:-0.23699555 3930:-0.29518157 3931:0.22303149 3933:-0.41310728 3934:-0.43715182 3935:-0.47358236 3936:-0.39024711 3937:0.14888178 3938:0.2857095 3939:-0.3278234 3940:-0.5879758 3941:-0.28084219 3942:0.02201592 3943:0.1452017 3944:0.15694547 3945:0.30813399 3947:-0.0022976394 3949:-0.086699732 3950:-0.21361679 3951:0.69823438 3952:-0.083619148 3953:-0.24388996 3954:-0.19465251 3955:-0.18509026 3956:0.20774746 3957:-0.043939915 3958:-0.34490496 3959:-0.28669599 3960:-0.42706031 3961:-0.42706031 3962:-0.42706031 3963:0.17748021 3964:0.58864957 3965:-0.3329646 3966:-0.17895265 3967:-0.33608097 3968:-0.29771724 3969:-0.28337204 3970:-0.19432367 3971:-0.55320293 3972:-0.082782902 3973:0.19199669 3974:0.069448248 3975:0.15531836 3976:-0.087291509 3977:0.15531836 3978:0.15531836 3979:-0.16945918 3980:-0.17040978 3981:-0.16945918 3982:-0.16945918 3983:-0.29620492 3984:0.44504759 3985:0.4580563 3986:-0.4168101 3987:-0.56298053 3988:0.56230515 3989:-0.20412984 3990:-0.34543636 3991:0.11793537 3992:0.11793537 3993:0.1379783 3994:0.18068747 3995:-0.085868448 3996:-0.37236086 3997:-0.085868448 3998:-0.0060387924 3999:-0.0060387924 4000:0.16989639 4001:-0.12491841 4002:-0.33757308 4003:-0.61441374 4004:0.018297639 4005:-0.0056078322 4007:-0.036367029 4009:-0.019360434 4010:0.35128939 4011:0.15532215 4012:-0.13772987 4013:-0.13772987 4014:0.43386561 4015:-0.061351374 4016:-0.11055836 4020:-0.056597773 4022:-0.18268852 4024:-0.09257181 4025:0.0061086924 4026:0.23622455 4030:-0.13380492 4031:-0.28715611 4034:-0.10310941 4036:-0.0021613217 4037:-0.36543259 4038:-0.0095603354 4039:0.20388806 4040:-0.27792081 4041:-0.073025741 4042:0.038282804 4043:-0.21718912 4044:0.038025137 4045:-0.4156644 4046:0.062215269 4047:0.074839875 4048:-0.20885755 4049:-0.093350708 4050:0.50271738 4051:0.54003376 4052:-0.0062790485 4053:0.2490841 4054:0.10444719 4055:0.10444719 4056:-0.019929554 4057:-0.019929554 4058:-0.019929554 4059:-0.50581002 4060:-0.019929554 4061:-0.019929554 4062:-0.22706853 4063:-0.1456247 4064:-0.66445947 4065:-0.1456247 4066:-0.1456247 4067:-0.1456247 4068:-0.18906689 4069:-0.28012958 4070:-0.19234312 4071:0.79104841 4072:-0.5412342 4073:0.36580315 4074:0.79104841 4075:-0.2232333 4076:-0.16592667 4077:-0.075270899 4078:0.1506588 4079:-0.2055424 4080:-0.15061589 4081:-0.12865925 4082:0.58147037 4086:0.20314831 4088:0.16529904 4089:0.38521439 4090:0.4506326 4091:-0.13105156 4092:0.48515549 4093:-0.68430519 4094:-0.11903797 4095:-0.35494521 4096:-0.14774016 4097:0.35760364 4098:0.20894426 4099:-0.038151044 4100:0.095131099 4101:0.43284225 4102:0.42708534 4103:0.080477864 4104:0.080477864 4105:0.14763552 4106:0.20132858 4107:0.14763552 4108:0.24843466 4109:0.14763552 4110:0.14763552 4111:0.14763552 4112:0.14763552 4113:-0.14239284 4114:0.27812615 4115:-0.14131577 4116:-0.2329711 4117:-0.276752 4118:-0.14131577 4119:0.090873048 4120:-0.28219697 4121:-0.3157782 4122:0.3518683 4123:-0.53869551 4124:-0.33493647 4125:-0.37389773 4126:-0.23597538 4127:-0.23597538 4128:-0.19441329 4129:-0.068698198 4130:-0.13413265 4131:0.017035713 4132:0.38557705 4133:0.017035713 4134:-0.19543733 4135:-0.55425018 4136:0.10801836 4137:-0.036508691 4138:0.063614033 4139:-0.14803445 4140:-0.21604657 4141:-0.10391367 4142:-0.14969172 4143:-0.058174387 4144:0.03881171 4145:-0.61838144 4146:-0.33236197 4147:-0.33236197 4148:-0.33236197 4149:0.19909628 4150:0.15070224 4151:0.15070224 4152:0.13994581 4153:-0.17444563 4154:0.13994581 4155:0.13587825 4156:0.087786473 4157:-0.31394595 4158:0.23432545 4159:0.36158898 4160:-0.037301991 4161:-0.0029594654 4162:-0.0029594654 4163:-0.0029594654 4164:-0.0029594654 4165:-0.0029594654 4166:0.10743417 4167:0.1485007 4168:0.1485007 4169:-0.59647512 4170:0.33520904 4171:0.39823878 4172:0.39823878 4173:0.0011947907 4174:-0.58463258 4175:0.75215602 4176:0.0011947907 4177:-0.44929159 4178:0.0011947907 4179:0.29119414 4180:-0.088503383 4181:-0.088503383 4182:-0.12569381 4183:0.0031214699 4184:-0.44298902 4185:0.0031214699 4186:-0.13698487 4187:0.24909672 4188:-0.15874898 4189:-0.15874898 4190:-0.2323171 4191:0.050514061 4192:-0.59667844 4193:-0.16324635 4194:-0.16324635 4195:-0.16324635 4196:-0.16324635 4197:0.83953214 4199:0.49868238 4201:0.04809076 4202:-0.10182323 4203:-0.23697877 4204:-0.033330657 4205:-0.23697877 4206:-0.23697877 4207:0.071702741 4208:-0.17109908 4209:0.90930068 4210:0.024671314 4211:0.024671314 4212:0.024671314 4213:-0.079148106 4214:0.068859205 4215:0.068859205 4216:-0.11488608 4217:0.39867508 4218:0.068859205 4219:-0.13574667 4220:0.046004243 4221:-0.022745697 4222:0.27374664 4223:0.046004243 4224:-0.13419248 4225:-0.13419248 4226:0.10262613 4227:-0.13419248 4228:-0.13419248 4229:0.44457921 4230:-0.4316459 4231:-0.22155586 4232:-0.12072776 4233:-0.23630551 4234:-0.12072776 4235:0.048468489 4236:-0.0061973985 4237:0.26995975 4238:-0.052225061 4239:-0.0061973985 4240:-0.052225061 4241:0.029384758 4242:-0.052225061 4243:-0.72473776 4244:-0.12968607 4245:-0.060816966 4246:-0.073050514 4247:-0.073050514 4248:-0.073050514 4249:0.23931786 4250:-0.073050514 4251:-0.5798623 4252:-0.073050514 4253:-0.073050514 4254:-0.073050514 4255:-0.073050514 4256:-0.012369017 4257:-0.37353078 4258:0.071128845 4259:-0.077001974 4260:-0.071653575 4261:-0.23631965 4262:-0.052156493 4263:0.26895216 4264:0.27996379 4265:0.087309033 4266:0.087309033 4267:0.16130914 4268:0.37967071 4269:0.0050423346 4270:-0.49028176 4271:0.0050361189 4272:-0.33544597 4273:-0.46752205 4274:-0.014982551 4275:-0.014982551 4276:0.12822936 4277:0.21115178 4278:0.018785272 4279:0.12822936 4280:0.32881823 4281:-0.06046487 4282:-0.38629577 4283:-0.38629577 4284:0.31733152 4285:-0.73177272 4286:-0.23026729 4287:-0.23026729 4288:-0.23026729 4289:-0.41924998 4290:-0.23026729 4291:0.069216907 4292:-0.083062239 4293:-0.083062239 4294:-0.083062239 4295:-0.083062239 4296:-0.083062239 4297:-0.57414109 4298:-0.33875263 4299:0.2053387 4300:0.23511726 4301:0.23511726 4302:0.05778214 4303:0.05778214 4304:0.05778214 4305:0.10112647 4306:-0.14947626 4307:0.062848404 4308:-0.048740517 4309:-0.14639783 4310:0.062921174 4311:-0.016562397 4312:-0.048740517 4313:-0.048740517 4314:-0.048740517 4315:-0.048740517 4316:0.20631018 4317:0.20902897 4318:0.20631018 4319:0.0280648 4320:-0.16544072 4321:-0.34358627 4322:-0.16544072 4323:-0.19443253 4324:-0.23196286 4325:0.16015184 4326:-0.50098383 4327:-0.091253176 4328:-0.087801822 4329:-0.087801822 4330:-0.087801822 4331:0.2860814 4332:0.14856993 4333:0.32053134 4334:0.13685606 4335:0.13685606 4336:-0.20726493 4337:-0.017272145 4338:0.13685606 4339:0.16191609 4340:0.095117845 4341:0.0010411665 4342:-0.030993121 4343:0.20214014 4344:0.50920403 4345:-0.092497662 4346:-0.38884735 4347:0.16086663 4348:0.0019575772 4349:0.0019575772 4350:-0.038489398 4351:-0.075257331 4352:-0.038489398 4353:0.016726339 4354:0.08815214 4355:-0.30857974 4356:0.55401748 4357:0.32433432 4358:-0.16490224 4359:-0.07476753 4360:0.14879128 4361:0.14879128 4362:0.14879128 4363:1.0043566 4364:-0.4998771 4365:-0.071014948 4366:-0.071014948 4367:-0.071014948 4368:-0.18348943 4369:0.16031316 4370:-0.34528476 4371:-0.059278984 4372:0.26555523 4373:-0.059278984 4374:0.081326537 4375:-0.059278984 4376:-0.061572917 4377:-0.12802893 4378:-0.059278984 4379:-0.059278984 4380:-0.42264789 4381:-0.059278984 4382:-0.038182359 4383:-0.16296032 4384:0.212824 4385:0.31031129 4386:0.10967301 4387:-0.22529349 4388:0.39013249 4389:0.10967301 4390:0.022827741 4391:0.10967301 4392:-0.1722292 4394:0.37017563 4395:0.10986646 4397:-0.30048808 4398:-0.11537015 4399:0.0020517982 4400:-0.25693703 4401:-0.25693703 4402:0.017731477 4403:0.017731477 4404:0.017731477 4405:-0.0090648886 4406:-0.48075339 4407:-0.55839169 4408:-0.48075339 4409:0.031990644 4410:0.14632957 4411:0.38889942 4412:0.081890538 4413:0.16062929 4414:0.081890538 4415:-0.21983968 4416:0.081890538 4417:-0.20803212 4418:-0.12674573 4419:-0.53951204 4420:0.090299048 4421:0.064985134 4422:0.50767344 4423:-0.12488575 4424:-0.21874288 4425:-0.12488575 4426:-0.21874288 4427:-0.21405956 4428:0.014114605 4429:0.014114605 4430:0.64930207 4431:-0.014896109 4432:0.15089732 4433:-0.50324178 4434:-0.50324178 4435:0.31054452 4436:0.31054452 4437:-0.022757044 4438:-0.29578146 4439:0.21224058 4440:-0.47083008 4441:-0.061380547 4442:-0.10081176 4443:-0.0016092324 4444:0.089456595 4445:0.00061573065 4446:-0.33358935 4447:-0.21651743 4448:-0.0016092324 4449:-0.0035323068 4450:0.32422066 4451:-0.0016092324 4452:-0.0016092324 4453:-0.30792999 4454:0.43617401 4455:0.47187814 4456:-0.077183716 4457:0.14998288 4458:-0.24339516 4459:-0.41785285 4460:-0.053747594 4461:0.47655997 4462:0.29318655 4463:0.14089699 4464:0.28183907 4465:-0.38901338 4466:-0.33050013 4467:0.20151129 4468:0.31662962 4469:0.18394533 4470:0.35441059 4471:-0.10806143 4472:0.10346818 4473:0.10346818 4474:-0.21494997 4475:-0.12794326 4476:-0.2648747 4477:0.23958227 4478:0.23958227 4479:0.075842902 4480:0.11105888 4481:0.075842902 4482:0.075842902 4483:-0.03972533 4484:-0.30748475 4485:-0.31706038 4486:0.1484848 4487:-0.16388358 4488:-0.16388358 4489:-0.16388358 4490:-0.16388358 4491:-0.43114892 4492:-0.10724231 4493:-0.10724231 4494:-0.03179267 4495:0.053429715 4496:0.053429715 4497:0.053429715 4498:0.053429715 4499:-0.22927165 4500:-0.1789946 4501:0.23769613 4502:0.053429715 4503:0.18009655 4504:0.053429715 4505:0.053429715 4506:0.96715838 4507:-0.26608318 4508:0.0045295432 4509:-0.19251636 4510:0.0045295432 4511:0.20851237 4512:0.20851237 4513:-0.21247746 4514:0.20851237 4515:0.20851237 4516:-0.19387938 4517:0.17959972 4518:-0.011234512 4519:-0.0067396569 4520:-0.0067396569 4521:-0.0067396569 4522:0.12711082 4523:0.12711082 4525:-0.16415285 4526:0.14993031 4527:-0.13464741 4528:0.16639976 4529:-0.03478786 4530:0.50538439 4531:0.11956193 4532:-0.22038865 4533:-0.046027664 4534:-0.47908071 4535:0.013982413 4536:-0.046027664 4537:0.029363481 4538:0.17234096 4539:-0.39653561 4540:-0.67426109 4541:-0.26746938 4542:-0.43959177 4543:0.5499661 4544:0.16660166 4545:0.11159142 4546:-0.10709702 4547:0.32156152 4548:0.24184278 4549:-0.18893485 4550:0.013575645 4551:0.05339516 4552:0.05339516 4553:0.083120473 4554:-0.12849137 4555:0.12860288 4556:-0.26286706 4557:-0.26286706 4558:-0.26286706 4559:-0.14695574 4560:0.081686705 4561:-0.32645601 4562:-0.048916791 4563:-0.37517902 4564:-0.099309057 4565:0.13931192 4566:-0.010706997 4567:0.061795678 4568:-0.048916791 4569:0.13826814 4570:-0.23143707 4571:-0.42303678 4572:-0.4785482 4573:0.39585918 4574:-0.19137175 4576:0.33867031 4577:-0.30861968 4579:-0.25801489 4580:0.6524331 4581:-0.098203368 4582:0.084079601 4583:0.084079601 4584:-0.046633873 4585:-0.12215949 4586:-0.085073471 4587:-0.11828429 4588:0.71552652 4589:-0.30276549 4590:0.084079601 4591:0.084079601 4592:0.084079601 4593:0.084079601 4594:-0.076146312 4595:-0.15570794 4596:0.05714481 4597:-0.0098205116 4598:0.12134639 4599:0.0067532347 4600:0.029866846 4601:0.466245 4602:0.48694983 4603:0.29239124 4604:-0.011406892 4605:0.12134639 4606:0.12134639 4607:0.170137 4608:-0.15634783 4609:0.12134639 4610:0.12134639 4611:0.11948454 4612:-0.033111509 4613:-0.47771084 4614:-0.033111509 4615:-0.033111509 4616:-0.033111509 4617:-0.49352813 4618:-0.033111509 4619:0.16852315 4620:0.019277956 4621:0.068968281 4622:0.054146722 4623:0.068968281 4624:-0.72310889 4625:0.068968281 4626:-0.029122656 4627:-0.24020137 4628:-0.15071259 4629:-0.15071259 4630:-0.15071259 4631:0.024577454 4632:-0.055038091 4633:0.002246364 4634:0.149914 4635:-0.020719793 4636:0.28528553 4637:0.1697512 4638:0.28528553 4639:-0.05761056 4640:-0.1563725 4641:-0.032760151 4642:-0.1563725 4643:-0.032760151 4644:0.091142274 4645:-0.009801371 4646:-0.1282195 4647:-0.30561686 4648:-0.079040594 4649:-0.046175789 4652:0.051077276 4653:0.090073332 4654:-0.43270862 4655:0.075449638 4656:0.039282471 4657:-0.57445389 4658:0.580042 4659:-0.38791311 4660:0.61645406 4661:0.64286208 4662:-0.15976202 4663:0.1965892 4664:0.31173405 4665:0.12711082 4666:0.053820692 4667:-0.24458937 4668:0.1600921 4669:0.09142144 4670:0.09142144 4671:0.09142144 4672:0.09142144 4673:-0.020882571 4674:-0.17982246 4675:-0.49032786 4676:0.18569943 4677:0.18569943 4678:0.024352793 4679:0.019279389 4680:-0.10544826 4681:-0.18610573 4682:-0.33421537 4683:0.019832196 4684:-0.039755415 4685:0.15064004 4686:-0.03680753 4687:0.045750905 4688:-0.091655336 4689:0.019432375 4690:0.31826764 4691:0.12374593 4692:0.12374593 4693:-0.1607144 4694:-0.37066257 4695:-0.48429829 4696:0.52976263 4697:-0.015588403 4698:-0.15855263 4699:0.017893285 4700:-0.015588403 4701:0.037537698 4702:0.33529732 4703:-0.015588403 4704:-0.031176805 4705:-0.23721747 4706:-0.14936447 4707:-0.11611248 4708:0.028770173 4709:0.0012905215 4710:0.2546016 4711:0.2903161 4712:0.001352116 4713:0.001352116 4714:0.26044059 4715:0.15722908 4716:-0.45255885 4717:-0.55629385 4718:0.17577145 4719:0.17577145 4720:0.10414179 4721:0.17577145 4722:0.032159548 4723:0.02754583 4724:-0.027772067 4725:-0.027772067 4726:-0.027772067 4727:0.32763436 4728:-0.027772067 4729:0.091082595 4730:-0.027772067 4731:-0.26403329 4732:-0.015675517 4735:-0.1194386 4736:-0.015675517 4739:1.2249746 4740:-0.5976975 4741:0.69907784 4742:0.28166762 4743:-0.33187875 4744:-0.35986286 4745:0.18100107 4746:-0.29126367 4747:-0.0018192254 4748:-0.29126367 4749:-0.025252346 4750:0.61397505 4751:0.22927253 4752:-0.025252346 4753:-0.025252346 4754:-0.41108847 4758:-0.2167574 4759:0.055556633 4760:-0.074933998 4761:-0.1957473 4762:-0.1957473 4763:0.0058873594 4764:-0.22439687 4765:0.28534654 4766:-0.18480721 4767:-0.24140865 4768:-0.24140865 4769:-0.35987958 4770:0.39943567 4771:0.39943567 4772:-0.096152991 4773:0.14276117 4774:-0.21321613 4775:-0.46187863 4776:-0.0061626197 4777:-0.0061626197 4778:-0.0061626197 4779:-0.0061626197 4780:0.24012811 4781:0.34277964 4782:-0.20558362 4783:0.51251346 4784:-0.0061626197 4785:-0.0061626197 4786:0.34859967 4787:0.027319066 4788:0.34859967 4789:-0.11997578 4790:0.20548438 4791:0.21505214 4792:0.17178677 4794:-0.086757421 4795:0.21688025 4796:-0.053050138 4797:-0.28296721 4798:0.040419519 4799:0.57400554 4800:0.19918171 4801:0.0087059783 4802:-0.5557428 4803:0.034504764 4804:0.034504764 4805:0.034504764 4806:0.034504764 4807:-0.14999928 4808:0.097449504 4809:0.25924322 4810:0.097449504 4811:0.097449504 4812:-0.25075042 4813:-0.41181961 4814:0.20105153 4815:0.26039651 4816:0.20105153 4817:-0.31204477 4818:0.1327824 4819:-0.16729465 4820:-0.23255385 4821:-0.41219494 4822:-0.31395388 4823:-0.43148255 4824:-0.43148255 4825:0.14033303 4826:0.14033303 4827:0.14033303 4828:-0.12079582 4829:0.01426054 4830:0.01426054 4831:0.01426054 4832:-0.053625159 4833:0.01426054 4834:0.29051337 4835:0.01426054 4836:0.59165788 4837:0.10406147 4838:0.01426054 4839:0.01426054 4840:-0.12527512 4841:0.01426054 4842:-0.13653994 4843:-0.0097797569 4844:0.094275907 4845:0.094275907 4846:0.094275907 4847:0.094275907 4848:0.094275907 4849:-0.0046133837 4850:0.048585307 4851:0.094275907 4852:-0.019313516 4853:0.25975129 4854:0.36952594 4855:0.1421309 4856:0.79070371 4857:0.29486993 4858:0.10189028 4859:0.043509211 4860:-0.77835953 4861:0.043509211 4862:-0.48954827 4863:0.043509211 4864:0.14145443 4865:0.043509211 4866:-0.31627834 4867:-0.31627834 4868:-0.31627834 4869:-0.31627834 4870:-0.11159389 4871:0.43274197 4872:0.13651732 4873:-0.1095604 4874:0.093432888 4875:-0.43865579 4876:-0.11159389 4877:0.090112813 4878:-0.0068068928 4879:-0.0068068928 4880:-0.0068068928 4881:0.077414282 4882:0.86815232 4883:0.053855538 4884:0.053855538 4885:0.053855538 4886:-0.2113149 4887:0.053855538 4888:0.053855538 4889:0.044797957 4890:-0.034593578 4891:-0.034593578 4892:0.26853013 4893:-0.11381316 4894:-0.11381316 4895:0.2358661 4896:0.12209327 4897:0.12209327 4898:0.38267028 4899:-0.094698682 4900:0.090175338 4901:0.27684069 4902:0.16955136 4903:0.47040591 4904:-0.072825268 4905:-0.0039971424 4906:0.4785291 4907:0.23673438 4908:0.5391134 4909:0.48928875 4910:0.091187917 4911:0.10965338 4912:0.3119899 4913:-0.15292202 4914:0.46705577 4915:0.10965338 4916:-0.076499172 4917:0.15269279 4918:0.42549643 4919:-0.22193933 4920:-0.33803186 4921:-0.33803186 4922:-0.13247631 4923:-0.33803186 4924:-0.4930169 4925:-0.22439687 4926:-0.013237817 4927:-0.013237817 4928:0.1650569 4929:0.1650569 4930:0.1650569 4931:0.4135983 4932:0.15122056 4933:0.19895469 4934:-0.061885193 4935:0.15122056 4936:0.15122056 4937:0.15122056 4938:0.053123582 4939:-0.094059266 4940:0.15122056 4941:0.34374601 4942:0.15122056 4943:0.66288465 4944:0.15122056 4945:0.17575902 4946:0.17575902 4947:0.17575902 4948:0.17575902 4949:0.17575902 4950:-0.1802102 4951:0.17575902 4952:0.41422588 4953:-0.38919687 4954:-0.19704589 4959:-0.059924327 4960:0.75645584 4961:-0.39419115 4963:0.18705076 4964:-0.43536466 4965:0.047402389 4966:0.21556316 4967:0.31591013 4968:0.042784862 4969:0.042784862 4970:0.085569724 4971:0.92017561 4972:0.042784862 4973:0.13082065 4974:0.042784862 4975:-0.13090515 4976:0.042784862 4977:-0.057570633 4978:-0.45665687 4979:0.15963557 4980:-0.18143851 4981:-0.35334894 4982:-0.21073115 4983:0.0028779912 4984:0.020019336 4985:-0.12337233 4986:0.0028779912 4987:-0.2836144 4988:0.0028779912 4989:0.29249468 4990:0.0028779912 4991:0.0028779912 4992:0.0028779912 4993:0.1520088 4994:0.0028779912 4995:0.0028779912 4996:0.56541473 4997:0.46466815 4998:0.37624168 4999:0.54881334 5002:-0.14875688 5004:-0.06875328 5005:0.16705853 5006:-0.028562181 5007:-0.04903904 5008:-0.028562181 5009:0.00037631346 5010:-0.028562181 5011:0.047000282 5012:0.21272324 5013:-0.028562181 5014:-0.098998852 5015:-0.21148191 5016:-0.080898702 5017:-0.21148191 5018:0.24738154 5019:0.59261203 5020:0.32212979 5021:0.32212979 5022:0.19421838 5023:-0.17145716 5024:-0.038292959 5025:0.040646151 5026:0.14872156 5027:-0.47857681 5028:0.20398003 5029:0.040646151 5030:0.040646151 5031:0.040646151 5032:0.20329282 5033:-0.22293137 5034:-0.26675296 5035:-0.19450498 5036:-0.47673121 5037:0.11225095 5038:-0.3775242 5039:-0.29731789 5040:0.25207832 5041:0.17625214 5042:-0.32851371 5043:0.24832284 5044:0.23081769 5045:-0.39151582 5046:-0.39151582 5047:-0.39151582 5048:-0.39151582 5049:-0.061333768 5050:-0.061333768 5051:-0.061333768 5052:-0.061333768 5053:0.081343725 5054:0.08308892 5055:0.08308892 5056:0.15029913 5057:0.14846662 5058:0.05195076 5059:0.05195076 5060:0.47979441 5061:0.47979441 5062:0.18952715 5063:-0.16882746 5064:-0.053267784 5065:-0.053267784 5066:-0.59979433 5067:-0.26357841 5068:-0.21431491 5069:-0.41947964 5070:-0.22170863 5071:-0.42616808 5072:-0.26357841 5073:-0.26357841 5074:0.085520893 5075:0.41072482 5076:0.085520893 5077:0.085520893 5078:0.085520893 5079:-0.71561819 5080:-0.40596646 5081:0.1918568 5082:0.21984091 5083:0.1918568 5084:0.1918568 5085:0.33774531 5086:0.1918568 5087:0.1918568 5088:0.1918568 5089:0.39510077 5090:0.354826 5091:-0.15406688 5092:0.021570625 5093:0.021570625 5094:-0.025171293 5095:0.24262206 5096:0.090613656 5097:-0.14480378 5098:0.24262206 5099:0.63775569 5100:0.24262206 5101:0.43501183 5102:0.35530216 5103:0.10520488 5104:0.10520488 5105:0.44268805 5106:0.10520488 5107:-0.027495217 5108:-0.027495217 5109:-0.027495217 5110:-0.15287325 5111:-0.027495217 5112:0.13577928 5113:0.35119495 5114:0.013800202 5115:-0.07492394 5116:0.038132008 5117:-0.093606472 5118:-0.036210492 5119:-0.036210492 5120:0.335253 5121:-0.49583378 5122:1.0583117 5123:0.20623802 5124:0.20623802 5125:0.20623802 5126:-0.011329728 5127:-0.33809805 5129:0.0089816516 5130:-0.16541566 5131:-0.34400374 5132:0.10096023 5133:0.81563777 5140:-0.30333453 5141:-0.41172263 5142:-0.58267558 5143:-0.071592368 5144:0.20365767 5145:0.85269278 5146:-0.03916784 5147:0.44109648 5148:0.1466645 5149:-0.091110125 5150:0.034682762 5151:0.034682762 5152:0.31976157 5153:0.31976157 5154:0.31976157 5155:0.024547674 5156:0.024547674 5160:0.15177366 5163:0.62849224 5167:0.8288973 5168:-0.092514701 5169:0.011178723 5170:-0.092514701 5171:-0.04128724 5172:0.10054477 5173:-0.23900925 5174:-0.13529478 5175:-0.10694882 5176:0.033514924 5177:-0.0056301164 5178:0.085479774 5179:0.024183469 5180:0.13366266 5181:0.024183469 5182:0.024183469 5183:0.024183469 5184:0.024183469 5185:0.024183469 5186:0.11420768 5187:0.11420768 5188:0.11420768 5189:-0.14478973 5190:0.35593876 5191:0.11420768 5192:-0.18758613 5193:0.11420768 5194:0.017365843 5195:0.11420768 5196:0.50616896 5197:0.14102367 5198:0.011161382 5199:0.011688038 5200:0.33123192 5201:-0.17916124 5202:0.10591453 5204:0.10732426 5205:0.39687929 5210:-0.18590258 5211:-0.18590258 5212:0.014947059 5213:-0.0028676547 5214:0.40579426 5215:-0.0028676547 5216:-0.0028676547 5219:0.065878764 5220:0.04197726 5221:0.065878764 5222:0.39071524 5223:0.210308 5224:0.210308 5225:0.210308 5226:0.046515707 5227:-0.10315425 5228:0.20265251 5229:0.02864429 5230:0.02864429 5231:-0.43919906 5232:0.02864429 5233:0.042284254 5234:0.045532692 5235:-0.028772017 5236:-0.080927484 5237:0.075258665 5238:0.14184998 5239:0.25760975 5240:0.054868206 5241:0.16969989 5242:0.15053718 5243:0.14913081 5244:0.14913081 5245:-0.090969004 5246:0.14913081 5247:0.14913081 5248:0.14913081 5249:0.14913081 5250:0.14913081 5251:0.14913081 5252:-0.17711703 5253:0.3054364 5254:-0.17711703 5255:-0.17711703 5256:0.95880508 5257:0.21115026 5258:0.75971371 5259:-0.19126317 5260:0.37654519 5261:0.37654519 5262:0.75301874 5263:0.091900364 5264:0.5003494 5265:-0.24799494 5266:-0.092476055 5267:-0.092476055 5268:-0.092476055 5269:-0.013467296 5270:-0.013467296 5271:0.012084069 5272:0.16879626 5273:0.16879626 5274:0.16879626 5275:-0.28649241 5276:-0.27617919 5277:-0.27205405 5278:-0.1371385 5279:0.1697554 5280:0.23365797 5281:-0.29839486 5282:-0.39475965 5283:0.16416627 5284:-0.29839486 5285:-0.29839486 5286:-0.49065027 5287:-0.49065027 5288:-0.055036444 5289:0.086845264 5290:0.061903451 5291:0.061903451 5292:0.061903451 5293:-0.096224815 5294:0.061903451 5295:0.0045496882 5296:0.077887014 5297:-0.38702127 5298:-0.038910069 5299:0.21467118 5300:0.220254 5301:-0.63775915 5302:-0.023972278 5303:0.14797553 5304:-0.054428764 5305:-0.30106649 5306:0.12317886 5307:0.33086127 5308:0.25016981 5309:0.93985963 5315:0.029487714 5316:0.40829968 5319:-0.050613184 5320:0.050347045 5321:-0.050613184 5322:-0.050613184 5323:-0.07991042 5324:-0.39788494 5325:-0.078100637 5326:-0.07252562 5327:-0.3634862 5328:-0.3634862 5329:-0.1633009 5330:-0.24097642 5331:-0.3634862 5332:-0.57511854 5333:0.21384479 5334:0.21384479 5335:-0.22809179 5336:0.21384479 5337:0.21384479 5338:0.21384479 5339:0.13884008 5340:0.27768016 5341:0.13884008 5342:0.13884008 5343:0.13884008 5344:0.10871197 5345:-0.011135818 5346:0.13884008 5347:-0.04291084 5348:0.13884008 5349:-0.14369129 5350:0.10876211 5351:0.10876211 5352:0.10876211 5353:0.38933283 5354:0.38933283 5355:-0.2892817 5356:0.13514766 5357:0.023699576 5358:0.023699576 5359:0.023699576 5360:-0.59006107 5361:-0.30087647 5362:-0.12111054 5363:0.2481112 5364:0.076300628 5365:0.61619663 5366:0.33468297 5367:0.2002508 5368:-0.65492523 5369:-0.30552033 5370:-0.35230923 5371:-0.52391434 5372:-0.30552033 5373:0.099699065 5374:0.099699065 5376:0.086166501 5377:-0.15018123 5378:0.31469366 5379:0.036498651 5380:-0.15018123 5381:0.011654499 5382:0.23059742 5383:0.18961371 5384:0.37407622 5385:0.32164496 5386:0.076024279 5387:0.18961371 5388:0.18961371 5389:0.18961371 5390:0.21889587 5391:1.1240703 5392:0.1738445 5393:0.021093704 5394:-0.13830075 5395:0.06769523 5396:0.17319372 5397:0.17319372 5398:0.15817091 5399:0.17319372 5400:-0.058546707 5401:0.17319372 5402:0.17319372 5403:0.17319372 5404:-0.34296882 5405:0.17319372 5406:-0.27116355 5407:-0.39723548 5408:-0.36206633 5409:-0.36206633 5410:0.040860999 5411:-0.20476374 5412:-0.0057497257 5413:-0.0057497257 5414:0.13421418 5415:-0.20129655 5416:-0.22409783 5417:-0.0057497257 5418:-0.0057497257 5419:0.28471562 5420:-0.0057497257 5421:-0.0057497257 5422:-0.0057497257 5423:0.26605165 5424:0.26605165 5425:-0.1886754 5426:-0.1886754 5427:-0.1886754 5428:-0.12935947 5429:-0.30458677 5430:-0.1886754 5431:-0.42717084 5432:-0.19581769 5433:-0.19581769 5434:-0.72919476 5435:-0.30313715 5438:0.27007857 5439:-0.39210597 5440:0.030200178 5441:0.030200178 5442:0.030200178 5443:0.087716863 5444:0.030200178 5445:0.030200178 5446:0.030200178 5447:0.030200178 5448:0.030200178 5449:0.12914689 5450:0.030200178 5451:0.25285718 5452:0.35658017 5453:0.079808995 5456:-0.34656617 5457:-0.19777347 5458:0.17851199 5459:0.17851199 5460:0.17851199 5461:0.095332414 5462:0.12259153 5463:0.17851199 5464:-0.1499759 5465:0.11754029 5466:-0.1499759 5467:-0.1499759 5468:0.73998368 5469:0.42611891 5470:-0.21995704 5471:-0.42886055 5472:0.46946716 5473:-0.26824704 5474:0.16671905 5475:0.16671905 5476:0.29337034 5477:0.16671905 5478:0.067725837 5479:0.26570994 5480:0.15299931 5481:0.1430971 5482:0.1430971 5483:0.1430971 5484:0.1430971 5485:0.1430971 5486:0.1430971 5487:0.1430971 5490:0.42711431 5491:0.46287543 5492:0.38735121 5493:-0.15412821 5494:0.21410066 5495:-0.51253003 5496:0.32076687 5497:0.21332172 5498:-0.097656414 5499:0.22265701 5500:0.12034863 5501:0.28085327 5502:-0.28965765 5503:0.22265701 5504:-0.38891819 5506:-0.20295613 5507:0.38779593 5509:-0.29553035 5510:-0.11223624 5511:0.30603611 5512:0.25915125 5513:0.30603611 5514:0.18348767 5515:0.85733914 5516:0.30515769 5517:-0.19546838 5518:-0.52092266 5519:0.15622416 5520:0.1396459 5521:-0.0069178208 5522:0.32895389 5525:-0.51543862 5532:-0.40154868 5534:-0.015628528 5537:-0.073375136 5538:-0.073375136 5539:0.24711211 5540:0.24711211 5541:0.11229918 5542:0.11229918 5543:0.071309663 5544:0.11229918 5545:0.11229918 5546:0.11229918 5547:0.11331644 5548:0.50377911 5549:0.80623895 5550:0.43308792 5551:0.23645644 5552:0.18444322 5553:0.0622264 5554:-0.022398412 5555:0.10324154 5556:-0.036767934 5557:-0.036767934 5558:0.69999999 5559:-0.036767934 5560:-0.05631781 5561:-0.54160738 5562:0.052924052 5564:-0.16422924 5565:-0.20194291 5566:-0.36007521 5567:0.067233153 5568:-0.040688254 5569:-0.040688254 5570:-0.040688254 5571:-0.040688254 5572:-0.33522946 5573:-0.33522946 5574:-0.33522946 5575:-0.98577678 5576:-0.071255572 5577:0.0083911978 5578:-0.37098676 5579:0.14971416 5580:-0.050580628 5581:-0.050580628 5582:-0.48113793 5583:-0.050580628 5584:-0.067823902 5585:0.091701224 5586:0.93349063 5587:0.26020312 5588:0.083142586 5590:-0.3433269 5591:0.0010593956 5592:-0.032437708 5593:-0.032437708 5594:0.14801353 5595:-0.020892192 5596:-0.020892192 5597:-0.020892192 5598:0.21833129 5599:0.057785384 5600:-0.16879193 5601:0.25277957 5610:-0.47375211 5611:-0.11468169 5612:-0.23994038 5613:-0.19841704 5614:-0.30578816 5615:-0.30578816 5616:-0.36883178 5617:0.0449191 5618:-0.27256665 5619:-0.10330652 5620:0.0449191 5621:-0.093370475 5622:0.1875369 5623:0.17359406 5624:0.69797182 5625:0.29675674 5626:-0.032343373 5627:-0.032343373 5628:-0.11230401 5629:0.23416646 5630:-0.11230401 5631:-0.27558184 5632:0.22831178 5633:-0.11230401 5634:0.11576264 5635:0.43750513 5636:-0.1605459 5637:-0.14273119 5638:-0.1605459 5639:0.16730057 5640:0.20410115 5641:0.11320649 5642:0.17892611 5643:0.11320649 5644:0.11320649 5645:0.11320649 5646:0.17236327 5647:0.59472996 5648:-0.095762521 5649:0.59472996 5650:0.59472996 5651:-0.058821928 5652:0.31582662 5653:0.39404026 5654:-0.061485577 5655:-0.18212657 5656:0.034918915 5657:-0.14298281 5658:-0.086928383 5659:-0.67037427 5660:-0.14298281 5661:-0.14298281 5662:-0.52321696 5663:-0.14298281 5664:-0.12228235 5665:0.20819613 5666:0.20819613 5667:0.20819613 5668:0.20819613 5669:0.20819613 5670:0.20819613 5671:0.090871722 5672:0.090871722 5673:0.090871722 5674:0.090871722 5675:0.14811905 5677:-0.21287285 5678:-0.16669531 5679:-0.16669531 5680:-0.16669531 5681:-0.064337537 5682:-0.064337537 5683:-0.199421 5684:-0.01001453 5685:-0.199421 5686:-0.053680874 5687:-0.199421 5688:-0.199421 5689:-0.25156751 5690:-0.25156751 5691:-0.25156751 5692:0.36713973 5693:-0.36224437 5694:0.3178063 5695:0.3463226 5696:0.39279991 5697:0.010176239 5698:-0.19319156 5699:0.010176239 5700:0.010176239 5701:0.010176239 5702:0.27699599 5703:0.25639907 5704:0.15469985 5706:-0.171088 5708:-0.11966006 5709:-0.01988771 5710:-0.20052564 5711:-0.15202081 5712:0.073013678 5713:0.073013678 5714:-0.16947958 5715:-0.16947958 5716:-0.16947958 5717:0.017814713 5718:-0.0058049927 5719:-0.1165252 5720:0.10223545 5721:0.61608851 5722:0.059315931 5723:0.059315931 5724:0.0048877071 5725:0.059315931 5726:0.059315931 5727:0.059315931 5728:0.40230972 5729:0.065679573 5730:0.059315931 5731:0.028467854 5732:0.028467854 5733:0.080144942 5734:0.028467854 5735:-0.59128088 5736:-0.07795725 5737:0.13387272 5738:-0.07795725 5739:-0.07795725 5740:-0.24543856 5741:0.31400573 5742:0.032607503 5743:0.31400573 5744:0.21205002 5745:0.31400573 5746:0.31400573 5747:0.62578595 5748:0.52100009 5749:0.13194352 5750:0.31400573 5751:0.31400573 5752:0.31400573 5753:0.06423866 5754:0.38636351 5755:-0.13422844 5756:0.11512769 5757:0.06423866 5758:0.06423866 5759:0.06423866 5760:0.06423866 5761:0.017249763 5762:0.062173005 5763:0.085966006 5764:0.05544816 5765:0.23788224 5766:0.3031663 5767:-0.21528745 5768:0.23788224 5769:0.2098424 5770:0.52052224 5771:0.17752165 5772:-0.0034351537 5773:-0.35944012 5774:-0.35944012 5775:-0.35944012 5776:-0.26824161 5777:-0.35944012 5778:0.2677739 5784:-0.34929731 5785:-0.080870479 5786:0.14871146 5787:-0.024223346 5788:-0.024223346 5789:0.16807006 5790:0.057664867 5791:-0.024223346 5792:0.44674179 5793:0.36132181 5794:-0.19757038 5795:-0.39710042 5796:0.010741056 5797:0.0044973739 5798:0.15934871 5799:-0.38928461 5800:0.0044973739 5801:0.064136475 5802:0.0044973739 5803:0.0044973739 5804:0.0044973739 5805:-0.12815295 5806:-0.23123081 5807:-0.116916 5808:-0.116916 5809:0.057604048 5810:0.057604048 5811:-0.10987726 5812:-0.010465058 5813:0.057604048 5814:0.041975524 5815:-0.014138018 5816:-0.19382273 5817:-0.092542544 5818:0.29764378 5819:0.29764378 5820:-0.021962944 5821:0.029026926 5822:0.2352283 5823:0.23592836 5824:0.23592836 5825:0.12867495 5829:-0.58598626 5831:0.21176822 5832:0.21176822 5833:0.36990181 5834:0.072120376 5835:0.27912876 5836:-0.3904627 5837:-0.3904627 5838:-0.3904627 5839:-0.58334881 5840:0.19288401 5841:0.075921595 5842:0.036102083 5843:-0.010661816 5844:0.075921595 5845:0.075921595 5846:0.075921595 5847:-0.1220625 5848:0.075921595 5849:0.075921595 5850:0.075921595 5851:0.45948568 5852:0.5881623 5853:0.23381208 5854:0.31097341 5855:0.31097341 5856:0.52204645 5857:0.31097341 5858:0.2270245 5860:-0.4554725 5861:-0.47842586 5862:-0.47842586 5863:-0.32664675 5864:-0.021598451 5865:-0.39883479 5866:0.002303048 5867:0.12958507 5868:0.12958507 5869:0.12958507 5870:0.095787667 5871:0.12958507 5872:0.54012352 5873:0.54012352 5874:0.54012352 5876:0.33986649 5877:-0.82089895 5878:-0.47482812 5879:-0.47482812 5880:-0.62474024 5881:0.029282158 5882:-0.25379986 5883:-0.081621267 5884:-0.09046597 5885:-0.82345355 5886:-0.40337178 5887:0.33609748 5889:-0.038739014 5890:0.20803986 5891:0.072922677 5892:-0.17827468 5893:-0.033672277 5894:0.0047786105 5895:-0.091791898 5897:0.035650149 5898:-0.46995538 5899:-0.4196364 5900:0.3853229 5901:0.3853229 5902:0.3853229 5903:0.3853229 5904:0.029165734 5905:0.3853229 5907:-0.2012046 5908:-0.39810085 5909:0.050703242 5910:0.32260472 5911:0.14822583 5912:0.095132589 5913:-0.030890709 5914:-0.21789747 5915:-0.29924855 5916:0.053596184 5917:0.32292688 5918:0.24083321 5919:0.24083321 5920:0.65332198 5921:-0.44999537 5922:-0.38171002 5923:-0.38171002 5924:-0.38171002 5925:-0.2819992 5926:-0.16576552 5927:-0.16576552 5928:0.15336239 5931:0.31169382 5932:0.13805632 5933:0.13805632 5934:0.13805632 5935:-0.022080043 5936:0.13805632 5937:0.1737538 5938:-0.23936971 5939:-0.095429525 5940:-0.25479719 5941:0.030202983 5942:-0.053050138 5943:-0.053050138 5944:-0.34710079 5945:-0.34710079 5946:-0.15874645 5947:0.15204662 5948:0.22943091 5949:-0.12401374 5950:-0.21049403 5951:0.075763404 5952:0.11414995 5953:-0.12401374 5954:0.11037302 5955:-0.12401374 5957:-0.73753053 5958:0.093857132 5959:0.25228092 5960:0.093857132 5961:0.031710956 5962:0.11073021 5963:-0.21956825 5964:-0.21956825 5965:-0.25687259 5966:0.36471349 5967:0.17000066 5968:0.037316352 5969:0.037316352 5970:-0.068753637 5971:-0.068753637 5972:-0.068753637 5973:-0.068753637 5974:-0.20178682 5975:0.34833068 5976:-0.05677307 5977:0.033463486 5978:-0.05677307 5979:-0.05677307 5980:-0.05677307 5981:-0.05677307 5982:-0.45163387 5983:-0.45163387 5984:-0.45163387 5985:-0.51255882 5986:-0.17525028 5987:-0.38911778 5988:-0.29414147 5989:-0.3328681 5990:-0.27478114 5991:-0.27478114 5992:-0.27478114 5993:0.38972282 5994:0.25597137 5995:0.11950735 5996:0.10879398 5997:-0.077963173 5998:-0.077963173 5999:-0.077963173 6000:-0.077963173 6001:-0.0098379198 6002:0.14440057 6003:-0.12889116 6004:-0.15600325 6005:-0.0048065241 6006:-0.0048065241 6007:-0.26195061 6008:-0.36823404 6009:0.58186668 6010:0.2041308 6011:0.059441101 6012:-0.020544127 6013:0.13093261 6014:-0.19581503 6015:-0.0046047592 6016:-0.0046047592 6017:0.44375387 6018:0.16497977 6019:0.1086698 6020:0.20365405 6021:0.45467165 6022:0.33067176 6023:0.16808207 6024:0.33067176 6025:0.09159752 6026:0.09159752 6027:-0.8495633 6028:-0.8495633 6029:0.52787286 6030:-0.17062648 6031:0.3230654 6032:0.21233439 6033:0.048615258 6034:0.022435969 6035:0.048615258 6036:-0.089965709 6037:0.23129617 6038:0.098870017 6039:0.082396023 6040:0.082396023 6041:0.082396023 6042:0.39896321 6043:0.027984114 6044:0.37256646 6045:0.46755686 6046:0.027984114 6047:-0.090647958 6048:0.055507299 6049:0.3373363 6050:-0.04362594 6051:-0.04362594 6052:-0.04362594 6053:0.24081317 6054:-0.04362594 6055:-0.55135316 6056:-0.04362594 6057:0.060076781 6058:0.029200196 6059:-0.040061701 6060:-0.12683874 6061:-0.011774484 6062:0.15142484 6063:-0.011774484 6064:-0.011774484 6065:-0.0040723109 6068:0.15530348 6069:-0.13157205 6070:-0.094984248 6071:-0.094984248 6072:0.039413985 6073:0.039413985 6074:0.039413985 6075:0.07882797 6076:-0.0051545366 6077:0.039413985 6078:0.039413985 6079:-0.35799706 6080:-0.44767585 6081:0.21283875 6082:0.20408192 6083:0.20408192 6084:-0.36340302 6085:-0.10184929 6086:-0.10184929 6087:0.38217422 6088:-0.20711352 6089:-0.4248797 6090:-0.38807234 6091:-0.38807234 6092:-0.29155651 6093:-0.27288705 6094:-0.38807234 6095:-0.38807234 6097:-0.098447353 6101:0.069231935 6102:0.23608057 6103:0.41288573 6104:0.31591022 6105:0.23608057 6106:-0.17271231 6107:-0.17271231 6108:0.11050146 6109:0.27130887 6110:0.1858926 6111:0.34432709 6112:0.28820533 6113:-0.40233821 6114:0.11050146 6115:0.11050146 6116:0.67564708 6117:0.42409524 6118:0.11050146 6119:-0.30590868 6120:-0.30590868 6122:-0.049217705 6123:0.18612459 6125:-0.67034078 6126:0.00086458097 6127:0.00086458097 6128:0.00086458097 6129:-0.057360232 6130:-0.27417785 6131:-0.27417785 6132:-0.27417785 6133:-0.31113157 6134:0.018874167 6135:-0.032485642 6137:-0.12243556 6139:0.13837494 6140:0.23183554 6141:-0.64137602 6147:-0.011928838 6150:-0.099117994 6151:-0.23724055 6152:-0.41853607 6153:0.11365604 6154:-0.099117994 6155:-0.16504003 6156:-0.067955226 6157:0.14434804 6158:0.2259426 6159:0.24240704 6160:0.24240704 6161:0.24240704 6162:0.24240704 6163:0.16244838 6164:0.16244838 6165:0.16244838 6166:0.24486238 6167:0.16244838 6169:-0.076684013 6170:-0.21871303 6171:-0.21871303 6172:0.63462079 6173:0.63462079 6174:-0.14318161 6175:-0.52045113 6176:-0.07637009 6177:-0.16165192 6178:-0.085794732 6179:-0.011842132 6180:-0.39509875 6181:-0.13495716 6182:-0.1436968 6183:-0.33943772 6184:-0.38238686 6185:-0.33943772 6186:-0.19862722 6189:-0.23909406 6190:0.34738794 6194:-0.11581652 6197:0.043344326 6198:-0.35352755 6199:0.043344326 6200:0.043344326 6201:0.40835819 6202:0.40835819 6203:0.12210163 6204:0.36118999 6205:-0.25531074 6206:0.57474154 6207:0.29850915 6208:0.16147108 6209:0.071777456 6210:-0.065278552 6211:0.18816999 6212:0.35422379 6213:0.35422379 6214:0.35422379 6215:0.22729038 6216:0.43256813 6217:0.19639361 6218:-0.19687703 6219:0.17560202 6220:-0.037523042 6221:-0.2273096 6222:-0.35444537 6223:0.099699065 6224:-0.37419513 6225:-0.16327782 6226:0.18256833 6227:-0.16327782 6228:0.066877693 6229:-0.40333024 6230:0.14653899 6231:0.14653899 6232:0.14653899 6233:0.37837452 6234:0.096954234 6235:0.14653899 6236:0.088035777 6237:0.021746844 6238:-0.087653972 6239:-0.39093658 6240:-0.036076318 6241:-0.036076318 6242:-0.036076318 6243:-0.036076318 6244:-0.36805403 6245:-0.18322739 6246:-0.089491047 6247:-0.18322739 6248:-0.18322739 6249:0.13981363 6250:-0.054704275 6251:-0.26862004 6252:-0.49045941 6255:0.60370141 6260:-0.13774231 6261:0.16234602 6262:0.21836129 6263:0.21836129 6264:0.042327911 6265:-0.053420108 6266:-0.2456158 6267:-0.053420108 6268:0.081894152 6269:-0.053420108 6270:-0.053420108 6271:0.1742394 6272:0.53675812 6273:0.49325064 6274:0.12998809 6275:0.37628782 6276:0.10054685 6277:0.090175338 6278:-0.029253293 6279:-0.42344546 6280:0.090175338 6281:0.1651859 6282:0.10915145 6283:0.20183703 6284:0.22794308 6285:0.035615131 6286:-0.27477959 6287:-0.28589448 6288:-0.0066694864 6289:-0.036367029 6290:-0.036367029 6291:-0.036367029 6292:-0.036367029 6293:-0.036367029 6294:-0.036367029 6295:-0.036367029 6296:-0.036367029 6298:-0.09674944 6299:-0.09674944 6300:-0.09674944 6301:-0.09674944 6303:-0.38325456 6304:-0.2553893 6305:-0.63190526 6306:0.17217858 6307:0.17217858 6308:-0.13033941 6309:0.17217858 6310:0.17217858 6311:0.17217858 6312:0.030065026 6313:0.36560345 6317:0.053989679 6318:0.12266033 6319:0.17967311 6320:0.066702552 6321:0.053989679 6322:0.053989679 6323:-0.11899517 6324:0.48083708 6325:0.39935598 6326:0.38686073 6327:-0.032043267 6328:0.19445072 6329:0.40029493 