SVM-light Version V6.20
0 # kernel type
3 # kernel parameter -d 
1 # kernel parameter -g 
1 # kernel parameter -s 
1 # kernel parameter -r 
empty# kernel parameter -u 
11718 # highest feature index 
128 # number of training documents 
2 # number of support vectors plus 1 
0 # threshold b, each following line is a SV (starting with alpha*y)
1 1:-0.046958763 2:-0.22157875 3:-0.28350332 4:0.18365897 5:-0.007418924 6:0.22762349 7:-0.77628684 8:-0.096043356 9:-0.30070022 10:-0.35614213 11:0.36641747 12:-0.13410223 13:0.73857707 14:-0.05621057 15:0.11757031 16:-0.08018747 17:-0.026718905 18:0.58520156 20:0.94151258 22:0.056574129 23:-0.11444616 24:0.26170436 25:-0.36867145 26:-0.16657214 27:-0.1459109 28:0.508178 29:-0.8835941 30:-0.2739993 31:-0.36867145 32:-0.36867145 33:-0.055488814 34:0.42147753 35:1.0215248 36:0.97819161 37:-0.2684786 38:-0.61383224 39:-0.04733162 40:0.032702029 41:0.026356203 42:-0.51880562 43:-0.39075395 44:0.15969074 45:-1.0959281 46:0.64534366 47:0.088844322 48:-0.66625237 49:0.43852809 50:-0.58481073 51:0.21218894 52:-0.91384792 53:-0.1505328 54:-0.58481073 55:0.67742705 56:-0.66931415 57:0.29413232 58:0.084106125 59:-0.029890953 60:-0.17892852 61:-0.28803733 62:-0.040294666 63:-0.47880751 64:-0.87869698 65:-0.61950284 66:0.0071097347 67:-0.91708344 68:0.65838176 69:-0.23972449 70:0.5892635 71:-0.42725295 72:1.079254 73:0.82551193 74:0.11460471 75:-0.21270856 76:0.54001743 77:0.82551193 78:-0.14711934 79:-0.54064453 80:-0.047889952 81:0.80490428 82:0.46857509 83:0.011093149 84:0.011093149 85:-0.090119198 86:0.17015478 87:-0.39204687 88:0.1041025 89:0.24717134 90:0.12043016 91:0.45728707 92:0.56665927 93:-0.20757383 94:-0.19977872 95:0.73471606 96:0.24917936 97:-0.099263608 98:-0.35664308 99:-0.35664308 100:-0.20264678 101:0.57920802 102:0.44578227 103:-0.65251577 104:0.90448987 105:-0.49470237 106:0.25726604 107:0.66988164 108:-0.026329286 109:0.88492554 110:0.589275 111:-0.0078589888 112:-0.019457472 113:-0.28022075 115:-0.081845127 117:-0.076725528 118:0.077764168 119:0.27288106 120:0.99258202 121:0.88765407 122:0.76849747 123:-0.27128878 124:0.21488133 125:-0.97523689 126:0.20471139 127:-0.55904633 128:0.5262633 129:0.22318073 130:0.086322054 131:0.66260976 132:-0.0033005055 133:0.77406627 134:-0.64241511 135:0.37886056 136:0.38507193 137:0.19752151 138:0.94927025 139:1.2553542 140:0.38608012 141:0.23675743 142:0.16002582 143:-0.33693498 144:-0.46085119 145:0.37886056 146:0.37886056 147:0.034968145 148:0.34534243 149:-0.40807116 150:0.20091178 151:0.3057237 152:-0.1123307 153:-0.49059665 154:-0.26657772 155:-0.38753256 156:0.33442846 157:-0.39608163 158:-0.31927356 159:0.39812154 160:-0.64842904 161:-0.48366454 162:0.74887764 163:-0.26410937 164:-0.30699015 165:-0.2433074 166:0.57428569 167:-0.13703544 168:0.28966188 169:1.3226467 170:0.20496501 171:0.52825445 174:-0.20873082 175:0.21518032 177:-0.10157424 179:-0.48078224 180:-0.39223278 181:-0.31144828 183:-0.91728413 184:-0.68269861 185:-0.031509031 186:0.11835298 187:0.042942725 188:0.62016159 189:0.28963849 190:0.35478193 191:-0.20524213 192:-0.20524213 193:-0.15206517 194:0.71361595 195:-0.087822802 196:0.40965444 197:0.37294728 198:0.29144675 199:0.35360521 200:1.3139538 201:0.2686207 202:0.95398092 203:1.2277706 204:-0.78834587 205:0.60738331 206:0.14422826 207:0.10095955 208:0.62075245 209:0.015775686 210:-0.38860375 211:0.37566951 212:-0.28191325 213:0.72044772 214:-0.015935425 215:0.1758049 216:0.087265536 217:1.669659 218:-0.25700021 219:0.35108402 220:-0.28647229 221:0.062183335 222:-0.43963307 223:-0.25700021 224:0.13414858 225:-0.25700021 226:0.86679012 227:-0.41720155 228:0.11083892 229:-0.2661007 230:-0.51286584 231:-0.25700021 232:-1.3754257 233:0.088164099 234:-2.2779686 235:0.26760462 236:0.086358994 237:-0.15748872 238:-0.54474688 239:-1.0646983 240:-0.27344212 241:0.071782097 242:-0.95043898 243:-0.013396431 244:-0.26299492 245:-0.3885473 246:-0.11849406 247:-0.0077012056 248:-0.26299492 249:0.23330519 250:0.32773569 251:-0.26299492 252:-0.26299492 253:0.83377916 254:0.45321539 255:-0.52372164 256:-1.1620039 257:0.29266775 258:0.093130425 259:0.1513298 260:-2.0761416 261:-0.60396308 262:0.1097201 263:-0.20574421 264:0.038588274 265:-1.1107138 266:-0.36845306 267:0.61671001 268:0.11083905 269:-0.26185822 270:-0.38446185 271:-0.037903447 272:0.36118808 273:-0.18954609 274:0.21608233 275:-0.0022757102 276:-0.42703351 277:0.15750106 278:0.26110518 279:0.25499335 280:0.5692786 281:-0.44594166 282:0.20872344 283:0.049277157 284:-0.26185822 285:-0.26185822 286:-0.43701923 287:-0.26185822 288:-0.26185822 289:-0.82803261 290:1.6234295 291:0.33390012 292:0.66275388 293:-0.16207485 294:-0.28670496 295:-0.26185822 296:-0.26185822 297:0.44390291 298:0.52732968 299:0.049832553 300:0.13792206 301:0.27263111 302:-0.13493502 303:0.11707968 304:-0.75243998 305:-0.085488454 306:-0.71605474 307:0.76011586 308:0.19852132 309:0.35804901 310:-0.22955 311:-0.26904708 312:-0.41596591 314:0.34772271 315:0.70552158 316:0.23879336 317:-0.18038082 318:-0.78825444 319:-0.44617686 320:-0.86762786 321:-0.015101898 322:-0.39156038 323:-0.51237088 324:0.62975627 325:-0.077324964 326:-0.060573876 327:1.2453636 328:-0.57533318 329:-0.077324964 330:0.3165476 331:-0.077324964 332:-0.57533318 333:-0.19606519 334:-0.12593867 335:-0.10264504 336:-0.62337601 337:0.21927804 338:-0.31350988 339:-0.28490481 340:-0.050728112 341:-0.17084786 342:0.36640289 343:0.19051604 344:0.81192851 345:-0.72642869 346:0.36640289 347:0.36640289 348:-0.38138413 349:-0.14487404 350:0.40634957 351:-0.36303404 352:-0.38138413 353:0.75897717 354:-0.38138413 355:-0.3179566 356:-0.53312147 357:0.43778956 358:-0.089655116 359:0.82727271 360:0.0052578445 361:-0.34305075 362:-0.63687909 363:-0.84089673 364:0.56622308 365:1.1498946 366:-0.38790208 367:-0.45310369 368:0.10680332 369:0.136264 370:-0.23426403 371:0.26592454 372:-0.40027812 373:-0.1611879 374:0.00061296741 375:-0.79788691 376:0.53709453 377:0.19665776 378:-0.39749947 379:0.018992515 380:1.0378548 381:0.31849366 382:0.40359581 383:0.65397459 384:0.40359581 385:-0.42166618 386:0.36136118 387:-0.72126979 388:-0.01882573 389:-0.4687534 390:-0.01882573 391:-0.01882573 392:0.70009935 393:-0.05550117 394:-0.01882573 395:-0.41728953 396:0.60969222 397:-0.1888248 398:0.1679482 399:-0.3409009 400:-0.22824465 401:-0.26790774 402:-0.28503254 403:-0.1888248 404:-0.31000179 405:-0.096896097 406:-0.23235938 407:-0.31813955 408:0.85174918 409:-0.20262538 410:-0.037931215 411:-0.104431 412:0.4826709 413:-0.1888248 414:0.18005253 415:-0.38946775 416:0.17736186 417:-0.29030395 418:-0.034271579 419:0.20202917 420:0.071781851 421:-0.034271579 422:-0.64238405 423:-0.5417878 424:-0.064810365 425:-0.26082614 426:-0.22865123 427:0.3960478 428:0.30953929 429:1.2265377 430:-0.66881907 431:-0.55416667 432:0.43086138 433:-0.034271579 434:0.67211956 435:-0.034271579 436:-0.034271579 437:-0.27489328 438:-0.64938909 439:-0.13792028 440:-0.19751781 441:0.22893763 442:-0.73677772 443:-1.0439144 444:-0.059164822 445:-0.32247815 446:0.069008708 447:-0.28514555 448:-0.90876162 449:-0.079724871 450:0.27841178 451:-0.33311093 452:-0.40187648 453:-0.28514555 454:0.020276438 455:-0.071749002 456:0.28926465 457:-0.50933558 458:-0.096948102 460:0.10155866 461:0.89874792 462:-0.024762508 463:-0.16500804 464:-0.93646508 465:0.093538642 466:0.47794056 467:0.42186439 468:-0.28546751 469:0.55164403 470:0.51919979 471:0.4347657 472:0.35142952 473:0.47794056 474:0.03266063 475:1.0445222 476:-0.38966262 477:-0.89758611 478:0.86636633 479:0.25303373 480:0.21073116 481:0.42751098 482:1.6467659 483:0.67079479 484:0.72695327 485:0.098204605 486:-0.72950971 487:1.6467659 488:0.36348397 489:0.0036380978 490:0.32104692 491:0.048370551 492:-0.35206723 493:-0.049813651 494:-0.88033158 495:-0.38758916 496:-0.19796753 497:-0.18579073 498:-0.39512831 499:-0.24276908 500:-0.3453615 501:0.32093969 502:0.023142558 503:0.78456903 504:-0.30734777 505:-0.25382742 506:0.24471731 507:-0.39512831 508:-0.027698908 509:-0.30328915 510:1.0412103 511:0.92428344 512:-1.1088455 513:-0.93094909 514:-0.15733695 515:-0.30606285 516:1.0869513 517:-0.33031297 518:-0.32366857 519:0.21743962 520:-0.27957776 521:-0.40699738 522:-0.62678415 523:-0.24871503 524:0.28310686 525:-0.47771835 526:0.2546573 527:0.88455737 528:0.21933855 529:0.42802921 530:-0.49800819 531:-0.49800819 532:-0.65736401 533:-0.10148671 534:-0.26874828 535:-0.252693 536:1.0392911 537:-0.055311292 538:0.05029878 539:-0.81256479 540:-0.030696204 541:0.27464932 542:0.45765871 543:1.1720114 544:0.207764 545:0.95873487 546:0.72339964 547:0.11006214 548:-0.66475648 549:0.059852708 550:0.29933825 551:-0.26507896 552:-0.034908257 553:0.13530111 554:-0.12915911 555:-1.162178 556:0.42983428 557:-1.0484368 558:0.89590329 559:-0.76474565 560:-0.52344096 561:0.38422939 562:-0.9140026 563:0.73372197 564:0.29988143 565:-0.64166069 566:-0.42486358 567:0.33900413 568:0.46022955 569:-0.45699576 570:-0.18625478 571:0.26045254 573:-0.57256448 574:0.12768996 575:0.4603276 576:0.9623996 577:0.3204855 578:0.90182263 579:1.0542983 583:-0.51851201 585:-0.25477961 586:0.23703578 589:0.56868064 590:-1.5317765 591:-0.55915785 592:0.70822573 593:0.20851614 594:-0.64693838 595:0.027570426 596:-0.64693838 597:-0.75518876 598:1.2721268 599:-0.75518876 600:-0.75518876 601:0.18803437 602:0.60715401 603:-0.90722352 605:0.1172903 606:0.98982167 607:-0.24772871 608:0.53444743 609:-0.4309195 610:-0.010723931 611:0.31938297 612:0.10981359 613:-0.87752122 614:0.66977221 615:0.085181586 616:-0.42391363 617:0.49706838 618:-0.044358615 619:0.10913168 620:-0.25130829 621:0.94553369 622:-0.881989 623:0.0045150118 624:0.55205739 625:0.067682326 626:0.2875191 627:-0.34853533 628:-0.19499144 629:-1.016816 630:-0.34363341 631:0.11603517 632:-0.16741654 633:-0.26005837 634:-0.34853533 635:-0.23497331 636:-0.34853533 637:0.49401841 638:-0.30514702 639:0.29554841 640:0.59154505 641:0.53561443 642:0.21395478 643:0.44285864 644:1.3472095 645:0.61607009 646:0.68223387 647:-0.47064465 648:-0.23291306 649:0.0018360838 650:0.9193697 651:-0.15126507 652:0.2435991 653:-0.18945654 654:0.15080382 655:0.15080382 656:0.96526057 657:-0.39601111 658:0.48812756 659:-0.23004971 660:0.01537636 661:-0.00087230583 662:-1.0202005 663:-0.5689652 664:-0.47906655 665:0.82575464 666:0.45019153 667:-0.55416715 668:-0.25590438 669:-0.24020961 670:-0.15702723 671:0.33245572 672:0.00038925346 673:0.15684937 674:-0.66631854 675:-0.43704519 676:0.65759373 677:0.47837225 678:0.22524497 679:-0.061112102 680:0.25821194 681:1.6093878 682:-0.023182632 683:0.28085053 684:0.41573867 685:-0.26284355 686:-0.50518686 687:-0.11524994 688:0.10590371 689:-0.28424472 690:-0.67362398 691:0.043845732 692:0.2487292 693:-0.023182632 694:-0.80548924 695:-0.42417014 696:-0.023182632 697:-0.20752819 698:-0.20752819 699:-0.20752819 700:-0.20752819 701:-0.20752819 702:0.31128725 703:-0.003076894 704:0.35845941 705:-0.20752819 706:-0.20752819 707:-0.0078773275 708:-0.51613301 709:-0.27722904 710:0.73053211 711:-1.7827535 712:-0.12597857 713:-0.29506639 714:0.036574285 715:-0.76324517 716:-1.0067407 717:0.053769443 718:0.29376045 719:-0.045982625 720:0.053769443 721:0.3623994 722:-0.0024433883 723:0.053769443 724:-0.27883494 725:0.48670933 726:0.023204565 727:-0.64766318 728:-1.2937279 729:0.78438598 730:-1.3054572 731:-0.20803307 732:0.33249071 733:0.82508755 734:0.35782537 735:0.8271513 736:0.82508755 737:0.34511009 738:0.65368563 739:0.15633973 740:-0.36030257 741:0.48363772 742:0.2778095 743:-0.05982326 744:0.04052389 745:0.095324956 746:1.1064632 747:0.20025 748:0.1239125 749:-0.19282782 750:0.13873437 751:-0.057076175 752:-0.21883154 753:-1.0835402 754:-1.1045722 755:-0.72621799 756:-0.44824436 757:0.23369332 758:-0.28422776 759:0.30622002 760:-0.19713211 761:-0.28422776 762:-0.04149795 763:-0.28422776 764:-0.28422776 765:0.34688357 766:-0.28422776 767:-0.028720696 768:0.51197845 769:-0.67417014 770:-0.3105118 771:0.43047127 772:0.72293943 773:0.24978425 774:-0.28422776 775:-0.18424219 776:-0.28422776 777:-0.28422776 778:-0.95704126 779:-0.073124237 780:-0.74096334 781:-0.49019501 782:0.54033238 783:0.46088195 784:0.54033238 785:-0.088322237 786:0.34115893 787:-0.50345677 788:0.048175041 789:-0.24106792 790:-0.48185885 791:0.075967751 792:-0.341813 793:0.61683166 794:0.15499049 795:-0.43254903 796:0.1820351 797:0.40514761 798:0.34418529 799:0.089937948 800:0.34648409 801:-0.4943375 802:-1.0208143 803:-0.4943375 804:-0.013375275 805:0.1351568 806:0.1351568 807:0.1351568 808:0.14028168 809:0.1351568 810:0.43062294 811:0.051545411 812:0.1351568 813:-0.26546571 814:0.61809462 815:-0.13067065 816:-0.13067065 817:-0.58638579 818:-0.13067065 819:-0.01300479 820:0.052283153 821:-0.27791244 822:0.0054937345 823:-0.13067065 824:-0.13067065 825:-0.13067065 826:-0.066831127 827:-0.14582302 828:-0.17862791 829:0.043985546 830:-0.21199881 831:-0.49031448 832:-0.67626154 833:1.206898 834:-0.28505293 835:0.24672151 836:-0.56305033 837:-0.026131881 838:-1.3253456 839:0.46607631 840:0.67042458 841:0.55818188 842:0.12470624 843:-0.19864546 844:0.032055717 845:0.18841581 846:-0.097551331 847:-0.021224456 848:0.91770303 849:-0.0045602163 850:-0.0045602163 851:-0.25148419 852:-0.1523407 853:-0.242404 854:-0.5105511 855:-0.0048079514 856:0.21997207 857:0.2966958 858:0.82070541 859:0.10318552 860:0.2221064 861:-0.034751732 862:1.7649138 863:0.23516779 864:0.25112411 865:0.46164855 866:0.2966958 867:0.2966958 868:0.11510691 869:-0.82284486 870:-0.68127334 871:-0.82284486 872:0.053889439 873:0.43213767 874:-0.30748042 875:-0.1579771 876:0.3276228 877:-0.24926816 878:0.43213767 879:0.43213767 880:-0.42704085 881:0.43213767 882:0.88801706 883:0.30432957 884:-0.37766913 885:0.27321175 886:0.30432957 887:-0.1234699 888:-0.1234699 889:0.86751431 890:-0.32232141 891:-0.4894633 892:1.1779637 893:-0.31525281 894:-0.028036531 895:-1.2025901 896:-0.4894633 897:-0.33200938 898:0.08996103 899:-0.29629311 900:-0.11536501 901:0.20277292 902:0.10858977 903:2.6403215 904:-0.64802265 905:-0.4589206 906:-1.1629425 907:-0.52095693 908:0.26974237 909:-0.0020012783 910:-0.75892121 911:-0.84010637 912:0.78687525 913:-0.14759852 914:-0.14759852 915:0.18561822 916:-0.80563396 917:0.88669705 918:0.41840205 919:0.18561822 920:-0.2041271 921:-0.10206355 922:-0.10206355 923:-0.12077374 924:-0.30651569 925:-0.10206355 926:-0.33529311 927:-0.096324906 928:-0.10206355 929:-0.10206355 930:0.46722746 931:-0.25170878 932:-0.10206355 933:-0.10206355 934:-0.10206355 935:-0.23419809 936:0.86233723 937:-0.98897952 938:-0.10206355 939:-0.10206355 940:-0.10206355 941:0.31049857 942:-0.10206355 943:-0.10206355 944:-0.10206355 945:-0.16190317 946:-0.13410296 947:-0.13410296 948:-0.13410296 949:0.55217421 950:0.55491978 951:0.59518087 952:0.57340974 953:-0.50974327 954:0.32740963 955:0.093217365 956:0.24902213 957:0.31812289 958:0.31812289 959:0.093307428 960:-0.22635618 961:0.31812289 962:0.46871638 963:0.68834567 964:0.31812289 965:0.41712201 966:0.33977121 967:0.43089938 968:1.3028315 969:-0.57150996 970:-0.57150996 971:0.29701278 972:-0.57150996 973:-0.45367903 974:-1.1411573 975:0.30408922 976:0.21009326 977:0.68788511 978:-0.50678873 979:-0.50678873 980:-0.50678873 981:-0.38514277 982:0.59397674 983:-1.5678811 984:1.0043341 985:-0.081977822 986:-0.59823495 987:0.017346082 988:-0.15309137 989:-0.79512566 990:-0.56729412 991:-1.5761712 992:-0.47159287 993:0.65544015 994:-0.17409541 995:-0.044720676 996:0.59993601 997:0.36951035 998:-0.43835488 999:0.26528686 1000:0.26528686 1001:0.26528686 1002:0.26528686 1003:0.26528686 1004:0.1927775 1005:0.22175424 1006:0.85667425 1007:-0.34992591 1008:-0.20123892 1009:1.0773611 1010:-0.99272978 1011:0.9142279 1012:0.20460564 1013:0.11034016 1014:0.53348041 1015:0.085930564 1016:-0.22305942 1017:-0.54419088 1018:-0.37278169 1019:-0.2845031 1020:-0.83698124 1021:-0.63012874 1022:0.62156826 1023:0.66848248 1024:0.35791102 1026:0.087546483 1027:-0.48642346 1028:1.103063 1029:0.067003392 1030:-0.11343244 1033:-0.079179898 1034:-0.22433731 1035:0.3635782 1036:-0.89339614 1037:0.53929967 1039:-0.97425485 1040:0.3947615 1041:-0.33238176 1042:0.91761905 1043:0.85884488 1044:0.031604964 1046:-0.71541888 1047:0.32542494 1048:-0.23293486 1049:-0.74644995 1050:1.3548858 1052:0.56269461 1053:0.00082214846 1054:-1.1057913 1055:0.55260366 1057:-0.31926537 1059:0.7329874 1061:-0.44759682 1063:0.84416729 1064:0.86421531 1065:1.53803 1066:0.6338082 1067:1.1181184 1068:0.10262161 1069:1.0898991 1070:-0.18411408 1071:-0.75217253 1072:-0.75217253 1073:-0.57986581 1074:0.23887578 1075:0.16545926 1076:-0.22907133 1077:0.73002386 1078:-0.11237253 1079:0.019227201 1080:-0.16139388 1081:0.72482413 1082:0.97983623 1083:-0.00064866524 1084:0.26853958 1085:-0.53245085 1086:-0.16158912 1087:-0.58026177 1088:0.23887578 1089:0.33063126 1090:-0.59984368 1091:0.14028022 1092:-1.5838015 1093:-0.54247499 1094:0.41649199 1095:1.4156326 1096:1.4156326 1097:0.75634533 1098:0.087780528 1099:-0.38970485 1100:0.43681067 1101:-0.54072058 1102:0.53649557 1103:0.0067711612 1104:-0.13443674 1105:0.087780528 1106:0.195594 1107:0.087780528 1108:0.3672452 1109:0.78386909 1110:0.48303857 1111:0.83616924 1112:-0.37501785 1113:-0.1389579 1114:0.13936947 1115:0.024957819 1116:0.26850152 1117:-0.36025569 1118:-0.049645819 1119:-0.049645819 1120:0.0060078357 1121:-0.049645819 1122:0.13814794 1123:-0.64633167 1124:1.1882732 1125:1.0880059 1126:-0.049645819 1127:-0.049645819 1128:-0.049645819 1129:1.2218862 1130:-0.31265175 1131:0.13157181 1132:0.27777928 1133:-0.56713724 1134:-0.30988827 1135:-0.22022323 1136:-0.88100743 1137:-0.47696468 1138:-0.47696468 1139:0.31885877 1140:-0.010935871 1141:-0.47696468 1142:-0.073291145 1143:-0.47696468 1144:0.19288878 1145:-0.12193351 1146:-0.47696468 1147:-0.47696468 1148:-0.018055622 1149:-0.54951644 1150:-0.3315905 1151:-0.018055622 1152:-0.018055622 1153:0.17723477 1154:0.0020940555 1155:0.37193444 1156:-1.0407511 1157:-1.1745188 1158:-0.70824236 1161:-0.44992769 1163:0.59941703 1164:0.33174706 1165:0.33174706 1166:-0.562751 1168:-0.041464895 1169:0.20322321 1170:0.28121063 1171:-0.55382246 1172:1.0636654 1173:0.77120763 1174:1.350296 1175:1.2256591 1176:0.17244908 1177:-0.63005936 1178:-0.016583003 1179:0.14654253 1180:-0.43268436 1181:0.30465254 1182:0.30465254 1183:-0.99989665 1184:0.30465254 1185:-0.14600959 1186:0.50212562 1187:-1.2583103 1188:-0.27157375 1189:-0.27157375 1190:-0.27157375 1191:-0.95766926 1192:-0.27241001 1193:-0.77395529 1194:0.57388818 1195:0.37849441 1196:0.37849441 1197:-0.011286415 1198:0.13526265 1199:0.50295013 1200:0.63567275 1201:0.57569194 1202:0.22972897 1203:0.37849441 1204:-0.19411601 1205:-0.085392714 1206:0.35305035 1207:-0.19280811 1208:0.35305035 1209:0.26450706 1210:0.35305035 1211:-1.0242674 1212:0.15660019 1213:0.032192349 1214:0.31964448 1215:0.47249189 1216:0.35305035 1217:-0.2414387 1218:0.35305035 1219:0.55318886 1220:0.35305035 1221:0.53007054 1222:1.2010465 1223:0.22427885 1224:-0.025316678 1225:-0.025316678 1226:-0.025316678 1227:-0.025316678 1228:0.4173449 1229:1.0463411 1230:0.24897647 1231:0.71168137 1232:-0.11667679 1233:-0.11667679 1234:0.036798704 1235:-0.43768427 1236:1.2346293 1237:0.18761344 1238:0.31881344 1239:-0.26582307 1240:-0.11667679 1241:-0.11667679 1242:-0.11667679 1243:-0.62050229 1244:-0.40880907 1245:-0.11667679 1246:-0.11667679 1247:1.6430428 1248:-0.018671602 1249:-0.02255814 1250:1.0611169 1251:-0.98881847 1252:0.66276401 1253:-0.42236772 1254:0.77983946 1255:-0.67060691 1256:-0.76292032 1257:-0.12557855 1259:-0.47411409 1260:-0.65914625 1261:-0.15869622 1262:0.40846744 1263:-0.19297853 1264:0.016040096 1265:0.50974441 1266:0.015558776 1267:-0.4635227 1268:0.44436041 1269:0.27639338 1270:0.65007526 1271:0.18147804 1272:-0.056937501 1273:-0.71234387 1274:-0.089680515 1275:0.27576184 1276:0.52495384 1277:-0.25260481 1278:0.053144645 1279:-0.060398724 1280:-0.62433094 1281:0.68840218 1282:0.55235332 1283:-0.0024213425 1284:0.61779499 1285:-0.14036115 1286:-0.17438495 1287:-0.42293656 1288:-0.14036115 1289:0.068615288 1290:-0.073030449 1291:0.046066914 1292:-0.14036115 1293:0.093689121 1294:-0.14036115 1295:-0.30743238 1296:-0.075827785 1297:-0.15281101 1298:-0.14036115 1299:0.15283713 1300:0.030340698 1301:-0.49500084 1302:0.073616877 1303:-0.14036115 1304:-0.1341286 1305:0.25293478 1306:-1.4850048 1307:-0.20871162 1308:-0.97241515 1309:0.71792775 1310:0.35543352 1311:-0.38295469 1312:-0.63178247 1313:0.048656382 1314:0.16251954 1315:0.50342262 1316:-0.0049879854 1317:0.14101718 1318:-0.73252714 1319:-0.31689838 1320:-0.21695548 1321:-0.090778239 1322:-0.59807438 1323:1.3002356 1324:0.3355791 1325:-0.9404887 1326:0.20151673 1327:-0.40843907 1328:-0.23112631 1329:-0.22529083 1330:-0.069460027 1331:-0.041078437 1332:0.095197409 1333:-0.041078437 1334:0.29825175 1335:-0.41543216 1336:-0.38994235 1337:0.32231408 1338:0.053504989 1339:-0.38994235 1340:1.3356587 1341:-0.096618898 1342:0.13745943 1343:0.33312687 1344:-0.54750842 1345:1.0719514 1346:0.45213258 1347:-0.66949826 1348:1.0526325 1349:-0.6270929 1350:-0.65912271 1351:-0.29997519 1352:0.018980382 1353:-0.0070671989 1355:0.56703866 1356:0.91115618 1357:0.0036311175 1358:0.2284355 1359:-0.28460142 1360:0.31779197 1361:-1.5491128 1362:-0.25880447 1363:0.51910108 1364:-0.26251006 1368:1.79723 1369:1.4088596 1370:0.44336042 1371:0.36241895 1372:0.36241895 1373:-0.037312362 1374:0.38208175 1375:-0.2360101 1376:-0.6986841 1377:-0.6986841 1378:-0.86014909 1379:-0.21833414 1380:-0.65038764 1381:0.4548507 1382:-0.14394781 1383:1.4136782 1384:0.21485181 1385:0.12231378 1386:-0.14086866 1387:-0.055689063 1388:-0.2210294 1389:0.24884523 1390:0.22412147 1391:0.22412147 1392:-0.16754106 1393:-0.16754106 1394:0.12596348 1395:0.64455235 1396:-0.32547417 1397:0.025815563 1398:0.12596348 1399:0.73542958 1400:0.31917772 1401:0.35009775 1402:0.70236617 1403:-0.44764492 1404:0.23073056 1405:0.044521846 1406:0.58400017 1407:-0.074687906 1408:0.35551453 1409:0.27213272 1410:0.41998184 1411:0.22690098 1412:0.46956789 1413:0.36637455 1414:0.058960974 1415:-0.94676119 1416:0.051494092 1417:0.051494092 1418:0.051494092 1419:0.051494092 1420:0.61193889 1421:-0.79066187 1422:0.0092133824 1423:0.030057888 1424:0.6416778 1425:0.051494092 1426:0.051494092 1427:-0.38270682 1428:-0.052973565 1429:-0.090990797 1430:0.051494092 1431:0.051494092 1432:0.29020888 1433:0.29020888 1434:0.3921684 1435:-0.20007975 1436:1.3520784 1437:-0.12209223 1438:-0.73287672 1439:0.29020888 1440:0.33290139 1441:-0.96791261 1442:-0.27156478 1443:0.67498481 1444:1.3290081 1445:0.040649101 1446:0.53150022 1447:0.9718951 1448:0.67498481 1449:-1.1126891 1450:-0.94566125 1451:0.13393652 1452:1.414849 1453:-0.20040277 1454:-0.43806997 1455:0.54166532 1456:-0.090928376 1457:-0.28196883 1458:-0.090928376 1459:0.091449484 1460:0.60200083 1461:-0.090928376 1462:-0.25681943 1463:-0.91692692 1464:0.23161604 1465:0.48580819 1466:0.042959157 1467:0.33018869 1468:0.86053795 1469:-0.073930599 1470:0.72083604 1471:-0.10121235 1472:-0.10121235 1473:-0.049776286 1474:-0.10121235 1475:-0.6894654 1476:0.087625436 1477:0.54187483 1478:-0.68097818 1479:-0.14216889 1480:-0.07555908 1481:1.0540698 1482:-0.50160897 1483:-0.15446718 1484:0.7616905 1485:0.48893735 1486:-0.70824718 1487:-0.88973522 1488:0.4317615 1489:0.077091239 1490:-0.58064616 1491:0.25066796 1492:-0.31784782 1493:0.53510302 1494:-0.028744679 1495:0.15770179 1496:0.088554524 1497:0.11615297 1498:-0.637748 1499:-0.47127262 1500:-0.42663097 1501:0.30439416 1502:-0.14018777 1503:-0.84013635 1504:-0.14018777 1505:-0.31725615 1506:-0.85824209 1507:0.1000755 1508:0.37484026 1509:0.021408262 1510:-0.35964075 1511:-0.89301217 1512:-0.44140527 1513:0.49637806 1514:-0.2548219 1515:0.57628697 1516:0.11885328 1517:0.11885328 1518:0.63655752 1519:0.94984329 1520:0.041711733 1521:0.26333135 1522:0.61742949 1523:0.40847307 1524:0.47909814 1525:0.61742949 1526:-0.47121915 1527:-0.59483182 1528:-0.59483182 1529:-0.59483182 1530:0.35712904 1531:-0.21067291 1532:-0.11618628 1533:-0.10684748 1534:-1.1322647 1535:-0.48563227 1536:0.27790555 1537:0.92622662 1538:-0.49885625 1539:-0.373326 1540:0.11731692 1541:0.11731692 1542:0.11731692 1543:0.72643167 1544:-0.26251203 1545:0.41776723 1546:-0.081441641 1547:-0.081441641 1548:-0.081441641 1549:-0.24123199 1550:-0.76800412 1551:-0.24123199 1552:-0.24123199 1553:1.0871558 1554:-0.35434923 1555:-0.27364007 1556:2.5806282 1557:-0.99263448 1558:0.41433147 1559:0.33126545 1560:-0.072300829 1561:-0.44260889 1562:0.55287373 1563:0.60805583 1564:0.69410533 1565:-0.65928644 1566:0.23448737 1567:0.23448737 1568:0.16721615 1569:1.260582 1570:0.23448737 1571:-0.26307377 1572:-0.34406012 1573:0.94037408 1574:0.27888709 1575:1.5167234 1576:-0.43856698 1577:-0.12389323 1578:-0.024237063 1579:-0.12389323 1580:-0.12389323 1581:-0.12389323 1582:0.48728165 1583:-0.85085785 1584:-0.74351901 1585:-1.1997144 1586:-0.1548239 1587:-0.1548239 1588:-0.1548239 1589:0.18802342 1590:0.25162187 1591:-0.1548239 1592:-0.20813437 1593:0.16820085 1594:-0.1548239 1595:-0.16585664 1596:-0.1548239 1597:-0.44832167 1598:0.27230993 1599:-0.065123662 1600:-0.1548239 1601:-0.1548239 1602:1.2696148 1603:0.0080207605 1605:0.017359825 1606:0.19974425 1607:-0.29984465 1608:-0.027919656 1609:0.078029655 1610:0.35575375 1611:-0.077712372 1612:-0.56579119 1613:0.46391156 1614:1.0741178 1615:0.82639873 1616:0.013882253 1617:0.50424629 1618:-0.52500117 1619:0.77614909 1620:0.15829743 1621:-0.46762252 1622:-0.17574431 1623:-0.11855127 1624:-0.20188223 1625:0.26755586 1626:0.61163473 1627:-0.11855127 1628:-1.0374984 1629:0.69128346 1630:0.14512621 1631:1.0727289 1632:-0.17778429 1633:-0.43820691 1634:0.81911623 1635:0.75393921 1636:0.027217535 1637:-0.25033846 1638:0.71537137 1639:0.069766589 1640:-0.5743556 1641:0.14615831 1642:-0.23803201 1643:-0.21948004 1644:-0.36235073 1645:-0.036543831 1646:-0.36235073 1647:0.1127589 1648:-0.36235073 1649:-0.29300436 1650:-0.24490957 1651:1.096522 1652:-0.070355125 1653:-0.5743556 1654:-0.041364614 1655:0.046938442 1656:-0.5743556 1657:1.0831388 1658:-0.18285567 1659:0.020904116 1660:-0.18285567 1661:-0.23022166 1662:-0.18285567 1663:-0.17854097 1664:-0.18285567 1665:-0.65458828 1666:0.70815665 1667:-0.3184121 1668:0.31135955 1669:-0.19267817 1670:-1.6671827 1671:0.62849128 1672:-0.15804194 1673:0.78995681 1674:-0.27563611 1675:0.45455381 1676:0.74107361 1677:0.57915568 1678:-0.37579635 1679:-0.37579635 1680:0.15094976 1681:-0.15307643 1682:-0.37579635 1683:0.47238803 1684:-0.37579635 1685:0.59127438 1686:-0.37579635 1687:-0.15320905 1688:0.6416809 1689:0.79824352 1690:-0.37579635 1691:-0.37579635 1692:-0.35097948 1693:-0.37579635 1694:-1.3391199 1695:1.6628923 1697:-0.23721561 1700:-0.024671983 1701:-0.44881433 1702:-0.20731618 1703:0.52447009 1704:0.48793766 1705:0.18625034 1706:0.80515599 1707:0.18625034 1708:0.18625034 1709:0.18625034 1710:0.23046826 1711:0.18625034 1712:0.67583227 1713:-0.58568126 1714:0.0558156 1715:-0.033909936 1716:-0.52116853 1717:0.25747892 1720:0.1379074 1721:-0.56962687 1722:0.85393363 1723:0.052973814 1724:-0.44071287 1725:-0.51669008 1726:-0.21045461 1727:-0.39581907 1728:-0.39581907 1729:-0.32542729 1730:-0.56427395 1731:-0.19106194 1732:0.17428063 1733:-0.1794568 1734:-0.058139093 1735:0.05849354 1736:0.018919086 1737:0.74533218 1739:0.096583523 1741:0.39978233 1742:-0.37551203 1744:-0.21890138 1747:-0.2133833 1748:-0.0030088865 1750:-1.2275953 1751:-0.010334777 1752:-0.57099259 1753:-0.47204074 1754:-0.24267776 1755:-0.47204074 1756:1.016277 1757:-0.13357729 1758:-0.79101878 1759:-0.15019806 1760:-0.066911966 1761:-0.15019806 1762:-0.15019806 1763:-0.49389595 1764:-0.093278781 1765:-0.046424065 1766:-0.57044721 1767:0.41350198 1768:0.1209672 1769:0.65269542 1770:-0.046424065 1771:-0.10513076 1772:0.47166288 1773:0.51490563 1774:0.16128756 1775:1.0594219 1776:-0.78729284 1777:-0.53334934 1778:0.802109 1779:-0.76814276 1780:-0.13093172 1781:0.18495728 1782:-0.16305472 1783:-0.31089637 1784:0.3526262 1785:-0.084496677 1786:-1.6714703 1787:-0.30127588 1788:0.13658135 1789:-0.77145928 1790:1.2031578 1791:-0.17452587 1792:0.22737201 1793:0.056229156 1794:0.15552706 1795:0.15552706 1796:0.26575235 1797:-0.57618672 1798:-1.1866935 1799:-0.30044484 1800:-1.3327391 1801:-1.3327391 1802:-1.0000998 1803:-0.47423118 1804:-0.43065873 1805:-0.53807539 1806:-0.38334349 1807:0.13965328 1808:0.6431393 1809:-1.1855831 1810:0.26993075 1811:0.53078079 1812:0.7502383 1813:-0.013531561 1814:0.35417584 1815:0.57032341 1816:-0.28601441 1817:0.82946503 1818:-0.53537983 1819:0.19685894 1820:0.18737881 1821:0.52329057 1822:0.5530166 1823:0.73862231 1824:-0.43592742 1825:-0.72828859 1826:0.47890225 1827:0.96724558 1828:0.25122124 1829:0.4009544 1830:-0.53695947 1831:-0.086442687 1832:-0.31628466 1833:0.33665687 1834:0.33665687 1835:0.33665687 1836:0.56274134 1837:-0.50636971 1838:0.69580525 1839:0.33665687 1840:0.22844066 1841:0.21665756 1842:-0.11183652 1843:0.33665687 1844:0.20899269 1845:0.26369897 1846:0.33665687 1847:0.45766747 1848:-0.16055165 1849:0.43617204 1850:-1.0824565 1851:-0.14554439 1852:0.94777644 1853:0.29345521 1854:-0.092375301 1855:-0.44777846 1856:-0.092375301 1857:-0.092375301 1858:0.71346676 1859:-0.092375301 1860:-1.7422013 1861:-1.4101419 1862:-0.3896718 1863:-1.1799279 1864:-0.3896718 1865:0.048622772 1866:0.075883821 1867:-0.10315547 1868:0.23943777 1869:-0.082142614 1870:-0.2351995 1871:0.38090134 1872:-0.39853325 1873:-0.63187933 1874:0.82943308 1875:-0.37201026 1876:0.38090134 1877:0.38090134 1878:-0.042090416 1879:0.075148948 1880:0.33620876 1881:0.19351405 1882:0.9159447 1883:-0.27825418 1884:0.36285481 1885:0.20928752 1886:-0.26722115 1887:-0.26722115 1888:-0.041307673 1889:1.418754 1890:2.0478041 1891:-0.71538758 1892:-0.39912188 1893:-0.12611862 1894:-0.26722115 1895:-1.1419287 1896:0.42999813 1897:-0.11733492 1898:-0.39641237 1899:0.50855315 1900:1.6350046 1901:1.0344628 1902:0.49476269 1903:0.56618184 1904:0.98011303 1905:0.98734194 1906:-0.030475162 1907:-0.030475162 1908:-0.84731251 1909:-0.23792203 1910:-0.030475162 1911:-0.52424115 1912:0.99178737 1913:-0.030475162 1914:0.28124562 1915:-0.19861749 1916:-0.030475162 1917:0.92352229 1918:-0.05225056 1919:1.1087797 1920:0.1309782 1921:-2.7246633 1922:0.30787256 1923:-1.214926 1924:0.29144445 1925:0.02732127 1926:-0.13754964 1927:0.18019323 1928:-0.13754964 1929:-0.36537445 1930:-0.46566117 1931:0.35367662 1932:-0.43174607 1933:-0.280664 1934:0.8529492 1935:-0.38025364 1936:0.30862996 1937:-0.16703013 1938:-0.16703013 1939:0.14273351 1940:-0.087364912 1941:-0.16703013 1942:-1.8440099 1943:0.44428036 1944:-0.14899334 1945:0.34213838 1946:0.066408873 1947:-0.67115456 1948:1.0185215 1949:0.84769827 1950:-0.61686611 1951:0.57174742 1952:0.030326981 1953:-0.47065702 1954:-0.85026073 1955:-0.081378847 1956:0.030326981 1957:-0.15033995 1958:-0.29826123 1959:-0.63669902 1960:-0.63669902 1961:-0.22131687 1962:-0.29549599 1963:-0.63669902 1964:0.19905166 1965:-0.63669902 1966:0.13316032 1967:-0.23072091 1968:0.11910662 1969:0.46939483 1970:-0.33829346 1971:1.0319676 1972:0.8576777 1973:-0.49376598 1974:-0.49376598 1975:-0.40937468 1976:-0.86389673 1977:1.168221 1978:-0.95958674 1979:0.96781301 1980:1.7192585 1981:-0.82196379 1982:-0.28277889 1983:-0.0090919789 1984:-0.26339844 1985:-0.26339844 1986:0.48908883 1987:0.48908883 1988:0.35638186 1989:0.35638186 1990:0.35638186 1991:0.048888884 1992:0.95621216 1993:0.55295187 1994:-0.24821115 1995:-0.27015889 1996:-0.31566381 1997:0.090496249 1998:-0.31566381 1999:0.2506493 2000:-0.66547751 2001:-0.31566381 2002:-0.54532993 2003:-0.13945217 2004:-0.40433997 2005:-0.17148516 2006:-0.32505521 2007:0.090227179 2008:-1.2705721 2009:-0.17006937 2010:-1.4135602 2011:0.18647966 2012:-0.41102418 2013:0.081224278 2014:-0.57805789 2015:-0.041929692 2016:-0.47919869 2017:-0.14532267 2018:0.74573076 2019:0.50362587 2020:-0.041929692 2021:-0.041929692 2022:-1.6266191 2023:0.10026068 2026:0.52519733 2027:-0.61887765 2028:-0.95907283 2029:0.61532211 2030:0.52643949 2031:0.075182028 2032:-0.085576318 2033:0.14130089 2034:0.43245852 2035:0.20579113 2036:0.14130089 2037:0.18985787 2038:-0.010043714 2039:0.14130089 2040:0.32314453 2041:0.32314453 2042:-0.44729567 2043:0.97004139 2044:-0.44729567 2045:-0.44729567 2046:1.2573235 2047:0.98597574 2048:-0.59128988 2049:-0.38373929 2050:-0.27161166 2051:-0.34964883 2052:-0.27161166 2053:0.73826391 2054:-0.43047017 2055:-0.27161166 2056:0.48201379 2057:-0.056478754 2058:0.10302681 2059:0.14452395 2060:-0.13519926 2061:1.315371 2062:0.54119134 2063:0.65157175 2064:0.65157175 2065:1.079072 2066:-0.2298014 2067:0.93413502 2068:0.23155536 2069:-0.3446632 2070:-0.0037176399 2071:-0.47281924 2072:0.081287749 2073:0.14172731 2074:0.10796507 2075:1.0199715 2076:1.0514303 2077:0.14172731 2078:0.14172731 2079:0.14172731 2080:-0.81230396 2081:1.1961604 2082:0.36447045 2083:-0.29839015 2084:0.7290023 2085:-0.15970021 2086:0.22881787 2087:1.1458888 2088:0.32500085 2089:0.17245328 2090:0.17245328 2091:-0.13050586 2092:-0.077611908 2093:-1.1470625 2094:0.74786901 2095:-0.23859552 2096:0.45193294 2097:-0.03704118 2098:-0.03978895 2099:0.22706057 2100:-0.7897715 2101:-0.10340135 2102:0.15880379 2103:0.16613981 2104:-0.097559601 2105:-0.36000586 2106:-0.63080871 2107:0.26744619 2108:0.072312139 2109:-0.86158782 2110:-0.39497951 2111:0.36848512 2112:1.0164906 2113:0.14602186 2114:-0.66730642 2115:0.25896692 2116:0.17702024 2118:0.11485208 2119:0.13999225 2120:-0.063790508 2121:-0.4369415 2122:0.33748797 2123:-0.11128621 2124:-0.063790508 2125:-0.084296562 2126:-0.40278709 2127:-0.50230789 2128:0.09287294 2129:-0.40278709 2130:0.77107334 2131:1.1906238 2132:0.56039959 2133:1.1906238 2134:1.1008452 2135:0.043218073 2136:-0.035747435 2137:0.71345478 2138:0.27704921 2139:-0.095370196 2141:0.7540102 2142:-0.15879823 2143:-1.7009929 2144:0.50923729 2145:-0.11405337 2149:0.73771358 2150:-0.11271559 2151:0.7727561 2153:0.26293695 2154:-0.048541568 2155:-0.32373303 2156:0.88002926 2157:0.079535566 2158:0.82919252 2159:0.94521552 2160:1.2312415 2161:0.90201354 2162:2.1171041 2163:0.77211851 2164:0.4277226 2165:0.13627584 2166:0.13627584 2167:0.13627584 2168:-1.1642934 2169:0.21601987 2170:-0.11944234 2171:-0.22439754 2172:0.55285466 2173:0.03906294 2174:0.4297758 2175:0.026062941 2176:0.90029299 2177:-0.4564743 2178:0.55285466 2179:-0.3143397 2180:0.11690596 2181:1.1353436 2182:0.11690596 2183:0.11690596 2184:-0.17194366 2185:-0.46729162 2186:-0.088734828 2187:0.30386949 2188:0.30386949 2189:0.30386949 2190:0.16996646 2191:-0.7493394 2192:0.7784856 2193:0.30386949 2194:0.30386949 2195:-0.024588414 2196:0.041406002 2197:0.041406002 2198:-0.420946 2199:0.17120974 2200:-0.65110475 2201:0.20051995 2202:-0.17340755 2203:-0.088743374 2204:-0.420946 2205:-0.42372438 2206:0.46163288 2207:-0.25820658 2208:-0.13223474 2209:-0.9333365 2210:-0.35146889 2211:-0.12958144 2212:0.47254884 2213:-0.31009093 2214:0.18560983 2215:-0.90180266 2216:-0.12958144 2217:-0.90070033 2218:0.78057247 2219:-0.58008116 2220:-0.482737 2221:0.14570093 2222:0.2488668 2223:0.1244334 2224:-1.4005718 2225:0.28910199 2226:0.28910199 2227:-0.16352609 2228:0.28910199 2229:0.53882617 2230:0.13906494 2231:0.28910199 2232:0.28910199 2233:0.48731005 2234:0.28910199 2235:-0.44223598 2236:-0.54716635 2237:0.57720286 2238:0.57720286 2239:1.3961215 2240:0.57720286 2241:0.94201404 2244:0.48965403 2245:-0.56191963 2246:-0.52887428 2247:-0.34833217 2248:-0.34833217 2249:-0.34833217 2250:-0.96620971 2251:0.13250926 2252:0.046652365 2253:-0.05282766 2254:0.040860537 2255:-0.029652862 2256:-0.11843135 2257:-0.69579917 2258:-1.7179421 2259:1.03695 2260:-0.53189838 2261:-0.19617458 2262:0.36597452 2263:0.36597452 2264:-0.18403582 2267:0.37886724 2268:0.51277626 2269:0.03246624 2270:0.46109068 2271:-0.65234494 2272:0.37886724 2273:0.16641711 2274:0.23742127 2275:-0.25279495 2276:-0.25279495 2277:-0.25279495 2278:-0.25279495 2279:-0.25279495 2280:-1.168385 2281:-0.12273317 2282:-0.12273317 2283:0.36238894 2284:0.18521793 2285:-0.16043039 2286:-0.31638664 2287:-0.10575269 2288:0.26216373 2289:0.26148948 2290:-0.24835047 2291:-0.45143765 2292:0.53688347 2293:-0.41749495 2294:-0.45143765 2295:-0.077524289 2296:-0.16096605 2297:-0.16096605 2298:-0.16096605 2299:-0.32490394 2300:0.46674034 2301:-0.12028351 2302:0.4175033 2303:0.33286408 2304:0.19319876 2305:0.4175033 2306:0.59152567 2307:-0.21125244 2308:-0.081855372 2309:0.83942956 2310:0.83608627 2311:0.71299595 2312:-0.25786504 2314:0.92135245 2315:0.77500015 2316:-0.42365378 2317:-1.8221482 2318:0.54885882 2319:-0.43508619 2320:1.0441253 2321:0.24549614 2322:0.80061793 2323:0.45739931 2324:-0.046636701 2325:0.69205225 2326:0.28969419 2327:0.56827009 2328:-0.10727138 2329:0.35679686 2330:0.35679686 2331:0.2041849 2332:0.35679686 2333:0.18398987 2334:0.88355857 2335:0.2647011 2336:0.52790159 2337:0.18961549 2338:-0.37500113 2339:-0.24474275 2340:0.51000571 2341:-0.38844922 2342:0.71155787 2343:-0.1325653 2344:-0.43184328 2345:0.49637991 2346:-0.26708806 2347:-0.61509079 2348:-0.51935673 2349:1.0283788 2350:-0.54859942 2351:0.080666423 2352:0.10060325 2353:0.080666423 2354:-0.21500283 2355:0.54607713 2356:-0.30345526 2357:0.24562979 2358:-0.6158163 2359:-0.6158163 2360:-0.34537569 2361:0.97147691 2362:1.0988828 2363:0.97147691 2364:0.42851952 2365:0.29693145 2366:-0.12395994 2367:-0.47972569 2368:-0.86024702 2369:0.84192646 2370:-0.16059974 2371:-0.16059974 2372:0.26294729 2373:-0.54895508 2374:-0.060656834 2375:0.2501213 2376:0.31836578 2377:-0.16059974 2379:-0.052631602 2380:0.97746384 2381:-0.9267469 2382:0.036508117 2383:-0.052631602 2384:-0.052631602 2385:0.44462466 2386:0.69609386 2387:-0.052631602 2388:0.079666145 2389:-0.19907928 2390:0.53765112 2391:0.54055178 2392:0.072048783 2393:0.82216913 2394:-0.55290753 2395:0.60263413 2396:0.97728425 2397:-0.024570143 2398:-0.029472059 2399:-0.22699629 2400:0.14154346 2401:0.21953511 2402:0.064737685 2403:0.64935905 2404:-0.029472059 2405:-0.029472059 2406:-0.029472059 2407:-0.0081424676 2408:0.094090432 2409:0.094090432 2410:1.1065875 2411:0.96830958 2412:0.18195616 2413:0.35512772 2414:0.35512772 2415:0.63787508 2416:1.3236426 2417:0.35512772 2418:0.45064542 2419:0.39157394 2420:0.35512772 2421:0.77451926 2422:0.092017822 2423:0.092017822 2424:-0.7573275 2425:0.25495979 2426:-0.017807797 2427:-0.40923226 2428:0.82236648 2429:0.13221788 2430:0.38158491 2431:0.092017822 2432:0.46527162 2433:0.092017822 2434:1.503443 2435:0.092017822 2436:-0.099589817 2437:0.092017822 2438:1.2741287 2439:-0.15522029 2440:0.47659138 2441:-0.13630293 2442:0.46818697 2443:-0.36541608 2444:-1.5774415 2445:0.12689024 2446:-0.068138137 2447:0.36640242 2448:0.37224227 2449:-0.81309092 2450:-0.4183282 2451:0.31049046 2452:-0.96148741 2453:-0.82917291 2454:-0.82917291 2455:0.0061754375 2456:-0.45330042 2457:0.47019374 2458:-0.22533241 2460:-0.36367837 2461:-0.060434915 2462:-0.37053922 2463:0.12275176 2465:0.5471493 2466:1.034017 2467:0.17891335 2468:0.80009496 2471:-0.042774163 2472:0.019544259 2473:0.17774698 2474:0.0007133027 2475:-0.57165128 2476:0.49070373 2477:-0.10837522 2478:-0.14449292 2479:-0.0010122134 2480:0.019544259 2481:0.59136504 2482:0.45640141 2483:0.95762944 2484:0.50847894 2485:0.019544259 2486:0.79630047 2487:0.045943305 2488:0.019544259 2489:0.4866105 2490:-0.40091726 2491:-0.98817325 2492:-0.98817325 2493:-0.046623219 2494:0.22553186 2495:0.023065213 2496:-0.30978844 2497:0.33130601 2498:0.8849647 2499:-0.11233176 2500:-0.093881093 2501:-0.10223012 2502:0.023065213 2503:0.62306786 2504:-0.62187535 2505:1.0287259 2506:1.1156489 2507:-0.45746413 2508:-0.35152462 2509:-0.57718301 2510:-0.36982608 2511:-0.081082441 2512:1.3215903 2513:-0.16378565 2515:-0.48800862 2516:-0.16378565 2517:1.8198667 2518:-0.39861929 2519:-0.48986268 2520:-0.48986268 2521:-0.68357009 2522:0.17385271 2523:-0.20226651 2524:0.51822245 2525:0.052047543 2526:-0.40283531 2527:-0.065422133 2528:-0.065422133 2529:-0.065422133 2530:0.31480646 2531:0.19753845 2532:0.31480646 2533:-0.25264174 2534:-0.58731747 2535:-0.25264174 2536:-0.25264174 2537:-0.15831716 2538:-0.19618154 2539:0.016346809 2540:0.99963564 2541:0.047634397 2542:-0.21963555 2543:-0.3080703 2544:0.1327718 2545:0.016346809 2546:0.016346809 2547:0.61520141 2548:-0.23793598 2549:-0.79059428 2550:0.016346809 2551:-0.14546528 2552:-0.14546528 2553:0.42012095 2554:-0.14546528 2555:-0.32277775 2556:0.52711278 2557:-0.14546528 2558:0.36205605 2559:0.44843397 2560:0.44843397 2561:-0.024671983 2563:-1.1256469 2566:-0.13595076 2567:-0.16632794 2568:0.054917909 2569:-0.11263566 2570:-0.94698614 2571:0.8818385 2572:-0.54657173 2573:-0.43416551 2574:0.85825086 2575:0.77793574 2576:-0.025962511 2577:-0.18965361 2578:-0.10542403 2579:-0.10542403 2580:0.89781201 2581:-0.12989056 2582:-0.53628033 2583:-1.0581774 2584:0.39161503 2585:-0.7349332 2586:0.60246634 2587:0.35670948 2588:0.49941856 2589:0.65279025 2590:0.0068305731 2591:0.2611382 2592:-0.11596417 2593:0.43994477 2594:0.45298889 2598:0.21311198 2600:-0.20993298 2601:0.70088285 2602:-0.097023748 2603:0.69030631 2604:0.018335667 2605:0.097901165 2606:-0.32313049 2607:0.24151115 2608:0.1500328 2609:-0.23979244 2610:-0.32046667 2611:0.38862893 2612:0.38862893 2613:0.38862893 2614:0.38862893 2615:-0.27280012 2616:-0.26677507 2617:0.38862893 2618:-0.15484186 2619:0.60533106 2620:0.152886 2621:-0.093850896 2622:0.12768996 2623:0.042383108 2624:0.50408 2625:1.0324484 2626:1.0324484 2627:-0.013329781 2628:-0.34001556 2629:-0.17381425 2630:-0.013329781 2631:-0.78318655 2632:-0.013329781 2633:0.45515797 2634:-0.29184398 2635:0.55491525 2636:-1.0594096 2637:-0.4802337 2642:-0.12189174 2643:0.26371026 2644:-0.19596958 2645:0.12325247 2646:-0.042854641 2647:-0.39609465 2648:-0.54016489 2649:-0.5472368 2650:-0.73043072 2651:0.29298389 2652:0.65255827 2653:0.16043758 2654:0.023011006 2655:0.92785925 2656:0.29298389 2657:0.18245432 2658:0.29298389 2659:-0.43956569 2660:0.16770542 2661:0.31280318 2662:0.0097262179 2663:-0.048164923 2664:-0.048164923 2665:-0.42146862 2666:-0.38143826 2667:1.1961895 2668:-0.50177437 2669:-0.12430761 2670:-0.52306843 2671:0.71606797 2672:-0.10304017 2673:0.94793689 2674:1.0531192 2675:0.71606797 2676:0.17274286 2677:0.71606797 2678:0.43613115 2679:0.013476916 2680:-0.12753728 2681:-0.012363019 2682:0.69031262 2683:-0.065823376 2684:-0.39640641 2685:0.56327003 2686:-0.26966447 2687:-0.25400096 2688:0.82839203 2689:0.04726791 2690:0.25205627 2691:0.25205627 2692:-0.25323862 2693:-1.1501123 2694:-0.30001229 2695:0.38954166 2696:-0.56987149 2697:1.1618309 2698:-0.9067961 2699:-0.67003113 2700:0.62143242 2701:-1.1881152 2702:0.7616111 2703:0.085304059 2704:0.20111582 2705:0.53698075 2706:0.085304059 2707:0.29424444 2708:0.30486873 2709:-0.10023011 2710:-0.33336568 2711:-1.3966627 2712:0.20513569 2713:-0.29779416 2714:-0.59660518 2715:-0.23895209 2716:0.1036035 2717:-0.61248618 2718:0.31130552 2719:1.3003397 2720:-0.16036697 2722:0.41789261 2723:0.88073844 2725:0.66356325 2726:0.65831226 2728:-0.26859346 2731:0.70624655 2732:0.44195995 2733:0.34316668 2734:-0.17571467 2735:-0.17571467 2736:0.76173168 2737:-1.3758851 2738:-1.3758851 2739:-0.38049659 2741:0.18508422 2742:-0.67944878 2743:1.0007105 2744:-0.54019678 2745:-0.17488579 2746:-0.046459086 2747:0.64337957 2748:-1.5366619 2749:-0.48016611 2750:-0.35576811 2751:0.31915241 2752:0.4854714 2753:0.69105715 2754:-1.3255841 2755:-0.7947678 2756:-0.084267296 2757:-0.49877587 2758:1.5754963 2759:1.2099422 2761:0.86713034 2762:0.94626635 2763:0.96554655 2764:0.94626635 2765:-0.80288726 2766:0.43616599 2767:0.40833479 2768:1.1267112 2769:0.86474621 2770:1.1267112 2771:1.1267112 2772:-0.23776725 2773:-0.78412151 2774:1.3442851 2775:-0.16424733 2776:-0.16424733 2777:-0.16424733 2778:-0.38767436 2779:-0.30300781 2780:-0.38527426 2781:-0.38527426 2782:0.6868552 2783:-0.38527426 2784:-0.27031055 2785:-0.33286759 2786:-0.46770871 2787:-0.27031055 2788:-0.42958716 2789:0.26288268 2790:0.21083321 2791:0.25685057 2792:0.21083321 2793:0.21083321 2794:0.21083321 2795:0.21083321 2796:0.21083321 2797:0.51551056 2798:-0.39729303 2799:1.2534202 2800:0.029957131 2801:0.37635812 2802:0.47285709 2803:0.39222348 2804:0.44746158 2805:0.37494117 2806:0.37494117 2807:-0.22476147 2808:-0.93282187 2809:-0.40519443 2810:0.068683192 2811:-0.39279521 2812:-0.087890714 2813:-0.46948454 2814:0.26165974 2815:1.8392862 2816:0.09701106 2817:1.1808717 2818:0.53508544 2819:0.17404567 2820:0.7379604 2821:0.3689802 2822:-0.051666055 2823:-0.2882441 2824:0.35853299 2825:-0.053443126 2826:-0.053443126 2827:-0.23166709 2828:0.80092102 2829:-0.46232706 2830:-0.053443126 2831:-0.22337402 2832:-0.053443126 2833:-0.068878159 2834:-0.053443126 2835:0.19003011 2836:0.54789788 2841:1.2777933 2842:0.25466073 2843:0.25564119 2844:1.0920128 2845:-0.035616592 2846:0.098304279 2847:0.42390421 2848:0.64833838 2849:0.30905369 2850:0.37047088 2851:-0.21791528 2852:-0.14385286 2853:0.22052041 2854:0.53631151 2855:-0.60892791 2856:-0.21791528 2857:-0.020307267 2858:0.63212168 2859:-0.2344832 2860:-0.4398568 2861:0.1157084 2862:-0.2097425 2863:-0.016507665 2864:-0.40623415 2865:0.015674058 2866:0.50453484 2867:0.6529479 2868:0.51046604 2869:0.19320433 2870:0.069491595 2871:0.53644389 2872:0.19320433 2873:-0.20829952 2874:0.19320433 2875:0.72592944 2876:-0.15151854 2878:0.48946348 2879:0.31145456 2884:-0.22290184 2885:0.49411404 2886:0.87449419 2887:0.3205117 2888:-0.14384308 2889:1.0427982 2890:0.57847887 2891:0.63579071 2892:0.6370064 2893:-0.36980906 2895:-0.063588873 2898:-0.048497017 2899:-0.095099702 2900:0.46856871 2901:0.37643999 2902:1.1169605 2903:1.1178222 2904:0.14885589 2905:0.33912289 2906:0.40743482 2907:1.2047844 2908:1.0544955 2909:-0.3213582 2910:-1.2609159 2911:-0.36228824 2912:-0.39532802 2913:0.65578914 2914:1.2124988 2915:1.0846945 2916:0.34994879 2917:0.1825759 2918:-0.14667231 2919:-0.12513258 2920:0.22743468 2921:-0.076725528 2922:-2.8855996 2923:-0.087276988 2924:-0.23015878 2925:0.45608017 2926:-0.3770991 2927:-0.56029397 2928:0.0044097337 2929:0.50507975 2930:-0.23015878 2931:0.26787776 2932:-0.4280782 2933:-0.35024843 2934:0.67561412 2935:0.46724224 2936:0.50213957 2937:-0.21866114 2938:1.0042791 2939:0.83910596 2940:1.2947087 2941:-1.2575102 2943:0.01888082 2944:0.29073015 2945:-0.61064464 2946:0.43293178 2947:-0.21778485 2948:0.72955054 2949:0.52209902 2950:0.72955054 2951:0.72955054 2952:-0.70549953 2953:-0.53346074 2954:-1.4962244 2955:1.0924375 2956:-0.53346074 2957:-0.1774466 2958:-0.34853235 2959:-0.4537167 2960:-0.16515867 2961:-0.53346074 2962:-0.50821477 2963:-0.53346074 2964:-1.2004524 2965:0.61310273 2966:0.61310273 2967:-0.53346074 2968:1.0633794 2969:0.274396 2970:-0.47799492 2971:-0.32926235 2972:-0.093385443 2973:0.57092118 2974:-0.31082508 2975:0.04989066 2977:-0.40110049 2978:0.11461299 2979:0.11461299 2980:0.11461299 2981:-1.4372574 2982:-0.14463627 2983:0.66166389 2984:0.11461299 2985:-0.090100251 2986:-0.92295289 2987:0.60627639 2988:-1.1951134 2989:0.19418839 2990:-0.84516764 2991:0.29550451 2992:0.29550451 2993:-0.37479025 2994:0.42106605 2995:0.2598069 2996:0.2598069 2997:0.21376576 2998:-0.17758864 2999:0.29193452 3000:-0.61607659 3001:0.53742898 3002:-0.92761236 3003:-0.82494444 3004:0.95913792 3005:-0.4449878 3006:1.1081393 3007:0.88329369 3008:2.0895002 3009:-0.25929484 3010:-0.25297382 3011:-0.25929484 3012:1.4272188 3013:0.23281747 3014:-0.25929484 3015:0.54467893 3016:1.2795634 3017:-1.2479845 3018:0.47045663 3019:-0.094324559 3020:-0.30736673 3021:0.0037176281 3022:-0.16301951 3023:0.51885837 3024:0.36779314 3025:0.36779314 3026:-0.14168645 3027:0.32810977 3028:0.0054661753 3029:-1.2148651 3030:0.33572793 3031:0.23401271 3032:0.20380487 3033:-0.4865548 3034:-0.89283687 3035:0.48498639 3036:0.65181011 3037:0.89394963 3038:0.37480646 3039:-0.03992027 3040:-0.83711493 3041:-0.75692749 3042:-0.75692749 3043:-0.067077816 3044:-0.10615202 3045:0.063399211 3046:-0.24922176 3047:0.20523149 3048:-0.12461088 3049:0.081158839 3050:-0.062519178 3051:-0.12461088 3052:0.43182483 3053:-0.4601137 3054:-0.17484272 3055:-0.020926131 3056:-0.19232652 3057:-0.21550767 3058:-0.42909965 3059:0.18521386 3060:0.18324997 3061:-0.31285292 3062:-0.14915691 3063:-0.14915691 3065:0.39609271 3066:0.39609271 3067:0.39609271 3068:1.59982 3069:-0.1963197 3070:0.046963066 3071:-0.1235038 3072:-0.071012728 3073:0.54721612 3074:-0.6917367 3075:-0.37741971 3076:-0.1963197 3077:0.80691636 3078:0.37514311 3079:0.35803527 3080:0.35803527 3081:-0.030292574 3082:-0.27862477 3083:-0.44165692 3084:-0.050769702 3085:0.80076104 3086:-0.23141596 3087:0.17064753 3088:0.32005295 3089:-0.43124565 3090:-0.43124565 3091:-0.43124565 3092:-0.43124565 3093:-0.23964338 3094:-0.069417991 3095:-0.66507506 3096:-0.56393558 3097:-0.76837081 3098:-0.84811485 3099:-0.78293389 3100:-0.50766498 3101:-0.50766498 3102:-0.38154742 3103:-0.50766498 3104:-1.1235493 3105:0.28196257 3106:0.43558982 3107:0.76574266 3108:-1.036357 3109:-1.0961752 3110:-0.095534511 3111:-0.016664239 3112:-0.016664239 3113:-0.016664239 3114:-0.016664239 3115:0.24843739 3116:-0.016664239 3117:-0.34368813 3118:1.3790908 3119:-0.38370442 3120:-0.016664239 3121:0.61729729 3122:-0.016664239 3123:-0.016664239 3124:-0.86978871 3125:-0.016664239 3126:-0.016664239 3127:0.043156173 3128:-0.53309971 3129:-0.53309971 3130:-0.53309971 3131:0.50514954 3132:0.23019229 3133:0.065276869 3134:0.50514954 3135:0.17502746 3136:0.066503197 3137:-0.15815948 3139:0.034625627 3140:0.57386404 3142:-0.053800263 3143:-0.1318955 3145:0.27858651 3146:-0.14672418 3147:-0.51346558 3148:0.16294196 3151:-0.62400872 3152:-0.24892418 3153:-0.35409814 3154:-0.35409814 3155:-0.26445949 3156:0.563995 3157:-1.0815884 3158:-1.0419359 3159:0.061082512 3160:-0.53971738 3163:-0.37979916 3165:-0.93131495 3166:-0.076348521 3168:-0.54225439 3169:1.0554678 3170:0.14313771 3171:0.34885189 3172:-0.59747255 3173:-0.21742646 3174:0.18574013 3175:0.023888564 3176:-0.29988667 3177:-0.38414362 3178:-0.21742646 3179:-0.27779177 3180:-0.27779177 3181:-0.3940101 3182:-0.17286301 3183:1.0339122 3184:0.18781993 3185:0.18781993 3186:0.32232937 3187:0.18781993 3188:0.41115353 3189:-0.7237975 3190:-0.052880764 3191:-0.071399607 3192:1.6361865 3193:0.027341306 3194:0.65319353 3195:0.11309808 3196:-0.67986 3197:-0.007756331 3198:0.43929935 3199:0.43929935 3200:0.43929935 3201:1.3613609 3202:-0.032240279 3203:0.41333637 3204:0.34259066 3205:0.264043 3206:0.90826011 3207:0.060529828 3208:0.063578643 3209:-0.80311918 3210:-0.4327324 3211:0.64381403 3212:-0.47397366 3213:0.22331752 3214:-0.3041364 3215:1.2403926 3216:-0.3041364 3217:-0.3041364 3218:-0.19632293 3219:-0.3041364 3220:-0.11037643 3221:0.32959864 3222:-0.61768562 3223:-0.61372465 3224:-0.19491856 3225:0.15823379 3226:-0.00031168133 3227:1.365309 3228:0.31552374 3229:-0.53259176 3230:-0.44135821 3231:-0.52223486 3232:-0.52223486 3233:-0.52223486 3234:-0.41053355 3235:1.5725893 3236:0.14433332 3237:0.45053822 3238:0.14433332 3239:0.069329381 3240:-0.67990279 3241:0.60201126 3242:0.34175017 3243:0.42307553 3244:0.45537528 3245:0.18691166 3246:-0.017204676 3247:0.42858088 3248:0.27628788 3249:0.50976676 3250:0.39803341 3251:0.11838964 3253:-0.15278277 3254:-0.15278277 3255:-0.12267772 3256:-0.15278277 3257:-0.15278277 3258:-0.15278277 3259:-0.15278277 3260:0.40440786 3261:0.77150625 3262:0.28572309 3263:-0.15278277 3264:0.05649389 3265:0.24451138 3266:-0.15278277 3267:-0.43444997 3268:0.33859754 3269:-0.58209491 3270:-0.15278277 3271:-0.15278277 3272:-0.34575561 3273:-0.82258445 3274:-0.15278277 3275:-0.61698437 3276:0.13163888 3277:0.19387856 3278:0.11749639 3279:-0.85572296 3280:0.11321533 3281:1.6240073 3282:-0.24140589 3283:0.021478714 3284:-0.28520343 3285:-0.28520343 3286:-0.16433711 3287:-0.061248656 3288:1.7191992 3289:-0.32152057 3290:0.46626484 3291:0.39714175 3292:-0.42886639 3293:0.46626484 3294:0.46626484 3295:1.4051647 3296:0.21090743 3297:0.2431802 3298:-1.0127132 3299:1.3106641 3300:-0.41627124 3301:-0.11991522 3302:0.55863297 3303:-0.61053354 3305:-0.046299618 3306:0.4118484 3307:0.16733685 3309:-0.56063414 3310:-0.50416481 3311:0.73238176 3312:-0.39854687 3313:1.0843289 3314:0.38395494 3315:-1.0715088 3316:-0.41480374 3317:-0.32090107 3318:0.20352873 3319:-0.32090107 3320:-0.32090107 3321:-0.32090107 3322:0.27403527 3323:-0.32090107 3324:-1.1628184 3325:-0.058214828 3326:0.51428109 3327:-0.27828789 3328:-0.40628436 3329:-0.32090107 3330:0.60123056 3331:-0.038229059 3333:0.49243045 3335:-0.0084649175 3336:-0.11779913 3337:0.46246776 3338:0.60818058 3339:0.19822511 3340:0.23005955 3341:0.22237651 3342:-0.24737343 3343:0.015511179 3344:0.98496723 3345:-0.070888661 3346:0.31041077 3347:0.77488554 3348:-0.42197675 3349:0.38174176 3350:0.49423426 3351:0.12940913 3352:-0.20800942 3353:-0.064088561 3354:0.21200486 3355:-0.17416471 3356:0.14742264 3357:-0.1292693 3358:0.3886264 3359:-0.87234181 3360:0.12204767 3361:-0.12525092 3362:0.16808899 3363:-0.14690672 3364:0.16808899 3365:0.16808899 3366:0.11829454 3367:0.31385624 3368:0.16808899 3369:0.23624429 3370:0.23624429 3371:-0.054645114 3372:-0.054645114 3373:-0.054645114 3374:-0.19719605 3375:-0.054645114 3376:-0.054645114 3377:1.1845092 3378:-0.054645114 3379:0.67844892 3380:-0.076166056 3381:-1.165333 3382:0.11405535 3383:0.098840781 3384:-0.83780396 3385:-0.16227035 3386:-0.84018236 3387:0.23589677 3388:-0.18390198 3389:0.22713658 3390:0.14742398 3391:-0.044319957 3392:0.18663479 3393:0.029334417 3394:-0.024057018 3395:-0.41756466 3396:-0.70513111 3397:-0.28728002 3398:0.78433597 3399:-0.024057018 3400:-0.57888794 3401:-0.32617694 3402:0.0043032924 3403:-0.4229643 3404:0.38126516 3405:-0.64514279 3407:0.55382127 3408:-0.6171959 3410:0.1387973 3411:-0.11456338 3412:0.50685698 3413:-0.20947762 3414:0.01888082 3415:-0.43002588 3416:-0.69134545 3417:0.60983127 3418:0.60983127 3419:0.73739672 3420:0.016117198 3421:0.60709399 3422:-1.0336527 3423:0.85193056 3424:0.10546292 3425:0.85193056 3426:0.85193056 3427:0.74055266 3428:0.74055266 3429:0.38176703 3430:0.74055266 3431:0.052153338 3432:0.99384266 3433:-0.53907394 3434:0.22422224 3435:0.77291995 3436:0.065868922 3437:0.065868922 3438:-0.25386903 3439:0.54583246 3440:0.84400988 3441:0.96945602 3442:0.64277029 3443:0.078001104 3444:-0.7683112 3445:-0.034637392 3446:0.46553963 3447:-0.31902477 3448:0.71183938 3449:0.61200148 3450:0.75973499 3451:-0.84726369 3452:0.32801244 3453:0.32801244 3454:-0.48416659 3455:0.54194754 3456:-0.61151677 3457:0.32801244 3458:-0.26399276 3459:-0.26399276 3460:-0.66580468 3461:-0.26399276 3462:-0.64450294 3463:-0.11365509 3464:-0.60878921 3465:-0.24317303 3466:0.15559855 3467:-0.72695315 3468:-0.24317303 3469:-0.24317303 3470:-0.24317303 3471:-0.24317303 3472:0.64778155 3473:-0.051448859 3474:-0.046832845 3475:-0.21359198 3476:0.15783563 3477:0.098271124 3478:0.20208925 3479:0.098271124 3480:-0.037837289 3481:-0.27734303 3482:-0.40393725 3483:0.26959276 3487:0.17250793 3489:-0.1660884 3490:-0.44667658 3491:0.14300799 3492:0.50325835 3493:-0.039172467 3494:-0.76240116 3495:-0.36988476 3496:-0.11967098 3497:0.12591408 3498:-2.3521695 3499:-0.00019059086 3500:0.26810512 3501:-0.20003447 3502:-0.3825486 3503:-0.20003447 3504:0.026724568 3505:-0.20003447 3506:-0.4899956 3507:0.31791654 3508:-0.74420488 3509:-0.45769271 3510:0.86215091 3511:-0.45769271 3512:0.02843385 3513:0.16534661 3514:0.48655424 3515:0.28085262 3516:0.48655424 3517:0.48655424 3518:0.38873819 3519:0.8762216 3520:-0.11940024 3521:0.36726984 3522:0.36726984 3523:0.3696039 3524:0.3696039 3525:0.3696039 3526:0.3696039 3527:-0.24663007 3528:-0.39750999 3529:1.120479 3530:0.39939523 3531:0.7716431 3532:0.45152321 3533:0.11977042 3534:0.017923417 3535:-0.040257663 3536:-0.040257663 3537:-0.040257663 3538:-0.040257663 3539:-0.19069265 3540:-0.040257663 3541:-0.14917018 3542:-0.15622677 3543:-0.098478965 3544:-0.15622677 3545:0.2142354 3546:0.33938757 3547:0.25087231 3548:0.043908671 3549:0.78415745 3550:0.49702546 3551:0.31337258 3552:-0.052169248 3553:-0.0039791558 3555:0.42092162 3556:0.50219959 3558:0.0012419274 3560:-0.36620015 3561:1.1652479 3562:-1.0048048 3563:-0.58961487 3564:0.36189681 3565:-0.22979413 3566:-0.2430124 3567:0.56132466 3568:0.72889602 3569:1.0820932 3570:1.1052345 3571:1.1052345 3572:1.1052345 3573:-0.12789279 3574:-0.62039703 3575:-0.84215593 3576:-0.26069015 3577:-0.26069015 3578:0.041349355 3579:-0.94507086 3580:0.083184935 3581:0.5125773 3582:0.5125773 3583:0.34800273 3584:1.0698011 3585:1.5474566 3586:-0.010117888 3587:-0.42752692 3588:-0.23322958 3589:-0.094897166 3590:0.29611546 3591:0.29611546 3592:0.29611546 3593:0.29611546 3594:0.29611546 3595:0.76608151 3596:0.53258312 3597:0.29611546 3598:0.11821505 3599:0.30105981 3600:0.66715133 3603:0.0062941979 3604:0.76717228 3605:-0.57571775 3606:-0.57571775 3607:0.133909 3608:-0.39382774 3609:1.6169512 3610:0.02875611 3611:-0.18547715 3612:-0.25600371 3613:0.48645282 3614:0.31621099 3615:0.9513678 3616:0.2123982 3617:0.24191771 3618:0.24191771 3619:0.24191771 3620:-0.27767774 3621:-0.32464084 3622:-0.19823393 3623:0.24191771 3624:0.33582181 3625:-0.81143749 3626:1.8232352 3627:1.5561706 3628:0.39997524 3629:0.11314352 3630:0.28628498 3631:0.28628498 3632:0.30620492 3633:-0.0047386885 3634:0.30620492 3635:0.57229537 3636:0.30620492 3637:-0.28782085 3638:0.85672325 3639:0.73690623 3640:0.20140761 3641:0.20140761 3642:-0.14550433 3643:0.20140761 3644:0.88965255 3645:0.077694878 3646:-1.0461314 3647:0.26624599 3648:0.86493331 3649:0.2892347 3650:-0.42329159 3651:0.8117463 3652:-1.5739629 3653:-0.0068511362 3654:0.036615934 3655:0.036615934 3656:-0.45669243 3657:0.036615934 3658:-0.84576017 3659:-0.38253257 3660:0.43361533 3661:0.21680766 3662:-0.13202065 3663:0.21680766 3664:0.21680766 3665:-0.29409066 3666:-0.21186012 3667:-0.64081776 3668:0.15509363 3669:-0.25651997 3670:0.2556687 3671:0.7626636 3672:0.1409865 3673:-0.4780086 3674:-0.11312395 3675:-0.11761921 3676:-0.25460982 3677:-0.11312395 3678:-0.11312395 3679:0.0080214143 3680:-0.11312395 3681:-0.61644197 3682:-0.21730743 3683:-0.11312395 3684:-0.11312395 3685:-0.11312395 3686:-0.040609609 3687:-0.28341132 3688:1.1577171 3689:0.057747807 3690:-0.1341837 3691:0.057747807 3692:-0.58472073 3693:-0.58472073 3694:-0.39854461 3695:-0.58472073 3696:-0.58472073 3697:0.49685416 3698:-0.86087602 3699:-0.1340697 3700:-1.2681316 3701:-0.50732344 3702:0.3156645 3703:-0.50732344 3704:-0.50732344 3705:-0.50732344 3706:-0.41823533 3707:0.42485413 3708:-0.41823533 3709:0.49737903 3710:-0.13762687 3711:-0.13762687 3712:-0.28020447 3713:0.053957682 3714:-0.13762687 3715:-0.13762687 3716:-0.2852467 3717:-0.13762687 3718:-0.13762687 3719:0.23007368 3720:0.62062943 3721:0.32442257 3722:0.32442257 3723:-0.11148705 3724:0.87688947 3725:-0.089680515 3726:1.024724 3727:0.38816038 3728:0.0074888589 3729:-0.088838659 3730:-0.089680515 3731:-0.089680515 3732:-0.27045831 3733:-0.27045831 3734:-0.27045831 3735:-0.7917186 3736:-0.90449286 3737:-0.35078061 3738:0.90751243 3739:0.74102432 3740:0.40820301 3741:0.40820301 3742:0.40820301 3743:0.40820301 3744:-1.1965044 3745:0.40820301 3746:-0.086012036 3747:0.40820301 3748:0.40820301 3749:0.60734051 3750:0.26783234 3751:0.40820301 3752:-0.45818108 3753:-0.33541077 3754:-0.17618759 3755:-0.58813727 3756:-0.41434607 3757:-0.056061517 3758:-0.056061517 3764:-0.46432334 3766:0.39227948 3771:-0.76125789 3772:0.80584204 3773:0.11288118 3774:-0.19568981 3775:-0.27540469 3776:-0.10546151 3777:-0.031481426 3778:-0.19568981 3779:0.3497645 3780:-0.56924033 3781:-0.56924033 3782:-0.67713147 3783:-0.20406635 3784:-0.56924033 3785:-0.34882832 3786:0.15986812 3787:-0.16025911 3788:-0.34882832 3789:-0.1652593 3790:0.025120581 3791:-0.22102058 3792:-0.19286047 3793:-0.54568154 3794:-0.0057942653 3795:-0.0028971327 3796:-0.0028971327 3797:0.44052753 3798:0.98909664 3799:1.1181949 3800:-0.25026077 3801:-0.25026077 3802:0.057891142 3803:0.057891142 3804:-1.028434 3805:0.11370674 3806:0.057891142 3807:0.057891142 3808:-0.16997369 3809:0.057891142 3810:0.11578228 3811:0.057891142 3812:0.76532531 3813:0.057891142 3814:-0.13361746 3815:-0.13361746 3816:0.83333081 3817:0.028090782 3818:0.052757304 3819:0.10481979 3820:0.66926569 3821:-0.33382779 3822:-0.24826065 3823:-0.55378222 3824:0.56526452 3825:0.30126157 3826:0.12239892 3827:0.4846375 3828:0.15288469 3829:-0.020874105 3830:0.4846375 3831:0.056273207 3832:0.40583631 3833:0.46153742 3834:0.86591053 3835:0.033701289 3836:5.3193537e-05 3837:0.033701289 3838:0.010035296 3839:-0.24620552 3840:1.1841004 3841:0.10926544 3842:0.57360488 3843:0.86853379 3844:-0.1349815 3845:0.71966481 3846:0.52296633 3847:-0.0046828403 3848:0.6441018 3849:-0.01404852 3850:-0.0046828403 3851:0.10569832 3852:-0.0046828403 3853:-0.097316362 3854:-0.0046828403 3855:0.073864818 3856:-0.0046828403 3857:-0.10840659 3858:-0.51497358 3859:0.24662459 3860:-0.10840659 3861:0.061410334 3862:-0.10840659 3863:-0.10840659 3864:-0.5407638 3865:-0.22430454 3866:-0.22430454 3867:0.18356054 3868:0.57933754 3869:0.1836455 3870:0.1836455 3871:0.1046586 3872:0.1046586 3873:0.4274517 3874:0.15942194 3875:0.1046586 3876:0.34892997 3878:0.19267254 3879:-0.1265174 3880:1.1713036 3882:-0.22337906 3883:-0.031826235 3884:-0.42486468 3885:-0.54283971 3886:0.12574196 3887:-0.031826235 3888:-0.031826235 3889:-0.031826235 3890:-0.031826235 3891:0.29919624 3892:-0.031826235 3893:0.31366202 3894:0.90238941 3895:-0.40467015 3896:0.032177478 3897:-0.16710755 3898:-0.67024559 3899:0.17733732 3900:0.18290594 3901:0.18290594 3902:0.056652043 3903:0.54826474 3904:0.66722643 3905:0.23695841 3906:-0.13616917 3907:-0.49710333 3908:-0.066884585 3909:-0.13616917 3910:-0.13616917 3911:-0.13616917 3912:-0.13616917 3913:-0.048407055 3914:-0.048407055 3915:-0.81675601 3916:0.31081215 3917:-0.048407055 3918:0.055277694 3919:0.91118801 3920:-0.089393109 3921:-0.56791079 3922:0.29890499 3923:0.46429041 3924:-0.23599231 3925:-0.12453005 3926:-0.14603861 3927:-0.29460451 3928:1.0999846 3929:-0.46646073 3930:-0.66418797 3931:-0.43831366 3932:0.096604377 3933:-0.30026266 3935:-0.74198055 3937:0.34362116 3938:0.65854311 3939:0.0002916494 3940:-1.0616387 3941:-0.63142169 3942:-0.63249153 3943:-0.14807563 3944:0.1932351 3945:-0.40939957 3946:0.50869644 3947:-0.6129747 3948:0.50869644 3949:-0.18925415 3950:-0.34030145 3951:1.0472139 3952:0.1621429 3953:-0.55251342 3954:-0.61725098 3955:-0.36150241 3956:-0.12671198 3957:-0.29807681 3958:-0.018873584 3959:-0.68106908 3960:-0.68106908 3961:-0.68106908 3962:-0.68106908 3963:0.016694175 3964:1.0400661 3965:-0.73999554 3966:-0.42335591 3967:-0.46784952 3968:-0.77822459 3969:-0.62268907 3970:-0.40284941 3971:-1.0618262 3972:0.025991615 3973:0.46706626 3974:0.32416484 3975:0.25598699 3976:-0.019618403 3977:0.25598699 3978:0.25598699 3979:-0.29917648 3980:0.11774194 3981:-0.29917648 3982:-0.29917648 3983:-0.29917648 3984:0.5993138 3985:0.40637124 3986:-0.50657141 3987:-1.0122818 3988:0.70933473 3989:-0.46484983 3990:-0.80975962 3991:0.23095475 3992:0.23095475 3993:0.23558034 3994:0.30154607 3996:-0.48667011 3998:-0.093985446 3999:-0.093985446 4000:0.43342164 4001:-0.78113598 4002:-0.71418351 4003:-1.1100214 4004:0.34367624 4005:0.23854189 4006:0.19746034 4007:0.15804049 4008:0.11215349 4009:0.054385766 4010:0.01759135 4011:0.25695756 4012:-0.31183138 4013:-0.31183138 4014:0.71322954 4015:-0.18900211 4016:-0.22115584 4017:-0.02071985 4018:-0.02071985 4020:-0.1411608 4021:-0.35318223 4022:-0.57955498 4023:-0.35318223 4024:0.070866726 4025:-0.68489611 4026:0.67838311 4030:-0.25688109 4031:-0.14368913 4034:0.059800755 4036:0.1167848 4037:-0.71042752 4038:0.15935792 4039:0.39987421 4040:-0.31768012 4041:-0.13519301 4042:0.13940667 4043:-0.31904173 4044:-0.20495078 4045:-1.0862088 4046:-0.48765245 4047:0.81704193 4048:-0.62850833 4049:-0.10271762 4051:0.21063395 4052:-0.35705924 4053:-0.013305342 4054:0.10868445 4055:0.028601443 4056:0.046580613 4057:0.046580613 4058:0.046580613 4059:-1.1758754 4060:0.046580613 4061:0.046580613 4062:-0.23122367 4063:-0.24749 4064:-0.81423593 4065:-0.24749 4066:-0.24749 4067:-0.24749 4068:0.15536155 4070:-0.21908849 4072:-2.0635664 4073:0.046621066 4075:-0.48136148 4076:-0.16113861 4077:-0.34970671 4078:0.46702939 4079:-0.018202938 4080:0.095435038 4081:0.64288563 4082:0.29098916 4083:0.4265486 4084:0.4265486 4085:0.4265486 4086:1.0178496 4087:0.4265486 4088:-0.44431949 4089:0.13647033 4090:0.70088285 4091:0.056854669 4092:0.4203341 4093:-0.53795111 4094:-0.054223355 4095:-0.75566733 4096:-1.0103184 4097:0.99235976 4098:0.36887735 4099:-0.012176229 4100:0.29749721 4101:0.071339086 4106:0.35898203 4108:0.15745394 4113:0.0091326013 4114:0.24305834 4115:-0.33045089 4116:-0.10329685 4117:-0.57821637 4118:-0.33045089 4119:0.14192896 4120:-0.22090407 4122:1.1843177 4123:0.067803338 4124:-0.058795273 4125:-0.26669186 4128:-0.12999302 4130:-0.015471447 4131:0.12308862 4132:0.093644053 4133:0.12308862 4134:-0.2782844 4135:-1.1388644 4136:0.50329465 4137:-0.13742721 4138:0.062547378 4139:-0.3267926 4140:-0.16300695 4141:-0.091097184 4142:-0.30707896 4143:0.0260775 4144:-0.24720442 4145:-0.97123826 4146:-0.19981706 4147:-0.27840218 4148:-0.19981706 4149:0.15002383 4150:0.35503119 4151:0.35503119 4152:0.20931153 4153:-0.5871864 4154:0.20931153 4155:0.059913587 4156:0.074229516 4157:-0.3512159 4158:0.40885073 4159:0.47454798 4160:-0.45119116 4166:0.19834384 4169:-1.2639934 4170:0.71092463 4171:0.56266439 4172:0.56266439 4173:0.012896954 4174:-1.1243632 4175:1.3945897 4176:0.012896954 4177:-0.86346757 4178:0.012896954 4179:0.58765227 4180:-0.018555943 4181:-0.018555943 4182:-0.018555943 4184:-1.0224781 4186:-0.29185757 4187:0.48755541 4188:-0.27215451 4189:-0.27215451 4190:-0.326314 4191:0.080843024 4192:-0.88293213 4193:-0.2385824 4194:-0.2385824 4195:-0.2385824 4196:-0.2385824 4197:0.11115789 4198:-0.44743335 4199:-0.68742436 4200:-0.68742436 4201:-0.009060177 4202:-0.1493057 4203:-0.42779946 4204:-0.030582681 4205:-0.42779946 4206:-0.42779946 4207:0.21845712 4208:-0.41962671 4209:1.9511266 4210:0.27472398 4211:0.27472398 4212:0.27472398 4213:-0.22158888 4214:-0.033804711 4215:-0.033804711 4216:-0.60011882 4217:0.67964989 4218:-0.033804711 4219:-0.34575722 4220:-0.043939203 4221:0.010797244 4222:0.29310986 4223:-0.043939203 4224:-0.23721561 4225:-0.23721561 4226:0.1792845 4227:-0.23721561 4228:-0.23721561 4229:1.196949 4230:-0.80395848 4231:-0.39332405 4232:-0.16517529 4233:-0.33849242 4234:-0.16517529 4235:0.11473901 4236:0.16192986 4237:0.54907829 4238:0.043762237 4239:0.16192986 4240:0.043762237 4241:0.13782573 4242:0.043762237 4243:-0.53217864 4244:-0.26856166 4245:-0.11219211 4246:-0.21966875 4247:-0.21966875 4248:-0.21966875 4249:0.39893338 4250:-0.21966875 4251:-0.92945969 4252:-0.21966875 4253:-0.21966875 4254:-0.21966875 4255:-0.21966875 4256:-0.20800819 4257:-0.2486622 4258:-0.058686413 4259:-0.17216802 4260:-0.17237571 4261:-0.66132647 4262:0.52388513 4263:0.14737391 4264:0.75924051 4265:0.21491571 4266:0.21491571 4267:0.40932551 4268:0.77386814 4269:0.085584931 4270:-0.94221491 4271:-0.036639836 4272:-0.39371246 4273:-0.48889932 4276:0.04875277 4277:0.069628268 4278:-0.031961754 4279:0.04875277 4280:0.18786734 4281:-0.46935695 4282:-0.69686919 4283:-0.69686919 4284:0.21150286 4285:-1.0272967 4286:-0.11478495 4287:-0.11478495 4288:-0.11478495 4289:-0.68098122 4290:-0.11478495 4291:-0.1063087 4292:-0.39054933 4293:-0.11119319 4294:-0.11119319 4295:-0.15472776 4296:-0.11119319 4297:-1.0505128 4298:-0.61109698 4299:0.34799996 4300:0.5584287 4301:0.5584287 4302:0.10343836 4303:0.10343836 4304:0.10343836 4305:0.45597562 4306:-0.2874712 4307:0.1300475 4308:-0.017103074 4309:-0.25406936 4310:0.21549797 4311:0.10038909 4312:-0.017103074 4313:-0.017103074 4314:-0.017103074 4315:-0.017103074 4316:0.45020708 4317:0.4907442 4318:0.45020708 4319:-0.58180851 4320:0.0025633187 4321:-0.67728555 4322:-0.19972757 4323:0.090479501 4324:-0.29011109 4325:-0.66385663 4326:-0.66977715 4327:0.14552689 4328:0.0558156 4329:0.0558156 4330:0.0558156 4331:-0.1779965 4332:-0.0019938592 4333:0.19509721 4334:0.19509721 4335:-0.30804086 4336:-0.11264058 4337:0.0051338673 4338:0.19509721 4339:0.32809594 4340:0.16319527 4341:-0.19217926 4342:-0.17939657 4343:0.31716391 4344:1.619812 4346:-0.42748874 4347:0.34530473 4348:0.025110848 4349:0.025110848 4350:0.00049062195 4351:-0.072660416 4352:0.00049062195 4353:-0.049174361 4354:0.39060485 4355:-0.4746688 4356:0.97348517 4357:0.78014505 4358:-0.4802337 4359:0.34742537 4360:0.48580039 4361:0.48580039 4362:0.48580039 4363:0.75697142 4364:-0.32191503 4365:-0.23653227 4366:-0.23653227 4367:-0.23653227 4368:-0.48489487 4369:0.27297312 4370:-0.64537132 4371:-0.050620019 4372:0.19467854 4373:-0.050620019 4374:0.25218067 4375:-0.050620019 4376:-0.31180865 4377:0.0041164248 4378:-0.050620019 4379:-0.050620019 4380:-0.82808501 4381:-0.050620019 4382:-0.20969047 4383:-0.25773558 4384:0.18826054 4385:0.83175898 4386:0.3645618 4387:-0.56568128 4388:0.54528379 4389:0.3645618 4390:-0.067836128 4391:0.3645618 4392:-0.20135392 4393:-0.052226078 4394:0.4758805 4395:0.47520819 4396:-0.052226078 4397:-0.626068 4398:-0.45127201 4399:0.12339851 4400:-0.61399662 4401:-0.69374931 4402:-0.071731344 4403:-0.071731344 4404:-0.071731344 4405:-0.24647561 4406:-0.79418141 4407:-0.70016474 4408:-0.79418141 4409:0.012851112 4411:0.36229149 4412:0.30632961 4413:0.4432992 4414:0.30632961 4415:-0.35593686 4416:0.24988291 4417:-0.0072322018 4419:-0.39771825 4420:-0.48378012 4421:-0.09542919 4422:0.82378626 4423:-0.23753794 4424:-0.33729509 4425:-0.23753794 4426:-0.33729509 4427:-0.29201317 4428:-0.12108814 4429:-0.12108814 4430:0.92969835 4431:-0.1880697 4432:0.30618247 4433:-1.1551896 4434:-1.1551896 4435:0.43726087 4436:0.43726087 4437:-0.026284022 4438:-0.76834893 4439:0.38042358 4440:-0.90561354 4441:0.068859145 4442:-0.17761165 4443:0.026139997 4444:0.04127869 4445:0.020187043 4446:-0.54532617 4447:-0.33187491 4448:0.026139997 4449:0.026139997 4450:0.95175862 4451:0.026139997 4452:0.026139997 4453:-0.46952844 4454:1.1751888 4455:0.88389224 4456:0.2159726 4457:0.46353558 4458:-0.65826994 4459:-0.70699418 4461:0.28170905 4462:1.3480315 4463:0.67285985 4464:0.37829846 4465:-0.74577981 4466:-0.55919766 4467:0.086090855 4468:0.21531604 4469:0.021995408 4470:0.65109563 4471:-0.01593261 4472:0.24052158 4473:0.24052158 4474:-0.57591987 4475:-0.26357669 4476:-0.76200432 4477:0.15171188 4478:0.15171188 4479:0.12429351 4480:0.046023339 4481:0.12429351 4482:0.12429351 4483:-0.11579711 4484:-0.53898996 4485:-0.49499032 4486:0.34481394 4487:-0.27378821 4488:-0.27378821 4489:-0.27378821 4490:-0.27378821 4491:-0.50032026 4492:-0.15854548 4493:-0.15854548 4494:-0.16289726 4495:0.096697249 4496:0.096697249 4497:0.096697249 4498:0.096697249 4499:-0.46348065 4500:0.059364632 4501:0.26292187 4502:0.096697249 4503:-0.033272132 4504:0.096697249 4505:0.096697249 4506:1.8802413 4507:-0.073062494 4508:-0.073062494 4509:-0.44679084 4510:-0.073062494 4511:0.43789709 4512:0.43789709 4513:-0.54615313 4514:0.43789709 4515:0.43789709 4516:-0.46696717 4517:0.142749 4518:0.19470668 4519:-0.019486085 4520:-0.019486085 4521:-0.019486085 4522:0.25012544 4523:0.25012544 4524:0.80849624 4525:-0.044098541 4526:0.49932119 4527:-0.14486475 4528:0.47911069 4529:-0.07308615 4530:0.91015476 4531:-0.31938338 4532:-0.194194 4533:-0.41148564 4534:-0.8093816 4535:-0.16306382 4536:-0.11816762 4537:0.16304299 4538:0.61701053 4539:-0.30395597 4540:-0.43032587 4541:-0.24948566 4542:-0.39899534 4543:0.9765408 4544:0.35027561 4545:0.23104794 4546:-0.045106683 4547:0.79814392 4548:0.47165692 4549:-0.10809038 4550:-0.10851537 4551:0.10493036 4552:0.10493036 4553:-0.26417315 4554:-0.38828889 4555:0.052153211 4559:-0.17180122 4560:0.34239271 4561:-0.77155817 4562:-0.13036267 4563:-1.1161419 4564:-0.44548982 4565:0.1000838 4566:-0.11585867 4567:-0.041115087 4568:-0.21986322 4569:-0.46484187 4570:-0.058329184 4571:-0.46484187 4572:-0.79052043 4573:-0.090138383 4574:-0.2092614 4576:-0.11184119 4577:-1.3985748 4578:-0.77351785 4579:-0.19186538 4580:1.2159233 4581:-0.2275022 4582:0.065351509 4583:0.065351509 4584:0.41233209 4585:0.065351509 4586:-0.018624404 4587:-0.16695459 4588:0.8639763 4589:-0.6607157 4590:0.065351509 4591:0.065351509 4592:0.065351509 4593:0.065351509 4594:-0.29897392 4595:0.21271479 4596:-0.15766187 4597:0.0076939422 4599:-0.012769859 4600:-0.14944535 4601:0.66160607 4602:0.74353582 4603:0.30695653 4604:0.018236194 4607:0.11167316 4608:-0.51798153 4611:0.52351993 4612:-0.16240026 4613:-0.6222927 4614:-0.16240026 4615:-0.16240026 4616:-0.16240026 4617:-0.57310003 4618:-0.16240026 4619:0.41547585 4620:0.61541408 4621:-0.21516286 4622:-0.2472484 4623:-0.21516286 4624:-1.171385 4625:-0.21516286 4626:-0.28887132 4627:-0.56198478 4628:-0.31917414 4629:-0.31917414 4630:-0.31917414 4631:-0.65890759 4632:-0.037125554 4633:-0.032891091 4634:0.14024553 4635:-0.24902037 4637:-0.24196489 4639:-0.052963465 4640:-0.39476106 4641:-0.013907523 4642:-0.39476106 4643:-0.013907523 4644:0.22764914 4645:-0.10910028 4646:-0.40310383 4647:-0.62744111 4648:-0.18286009 4649:-0.15413845 4650:0.15999079 4651:0.15999079 4652:0.072474517 4653:0.39856026 4654:-0.71721089 4655:-0.0043517756 4656:-0.051396832 4657:-0.56714028 4658:0.64624614 4659:-0.72933978 4660:1.1194906 4661:0.87497103 4662:0.026699545 4663:0.42349806 4664:0.42349806 4665:-0.55837077 4666:0.078943051 4667:-0.29352495 4668:0.23951162 4669:0.14981139 4670:0.14981139 4671:0.14981139 4672:0.14981139 4673:-0.0016068129 4674:-0.17311972 4675:-0.43302664 4678:-0.22582063 4679:-0.16369601 4680:0.033964369 4681:-0.64325249 4682:-0.78157765 4683:-0.26702666 4684:0.015353133 4685:0.33774835 4686:-0.68378067 4687:0.25688359 4688:0.22715405 4689:0.30886757 4690:0.93592101 4691:-0.80299777 4692:0.80206555 4693:-0.42939234 4694:-0.67783827 4695:-0.86986917 4696:0.7943638 4697:-0.086411849 4698:-0.10353936 4699:-0.061461087 4700:-0.086411849 4701:0.12222147 4702:0.48323295 4703:-0.086411849 4704:-0.1728237 4705:-0.39627048 4706:-0.35589504 4707:-0.33791882 4708:0.16381268 4709:0.33138412 4710:0.26080969 4711:0.41056937 4712:0.028747482 4713:0.028747482 4714:0.3868984 4715:0.30447555 4716:-0.8140524 4717:-1.047491 4720:-0.2580938 4722:-0.11136421 4723:-0.1521847 4724:0.20110486 4725:0.20110486 4726:0.20110486 4727:0.30478668 4728:0.20110486 4729:0.20110486 4730:0.20110486 4731:-0.57375997 4732:0.68071431 4735:-0.42064625 4736:-0.22780439 4739:2.2310071 4740:0.037581947 4741:0.9350518 4742:0.7581448 4743:-0.64174062 4744:-0.86347014 4745:0.63006508 4746:-0.29422396 4747:-0.59048289 4748:-0.29422396 4750:0.49743274 4751:0.33197433 4754:-0.1541722 4755:-0.40262887 4758:-0.49395016 4759:-0.94025284 4760:0.10517396 4761:-0.48130357 4762:-0.48130357 4763:0.096572526 4764:-0.37452871 4765:0.62510574 4766:0.082111157 4767:-0.47266629 4768:-0.47266629 4769:0.36588544 4770:0.69385237 4771:0.69385237 4772:0.28174406 4773:-0.76332933 4774:-0.41022089 4775:-0.49754336 4776:-0.050691213 4777:-0.050691213 4778:-0.050691213 4779:-0.050691213 4780:0.39191794 4781:0.52474731 4782:-0.16952057 4783:0.33954209 4784:-0.050691213 4785:-0.092541479 4786:0.71911627 4787:-0.02574045 4788:0.71911627 4789:-0.12207134 4790:0.36830205 4791:0.27242479 4792:-0.15792738 4794:-0.52690071 4795:0.69924653 4796:0.069671609 4797:-0.28669196 4798:0.2635487 4799:1.0672826 4800:0.47865936 4801:-0.86143297 4802:-1.4901528 4803:0.028810421 4804:0.16094495 4805:0.16094495 4806:0.16094495 4807:-0.34745818 4808:0.17636769 4809:0.30491802 4810:0.17636769 4811:0.17636769 4812:-0.43842268 4813:-0.069779992 4814:0.33102247 4815:0.054089569 4816:0.33102247 4817:-0.45552588 4818:0.24757417 4819:0.18382989 4820:-0.28644615 4821:-0.19588166 4822:-0.37390861 4823:-0.5315811 4824:-0.5315811 4825:0.24823916 4826:0.24823916 4827:0.24823916 4828:0.28048196 4829:-0.10576779 4830:-0.10576779 4831:-0.10576779 4832:-0.35617051 4833:-0.10576779 4834:0.62242073 4835:-0.10576779 4836:0.82865578 4837:-0.093541116 4838:-0.10576779 4839:-0.10576779 4840:-0.31668368 4841:-0.10576779 4842:0.1920971 4843:0.0069777346 4844:0.74188495 4845:0.22271991 4846:0.22271991 4847:0.22271991 4848:0.22271991 4849:0.088445008 4850:0.21373586 4851:0.22271991 4852:0.12296784 4853:0.92065912 4854:0.71483219 4855:0.079443976 4856:1.963273 4857:0.83937562 4858:-0.11576412 4859:0.12740581 4860:-0.67922533 4861:0.12740581 4862:-0.85033882 4863:0.12740581 4864:0.12740581 4865:0.12740581 4866:-0.63247788 4867:-0.63247788 4868:-0.63247788 4869:0.60131526 4870:-0.1265174 4871:0.22920409 4872:0.34564641 4873:-0.48901927 4874:0.49879226 4875:-0.71013206 4876:-0.1265174 4877:0.61608464 4878:-0.18110003 4879:-0.18110003 4880:-0.18110003 4881:0.015028641 4882:1.0455343 4886:-0.33687919 4889:-0.43707597 4890:-0.06913574 4891:0.15572783 4892:0.44961935 4893:-0.071380131 4894:-0.071380131 4895:0.021888707 4896:0.35923666 4897:0.35923666 4898:0.59290814 4899:-0.42948845 4900:-0.59544355 4901:1.2577988 4902:0.60050875 4903:0.8476429 4904:0.13350247 4905:0.24903747 4906:0.71668363 4908:0.88106233 4909:1.0640924 4910:0.17977034 4911:0.18845505 4912:0.46395257 4913:-0.61881864 4914:1.0353773 4915:0.18845505 4916:-0.35002434 4917:0.2264822 4918:1.9683776 4919:-0.99431783 4920:-0.72762597 4921:-0.72762597 4922:-0.25122625 4923:-0.72762597 4924:-1.2482471 4925:-0.78835493 4926:-0.053488344 4927:-0.053488344 4928:-0.51394922 4931:0.94495416 4932:0.39875764 4933:0.39875764 4934:-0.13195471 4935:0.39875764 4936:0.39875764 4937:0.39875764 4938:0.2647725 4939:0.075476162 4940:0.39875764 4941:0.77911216 4942:0.39875764 4943:1.2149794 4944:0.39875764 4945:0.22983861 4946:0.22983861 4947:0.22983861 4948:0.22983861 4949:0.22983861 4950:-0.36979553 4951:0.22983861 4952:0.73742253 4953:0.059406701 4954:-0.37372833 4955:0.14773348 4956:0.14773348 4957:0.14773348 4958:0.14773348 4959:0.16084272 4960:0.14773348 4961:-0.70706254 4962:0.14773348 4963:0.52405167 4964:-1.0371555 4965:-0.1333051 4966:0.35586986 4967:0.58230776 4968:-0.026721882 4969:-0.026721882 4970:-0.053443763 4971:1.4030807 4972:-0.11532689 4973:0.26358497 4974:-0.026721882 4975:-0.42447159 4976:-0.026721882 4977:-0.026721882 4978:-0.69924372 4979:-0.26216817 4980:-0.67832053 4981:-0.64063406 4982:-0.36728483 4983:0.011772001 4984:-0.17704241 4985:-0.05887099 4986:0.011772001 4987:-0.4748981 4988:0.011772001 4989:0.18336114 4990:0.011772001 4991:0.011772001 4992:0.011772001 4993:0.23653203 4994:0.011772001 4995:0.011772001 4996:1.2888528 4997:0.69004768 4998:0.54705089 5000:-0.18958053 5001:-0.18958053 5002:0.39432865 5003:0.61050683 5004:-0.041408323 5005:0.16313906 5006:-0.092067309 5007:-0.14185953 5008:-0.092067309 5009:-0.19329141 5010:-0.092067309 5011:0.090807989 5012:-0.075516842 5013:-0.092067309 5014:-0.0027477723 5015:-0.26588732 5016:-0.074036635 5017:-0.26588732 5018:0.41093567 5019:1.5316823 5020:0.66492236 5021:0.66492236 5022:0.48375717 5023:-0.50887501 5024:-0.087490529 5025:0.16176981 5026:0.53100467 5027:-0.77138281 5028:0.48370567 5029:0.16176981 5030:0.16176981 5031:0.16176981 5032:0.47107619 5033:-0.29852372 5034:-0.27206427 5035:-0.19430026 5036:-0.76116955 5037:-0.030658606 5038:-0.39053601 5039:-0.35126293 5040:0.52843845 5041:-0.11545088 5042:-0.98622066 5043:0.58511722 5044:0.59143132 5045:-0.713521 5046:-0.713521 5047:-0.53209817 5048:-0.713521 5049:0.1149637 5050:0.1149637 5051:0.1149637 5052:0.1149637 5053:0.25075722 5054:0.12827747 5055:0.12827747 5056:-0.17032176 5057:0.32407936 5058:0.22152528 5059:0.22152528 5060:0.75024891 5061:0.75024891 5062:0.41282058 5063:-0.31699744 5064:-0.087647386 5065:-0.087647386 5066:-1.0109799 5067:-0.39480406 5068:-0.081340998 5069:-0.71909356 5070:-0.22229613 5071:-0.72182798 5072:-0.39480406 5073:-0.39480406 5074:0.18098943 5075:0.18098943 5076:0.18098943 5077:0.18098943 5078:0.18098943 5079:-1.1694585 5080:-0.78843671 5081:0.32113019 5082:0.54285967 5083:0.32113019 5084:0.32113019 5085:0.33215284 5086:0.32113019 5087:0.32113019 5088:0.32113019 5089:0.87618625 5090:0.62434363 5091:0.13324213 5092:0.081065625 5093:0.081065625 5094:-0.29312906 5096:-0.18709356 5097:-0.5269751 5099:0.31589818 5101:0.17460127 5102:0.20531587 5103:0.13922244 5104:0.13922244 5105:0.97754937 5106:0.13922244 5107:0.090228312 5108:0.090228312 5109:0.090228312 5110:-0.17294268 5111:0.090228312 5112:0.090228312 5114:-0.25424305 5115:-0.38516405 5116:-0.045747403 5117:0.044719256 5118:-0.10484887 5119:-0.10484887 5120:0.65760809 5121:-1.1238974 5122:1.3721129 5127:-0.48264211 5129:0.22325364 5130:-0.16702299 5131:-0.78384274 5133:1.2296038 5136:-0.015853234 5137:-0.015853234 5138:0.65530968 5139:0.65530968 5140:-0.61101419 5141:-0.7300303 5142:-0.97190779 5143:0.11285862 5144:0.60497093 5145:1.2338623 5146:-0.079768181 5147:0.68584436 5148:0.58980346 5149:-0.40433821 5150:-0.12668331 5151:-0.12668331 5152:0.61727083 5153:0.61727083 5154:0.61727083 5155:0.17578869 5156:0.17578869 5157:0.15046345 5158:0.15046345 5159:0.15046345 5160:0.74483597 5161:0.15046345 5162:-0.30747843 5163:1.6537819 5164:0.15046345 5165:0.15046345 5166:0.15046345 5167:0.73787093 5168:0.10026068 5169:0.030175008 5170:0.10026068 5171:0.30138516 5173:-0.73450369 5174:-0.32333344 5175:-0.53936952 5177:-0.0071369288 5178:0.031046517 5179:-0.097445019 5180:0.27675709 5181:-0.097445019 5182:-0.097445019 5183:-0.097445019 5184:-0.097445019 5185:-0.097445019 5189:-0.46421054 5190:0.55531061 5192:-0.48111817 5194:-0.24269748 5196:0.75268656 5197:0.29879019 5198:-0.10209801 5199:0.22294831 5200:0.64375943 5201:-0.22731107 5202:0.40963119 5203:-0.21014875 5204:0.48979029 5205:0.66521108 5210:-0.32162625 5211:-0.32162625 5212:-0.0071475995 5214:0.34805018 5217:-0.29750347 5218:-0.29750347 5219:-0.17643295 5220:-0.17643295 5221:-0.17643295 5222:1.1437221 5223:0.21349448 5224:0.21349448 5225:0.21349448 5226:0.036033504 5227:-0.26977241 5228:0.37390268 5229:0.0063210046 5230:0.0063210046 5231:-0.88927102 5232:0.0063210046 5233:-0.035269279 5234:-0.014263817 5235:-0.015435029 5236:-0.5548833 5237:0.23839805 5238:-0.082818858 5239:0.3024188 5240:0.45305121 5241:0.37351716 5242:0.17435916 5243:0.22476003 5244:0.22476003 5245:0.22476003 5246:0.22476003 5247:0.22476003 5248:0.22476003 5249:0.22476003 5250:0.22476003 5251:0.22476003 5252:-0.27898505 5253:0.61307812 5254:-0.27898505 5255:-0.27898505 5256:2.0150824 5257:0.74224609 5258:1.3091244 5259:0.014753768 5260:0.83029366 5261:0.83029366 5262:0.7629177 5263:-0.40657014 5264:0.80728883 5265:-0.63478833 5266:-0.14038084 5267:-0.14038084 5268:-0.14038084 5269:0.073424205 5270:0.073424205 5271:0.15053056 5272:0.33213717 5273:0.33213717 5274:0.33213717 5275:-0.48667011 5276:-0.47409528 5277:-0.2861087 5278:0.050531812 5279:0.34594899 5280:0.46331796 5281:-0.63777995 5282:-0.80410379 5283:1.1970453 5284:-0.63777995 5285:-0.63777995 5288:0.48074099 5289:0.43239793 5290:0.23717062 5291:0.23717062 5292:0.23717062 5293:-0.056949165 5294:0.23717062 5295:0.20464335 5296:0.22869831 5297:-0.52243918 5298:-0.36178806 5299:0.49354017 5300:0.30385309 5301:-0.97054625 5302:0.12321167 5303:0.33108249 5304:-0.30409977 5305:-0.01159755 5306:0.53539151 5307:0.46933252 5308:0.37705907 5309:1.649065 5310:0.1387973 5311:0.1387973 5312:0.1387973 5313:0.1387973 5314:0.1387973 5315:-0.17167598 5316:0.6373142 5317:-0.089811139 5318:-0.089811139 5319:-0.26450071 5320:-0.26450071 5321:-0.26450071 5322:-0.26450071 5323:-0.073020853 5324:-0.39121541 5325:-0.084411778 5326:0.030490231 5327:-0.6043573 5328:-0.6043573 5329:-0.17994787 5330:-0.6687541 5331:-0.6043573 5332:-0.88370216 5333:0.27721179 5334:0.27721179 5335:-0.62732178 5336:0.27721179 5337:0.27721179 5338:0.13554905 5339:0.22795126 5340:0.45590252 5341:0.92042106 5342:0.22795126 5343:0.22795126 5344:0.14465219 5345:0.056643244 5346:0.22795126 5347:-0.073866777 5348:0.22795126 5349:-0.0087229563 5350:-0.034420628 5351:-0.034420628 5352:0.32137784 5353:0.27251294 5354:0.74859709 5355:-0.43548396 5356:0.32384911 5357:0.10208533 5358:0.10208533 5359:0.10208533 5360:-0.72998369 5361:-0.48693937 5362:-0.43835995 5363:0.47216383 5364:0.13038248 5365:0.67274463 5366:0.024707854 5367:-0.14148587 5368:-1.2981761 5369:-0.50893998 5370:-0.59357923 5371:-0.77175498 5372:-0.50893998 5373:0.047405273 5374:0.047405273 5376:0.29091454 5377:-0.19544773 5378:0.75967568 5379:-1.0879848 5380:-0.19544773 5381:0.25623074 5382:0.26325241 5383:0.21118994 5384:0.55798352 5385:0.47357771 5386:0.11143786 5387:0.21118994 5388:0.21118994 5389:0.21118994 5390:0.25904849 5391:2.2723427 5392:0.45702186 5393:-0.08450339 5394:-0.59960145 5395:0.26500511 5396:0.37108606 5397:0.37108606 5398:0.39196154 5399:0.37108606 5400:0.034629859 5401:0.37108606 5402:0.37108606 5403:0.37108606 5404:0.16254711 5405:0.37108606 5406:-0.27663067 5407:-0.76795763 5408:-0.66733027 5409:-0.66733027 5410:0.070471533 5411:-0.47857648 5412:0.008286057 5413:0.008286057 5414:0.32901266 5415:0.046712205 5416:-0.15666929 5417:0.008286057 5418:0.008286057 5419:0.46627653 5420:0.008286057 5421:0.008286057 5422:0.008286057 5423:1.151879 5424:0.18923613 5425:-0.35385355 5426:-0.35385355 5427:-0.35385355 5428:-0.13126625 5429:-0.47940591 5430:-0.35385355 5431:-0.62285811 5434:-1.4282032 5435:-0.64273268 5437:-0.40357795 5438:0.50047857 5439:-0.74378717 5440:0.060731586 5441:0.060731586 5442:0.060731586 5443:0.24981603 5444:0.060731586 5445:0.060731586 5446:0.060731586 5447:0.060731586 5448:0.060731586 5449:-0.099686339 5450:0.060731586 5451:0.2841115 5452:0.44433525 5453:0.23446928 5454:0.11485208 5455:0.11485208 5456:0.33220261 5457:0.10167838 5458:0.21127951 5459:0.21127951 5460:0.21127951 5461:0.04495158 5462:-0.014150003 5463:0.21127951 5464:-0.17130801 5465:0.061073165 5466:-0.17130801 5467:-0.17130801 5468:0.89936602 5470:-0.68240088 5471:-1.118951 5472:0.47556487 5473:-0.79434413 5474:0.18779375 5475:0.18779375 5476:0.57896817 5477:0.18779375 5478:-0.44115061 5480:0.42493469 5481:0.18827046 5482:0.18827046 5483:0.18827046 5484:0.18827046 5485:0.18827046 5486:0.18827046 5487:0.18827046 5488:0.41505629 5489:0.41505629 5490:0.42935324 5491:1.7591652 5492:0.42935324 5493:0.67199761 5494:0.39584583 5495:-0.9363516 5496:-0.64258564 5497:0.47216415 5498:-0.37874016 5499:0.22337991 5500:0.4290106 5501:0.3494975 5502:-0.055429116 5503:0.22337991 5504:-0.74076355 5505:0.024707854 5506:-0.15137406 5507:0.78090078 5508:-0.056446686 5509:-0.056446686 5510:0.012263055 5511:0.35845047 5512:0.29342726 5513:0.35845047 5514:0.21554905 5515:1.4863576 5516:0.50601828 5517:-0.19632991 5519:0.20632084 5520:0.16294196 5521:0.065952048 5522:0.2753413 5523:-0.50313807 5524:-0.032348212 5525:-1.1453865 5526:-0.032348212 5527:-0.064696424 5528:-0.064696424 5529:-0.032348212 5530:-0.032348212 5531:-0.032348212 5532:-0.82728428 5533:-0.032348212 5534:-0.012198537 5535:-0.032348212 5536:-0.032348212 5539:0.39678001 5540:0.39678001 5541:0.18728741 5542:0.18728741 5543:0.21067251 5544:0.18728741 5545:0.18728741 5546:0.18728741 5547:0.15332386 5548:0.75940561 5549:1.2562164 5550:0.27312917 5551:0.39877158 5552:0.81444961 5553:-0.21544918 5554:0.033219423 5555:0.033219423 5556:-0.073151045 5557:-0.073151045 5558:0.98761696 5559:-0.073151045 5560:-0.1104922 5561:-1.27223 5562:-0.18192841 5563:-0.22533241 5564:-0.039022923 5565:-0.24041672 5566:-0.68681711 5567:0.50034249 5568:-0.12787305 5569:-0.12787305 5570:-0.12787305 5571:-0.12787305 5572:-0.73103958 5573:-0.73103958 5574:-0.73103958 5575:-1.4776504 5576:0.0930572 5577:0.0930572 5578:-1.0504824 5579:0.44270313 5580:-0.082490735 5581:-0.082490735 5582:-0.38215652 5583:-0.082490735 5584:-0.0089308359 5585:0.021120692 5586:1.8352773 5587:0.37669897 5588:-0.051992018 5589:-0.15043499 5590:-0.88124496 5591:-0.10452505 5592:0.033187393 5593:0.033187393 5595:0.33750665 5596:0.33750665 5597:0.33750665 5598:0.17324619 5599:0.0011946461 5601:0.59160239 5602:0.058527548 5603:0.058527548 5604:0.1170551 5605:0.058527548 5606:0.058527548 5607:0.058527548 5608:0.058527548 5609:0.058527548 5610:-0.93441331 5611:0.17402236 5613:-0.016988948 5614:-0.3589344 5615:-0.3589344 5616:-0.3589344 5617:0.15118399 5618:-0.36112165 5619:-0.0010007025 5620:0.15118399 5621:-0.026498953 5622:0.34445024 5623:0.45290601 5624:1.5008852 5625:0.47299886 5626:-0.16378565 5627:-0.16378565 5628:-0.15141819 5629:0.68733728 5630:-0.15141819 5631:-0.37361079 5632:-0.15141819 5633:-0.14373516 5634:0.28428033 5635:0.51407379 5636:-0.17205155 5637:-0.17919914 5638:-0.17205155 5639:0.32874641 5640:0.36420724 5641:0.24534523 5642:0.3424862 5643:0.24534523 5644:0.24534523 5645:0.24534523 5646:0.2189195 5647:1.1598793 5648:-0.48290908 5649:1.1598793 5650:1.1598793 5651:-0.20715375 5652:0.56106961 5653:0.34697264 5654:-0.06017489 5655:-0.55472785 5656:0.28746557 5657:-0.17576352 5658:-0.099008761 5659:-0.96927363 5660:-0.17576352 5661:-0.17576352 5662:-0.70391953 5663:-0.17576352 5664:-0.29048753 5665:0.28697002 5666:0.28697002 5667:0.28697002 5668:0.28697002 5669:0.28697002 5670:0.28697002 5671:0.21503037 5672:0.21503037 5673:0.21503037 5674:0.21503037 5675:0.61090273 5676:0.59001881 5677:0.024382275 5678:-0.16099671 5679:-0.16099671 5680:-0.16099671 5681:-0.084279537 5682:-0.084279537 5683:-0.11882936 5684:-0.63544989 5685:-0.11882936 5686:0.097806767 5687:-0.11882936 5688:-0.11882936 5689:-0.52677214 5690:-0.52677214 5691:-0.52677214 5692:1.2715393 5693:-1.0310036 5694:0.48654667 5695:0.56827873 5696:0.42221802 5697:-0.26360655 5698:-0.54924411 5699:-0.26360655 5700:-0.26360655 5701:1.0479285 5702:0.45066214 5703:0.32040614 5704:-0.12257574 5705:0.96264279 5706:-0.14170258 5708:-0.24979433 5709:0.056553181 5710:-0.30527952 5711:0.030688848 5712:0.044608835 5713:0.044608835 5714:-0.38074782 5715:-0.38074782 5716:-0.38074782 5717:-0.0071475995 5718:0.0079182908 5719:0.03454629 5720:0.23800455 5721:1.0733242 5722:0.22258729 5723:0.22258729 5724:0.045410201 5725:0.22258729 5726:0.22258729 5727:0.22258729 5728:0.79290611 5729:-0.7005198 5730:0.22258729 5731:0.089303307 5732:0.089303307 5733:0.12153775 5734:0.089303307 5735:-1.0932345 5736:0.13278639 5737:0.050140936 5738:-0.042634357 5739:-0.042634357 5740:-0.33494487 5741:0.61430275 5742:0.09444391 5743:0.61430275 5744:0.39208546 5745:0.61430275 5746:0.61430275 5747:1.66619 5748:0.80178219 5749:0.25182229 5750:0.61430275 5751:0.61430275 5752:0.61430275 5753:0.11249577 5754:0.72022545 5755:-0.23200956 5756:0.20243967 5757:0.11249577 5758:0.11249577 5759:0.068961203 5760:0.11249577 5761:-0.080410011 5762:0.21505977 5763:0.34769848 5764:0.1213886 5765:0.29603904 5766:0.41810575 5767:-0.87411714 5768:0.29603904 5769:0.36900073 5770:0.58536834 5771:0.64989305 5772:0.13451499 5773:-0.57932752 5774:-0.53938997 5775:-0.53938997 5776:-0.29624042 5777:-0.53938997 5779:-0.13120775 5780:-0.13120775 5781:-0.13120775 5782:-0.13120775 5783:-0.13120775 5784:0.23183282 5785:-0.4012576 5786:-0.5865882 5787:-0.10669048 5788:-0.10669048 5789:0.10924316 5790:0.24392506 5791:-0.10669048 5792:0.85797662 5793:0.82909548 5794:-0.59549457 5795:-0.88789338 5796:0.089513183 5797:-0.033572104 5798:0.26717079 5799:-0.66286558 5800:-0.033572104 5801:0.10602193 5802:-0.033572104 5803:-0.033572104 5804:-0.033572104 5805:-0.20480382 5806:0.19818278 5807:-0.30398616 5808:-0.30398616 5809:-0.046465214 5810:0.10953477 5811:-0.33877572 5812:0.037928596 5813:-0.046465214 5814:-0.026315538 5815:-0.023721743 5816:-0.16500804 5817:-0.22964445 5818:0.42315963 5819:0.42315963 5820:0.65052789 5821:-0.015914952 5822:0.52835697 5823:0.44853175 5824:0.44853175 5825:0.30172202 5829:-0.53005522 5831:0.3260186 5832:0.3260186 5833:0.529369 5834:0.1432465 5835:0.51952535 5836:-0.60608178 5837:-0.60608178 5838:-0.60608178 5839:-1.1323363 5840:0.39490074 5841:0.20380487 5842:-0.14002538 5843:-0.19871755 5844:0.20380487 5845:0.20380487 5846:0.20380487 5847:-0.23734574 5848:0.20380487 5849:0.20380487 5850:0.20380487 5851:0.77428049 5852:1.0286511 5853:0.47092727 5854:0.57592136 5855:0.57592136 5856:-1.0104051 5857:0.57592136 5858:0.88119191 5859:0.99209368 5860:-0.82513422 5861:-0.813142 5862:-0.813142 5863:-0.72350025 5864:-0.10186613 5865:-0.77088612 5866:-0.10186613 5867:0.13391662 5868:0.13391662 5869:0.13391662 5870:0.14086366 5871:0.13391662 5875:-0.23459575 5876:0.92790794 5877:-1.753947 5878:-0.76393825 5879:-0.76393825 5880:-1.0332204 5881:0.047858562 5882:-0.4626458 5883:-0.085179023 5884:-0.14070995 5885:-1.0496044 5886:-0.75061452 5887:0.6619516 5888:0.12852745 5889:-0.10699902 5890:0.26772976 5891:0.12560202 5892:-0.31791493 5893:-0.19314797 5894:-0.10699902 5895:-0.20522609 5896:-0.17597835 5897:-0.16726841 5898:-0.92931771 5899:-0.89033872 5900:0.56170928 5901:0.56170928 5902:0.56170928 5903:0.56170928 5904:0.30030575 5905:0.56170928 5907:-0.62128586 5908:-0.88432205 5909:-0.04858337 5910:0.37095118 5911:0.45499128 5912:0.022116637 5913:-0.06082679 5914:-0.19876856 5915:-0.053490844 5916:-0.40333697 5917:0.44983056 5918:0.32669911 5919:0.32669911 5920:0.86924952 5921:-0.58713561 5922:-0.63177305 5923:-0.63177305 5924:-0.63177305 5925:-0.72724283 5926:-0.21890609 5927:-0.21890609 5928:0.64484948 5929:-0.23278354 5930:-0.23278354 5931:0.23232719 5932:0.16650949 5933:0.16650949 5934:0.16650949 5935:-0.13596115 5936:0.16650949 5937:0.4079091 5938:-0.077585794 5939:-0.0080826813 5940:-0.3633506 5941:0.10151227 5942:-0.20530112 5943:-0.20530112 5944:-0.33761466 5945:-0.33761466 5946:-0.55282843 5947:0.034140579 5948:0.40314168 5949:-0.11052956 5950:-1.260599 5951:-0.015593085 5952:0.20728427 5953:-0.11052956 5954:0.51193362 5955:-0.11052956 5956:0.51951528 5957:-1.131565 5958:0.099757157 5959:0.44495901 5960:0.099757157 5961:0.099757157 5962:0.20732908 5963:-0.46954554 5964:-0.46954554 5965:-0.29122332 5966:0.82015026 5967:0.4039546 5968:0.21063395 5969:0.21063395 5970:-0.025616473 5971:-0.025616473 5972:-0.025616473 5973:-0.34262165 5974:-0.72100425 5975:0.68195254 5976:-0.14307062 5977:0.14824913 5978:-0.14307062 5979:-0.14307062 5980:-0.14307062 5981:-0.14307062 5982:-0.81975001 5983:-0.81975001 5984:-0.81975001 5985:-0.73353457 5986:-0.73353457 5987:-0.54594058 5988:-0.66955668 5989:-0.52123904 5990:-0.54890376 5991:-0.54890376 5992:-0.54890376 5993:1.331062 5994:0.84392548 5995:0.64378691 5996:0.43014258 5997:-0.040017806 5998:-0.040017806 5999:-0.040017806 6000:-0.040017806 6001:-0.099991448 6002:0.042418554 6003:-0.34420207 6004:0.20373031 6005:-0.12023346 6006:-0.12023346 6007:0.13299875 6008:-0.56841159 6009:0.93792921 6010:0.41056406 6011:-0.24178866 6012:-0.1527961 6013:-0.034607735 6014:-0.58306068 6015:-0.098607756 6016:-0.098607756 6017:0.69292921 6018:0.068460546 6019:0.56730914 6020:0.69292921 6021:0.69509614 6022:0.93068987 6023:0.60366601 6024:0.93068987 6025:0.37905556 6026:0.37905556 6027:-1.6642998 6028:-1.6642998 6030:-0.19055177 6031:0.80968034 6032:0.0058273333 6033:-0.10942908 6034:-0.19434622 6035:-0.10942908 6036:0.52547479 6037:0.45470348 6038:0.56631309 6039:0.28315654 6040:0.28315654 6041:0.28315654 6042:1.1377511 6043:0.22172949 6044:0.078393094 6045:0.60022563 6046:0.22172949 6047:-0.032550793 6048:0.21775034 6049:0.4608891 6050:-0.10789116 6051:-0.10789116 6052:-0.10789116 6053:0.31966931 6054:-0.10789116 6055:0.32416236 6056:-0.10789116 6057:0.23383115 6058:0.23580839 6059:-0.049187765 6060:-0.093228802 6061:-0.058897208 6062:0.18591851 6063:-0.058897208 6064:-0.058897208 6065:-0.011300958 6066:-0.078585111 6067:-0.078585111 6068:-0.1978973 6069:-0.24869891 6070:0.13396244 6071:-0.12562007 6076:-0.035632756 6079:-0.69994855 6080:-0.753259 6081:0.4450798 6082:0.37989888 6083:0.37989888 6084:-0.27154782 6085:-0.27154782 6086:-0.27154782 6087:0.52674609 6088:-0.14322443 6089:-0.67419499 6090:-0.69968027 6091:-0.67653912 6092:-0.57398504 6093:-0.56432807 6094:-0.67653912 6095:-0.67653912 6096:0.86196095 6097:0.68629301 6098:0.86196095 6099:0.86196095 6100:0.86196095 6101:-0.010153617 6102:0.32440037 6103:0.80299413 6104:0.23041493 6105:0.32440037 6108:0.083441764 6109:0.23420826 6110:0.057190333 6111:0.71444845 6112:0.43171069 6113:-0.59307104 6114:0.083441764 6115:0.083441764 6116:1.4716802 6117:0.50436342 6118:0.083441764 6119:-0.54789746 6120:-0.54789746 6121:-0.27935615 6122:-0.42555985 6123:-0.0096308999 6124:-0.27935615 6125:-0.87086809 6126:0.05688924 6127:0.05688924 6128:0.05688924 6129:-0.47401053 6130:-0.5467273 6131:-0.5467273 6132:-0.5467273 6133:-0.56326556 6134:0.022061639 6135:0.064869709 6136:0.011546829 6137:-0.53545642 6138:0.011546829 6139:0.12601604 6140:0.31025374 6141:-1.0117655 6142:0.011546829 6143:0.24584718 6144:0.011546829 6145:0.011546829 6146:0.011546829 6147:-0.071866639 6148:0.011546829 6149:0.011546829 6150:-0.12117697 6151:-0.23324761 6152:-0.58226979 6153:0.53151149 6154:-0.12117697 6155:-0.12117697 6156:0.25913414 6157:0.45700684 6158:0.44706523 6159:0.44706523 6160:0.44706523 6161:0.44706523 6162:0.44706523 6163:0.31155062 6164:0.31155062 6165:0.31155062 6166:0.41470534 6167:0.31155062 6168:1.2742265 6169:-0.55218488 6170:-0.72920996 6171:-0.72920996 6174:-0.10717143 6175:-0.49538055 6176:-0.29289392 6177:0.28227243 6178:-0.13378774 6179:-0.10985064 6180:-0.64657503 6181:-0.42476678 6182:-0.31458965 6183:-0.62229222 6184:-0.79724145 6185:-0.62229222 6186:0.3616178 6187:0.089500546 6188:0.089500546 6189:0.089500546 6190:0.089500546 6191:0.089500546 6192:0.089500546 6193:0.089500546 6194:0.031932093 6195:0.089500546 6196:0.089500546 6197:0.35253724 6198:-0.67094755 6199:0.35253724 6200:0.35253724 6201:0.6039995 6202:0.6039995 6203:0.6039995 6204:0.63277537 6205:-0.56118751 6206:0.89644611 6207:0.46656591 6208:0.0048030806 6209:-0.1179782 6210:-0.037864368 6211:0.19545788 6212:0.67702121 6213:0.67702121 6214:0.67702121 6215:0.17603722 6216:0.80525863 6217:0.24777591 6218:-0.33180511 6219:0.24448553 6220:0.16758604 6221:-0.08166071 6222:-0.42444152 6223:1.010048 6224:-0.50117451 6225:-0.35557839 6226:0.35918111 6227:-0.35557839 6228:0.10663266 6229:0.12655275 6230:0.33462122 6231:0.33462122 6232:0.33462122 6233:0.63332808 6234:0.046583168 6235:0.33462122 6236:0.29030684 6237:0.18625443 6238:-0.51931304 6239:-0.51931304 6240:-0.27621493 6241:-0.27621493 6242:-0.27621493 6243:-0.27621493 6244:-0.70793867 6245:-0.29794148 6246:-0.1360893 6247:-0.29794148 6248:-0.29794148 6249:-0.45989224 6250:0.14514177 6251:-0.45989224 6252:-0.51180768 6253:0.028185057 6254:0.10821678 6255:1.2271242 6256:0.028185057 6257:0.028185057 6258:0.028185057 6259:0.028185057 6260:0.0061613452 6261:0.35629109 6262:0.35450804 6263:0.35450804 6264:-0.0046977447 6265:-0.16005802 6266:-0.7449559 6267:-0.16005802 6268:0.25438011 6269:-0.16005802 6270:-0.16005802 6271:0.33206403 6272:0.96293163 6273:0.99259543 6274:0.47676596 6275:0.6282559 6276:0.2615023 6277:0.078721114 6278:-0.018329227 6279:-0.45904332 6280:0.21006621 6281:0.067358755 6282:0.24543616 6283:0.44266728 6284:0.47349799 6285:0.066454902 6286:-0.74892449 6287:-0.37389067 6288:0.035724346 6289:-0.039419841 6290:-0.039419841 6291:-0.039419841 6292:-0.039419841 6293:-0.039419841 6294:-0.039419841 6295:-0.039419841 6296:-0.039419841 6298:-0.22945121 6299:-0.22945121 6300:-0.22945121 6301:-0.22945121 6302:0.20209929 6303:-0.60061175 6304:0.18232054 6305:-1.0982672 6306:0.37746677 6307:0.37746677 6308:0.37746677 6309:0.37746677 6310:0.37746677 6311:0.37746677 6312:0.18039638 6313:0.74353582 6317:-0.012022286 6318:0.07767795 6319:0.42149267 6320:0.19725437 6321:-0.012022286 6322:-0.012022286 6323:0.63161224 6324:1.1819706 6325:0.53631824 6326:0.4229129 6327:-0.29703704 6328:1.1215194 6329:1.0894077 6330:-0.51090777 6331:0.26996732 6332:-1.2581215 6333:-0.65320319 6334:0.21883368 6335:-0.030835075 6336:0.70584291 6337:-0.37622884 6338:0.12523414 6339:-0.27470618 6340:-0.42689088 6341:-0.27470618 6342:-0.13234517 6343:-0.27470618 6344:-0.27470618 6345:-0.27470618 6346:0.15912533 6347:-1.1168045 6348:0.60310543 6349:0.42386863 6350:-1.1227573 6351:-0.061937656 6352:-0.56886429 6353:0.53807759 6354:1.5634342 6355:0.31777278 6356:0.31777278 6357:0.31777278 6358:-0.50024194 6359:0.31777278 6360:-0.06306047 6361:-0.064701006 6362:0.31777278 6363:-0.2705794 6364:0.18006238 6365:-0.2862902 6366:-1.2750852 6367:-0.63391 6368:-0.63391 6369:-0.63391 6371:-0.036268648 6372:0.20173018 6373:0.20173018 6374:-0.26320049 6375:0.44685528 6376:0.17397769 6377:-0.39774969 6378:-0.016483298 6379:-0.016483298 