SVM-light Version V6.20
0 # kernel type
3 # kernel parameter -d 
1 # kernel parameter -g 
1 # kernel parameter -s 
1 # kernel parameter -r 
empty# kernel parameter -u 
11718 # highest feature index 
77 # number of training documents 
2 # number of support vectors plus 1 
0 # threshold b, each following line is a SV (starting with alpha*y)
1 1:-0.17630909 2:-0.093423665 3:-0.18153737 4:0.11476334 5:-0.041650485 6:0.14172959 7:-0.26230192 8:-0.067861728 9:-0.12292837 10:-0.24694096 11:0.051409308 12:-0.035770848 13:0.37274748 14:0.14010976 15:0.076386496 16:-0.091123499 17:0.012097716 18:0.30101922 20:0.43163893 22:0.16429967 23:-0.061235283 24:0.12130901 25:-0.16297597 26:-0.10856477 27:-0.058034174 28:0.22849214 29:-0.40234295 30:-0.14320824 31:-0.16297597 32:-0.16297597 33:-0.064973444 34:0.19601159 35:0.51093781 36:0.45379609 37:-0.10906841 38:-0.34446037 39:-0.052664235 40:-0.019679248 41:-0.037223563 42:-0.2593284 43:-0.14349341 44:-0.0093422122 45:-0.5563879 46:0.33759347 47:-0.059724182 48:-0.23731019 49:0.23450755 50:-0.24448678 51:0.06860806 52:-0.37880015 53:-0.059196025 54:-0.24448678 55:0.32551879 56:-0.24797775 57:0.089430816 58:-0.011534338 59:-0.11168434 60:-0.055700183 61:-0.10710277 62:-0.04959356 63:-0.22656639 64:-0.39447773 65:-0.28052264 66:-0.018992184 67:-0.55661005 68:0.34344092 69:-0.16544716 70:0.34832409 71:-0.2086928 72:0.49503314 73:0.34855327 74:0.031750705 75:-0.10788138 76:0.25706619 77:0.34855327 78:-0.0096542863 79:-0.26946202 80:-0.042721525 81:0.32618341 82:0.24174437 83:-0.0056724367 84:-0.0056724367 85:-0.04431472 86:0.095334642 87:-0.20334807 88:0.0070869853 89:0.14657582 90:-0.027907362 91:0.23179349 92:0.22247684 93:-0.11052509 94:-0.07122504 95:0.39328474 96:0.064223804 97:0.014931368 98:-0.17218232 99:-0.17218232 100:-0.10201872 101:0.39611977 102:0.11965271 103:-0.40446568 104:0.45299822 105:-0.19119869 106:0.21017069 107:0.22443296 108:0.031706296 109:0.32747072 110:0.25962704 111:0.0075827586 112:0.093570441 113:-0.13042207 115:-0.053277627 117:-0.031865355 118:0.042910725 119:0.087402955 120:0.33736518 121:0.36850229 122:0.35554874 123:-0.12425452 124:0.1272233 125:-0.32055616 126:0.076370165 127:-0.17998192 128:0.20375687 129:0.15299621 130:0.028148422 131:0.31326175 132:0.010558177 133:0.35991976 134:-0.34623814 135:0.18499714 136:0.22997369 137:0.10349506 138:0.35802931 139:0.59001082 140:0.27609286 141:0.044830434 142:0.058237281 143:0.020612497 144:-0.23867518 145:0.18499714 146:0.18499714 147:-0.10893995 148:0.11917229 149:-0.15710825 150:0.10095216 151:0.1214364 152:-0.024871055 153:-0.25395709 154:-0.12704699 155:-0.20551565 156:0.15408151 157:-0.14099509 158:-0.18550545 159:0.0736048 160:-0.22167143 161:-0.063197345 162:0.4025245 163:-0.055914126 164:-0.16319604 165:-0.18882002 166:0.28566661 167:0.015543252 168:0.12998441 169:0.5192191 170:0.11330625 171:0.25663471 174:0.0075546517 175:0.11482082 177:0.0048797783 179:-0.25178486 180:-0.19556162 181:-0.16061525 183:-0.51584697 184:-0.36710566 185:0.040212341 186:0.090638489 187:0.012427774 188:0.24526095 189:0.076569743 190:0.18514775 191:-0.082075045 192:-0.082075045 193:-0.026535982 194:0.28693396 195:-0.031873446 196:0.046081245 197:0.21464491 198:0.11646463 199:0.15031013 200:0.62574792 201:0.086273022 202:0.34505802 203:0.67901504 204:-0.34146547 205:0.25129792 206:0.071848743 207:0.045004021 208:0.30130234 209:0.1095264 210:-0.1391023 211:0.14196059 212:-0.095241569 213:0.28490344 214:-0.03443737 215:0.10510119 216:0.043473843 217:0.74178731 218:-0.069868676 219:0.23374824 220:-0.055567328 221:-0.024444323 222:-0.1463057 223:-0.069868676 224:-0.049008925 225:-0.069868676 226:0.3964802 227:-0.17064923 228:-0.048354451 229:-0.093479745 230:-0.19816871 231:-0.069868676 232:-0.67444921 233:-0.10079209 234:-0.48196906 235:-0.051619578 236:0.017585881 237:-0.19220021 238:-0.35411075 239:-0.53974569 240:-0.16036664 241:-0.014665443 242:-0.38922432 243:-0.033666436 244:-0.11122086 245:-0.18994966 246:-0.029075673 247:0.03443994 248:-0.11122086 249:0.047644202 250:0.15511957 251:-0.11122086 252:-0.11122086 253:0.46845582 254:0.11831709 255:-0.21286176 256:-0.46971351 257:0.067636393 258:0.12119852 259:0.13266039 260:-1.2508099 261:-0.33380741 262:0.036325142 263:0.014143056 264:-0.016657047 265:-0.45718148 266:-0.14461601 267:0.30263802 268:0.054558162 269:-0.13044353 270:-0.14009136 271:-0.019152416 272:0.22098266 273:-0.099335894 274:0.071008354 275:-0.0059113102 276:-0.19096161 277:0.068015687 278:0.21474604 279:0.14836104 280:0.27093881 281:-0.264397 282:0.063254371 283:-0.12172777 284:-0.13044353 285:-0.13044353 286:-0.16892006 287:-0.13044353 288:-0.13044353 289:-0.37513134 290:0.59344071 291:0.20348927 292:0.3485238 293:-0.057005432 294:-0.17682527 295:-0.13044353 296:-0.13044353 297:0.23211999 298:0.23854275 299:0.19469345 300:-0.016538877 301:0.060817201 302:-0.021274118 303:0.066979498 304:-0.37628534 305:-0.036240179 306:-0.34675458 307:0.27334368 308:0.059802897 309:0.19400485 310:-0.080819227 311:-0.16680539 312:-0.16216056 314:0.24940248 315:0.34240067 316:0.14034823 317:-0.060939759 318:-0.28569072 319:-0.23675784 320:-0.39354962 321:0.080284216 322:-0.099779926 323:-0.19571875 324:0.34184247 325:-0.072904766 326:-0.054209508 327:0.66655397 328:-0.26861572 329:-0.072904766 330:0.123233 331:-0.072904766 332:-0.26861572 333:-0.099301495 334:-0.08916492 335:-0.13539131 336:-0.29203668 337:0.096306808 338:-0.071627587 339:-0.13632154 340:0.038995087 341:-0.16662657 342:0.090591379 343:0.21297362 344:0.37932003 345:-0.24579793 346:0.090591379 347:0.090591379 348:-0.18250556 349:-0.079118915 350:0.15119061 351:-0.10782952 352:-0.18250556 353:0.25560462 354:-0.18250556 355:-0.15622576 356:-0.30348963 357:0.21472406 358:0.0013295927 359:0.27083096 360:-0.063676536 361:-0.17124367 362:-0.2947619 363:-0.34982949 364:0.22458506 365:0.44594213 366:-0.064837553 367:-0.19990969 368:0.066878632 369:0.082344785 370:-0.025426451 371:0.045347553 372:-0.14171936 373:-0.030421734 374:0.011393243 375:-0.3022851 376:0.17935634 377:0.068238579 378:-0.22277538 379:-0.0093540112 380:0.5207206 381:0.095869303 382:0.2412843 383:0.26097706 384:0.2412843 385:-0.22926542 386:0.21146066 387:-0.32161674 388:-0.016817315 389:-0.18461375 390:-0.016817315 391:-0.016817315 392:0.27700189 393:0.04641261 394:-0.016817315 395:-0.22233625 396:0.19681384 397:-0.075463742 398:0.16635849 399:-0.17424902 400:-0.068879507 401:-0.15072487 402:-0.22880842 403:-0.075463742 404:-0.12654766 405:-0.072048761 406:-0.096371867 407:-0.1351406 408:0.30366093 409:-0.11547009 410:-0.00040767703 411:-0.062371064 412:0.1791351 413:-0.075463742 414:0.079064846 415:-0.15312412 416:0.093854077 417:-0.23104729 418:-0.023886643 419:0.0085668173 420:0.027611142 421:-0.023886643 422:-0.32794905 423:-0.3095395 424:0.054744966 425:-0.15911034 426:-0.11568552 427:0.24320115 428:0.17334987 429:0.53405267 430:-0.29963264 431:-0.17383061 432:0.08537855 433:-0.023886643 434:0.21638696 435:-0.023886643 436:-0.023886643 437:-0.15626292 438:-0.32082355 439:0.0073315427 440:-0.077390887 441:0.055238169 442:-0.30098215 443:-0.56876677 444:-0.021717617 445:-0.17537002 446:0.049285542 447:-0.14124368 448:-0.41321465 449:0.024397248 450:-0.007152807 451:-0.20641367 452:-0.17569061 453:-0.14124368 454:0.015868265 455:-0.078033499 456:0.14155464 457:-0.37572703 458:-0.10120661 460:-0.00053484429 461:0.45214382 462:0.032317869 463:-0.039689001 464:-0.39795104 465:0.021963712 466:0.20145188 467:0.24825679 468:-0.14506814 469:0.34015405 470:0.23895499 471:0.22790404 472:0.20655996 473:0.20145188 474:0.034575239 475:0.63065642 476:-0.15837985 477:-0.31826371 478:0.26876566 479:0.15526235 480:0.12848575 481:0.11266233 482:0.57708073 483:0.16616359 484:0.42633751 485:0.00028822638 486:-0.43267286 487:0.57708073 488:0.32824448 489:-0.071644641 490:0.12285826 491:0.16458757 492:-0.13529934 493:-0.035888929 494:-0.38411164 495:-0.10637356 496:-0.022563998 497:-0.025413858 498:-0.19185433 499:-0.11798373 500:-0.21610296 501:0.087890029 502:0.027312022 503:0.36569476 504:-0.14900617 505:-0.094524816 506:-0.030291753 507:-0.19185433 508:0.074569426 509:-0.13172336 510:0.34897491 511:0.49452576 512:-0.52268928 513:-0.47972274 514:0.128474 515:-0.0778521 516:0.3005335 517:-0.14074351 518:-0.15479417 519:0.061323851 520:-0.10938749 521:-0.13144559 522:-0.16401842 523:-0.086592153 524:0.17059657 525:-0.23131041 526:0.15721951 527:0.37722284 528:0.025100932 529:0.23155361 530:-0.19571096 531:-0.19571096 532:-0.24734752 533:-0.037842855 534:-0.11029638 535:-0.04321295 536:0.45785093 537:-0.075191706 538:-0.027726995 539:-0.39970928 540:-0.029168054 541:0.12992987 542:0.13712192 543:0.43470407 544:0.21814068 545:0.26308787 546:0.19278757 547:0.077525474 548:-0.39405563 549:0.068445019 550:0.01295835 551:-0.09940704 552:-0.041882195 553:0.091102943 554:-0.19239946 555:-0.45365858 556:0.23365389 557:-0.39710051 558:0.51991212 559:-0.3479307 560:-0.26388994 561:0.19335154 562:-0.32399172 563:0.32414624 564:0.11081694 565:-0.22648638 566:-0.2740095 567:0.10101619 568:0.19743615 569:-0.15660922 570:0.026175562 571:0.11742607 573:-0.21178749 574:0.066975288 575:0.28502291 576:0.42173952 577:0.15954024 578:0.42324841 579:0.55738503 583:-0.13768981 585:-0.047386095 586:0.095265456 589:0.18042608 590:-0.66910481 591:-0.27020526 592:0.39392915 593:0.23918349 594:-0.31305343 595:-0.01436736 596:-0.31305343 597:-0.25752354 598:0.57302165 599:-0.25752354 600:-0.25752354 601:0.10387465 602:0.31333023 603:-0.36176735 605:0.031818636 606:0.51100695 607:-0.11878268 608:0.19045454 609:-0.23557281 610:-0.00043302312 611:0.020615805 612:-0.033827506 613:-0.38850436 614:0.30209374 615:0.034330796 616:-0.20474306 617:0.16489138 618:0.032219909 619:0.13940085 620:-0.1441884 621:0.45338908 622:-0.41722238 623:0.058430478 624:0.23014037 625:0.0028894173 626:0.13541581 627:-0.14441168 628:-0.077384494 629:-0.48450971 630:-0.1453779 631:0.046971403 632:-0.068618186 633:-0.12163641 634:-0.14441168 635:-0.18451715 636:-0.14441168 637:0.1322882 638:-0.1765912 639:0.33923078 640:0.3415131 641:0.20396315 642:0.13852571 643:0.19018167 644:0.69002974 645:0.37888509 646:0.18801083 647:-0.066510744 648:-0.023219375 649:0.064136989 650:0.40546951 651:-0.13055839 652:-0.026872832 653:-0.13164014 654:0.025420897 655:0.025420897 656:0.53031629 657:-0.18546581 658:0.21092214 659:-0.090039156 660:0.042532425 661:0.006047016 662:-0.54669881 663:-0.26328593 664:-0.12098485 665:0.29104769 666:0.32006121 667:-0.35769761 668:-0.15073626 669:-0.096325465 670:-0.042817913 671:0.17290658 672:0.017795235 673:0.057461906 674:-0.15982442 675:-0.23045252 676:0.2978403 677:0.29888833 678:0.15744905 679:-0.054234818 680:0.1379872 681:0.45705757 682:-0.036254067 683:0.17200401 684:0.34498149 685:-0.10705458 686:-0.20277147 687:-0.065505452 688:-0.034239236 689:-0.089231841 690:-0.22001719 691:-0.0054550408 692:0.097466074 693:-0.036254067 694:-0.4321624 695:-0.22483137 696:-0.036254067 697:-0.11033668 698:-0.11033668 699:-0.11033668 700:-0.11033668 701:-0.11033668 702:0.24523264 703:0.040332071 704:0.20470573 705:-0.11033668 706:-0.11033668 707:-0.23185977 708:-0.19548786 709:-0.098518997 710:0.27411088 711:-0.91684783 712:-0.064079776 713:-0.10768898 714:-0.053111222 715:-0.35354596 716:-0.49890628 717:-0.0070004794 718:0.091063231 719:-0.064476825 720:-0.0070004794 721:0.10791153 722:-0.036783643 723:-0.0070004794 724:-0.10204779 725:0.21429618 726:-0.033463847 727:-0.21696731 728:-0.45720226 729:0.28512838 730:-0.50704855 731:-0.092599034 732:0.24212885 733:0.32070088 734:0.13200222 735:0.4100734 736:0.32070088 737:0.19486728 738:0.35973629 739:0.034425367 740:-0.14804478 741:0.23431443 742:0.10691985 743:0.024412498 744:-0.0059281341 745:0.095557049 746:0.49224368 747:0.036172662 748:0.17854273 749:0.022095079 750:0.13219242 751:0.009054604 752:-0.12639989 753:-0.48965195 754:-0.5184418 755:-0.29285094 756:-0.16931644 757:0.051418599 758:-0.13336256 759:0.11141016 760:-0.088802852 761:-0.13336256 762:0.0057854769 763:-0.13336256 764:-0.13336256 765:0.19845285 766:-0.13336256 767:0.038148001 768:0.10314039 769:-0.21474117 770:-0.1268972 771:0.15070462 772:0.43338415 773:0.049312536 774:-0.13336256 775:-0.092374377 776:-0.13336256 777:-0.13336256 778:-0.38723329 779:0.010116622 780:-0.36543074 781:-0.2247097 782:0.22332305 783:0.20760015 784:0.22332305 785:-0.057741202 786:0.10422722 787:-0.3239615 788:0.010754958 789:-0.094274208 790:-0.18150647 791:0.048248857 792:-0.17566676 793:0.35151017 794:0.0578917 795:-0.20306537 796:0.1028669 797:0.24630398 798:0.10132443 799:-0.10224241 800:0.1554994 801:-0.21985456 802:-0.57679111 803:-0.21985456 804:0.025664072 805:0.078249954 806:0.078249954 807:0.078249954 808:0.01389315 809:0.078249954 810:0.19930029 811:0.094418608 812:0.078249954 813:-0.13037899 814:0.26666424 815:-0.013890818 816:-0.013890818 817:-0.15055448 818:-0.013890818 819:-0.0074572572 820:-0.021561226 821:-0.052830808 822:-0.01137562 823:-0.013890818 824:-0.013890818 825:-0.013890818 826:-0.033860594 827:-0.01232996 828:-0.19538599 829:0.097432375 830:-0.13421798 831:-0.16821007 832:-0.23251311 833:0.49172395 834:-0.12493714 835:0.10973544 836:-0.22576401 837:-0.039432831 838:-0.35481575 839:0.24163969 840:0.29058039 841:0.24904874 842:0.056050573 843:-0.10305963 844:0.025377676 845:0.18962047 846:-0.064088866 847:0.038140196 848:0.44570252 849:0.038591549 850:0.038591549 851:-0.09265288 852:-0.13313822 853:-0.14952463 854:-0.23035429 855:0.002519984 856:0.19429508 857:0.14314896 858:0.48944411 859:0.0018678349 860:0.12074334 861:-0.004418558 862:0.76817119 863:0.059342578 864:0.029232314 865:0.2065358 866:0.14314896 867:0.14314896 868:0.0038542903 869:-0.30261987 870:-0.27286142 871:-0.30261987 872:0.1443875 873:0.16059208 874:-0.12163328 875:-0.099235013 876:0.15724888 877:-0.065873116 878:0.16059208 879:0.16059208 880:-0.13566236 881:0.16059208 882:0.51599103 883:0.098990649 884:-0.16145474 885:0.096265964 886:0.098990649 887:-0.04711182 888:-0.04711182 889:0.34283403 890:-0.24349746 891:-0.17324582 892:0.55707854 893:-0.12976708 894:-0.0062097181 895:-0.56095105 896:-0.17324582 897:-0.09548533 898:-0.039761871 899:-0.17843923 900:-0.082018986 901:0.075104028 902:0.029272128 903:0.94224715 904:-0.20294954 905:-0.085002758 906:-0.40180376 907:-0.15591349 908:0.074836217 909:-0.054481559 910:-0.20985147 911:-0.23494543 912:0.40604874 913:-0.093395531 914:-0.093395531 915:0.10878368 916:-0.17508386 917:0.46719673 918:0.073763199 919:0.10878368 920:-0.085092217 921:-0.042546108 922:-0.042546108 923:-0.099097051 924:-0.13457778 925:-0.042546108 926:-0.14459938 927:-0.061944474 928:-0.042546108 929:-0.042546108 930:0.18851638 931:-0.16142362 932:-0.042546108 933:-0.042546108 934:-0.042546108 935:-0.11307496 936:0.41435847 937:-0.38585618 938:-0.042546108 939:-0.042546108 940:-0.042546108 941:0.1503787 942:-0.042546108 943:-0.042546108 944:-0.042546108 945:-0.065756783 946:-0.046541769 947:-0.046541769 948:-0.046541769 949:0.30256498 950:0.13280243 951:0.22747217 952:0.25024328 953:-0.10293025 954:0.24184167 955:0.022013048 956:0.017714813 957:0.13166963 958:0.13166963 959:-0.0003696171 960:-0.044635378 961:0.13166963 962:0.16029593 963:0.30081052 964:0.13166963 965:0.20301706 966:0.13302937 967:0.22071061 968:0.46488595 969:-0.19296081 970:-0.19296081 971:0.15760146 972:-0.19296081 973:-0.15274563 974:-0.59027869 975:0.17644918 976:0.097768433 977:0.32468903 978:-0.16283494 979:-0.16283494 980:-0.16283494 981:-0.25298557 982:0.19023904 983:-0.79163748 984:0.44325832 985:-0.083673261 986:-0.34053916 987:-0.05985396 988:-0.12654665 989:-0.32303178 990:-0.1779625 991:-0.57913071 992:-0.34654328 993:0.30713266 994:0.00083827489 995:0.0029440708 996:0.24134512 997:0.20694643 998:-0.2117312 999:0.14765067 1000:0.14765067 1001:0.14765067 1002:0.14765067 1003:0.14765067 1004:0.029504417 1005:0.15353025 1006:0.32937682 1007:-0.19704109 1008:-0.13029552 1009:0.38430512 1010:-0.099228181 1011:0.4464089 1012:-0.0088586276 1013:0.084605999 1014:0.31280261 1015:0.0018797923 1016:-0.061500732 1017:-0.2478931 1018:-0.2064687 1019:-0.11105213 1020:-0.42451522 1021:-0.2834481 1022:0.30261415 1023:0.28473705 1024:0.14499164 1026:0.086137988 1027:-0.184571 1028:0.48167285 1029:-0.029004442 1030:-0.048331048 1033:-0.022831034 1034:-0.11971495 1035:0.14475542 1036:-0.40760106 1037:0.20176199 1039:-0.39656076 1040:0.065699629 1041:-0.16256993 1042:0.46268609 1043:0.30481702 1044:0.012561781 1046:-0.36312795 1047:0.22862557 1048:-0.08085224 1049:-0.42552862 1050:0.63867784 1052:0.22707513 1053:0.054674912 1054:-0.51848346 1055:0.23537566 1057:-0.18129112 1059:0.2711269 1061:-0.18525763 1063:0.35805359 1064:0.47956559 1065:0.61721188 1066:0.4443596 1067:0.51511508 1068:0.045364309 1069:0.45468655 1070:-0.1142827 1071:-0.33643517 1072:-0.33643517 1073:-0.29222587 1074:0.10596839 1075:0.11178279 1076:-0.19658251 1077:0.40583867 1078:-0.079746209 1079:0.068585187 1080:-0.19116987 1081:0.36236733 1082:0.48629731 1083:0.027599458 1084:0.13600828 1085:-0.18901707 1086:-0.037166681 1087:-0.15766002 1088:0.10596839 1089:0.16771092 1090:-0.2694281 1091:0.063144356 1092:-0.56275737 1093:-0.28116316 1094:0.21342137 1095:0.47519252 1096:0.47519252 1097:0.41266242 1098:0.042848166 1099:-0.16453037 1100:0.33674267 1101:-0.20956609 1102:0.27867931 1103:0.036156841 1104:-0.057814281 1105:0.042848166 1106:0.10911717 1107:0.042848166 1108:0.13362816 1109:0.34511411 1110:0.23825011 1111:0.50424176 1112:-0.18954605 1113:-0.067459777 1114:0.017921342 1115:0.013671446 1116:0.12137327 1117:-0.20155418 1118:-0.022392267 1119:-0.022392267 1120:0.064210758 1121:-0.022392267 1122:0.063303687 1123:-0.32018358 1124:0.51516473 1125:0.30565864 1126:-0.022392267 1127:-0.022392267 1128:-0.022392267 1129:0.54004461 1130:-0.086112656 1131:0.027471079 1132:0.087763444 1133:-0.31297684 1134:-0.092593461 1135:-0.16656306 1136:-0.3846972 1137:-0.21878546 1138:-0.21878546 1139:0.085612155 1140:0.023836302 1141:-0.21878546 1142:-0.068477727 1143:-0.21878546 1144:0.022139112 1145:-0.067822352 1146:-0.21878546 1147:-0.21878546 1148:-0.047605496 1149:-0.18242817 1150:-0.32450822 1151:-0.047605496 1152:-0.047605496 1153:0.015173298 1154:-0.048894271 1155:0.074087515 1156:-0.5737651 1157:-0.50788343 1158:-0.30370176 1161:-0.16779643 1163:0.21804242 1164:0.12811406 1165:0.12811406 1166:-0.1642251 1168:-0.023296297 1169:0.20478113 1170:0.086865835 1171:-0.20530996 1172:0.46410477 1173:0.32235274 1174:0.57333994 1175:0.50876081 1176:0.17882879 1177:-0.10932304 1178:-0.017588221 1179:-0.017124046 1180:-0.14941385 1181:0.055168174 1182:0.055168174 1183:-0.53556925 1184:0.055168174 1185:-0.092764027 1186:0.2699807 1187:-0.53945053 1188:-0.18661876 1189:-0.18661876 1190:-0.18661876 1191:-0.41885498 1192:-0.19162098 1193:-0.40132424 1194:0.23861837 1195:0.22118676 1196:0.22118676 1197:0.0490872 1198:0.1333566 1199:0.28352904 1200:0.17381746 1201:0.35500306 1202:-0.014400159 1203:0.22118676 1204:-0.027722338 1205:-0.025603222 1206:0.20284216 1207:-0.042764179 1208:0.20284216 1209:0.12989445 1210:0.20284216 1211:-0.41431847 1212:0.094453186 1213:0.11544737 1214:0.15507977 1215:0.21689406 1216:0.20284216 1217:-0.12991847 1218:0.20284216 1219:0.29960376 1220:0.20284216 1221:0.25758007 1222:0.23129781 1223:0.084714457 1224:-0.025170919 1225:-0.025170919 1226:-0.025170919 1227:-0.025170919 1228:0.15276337 1229:0.40862226 1230:0.127875 1231:0.40131128 1232:-0.0095733171 1233:-0.0095733171 1234:-0.071786806 1235:-0.21518204 1236:0.55784345 1237:0.17125304 1238:0.16756213 1239:-0.13840629 1240:-0.0095733171 1241:-0.0095733171 1242:-0.0095733171 1243:-0.18664397 1244:-0.23583649 1245:-0.0095733171 1246:-0.0095733171 1247:0.77843982 1248:-0.0026555068 1249:-0.022578759 1250:0.49014378 1251:-0.49994648 1252:0.3090387 1253:-0.15863401 1254:0.37752083 1255:-0.2380112 1256:-0.40938962 1257:-0.058042239 1259:-0.19300245 1260:-0.24660242 1261:0.0084459158 1262:0.31306133 1263:0.0098323328 1264:0.03468965 1265:0.20877126 1266:-0.066501178 1267:-0.29373011 1268:0.28041035 1269:0.18571006 1270:0.22618248 1271:0.042713992 1272:0.038794834 1273:-0.318957 1274:-0.090749986 1275:0.10445883 1276:0.31162575 1277:-0.1150859 1278:0.02162227 1279:-0.011057142 1280:-0.28454804 1281:0.30743048 1282:0.19045098 1283:0.032337625 1284:0.24709332 1285:-0.057177395 1286:-0.12306224 1287:-0.21642859 1288:-0.057177395 1289:0.12849581 1290:-0.13692939 1291:-0.046617359 1292:-0.057177395 1293:-0.017802618 1294:-0.057177395 1295:-0.11972908 1296:-0.11524976 1297:-0.10934975 1298:-0.057177395 1299:0.079180531 1300:-0.040030643 1301:-0.19240063 1302:0.029207077 1303:-0.057177395 1304:-0.087433435 1305:0.065540895 1306:-0.56868696 1307:-0.14472385 1308:-0.32341132 1309:0.3535578 1310:0.23514293 1311:-0.21632239 1312:-0.18779099 1313:-0.023253419 1314:0.016295314 1315:0.16352651 1316:-0.011275387 1317:0.076849729 1318:-0.29272249 1319:-0.13753571 1320:-0.10045442 1321:-0.035194781 1322:-0.29094329 1323:0.71632415 1324:0.24487358 1325:-0.34318861 1326:0.14459416 1327:-0.074186437 1328:-0.18055288 1329:-0.055884764 1330:0.061268274 1331:-0.01681098 1332:0.066553071 1333:-0.01681098 1334:0.16496035 1335:-0.16857551 1336:-0.081378616 1337:0.036510333 1338:0.10439328 1339:-0.081378616 1340:0.34305096 1341:-0.032233942 1342:0.17197965 1343:0.086923614 1344:-0.24670044 1345:0.18367343 1346:0.25795633 1347:-0.32456002 1348:0.44813588 1349:-0.23057601 1350:-0.28555101 1351:-0.050612058 1352:-0.0016782498 1353:0.089708664 1355:0.20462507 1356:0.3889558 1357:0.015972624 1358:0.16270702 1359:-0.1622145 1360:0.23008217 1361:-0.50069338 1362:-0.067750201 1363:0.12736772 1364:-0.27797177 1368:0.80101174 1369:0.6401571 1370:0.0093851779 1371:0.13250138 1372:0.13250138 1373:-0.048405465 1374:0.12981082 1375:-0.064904675 1376:-0.33442283 1377:-0.33442283 1378:-0.36218813 1379:-0.11762654 1380:-0.27448043 1381:0.20060872 1382:-0.062571794 1383:0.61147207 1384:0.12427558 1385:0.15073816 1386:-0.037980746 1387:0.031207606 1388:-0.066875018 1389:0.14674085 1390:0.095584504 1391:0.095584504 1392:-0.056083605 1393:-0.056083605 1394:0.070952766 1395:0.20201792 1396:-0.11459057 1397:0.10213723 1398:0.070952766 1399:0.22710921 1400:0.23109291 1401:0.22266011 1402:0.53410727 1403:-0.16621795 1404:0.1194494 1405:0.078129366 1406:0.24502538 1407:-0.035341028 1408:0.12418965 1409:0.11246759 1410:0.17231332 1411:0.077092759 1412:0.19560423 1413:0.21277894 1414:0.060879234 1415:-0.43691579 1416:0.012792979 1417:0.012792979 1418:0.012792979 1419:0.012792979 1420:0.28227234 1421:-0.35890868 1422:0.0096953036 1423:-0.012897145 1424:0.28029668 1425:0.012792979 1426:0.012792979 1427:-0.15883294 1428:0.052724771 1429:-0.065105401 1430:0.012792979 1431:0.012792979 1432:0.11152688 1433:0.11152688 1434:0.23422579 1435:-0.050900411 1436:0.55005807 1437:-0.18622267 1438:-0.29676661 1439:0.11152688 1440:0.10462712 1441:-0.30200088 1442:-0.086906381 1443:0.25198883 1444:0.61698061 1445:0.11059923 1446:0.21373479 1447:0.44670644 1448:0.25198883 1449:-0.30233291 1450:-0.29462281 1451:0.083776079 1452:0.84396785 1453:-0.07601247 1454:-0.18562588 1455:0.18382266 1456:-0.055944812 1457:-0.16285625 1458:-0.055944812 1459:0.13785656 1460:0.20739031 1461:-0.055944812 1462:-0.13799512 1463:-0.37542233 1464:0.093838736 1465:0.14995414 1466:0.16840339 1467:0.23098359 1468:0.32467046 1469:0.028314743 1470:0.45054969 1471:-0.038642284 1472:-0.038642284 1473:-0.010991872 1474:-0.038642284 1475:-0.38500154 1476:0.010022604 1477:0.38025188 1478:-0.15806994 1479:-0.017155331 1480:0.0063338205 1481:0.44054148 1482:-0.25045347 1483:0.0087751038 1484:0.33741596 1485:0.17673275 1486:-0.29511753 1487:-0.24986294 1488:0.14990443 1489:0.10314932 1490:-0.17030151 1491:0.092628606 1492:-0.089530461 1493:0.24652134 1494:0.074137136 1495:0.044021733 1496:0.072862424 1497:0.0041685617 1498:-0.16224445 1499:-0.32832202 1500:-0.18113121 1501:0.21702999 1502:-0.11418024 1503:-0.37757078 1504:-0.11418024 1505:-0.25526249 1506:-0.43536931 1507:0.044905182 1508:0.13859682 1509:-0.013518564 1510:-0.065514065 1511:-0.27892122 1512:-0.20403075 1513:0.17938273 1514:-0.12772819 1515:0.18902104 1516:0.014312536 1517:0.014312536 1518:0.29398695 1519:0.52530855 1520:0.016421596 1521:0.15941264 1522:0.27217448 1523:0.18372165 1524:0.1976621 1525:0.27217448 1526:-0.25593063 1527:-0.2396535 1528:-0.2396535 1529:-0.2396535 1530:0.10114585 1531:-0.080599882 1532:-0.084419347 1533:0.069807962 1534:-0.52463502 1535:-0.18542075 1536:0.18351154 1537:0.42066523 1538:-0.2143703 1539:-0.23533729 1540:0.056010582 1541:0.056010582 1542:0.056010582 1543:0.37705398 1544:-0.068546452 1545:0.14281341 1546:0.0071765995 1547:0.0071765995 1548:0.0071765995 1549:-0.097821198 1550:-0.32448503 1551:-0.097821198 1552:-0.097821198 1553:0.43050414 1554:-0.12775163 1555:-0.039873488 1556:0.97560358 1557:-0.41866222 1558:0.11361193 1559:0.13828287 1560:0.014666588 1561:-0.18853365 1562:0.32143107 1563:0.34062454 1564:0.37726274 1565:-0.18850726 1566:0.1027588 1567:0.1027588 1568:0.070226803 1569:0.48042405 1570:0.1027588 1571:-0.091872811 1572:-0.16884348 1573:0.45055094 1574:0.095428996 1575:0.65783572 1576:-0.13365333 1577:-0.074135333 1578:-0.070797898 1579:-0.074135333 1580:-0.074135333 1581:-0.074135333 1582:0.23865175 1583:-0.32141456 1584:-0.41227239 1585:-0.51627159 1586:-0.077596277 1587:-0.077596277 1588:-0.077596277 1589:0.069939211 1590:0.19534506 1591:-0.077596277 1592:-0.13902718 1593:0.08334741 1594:-0.077596277 1595:-0.10635077 1596:-0.077596277 1597:-0.24066491 1598:0.13325216 1599:-0.031375486 1600:-0.077596277 1601:-0.077596277 1602:0.65981859 1603:0.017612752 1605:-0.069655806 1606:0.12371317 1607:-0.14999023 1608:-0.04133096 1609:0.051843196 1610:0.032531548 1611:-0.044793595 1612:-0.25839883 1613:0.21375749 1614:0.35595322 1615:0.42013207 1616:0.0092744473 1617:0.19951989 1618:-0.18555209 1619:0.35100579 1620:0.1043561 1621:-0.19201419 1622:-0.07192798 1623:-0.077781163 1624:-0.16990179 1625:0.17783214 1626:0.23619792 1627:-0.077781163 1628:-0.38520572 1629:0.32176787 1630:0.10579233 1631:0.5704149 1632:-0.088633381 1633:-0.16188541 1634:0.36764604 1635:0.34062269 1636:0.040401317 1637:-0.1281171 1638:0.39631346 1639:0.1069397 1640:-0.23390079 1641:-0.020380052 1642:-0.054482609 1643:-0.10332023 1644:-0.14378352 1645:0.032334227 1646:-0.14378352 1647:-0.0052581821 1648:-0.14378352 1649:-0.080349863 1650:-0.1532664 1651:0.44517151 1652:0.0088859452 1653:-0.23390079 1654:0.010458109 1655:0.069478266 1656:-0.23390079 1657:0.28372392 1658:-0.064093739 1659:0.016097045 1660:-0.064093739 1661:-0.13867207 1662:-0.064093739 1663:-0.052812736 1664:-0.064093739 1665:-0.41530466 1666:0.23981138 1667:-0.15112573 1668:0.11699683 1669:-0.13001999 1670:-0.53443682 1671:0.18915939 1672:-0.019522881 1673:0.31934109 1674:-0.027614115 1675:0.19097091 1676:0.25738922 1677:0.17740837 1678:-0.1396828 1679:-0.1396828 1680:0.056986488 1681:-0.048272677 1682:-0.1396828 1683:0.16883703 1684:-0.1396828 1685:0.17160329 1686:-0.1396828 1687:-0.083435312 1688:0.21699373 1689:0.33631778 1690:-0.1396828 1691:-0.1396828 1692:-0.22653244 1693:-0.1396828 1694:-0.44063225 1695:0.5595507 1697:-0.10630671 1700:-0.024382798 1701:-0.21136451 1702:-0.072224952 1703:0.19269498 1704:0.24514396 1705:0.096739404 1706:0.4068664 1707:0.096739404 1708:0.096739404 1709:0.096739404 1710:0.15715416 1711:0.096739404 1712:0.38211367 1713:-0.24023139 1714:-0.020320082 1715:-0.063830137 1716:-0.11996985 1717:0.054172751 1720:0.054787949 1721:-0.22185646 1722:0.20176993 1723:0.033732112 1724:-0.22087781 1725:-0.24248461 1726:-0.14955814 1727:-0.14486375 1728:-0.14486375 1729:-0.094899997 1730:-0.32733506 1731:-0.04296786 1732:0.071986213 1733:-0.1156799 1734:-0.052441027 1735:0.023468813 1736:-0.00036690617 1737:0.33803546 1739:0.0074841529 1741:0.26123822 1742:-0.1560467 1744:-0.11721651 1747:-0.12728436 1748:0.030107105 1750:-0.3493602 1751:0.073398031 1752:-0.33604425 1753:-0.20863716 1754:-0.16757901 1755:-0.20863716 1756:0.58450896 1757:-0.03887875 1758:-0.34671471 1759:-0.072234131 1760:-0.063127644 1761:-0.072234131 1762:-0.072234131 1763:-0.25843254 1764:-0.016023934 1765:-0.023670655 1766:-0.20641248 1767:0.23223695 1768:-0.03331732 1769:0.27784014 1770:-0.023670655 1771:0.03500462 1772:0.23649174 1773:0.21234564 1774:0.058767717 1775:0.34238017 1776:-0.4478761 1777:-0.21331264 1778:0.28186691 1779:-0.3400965 1780:-0.078076005 1781:0.020219851 1782:-0.14891577 1783:-0.14656015 1784:0.15200675 1785:-0.089343026 1786:-0.92041987 1787:-0.11627972 1788:0.017325489 1789:-0.24402638 1790:0.51576078 1791:-0.1141901 1792:0.068777338 1793:-0.002358163 1794:0.050639484 1795:0.050639484 1796:0.082571752 1797:-0.2113474 1798:-0.39813134 1799:-0.043436944 1800:-0.53823984 1801:-0.53823984 1802:-0.41940564 1803:-0.15167658 1804:-0.21826603 1805:-0.23853396 1806:-0.14651524 1807:0.055023085 1808:0.24337634 1809:-0.39516771 1810:0.096184917 1811:0.18396723 1812:0.24021584 1813:0.013867745 1814:0.16479203 1815:0.33789402 1816:-0.10332508 1817:0.41405043 1818:-0.17407519 1819:0.055969961 1820:0.076571658 1821:0.24796611 1822:0.20616171 1823:0.3846736 1824:-0.17225403 1825:-0.20824398 1826:0.15913899 1827:0.40764019 1828:0.041144423 1829:0.14855115 1830:-0.2851761 1831:-0.052218955 1832:-0.15309563 1833:0.14337662 1834:0.14337662 1835:0.14337662 1836:0.21159329 1837:-0.11342809 1838:0.30714831 1839:0.14337662 1840:0.15221797 1841:0.098522745 1842:-0.016250379 1843:0.14337662 1844:0.14161253 1845:0.1147399 1846:0.14337662 1847:0.15414238 1848:-0.055003636 1849:0.21217042 1850:-0.27378529 1851:-0.046485577 1852:0.26920542 1853:0.11400785 1854:-0.035915159 1855:-0.24126682 1856:-0.035915159 1857:-0.035915159 1858:0.28935993 1859:-0.035915159 1860:-0.63361943 1861:-0.4987101 1862:-0.17738605 1863:-0.51338607 1864:-0.17738605 1865:0.0011871937 1866:0.041276388 1867:-0.034643199 1868:0.14920756 1869:-0.050386503 1870:-0.12040237 1871:0.16801615 1872:-0.13272852 1873:-0.30846578 1874:0.32988912 1875:-0.071844772 1876:0.16801615 1877:0.16801615 1878:0.023352934 1879:0.028408268 1880:0.073688067 1881:0.062897973 1882:0.48631376 1883:-0.077886462 1884:0.15981983 1885:0.041739482 1886:-0.043753855 1887:-0.043753855 1888:0.023404676 1889:0.4106985 1890:0.64160448 1891:-0.21144612 1892:-0.065607272 1893:-0.0030951831 1894:-0.043753855 1895:-0.4763658 1896:0.19276918 1897:-0.0033390436 1898:-0.15457079 1899:0.25833791 1900:0.66623598 1901:0.40312594 1902:0.12263355 1903:0.2032818 1904:0.37364447 1905:0.40928498 1906:-0.020892998 1907:-0.020892998 1908:-0.36642265 1909:-0.11176617 1910:-0.020892998 1911:-0.24318019 1912:0.093632869 1913:-0.020892998 1914:0.16218968 1915:-0.086801171 1916:-0.020892998 1917:0.42024431 1918:-0.01188657 1919:0.34458581 1920:0.048091881 1921:-1.2716585 1922:0.12867863 1923:-0.72761285 1924:0.16426174 1925:0.031319872 1926:-0.0092960885 1927:0.12406301 1928:-0.0092960885 1929:-0.14252341 1930:-0.23946688 1931:0.20856826 1932:-0.167768 1933:-0.10398242 1934:0.44462293 1935:-0.19861352 1936:0.114912 1937:-0.04270608 1938:-0.04270608 1939:0.073534675 1940:0.070172362 1941:-0.04270608 1942:-0.77175736 1943:0.22534858 1944:-0.13802041 1945:0.026270416 1946:0.069035009 1947:-0.10469732 1948:0.15883417 1949:0.19689822 1950:-0.18222998 1951:0.21548432 1952:-0.050261158 1953:-0.2745229 1954:-0.40066963 1955:-0.14052854 1956:-0.050261158 1957:-0.1075995 1958:-0.1597517 1959:-0.27186337 1960:-0.27186337 1961:-0.063379779 1962:-0.067309201 1963:-0.27186337 1964:0.011782492 1965:-0.27186337 1966:0.010074927 1967:-0.082102716 1968:0.069697425 1969:0.13256188 1970:-0.12610179 1971:0.52787596 1972:0.39185891 1973:-0.22228718 1974:-0.22228718 1975:-0.15017851 1976:-0.36251736 1977:0.27391046 1978:-0.34511387 1979:0.56497931 1980:0.67204177 1981:-0.41732058 1982:0.01083486 1983:0.071408741 1984:-0.11910057 1985:-0.11910057 1986:0.26895651 1987:0.26895651 1988:0.19549146 1989:0.19549146 1990:0.19549146 1991:0.095085256 1992:0.44140521 1993:0.20874454 1994:-0.17963022 1995:-0.10715572 1996:-0.14039154 1997:0.075792558 1998:-0.14039154 1999:0.065552182 2000:-0.33631206 2001:-0.14039154 2002:-0.25179669 2003:-0.081524312 2004:-0.1862601 2005:-0.09880545 2006:-0.09036994 2007:0.029718103 2008:-0.36475992 2009:-0.11278298 2010:-0.81546754 2011:0.14615786 2012:-0.039311551 2013:-0.16925208 2014:-0.24820431 2015:-0.0067624305 2016:-0.20657857 2017:-0.010547215 2018:0.32092249 2019:0.24463879 2020:-0.0067624305 2021:-0.0067624305 2022:-0.37936807 2023:0.082111232 2026:0.16497177 2027:-0.21031882 2028:-0.37638474 2029:0.20202595 2030:0.23503219 2031:0.043572895 2032:-0.041052002 2033:0.09732952 2034:0.18078075 2035:0.2002698 2036:0.09732952 2037:0.10143569 2038:0.0800208 2039:0.09732952 2040:0.14084263 2041:0.14084263 2042:-0.14049706 2043:0.52530396 2044:-0.14049706 2045:-0.14049706 2046:0.52841711 2047:0.49966699 2048:-0.25243226 2049:-0.2173195 2050:-0.11826591 2051:-0.18387559 2052:-0.11826591 2053:0.3206532 2054:-0.14204815 2055:-0.11826591 2056:0.13911754 2057:0.052793831 2058:0.046921015 2059:0.053366341 2060:-0.12724592 2061:0.57983309 2062:0.27946451 2063:0.25903648 2064:0.25903648 2065:0.50759995 2066:-0.059546772 2067:0.40745762 2068:0.15255091 2069:-0.10858251 2070:-0.094685204 2071:-0.21040505 2072:0.01138761 2073:0.031829737 2074:0.060097057 2075:0.45171389 2076:0.49618551 2077:0.031829737 2078:0.031829737 2079:0.031829737 2080:-0.33797315 2081:0.6711036 2082:0.1840363 2083:-0.14513642 2084:0.33393785 2085:-0.074614823 2086:0.12727441 2087:0.40919328 2088:0.25908417 2089:0.1666996 2090:0.1666996 2091:-0.094427578 2092:0.061849296 2093:-0.39776129 2094:0.35194954 2095:-0.045516051 2096:0.16916674 2097:0.027211152 2098:0.041411955 2099:0.097729102 2100:-0.22715564 2101:-0.040731065 2102:-0.011643517 2103:0.12912272 2104:-0.13620001 2105:-0.20900881 2106:-0.21564761 2107:0.15719451 2108:0.031107636 2109:-0.3367725 2110:-0.20647438 2111:0.23701207 2112:0.27504954 2113:0.13645837 2114:-0.21250777 2115:0.1594474 2116:0.054737914 2118:0.068862699 2119:0.02105407 2120:0.0010191151 2121:-0.14638032 2122:0.1450417 2123:-0.036933161 2124:0.0010191151 2125:-0.054478232 2126:-0.16349696 2127:-0.27062228 2128:0.027486412 2129:-0.16349696 2130:0.35143912 2131:0.450661 2132:0.29123625 2133:0.450661 2134:0.39011502 2135:-0.066528052 2136:0.040521808 2137:0.20110673 2138:0.047815099 2139:0.013468325 2141:0.22220874 2142:-0.13783765 2143:-0.573448 2144:0.20993946 2145:-0.071414582 2149:0.12570687 2150:-0.021746643 2151:0.27152348 2153:0.11374529 2154:-0.11629125 2155:-0.1262534 2156:0.32803544 2157:0.045106523 2158:0.44413117 2159:0.45179436 2160:0.57701337 2161:0.40978172 2162:0.78916723 2163:0.33196864 2164:0.19982868 2165:0.083364055 2166:0.083364055 2167:0.083364055 2168:-0.57731903 2169:0.036361802 2170:-0.079801284 2171:-0.15227474 2172:0.21837431 2173:0.035885982 2174:0.17460309 2175:0.0089805769 2176:0.41379058 2177:-0.208083 2178:0.21837431 2179:-0.1078468 2180:0.097596034 2181:0.52297449 2182:0.097596034 2183:0.097596034 2184:-0.056725167 2185:-0.23758201 2186:-0.099429823 2187:0.14461321 2188:0.14461321 2189:0.14461321 2190:0.11805968 2191:-0.24890544 2192:0.30242309 2193:0.14461321 2194:0.14461321 2195:0.054505009 2196:-0.030996425 2197:-0.030996425 2198:-0.1719916 2199:0.06682992 2200:-0.25884646 2201:0.087987594 2202:-0.15123039 2203:-0.097084403 2204:-0.1719916 2205:-0.2507863 2206:0.1972384 2207:-0.052543756 2208:-0.074123576 2209:-0.28487593 2210:-0.10521615 2211:-0.046785664 2212:0.18463331 2213:-0.1413831 2214:0.043673299 2215:-0.3159593 2216:-0.046785664 2217:-0.39809102 2218:0.31764013 2219:-0.31401643 2220:-0.11170246 2221:-0.02416642 2222:0.082877733 2223:0.041438866 2224:-0.68380702 2225:0.12430076 2226:0.12430076 2227:-0.059508163 2228:0.12430076 2229:0.26362073 2230:0.056594919 2231:0.12430076 2232:0.12430076 2233:0.22405356 2234:0.12430076 2235:-0.18122518 2236:-0.23056449 2237:0.31507248 2238:0.31507248 2239:0.60506082 2240:0.31507248 2241:0.43552527 2244:0.19508837 2245:-0.22048934 2246:-0.11450608 2247:-0.17010659 2248:-0.17010659 2249:-0.17010659 2250:-0.41058353 2251:0.13831781 2252:0.038537588 2253:-0.13293977 2254:-0.058685988 2255:0.012261239 2256:-0.066795819 2257:-0.23772353 2258:-0.75216383 2259:0.47530225 2260:-0.2907514 2261:0.017973866 2262:0.13437517 2263:0.13437517 2264:-0.058781303 2267:0.14008638 2268:0.24572429 2269:-0.027338427 2270:0.17875774 2271:-0.22894739 2272:0.14008638 2273:0.038407598 2274:0.15103106 2275:-0.13056983 2276:-0.13056983 2277:-0.13056983 2278:-0.13056983 2279:-0.13056983 2280:-0.30385762 2281:-0.036786299 2282:-0.036786299 2283:0.136338 2284:0.033636957 2285:-0.06600944 2286:-0.094211705 2287:0.0020248336 2288:0.073850051 2289:0.049567133 2290:-0.14826167 2291:-0.18554334 2292:0.24458537 2293:-0.18791485 2294:-0.18554334 2295:-0.045872156 2296:-0.11325961 2297:-0.11325961 2298:-0.11325961 2299:-0.15059282 2300:0.27640256 2301:-0.075705022 2302:0.20551164 2303:0.18892881 2304:0.098629154 2305:0.20551164 2306:0.23054686 2307:-0.081136122 2308:0.0049702809 2309:0.41878742 2310:0.44953662 2311:0.32759944 2312:-0.08614631 2314:0.41710681 2315:0.36107293 2316:-0.12924413 2317:-0.60655963 2318:0.25066569 2319:-0.18003577 2320:0.51751643 2321:0.13371742 2322:0.33693945 2323:0.20419638 2324:-0.099798977 2325:0.35432377 2326:0.22225624 2327:0.25441387 2328:-0.0099069905 2329:0.16017424 2330:0.16017424 2331:0.13449831 2332:0.16017424 2333:0.098087005 2334:0.41278413 2335:0.12842336 2336:0.20197088 2337:0.088017449 2338:-0.14958699 2339:-0.030828252 2340:0.11934788 2341:-0.15800729 2342:0.37376657 2343:-0.088338695 2344:-0.25019461 2345:0.11928994 2346:-0.05732432 2347:-0.19273846 2348:-0.15950549 2349:0.50017661 2350:-0.28467992 2351:-0.013346703 2352:-0.032674085 2353:-0.013346703 2354:-0.092475072 2355:0.18795899 2356:-0.15932779 2357:0.082799904 2358:-0.23210929 2359:-0.23210929 2360:-0.1756321 2361:0.42708206 2362:0.46959099 2363:0.42708206 2364:0.2349856 2365:0.062458709 2366:-0.0099328971 2367:-0.12521344 2368:-0.4645187 2369:0.17707743 2370:-0.037146386 2371:-0.037146386 2372:0.072032623 2373:-0.24589469 2374:-6.5092478e-05 2375:0.16240215 2376:0.097318023 2377:-0.037146386 2379:-0.047628783 2380:0.33592656 2381:-0.38644511 2382:0.04066959 2383:-0.047628783 2384:-0.047628783 2385:0.23072796 2386:0.28635645 2387:-0.047628783 2388:0.016984545 2389:0.0034994415 2390:0.31500304 2391:0.31309921 2392:0.020365292 2393:0.38912144 2394:-0.20179278 2395:0.23631138 2396:0.31965536 2397:0.013335124 2398:0.014301348 2399:-0.095938623 2400:0.11383203 2401:0.17748931 2402:0.052004766 2403:0.30453005 2404:0.014301348 2405:0.014301348 2406:0.014301348 2407:0.078665145 2408:0.087425202 2409:0.087425202 2410:0.44645563 2411:0.51212341 2412:0.11460873 2413:0.17020977 2414:0.17020977 2415:0.32901272 2416:0.60906219 2417:0.17020977 2418:0.20115738 2419:0.18907543 2420:0.17020977 2421:0.36332178 2422:0.064438164 2423:0.064438164 2424:-0.27118444 2425:0.1810571 2426:0.15063377 2427:-0.15149625 2428:0.29996806 2429:0.13552985 2430:0.093888268 2431:0.064438164 2432:0.23215429 2433:0.064438164 2434:0.60152012 2435:0.064438164 2436:-0.051805653 2437:0.064438164 2438:0.54180598 2439:-0.15272783 2440:0.085182399 2441:-0.037155367 2442:0.15634418 2443:-0.16028069 2444:-0.66002548 2445:0.040637296 2446:0.072153188 2447:0.1011468 2448:0.20570044 2449:-0.38400584 2450:-0.17883967 2451:0.14486426 2452:-0.40871981 2453:-0.24964117 2454:-0.24964117 2455:-0.050933 2456:-0.25110972 2457:0.22416399 2458:-0.038902104 2460:-0.20411859 2461:-0.041542731 2462:-0.1609692 2463:0.040182345 2465:0.24063453 2466:0.36683875 2467:0.05805267 2468:0.40012404 2471:0.010793871 2472:0.028878847 2473:0.094383262 2474:0.077564716 2475:-0.21630187 2476:0.17229515 2477:0.02947191 2478:0.012039555 2479:0.014153111 2480:0.028878847 2481:0.25431016 2482:0.069551088 2483:0.35900754 2484:0.21648504 2485:0.028878847 2486:0.39777139 2487:0.057197947 2488:0.028878847 2489:0.22505824 2490:-0.1804188 2491:-0.38810974 2492:-0.38810974 2493:-0.10532456 2494:0.10023655 2495:0.022826156 2496:-0.15367843 2497:0.082540087 2498:0.54826236 2499:-0.0049834666 2500:-0.034004021 2501:-0.085549012 2502:0.022826156 2503:0.43130901 2504:-0.18196979 2505:0.40712905 2506:0.46920499 2507:-0.18020566 2508:-0.1481235 2509:-0.42013127 2510:-0.20490408 2511:-0.098867826 2512:0.60207391 2513:-0.093174428 2515:-0.18236271 2516:-0.093174428 2517:0.53962916 2518:-0.15456089 2519:-0.052096378 2520:-0.052096378 2521:-0.29514164 2522:0.017956512 2523:-0.10998573 2524:0.017028468 2525:0.035525255 2526:-0.12326813 2527:-0.028929187 2528:-0.028929187 2529:-0.028929187 2530:0.16325189 2531:0.021430334 2532:0.16325189 2533:-0.12668146 2534:-0.20218441 2535:-0.12668146 2536:-0.12668146 2537:-0.072966032 2538:-0.061313763 2539:0.037501432 2540:0.50979978 2541:0.13454138 2542:-0.068241842 2543:-0.19531649 2544:0.090892456 2545:0.037501432 2546:0.037501432 2547:0.24261026 2548:-0.071061715 2549:-0.35714155 2550:0.037501432 2551:-0.049999017 2552:-0.049999017 2553:0.11891358 2554:-0.049999017 2555:-0.15827204 2556:0.31176507 2557:-0.049999017 2558:0.06209325 2559:0.22198014 2560:0.22198014 2561:-0.024382798 2563:-0.59351856 2566:-0.017644884 2567:-0.080946282 2568:0.002303513 2569:-0.01966719 2570:-0.3670342 2571:0.24498799 2572:-0.2027397 2573:-0.12447694 2574:0.52613151 2575:0.44390088 2576:0.061073881 2577:-0.082537606 2578:-0.045063768 2579:-0.045063768 2580:0.32318142 2581:-0.0015266136 2582:-0.25778237 2583:-0.44299647 2584:0.045645736 2585:-0.20666847 2586:0.23711707 2587:0.13945808 2588:0.24430408 2589:0.2872079 2590:0.053814784 2591:0.11376595 2592:-0.063214377 2593:0.14813064 2594:0.21645543 2598:0.094863854 2600:-0.018759608 2601:0.29592326 2602:-0.12151539 2603:0.19589414 2604:0.0096483091 2605:0.031327721 2606:-0.18423636 2607:0.080262929 2608:0.12996429 2609:-0.10489298 2610:-0.18178961 2611:0.15845497 2612:0.15845497 2613:0.15845497 2614:0.15845497 2615:-0.14727545 2616:-0.11891794 2617:0.15845497 2618:0.020051768 2619:0.19677669 2620:0.033767886 2621:-0.054476298 2622:0.066975288 2623:0.033868629 2624:0.24743554 2625:0.41803768 2626:0.41803768 2627:-0.037463892 2628:-0.17880882 2629:-0.12830767 2630:-0.037463892 2631:-0.34808049 2632:-0.037463892 2633:0.13813119 2634:-0.068649046 2635:0.26568398 2636:-0.32914168 2637:-0.15192217 2642:-0.031542987 2643:0.018369084 2644:-0.050654192 2645:-0.11776669 2646:-0.091752477 2647:-0.12852973 2648:-0.20377456 2649:-0.28081128 2650:-0.3595387 2651:0.093472265 2652:0.19999623 2653:0.025439914 2654:-0.041174971 2655:0.46241784 2656:0.093472265 2657:0.02629734 2658:0.093472265 2659:-0.19374569 2660:0.024195479 2661:0.029384498 2662:-0.04566985 2663:-0.065603137 2664:-0.065603137 2665:-0.07750506 2666:-0.14129718 2667:0.49703237 2668:-0.20187753 2669:-0.028860053 2670:-0.15893087 2671:0.27974436 2672:0.011083195 2673:0.43128785 2674:0.42455238 2675:0.27974436 2676:0.039048947 2677:0.27974436 2678:0.19815537 2679:0.029074878 2680:-0.032813225 2681:0.081932344 2682:0.33072942 2683:0.012194748 2684:-0.16580166 2685:0.27484047 2686:-0.11207474 2687:-0.075545289 2688:0.40619445 2689:0.057105973 2690:0.092115365 2691:0.092115365 2692:-0.087671913 2693:-0.52816349 2694:-0.025734082 2695:0.1406415 2696:-0.15643334 2697:0.36698356 2698:-0.32628697 2699:-0.21334162 2700:0.12617582 2701:-0.55869353 2702:0.40060431 2703:0.028563356 2704:0.12012056 2705:0.30853042 2706:0.028563356 2707:0.13049567 2708:0.19016252 2709:0.0093276314 2710:-0.16814539 2711:-0.48479632 2712:0.079481974 2713:-0.11657654 2714:-0.21914059 2715:-0.084943883 2716:-0.016150227 2717:-0.20006345 2718:0.072110675 2719:0.48316649 2720:-0.065206088 2722:0.27421948 2723:0.33474246 2725:0.29899192 2726:0.36075231 2728:-0.11785126 2731:0.30008906 2732:0.20892806 2733:0.24723518 2734:-0.034242615 2735:-0.034242615 2736:0.17553957 2737:-0.49321592 2738:-0.49321592 2739:-0.12949514 2741:-0.017906114 2742:-0.21824419 2743:0.44730267 2744:-0.17589916 2745:-0.082747541 2746:0.054674502 2747:0.27369758 2748:-0.50744098 2749:-0.20630653 2750:0.0077072242 2751:0.060950879 2752:0.23436362 2753:0.20675728 2754:-0.5490309 2755:-0.34880865 2756:-0.096543238 2757:-0.17923932 2758:0.51556218 2759:0.61774808 2761:0.36420506 2762:0.34143615 2763:0.41807616 2764:0.34143615 2765:-0.30314463 2766:0.21999541 2767:0.27575365 2768:0.49170023 2769:0.37149596 2770:0.49170023 2771:0.49170023 2772:-0.11759436 2773:-0.27591202 2774:0.64579189 2775:-0.067681082 2776:-0.067681082 2777:-0.067681082 2778:-0.24623975 2779:-0.16232488 2780:-0.15283291 2781:-0.15283291 2782:0.32505402 2783:-0.15283291 2784:-0.11767568 2785:-0.07835 2786:-0.22849195 2787:-0.11767568 2788:-0.19113494 2789:0.1116724 2790:0.062484808 2791:0.1673505 2792:0.062484808 2793:0.062484808 2794:0.062484808 2795:0.062484808 2796:0.062484808 2797:0.2308659 2798:-0.037839647 2799:0.58379972 2800:0.0045823939 2801:0.1720072 2802:0.11542989 2803:0.16959304 2804:0.32368153 2805:0.11525378 2806:0.11525378 2807:-0.070840187 2808:-0.40641433 2809:-0.13573715 2810:-0.036530156 2811:-0.16041243 2812:0.0097385934 2813:-0.16716936 2814:0.21038412 2815:0.68028116 2816:-0.10479504 2817:0.4659895 2818:0.21482636 2819:0.11156981 2820:0.26214784 2821:0.13107392 2822:-0.016124552 2823:-0.15231045 2824:0.081928141 2825:-0.026054107 2826:-0.026054107 2827:-0.032716438 2828:0.22972888 2829:-0.18971382 2830:-0.026054107 2831:-0.077125721 2832:-0.026054107 2833:-0.027846761 2834:-0.026054107 2835:0.11810829 2836:0.21130456 2841:0.59761757 2842:0.076754145 2843:0.089429274 2844:0.37066281 2845:0.01657092 2846:0.045761291 2847:0.21823454 2848:0.25143835 2849:0.21583226 2850:0.23931921 2851:-0.078603081 2852:-0.04087358 2853:0.14332324 2854:0.23084645 2855:-0.29702127 2856:-0.078603081 2857:-0.097418196 2858:0.30374104 2859:-0.23420995 2860:-0.18329895 2861:0.053569805 2862:-0.071747564 2863:0.020352814 2864:-0.11792555 2865:0.025343863 2866:0.2407562 2867:0.29914075 2868:0.26220122 2869:0.10547923 2870:0.065495439 2871:0.29089057 2872:0.10547923 2873:0.11381248 2874:0.10547923 2875:0.3056972 2876:-0.027593354 2878:0.15882079 2879:0.061677292 2884:-0.05714843 2885:0.22573343 2886:0.33376515 2887:0.17656799 2888:-0.15880834 2889:0.28451872 2890:0.21953107 2891:0.37471443 2892:0.24849416 2893:-0.21672148 2895:-0.011682707 2898:-0.040731106 2899:-0.044617381 2900:0.18635122 2901:0.26732716 2902:0.44520557 2903:0.48090991 2904:0.29371595 2905:0.1388292 2906:0.21572731 2907:0.57025272 2908:0.46435124 2909:-0.22403349 2910:-0.48682123 2911:-0.20102662 2912:-0.17922042 2913:0.30737954 2914:0.59449327 2915:0.48126611 2916:0.1797765 2917:0.043872632 2918:-0.09107513 2919:-0.079727553 2920:0.10781034 2921:-0.031865355 2922:-1.5411754 2923:-0.044672988 2924:-0.086854875 2925:0.16563886 2926:-0.13570778 2927:-0.21695344 2928:0.0019857045 2929:0.18993713 2930:-0.086854875 2931:0.068368196 2932:-0.18015155 2933:-0.13149871 2934:0.30972928 2935:0.24245782 2936:0.2324397 2937:0.11161017 2938:0.46487939 2939:0.47451451 2940:0.50083929 2941:-0.42030653 2943:-0.014165523 2944:0.10910838 2945:-0.25728208 2946:0.14241229 2947:-0.09354046 2948:0.29399553 2949:0.27643478 2950:0.29399553 2951:0.29399553 2952:-0.36817357 2953:-0.23852211 2954:-0.59425402 2955:0.43377179 2956:-0.23852211 2957:-0.067467742 2958:-0.13863428 2959:-0.28552437 2960:-0.068513289 2961:-0.23852211 2962:-0.17607971 2963:-0.23852211 2964:-0.60590053 2965:0.24871255 2966:0.24871255 2967:-0.23852211 2968:0.39349908 2969:0.14098978 2970:-0.15561604 2971:-0.12661453 2972:-0.033438787 2973:0.22062075 2974:-0.094762638 2975:0.0083257826 2977:-0.22879161 2978:-0.0087964768 2979:-0.0087964768 2980:-0.0087964768 2981:-0.52809638 2982:-0.12831488 2983:0.23963217 2984:-0.0087964768 2985:0.016312098 2986:-0.40469179 2987:0.22796585 2988:-0.47271875 2989:-0.06585294 2990:-0.34887594 2991:0.037166823 2992:0.037166823 2993:-0.088582069 2994:0.21812914 2995:0.14343314 2996:0.14343314 2997:0.14401068 2998:-0.069380663 2999:0.2176711 3000:-0.23325402 3001:0.18556464 3002:-0.35780677 3003:-0.2281023 3004:0.28744084 3005:-0.1750298 3006:0.44784331 3007:0.31202349 3008:0.90275121 3009:-0.066053592 3010:-0.048194997 3011:-0.066053592 3012:0.57133377 3013:0.12931122 3014:-0.066053592 3015:0.3678031 3016:0.31383708 3017:-0.68555719 3018:0.24937358 3019:-0.053715426 3020:-0.076713838 3021:0.012440457 3022:-0.082214847 3023:0.23326536 3024:0.16615781 3025:0.16615781 3026:0.013219784 3027:0.15702495 3028:0.059844803 3029:-0.38954651 3030:0.21257977 3031:0.076290213 3032:0.062661745 3033:-0.20910281 3034:-0.33402207 3035:0.32898962 3036:0.21004453 3037:0.4569231 3038:0.18759361 3039:-0.018616758 3040:-0.42648247 3041:-0.33535898 3042:-0.33535898 3043:-0.050397124 3044:0.014074136 3045:0.0057976837 3046:-0.10090308 3047:0.13087393 3048:-0.050451539 3049:0.059370525 3050:0.020940332 3051:-0.050451539 3052:0.20129707 3053:-0.17808568 3054:-0.074271142 3055:0.01365642 3056:-0.076477148 3057:-0.082946792 3058:-0.15269139 3059:0.037934117 3060:0.074197419 3061:-0.088716723 3062:-0.048598837 3063:-0.048598837 3065:0.18641487 3066:0.18641487 3067:0.18641487 3068:0.49949098 3069:-0.097729236 3070:-0.02995836 3071:-0.10944168 3072:0.025051629 3073:0.20076761 3074:-0.39142314 3075:-0.16283669 3076:-0.097729236 3077:0.27051595 3078:0.17543519 3079:0.16974254 3080:0.16974254 3081:0.043098439 3082:-0.12827736 3083:-0.19732159 3084:0.022069179 3085:0.44563851 3086:-0.093686052 3087:0.059222102 3088:0.16331607 3089:-0.20544283 3090:-0.20544283 3091:-0.20544283 3092:-0.20544283 3093:-0.12334931 3094:-0.13474503 3095:-0.31921667 3096:-0.17820714 3097:-0.37563452 3098:-0.32863227 3099:-0.34869364 3100:-0.23984316 3101:-0.23984316 3102:-0.18092014 3103:-0.23984316 3104:-0.51401347 3105:0.025055178 3106:0.12351329 3107:0.25437474 3108:-0.33674949 3109:-0.49702278 3110:-0.034364499 3111:-0.00045135253 3112:-0.00045135253 3113:-0.00045135253 3114:-0.00045135253 3115:0.20685111 3116:-0.00045135253 3117:-0.15311921 3118:0.59847611 3119:-0.13807701 3120:-0.00045135253 3121:0.23209189 3122:-0.00045135253 3123:-0.00045135253 3124:-0.34811336 3125:-0.00045135253 3126:-0.00045135253 3127:0.010064719 3128:-0.22862573 3129:-0.22862573 3130:-0.22862573 3131:0.21407764 3132:0.052562386 3133:0.051641244 3134:0.21407764 3135:0.15043956 3136:0.06237549 3137:0.1105513 3139:0.068347789 3140:0.20668903 3142:-0.059323665 3143:-0.0012991229 3145:0.15081565 3146:-0.065477483 3147:-0.23193219 3148:0.11661894 3151:-0.26672414 3152:-0.13006938 3153:-0.11276184 3154:-0.11276184 3155:-0.10562219 3156:0.13396975 3157:-0.50606787 3158:-0.40656945 3159:0.097786576 3160:-0.22661021 3163:-0.14694695 3165:-0.46069726 3166:-0.038710058 3168:-0.18536489 3169:0.4764125 3170:0.10263526 3171:0.19303167 3172:-0.20846303 3173:-0.10658899 3174:0.08829961 3175:0.11751322 3176:-0.18124992 3177:-0.11789268 3178:-0.10658899 3179:-0.12703426 3180:-0.12703426 3181:-0.14147907 3182:-0.064517014 3183:0.36818436 3184:0.096388318 3185:0.096388318 3186:0.13134573 3187:0.096388318 3188:0.07980185 3189:-0.25962043 3190:-0.0273421 3191:-0.055752732 3192:0.85693091 3193:0.020464804 3194:0.31754577 3195:0.028106516 3196:-0.33783934 3197:0.12733555 3198:0.20430724 3199:0.20430724 3200:0.20430724 3201:0.51247579 3202:0.039791107 3203:0.11274187 3204:0.068328597 3205:0.025193883 3206:0.35009015 3207:0.027345257 3208:-0.081934988 3209:-0.32753283 3210:-0.19835919 3211:0.20114259 3212:-0.21147704 3213:0.074848481 3214:-0.11187629 3215:0.47875884 3216:-0.11187629 3217:-0.11187629 3218:-0.045607291 3219:-0.11187629 3220:-0.09082035 3221:0.070453487 3222:-0.32079419 3223:-0.1944833 3224:-0.099799849 3225:0.029630411 3226:-0.048755605 3227:0.66505176 3228:0.082440302 3229:-0.19190171 3230:-0.053758051 3231:-0.24701245 3232:-0.24701245 3233:-0.24701245 3234:-0.085926905 3235:0.50646555 3236:0.10983132 3237:0.24305454 3238:0.10983132 3239:0.07114435 3240:-0.28196651 3241:0.29656175 3242:0.070180811 3243:0.11436354 3244:0.18772186 3245:0.081826888 3246:0.0024127266 3247:0.20012666 3248:0.19945177 3249:0.23287657 3250:0.16586605 3251:0.038056608 3253:-0.071869709 3254:-0.071869709 3255:-0.056767531 3256:-0.071869709 3257:-0.071869709 3258:-0.071869709 3259:-0.071869709 3260:0.1404445 3261:0.31583312 3262:0.028142141 3263:-0.071869709 3264:-0.015574325 3265:0.10692219 3266:-0.071869709 3267:-0.19357902 3268:0.17338312 3269:-0.20363007 3270:-0.071869709 3271:-0.071869709 3272:-0.13805911 3273:-0.31699839 3274:-0.071869709 3275:-0.28525761 3276:0.068104506 3277:0.08295884 3278:0.087535389 3279:-0.30713126 3280:0.076536842 3281:0.74535453 3282:-0.12510878 3283:0.013722745 3284:-0.094556011 3285:-0.094556011 3286:-0.032920536 3287:0.016735107 3288:0.72119921 3289:-0.093144506 3290:0.15038468 3291:0.1761674 3292:-0.059215579 3293:0.15038468 3294:0.15038468 3295:0.64435095 3296:0.073423125 3297:0.042876784 3298:-0.42143434 3299:0.49581727 3300:0.010610042 3301:-0.090702467 3302:0.12137917 3303:-0.20665735 3305:0.077013344 3306:0.16592364 3307:0.014700675 3309:-0.22680992 3310:-0.10713506 3311:0.31651813 3312:-0.12580195 3313:0.2305485 3314:0.022753647 3315:-0.21709356 3316:0.022006698 3317:-0.15829733 3318:-0.010436275 3319:-0.15829733 3320:-0.15829733 3321:-0.15829733 3322:0.10869776 3323:-0.15829733 3324:-0.49380729 3325:-0.055569895 3326:0.17338859 3327:-0.11365325 3328:-0.20089138 3329:-0.15829733 3330:0.32395339 3331:-0.020256208 3333:0.23189376 3335:0.020219814 3336:0.010019598 3337:0.21217163 3338:0.26051435 3339:0.075228818 3340:0.093973853 3341:0.10287035 3342:-0.10800336 3343:0.030828159 3344:0.42612886 3345:0.038478956 3346:0.1826655 3347:0.26192999 3348:-0.14047423 3349:0.14748363 3350:0.14604549 3351:0.064042322 3352:-0.083538175 3353:-0.010870006 3354:0.090117268 3355:-0.066045605 3356:0.10991175 3357:-0.065897211 3358:0.19051081 3359:-0.41082588 3360:0.12858462 3361:0.027874798 3362:0.097788952 3363:-0.0037762052 3364:0.097788952 3365:0.097788952 3366:0.10264914 3367:0.16881335 3368:0.097788952 3369:0.11040965 3370:0.11040965 3371:-0.0044568875 3372:-0.0044568875 3373:-0.0044568875 3374:-0.090644717 3375:-0.0044568875 3376:-0.0044568875 3377:0.46865946 3378:-0.0044568875 3379:0.22635631 3380:0.023963036 3381:-0.36273435 3382:0.048671052 3383:0.088850193 3384:-0.27671281 3385:-0.12797278 3386:-0.25509197 3387:0.023801768 3388:-0.02060275 3389:0.067688897 3390:-0.010504841 3391:-0.049530424 3392:0.068319574 3393:-0.071930125 3394:-0.049929325 3395:-0.23191959 3396:-0.34992161 3397:-0.14881612 3398:0.38217232 3399:-0.049929325 3400:-0.24203399 3401:-0.18227093 3402:-0.01431562 3403:-0.081535697 3404:0.36668268 3405:-0.16464022 3407:0.14707655 3408:-0.22981974 3410:0.0015504711 3411:-0.061036754 3412:0.25982538 3413:0.15265626 3414:-0.014165523 3415:-0.19061632 3416:-0.31398645 3417:0.22852635 3418:0.22852635 3419:0.34655887 3420:-0.0061972649 3421:0.19129212 3422:-0.42029107 3423:0.29006407 3424:0.00041055653 3425:0.29006407 3426:0.29006407 3427:0.32712972 3428:0.32712972 3429:0.098685749 3430:0.32712972 3431:0.060706731 3432:0.46966928 3433:-0.21423064 3434:0.17211129 3435:0.40571079 3436:0.073516883 3437:0.073516883 3438:-0.065134518 3439:0.24461789 3440:0.27800143 3441:0.39530072 3442:0.25395578 3443:-0.046745479 3444:-0.41140714 3445:-0.065513678 3446:0.13466941 3447:-0.092760786 3448:0.25111189 3449:0.22645074 3450:0.26935107 3451:-0.38439691 3452:0.14122702 3453:0.14122702 3454:-0.12007374 3455:0.2042051 3456:-0.17231467 3457:0.14122702 3458:-0.089117445 3459:-0.089117445 3460:-0.25786418 3461:-0.089117445 3462:-0.31735218 3463:-0.057456646 3464:-0.36112157 3465:-0.11192291 3466:0.055018 3467:-0.34124249 3468:-0.11192291 3469:-0.11192291 3470:-0.11192291 3471:-0.11192291 3472:0.31237885 3473:0.066260919 3474:0.041931693 3475:-0.069744609 3476:0.091882385 3477:0.068524636 3478:0.07726042 3479:0.068524636 3480:0.0050346325 3481:-0.11758602 3482:-0.21290514 3483:0.12540811 3487:0.068615973 3489:-0.063376047 3490:-0.11092771 3491:0.094900571 3492:0.16490574 3493:-0.040088307 3494:-0.31245619 3495:-0.10372565 3496:-0.07603173 3497:0.12525073 3498:-0.81988508 3499:0.09649463 3500:0.13123192 3501:-0.11047757 3502:-0.16730559 3503:-0.11047757 3504:-0.016895542 3505:-0.11047757 3506:-0.26547056 3507:0.068013363 3508:-0.20325089 3509:-0.082192965 3510:0.32375628 3511:-0.082192965 3512:-0.00027452307 3513:0.14964494 3514:0.19583465 3515:0.15170938 3516:0.19583465 3517:0.19583465 3518:0.28174064 3519:0.42264611 3520:-0.0084831743 3521:0.19962436 3522:0.19962436 3523:0.15699838 3524:0.15699838 3525:0.15699838 3526:0.15699838 3527:-0.014617517 3528:-0.24917053 3529:0.42423567 3530:0.23750556 3531:0.32354718 3532:0.14275412 3533:0.0039629284 3534:0.011953359 3535:-0.05065367 3536:-0.05065367 3537:-0.05065367 3538:-0.05065367 3539:-0.015391341 3540:-0.05065367 3541:-0.045544516 3542:-0.09963467 3543:-0.045486975 3544:-0.09963467 3545:0.114234 3546:0.15375017 3547:0.13263759 3548:0.081880443 3549:0.31058148 3550:0.20594035 3551:0.14400801 3552:-0.032971106 3553:0.0099682622 3555:0.19033727 3556:0.19059087 3558:0.011980165 3560:-0.30955657 3561:0.41741621 3562:-0.34497544 3563:-0.28258896 3564:0.1965643 3565:-0.071772002 3566:-0.067539938 3567:0.15442796 3568:0.41182992 3569:0.44378522 3570:0.45793369 3571:0.45793369 3572:0.45793369 3573:-0.030228924 3574:-0.18785004 3575:-0.37170166 3576:-0.11314134 3577:-0.11314134 3578:-0.044557385 3579:-0.48722556 3580:0.047865722 3581:0.20031406 3582:0.20031406 3583:0.13541414 3584:0.46434191 3585:0.70975739 3586:-0.027297478 3587:-0.20241931 3588:-0.10205327 3589:-0.08117085 3590:0.13724734 3591:0.13724734 3592:0.13724734 3593:0.13724734 3594:0.13724734 3595:0.35369876 3596:0.2629979 3597:0.13724734 3598:0.1130874 3599:0.12886359 3600:0.20170084 3603:0.018533599 3604:0.40571785 3605:-0.25575289 3606:-0.25575289 3607:0.1056379 3608:-0.12470569 3609:0.74689686 3610:0.097840749 3611:-0.12693565 3612:-0.24374014 3613:0.21365023 3614:0.1795737 3615:0.34799668 3616:0.098673061 3617:0.076047249 3618:0.076047249 3619:0.076047249 3620:-0.17656422 3621:-0.18489835 3622:-0.092983924 3623:0.076047249 3624:0.064600006 3625:-0.33259398 3626:0.55576456 3627:0.84617805 3628:0.22258677 3629:0.047267925 3630:0.15360725 3631:0.15360725 3632:0.13322322 3633:0.048015703 3634:0.13322322 3635:0.26433906 3636:0.13322322 3637:-0.11582796 3638:0.39744806 3639:0.36654702 3640:0.098955892 3641:0.098955892 3642:-0.094579674 3643:0.098955892 3644:0.32154754 3645:0.058972098 3646:-0.41196081 3647:0.095160641 3648:0.36250281 3649:0.14489067 3650:-0.10534994 3651:0.31299636 3652:-0.59856385 3653:-0.057481043 3654:-0.013213874 3655:-0.013213874 3656:-0.1416761 3657:-0.013213874 3658:-0.32282299 3659:-0.13000388 3660:0.18241674 3661:0.091208369 3662:-0.0040348731 3663:0.091208369 3664:0.091208369 3665:-0.14898457 3666:-0.20820977 3667:-0.17401396 3668:0.036286175 3669:-0.16271862 3670:0.068476848 3671:0.27284354 3672:0.17475839 3673:-0.26048672 3674:-0.059936237 3675:-0.13526453 3676:-0.083137661 3677:-0.059936237 3678:-0.059936237 3679:-0.022709638 3680:-0.059936237 3681:-0.31887373 3682:-0.067560576 3683:-0.059936237 3684:-0.059936237 3685:-0.059936237 3686:-0.022775309 3687:-0.1340619 3688:0.45931518 3689:0.054147694 3690:-0.012536757 3691:0.054147694 3692:-0.24663599 3693:-0.24663599 3694:-0.11448345 3695:-0.24663599 3696:-0.24663599 3697:0.098615006 3698:-0.22801444 3699:-0.031906817 3700:-0.43025559 3701:-0.20774715 3702:0.1322235 3703:-0.20774715 3704:-0.20774715 3705:-0.20774715 3706:-0.1066929 3707:0.19037221 3708:-0.1066929 3709:0.23145798 3710:-0.030690694 3711:-0.030690694 3712:-0.01686766 3713:0.059190016 3714:-0.030690694 3715:-0.030690694 3716:-0.14567523 3717:-0.030690694 3718:-0.030690694 3719:0.19052808 3720:0.26601592 3721:0.1078942 3722:0.1078942 3723:-0.12356495 3724:0.33430499 3725:-0.090749986 3726:0.5553565 3727:0.17930585 3728:-0.057590064 3729:-0.071493737 3730:-0.090749986 3731:-0.090749986 3732:-0.11635868 3733:-0.11635868 3734:-0.11635868 3735:-0.35808876 3736:-0.19528086 3737:-0.060300313 3738:0.39050946 3739:0.38433903 3740:0.18555082 3741:0.18555082 3742:0.18555082 3743:0.18555082 3744:-0.51022846 3745:0.18555082 3746:-0.066040702 3747:0.18555082 3748:0.18555082 3749:0.29848981 3750:0.11514503 3751:0.18555082 3752:-0.18378845 3753:-0.12227275 3754:-0.071433462 3755:-0.27184314 3756:-0.17949137 3757:-0.0096927518 3758:-0.0096927518 3764:-0.15876858 3766:0.12947798 3771:-0.24742341 3772:0.32527509 3773:0.057659861 3774:-0.097900175 3775:-0.17998622 3776:-0.080004647 3777:-0.049282029 3778:-0.097900175 3779:0.14909111 3780:-0.24286644 3781:-0.24286644 3782:-0.3110241 3783:-0.091787562 3784:-0.24286644 3785:-0.095243245 3786:0.091085784 3787:5.9416419e-05 3788:-0.095243245 3789:-0.07937254 3790:0.055214573 3791:-0.068008214 3792:-0.10730306 3793:-0.32581019 3794:-0.0095988028 3795:-0.0047994014 3796:-0.0047994014 3797:0.25101578 3798:0.40350556 3799:0.44506565 3800:-0.1198639 3801:-0.1198639 3802:0.019933285 3803:0.019933285 3804:-0.52996099 3805:-0.00038679811 3806:0.019933285 3807:0.019933285 3808:0.0030797727 3809:0.019933285 3810:0.03986657 3811:0.019933285 3812:0.24958833 3813:0.019933285 3814:-0.0098005561 3815:-0.0098005561 3816:0.44775659 3817:0.018212123 3818:0.0078497967 3819:0.097746983 3820:0.30185992 3821:-0.16724685 3822:-0.21708114 3823:-0.22785452 3824:0.18312317 3825:0.12385468 3826:0.15408531 3827:0.22342205 3828:0.084630862 3829:0.0023333221 3830:0.22342205 3831:0.008341779 3832:0.14879966 3833:0.15953581 3834:0.14906207 3835:0.0090055037 3836:0.057382874 3837:0.0090055037 3838:-0.011144896 3839:-0.13750404 3840:0.55860984 3841:0.11718199 3842:0.24742523 3843:0.4626672 3844:-0.017732874 3845:0.29704145 3846:0.17913559 3847:0.01705301 3848:0.35210869 3849:0.051159028 3850:0.01705301 3851:0.077928089 3852:0.01705301 3853:-0.027706062 3854:0.01705301 3855:0.060187723 3856:0.01705301 3857:-0.014267817 3858:-0.24493648 3859:0.1366953 3860:-0.014267817 3861:-0.0081523638 3862:-0.014267817 3863:-0.014267817 3864:-0.25500587 3865:-0.10688248 3866:-0.10688248 3867:0.10827494 3868:0.26301253 3869:0.088659376 3870:0.088659376 3871:0.040886492 3872:0.040886492 3873:0.44801936 3874:0.059543625 3875:0.040886492 3876:0.19815493 3878:0.088783503 3879:-0.080204949 3880:0.46711427 3882:0.027847949 3883:-0.0094281528 3884:-0.15482225 3885:-0.29486838 3886:0.12979925 3887:-0.0094281528 3888:-0.0094281528 3889:-0.0094281528 3890:-0.0094281528 3891:0.11420058 3892:-0.0094281528 3893:0.10299975 3894:0.35421324 3895:-0.19739217 3896:0.014635008 3897:-0.093270272 3898:-0.32029197 3899:0.023964914 3900:0.064100087 3901:0.064100087 3902:0.035282958 3903:0.2549127 3904:0.36191094 3905:0.24122721 3906:-0.084081948 3907:-0.25084406 3908:-0.047740214 3909:-0.084081948 3910:-0.084081948 3911:-0.084081948 3912:-0.084081948 3913:-0.047862194 3914:-0.047862194 3915:-0.32246143 3916:0.22682337 3917:-0.047862194 3918:0.016245766 3919:0.31443694 3920:-0.027284496 3921:-0.21244437 3922:0.2068816 3923:0.25818065 3924:0.06620001 3925:-0.027501797 3926:0.0037007164 3927:-0.1479733 3928:0.28648403 3929:-0.1706139 3930:-0.25334585 3931:-0.2143926 3932:-0.035715967 3933:-0.1680723 3935:-0.20701723 3937:0.13608682 3938:0.25824699 3939:-0.065685861 3940:-0.45785031 3941:-0.29379818 3942:-0.21097535 3943:0.016824326 3944:0.13706547 3945:0.028995741 3946:0.18632902 3947:-0.2735585 3948:0.18632902 3949:-0.14194243 3950:-0.17814521 3951:0.46688342 3952:-0.06693247 3953:-0.15172501 3954:-0.22550057 3955:-0.12233955 3956:-0.036053948 3957:-0.076877028 3958:-0.021474395 3959:-0.29933336 3960:-0.29933336 3961:-0.29933336 3962:-0.29933336 3963:-0.01135019 3964:0.50957501 3965:-0.29736605 3966:-0.20019442 3967:-0.15422846 3968:-0.31762227 3969:-0.19308521 3970:-0.093299612 3971:-0.30646139 3972:0.047391631 3973:0.1961794 3974:0.16266866 3975:0.12428428 3976:-0.003355318 3977:0.12428428 3978:0.12428428 3979:-0.16684522 3980:0.051801573 3981:-0.16684522 3982:-0.16684522 3983:-0.16684522 3984:0.27567503 3985:0.27199414 3986:-0.305179 3987:-0.27925387 3988:0.34496346 3989:-0.12250341 3990:-0.2508547 3991:0.11784999 3992:0.11784999 3993:0.10337941 3994:0.17162649 3996:-0.20810755 3998:-0.016892467 3999:-0.016892467 4000:0.17168815 4001:-0.28275654 4002:-0.24536771 4003:-0.42497241 4004:0.13368627 4005:0.11251641 4006:0.089430079 4007:0.096014306 4008:0.056323417 4009:0.059109278 4010:0.10656194 4011:0.12051932 4012:-0.10410509 4013:-0.10410509 4014:0.3423402 4015:-0.13861386 4016:-0.087284066 4017:-0.014519406 4018:-0.014519406 4020:-0.11987963 4021:-0.18340619 4022:-0.28210649 4023:-0.18340619 4024:0.059184965 4025:-0.2846961 4026:0.23826504 4030:-0.17794314 4031:-0.066849865 4034:0.03965788 4036:0.097515374 4037:-0.32988474 4038:0.060036641 4039:0.19519396 4040:-0.13870761 4041:-0.090831928 4042:0.054063775 4043:-0.16230731 4044:-0.080181085 4045:-0.38143423 4046:-0.18116128 4047:0.31323588 4048:-0.16280718 4049:-0.22201434 4051:0.096236542 4052:-0.12241362 4053:-0.025116341 4054:0.038620595 4055:0.0075672986 4056:-0.027454348 4057:-0.027454348 4058:-0.027454348 4059:-0.41387171 4060:-0.027454348 4061:-0.027454348 4062:-0.12916224 4063:-0.12192124 4064:-0.34282395 4065:-0.12192124 4066:-0.12192124 4067:-0.12192124 4068:0.072353125 4070:-0.13972315 4072:-0.72376919 4073:-0.091242135 4075:-0.14714976 4076:-0.041614208 4077:-0.072572626 4078:0.1657149 4079:-0.073286004 4080:-0.026272068 4081:0.21135126 4082:0.096817844 4083:0.18764971 4084:0.18764971 4085:0.18764971 4086:0.4457109 4087:0.18764971 4088:-0.20062493 4089:0.10826983 4090:0.29592326 4091:-0.076825373 4092:0.27526504 4093:-0.28282848 4094:-0.023049422 4095:-0.27149051 4096:-0.27457547 4097:0.29084826 4098:0.15452859 4099:0.059206642 4100:0.1530892 4101:-0.011477723 4106:0.09770073 4108:0.077760488 4113:-0.028071832 4114:0.12750179 4115:-0.16534548 4116:-0.16824758 4117:-0.26034868 4118:-0.16534548 4119:-0.016036673 4120:-0.13385722 4122:0.5315302 4123:-0.011915702 4124:-0.051232185 4125:-0.11260287 4128:-0.10038126 4130:0.055220135 4131:0.03316097 4132:0.0050295871 4133:0.03316097 4134:-0.16301386 4135:-0.44950068 4136:0.10550927 4137:-0.051370457 4138:-0.00021679774 4139:-0.15751284 4140:-0.064338416 4141:-0.011171804 4142:-0.096262656 4143:0.019022966 4144:-0.17522129 4145:-0.43556091 4146:-0.11029465 4147:-0.13003245 4148:-0.11029465 4149:0.048190914 4150:0.15096311 4151:0.15096311 4152:0.13246374 4153:-0.19720413 4154:0.13246374 4155:-0.074173823 4156:0.022359423 4157:-0.14334188 4158:0.15690203 4159:0.24880275 4160:-0.098081484 4166:0.036226477 4169:-0.53943485 4170:0.36266592 4171:0.2466758 4172:0.2466758 4173:-0.011147639 4174:-0.42984042 4175:0.48492149 4176:-0.011147639 4177:-0.32967421 4178:-0.011147639 4179:0.26323533 4180:-0.010401631 4181:-0.010401631 4182:-0.010401631 4184:-0.51425105 4186:-0.15012048 4187:0.15342245 4188:-0.14633597 4189:-0.14633597 4190:-0.18291821 4191:0.0032923438 4192:-0.37406808 4193:-0.13719292 4194:-0.13719292 4195:-0.13719292 4196:-0.13719292 4197:0.015746476 4198:-0.15132217 4199:-0.24938588 4200:-0.24938588 4201:-0.038616516 4202:-0.11062338 4203:-0.14610247 4204:0.031070005 4205:-0.14610247 4206:-0.14610247 4207:0.099794187 4208:-0.13924696 4209:0.60563844 4210:0.092831388 4211:0.092831388 4212:0.092831388 4213:-0.088713281 4214:0.016654031 4215:0.016654031 4216:-0.19963154 4217:0.21688582 4218:0.016654031 4219:-0.11269576 4220:0.004353764 4221:-0.0032735157 4222:0.17014743 4223:0.004353764 4224:-0.10630671 4225:-0.10630671 4226:0.026571508 4227:-0.10630671 4228:-0.10630671 4229:0.51513672 4230:-0.37361199 4231:-0.17101327 4232:-0.060518079 4233:-0.12232348 4234:-0.060518079 4235:0.042290144 4236:0.082814895 4237:0.26486117 4238:0.03583274 4239:0.082814895 4240:0.03583274 4241:0.1044589 4242:0.03583274 4243:-0.23908222 4244:-0.13118514 4245:-0.034956679 4246:-0.082937688 4247:-0.082937688 4248:-0.082937688 4249:0.17714839 4250:-0.082937688 4251:-0.38543317 4252:-0.082937688 4253:-0.082937688 4254:-0.082937688 4255:-0.082937688 4256:-0.15510869 4257:-0.16361383 4258:-0.058437116 4259:-0.0039195404 4260:-0.053919777 4261:-0.23169889 4262:0.14097898 4263:0.11322725 4264:0.31318536 4265:0.079942405 4266:0.079942405 4267:0.13805346 4268:0.36665732 4269:0.093444347 4270:-0.41326457 4271:-0.04986541 4272:-0.18591142 4273:-0.18606837 4276:0.034030959 4277:0.054152481 4278:0.063957095 4279:0.034030959 4280:0.10103701 4281:-0.18234737 4282:-0.26467744 4283:-0.26467744 4284:0.16160069 4285:-0.5016064 4286:-0.11663172 4287:-0.11663172 4288:-0.11663172 4289:-0.34971228 4290:-0.11663172 4291:0.023241332 4292:-0.15933932 4293:-0.021989135 4294:-0.021989135 4295:-0.042897262 4296:-0.021989135 4297:-0.44673213 4298:-0.20783605 4299:0.22030744 4300:0.2094229 4301:0.2094229 4302:0.062688947 4303:0.062688947 4304:0.062688947 4305:0.13965896 4306:-0.10873564 4307:-0.02981759 4308:-0.023939908 4309:-0.095347598 4310:0.082503147 4311:0.015115878 4312:-0.023939908 4313:-0.023939908 4314:-0.023939908 4315:-0.023939908 4316:0.18104334 4317:0.20712355 4318:0.18104334 4319:-0.064558268 4320:-0.041649841 4321:-0.30229837 4322:-0.12561105 4323:0.0013305043 4324:-0.16629139 4325:-0.29414016 4326:-0.30733302 4327:-0.0028189714 4328:-0.020320082 4329:-0.020320082 4330:-0.020320082 4331:0.0026529918 4332:-0.013468967 4333:0.10055 4334:0.10055 4335:-0.1264717 4336:-0.049358316 4337:-0.0019536696 4338:0.10055 4339:0.21346359 4340:0.10647488 4341:-0.01734646 4342:-0.072112866 4343:0.13732265 4344:0.57460934 4346:-0.23264565 4347:0.16362467 4348:0.0512239 4349:0.0512239 4350:-0.013427675 4351:-0.040851738 4352:-0.013427675 4353:-0.066104092 4354:0.14299555 4355:-0.20196168 4356:0.28054041 4357:0.36636519 4358:-0.15192217 4359:0.12533081 4360:0.22255346 4361:0.22255346 4362:0.22255346 4363:0.3743954 4364:-0.26129851 4365:-0.14515419 4366:-0.14515419 4367:-0.14515419 4368:-0.25695676 4369:0.083257109 4370:-0.25018448 4371:-0.021506405 4372:0.087624542 4373:-0.021506405 4374:0.1195647 4375:-0.021506405 4376:-0.15117891 4377:-0.029133685 4378:-0.021506405 4379:-0.021506405 4380:-0.34153187 4381:-0.021506405 4382:-0.021741878 4383:-0.0998822 4384:0.072664171 4385:0.40587923 4386:0.15238051 4387:-0.27530602 4388:0.26303187 4389:0.15238051 4390:-5.77264e-05 4391:0.15238051 4392:-0.085924111 4393:-0.040700018 4394:0.28259411 4395:0.22617158 4396:-0.040700018 4397:-0.2551994 4398:-0.16041967 4399:0.0027187397 4400:-0.25339374 4401:-0.26973495 4402:0.011388768 4403:0.011388768 4404:0.011388768 4405:-0.1157034 4406:-0.2378874 4407:-0.296316 4408:-0.2378874 4409:0.060200371 4411:0.21218807 4412:0.075364932 4413:0.18927917 4414:0.075364932 4415:-0.13891828 4416:0.10876916 4417:-0.041901674 4419:-0.22501521 4420:-0.22931957 4421:0.0037820446 4422:0.41975302 4423:-0.075286731 4424:-0.13940296 4425:-0.075286731 4426:-0.13940296 4427:-0.16560909 4428:0.026609987 4429:0.026609987 4430:0.41937891 4431:-0.0095274309 4432:0.10489027 4433:-0.41222242 4434:-0.41222242 4435:0.26694071 4436:0.26694071 4437:0.0064653596 4438:-0.27459922 4439:0.14069027 4440:-0.3080413 4441:-0.057193641 4442:-0.10716639 4443:0.0012403975 4444:0.029784277 4445:0.0047901603 4446:-0.27734861 4447:-0.13160178 4448:0.0012403975 4449:0.0012403975 4450:0.29945424 4451:0.0012403975 4452:0.0012403975 4453:-0.17240067 4454:0.42453441 4455:0.42380849 4456:0.040382948 4457:0.17402463 4458:-0.18678419 4459:-0.29714376 4461:0.083389714 4462:0.40897575 4463:0.30539167 4464:0.090213865 4465:-0.24620466 4466:-0.23283339 4467:0.028346281 4468:0.13308109 4469:0.024508733 4470:0.29951724 4471:-0.043479551 4472:0.12781799 4473:0.12781799 4474:-0.18115015 4475:-0.066840895 4476:-0.2783466 4477:0.067999229 4478:0.067999229 4479:0.056656409 4480:-0.014110074 4481:0.056656409 4482:0.056656409 4483:-0.025039546 4484:-0.22921067 4485:-0.28960443 4486:0.14424752 4487:-0.11583855 4488:-0.11583855 4489:-0.11583855 4490:-0.11583855 4491:-0.23516817 4492:-0.078386016 4493:-0.078386016 4494:-0.10898953 4495:0.044298887 4496:0.044298887 4497:0.044298887 4498:0.044298887 4499:-0.20875642 4500:0.010172554 4501:0.11420319 4502:0.044298887 4503:0.12966171 4504:0.044298887 4505:0.044298887 4506:0.68924445 4507:0.0063960697 4508:0.0063960697 4509:-0.15952857 4510:0.0063960697 4511:0.17684546 4512:0.17684546 4513:-0.2082282 4514:0.17684546 4515:0.17684546 4516:-0.23039353 4517:0.072588429 4518:0.029129555 4519:-0.013790476 4520:-0.013790476 4521:-0.013790476 4522:0.14095344 4523:0.14095344 4524:0.1596387 4525:0.013035221 4526:0.1986762 4527:-0.09266974 4528:0.20477733 4529:-0.065043576 4530:0.26952589 4531:0.020035015 4532:-0.092467397 4533:-0.20906472 4534:-0.35260102 4535:-0.072257578 4536:-0.046982151 4537:0.039883681 4538:0.23773399 4539:-0.094865918 4540:-0.28732473 4541:-0.12357084 4542:-0.26183984 4543:0.43890342 4544:0.10139003 4545:0.10826235 4546:-0.018366517 4547:0.30982807 4548:0.20460534 4549:-0.049503539 4550:-0.0089776143 4551:0.049339324 4552:0.049339324 4553:-0.092915535 4554:-0.21320003 4555:0.040933937 4559:-0.058287315 4560:0.11361743 4561:-0.22899269 4562:0.0033936647 4563:-0.39301404 4564:-0.14484048 4565:0.088479429 4566:-0.013969979 4567:0.025419727 4568:-0.047467779 4569:-0.20342052 4570:-0.025218245 4571:-0.20342052 4572:-0.30475569 4573:0.033422474 4574:-0.11409594 4576:0.045074243 4577:-0.61966044 4578:-0.33710548 4579:-0.029059052 4580:0.45877182 4581:-0.13462493 4582:0.018673377 4583:0.018673377 4584:0.12108108 4585:0.018673377 4586:0.04643191 4587:-0.026346629 4588:0.28175238 4589:-0.23597431 4590:0.018673377 4591:0.018673377 4592:0.018673377 4593:0.018673377 4594:-0.16302353 4595:0.091498606 4596:-0.042314377 4597:-0.12628408 4599:-0.28242958 4600:-0.080246218 4601:0.3138079 4602:0.29849684 4603:0.19758978 4604:-0.050616052 4607:0.075446688 4608:-0.2034283 4611:0.25176349 4612:-0.066031322 4613:-0.34035179 4614:-0.066031322 4615:-0.066031322 4616:-0.066031322 4617:-0.34177446 4618:-0.066031322 4619:0.077747516 4620:0.13080411 4621:-0.066392563 4622:-0.095251463 4623:-0.066392563 4624:-0.56357276 4625:-0.066392563 4626:-0.079273909 4627:-0.29962537 4628:-0.14862354 4629:-0.14862354 4630:-0.14862354 4631:-0.316439 4632:0.067738868 4633:0.0050685219 4634:0.072006874 4635:-0.07665322 4637:-0.039299868 4639:-0.059561852 4640:-0.18217495 4641:-0.066714898 4642:-0.18217495 4643:-0.066714898 4644:0.074997909 4645:-0.040152367 4646:-0.15079838 4647:-0.27051333 4648:-0.058738966 4649:-0.088710397 4650:0.041507673 4651:0.041507673 4652:0.031248098 4653:0.14194861 4654:-0.27934635 4655:-0.030603508 4656:-0.021767471 4657:-0.3319259 4658:0.235925 4659:-0.31320027 4660:0.56826109 4661:0.33221084 4662:0.1070234 4663:0.17097117 4664:0.17097117 4665:-0.018685263 4666:0.036592167 4667:-0.16685534 4668:0.10096548 4669:0.054744691 4670:0.054744691 4671:0.054744691 4672:0.054744691 4673:0.00054879102 4674:-0.088844649 4675:-0.2184014 4678:-0.08371947 4679:-0.04011789 4680:-0.020283947 4681:-0.32926464 4682:-0.24568157 4683:-0.11476441 4684:-0.028598918 4685:0.1177282 4686:-0.2206744 4687:0.10287221 4688:-0.0029021113 4689:0.073934898 4690:0.42904282 4691:-0.30408674 4692:0.26270926 4693:-0.15244834 4694:-0.3345601 4695:-0.30924371 4696:0.34959573 4697:-0.0098673152 4698:0.006392254 4699:-0.0027414155 4700:-0.0098673152 4701:-1.5105412e-05 4702:0.21250048 4703:-0.0098673152 4704:-0.01973463 4705:-0.17444257 4706:-0.17883013 4707:-0.15379888 4708:-0.009082973 4709:0.059094731 4710:0.10042956 4711:0.21910101 4712:0.055356 4713:0.055356 4714:0.048232291 4715:0.19975713 4716:-0.30632398 4717:-0.42756677 4720:-0.17283553 4722:0.050395422 4723:-0.10552394 4724:0.071232855 4725:0.071232855 4726:0.071232855 4727:0.0596768 4728:0.071232855 4729:0.071232855 4730:0.071232855 4731:-0.25111136 4732:0.19482148 4735:-0.14719848 4736:-0.13265242 4739:0.96882266 4740:-0.098260857 4741:0.39557433 4742:0.25287312 4743:-0.096508212 4744:-0.16003188 4745:0.25978464 4746:-0.12791821 4747:-0.24555573 4748:-0.12791821 4750:0.26392817 4751:0.14945014 4754:-0.26465753 4755:-0.24189562 4758:-0.18823318 4759:-0.35975131 4760:-0.017307535 4761:-0.1851559 4762:-0.1851559 4763:-0.041377064 4764:-0.11499124 4765:0.25891188 4766:-0.0035811872 4767:-0.23939939 4768:-0.23939939 4769:0.18489365 4770:0.29826376 4771:0.29826376 4772:0.038136024 4773:-0.09990529 4774:-0.14841531 4775:-0.2370652 4776:-5.7540263e-05 4777:-5.7540263e-05 4778:-5.7540263e-05 4779:-5.7540263e-05 4780:0.16429079 4781:0.24912019 4782:-0.108584 4783:0.18807968 4784:-5.7540263e-05 4785:-0.046949677 4786:0.27932012 4787:0.0070683593 4788:0.27932012 4789:-0.0014969374 4790:0.17000882 4791:0.12943245 4792:0.0088535976 4794:-0.19377112 4795:0.32140648 4796:0.083441004 4797:-0.18267998 4798:0.074158594 4799:0.49136347 4800:0.16983823 4801:-0.13967484 4802:-0.48241997 4803:-0.056870539 4804:0.013658312 4805:0.013658312 4806:0.013658312 4807:-0.15455547 4808:0.086679809 4809:0.11814626 4810:0.086679809 4811:0.086679809 4812:-0.26596186 4813:0.027303476 4814:0.12362874 4815:0.00041231909 4816:0.12362874 4817:-0.13475038 4818:0.093282759 4819:0.0041168332 4820:-0.15444522 4821:-0.062466197 4822:-0.1771231 4823:-0.25900659 4824:-0.25900659 4825:0.079377182 4826:0.079377182 4827:0.079377182 4828:-0.012276091 4829:-0.0337811 4830:-0.0337811 4831:-0.0337811 4832:-0.14346944 4833:-0.0337811 4834:0.22459543 4835:-0.0337811 4836:0.4177385 4837:0.092280298 4838:-0.0337811 4839:-0.0337811 4840:-0.10866662 4841:-0.0337811 4842:0.076866657 4843:0.037012894 4844:0.34047455 4845:0.091410115 4846:0.091410115 4847:0.091410115 4848:0.091410115 4849:0.078480281 4850:0.077912189 4851:0.091410115 4852:0.033933766 4853:0.28617567 4854:0.28677493 4855:0.033818595 4856:0.58220619 4857:0.2753382 4858:-0.01052566 4859:0.04250893 4860:-0.31591174 4861:0.04250893 4862:-0.39574796 4863:0.04250893 4864:0.04250893 4865:0.04250893 4866:-0.24629562 4867:-0.24629562 4868:-0.24629562 4869:0.21752444 4870:-0.080204949 4871:0.11634103 4872:0.12468292 4873:-0.2645874 4874:0.21796969 4875:-0.27647793 4876:-0.080204949 4877:0.22886182 4878:-0.038580116 4879:-0.038580116 4880:-0.038580116 4881:-0.074423268 4882:0.50825614 4886:-0.17893793 4889:-0.049698669 4890:0.01067945 4891:0.084028065 4892:0.1027554 4893:-0.0014393971 4894:-0.0014393971 4895:0.033949908 4896:0.12724218 4897:0.12724218 4898:0.26968524 4899:-0.24729313 4900:-0.1749967 4901:0.54350221 4902:0.27648848 4903:0.36661223 4904:0.029264424 4905:0.039995398 4906:0.24995781 4908:0.40042672 4909:0.42043674 4910:0.079824649 4911:0.018389307 4912:0.15524815 4913:-0.13394527 4914:0.45269701 4915:0.018389307 4916:-0.092531778 4917:0.12107854 4918:0.7072854 4919:-0.39052466 4920:-0.2779218 4921:-0.2779218 4922:-0.10259523 4923:-0.2779218 4924:-0.46189991 4925:-0.28599548 4926:-0.010791413 4927:-0.010791413 4928:-0.22726168 4931:0.31124061 4932:0.1571442 4933:0.1571442 4934:-0.088391408 4935:0.1571442 4936:0.1571442 4937:0.1571442 4938:0.19584113 4939:0.015753169 4940:0.1571442 4941:0.29883432 4942:0.1571442 4943:0.48708805 4944:0.1571442 4945:0.10121592 4946:0.10121592 4947:0.10121592 4948:0.10121592 4949:0.10121592 4950:-0.16904591 4951:0.10121592 4952:0.35587162 4953:-0.019987969 4954:-0.16592464 4955:0.042900339 4956:0.042900339 4957:0.042900339 4958:0.042900339 4959:-0.0019891267 4960:0.042900339 4961:-0.24577686 4962:0.042900339 4963:0.19190525 4964:-0.34328678 4965:0.00046462854 4966:0.14767793 4967:0.16957387 4968:0.0011669501 4969:0.0011669501 4970:0.0023339002 4971:0.5567469 4972:-0.039694663 4973:0.057721041 4974:0.0011669501 4975:-0.042489275 4976:0.0011669501 4977:0.0011669501 4978:-0.32073265 4979:-0.1017433 4980:-0.20311944 4981:-0.25811002 4982:-0.098446459 4983:0.0080558099 4984:0.004039024 4985:-0.0085956082 4986:0.0080558099 4987:-0.20005172 4988:0.0080558099 4989:0.14739387 4990:0.0080558099 4991:0.0080558099 4992:0.0080558099 4993:0.12279528 4994:0.0080558099 4995:0.0080558099 4996:0.42328879 4997:0.31978396 4998:0.24842866 5000:-0.060238369 5001:-0.060238369 5002:0.030826749 5003:0.18678394 5004:0.028239103 5005:0.069566086 5006:-0.029251382 5007:0.068457939 5008:-0.029251382 5009:-0.086784512 5010:-0.029251382 5011:0.0672528 5012:0.0034863695 5013:-0.029251382 5014:0.014200802 5015:-0.12689498 5016:-0.024205497 5017:-0.12689498 5018:0.14329785 5019:0.73411 5020:0.27793762 5021:0.27793762 5022:0.19687934 5023:-0.15328383 5024:-0.083971456 5025:0.050311979 5026:0.26355675 5027:-0.35715231 5028:0.19364575 5029:0.050311979 5030:0.050311979 5031:0.050311979 5032:0.18500337 5033:-0.083778374 5034:-0.11378964 5035:-0.024482608 5036:-0.29363015 5037:-0.012815664 5038:-0.23109196 5039:-0.15239465 5040:0.22221681 5041:0.020093217 5042:-0.39245421 5043:0.12670997 5044:0.26618478 5045:-0.31816977 5046:-0.31816977 5047:-0.25503901 5048:-0.31816977 5049:0.035157222 5050:0.035157222 5051:0.035157222 5052:0.035157222 5053:0.10250809 5054:0.040001035 5055:0.040001035 5056:0.028247694 5057:0.042612828 5058:0.034826614 5059:0.034826614 5060:0.25190777 5061:0.25190777 5062:0.22527778 5063:-0.14660844 5064:-0.089496203 5065:-0.089496203 5066:-0.36098406 5067:-0.19436182 5068:-0.11357307 5069:-0.34506527 5070:-0.12574585 5071:-0.34702969 5072:-0.19436182 5073:-0.19436182 5074:0.093059912 5075:0.093059912 5076:0.093059912 5077:0.093059912 5078:0.093059912 5079:-0.50910735 5080:-0.28164005 5081:0.14824224 5082:0.2117659 5083:0.14824224 5084:0.14824224 5085:0.18706009 5086:0.14824224 5087:0.14824224 5088:0.14824224 5089:0.3020758 5090:0.19549103 5091:0.069576569 5092:0.015188219 5093:0.015188219 5094:-0.064616539 5096:-0.094404116 5097:-0.22280645 5099:0.27841246 5101:0.14657924 5102:0.11128238 5103:0.087619171 5104:0.087619171 5105:0.43138397 5106:0.087619171 5107:0.017895529 5108:0.017895529 5109:0.017895529 5110:-0.090728894 5111:0.017895529 5112:0.017895529 5114:-0.12850989 5115:-0.067131214 5116:0.0051268488 5117:-0.0020408782 5118:0.006341524 5119:0.006341524 5120:0.3609567 5121:-0.30686796 5122:0.5615797 5127:-0.10955559 5129:0.039581716 5130:-0.12664039 5131:-0.31392291 5133:0.42239702 5136:0.019990124 5137:0.019990124 5138:0.28747791 5139:0.28747791 5140:-0.24170135 5141:-0.2596432 5142:-0.36494914 5143:0.04630816 5144:0.24167296 5145:0.54974812 5146:-0.0093985396 5147:0.33841726 5148:0.22177503 5149:-0.061934885 5150:0.0058796378 5151:0.0058796378 5152:0.2189936 5153:0.2189936 5154:0.2189936 5155:0.068307303 5156:0.068307303 5157:0.09229964 5158:0.09229964 5159:0.09229964 5160:0.41494367 5161:0.09229964 5162:-0.10580174 5163:0.5955447 5164:0.09229964 5165:0.09229964 5166:0.09229964 5167:0.37967971 5168:0.082111232 5169:0.12056183 5170:0.082111232 5171:0.0031515651 5173:-0.27983007 5174:-0.068580836 5175:-0.2116688 5177:0.01066449 5178:0.024431145 5179:-0.0278311 5180:0.14187786 5181:-0.0278311 5182:-0.0278311 5183:-0.0278311 5184:-0.0278311 5185:-0.0278311 5189:-0.18055338 5190:0.20619766 5192:-0.1942948 5194:-0.10863479 5196:0.37029764 5197:0.19482249 5198:0.031861037 5199:0.081028745 5200:0.2600964 5201:-0.097543143 5202:0.20502484 5203:-0.1032251 5204:0.13238491 5205:0.22521295 5210:-0.16463232 5211:-0.16463232 5212:-0.00026573543 5214:0.21722843 5217:-0.1240371 5218:-0.1240371 5219:-0.0024791716 5220:-0.0024791716 5221:-0.0024791716 5222:0.39539877 5223:0.11459409 5224:0.11459409 5225:0.11459409 5226:0.055835579 5227:-0.083128676 5228:0.15867352 5229:0.017858598 5230:0.017858598 5231:-0.31535512 5232:0.017858598 5233:0.033101153 5234:0.006401103 5235:-0.0017926526 5236:-0.29175556 5237:0.095809907 5238:0.050646964 5239:0.1306209 5240:0.32754141 5241:0.15276386 5242:0.11085267 5243:0.11473948 5244:0.11473948 5245:0.11473948 5246:0.11473948 5247:0.11473948 5248:0.11473948 5249:0.11473948 5250:0.11473948 5251:0.11473948 5252:-0.1084849 5253:0.26247221 5254:-0.1084849 5255:-0.1084849 5256:0.61980206 5257:0.22122946 5258:0.56969535 5259:-9.5909207e-05 5260:0.29837334 5261:0.29837334 5262:0.34952012 5263:-0.21768765 5264:0.17064515 5265:-0.31003955 5266:-0.12339341 5267:-0.12339341 5268:-0.12339341 5269:0.029041788 5270:0.029041788 5271:0.044609204 5272:0.12976421 5273:0.12976421 5274:0.12976421 5275:-0.20810755 5276:-0.18040439 5277:-0.2303002 5278:-0.057692513 5279:0.0066367039 5280:0.094475523 5281:-0.26335058 5282:-0.36510175 5283:0.42957932 5284:-0.26335058 5285:-0.26335058 5288:0.17326561 5289:0.15243824 5290:0.026070194 5291:0.026070194 5292:0.026070194 5293:-0.049569987 5294:0.026070194 5295:0.092941761 5296:0.045570593 5297:-0.26393363 5298:-0.16521592 5299:0.24147683 5300:0.16017574 5301:-0.33848438 5302:0.027425943 5303:0.050792441 5304:-0.058094725 5305:-0.045583922 5306:0.16080998 5307:0.2273532 5308:0.29642695 5309:0.74773949 5310:0.0015504711 5311:0.0015504711 5312:0.0015504711 5313:0.0015504711 5314:0.0015504711 5315:-0.076269731 5316:0.30873239 5317:-0.079355977 5318:-0.079355977 5319:-0.055672724 5320:-0.055672724 5321:-0.055672724 5322:-0.055672724 5323:-0.039467666 5324:-0.23040067 5325:-0.054901846 5326:0.033676557 5327:-0.2648429 5328:-0.2648429 5329:-0.08606191 5330:-0.25544134 5331:-0.2648429 5332:-0.38706693 5333:0.17398828 5334:0.17398828 5335:-0.2211116 5336:0.17398828 5337:0.17398828 5338:0.07923793 5339:0.10051496 5340:0.20102993 5341:0.40332231 5342:0.10051496 5343:0.10051496 5344:0.07870169 5345:0.034152847 5346:0.10051496 5347:-0.016534558 5348:0.10051496 5349:-0.011115796 5350:0.033434425 5351:0.033434425 5352:0.045381598 5353:0.14324088 5354:0.32805854 5355:-0.21649313 5356:0.077161118 5357:-0.014466886 5358:-0.014466886 5359:-0.014466886 5360:-0.39772823 5361:-0.18769817 5362:-0.15810798 5363:0.20488787 5364:0.0070283287 5365:0.34244558 5366:0.081759937 5367:-0.023201426 5368:-0.56606448 5369:-0.25461572 5370:-0.27119857 5371:-0.41180477 5372:-0.25461572 5373:0.027337907 5374:0.027337907 5376:0.16268909 5377:-0.070408322 5378:0.34424785 5379:-0.38696373 5380:-0.070408322 5381:0.14672098 5382:0.20523021 5383:0.11533303 5384:0.30129629 5385:0.27684239 5386:0.057856683 5387:0.11533303 5388:0.11533303 5389:0.11533303 5390:0.17621109 5391:0.81469125 5392:0.1248126 5393:-0.0034909735 5394:-0.14232337 5395:0.10773917 5396:0.14037745 5397:0.14037745 5398:0.16049898 5399:0.14037745 5400:-0.0075797145 5401:0.14037745 5402:0.14037745 5403:0.14037745 5404:0.033012439 5405:0.14037745 5406:-0.1381709 5407:-0.3326284 5408:-0.26226348 5409:-0.26226348 5410:0.0066415486 5411:-0.18859121 5412:-0.010352497 5413:-0.010352497 5414:0.14149748 5415:-0.0089692986 5416:-0.097632632 5417:-0.010352497 5418:-0.010352497 5419:0.2471385 5420:-0.010352497 5421:-0.010352497 5422:-0.010352497 5423:0.46640512 5424:0.11951926 5425:-0.11329505 5426:-0.11329505 5427:-0.11329505 5428:-0.057047568 5429:-0.19202386 5430:-0.11329505 5431:-0.31042013 5434:-0.52790827 5435:-0.23109119 5437:-0.15643902 5438:0.22783184 5439:-0.2629092 5440:0.050683953 5441:0.050683953 5442:0.050683953 5443:0.13404533 5444:0.050683953 5445:0.050683953 5446:0.050683953 5447:0.050683953 5448:0.050683953 5449:0.096059002 5450:0.050683953 5451:0.15689644 5452:0.20932637 5453:0.066944912 5454:0.068862699 5455:0.068862699 5456:0.074907199 5457:0.03644564 5458:0.087907635 5459:0.087907635 5460:0.087907635 5461:0.0069613485 5462:-0.020310976 5463:0.087907635 5464:-0.06636212 5465:0.036674529 5466:-0.06636212 5467:-0.06636212 5468:0.41562486 5470:-0.30686095 5471:-0.51236022 5472:0.093336016 5473:-0.29949623 5474:0.085695952 5475:0.085695952 5476:0.21887524 5477:0.085695952 5478:-0.18438548 5480:0.29100406 5481:0.088444635 5482:0.088444635 5483:0.088444635 5484:0.088444635 5485:0.088444635 5486:0.088444635 5487:0.088444635 5488:0.17710081 5489:0.17710081 5490:0.22963811 5491:0.75432158 5492:0.22963811 5493:0.26139385 5494:0.14368272 5495:-0.47022542 5496:-0.25682294 5497:0.12717158 5498:-0.22976884 5499:0.10621248 5500:0.096443564 5501:0.1651355 5502:0.031161256 5503:0.10621248 5504:-0.29661772 5505:0.081759937 5506:-0.04737414 5507:0.28848916 5508:0.033404227 5509:0.033404227 5510:-0.024688177 5511:0.16440563 5512:0.10242306 5513:0.16440563 5514:0.13089488 5515:0.63490701 5516:0.20763338 5517:-0.11155452 5519:0.16847353 5520:0.11661894 5521:0.044198908 5522:0.18953498 5523:-0.22702169 5524:-0.0076658181 5525:-0.42110428 5526:-0.0076658181 5527:-0.015331636 5528:-0.015331636 5529:-0.0076658181 5530:-0.0076658181 5531:-0.0076658181 5532:-0.38805175 5533:-0.0076658181 5534:-0.008954593 5535:-0.0076658181 5536:-0.0076658181 5539:0.1731198 5540:0.1731198 5541:0.095654234 5542:0.095654234 5543:0.075552769 5544:0.095654234 5545:0.095654234 5546:0.095654234 5547:0.09217941 5548:0.35925391 5549:0.65044409 5550:0.14442867 5551:0.16694091 5552:0.26167801 5553:-0.018885251 5554:0.0074978466 5555:0.0074978466 5556:-0.027424065 5557:-0.027424065 5558:0.48144975 5559:-0.027424065 5560:-0.018494261 5561:-0.5304901 5562:0.020475825 5563:-0.038902104 5564:-0.050513566 5565:-0.14048474 5566:-0.44109529 5567:0.20878689 5568:-0.084393196 5569:-0.084393196 5570:-0.084393196 5571:-0.084393196 5572:-0.2588608 5573:-0.2588608 5574:-0.2588608 5575:-0.67814243 5576:-0.0024491067 5577:-0.0024491067 5578:-0.39510202 5579:0.11758661 5580:-0.034492537 5581:-0.034492537 5582:-0.21110205 5583:-0.034492537 5584:0.039774887 5585:0.018117048 5586:0.55226982 5587:0.21405412 5588:0.034737621 5589:0.035262328 5590:-0.28962904 5591:0.039076325 5592:0.021340182 5593:0.021340182 5595:0.086932234 5596:0.086932234 5597:0.086932234 5598:0.13981691 5599:0.0038154982 5601:0.26804975 5602:0.028963091 5603:0.028963091 5604:0.057926182 5605:0.028963091 5606:0.028963091 5607:0.028963091 5608:0.028963091 5609:0.028963091 5610:-0.3385866 5611:0.025035221 5613:-0.033279296 5614:-0.21685082 5615:-0.21685082 5616:-0.21685082 5617:0.10863854 5618:-0.15815847 5619:0.0031146067 5620:0.10863854 5621:0.029210852 5622:0.23724881 5623:0.12408749 5624:0.65263635 5625:0.23125227 5626:-0.093174428 5627:-0.093174428 5628:-0.0541959 5629:0.30322987 5630:-0.0541959 5631:-0.097346216 5632:-0.0541959 5633:-0.063092396 5634:0.11334027 5635:0.22243552 5636:-0.13600142 5637:-0.13626716 5638:-0.13600142 5639:0.11235441 5640:0.15958212 5641:0.05205071 5642:0.1871233 5643:0.05205071 5644:0.05205071 5645:0.05205071 5646:0.067933559 5647:0.38093218 5648:-0.17626552 5649:0.38093218 5650:0.38093218 5651:-0.088780239 5652:0.32379001 5653:0.20048931 5654:-0.052285269 5655:-0.20974155 5656:0.037273984 5657:-0.14038767 5658:-0.11289797 5659:-0.44713283 5660:-0.14038767 5661:-0.14038767 5662:-0.49799016 5663:-0.14038767 5664:-0.17785724 5665:0.12359351 5666:0.12359351 5667:0.12359351 5668:0.12359351 5669:0.12359351 5670:0.12359351 5671:0.11746303 5672:0.11746303 5673:0.11746303 5674:0.11746303 5675:0.25398976 5676:0.2405432 5677:-0.06194409 5678:-0.056829151 5679:-0.056829151 5680:-0.056829151 5681:-0.10094742 5682:-0.10094742 5683:-0.10852646 5684:-0.23062232 5685:-0.10852646 5686:-0.016102066 5687:-0.10852646 5688:-0.10852646 5689:-0.22666384 5690:-0.22666384 5691:-0.22666384 5692:0.37708774 5693:-0.43894291 5694:0.19192907 5695:0.19798665 5696:0.30890289 5697:-0.1024376 5698:-0.14531934 5699:-0.1024376 5700:-0.1024376 5701:0.39801058 5702:0.1479322 5703:0.14799272 5704:-0.0091386661 5705:0.34688586 5706:-0.065003574 5708:-0.11311325 5709:-0.0013633234 5710:-0.1615251 5711:-0.025339223 5712:0.044230416 5713:0.044230416 5714:-0.16935387 5715:-0.16935387 5716:-0.16935387 5717:-0.00026573543 5718:0.13757129 5719:-0.0079567349 5720:0.084078252 5721:0.46025267 5722:0.05624748 5723:0.05624748 5724:-0.012029812 5725:0.05624748 5726:0.05624748 5727:0.05624748 5728:0.34648475 5729:-0.29946351 5730:0.05624748 5731:0.001319477 5732:0.001319477 5733:0.0046035177 5734:0.001319477 5735:-0.50691509 5736:0.039201088 5737:-0.10924575 5738:-0.053626947 5739:-0.053626947 5740:-0.18994802 5741:0.265239 5742:-0.019175449 5743:0.265239 5744:0.16457658 5745:0.265239 5746:0.265239 5747:0.66344357 5748:0.33813745 5749:0.070644535 5750:0.265239 5751:0.265239 5752:0.265239 5753:0.063851245 5754:0.31912249 5755:-0.1082792 5756:0.10952585 5757:0.063851245 5758:0.063851245 5759:0.04294312 5760:0.063851245 5761:-0.063741483 5762:0.091474645 5763:0.092064701 5764:0.034357604 5765:0.11399963 5766:0.15077227 5767:-0.3628808 5768:0.11399963 5769:0.11748108 5770:0.28736329 5771:0.21950816 5772:0.088460043 5773:-0.2760942 5774:-0.25306386 5775:-0.25306386 5776:-0.14386974 5777:-0.25306386 5779:-0.095774367 5780:-0.095774367 5781:-0.095774367 5782:-0.095774367 5783:-0.095774367 5784:0.079369076 5785:-0.14185628 5786:-0.14294435 5787:-0.043860719 5788:-0.043860719 5789:0.083321095 5790:0.11048414 5791:-0.043860719 5792:0.36611262 5793:0.35152081 5794:-0.2377338 5795:-0.28498113 5796:0.02884273 5797:-0.0091430638 5798:0.16744821 5799:-0.34835798 5800:-0.0091430638 5801:0.11507342 5802:-0.0091430638 5803:-0.0091430638 5804:-0.0091430638 5805:-0.071639873 5806:0.016292537 5807:-0.15309581 5808:-0.15309581 5809:-0.0060545015 5810:0.064589992 5811:-0.14237557 5812:0.0070381775 5813:-0.0060545015 5814:-0.0073432764 5815:0.051265612 5816:-0.039689001 5817:-0.13421275 5818:0.1640982 5819:0.1640982 5820:0.28216627 5821:-0.015387827 5822:0.18639605 5823:0.16187297 5824:0.16187297 5825:0.015448948 5829:-0.33192477 5831:0.14926919 5832:0.14926919 5833:0.19528578 5834:0.12127863 5835:0.22528437 5836:-0.2670745 5837:-0.2670745 5838:-0.2670745 5839:-0.43681216 5840:0.18944357 5841:0.062661745 5842:-0.047761828 5843:-0.077796787 5844:0.062661745 5845:0.062661745 5846:0.062661745 5847:-0.12172373 5848:0.062661745 5849:0.062661745 5850:0.062661745 5851:0.32297298 5852:0.44658878 5853:0.14796887 5854:0.22781937 5855:0.22781937 5856:-0.2824403 5857:0.22781937 5858:0.44503608 5859:0.40901017 5860:-0.35369986 5861:-0.33923182 5862:-0.33923182 5863:-0.28907031 5864:-0.03980016 5865:-0.2631883 5866:-0.03980016 5867:0.077502646 5868:0.077502646 5869:0.077502646 5870:0.10511002 5871:0.077502646 5875:-0.06521903 5876:0.45002291 5877:-0.50733864 5878:-0.35495907 5879:-0.35495907 5880:-0.45588887 5881:0.060878057 5882:-0.2098518 5883:-0.036834307 5884:-0.066518031 5885:-0.46480033 5886:-0.29608238 5887:0.35028356 5888:0.066469848 5889:-0.052047294 5890:0.16546978 5891:0.054395761 5892:-0.12693281 5893:-0.10944205 5894:-0.052047294 5895:-0.062196691 5896:-0.10013369 5897:-0.081034541 5898:-0.36683965 5899:-0.36677191 5900:0.28498355 5901:0.28498355 5902:0.28498355 5903:0.28498355 5904:0.14169632 5905:0.28498355 5907:-0.25100711 5908:-0.34061208 5909:-0.02112606 5910:0.27445084 5911:0.13039598 5912:0.053098727 5913:-0.061411805 5914:-0.048555408 5915:-0.042915404 5916:-0.14713167 5917:0.19615887 5918:0.15170738 5919:0.15170738 5920:0.42645073 5921:-0.26585132 5922:-0.27265447 5923:-0.27265447 5924:-0.27265447 5925:-0.19670089 5926:-0.12158134 5927:-0.12158134 5928:0.16055399 5929:-0.088867545 5930:-0.088867545 5931:0.043641657 5932:0.083990693 5933:0.083990693 5934:0.083990693 5935:-0.028670976 5936:0.083990693 5937:0.086772352 5938:-0.052192166 5939:-0.011960443 5940:-0.13771379 5941:0.060105219 5942:-0.069555715 5943:-0.069555715 5944:-0.22100872 5945:-0.22100872 5946:-0.17349955 5947:0.040569369 5948:0.12244038 5949:-0.067174926 5950:-0.28396752 5951:0.033994693 5952:0.087766029 5953:-0.067174926 5954:0.22947824 5955:-0.067174926 5956:0.15007412 5957:-0.42784405 5958:0.064116217 5959:0.20238891 5960:0.064116217 5961:0.064116217 5962:0.088091291 5963:-0.15864702 5964:-0.15864702 5965:-0.074375525 5966:0.22717249 5967:0.20480891 5968:0.096236542 5969:0.096236542 5970:-0.00087674218 5971:-0.00087674218 5972:-0.00087674218 5973:-0.17824559 5974:-0.29376855 5975:0.34560123 5976:-0.030711368 5977:0.095810287 5978:-0.030711368 5979:-0.030711368 5980:-0.030711368 5981:-0.030711368 5982:-0.34499472 5983:-0.34499472 5984:-0.34499472 5985:-0.28773996 5986:-0.28773996 5987:-0.28393751 5988:-0.3050175 5989:-0.25950649 5990:-0.22127013 5991:-0.22127013 5992:-0.22127013 5993:0.3498638 5994:0.33550957 5995:0.23874794 5996:0.23245563 5997:-0.024858655 5998:-0.024858655 5999:-0.024858655 6000:-0.024858655 6001:-0.0740951 6002:0.016681453 6003:-0.15879115 6004:0.038566649 6005:-0.055261467 6006:-0.055261467 6007:0.1129136 6008:-0.24780905 6009:0.37129042 6010:0.15789178 6011:-0.049700893 6012:-0.034294244 6013:-0.009202186 6014:-0.29977453 6015:-0.093292601 6016:-0.093292601 6017:0.26333514 6018:0.020521019 6019:0.21806066 6020:0.26333514 6021:0.30284995 6022:0.30498716 6023:0.15231931 6024:0.30498716 6025:0.098062843 6026:0.098062843 6027:-0.55913258 6028:-0.55913258 6030:-0.17512612 6031:0.3361499 6032:-0.054570466 6033:0.016308563 6034:0.051195148 6035:0.016308563 6036:0.2340897 6037:0.16502246 6038:0.20594373 6039:0.10297187 6040:0.10297187 6041:0.10297187 6042:0.4145838 6043:0.063523665 6044:-0.011804402 6045:0.26183292 6046:0.063523665 6047:-0.022172585 6048:0.073491924 6049:0.14232856 6050:-0.068157665 6051:-0.068157665 6052:-0.068157665 6053:0.15202999 6054:-0.068157665 6055:0.088696212 6056:-0.068157665 6057:0.11434316 6058:0.079274856 6059:-0.073995464 6060:-0.055038508 6061:0.004971981 6062:0.13140652 6063:0.004971981 6064:0.004971981 6065:0.013981865 6066:-0.019737795 6067:-0.019737795 6068:-0.0054627201 6069:-0.089045689 6070:0.079257756 6071:-0.045274466 6076:-0.01884076 6079:-0.26339051 6080:-0.32482141 6081:0.20430589 6082:0.22436726 6083:0.22436726 6084:-0.1287339 6085:-0.1287339 6086:-0.1287339 6087:0.19666928 6088:-0.063713565 6089:-0.40209988 6090:-0.29399773 6091:-0.27984926 6092:-0.27206305 6093:-0.22039321 6094:-0.27984926 6095:-0.27984926 6096:0.3638975 6097:0.27474549 6098:0.3638975 6099:0.3638975 6100:0.3638975 6101:0.023136938 6102:0.11890499 6103:0.22640167 6104:0.10201252 6105:0.11890499 6108:0.067387447 6109:0.13987072 6110:0.060230877 6111:0.31365049 6112:0.18021865 6113:-0.28982791 6114:0.067387447 6115:0.067387447 6116:0.55104411 6117:0.25772473 6118:0.067387447 6119:-0.17391118 6120:-0.17391118 6121:-0.13735019 6122:-0.17990847 6123:0.014407807 6124:-0.13735019 6125:-0.38827464 6126:0.011525916 6127:0.011525916 6128:0.011525916 6129:-0.21521218 6130:-0.2029525 6131:-0.2029525 6132:-0.2029525 6133:-0.25544208 6134:0.021671899 6135:0.033736706 6136:-0.011212507 6137:-0.1548475 6138:-0.011212507 6139:0.12428161 6140:0.1300101 6141:-0.45133954 6142:-0.011212507 6143:-0.032107372 6144:-0.011212507 6145:-0.011212507 6146:-0.011212507 6147:-0.030076833 6148:-0.011212507 6149:-0.011212507 6150:-0.051083926 6151:-0.10778977 6152:-0.27754027 6153:0.28146371 6154:-0.051083926 6155:-0.051083926 6156:0.11713765 6157:0.16738251 6158:0.19551015 6159:0.19551015 6160:0.19551015 6161:0.19551015 6162:0.19551015 6163:0.12699552 6164:0.12699552 6165:0.12699552 6166:0.16617586 6167:0.12699552 6168:0.380613 6169:-0.22037748 6170:-0.2300909 6171:-0.2300909 6174:0.0030271788 6175:-0.20567308 6176:-0.11627891 6177:0.080858901 6178:-0.089333504 6179:-0.069675095 6180:-0.36678013 6181:-0.16806164 6182:-0.19211029 6183:-0.23122393 6184:-0.30977184 6185:-0.23122393 6186:0.049950298 6187:0.050861444 6188:0.050861444 6189:0.050861444 6190:0.050861444 6191:0.050861444 6192:0.050861444 6193:0.050861444 6194:-0.010888539 6195:0.050861444 6196:0.050861444 6197:0.076970018 6198:-0.38823187 6199:0.076970018 6200:0.076970018 6201:0.25879228 6202:0.25879228 6203:0.25879228 6204:0.30824032 6205:-0.28038716 6206:0.44805789 6207:0.22238484 6208:0.12436414 6209:-0.01465873 6210:0.011652269 6211:0.10335235 6212:0.27031615 6213:0.27031615 6214:0.27031615 6215:0.046054419 6216:0.3554467 6217:0.091147937 6218:-0.12444752 6219:0.093988709 6220:0.011945521 6221:0.0083474377 6222:-0.15202965 6223:0.37422377 6224:-0.27793747 6225:-0.12351076 6226:0.1024884 6227:-0.12351076 6228:0.002131456 6229:0.19886713 6230:0.13454261 6231:0.13454261 6232:0.13454261 6233:0.27576521 6234:-0.018146139 6235:0.13454261 6236:0.05655409 6237:0.0038255181 6238:-0.1924689 6239:-0.1924689 6240:-0.076447815 6241:-0.076447815 6242:-0.076447815 6243:-0.076447815 6244:-0.32507256 6245:-0.14779851 6246:-0.11609702 6247:-0.14779851 6248:-0.14779851 6249:-0.17590442 6250:0.069863006 6251:-0.17590442 6252:-0.26373237 6253:-0.0029544269 6254:0.048839599 6255:0.4340848 6256:-0.0029544269 6257:-0.0029544269 6258:-0.0029544269 6259:-0.0029544269 6260:-0.090179153 6261:0.15657642 6262:0.15541141 