SVM-light Version V6.20
0 # kernel type
3 # kernel parameter -d 
1 # kernel parameter -g 
1 # kernel parameter -s 
1 # kernel parameter -r 
empty# kernel parameter -u 
11718 # highest feature index 
80 # number of training documents 
2 # number of support vectors plus 1 
0 # threshold b, each following line is a SV (starting with alpha*y)
1 1:-0.17446131 2:-0.088000193 3:-0.32938522 4:0.20906825 5:0.030328475 6:0.13453567 7:-0.31153578 8:-0.050325383 9:-0.07709033 10:-0.26036659 11:-0.092863917 12:0.064154357 13:0.29467359 14:0.24347097 15:-0.06618499 16:-0.063245319 17:-0.013276045 18:0.25736073 19:-0.062665433 20:0.31163037 21:-0.062665433 22:0.21336804 23:-0.019519718 24:0.25629631 25:-0.24578917 26:-0.24578917 27:-0.035367489 28:0.35554937 29:-0.46703649 30:0.10805051 31:-0.24578917 32:-0.24578917 33:-0.012659727 34:0.17183608 35:0.47789541 36:0.57276064 37:-0.14288165 38:-0.11015142 39:-0.15941779 40:0.00064396823 41:-0.10916227 42:-0.19103011 43:-0.23784027 44:-0.091461204 45:-0.57869315 46:0.49570936 47:-0.014657521 48:-0.18989056 49:0.17871584 50:-0.20184191 51:-0.020229099 52:-0.2514357 53:-0.15926674 54:-0.20184191 55:0.25578156 56:-0.17811413 57:0.065809838 58:0.01989286 59:-0.15205289 60:-0.0053594722 61:-0.047319178 62:-0.03284296 63:-0.19900076 64:-0.32596195 65:-0.35967952 66:-0.18231177 67:-0.53463513 68:0.29006124 69:-0.07069084 70:0.37489408 71:-0.10243275 72:0.56754214 73:0.26336613 74:0.098434053 75:-0.010272278 76:0.19831829 77:0.26336613 78:0.059786361 79:-0.12303876 80:0.083443262 81:0.28869656 82:0.39953533 83:-0.11654922 84:-0.11654922 85:-0.11562742 86:-0.049058635 87:-0.10654622 88:0.02113997 89:0.12033866 90:0.0056989002 91:0.21998911 92:0.20497935 93:-0.12270271 94:-0.10478812 95:0.27209446 96:0.20497935 97:0.041213933 98:-0.058934644 99:-0.32628894 100:-0.12501448 101:0.32666111 102:0.19220625 103:-0.30685833 104:0.42445549 105:-0.095990837 106:0.14662798 107:0.25490054 108:0.22950733 109:0.31544098 110:0.28020054 111:0.0078589767 112:0.16684292 113:-0.23934922 115:0.013550248 117:-0.028479986 118:0.082629353 119:0.033818267 120:0.38571584 121:0.2999427 122:0.27456996 123:-0.19728367 124:0.16207814 125:-0.39941368 126:0.040358573 127:-0.15187193 128:0.10285378 129:0.18374795 130:-0.028136956 131:0.22017163 132:-0.16418688 133:0.08208999 134:-0.28323582 135:0.15850575 136:0.37523738 137:-0.025434738 138:0.38957363 139:0.66125172 140:0.2394636 141:-0.032025654 142:0.007667406 143:0.0033342713 144:-0.15063632 145:0.15850575 146:0.15850575 147:-0.11651034 148:0.087888218 149:-0.047206845 150:-0.0026712413 151:0.28590876 152:0.013276153 153:-0.24269816 154:-0.077235274 155:-0.49397501 156:-0.16172381 157:-0.13125134 158:0.10111426 159:0.16044538 160:-0.31722072 161:0.1871037 162:0.41849369 163:-0.33891305 164:-0.098819755 165:-0.21969619 166:0.53169614 167:-0.21754865 168:0.11795764 169:0.22695264 170:0.0090288222 171:0.23308977 172:0.098331504 173:0.098331504 174:-0.15498722 175:0.13882032 176:0.098331504 177:-0.0067451377 178:0.098331504 179:-0.20177464 180:-0.2267836 181:-0.16553603 182:0.098331504 183:-0.51006997 184:-0.36559555 185:-0.054580502 186:0.038766034 187:-0.010783986 188:0.2352138 189:0.079525813 190:0.1937079 191:-0.047245093 192:-0.047245093 193:0.19239736 194:0.21684539 195:-0.01300716 196:-0.073065571 197:0.22786091 198:0.13572863 199:0.15436772 200:0.6070956 201:-0.032566708 202:0.38607335 203:0.67814845 204:-0.41747582 205:0.34564576 206:0.051637303 207:-0.13556807 208:0.31881005 209:0.22179084 210:-0.07111872 211:0.12386072 212:-0.055218901 213:0.2190094 214:0.055595636 215:0.16149791 216:0.075623058 217:0.5997445 218:-0.13052356 219:0.049970347 220:-0.17584616 221:-0.13052356 222:0.12128717 223:-0.059902005 224:-0.11547785 225:-0.13052356 226:0.33884135 227:0.014412783 228:-0.16072875 229:-0.132808 230:-0.016529789 231:-0.13052356 232:-0.46230265 233:0.053975634 234:-0.33528835 235:0.082604676 236:0.11272937 237:-0.25514546 238:-0.19347432 239:-0.3613334 240:-0.11822536 241:0.10162582 242:-0.35653973 243:-0.1589952 244:-0.0976355 245:-0.19963673 246:0.071471617 247:0.087506428 248:-0.0976355 249:-0.060075048 250:0.20900197 251:-0.0976355 252:-0.0976355 253:0.27168518 254:0.23673862 255:0.043604031 256:-0.62481117 257:0.08610139 258:0.09273155 259:0.062723517 260:-1.1464403 261:-0.21512675 262:0.25833452 263:0.25117394 264:0.19898464 265:-0.3577756 266:-0.13484883 267:0.27798167 268:-0.0037014049 269:-0.091712162 270:-0.10553325 271:0.035957169 272:0.17744064 273:-0.054348912 274:0.048827268 275:-0.091712162 276:-0.17617318 277:-0.082661316 278:0.095562592 279:0.17679125 280:0.28352675 281:-0.30539289 282:-0.0010718994 283:-0.19080983 284:-0.091712162 285:-0.091712162 286:-0.18884178 287:-0.091712162 288:-0.091712162 289:-0.29395521 290:0.55633801 291:0.25487107 292:0.2796286 293:-0.0095494632 294:-0.18760522 295:-0.17662302 296:-0.069141306 297:0.20741694 298:0.11246706 299:-0.01397292 300:0.055339154 301:-0.17274117 302:-0.16229089 303:0.10681656 304:-0.54424095 305:0.012032491 306:-0.25495234 307:0.25902349 308:0.09486521 309:0.23731577 310:-0.17220403 311:-0.042524796 312:-0.065291837 313:0.10532725 314:0.27006149 315:0.35708749 316:0.065664195 317:0.05242369 318:-0.18855372 319:-0.34091437 320:-0.38817841 321:0.078346908 322:0.22017604 323:-0.041115385 324:0.41467309 325:-0.083830267 326:0.053542614 327:0.61087465 328:-0.2941283 329:-0.083830267 330:0.122692 331:-0.083830267 332:-0.2941283 333:-0.049270868 334:0.019920044 335:-0.12748809 336:-0.19872674 337:0.15219668 338:0.14036241 340:0.13314588 341:-0.4080556 342:0.06035101 343:0.26977789 344:0.41110998 345:-0.11944228 346:0.06035101 347:0.06035101 348:-0.18515366 349:-0.072766021 350:0.10580088 351:-0.11485335 352:-0.18515366 353:0.35244942 354:-0.18515366 355:-0.14535801 356:-0.48614538 357:0.20520777 358:-0.10151324 359:0.21160564 360:-0.00094866217 361:-0.35668242 362:-0.30333361 363:-0.20547004 364:0.31567153 365:0.39113018 366:-0.18837936 367:-0.15639248 368:0.093346536 369:0.10747932 370:0.010539535 371:0.0097581539 372:-0.18752065 373:-0.00022981525 374:0.036378227 375:-0.25870556 376:0.21772337 377:0.043139458 378:-0.090729065 379:0.039721459 380:0.55994678 381:0.11338162 382:0.28350386 383:0.2531459 384:0.28350386 385:-0.20629361 386:0.30530974 387:-0.29364738 388:0.0049063899 389:-0.12820283 390:0.0049063899 391:0.0049063899 392:0.16104986 393:-0.19598007 394:0.0049063899 395:-0.20346509 396:0.12378965 398:0.25900051 399:-0.11143187 400:-0.014382625 401:-0.077469617 402:-0.16623388 404:-0.074885949 405:-0.070885025 407:-0.051650409 408:0.026969029 409:-0.008798697 410:-0.097897626 411:-0.1025051 412:0.17413616 414:0.15797576 415:-0.22068338 416:0.3600468 417:-0.30473432 418:-0.013989701 419:-0.035863873 420:-0.032163847 421:-0.018958161 422:-0.50391954 423:-0.3255249 424:0.18530428 425:-0.17689134 426:-0.02225028 427:0.071325399 428:0.14159302 429:0.54857796 430:-0.30989411 431:-0.11136411 432:0.13358587 433:-0.013989701 434:0.25778008 435:-0.1941815 436:-0.013989701 437:-0.018625755 438:-0.36478007 439:0.052388694 440:-0.1343406 441:0.024865134 442:-0.26002407 443:-0.30114642 444:0.019415552 445:-0.33619651 446:0.22839044 447:-0.16838415 448:-0.57116795 449:0.1058192 450:-0.058142383 451:-0.1907443 452:-0.1550719 453:-0.16838415 454:-0.0012672147 455:-0.055323508 456:0.077250279 457:0.085888959 458:-0.12826666 459:0.23385127 460:0.038142528 461:0.63791305 462:0.22651586 463:0.10370524 464:-0.18708532 465:-0.057880972 466:0.14053944 467:0.31522122 468:0.0076564145 469:0.40456712 470:0.28248617 471:0.19856073 472:0.20938534 473:0.14053944 474:0.0039302395 475:0.59001583 476:-0.16224539 477:-0.30105898 478:0.30390215 479:0.17739452 480:0.18987095 481:-0.082373515 483:-0.11293038 484:0.4138144 485:-0.37543908 486:-0.70067948 488:0.17977953 489:0.084240444 490:0.16574773 491:0.20285133 492:-0.061883572 493:-0.26809534 494:-0.17342332 495:-0.11546542 496:-0.098077938 497:-0.085589409 498:-0.23567715 499:-0.11605526 500:-0.20859298 501:0.047964819 502:0.050933655 503:0.29218954 504:-0.17404795 505:0.22681925 506:0.15528487 507:-0.23567715 508:0.10757484 509:-0.090671174 510:0.25358069 511:0.56428552 512:-0.545021 513:-0.36434552 514:0.079277202 515:-0.084281251 516:0.25270966 517:-0.033019803 518:0.023808014 519:0.11722568 520:-0.1251249 521:-0.050370771 522:-0.25866473 523:-0.38430816 524:0.1654503 525:-0.25738296 526:-0.058077756 527:0.10756276 528:-0.28413594 529:-0.15319371 530:-0.21029803 531:-0.21029803 532:-0.13803856 533:0.021533245 534:-0.025995109 535:-0.0025156375 536:0.22976258 537:-0.10785829 538:-0.089587852 539:-0.44411457 540:-0.17518836 541:-0.014573636 542:0.24849038 543:0.4932487 544:0.12217185 545:0.27717048 546:0.33837548 547:-0.021364667 548:-0.40159991 549:0.09985093 550:-0.0052494919 551:-0.21057844 552:-0.039013151 553:0.23777647 554:-0.15935346 555:-0.57116508 556:0.31083062 557:-0.27482912 558:0.56930053 559:-0.36234072 560:-0.1279572 561:0.09608376 562:-0.28419307 563:-0.072501704 564:0.31345275 565:-0.14738435 566:-0.30147591 567:-0.070365168 568:0.24768528 569:-0.08232785 570:0.094364643 571:0.30430612 573:-0.12988108 574:0.021747362 575:0.32739556 576:0.12119061 577:0.11862982 578:0.446619 579:0.57648838 583:0.089090921 585:0.32862583 586:-0.10263964 588:-0.040941849 589:0.17659916 590:-0.66238803 591:-0.41990238 592:0.23845145 593:0.124764 594:-0.17807475 595:0.052970249 596:-0.17807475 597:-0.22572511 598:0.34561598 599:-0.22572511 600:-0.22572511 601:0.15812798 602:0.082810722 603:-0.44264492 604:-0.11450348 605:0.011473165 606:0.11336473 607:-0.015906231 608:-0.17561401 609:-0.088725105 610:-0.057614397 611:0.10489665 612:0.062414519 613:-0.27266195 614:0.28496385 615:-0.052924618 616:-0.090097718 617:-0.065026298 618:0.018616142 619:0.42923683 620:0.019596515 621:0.49339664 622:-0.25005883 623:0.15616447 624:0.26383585 625:0.0030122397 626:0.29719386 628:-0.17468925 629:-0.44139546 631:0.14149413 632:0.17901577 633:0.082562804 634:0.13683099 635:-0.13054879 637:0.020597531 638:-0.040006932 639:0.38354939 640:0.34374863 641:0.21398881 642:0.21299793 643:0.229922 644:0.58978468 645:0.32170922 646:0.30248359 647:0.084491946 648:0.099311396 649:0.0085170232 650:0.30778182 651:0.037579007 652:0.16760713 653:-0.10130342 654:0.01906473 655:0.15512432 656:0.5641706 657:-0.44878554 658:0.19120856 659:-0.061208576 660:0.12816815 661:-0.07591293 662:-0.37628001 663:-0.24112879 664:-0.18877338 665:0.27366623 666:0.29419056 667:-0.27877378 668:-0.011234848 669:-0.22727942 670:0.084430903 671:0.08931379 672:0.036061995 673:-0.082573302 674:-0.096462376 675:-0.20758903 676:0.30827987 677:0.27591085 678:0.1369856 679:-0.05823243 680:0.16214426 681:0.37513381 682:-0.065793663 683:0.21532135 684:0.27620623 685:0.078311525 686:-0.1470006 687:-0.088758051 688:-0.071201034 689:0.075293012 690:-0.25794625 691:-0.16607423 692:-0.084439024 693:-0.065793663 694:-0.55715299 695:-0.065793663 696:-0.065793663 697:-0.10991537 698:-0.10991537 699:-0.10991537 700:-0.10991537 701:-0.10991537 702:0.0034568815 703:-0.02881296 704:0.25428587 705:-0.10991537 706:-0.071275614 707:-0.23860739 708:0.048094135 709:-0.10551149 710:0.26987958 711:-0.84950972 712:0.086157508 713:-0.11695004 714:-0.014061848 715:-0.48925337 716:-0.23013261 717:-0.060461581 718:0.088106908 719:-0.14639646 720:-0.060461581 721:0.038264483 722:-0.0056928466 723:-0.060461581 724:-0.10507283 725:0.14894353 726:-0.057788044 727:-0.17800425 728:-0.56930977 729:0.21151157 730:-0.56290263 731:0.072539844 732:0.17456472 733:0.40545589 734:0.18858416 735:0.091005825 736:0.40545589 737:0.077208549 738:0.22641525 739:0.19841708 740:-0.066654541 741:0.22380453 742:0.067796372 743:0.070211448 744:-0.13914713 745:0.11170053 746:0.47516391 747:0.045532383 748:0.28516507 749:0.14095394 750:0.14080922 751:0.061643627 752:-0.10210694 753:-0.26149821 754:-0.48235101 755:-0.28774512 756:-0.13673346 757:0.19198035 758:-0.1420982 759:0.14124653 760:-0.24698628 761:-0.1420982 762:0.046700992 763:-0.1420982 764:-0.1420982 765:0.19143279 766:-0.1420982 767:0.075786971 768:0.043864962 769:-0.21895292 770:-0.14442398 771:0.17448774 772:0.27890614 773:-0.080659747 774:-0.1420982 775:-0.10306806 776:-0.1420982 777:-0.1420982 778:-0.36920339 779:0.075676493 780:-0.22608075 781:-0.22206904 782:0.11118983 783:0.10346777 784:0.11118983 785:-0.10904971 786:0.097020917 787:-0.1990778 788:-0.054051865 789:-0.09368483 790:-0.26096857 791:-0.11167644 792:-0.14739691 793:0.26512864 794:0.15761295 795:-0.022159576 796:-0.046247467 797:0.23125379 798:0.092743605 799:0.16501701 800:0.37487474 802:-0.35890508 804:0.01151241 805:0.1040939 806:0.1040939 807:0.1040939 808:0.0099090142 809:0.1040939 810:0.16359988 811:0.0005963216 812:0.1040939 813:-0.077307917 814:0.30538625 815:-0.0033334531 816:-0.0033334531 817:-0.27113435 818:-0.0033334531 819:-0.23573443 820:-0.087207504 821:0.14917251 822:0.00079185487 823:-0.0033334531 824:-0.0033334531 825:-0.0033334531 826:-0.048410557 827:0.019299697 828:-0.23922993 829:-0.027669663 830:-0.38024044 831:-0.14739484 832:-0.18111588 833:0.52011591 834:-0.12965609 835:0.19477333 836:-0.22022268 837:-0.11171356 838:-0.46429157 839:0.33869645 840:0.28373832 841:0.1842649 842:0.034037199 843:-0.15718085 844:-0.098727465 845:0.22286364 846:-0.045538843 847:-0.0039886758 848:0.7147339 849:-0.0039886758 850:-0.0039886758 851:-0.021760546 852:-0.13678327 853:-0.17030348 854:-0.22400931 855:0.13729402 856:0.31769118 857:0.40610367 858:0.11302643 859:0.08929313 860:0.11223159 861:-0.042771354 862:0.59693217 863:-0.019233892 864:0.021980649 865:-0.13693532 866:0.30381671 867:0.13729402 868:-0.069429904 869:-0.39980811 870:-0.24731125 871:-0.39980811 872:0.14414115 873:0.17385793 874:-0.23627514 875:-0.065247484 876:0.15612385 877:-0.026363926 878:0.17385793 879:0.17385793 880:-0.14892979 881:0.17385793 882:0.45145813 883:0.047699958 884:0.18306454 885:-0.065237589 886:0.047699958 887:-0.12443289 888:-0.12443289 889:0.41015688 890:-0.23681137 891:-0.14531457 892:0.58366358 893:-0.1112726 894:-0.007475669 895:-0.49343652 896:-0.14531457 897:-0.26567 898:-0.11715245 899:-0.30141822 900:-0.13065557 901:0.033588376 902:-0.13528386 903:0.93391043 904:-0.075997382 905:0.072611891 906:-0.38750395 907:-0.16633467 908:0.12127317 909:-0.14495759 910:-0.092910096 911:-0.13065557 912:0.29311877 913:-0.063761711 914:-0.063761711 915:0.068826258 916:0.14276738 917:0.51341635 918:-0.059617944 919:0.068826258 920:-0.060715936 921:-0.030357968 922:-0.030357968 923:-0.10446842 924:-0.21892928 925:-0.030357968 926:-0.1160074 927:-0.083300419 928:-0.030357968 929:-0.030357968 930:0.032715503 931:-0.08118467 932:-0.030357968 933:-0.030357968 934:-0.030357968 935:-0.030357968 936:0.2109351 937:-0.3585887 938:-0.030357968 939:-0.030357968 940:-0.030357968 941:0.059784114 942:-0.030357968 943:-0.030357968 944:-0.030357968 945:-0.10021769 946:-0.0045759366 947:-0.0045759366 948:-0.0045759366 949:0.12017307 950:0.049789023 951:0.31647345 952:0.15378362 953:0.18271771 954:0.21996595 955:-0.043704722 956:-0.066736363 957:0.10274088 958:-0.16428253 959:0.069249794 960:-0.036016241 961:0.10274088 962:0.086802252 963:0.11542705 964:0.10274088 965:0.22925407 966:-0.0071795923 967:0.39053434 968:0.40659261 969:-0.18499787 970:-0.18499787 971:0.15310477 972:-0.18499787 973:-0.15687278 974:-0.59179074 975:0.050978087 976:-0.0033366422 977:0.25603047 978:-0.17474009 979:-0.17474009 980:-0.17474009 981:-0.14608547 982:0.056411907 983:-0.64972991 984:0.35558906 985:-0.061783142 986:-0.38955429 987:-0.1500877 988:-0.31668094 989:-0.22901364 990:-0.12173821 991:-0.63077098 992:-0.22275434 993:0.24788415 994:0.088454306 995:0.057355754 996:0.062406477 997:0.18329923 998:-0.34346497 999:0.15540448 1000:0.15540448 1001:0.15540448 1002:0.15540448 1003:0.15540448 1004:-0.0033311099 1005:0.15540448 1006:0.23001415 1007:-0.10839521 1008:-0.097009294 1009:0.43127257 1010:-0.15845968 1011:0.4906936 1012:-0.086741135 1013:0.050802946 1014:0.48693225 1015:-0.019316634 1016:-0.053016994 1017:-0.2278529 1018:-0.30393487 1019:-0.21742994 1020:-0.41151839 1021:-0.13207619 1022:0.36154822 1023:0.15531144 1024:0.23667899 1025:0.23956661 1026:0.15578271 1027:0.015575076 1028:0.74057239 1029:-0.07307402 1030:-0.036170613 1034:-0.13901247 1035:-0.023560658 1036:-0.34606466 1037:0.11803205 1039:-0.36326933 1040:0.10563272 1041:0.071867622 1042:0.44351375 1043:0.28011703 1046:-0.41443104 1047:0.24323985 1048:-0.056056898 1049:-0.44844592 1050:0.39714631 1051:0.10610639 1052:0.10610639 1053:0.1125937 1054:-0.49058533 1055:0.2548095 1056:0.10610639 1057:-0.14765264 1058:0.10610639 1059:0.34039193 1060:0.10610639 1061:0.30537879 1062:0.10610639 1063:0.31018472 1064:0.34643751 1065:0.42661068 1066:0.47793701 1067:0.61978543 1068:0.19770817 1069:0.29146042 1070:-0.074692681 1071:-0.37387744 1072:-0.37387744 1073:-0.23384111 1074:0.093713745 1075:0.061924759 1076:-0.27008641 1077:0.34184158 1078:-0.027528826 1079:0.044658195 1080:-0.4319272 1081:0.48855388 1082:0.44234952 1083:0.27842206 1084:0.075255796 1085:-0.22352915 1086:0.14511904 1087:-0.2591691 1088:0.24228223 1089:0.33915979 1090:-0.4404628 1091:0.028469929 1092:-0.59723264 1093:-0.21413371 1094:0.13045052 1095:0.56625676 1096:0.56625676 1097:0.32308739 1098:0.061629206 1099:-0.077811822 1100:0.38887233 1101:-0.032273103 1102:0.26641956 1103:-0.051758915 1104:-0.021510368 1105:0.061629206 1106:0.073977828 1107:0.061629206 1108:0.27130479 1109:0.2969667 1110:0.18576956 1111:0.42818916 1112:-0.29259446 1113:-0.1324566 1114:-0.02881274 1115:-0.043522783 1116:0.090058126 1117:-0.24017328 1118:-0.043305118 1119:-0.043305118 1120:0.25944141 1121:-0.043305118 1122:0.076386504 1123:-0.16276114 1124:0.48219794 1125:0.066859461 1126:-0.043305118 1127:-0.043305118 1128:-0.043305118 1129:0.42772004 1130:0.25345907 1131:0.066308595 1132:0.10675531 1133:-0.2013637 1134:-0.13126841 1135:-0.20910144 1136:-0.20261165 1137:-0.21519706 1138:-0.21519706 1139:0.022363242 1140:0.01038651 1141:-0.21519706 1142:-0.03975166 1143:-0.21519706 1144:0.15980957 1145:-0.085040681 1146:-0.21519706 1147:-0.21519706 1148:-0.062678851 1149:-0.15634772 1150:-0.4351967 1151:-0.062678851 1152:-0.062678851 1153:-0.0099545373 1154:-0.079901658 1155:-0.099298656 1156:-0.54962987 1157:-0.55670702 1158:-0.2530475 1159:-0.125273 1160:-0.125273 1161:-0.43488848 1162:-0.125273 1163:0.28700912 1164:0.39236799 1165:0.39236799 1166:0.16227677 1167:0.34337157 1168:0.063183978 1169:-0.095010258 1170:0.39019898 1171:0.033718426 1172:0.36333454 1173:0.4128384 1174:0.4128384 1175:0.3952435 1176:0.23510328 1177:-0.0067738108 1178:0.040520884 1179:0.069478378 1180:-0.1852299 1181:-0.028452052 1182:-0.028452052 1183:-0.54939848 1184:-0.028452052 1185:-0.19263604 1186:0.26135275 1187:-0.54474789 1188:-0.2009488 1189:-0.2009488 1190:-0.2009488 1191:-0.33387655 1192:-0.17004381 1193:-0.44701046 1194:0.24183719 1195:0.29453734 1196:0.23400652 1197:0.058434591 1198:0.19437328 1199:0.20717302 1200:0.16661961 1201:0.2760841 1202:0.097334497 1203:0.23400652 1204:-0.034715615 1205:-0.1544221 1206:0.15616447 1207:-0.092466682 1208:0.15616447 1209:0.28726834 1210:0.15616447 1211:-0.3406482 1212:0.058568351 1213:0.097440384 1214:0.28205782 1215:0.23759781 1216:0.15616447 1217:0.050197493 1218:0.15616447 1219:0.25974286 1220:0.15616447 1221:0.54236805 1222:-0.039897092 1223:0.14470284 1224:-0.039387278 1225:-0.039387278 1226:-0.039387278 1227:-0.039387278 1228:0.033866391 1229:0.40654519 1230:-0.0010984479 1231:0.49943864 1232:0.020409744 1233:0.020409744 1234:-0.045391236 1235:-0.14912482 1236:0.31364396 1237:0.10583099 1238:0.15535977 1239:-0.32874328 1240:0.020409744 1241:0.020409744 1242:0.020409744 1243:-0.11577108 1244:-0.15159255 1245:0.020409744 1246:0.020409744 1247:0.56680721 1248:-0.081271641 1249:0.0060468782 1250:0.48237583 1251:-0.28038734 1252:0.27447835 1253:-0.20821044 1254:0.2062248 1255:-0.30226377 1256:-0.24013376 1257:0.13802117 1259:-0.28270936 1260:0.00098957412 1261:0.092209749 1262:0.30393416 1263:0.14685836 1264:-0.048851643 1265:0.1802896 1266:-0.010768373 1267:-0.4000186 1268:0.19971603 1269:0.15414183 1270:0.063624889 1271:0.060818609 1272:-0.2413791 1273:-0.19400172 1274:-0.17586711 1275:0.029204072 1276:0.2492139 1277:-0.19237597 1278:-0.082443953 1279:-0.26320148 1280:-0.097361967 1281:0.61531001 1282:0.12485085 1283:-0.11510978 1284:0.16908374 1285:-0.094089232 1286:-0.13003124 1287:-0.36885127 1288:-0.094089232 1289:0.21479544 1290:-0.081114985 1291:-0.026971146 1292:-0.094089232 1293:-0.023980621 1294:-0.094089232 1295:-0.00017715876 1296:-0.21981432 1297:-0.18316202 1298:-0.094089232 1299:0.013887765 1300:-0.052649494 1301:-0.02532449 1302:0.022148011 1303:-0.094089232 1304:-0.0056407051 1305:0.028549092 1306:-0.62712872 1307:-0.10211222 1308:-0.31472394 1309:0.26049253 1310:0.11205555 1311:-0.26411653 1312:-0.078144461 1313:0.00024767316 1314:0.12158303 1315:0.21693608 1316:-0.2459548 1317:0.058525223 1318:-0.43342823 1319:-0.015982194 1320:0.00094353571 1321:0.20478919 1322:-0.36492586 1323:0.6898278 1324:0.2725732 1325:-0.36904806 1326:-0.012878906 1327:-0.017379774 1328:-0.13154413 1329:0.00031466444 1330:-0.030253569 1331:0.57398969 1332:-0.060556959 1333:-0.17039068 1334:0.12432163 1335:-0.23744175 1336:-0.076854721 1337:0.058051709 1338:0.074218065 1339:-0.076854721 1340:0.39657754 1341:0.11308479 1342:-0.071050234 1343:-0.089256376 1344:-0.22880027 1345:0.2177472 1346:0.14147373 1347:-0.36000085 1348:0.41428328 1349:-0.21806602 1350:-0.24638434 1351:-0.021984022 1352:-0.083101906 1353:0.049974654 1354:0.020731742 1355:-0.014799437 1356:0.43453032 1357:0.20330591 1358:0.29522324 1359:-0.23821837 1360:0.25663432 1361:-0.23063055 1362:0.21512975 1363:-0.038970489 1364:-0.28577474 1365:0.11219724 1366:0.11219724 1367:0.11219724 1368:0.4228451 1369:-0.01975755 1370:-0.28403518 1371:0.13772655 1372:0.13772655 1373:0.025790934 1374:-0.13884239 1375:-0.075558499 1376:-0.21927252 1377:-0.21927252 1378:-0.2130568 1379:-0.065470688 1380:-0.2130568 1381:0.0090313517 1382:-0.2780433 1383:0.33762002 1384:0.16341329 1385:-0.0034784055 1386:0.094153397 1387:0.012456761 1388:0.14398496 1389:0.28109467 1390:0.09135247 1391:0.09135247 1392:-0.017080523 1393:-0.017080523 1395:0.2031576 1396:-0.19988799 1397:0.037742872 1399:-0.11210473 1400:0.22172441 1401:-0.010529567 1402:0.57394147 1403:-0.071916819 1404:0.06569083 1405:0.01195135 1406:0.21390907 1407:-0.065759107 1408:0.14846221 1409:0.19419245 1410:0.23092279 1411:0.096329279 1412:0.21429655 1413:0.3301847 1414:0.02195221 1415:-0.3285194 1416:-0.039234046 1417:-0.039234046 1418:-0.039234046 1419:-0.039234046 1420:0.29179153 1421:-0.36163172 1422:-0.13726611 1423:0.064669594 1424:0.14398597 1425:-0.039234046 1426:-0.039234046 1427:-0.25939906 1428:-0.089650877 1429:-0.093075067 1430:-0.039234046 1431:-0.039234046 1434:0.28754756 1435:0.15551442 1436:0.43514013 1437:-0.38144043 1438:-0.41725576 1440:-0.097865097 1441:-0.36693099 1442:-0.18877853 1443:0.287727 1444:0.46594366 1445:0.2093666 1446:0.28784618 1447:0.42389461 1448:0.287727 1449:-0.22013137 1450:-0.27367207 1451:0.012649794 1452:0.94579405 1453:-0.22981369 1454:-0.19855137 1455:0.18370448 1456:-0.078098789 1457:-0.20027715 1458:-0.078098789 1459:0.2299199 1460:0.24633659 1461:-0.078098789 1462:-0.11729217 1463:-0.13927308 1464:-0.059213955 1465:-0.10239287 1466:-0.097365439 1467:0.047593825 1469:-0.16545771 1470:0.26028541 1471:0.00092179119 1472:0.00092179119 1473:0.0085601769 1474:0.00092179119 1475:-0.36118859 1476:-0.11008574 1477:0.39251086 1478:-0.14512959 1479:-0.0037209629 1480:0.036467616 1481:0.3289915 1482:-0.26532289 1483:-0.021655889 1484:0.39925849 1485:0.16980827 1486:-0.10053807 1487:-0.46313119 1488:-0.13385326 1489:0.17597148 1490:-0.12254139 1491:0.087661684 1492:-0.039167479 1493:0.13177721 1494:0.045125961 1495:0.046118934 1496:0.25840187 1497:0.070918657 1498:-0.16812372 1499:-0.35813275 1500:-0.27052519 1501:0.14928702 1502:-0.083806247 1503:-0.33939806 1504:-0.0074597909 1505:-0.24133943 1506:-0.5341925 1507:-0.17148921 1508:0.15877715 1509:0.050568026 1510:-0.044968478 1511:-0.37041959 1512:-0.11167531 1513:0.16523392 1514:-0.11462107 1515:0.18891767 1516:0.034174722 1517:0.034174722 1518:0.31144109 1519:0.46081379 1520:-0.00057335722 1521:0.20686068 1522:0.27184716 1523:0.1573225 1524:0.29347306 1525:0.27184716 1526:-0.30998984 1527:-0.22456522 1528:-0.22456522 1529:-0.22456522 1530:0.12729274 1531:-0.16737588 1532:0.027493903 1533:-0.045474019 1534:-0.39561218 1535:-0.33956826 1536:0.25696248 1537:0.6193586 1538:-0.18393764 1539:-0.14357807 1543:0.19422762 1544:0.052840188 1545:0.29478571 1546:0.01195135 1547:0.01195135 1548:0.01195135 1549:-0.089611106 1550:-0.28732771 1551:-0.089611106 1552:-0.089611106 1553:0.27450418 1554:-0.10389543 1555:-0.053687103 1556:0.83815652 1557:-0.30639091 1558:-0.066714145 1559:-0.029950464 1560:0.093926311 1561:-0.27862138 1562:0.24496292 1563:0.30209616 1564:0.39964485 1565:-0.19655339 1566:0.085700519 1567:0.085700519 1568:-0.040026564 1569:0.53580779 1570:0.085700519 1571:-0.17699096 1572:-0.25075361 1573:0.74049658 1574:-0.087324761 1575:0.64919001 1576:0.14867403 1577:-0.092879601 1578:-0.0787118 1579:-0.092879601 1580:-0.092879601 1581:-0.092879601 1582:0.1201167 1583:-0.33166951 1584:-0.52604181 1585:-0.46668711 1586:-0.061714396 1587:-0.061714396 1588:-0.061714396 1589:-0.061714396 1590:0.25448379 1591:-0.061714396 1592:-0.13755569 1593:0.22893693 1594:-0.061714396 1595:-0.11367847 1596:-0.061714396 1597:-0.090829983 1598:0.055885676 1599:-0.010152589 1600:-0.061714396 1601:-0.061714396 1602:0.47051683 1603:-0.37586665 1604:-0.07836397 1605:-0.14102404 1606:0.024877235 1607:-0.35044596 1608:-0.13776918 1609:0.21490188 1610:-0.049024511 1611:-0.21299586 1612:-0.22994168 1613:0.066493325 1614:0.30262566 1615:0.52952069 1616:-0.045646999 1617:0.15060875 1618:-0.30687368 1619:0.46485683 1620:0.096511237 1621:0.15600342 1622:-0.16088848 1623:-0.23268327 1624:-0.15136476 1625:0.20581517 1626:0.23182851 1627:-0.23268327 1628:-0.23268327 1629:0.44254422 1630:0.060090445 1631:0.11381675 1632:-0.16926391 1633:-0.32090327 1634:0.47752142 1635:0.24829172 1636:0.0700894 1637:-0.13984834 1638:0.35834178 1639:-0.45119464 1640:-0.21190204 1641:-0.041737471 1642:-0.020679142 1643:-0.083501182 1644:-0.061787136 1645:-0.0066178399 1646:-0.061787136 1647:0.017719271 1648:-0.061787136 1649:-0.10677495 1650:-0.056344051 1651:0.39318427 1652:0.12868668 1653:-0.21190204 1654:0.12684867 1655:0.013574972 1656:-0.21190204 1657:0.27218315 1658:-0.065093145 1659:-0.017185513 1660:-0.065093145 1661:-0.11640665 1662:-0.065093145 1663:-0.032916792 1664:-0.065093145 1665:-0.36146921 1666:0.021277834 1667:-0.12264077 1668:0.24211469 1669:-0.24333917 1670:-0.0087151118 1671:0.1222588 1672:-0.042164408 1673:0.18889205 1674:-0.1805346 1675:0.33210087 1676:0.46194038 1677:0.1941077 1678:-0.18954611 1679:-0.18954611 1680:0.074106455 1681:-0.12145563 1682:-0.18954611 1683:0.22449824 1684:-0.18954611 1685:0.20158495 1686:-0.18954611 1687:-0.15678716 1688:0.14335233 1689:0.295232 1690:-0.18954611 1691:-0.18954611 1692:-0.21026771 1693:-0.18954611 1694:-0.53090298 1695:0.50072372 1696:-0.20076253 1697:-0.30556294 1698:-0.20076253 1699:-0.20076253 1700:-0.18292594 1701:-0.22196479 1702:-0.010839782 1703:0.39868647 1704:0.30118674 1705:-0.17230543 1706:0.47798142 1707:0.10448539 1708:0.10448539 1709:0.10448539 1710:0.14855585 1711:0.10448539 1712:0.39106011 1713:-0.19348897 1714:0.29059497 1715:0.38800395 1716:0.0229463 1717:0.09848319 1718:0.3727636 1719:0.3727636 1720:0.27547058 1721:-0.072282091 1722:0.21822426 1723:-0.050066497 1724:-0.156625 1725:-0.20770943 1726:-0.19772463 1727:-0.18190381 1728:-0.18190381 1729:-0.098348521 1730:-0.22089085 1731:0.034811772 1732:0.19995144 1733:-0.28113666 1734:-0.0077958768 1735:-0.023411408 1736:-0.0077958768 1737:0.23168956 1738:0.070621558 1739:0.046259575 1740:0.070621558 1741:0.18025325 1742:-0.1121748 1743:0.070621558 1744:-0.038497247 1745:0.070621558 1746:0.070621558 1747:-0.10112769 1748:0.093814358 1749:0.070621558 1750:-0.2273961 1751:-0.074264705 1752:-0.40102372 1753:-0.20497733 1754:-0.15642241 1755:-0.20497733 1756:0.55500859 1757:-0.056827039 1758:-0.23782225 1759:-0.062015276 1760:-0.13538107 1761:-0.062015276 1762:-0.062015276 1763:-0.32424349 1764:-0.073624738 1765:-0.039731946 1766:-0.12492006 1767:0.18994756 1768:-0.099542223 1769:0.46051145 1770:-0.1665865 1771:-0.0020381128 1772:0.54476136 1773:0.049863815 1774:-0.082301944 1775:0.21920292 1776:-0.45535731 1777:-0.25551361 1778:0.38261545 1779:-0.24301855 1781:0.014056372 1782:-0.14859128 1783:0.014056372 1784:0.10425621 1785:-0.095515929 1786:-1.0185887 1787:-0.035252344 1788:0.096676819 1789:-0.41773018 1790:0.49153239 1791:-0.15201692 1792:0.17007129 1793:-0.02130156 1794:0.043519419 1795:0.043519419 1796:-0.1715138 1797:-0.27037504 1798:-0.27037504 1799:-0.043437742 1800:-0.41636249 1801:-0.41636249 1802:-0.41636249 1803:-0.11284119 1804:-0.05664099 1805:-0.18284063 1806:0.039790202 1807:0.013580707 1808:-0.055236693 1809:-0.22044717 1810:0.089000367 1811:0.16697097 1812:-0.074611813 1813:0.009913329 1814:0.15510193 1815:0.24792331 1816:0.042608354 1817:0.28337014 1818:-0.068837292 1819:0.022944903 1820:0.049354102 1821:0.23931433 1822:0.53534329 1823:0.36041683 1824:0.24825414 1825:-0.27729475 1826:0.20794351 1827:0.33587012 1828:-0.053573132 1829:0.047068551 1830:-0.26009676 1831:-0.09596274 1832:-0.15340802 1833:0.1290759 1834:0.1290759 1835:0.1290759 1836:0.18022332 1837:-0.10091825 1838:0.10927533 1839:0.1290759 1840:0.17486775 1841:0.16382983 1842:-0.029108841 1843:0.1290759 1844:0.15771228 1845:0.085499592 1846:0.1290759 1847:0.22145832 1848:-0.097006701 1849:0.1290759 1850:-0.16921861 1851:0.17981935 1852:0.14776649 1853:-0.12663366 1854:0.010437295 1855:-0.18257016 1856:0.010437295 1857:0.010437295 1858:0.23622498 1859:0.010437295 1860:-0.48538631 1861:-0.48805004 1862:-0.23685271 1863:-0.33736196 1864:-0.23685271 1865:0.0036397427 1866:0.026751161 1867:-0.13298932 1868:0.057358801 1869:-0.035645809 1870:-0.18095228 1871:0.15135369 1872:-0.076141998 1873:-0.25959414 1874:0.31637603 1875:-0.00675262 1876:0.15135369 1877:0.15135369 1878:0.12059984 1879:-0.00078093761 1880:-0.084943667 1881:0.10601006 1882:0.45710868 1883:-0.14306177 1884:0.20544757 1885:0.22366133 1886:-0.062305935 1887:-0.062305935 1888:0.26627827 1889:0.37895378 1890:0.56443393 1891:-0.2045036 1892:-0.054200228 1893:-0.075416476 1894:-0.062305935 1895:-0.34057394 1896:-0.15132572 1897:0.091168769 1898:0.068733484 1899:0.31148857 1900:0.87891775 1901:0.38292953 1902:0.068670057 1903:0.20047219 1904:0.061731193 1905:0.20944852 1908:-0.26530069 1909:-0.082630493 1911:-0.15748158 1912:0.12516311 1914:0.21704923 1915:-0.11781798 1917:0.47394279 1918:0.25941518 1919:0.16666065 1920:-0.057310965 1921:-1.4863424 1922:0.4699913 1923:-0.76427126 1924:0.1497438 1925:-0.083212569 1926:0.23512098 1927:0.014171168 1928:-0.11083469 1929:-0.15383469 1931:0.43355292 1932:-0.29127827 1933:-0.17651926 1934:0.22014715 1935:-0.19988561 1936:0.098726064 1937:-0.081619598 1938:-0.081619598 1939:0.11197507 1940:0.20940582 1941:-0.081619598 1942:-0.72728342 1943:0.17998567 1944:-0.17511471 1945:0.11407551 1946:0.07223969 1947:-0.1041344 1948:0.19129403 1949:0.25169864 1950:-0.20848094 1951:0.34731913 1953:-0.16473629 1954:-0.090992868 1955:-0.12052272 1957:0.054778595 1958:-0.21200681 1959:-0.25847575 1960:-0.25847575 1961:-0.022431012 1962:-0.14529027 1963:-0.25847575 1964:-0.098911129 1965:-0.28486896 1966:-0.088687144 1967:-0.055348415 1968:0.087559082 1969:0.057241719 1970:-0.035921853 1971:0.40326726 1972:0.30082318 1973:-0.15748158 1974:-0.15748158 1975:-0.26605389 1976:-0.30387205 1977:-0.02407562 1978:-0.045082547 1979:0.7529279 1980:0.56203467 1981:-0.29103824 1982:0.06446439 1983:0.14573199 1984:-0.1400286 1985:-0.1400286 1986:0.31398824 1987:0.31398824 1988:0.21328112 1989:0.21328112 1990:0.21328112 1991:-0.076125041 1992:0.45143119 1993:-0.13619116 1994:-0.12982255 1995:0.019502053 1996:-0.090514325 1997:0.12073249 1998:-0.090514325 1999:0.035083432 2000:-0.31434664 2001:-0.090514325 2002:-0.27806589 2003:-0.11643068 2004:-0.19305377 2005:-0.15093671 2006:-0.015262946 2007:0.032268859 2008:-0.26098731 2009:-0.079380259 2010:-0.88063204 2011:0.18287422 2012:0.044213846 2013:-0.43604988 2014:-0.20150945 2016:-0.12128772 2017:0.045625318 2018:0.2035201 2019:0.28956786 2022:-0.30983359 2023:0.55238312 2024:0.1119815 2025:0.1119815 2026:0.33162466 2027:-0.16780266 2028:-0.36899212 2029:0.15324861 2030:0.24174869 2031:0.073958226 2032:0.057029568 2033:0.06113515 2034:0.12705621 2035:0.30291691 2036:0.06113515 2037:0.10019372 2038:0.079153724 2039:0.06113515 2040:0.16358379 2041:0.16358379 2042:-0.089719683 2043:0.35821176 2044:-0.089719683 2045:-0.089719683 2046:0.58713949 2047:0.4285785 2048:-0.21103767 2049:-0.13984863 2050:-0.15630859 2051:-0.18138391 2052:-0.15630859 2053:0.18134503 2054:0.01097573 2055:-0.079352811 2056:0.12894118 2057:0.011010375 2058:-0.020669855 2059:-0.022846347 2060:-0.10698622 2061:0.44685292 2062:0.31097764 2063:0.35408667 2064:0.35408667 2065:0.52680105 2066:-0.06550964 2067:0.093232326 2068:0.001872969 2069:-0.20760264 2070:-0.082097597 2071:0.094226308 2072:0.20857824 2073:-0.027647616 2074:0.065788068 2075:0.54948717 2076:0.44056135 2077:-0.027647616 2078:-0.027647616 2079:-0.027647616 2080:-0.37780115 2081:0.60654342 2082:0.087641656 2083:-0.064936452 2084:0.24951574 2085:0.02227859 2086:0.079211846 2087:0.38061026 2088:0.28642419 2089:0.069583446 2090:0.069583446 2091:0.13645703 2092:0.15357628 2093:-0.37273324 2094:0.44669321 2095:-0.0072857053 2096:0.043164939 2097:0.069583446 2098:0.16595931 2099:0.074968427 2100:-0.12655766 2101:0.017820517 2102:0.082171187 2103:0.17482007 2104:-0.39548737 2105:0.36658144 2106:-0.37433821 2107:0.19048186 2108:0.037363254 2109:-0.25403073 2110:-0.037076335 2111:-0.011535653 2112:0.1716266 2113:0.11275662 2114:-0.058169309 2115:0.096707672 2116:0.068505563 2117:-0.060788896 2118:-0.060788896 2119:0.031676102 2120:-0.0015687498 2121:0.059643354 2122:0.10765133 2123:0.01096499 2124:-0.0015687498 2125:-0.11802991 2126:-0.17638871 2127:-0.16254266 2128:-0.074525885 2129:-0.17638871 2130:0.36108297 2131:0.47936854 2132:0.20025305 2133:0.47936854 2134:0.47936854 2135:-0.061195154 2136:0.034940768 2137:0.12973095 2138:-0.0026142064 2139:0.0065327189 2140:-0.0090270964 2141:0.1622608 2142:-0.146466 2143:-0.0037567301 2144:0.18050705 2145:-0.062018547 2146:-0.0090270964 2147:-0.0090270964 2148:-0.0090270964 2149:0.30528343 2150:-0.0077276318 2151:0.26131329 2152:-0.0090270964 2153:-0.017707845 2154:-0.12801887 2155:-0.092727259 2156:0.29322645 2157:-0.056143615 2158:0.57720447 2159:0.49191728 2160:0.56684142 2161:0.29667583 2162:0.71652317 2163:0.30081987 2164:0.3524085 2165:0.10983372 2166:0.10983372 2167:0.10983372 2168:-0.50346565 2169:0.19554374 2170:0.13558343 2171:-0.19377401 2172:0.20062338 2173:-0.22742614 2174:0.23736838 2175:-0.0086865015 2176:0.52359504 2177:-0.2305623 2178:0.20062338 2179:-0.066919789 2180:0.11790965 2181:0.51041633 2182:0.11790965 2183:0.11790965 2184:-0.077771254 2185:-0.21049918 2186:0.034515474 2187:0.14544304 2188:0.14544304 2189:0.14544304 2190:0.085337192 2191:-0.14597197 2192:0.33484781 2193:0.062007215 2194:0.14544304 2195:0.083688632 2198:-0.16404204 2199:0.076929368 2200:-0.23017471 2201:0.052810442 2202:-0.19566135 2203:-0.043552265 2204:-0.16404204 2205:-0.29625353 2206:0.13293301 2208:-0.078760535 2209:-0.2152556 2210:-0.14213724 2211:-0.08681795 2212:0.37149256 2213:-0.22087425 2214:-0.064656459 2215:-0.21521316 2216:-0.08681795 2217:-0.37592962 2218:0.23548208 2219:-0.29469109 2220:-0.2190374 2222:0.098940805 2223:0.049470402 2224:-0.53827769 2227:-0.19269089 2229:-0.010299645 2230:-0.11499252 2233:0.17070799 2235:-0.14482398 2236:-0.19088009 2237:0.37421969 2238:0.37421969 2239:0.38232538 2240:0.37421969 2241:0.42225853 2242:-0.25629666 2243:-0.25629666 2244:0.05391049 2245:-0.21600005 2246:-0.22869939 2247:-0.22497378 2248:-0.22497378 2249:-0.22497378 2250:-0.32007447 2251:-0.098825537 2252:0.14806998 2253:-0.185991 2254:0.035556555 2255:0.19947842 2256:0.21114491 2257:-0.09691447 2258:-0.52147079 2259:0.39238068 2260:-0.47200808 2261:-0.033510491 2262:0.10982233 2263:0.10982233 2264:0.21422713 2265:0.25973612 2266:0.25973612 2267:0.095496856 2268:0.095496856 2269:-0.038653009 2270:0.10440844 2271:0.095496856 2272:0.095496856 2273:0.078834273 2274:0.0781826 2275:-0.11569647 2276:-0.11569647 2277:-0.11569647 2278:-0.11569647 2279:-0.11569647 2280:-0.30207974 2281:-0.021811096 2282:-0.021811096 2283:0.089750193 2284:-0.024659766 2285:-0.0061565633 2286:-0.023381624 2287:0.13088644 2288:-0.34763932 2289:0.1059448 2290:-0.059960566 2291:-0.19988799 2292:0.1586729 2293:-0.2134472 2294:-0.19988799 2295:-0.01789232 2296:-0.11242819 2297:-0.11242819 2298:-0.11242819 2299:-0.22953048 2300:0.26163712 2301:0.078097485 2302:0.16026613 2303:0.12863515 2304:0.16026613 2305:0.16026613 2306:0.26177114 2307:-0.062833272 2308:-0.056860063 2309:0.23741719 2310:0.41543689 2311:0.43606058 2312:-0.14280376 2313:0.40685755 2314:0.749134 2315:0.4818238 2316:-0.037179966 2317:-0.56628865 2318:0.28244165 2319:-0.21893258 2320:0.32948706 2321:0.15285371 2322:0.19981602 2323:0.19301495 2324:-0.087032676 2325:0.38662666 2326:0.16807964 2327:0.18507038 2328:0.019338375 2329:0.14842033 2330:0.14842033 2331:0.14785293 2332:0.14842033 2333:0.11491022 2334:0.46261826 2335:0.10713847 2336:0.18920583 2337:0.10868992 2338:-0.11045072 2339:0.18991743 2340:0.042598683 2341:-0.27697703 2342:0.34104252 2343:-0.076137088 2344:-0.34527019 2345:0.19684918 2346:0.14043504 2348:0.067437865 2349:0.37223926 2350:-0.2751672 2351:-0.052288156 2352:-0.070215337 2353:0.30082718 2354:-0.1461263 2355:0.074964873 2356:-0.15292682 2357:-0.13767803 2358:-0.16558823 2359:-0.16558823 2360:-0.1465086 2361:0.38441649 2362:0.58313757 2363:0.38441649 2364:0.21416895 2365:0.11880171 2366:-0.017871242 2367:-0.12918799 2368:-0.41001895 2369:0.21865948 2370:0.051160615 2371:-0.0077604973 2372:0.0055189691 2373:-0.25374258 2374:0.067892507 2375:0.22436078 2376:0.081261478 2377:0.051160615 2378:0.41030774 2379:-0.029597491 2380:0.18266392 2381:-0.36986974 2382:-0.025501203 2383:-0.029597491 2384:-0.029597491 2385:0.25864011 2386:0.29431394 2387:-0.029597491 2388:-0.0025806213 2389:-0.038793921 2390:0.36040154 2391:0.33783349 2392:0.047006905 2393:0.69891191 2394:-0.086491205 2395:0.24064991 2396:-0.096724711 2399:-0.13529716 2400:0.016342815 2402:0.025229564 2403:0.32987556 2404:0.1106929 2407:0.092375703 2408:0.059727959 2409:0.059727959 2410:0.46828002 2411:0.65126646 2412:0.1481503 2413:0.1481503 2414:0.1481503 2415:0.30126891 2416:0.48501554 2417:0.1481503 2418:0.16822642 2419:0.21807463 2420:0.1481503 2421:0.39949852 2422:0.067933053 2423:0.067933053 2424:-0.10976411 2425:0.18386425 2426:0.21592796 2427:-0.25732487 2428:0.29707262 2429:0.20914645 2430:0.056339022 2431:0.067933053 2432:0.31970641 2433:0.067933053 2434:0.34010279 2435:0.067933053 2436:-0.032700911 2437:0.067933053 2438:0.46417704 2439:-0.16278106 2440:0.27892694 2441:-0.030230099 2442:0.078322366 2443:-0.24587047 2444:-0.55972594 2445:0.16875428 2446:0.017432746 2447:0.052331783 2448:0.21736269 2449:-0.21293969 2450:0.024750965 2451:0.37658119 2452:-0.20849296 2453:-0.2627739 2454:-0.2627739 2455:-0.15549129 2456:-0.24067113 2457:0.10773628 2458:0.021193188 2459:0.021193188 2460:-0.22682615 2461:-0.044736382 2462:-0.051139534 2463:0.10857551 2464:0.021193188 2465:0.22329845 2466:0.35400975 2467:0.02308552 2468:0.40828896 2469:0.021193188 2470:0.021193188 2471:0.023573481 2472:0.028612457 2473:0.077793747 2474:0.33711478 2475:-0.2417316 2476:0.15854035 2477:0.064353354 2478:0.034913253 2479:-0.18701334 2480:0.028612457 2481:0.22844134 2482:0.034346987 2483:0.3017801 2484:0.19084767 2485:0.028612457 2486:0.40165019 2487:-0.027966559 2488:0.028612457 2489:0.18752362 2490:-0.15785803 2491:-0.4713487 2492:-0.4713487 2493:-0.3026782 2494:0.066542156 2495:-0.0029915879 2496:-0.17638837 2497:0.15263739 2498:0.46199483 2499:0.053845219 2500:-0.06269335 2501:-0.019586531 2502:-0.0029915879 2503:0.32095999 2504:0.15664786 2505:0.40291423 2506:0.36467323 2507:-0.1889035 2508:-0.093982965 2509:-0.38532442 2510:-0.14319845 2511:-0.10343965 2512:0.27221742 2513:-0.1780802 2514:-0.14001977 2515:-0.12984037 2516:-0.1780802 2517:0.41793534 2518:-0.18283403 2519:-0.061763022 2520:-0.061763022 2521:-0.26374915 2522:-0.031740088 2523:-0.11341617 2524:0.046203848 2525:-0.056101244 2526:-0.030136233 2527:-0.056101244 2528:-0.056101244 2529:-0.056101244 2530:0.18565437 2531:0.097474054 2532:0.18565437 2533:-0.061918214 2534:-0.14305346 2535:-0.27010393 2536:-0.061918214 2538:-0.031406704 2540:0.50448483 2541:0.087952211 2542:-0.027801873 2543:-0.27766669 2544:0.00418243 2545:0.019186884 2547:0.24125713 2548:-0.079653494 2549:-0.1112927 2551:-0.04508939 2552:-0.04508939 2553:0.074984401 2554:-0.017572761 2555:-0.12015008 2556:0.28891954 2557:-0.04508939 2558:0.036545258 2559:0.13292095 2560:0.13292095 2561:-0.1594032 2562:-0.17723978 2563:-0.69061923 2564:-0.17723978 2565:-0.17723978 2566:-0.14328316 2567:-0.24921131 2568:-0.11151615 2569:-0.091866419 2570:-0.68226206 2571:0.17686491 2572:-0.22539575 2573:-0.16273406 2574:0.55905551 2575:0.51298338 2576:0.16377993 2577:-0.10640725 2578:0.037331108 2579:0.037331108 2580:0.29836094 2581:-0.272075 2582:-0.22195528 2583:-0.38509899 2584:0.061063118 2585:-0.19741675 2586:0.2260589 2587:0.052567463 2588:0.34709424 2589:0.28857061 2590:0.005106322 2591:0.20902631 2592:-0.24930944 2593:0.20902631 2594:0.3141534 2595:-0.32674465 2596:-0.32674465 2597:-0.32674465 2598:-0.14511116 2599:0.26880965 2600:0.23455419 2601:0.21039295 2602:-0.096476346 2603:0.23770443 2604:0.00047794002 2605:-0.019554358 2606:-0.07236848 2607:0.085118152 2608:0.15534596 2609:-0.065214843 2610:-0.20426205 2611:0.14498043 2612:0.14498043 2613:0.14498043 2614:0.14498043 2615:-0.1374574 2616:-0.098713785 2617:0.14498043 2618:0.039237678 2619:0.29870355 2620:-0.00097253238 2621:-0.05892352 2622:0.070900053 2623:0.070900053 2624:0.27406901 2625:0.41389304 2626:0.41389304 2627:-0.0045827497 2628:-0.17999041 2629:-0.057715047 2630:-0.0045827497 2631:-0.40259039 2632:-0.0045827497 2633:0.15506057 2634:-0.094012469 2635:0.27154496 2636:-0.16582182 2637:-0.10408945 2642:0.31457132 2643:0.062421143 2644:-0.091791257 2645:-0.26069406 2646:-0.15662883 2647:-0.23261416 2648:-0.20512329 2649:-0.24833594 2650:-0.3564361 2651:0.15107279 2652:0.13517296 2653:0.072913565 2654:-0.13733247 2655:0.43031693 2656:0.15107279 2657:0.0633258 2658:0.15107279 2659:-0.012359887 2660:0.10836693 2661:0.0061469302 2662:-0.0058974903 2663:-0.047997508 2664:-0.047997508 2665:-0.056991547 2666:-0.031549796 2667:0.54845488 2668:-0.12928991 2669:-0.12678845 2670:-0.13989541 2671:0.28364196 2672:-0.080572642 2673:0.40659165 2674:0.50196457 2675:0.28364196 2676:0.12697999 2677:0.28364196 2678:0.092574239 2679:-0.17828882 2680:0.092574239 2681:0.070336565 2682:0.32126465 2683:0.036132574 2684:-0.07133092 2685:0.29289699 2686:-0.05058552 2687:-0.049816947 2688:0.39473066 2689:0.030502852 2690:0.10140457 2691:0.10140457 2692:-0.15201692 2693:-0.54360765 2694:-0.069885328 2695:-0.19313236 2696:-0.15201692 2697:0.52843958 2698:-0.24059087 2699:-0.32921749 2700:0.1813302 2701:-0.58132339 2702:0.60856074 2703:0.031313233 2704:0.022253379 2705:0.10629136 2706:0.031313233 2707:0.082734078 2708:-0.22182992 2709:-0.11661478 2710:-0.092534639 2711:-0.4460941 2712:0.15274072 2713:-0.020333556 2714:-0.14885151 2715:0.011656086 2716:-0.16706893 2717:-0.060087092 2718:0.062857524 2719:0.23260018 2720:0.011656086 2722:0.2988041 2723:0.32385778 2725:0.35083485 2726:0.5465948 2727:0.23262306 2728:-0.058001451 2731:0.37853584 2732:0.23827632 2733:0.36902857 2734:-0.064622678 2735:-0.064622678 2736:0.5499869 2739:-0.48808095 2740:-0.30504939 2741:-0.14862713 2742:-0.39813268 2743:0.3493447 2744:-0.10250929 2745:-0.069089934 2746:-0.15411036 2747:0.34065863 2748:-0.57116044 2749:-0.057347402 2750:0.13731742 2751:0.12218176 2752:0.17421815 2753:0.17354433 2754:-0.5224402 2755:-0.2978358 2756:0.021309465 2757:-0.17924277 2758:0.42321467 2759:0.64020604 2760:0.1106929 2761:0.39071688 2762:0.34145808 2763:0.40275714 2764:0.59049666 2765:-0.3797209 2766:0.018723544 2767:0.32380846 2768:0.29888296 2769:0.35405794 2770:0.50494707 2771:0.50494707 2773:0.029300867 2774:0.74657118 2775:-0.060153794 2776:-0.060153794 2777:-0.060153794 2778:-0.23486196 2779:-0.065430954 2782:0.23687586 2784:-0.04857536 2785:-0.078490742 2786:-0.16410026 2787:-0.04857536 2788:-0.11718363 2789:-0.11718363 2790:0.11948506 2791:0.2005568 2792:0.11948506 2793:0.11948506 2794:0.11948506 2795:0.22278263 2796:0.11948506 2797:0.30956405 2798:-0.043526798 2799:0.41089201 2800:0.058257516 2801:0.19240738 2802:0.11443291 2803:0.21981405 2804:0.31806207 2805:0.096826926 2806:0.096826926 2807:-0.11607888 2808:-0.39280468 2809:-0.038945451 2810:0.060984332 2811:-0.12055762 2812:0.045245502 2813:-0.29705694 2814:0.18332264 2815:0.66257107 2816:-0.1324887 2817:0.45802224 2818:0.12155861 2819:0.20024894 2820:0.21729355 2821:0.10864677 2822:0.022747759 2823:-0.18888418 2824:0.088056922 2825:-0.01227075 2826:-0.01227075 2827:0.018351417 2828:0.18155125 2829:-0.23591983 2830:-0.01227075 2831:-0.01227075 2832:-0.01227075 2833:-0.029667145 2834:-0.01227075 2835:0.055846613 2836:0.15748994 2837:-0.058921114 2838:-0.058921114 2839:-0.058921114 2840:0.077909872 2841:0.44425964 2842:0.12139925 2843:0.018191334 2844:0.36915827 2845:-0.017685933 2846:0.033431068 2847:0.19520813 2848:0.31721607 2849:0.25287974 2850:0.22786544 2851:-0.10115606 2852:0.090125524 2853:0.12855074 2854:0.38350999 2855:-0.26828444 2856:-0.10115606 2857:-0.024373125 2858:0.39232838 2859:-0.22810107 2860:-0.0061872969 2861:-0.045690924 2862:-0.1287757 2863:-0.037834726 2864:-0.15274398 2866:0.24357717 2867:0.34220213 2868:0.33621955 2869:0.14129274 2870:0.069994934 2871:0.33533156 2872:0.14129274 2873:0.2146295 2874:0.14129274 2875:0.24319834 2876:0.10393631 2877:0.13683099 2878:0.34801602 2879:0.22103976 2880:0.13683099 2881:0.13683099 2882:0.13683099 2883:0.13683099 2884:-0.090878814 2885:0.0021648263 2886:0.21347088 2887:0.2368031 2888:-0.040041614 2889:0.315126 2890:0.22969016 2891:0.29430711 2892:0.22969016 2893:-0.27030167 2894:-0.083435826 2895:-0.058744356 2896:-0.083435826 2897:-0.083435826 2898:-0.12728226 2899:-0.061316412 2900:0.022119414 2901:0.10164595 2902:0.24732307 2903:0.19646913 2904:0.27541006 2906:0.039838474 2907:0.48420358 2908:0.26115274 2909:-0.18470275 2910:-0.49566844 2911:-0.17943794 2912:-0.17765109 2913:0.28604162 2914:0.61549419 2915:0.30200121 2916:0.086471207 2917:-0.042602092 2918:-0.029221827 2919:-0.086627781 2920:0.10291267 2921:-0.028479986 2922:-1.4643664 2923:-0.021728745 2924:-0.066132665 2925:0.17534836 2926:0.0012684234 2927:-0.21366619 2928:-0.063950188 2929:0.18700892 2930:-0.066132665 2931:0.021706607 2932:-0.19576493 2933:-0.14209701 2934:0.27066174 2935:0.12835941 2936:0.27066174 2937:-0.12473188 2938:0.54132348 2939:0.084396236 2940:0.52870417 2941:-0.43563753 2943:0.0042519835 2944:0.10581846 2945:-0.12120678 2946:0.16339889 2947:-0.15202986 2948:0.3088969 2949:0.20431639 2950:0.3088969 2951:0.3088969 2952:-0.39704886 2953:-0.20162584 2954:-0.44644648 2955:0.17921819 2956:-0.20162584 2957:0.090702862 2958:-0.004308667 2959:-0.25078061 2960:-0.044581734 2961:-0.20162584 2962:-0.13652182 2963:-0.20162584 2964:-0.33198452 2965:0.059955955 2966:0.059955955 2967:-0.20162584 2968:0.51390946 2969:0.1593056 2970:-0.17365648 2971:-0.16757612 2972:-0.010701917 2973:0.22378474 2974:-0.010701917 2975:-0.29492792 2976:-0.35145468 2977:-0.22052252 2978:-0.045295313 2979:-0.045295313 2980:-0.045295313 2981:-0.26289085 2982:-0.10205493 2983:0.23137128 2984:-0.045295313 2985:0.14604296 2986:-0.60658556 2987:0.24329586 2988:-0.41549498 2989:-0.090928003 2990:-0.16709445 2991:0.038982779 2992:0.038982779 2993:-0.024338776 2994:0.089602552 2995:0.11577409 2996:0.11577409 2997:0.1266719 2998:-0.0045450893 2999:0.25602654 3000:0.042783659 3001:0.15167008 3002:-0.26899162 3003:-0.055222131 3005:-0.4501844 3006:0.39008638 3007:0.31618264 3008:0.18836881 3009:0.015980022 3010:0.040335946 3011:0.015980022 3012:0.28696793 3013:0.20607701 3014:0.015980022 3015:0.47936749 3016:0.23318852 3017:-0.75984156 3018:0.4589929 3019:-0.061918214 3020:-0.028137956 3021:0.10633054 3022:-0.20824726 3023:0.50854409 3024:0.17666836 3025:0.17666836 3026:-0.081048086 3027:0.053217549 3028:0.36262083 3029:-0.2934272 3030:-0.043514676 3031:0.14036773 3032:0.092265554 3033:-0.21846327 3034:-0.30809212 3035:0.21233082 3036:0.081066087 3037:0.57264757 3038:0.2208268 3039:0.15624027 3040:-0.37338415 3041:-0.33630762 3042:-0.33630762 3043:0.041448355 3044:0.25667748 3045:0.057787765 3046:-0.06145421 3047:0.084833764 3048:-0.030727105 3049:0.075722761 3050:-0.16220799 3051:-0.030727105 3052:0.18753874 3053:-0.1889426 3054:-0.10092698 3055:-0.004198839 3056:-0.20376949 3057:-0.13218068 3058:-0.1887597 3059:0.0168842 3060:-0.018989623 3061:-0.16388339 3062:-0.046049997 3063:-0.046049997 3065:0.20643483 3066:0.20643483 3067:0.20643483 3068:0.44435248 3069:-0.12115816 3070:-0.082402855 3071:-0.080920324 3072:-0.066715777 3073:0.1147707 3074:-0.45302704 3075:-0.21755007 3076:-0.15674631 3077:0.1042835 3078:0.12715535 3081:0.0062322002 3082:-0.28496754 3083:-0.46580404 3084:-0.092953548 3085:0.69903213 3086:-0.017155306 3087:0.18840812 3088:0.15278548 3089:-0.18482944 3090:-0.18482944 3091:-0.18482944 3092:-0.18482944 3093:-0.14439128 3094:-0.36825365 3095:-0.36727682 3096:-0.25963479 3097:-0.36380562 3098:-0.31465086 3099:-0.31546748 3100:-0.21079659 3101:-0.21079659 3102:-0.16522129 3103:-0.21079659 3104:-0.7673946 3105:-0.08183936 3106:0.10346887 3107:0.20106345 3108:-0.38055775 3109:-0.55762917 3110:-0.14460388 3115:0.296653 3117:-0.13531706 3118:0.49370822 3119:-0.12419113 3121:0.089714929 3124:-0.31362215 3127:0.036326233 3128:-0.25169057 3129:-0.25169057 3130:-0.25169057 3131:0.093506791 3132:-0.05605473 3133:0.30408138 3134:0.093506791 3135:0.45194662 3136:-0.0044975877 3137:0.24150802 3138:-0.036649745 3139:0.30942318 3140:0.21025896 3141:-0.036649745 3142:-0.092437163 3143:-0.034885198 3144:-0.036649745 3145:0.16578089 3146:-0.038423371 3147:-0.098235764 3148:0.18268846 3149:-0.036649745 3150:-0.036649745 3151:-0.13730408 3152:-0.11522278 3153:-0.064986482 3154:-0.064986482 3155:-0.11745583 3156:0.20357516 3157:-0.5029344 3158:-0.17539565 3159:0.16335469 3160:-0.19768807 3161:0.24406464 3162:0.31021345 3163:0.063088678 3164:0.31021345 3165:-0.27662912 3166:0.039667424 3167:0.31021345 3168:-0.1193656 3169:0.21021053 3170:0.20721206 3171:0.27156854 3172:-0.090252101 3173:-0.11531871 3174:0.19507995 3175:0.17509741 3176:-0.19981477 3177:-0.14269669 3178:-0.16040058 3179:-0.10382764 3180:-0.10382764 3181:-0.012574913 3182:-0.21293576 3183:0.31229267 3184:0.099401385 3185:0.099401385 3186:0.12296148 3187:0.099401385 3188:0.060512491 3189:-0.23075578 3190:-0.020210497 3191:-0.0069916095 3192:0.5562253 3193:0.030166153 3195:-0.048389073 3196:-0.19770159 3197:0.2760168 3198:-0.07207223 3199:0.31481254 3200:0.31481254 3201:0.83445036 3202:0.093348242 3203:0.16961965 3204:0.048154708 3205:0.048154708 3206:0.422526 3207:0.072199345 3208:-0.0935103 3209:-0.28072959 3210:-0.17393406 3211:0.22924863 3212:-0.32435006 3213:-0.053707365 3214:-0.14801835 3215:0.58112198 3216:-0.14801835 3217:-0.14801835 3218:-0.13566972 3219:-0.14801835 3220:-0.17593829 3221:0.075807117 3222:-0.22014765 3223:-0.2005814 3224:-0.13862592 3225:0.022028033 3226:-0.068621837 3227:0.75554019 3228:0.076860629 3229:-0.17922011 3230:-0.054139342 3231:-0.29386672 3232:-0.29386672 3233:-0.29386672 3234:-0.16101463 3235:0.45475963 3236:0.17420305 3237:0.26468018 3238:0.17420305 3239:0.12280273 3240:-0.26219717 3241:0.22520983 3242:0.098417453 3243:0.15778624 3244:0.0052634301 3245:0.096653081 3246:-0.021510661 3247:0.19057345 3248:0.20882739 3249:0.20882739 3250:0.097285576 3251:0.047357459 3253:-0.044349439 3254:-0.044349439 3255:-0.099637337 3256:-0.044349439 3257:-0.044349439 3258:-0.044349439 3259:-0.044349439 3260:-0.10352462 3261:0.30601907 3262:0.15880817 3263:-0.044349439 3264:0.021135267 3265:0.098853819 3266:-0.044349439 3267:-0.27508083 3268:0.16964149 3269:-0.17574938 3270:-0.044349439 3271:-0.044349439 3272:-0.16747566 3273:-0.28154489 3274:-0.044349439 3275:-0.26193056 3276:-0.10455227 3277:0.056169745 3278:0.04396173 3279:-0.32631955 3280:0.18951997 3281:0.72099859 3282:-0.019928537 3283:-0.019928537 3284:-0.11441182 3285:-0.11441182 3286:0.071852356 3287:0.013257515 3288:0.62838268 3289:-0.099919446 3291:0.078132696 3292:-0.24432212 3295:0.32775348 3296:0.035657354 3297:0.10828174 3298:-0.31990349 3299:0.48912829 3300:-0.023407068 3301:-0.077502966 3302:-0.15275566 3303:0.046570092 3304:0.35311535 3305:0.22056431 3306:0.14158125 3307:0.19917898 3309:-0.22120383 3310:-0.12968926 3311:0.31030464 3312:-0.12533566 3314:-0.24280168 3315:-0.28304026 3316:-0.21838127 3317:-0.20117807 3318:-0.1753137 3319:-0.20117807 3320:-0.20117807 3321:-0.20117807 3322:-0.047427863 3323:-0.20117807 3324:-0.54993963 3325:-0.058976356 3326:0.31884751 3327:-0.10841093 3328:-0.23120639 3329:-0.20117807 3330:0.34040746 3331:0.10508882 3332:0.16850705 3333:0.382002 3334:0.16850705 3335:-0.052882347 3336:-0.027696369 3337:0.25887859 3338:0.30322373 3339:0.095276527 3340:0.080978334 3341:0.080978334 3342:0.01630424 3343:0.01630424 3344:0.43178147 3345:-0.046677154 3346:0.15710971 3347:0.23798883 3348:-0.20989183 3349:0.39189553 3350:0.053011924 3351:0.0054924134 3352:-0.054534428 3353:0.059899401 3354:0.15011491 3355:-0.20752598 3356:0.17403138 3357:-0.04005317 3358:0.32251239 3359:-0.47735861 3360:0.25365436 3361:-0.0505291 3362:0.093753614 3363:0.008975435 3364:0.093753614 3365:0.093753614 3366:0.027891677 3367:0.15794539 3368:0.093753614 3369:0.099076696 3370:0.099076696 3371:0.023346992 3372:0.023346992 3373:0.023346992 3374:0.014639386 3375:0.023346992 3376:0.023346992 3377:0.44994825 3378:0.023346992 3379:0.090669952 3380:0.0059855338 3381:-0.070328005 3382:0.095147669 3383:0.0023817543 3384:-0.28498533 3385:-0.11831085 3386:-0.02211307 3387:0.07489825 3388:-0.14959097 3389:0.062793724 3390:0.0757498 3391:-0.006538922 3392:0.09377218 3393:-0.0081089009 3395:-0.1559491 3396:-0.21279931 3397:-0.047963016 3398:0.13346352 3400:-0.30174196 3401:-0.18757276 3402:-0.0091277193 3403:-0.081099488 3404:0.33712059 3405:-0.10700751 3407:0.18273319 3408:-0.21868026 3411:-0.14868653 3412:0.36402717 3413:0.23999873 3414:0.0042519835 3415:0.11292608 3416:-0.39311391 3417:0.18997383 3418:0.18997383 3419:0.37601078 3420:-0.071709216 3421:0.43295562 3422:-0.32813254 3423:0.21000166 3424:0.21002229 3425:0.21000166 3426:0.26655582 3427:0.35153109 3428:0.35153109 3429:0.11755366 3430:0.35153109 3431:-0.060686532 3432:0.42829755 3433:-0.15423226 3434:0.21485798 3435:0.14847966 3438:0.0069067543 3439:0.2713435 3440:0.29893446 3441:0.41547725 3442:0.24006958 3443:-0.030978277 3444:-0.42946056 3445:-0.097539775 3446:0.0065955524 3447:-0.12812343 3448:0.17519756 3449:0.15189657 3450:0.15189657 3451:-0.13178287 3452:0.14180103 3453:0.14180103 3454:0.064468645 3455:0.29715088 3456:-0.028586965 3457:0.14180103 3458:-0.064340502 3459:-0.064340502 3460:-0.21736392 3461:-0.064340502 3462:-0.29673141 3463:-0.028001457 3464:-0.22246771 3465:-0.089151248 3466:0.069350593 3467:-0.37205407 3468:-0.089151248 3469:-0.089151248 3470:-0.13050841 3471:-0.089151248 3472:0.53198004 3473:0.094546601 3474:0.16132227 3475:-0.056579016 3476:0.16445613 3477:0.10110055 3478:0.051862366 3479:0.10110055 3480:-0.092687659 3481:-0.01325034 3482:-0.081438519 3483:0.27698889 3484:0.019186884 3485:0.019186884 3486:0.019186884 3487:0.015813012 3488:0.019186884 3489:-0.020430204 3490:0.023104522 3491:0.019186884 3492:0.16400892 3493:-0.22313647 3494:-0.24214838 3495:-0.31134975 3496:-0.046960428 3497:0.17025705 3498:-0.84670764 3499:-0.0021686794 3500:0.11977638 3501:-0.10445776 3502:-0.13188855 3503:-0.10445776 3504:0.098661512 3505:-0.10445776 3506:-0.22337098 3507:-0.10445776 3508:-0.3552075 3510:0.29494384 3511:-0.23021978 3512:-0.028233191 3513:0.085153647 3514:0.23142208 3515:0.14236946 3516:0.23142208 3517:0.23142208 3518:0.326015 3519:0.22934829 3520:0.088243268 3521:0.29875189 3522:0.29875189 3523:0.39455837 3524:0.062767133 3525:0.062767133 3526:0.062767133 3527:0.32433283 3528:-0.11910667 3529:0.34573427 3530:0.23974575 3531:0.28924581 3532:0.24774666 3533:0.095483288 3534:0.027745197 3535:-0.054623421 3536:-0.054623421 3537:-0.054623421 3538:-0.054623421 3539:-0.054623421 3540:-0.054623421 3541:0.0090192361 3542:-0.08582411 3543:0.0010834681 3544:-0.08582411 3545:0.18954095 3546:0.17085786 3547:0.20966779 3548:0.15130945 3549:0.34197667 3550:0.16760892 3551:0.044174761 3552:-0.035089601 3553:0.020749373 3554:-0.0086227255 3555:0.40923277 3556:0.14447373 3557:-0.0086227255 3558:-0.027348844 3559:-0.0086227255 3560:-0.061204713 3561:0.22637768 3562:-0.31359172 3563:-0.24907427 3564:0.2327946 3565:-0.026058864 3566:-0.14545259 3567:0.19559696 3568:0.33342221 3569:0.37262884 3570:0.37262884 3571:0.63563007 3572:0.47603583 3573:-0.17483383 3574:-0.21202224 3575:-0.32239768 3576:-0.057464171 3577:-0.13054553 3578:-0.083260737 3579:-0.39853862 3580:-0.12066753 3583:0.14043504 3584:0.49852219 3585:0.65996456 3586:0.0054457607 3587:-0.22230484 3588:-0.31590059 3589:-0.033918556 3590:0.13320984 3591:0.13320984 3592:0.13320984 3593:0.13320984 3594:0.13320984 3595:-0.061633419 3596:0.16377206 3597:0.13320984 3598:0.014271579 3599:0.11521299 3600:-0.099207796 3601:-0.21786208 3602:-0.21786208 3603:-0.19425726 3604:0.49172693 3605:-0.27242053 3606:-0.27242053 3608:-0.22229674 3609:0.65043139 3610:-0.08425115 3611:-0.22852495 3612:0.11006007 3613:0.038812812 3614:0.078667484 3615:0.31940603 3616:0.12939541 3617:0.12982199 3618:0.12982199 3619:0.12982199 3620:-0.19746305 3621:-0.056118954 3622:-0.10223348 3623:0.12982199 3624:-0.25481528 3625:-0.10995724 3626:-0.18557133 3627:0.87746584 3628:0.18565193 3629:0.062091559 3630:0.15092775 3631:0.15092775 3632:0.090477109 3633:0.14744022 3634:0.090477109 3635:0.15507406 3636:0.090477109 3637:-0.02464159 3638:0.30933967 3639:0.4490751 3640:0.06332133 3641:0.06332133 3642:0.028065087 3643:0.06332133 3644:0.18980113 3645:0.0077521564 3646:-0.38802627 3647:0.15481813 3648:0.32717997 3649:0.22384103 3650:-0.066770203 3651:0.23063776 3652:-0.10626149 3653:-0.11201598 3654:-0.094738789 3655:-0.094738789 3656:-0.20593846 3657:0.047813945 3658:-0.3654322 3659:-0.12861034 3660:0.22577938 3661:0.11288969 3662:0.11288969 3663:0.11288969 3664:0.11288969 3665:-0.140301 3666:-0.33728266 3667:-0.10696045 3668:0.22675031 3670:0.69065726 3671:0.23308682 3672:0.24093409 3673:-0.075312309 3674:-0.067639843 3675:-0.19978741 3676:0.0052522384 3677:-0.067639843 3678:-0.067639843 3679:-0.15889765 3680:-0.067639843 3681:-0.37097481 3682:-0.12011337 3683:-0.067639843 3684:-0.067639843 3685:-0.067639843 3686:0.014367853 3687:-0.12826322 3688:0.42563388 3689:0.08690758 3690:0.10177128 3691:0.08690758 3692:-0.2518366 3693:-0.2518366 3694:0.062577851 3695:-0.2518366 3696:-0.2518366 3697:0.14248121 3698:-0.49918827 3699:0.13359398 3700:-0.28457767 3701:-0.18270542 3702:0.13491601 3703:-0.18270542 3704:-0.18270542 3705:-0.18270542 3706:-0.061793666 3707:0.14364921 3708:-0.061793666 3709:0.3058154 3710:0.0065286597 3711:0.0065286597 3712:0.030668741 3713:0.22094342 3714:0.0065286597 3715:0.0065286597 3716:-0.15009739 3717:0.0065286597 3718:0.0065286597 3719:0.22572652 3720:0.23473316 3721:0.059672024 3722:0.059672024 3723:-0.14195932 3724:0.3588427 3725:-0.10040416 3726:0.56181967 3727:0.15395263 3728:-0.10040416 3729:-0.030306878 3730:-0.10040416 3731:-0.10040416 3732:-0.10772385 3733:-0.10772385 3734:-0.10772385 3735:-0.3389163 3736:-0.18496233 3737:-0.0083283233 3738:0.43398404 3739:0.3672654 3740:0.17036313 3741:0.17036313 3742:0.17036313 3743:0.17036313 3744:-0.4698354 3745:0.17036313 3746:-0.035606805 3747:0.17036313 3748:0.17036313 3749:0.23391967 3750:0.16410607 3751:0.17036313 3752:0.12768035 3753:-0.13133715 3754:-0.054071516 3755:-0.17839189 3756:-0.1395414 3757:-0.048102707 3758:-0.048102707 3762:-0.079083115 3764:-0.24901012 3766:0.054380015 3771:-0.13479072 3772:0.22578768 3773:0.082068481 3774:-0.18411025 3775:-0.13115849 3776:-0.20599659 3777:-0.13415043 3778:-0.18411025 3779:0.067495719 3780:-0.19154932 3781:-0.19154932 3782:-0.23532411 3783:-0.13339774 3784:-0.19154932 3787:0.10240026 3789:0.081921242 3790:0.06639839 3791:-0.18642078 3792:-0.20288458 3793:-0.25814736 3794:-0.15302545 3795:0.61371541 3796:-0.076512724 3797:0.30390212 3798:0.28171977 3799:0.44992909 3802:0.04210002 3803:0.04210002 3804:-0.46549124 3805:-0.42889494 3806:0.04210002 3807:0.04210002 3808:-0.056328863 3809:0.04210002 3810:0.08420004 3811:0.04210002 3812:0.22360671 3813:0.04210002 3814:-0.054204043 3815:-0.054204043 3816:0.62087524 3817:0.03164953 3818:-0.047513675 3819:0.012897777 3820:0.81510252 3821:-0.21895826 3822:-0.38044816 3823:-0.47863278 3824:0.0615183 3825:0.11730015 3826:0.19296604 3827:0.18724935 3828:0.034985982 3829:0.016445978 3830:0.18724935 3831:-0.039611172 3832:0.075894356 3833:0.17192611 3834:0.22469904 3835:-0.07086245 3836:-0.26844132 3837:-0.07086245 3838:0.016899349 3839:-0.06464386 3840:0.58154315 3841:0.26272246 3842:0.27151701 3843:0.38185164 3844:-0.28155085 3845:0.077820197 3846:0.085639507 3848:0.23831157 3851:-0.025034031 3853:-0.051918354 3858:-0.24858376 3859:0.13015637 3861:0.12083852 3864:-0.26057673 3867:0.080213219 3868:0.2701982 3869:0.088765062 3870:0.088765062 3871:-0.027014581 3872:-0.027014581 3873:0.44547823 3874:-0.085294627 3875:-0.027014581 3876:0.25295004 3877:-0.1922217 3878:0.15809768 3879:-0.069527775 3880:0.3524296 3881:0.039357893 3882:0.045458127 3883:-0.050482817 3884:-0.23782012 3885:0.093068294 3886:0.11201267 3887:-0.050482817 3888:-0.050482817 3889:-0.050482817 3890:-0.050482817 3891:0.083819687 3892:-0.050482817 3893:0.077275723 3894:0.28109989 3895:-0.026153559 3896:0.015656767 3897:-0.11210366 3898:-0.11210366 3899:0.039580762 3900:0.024120955 3901:0.024120955 3902:-0.047444239 3903:0.34701359 3904:0.43357944 3905:0.23960721 3906:-0.067455053 3907:-0.26502666 3908:-0.080339864 3909:-0.067455053 3910:-0.067455053 3911:-0.067455053 3912:-0.067455053 3913:-0.18478146 3914:-0.058147795 3915:-0.27223361 3916:0.2231869 3917:-0.058147795 3918:-0.03161953 3919:0.23423597 3920:-0.068247743 3921:-0.16375691 3922:0.29171741 3923:0.33439949 3924:0.28037384 3925:-0.33568457 3926:-0.05534948 3927:-0.18024045 3928:0.27526414 3929:-0.18709101 3930:-0.20828392 3931:0.16162881 3933:-0.35000682 3934:-0.34135526 3935:-0.34079501 3936:-0.3004134 3937:0.087616749 3938:0.20620224 3939:-0.24640691 3940:-0.45068213 3941:-0.23413584 3942:0.01784846 3943:0.097059056 3944:0.12224258 3945:0.23855641 3947:-0.021987131 3949:-0.10480057 3950:-0.17627068 3951:0.52865177 3952:-0.10129955 3953:-0.15725154 3954:-0.15249516 3955:-0.14630684 3956:0.15322646 3957:-0.036612209 3958:-0.25475442 3959:-0.21858631 3960:-0.32188389 3961:-0.32188389 3962:-0.32188389 3963:0.13805966 3964:0.46898589 3965:-0.25614053 3966:-0.13952279 3967:-0.24764867 3968:-0.22535859 3969:-0.1710145 3970:-0.1528901 3971:-0.36736888 3972:-0.050289892 3973:0.15891115 3974:0.078951254 3975:0.12460242 3976:-0.052621935 3977:0.12460242 3978:0.12460242 3979:-0.14150918 3980:-0.10011397 3981:-0.14150918 3982:-0.14150918 3983:-0.24204297 3984:0.35747659 3985:0.35657519 3986:-0.31723088 3987:-0.38252708 3988:0.43776214 3989:-0.13975416 3990:-0.23642763 3991:0.1003111 3992:0.1003111 3993:0.11030551 3994:0.14799498 3995:-0.060460303 3996:-0.27096894 3997:-0.060460303 3998:0.0016048538 3999:0.0016048538 4000:0.12966993 4001:-0.086008787 4002:-0.23488443 4003:-0.44231668 4004:0.0073719947 4005:0.0026131587 4007:-0.014382625 4009:-0.0048422311 4010:0.29503062 4011:0.12402489 4012:-0.09243191 4013:-0.09243191 4014:0.34261435 4015:-0.053522032 4016:-0.08241047 4020:-0.052159369 4022:-0.1406379 4024:-0.065384626 4025:0.027263096 4026:0.18306644 4030:-0.13742545 4031:-0.24748966 4034:-0.090301745 4036:0.023454465 4037:-0.2819263 4038:0.0062747048 4039:0.15776457 4040:-0.203988 4041:-0.061823621 4042:0.030771967 4043:-0.17262197 4044:0.037064601 4045:-0.28184652 4046:0.070850298 4047:0.070039913 4048:-0.12064232 4049:-0.18246743 4050:0.3601591 4051:0.407581 4052:-0.028718548 4053:0.18562144 4054:0.077739432 4055:0.077739432 4056:-0.035118774 4057:-0.035118774 4058:-0.035118774 4059:-0.38254276 4060:-0.035118774 4061:-0.035118774 4062:-0.19707398 4063:-0.12195124 4064:-0.50315493 4065:-0.12195124 4066:-0.12195124 4067:-0.12195124 4068:-0.1351478 4069:-0.20606412 4070:-0.15192081 4071:0.52265042 4072:-0.33483016 4073:0.23188747 4074:0.52265042 4075:-0.14079052 4076:-0.10080732 4077:-0.027872959 4078:0.11727817 4079:-0.16623388 4080:-0.12667994 4081:-0.11857536 4082:0.41749108 4086:0.16513693 4088:0.11640037 4089:0.2997233 4090:0.3302868 4091:-0.14819779 4092:0.39648128 4093:-0.54452229 4094:-0.085460961 4095:-0.26508832 4096:-0.084890172 4097:0.23776013 4098:0.15797576 4099:-0.011199084 4100:0.088969141 4101:0.29281157 4102:0.28816578 4103:0.079162866 4104:0.079162866 4105:0.10684616 4106:0.13636369 4107:0.10684616 4108:0.18725327 4109:0.10684616 4110:0.10684616 4111:0.10684616 4112:0.10684616 4113:-0.10494944 4114:0.21764432 4115:-0.12487152 4116:-0.21559937 4117:-0.21036078 4118:-0.12487152 4119:0.030409314 4120:-0.20145361 4121:-0.22445017 4122:0.28817543 4123:-0.43047231 4124:-0.28399539 4125:-0.29099014 4126:-0.196244 4127:-0.196244 4128:-0.14749897 4129:-0.041524798 4130:-0.088332258 4131:0.0084061911 4132:0.28614753 4133:0.0084061911 4134:-0.14633015 4135:-0.43621531 4136:0.04668308 4137:-0.031989641 4138:0.027846426 4139:-0.11915693 4140:-0.1472453 4141:-0.066127799 4142:-0.10052467 4143:-0.032040395 4144:0.011235408 4145:-0.47956452 4146:-0.24097244 4147:-0.24097244 4148:-0.24097244 4149:0.15321389 4150:0.13015637 4151:0.13015637 4152:0.13227546 4153:-0.12083507 4154:0.13227546 4155:0.089672185 4156:0.054143317 4157:-0.23491208 4158:0.16683321 4159:0.27872691 4160:0.0040155705 4161:0.003936233 4162:0.003936233 4163:0.003936233 4164:0.003936233 4165:0.003936233 4166:0.065568708 4167:0.10253338 4168:0.10253338 4169:-0.47237271 4170:0.27300367 4171:0.31130227 4172:0.31130227 4173:-0.0095023829 4174:-0.41754448 4175:0.56340617 4176:-0.0095023829 4177:-0.33437759 4178:-0.0095023829 4179:0.23825744 4180:-0.065951474 4181:-0.065951474 4182:-0.089385964 4183:0.00098957412 4184:-0.35833156 4185:0.00098957412 4186:-0.11917259 4187:0.16633292 4188:-0.1334043 4189:-0.1334043 4190:-0.18749094 4191:0.037627574 4192:-0.45433193 4193:-0.1355726 4194:-0.1355726 4195:-0.1355726 4196:-0.1355726 4197:0.56714648 4199:0.35120815 4201:0.020220179 4202:-0.10259043 4203:-0.17213285 4204:-0.017598081 4205:-0.17213285 4206:-0.17213285 4207:0.052065149 4208:-0.10617428 4209:0.62209988 4210:0.035562769 4211:0.035562769 4212:0.035562769 4213:-0.081192225 4214:0.055430274 4215:0.055430274 4216:-0.0770033 4217:0.29180267 4218:0.055430274 4219:-0.083154455 4220:0.040302902 4221:-0.019510364 4222:0.22036591 4223:0.040302902 4224:-0.10480043 4225:-0.10480043 4226:0.04675987 4227:-0.10480043 4228:-0.10480043 4229:0.32722184 4230:-0.33641344 4231:-0.19105382 4232:-0.084461018 4233:-0.16692789 4234:-0.084461018 4235:0.040568028 4236:0.011492918 4237:0.22671621 4238:-0.018845696 4239:0.011492918 4240:-0.018845696 4241:0.049339995 4242:-0.018845696 4243:-0.49790943 4244:-0.12916708 4245:-0.047867086 4246:-0.055595785 4247:-0.055595785 4248:-0.055595785 4249:0.18150747 4250:-0.055595785 4251:-0.48665994 4252:-0.055595785 4253:-0.055595785 4254:-0.055595785 4255:-0.055595785 4256:-0.02831831 4257:-0.32021552 4258:0.029678473 4259:-0.039676715 4260:-0.044029638 4261:-0.17619312 4262:-0.056090526 4263:0.25159442 4264:0.21613275 4265:0.05720957 4266:0.05720957 4267:0.10576284 4268:0.30459234 4269:0.02125711 4270:-0.37180239 4271:-0.0026287118 4272:-0.25087476 4273:-0.36781311 4274:-0.015728628 4275:-0.015728628 4276:0.10821401 4277:0.18243244 4278:0.051107578 4279:0.10821401 4280:0.24916874 4281:-0.048362222 4282:-0.27538165 4283:-0.27538165 4284:0.26153582 4285:-0.58338475 4286:-0.18980995 4287:-0.18980995 4288:-0.18980995 4289:-0.35115713 4290:-0.18980995 4291:0.070077918 4292:-0.044574872 4293:-0.044574872 4294:-0.044574872 4295:-0.044574872 4296:-0.044574872 4297:-0.43730783 4298:-0.24043933 4299:0.16904663 4300:0.16823719 4301:0.16823719 4302:0.043730728 4303:0.043730728 4304:0.043730728 4305:0.061336547 4306:-0.10070733 4307:0.02685893 4308:-0.03927603 4309:-0.10605963 4310:0.044034865 4311:-0.017878165 4312:-0.03927603 4313:-0.03927603 4314:-0.03927603 4315:-0.03927603 4316:0.15426779 4317:0.16653645 4318:0.15426779 4319:0.051530946 4320:-0.14168087 4321:-0.27085221 4322:-0.14168087 4323:-0.13493554 4324:-0.19243941 4325:0.095088594 4326:-0.3632791 4327:-0.086318664 4328:-0.082168639 4329:-0.082168639 4330:-0.082168639 4331:0.23080648 4332:0.13892668 4333:0.22332135 4334:0.11198526 4335:0.11198526 4336:-0.16129655 4337:-0.014386599 4338:0.11198526 4339:0.14717017 4340:0.10813396 4341:0.025446177 4342:-0.033864774 4343:0.15234837 4344:0.35815296 4345:-0.044383228 4346:-0.28625393 4347:0.12670936 4348:0.014848471 4349:0.014848471 4350:-0.035451397 4351:-0.057555985 4352:-0.035451397 4353:-0.015767708 4354:0.034972839 4355:-0.22411799 4356:0.35485515 4357:0.26300398 4358:-0.10408945 4359:-0.088237561 4360:0.12819472 4361:0.12819472 4362:0.12819472 4363:0.80456215 4364:-0.43546909 4365:-0.078452423 4366:-0.078452423 4367:-0.078452423 4368:-0.16935921 4369:0.11821122 4370:-0.24906978 4371:-0.044294305 4372:0.20721559 4373:-0.044294305 4374:0.070182957 4375:-0.044294305 4376:-0.060870793 4377:-0.10410757 4378:-0.044294305 4379:-0.044294305 4380:-0.33184642 4381:-0.044294305 4382:-0.0057107741 4383:-0.11122692 4384:0.14552292 4385:0.24117732 4386:0.083509475 4387:-0.19703159 4388:0.29813427 4389:0.083509475 4390:0.016142825 4391:0.083509475 4392:-0.14154805 4394:0.29050472 4395:0.13612646 4397:-0.22079454 4398:-0.087460801 4399:-0.043809116 4400:-0.19549787 4401:-0.19549787 4402:0.019743562 4403:0.019743562 4404:0.019743562 4405:-0.018070482 4406:-0.32424489 4407:-0.42839468 4408:-0.32424489 4409:0.058621436 4410:0.12565985 4411:0.32641023 4412:0.051472336 4413:0.11424997 4414:0.051472336 4415:-0.16260476 4416:0.051472336 4417:-0.17153466 4418:-0.1005338 4419:-0.43054628 4420:-0.0025287727 4421:0.058880568 4422:0.4158287 4423:-0.087680601 4424:-0.16759911 4425:-0.087680601 4426:-0.16759911 4427:-0.1722424 4428:0.027918003 4429:0.027918003 4430:0.501149 4431:0.0084055876 4432:0.10910167 4433:-0.36585021 4434:-0.36585021 4435:0.27366105 4436:0.27366105 4437:-0.002325776 4438:-0.2140858 4439:0.15554158 4440:-0.31494784 4441:-0.060502104 4442:-0.086948335 4443:-0.0098799672 4444:0.06111826 4445:-0.0075101457 4446:-0.25987196 4447:-0.16477519 4448:-0.0098799672 4449:-0.01295927 4450:0.21137661 4451:-0.0098799672 4452:-0.0098799672 4453:-0.20089111 4454:0.30967462 4455:0.34998301 4456:-0.058114134 4457:0.11882661 4458:-0.1381515 4459:-0.31550169 4460:-0.048226703 4461:0.33998269 4462:0.14967406 4463:0.12124531 4464:0.20086966 4465:-0.28470245 4466:-0.25363493 4467:0.14459646 4468:0.24406599 4469:0.13490041 4470:0.27257046 4471:-0.086013012 4472:0.090121232 4473:0.090121232 4474:-0.15617922 4475:-0.099751517 4476:-0.20109658 4477:0.15067101 4478:0.15067101 4479:0.058892321 4480:0.060979392 4481:0.058892321 4482:0.058892321 4483:-0.021519307 4484:-0.22327402 4485:-0.2619544 4486:0.11536681 4487:-0.12173645 4488:-0.12173645 4489:-0.12173645 4490:-0.12173645 4491:-0.32455745 4492:-0.090649873 4493:-0.090649873 4494:-0.049957469 4495:0.041264407 4496:0.041264407 4497:0.041264407 4498:0.041264407 4499:-0.17170098 4500:-0.12654796 4501:0.17030098 4502:0.041264407 4503:0.16506507 4504:0.041264407 4505:0.041264407 4506:0.66031998 4507:-0.17519453 4508:0.020409212 4509:-0.12272713 4510:0.020409212 4511:0.15766653 4512:0.15766653 4513:-0.15538433 4514:0.15766653 4515:0.15766653 4516:-0.14672448 4517:0.14086322 4518:-0.031124784 4519:0.00015664355 4520:0.00015664355 4521:0.00015664355 4522:0.11864648 4523:0.11864648 4525:-0.092846036 4526:0.12063535 4527:-0.10992448 4528:0.1131475 4529:-0.022286808 4530:0.32640406 4531:0.11125652 4532:-0.16650225 4533:-0.030338613 4534:-0.35208514 4535:0.019041561 4536:-0.030338613 4537:0.016488768 4538:0.13629505 4539:-0.28223109 4540:-0.49828634 4541:-0.17606738 4542:-0.3509855 4543:0.42903057 4544:0.10698241 4545:0.091631405 4546:-0.068936415 4547:0.23876019 4548:0.18636777 4549:-0.1265095 4550:0.037862036 4551:0.046056103 4552:0.046056103 4553:0.076623455 4554:-0.12306757 4555:0.098530546 4556:-0.19721149 4557:-0.19721149 4558:-0.19721149 4559:-0.096661836 4560:0.083747685 4561:-0.2189609 4562:-0.02750757 4563:-0.24091536 4564:-0.074050128 4565:0.11936065 4566:-0.010479669 4567:0.062301714 4568:-0.02750757 4569:0.12844814 4570:-0.15132621 4571:-0.27241567 4572:-0.33373773 4573:0.3308863 4574:-0.15859324 4576:0.28293222 4577:-0.2338995 4579:-0.17823362 4580:0.46683824 4581:-0.082266219 4582:0.059665151 4583:0.059665151 4584:-0.041850571 4585:-0.076874733 4586:-0.046246458 4587:-0.092089914 4588:0.50468165 4589:-0.20759308 4590:0.059665151 4591:0.059665151 4592:0.059665151 4593:0.059665151 4594:-0.074261241 4595:-0.12601377 4596:0.057028558 4597:-0.038622681 4598:0.10418693 4599:-0.097189844 4600:0.022954591 4601:0.38905776 4602:0.37570393 4603:0.26197654 4604:-0.011727451 4605:0.10418693 4606:0.10418693 4607:0.15205565 4608:-0.10114415 4609:0.10418693 4610:0.10418693 4611:0.094538026 4612:-0.035649821 4613:-0.38236272 4614:-0.035649821 4615:-0.035649821 4616:-0.035649821 4617:-0.39458075 4618:-0.035649821 4619:0.093676604 4620:-0.024048567 4621:0.050130229 4622:0.027249239 4623:0.050130229 4624:-0.58076841 4625:0.050130229 4626:-0.0029276875 4627:-0.2207877 4628:-0.11588296 4629:-0.11588296 4630:-0.11588296 4631:0.022384806 4632:-0.028629415 4633:0.0052347351 4634:0.12281061 4635:-0.021830054 4636:0.19452684 4637:0.13449603 4638:0.19452684 4639:-0.030279297 4640:-0.12348596 4641:-0.043212656 4642:-0.12348596 4643:-0.043212656 4644:0.055355482 4645:-0.021151854 4646:-0.098189957 4647:-0.23720244 4648:-0.048501115 4649:-0.060340021 4652:0.037169807 4653:0.069349259 4654:-0.30639103 4655:0.040692408 4656:0.023137899 4657:-0.44572973 4658:0.42297491 4659:-0.28122348 4660:0.49644986 4661:0.44946235 4662:-0.087013431 4663:0.13215582 4664:0.21846285 4665:0.11864648 4666:0.039906152 4667:-0.19716214 4668:0.11480824 4669:0.063246429 4670:0.063246429 4671:0.063246429 4672:0.063246429 4673:-0.012017065 4674:-0.14702365 4675:-0.38143924 4676:0.15311339 4677:0.15311339 4678:0.043530513 4679:0.035280004 4680:-0.073624305 4681:-0.1576311 4682:-0.25520271 4683:-0.016944364 4684:0.0019186633 4685:0.096064419 4686:-0.025675721 4687:0.052020207 4688:-0.090727858 4689:0.020729482 4690:0.27464527 4691:0.1041598 4692:0.1041598 4693:-0.12066753 4694:-0.314105 4695:-0.36821264 4696:0.39771268 4697:-0.0074700885 4698:-0.089360699 4699:0.01098194 4700:-0.0074700885 4701:0.0079441927 4702:0.2552653 4703:-0.0074700885 4704:-0.014940177 4705:-0.17596301 4706:-0.12313934 4707:-0.081876352 4708:0.0031108533 4709:-0.014093979 4710:0.17954332 4711:0.22818078 4712:0.038826909 4713:0.038826909 4714:0.16614938 4715:0.12986659 4716:-0.32249632 4717:-0.44014075 4718:0.13319412 4719:0.13319412 4720:0.06087419 4721:0.13319412 4722:0.06957484 4723:0.012741838 4724:-0.032847703 4725:-0.032847703 4726:-0.032847703 4727:0.2353338 4728:-0.032847703 4729:0.070559308 4730:-0.032847703 4731:-0.20073771 4732:-0.036584049 4735:-0.085899018 4736:-0.036584049 4739:0.92333508 4740:-0.45168391 4741:0.49955639 4742:0.21436168 4743:-0.1883882 4744:-0.2112371 4745:0.13887601 4746:-0.21149251 4747:0.0069615119 4748:-0.21149251 4749:-0.012842897 4750:0.4766351 4751:0.1818516 4752:-0.012842897 4753:-0.012842897 4754:-0.36277965 4758:-0.16137131 4759:0.060561862 4760:-0.050236296 4761:-0.150333 4762:-0.150333 4763:-0.021006573 4764:-0.16623554 4765:0.20624644 4766:-0.14596087 4767:-0.1973141 4768:-0.1973141 4769:-0.23450142 4770:0.30557132 4771:0.30557132 4772:-0.047890466 4773:0.17400177 4774:-0.13401261 4775:-0.3646163 4776:0.007935768 4777:0.007935768 4778:0.007935768 4779:0.007935768 4780:0.18894106 4781:0.2738581 4782:-0.16341278 4783:0.39210358 4784:0.007935768 4785:0.007935768 4786:0.25637057 4787:0.026387796 4788:0.25637057 4789:-0.061070856 4790:0.1570441 4791:0.16419379 4792:0.14390367 4794:-0.058851045 4795:0.16449903 4796:-0.03716572 4797:-0.21232335 4798:0.027465742 4799:0.43996134 4800:0.12439739 4801:0.043938961 4802:-0.38972503 4803:0.013458476 4804:0.013458476 4805:0.013458476 4806:0.013458476 4807:-0.11958251 4808:0.077597268 4809:0.20014416 4810:0.077597268 4811:0.077597268 4812:-0.21851818 4813:-0.2880803 4814:0.13430251 4815:0.20807007 4816:0.13430251 4817:-0.21349776 4818:0.10111828 4819:-0.13927124 4820:-0.17195527 4821:-0.31792241 4822:-0.25066215 4823:-0.33123484 4824:-0.33123484 4825:0.094053313 4826:0.094053313 4827:0.094053313 4828:-0.092588261 4829:0.0050229016 4830:0.0050229016 4831:0.0050229016 4832:-0.046867542 4833:0.0050229016 4834:0.21246964 4835:0.0050229016 4836:0.4606429 4837:0.12041633 4838:0.0050229016 4839:0.0050229016 4840:-0.088198364 4841:0.0050229016 4842:-0.084507138 4843:-0.0040908456 4844:0.068090469 4845:0.068090469 4846:0.068090469 4847:0.068090469 4848:0.068090469 4849:0.0081525445 4850:0.032396033 4851:0.068090469 4852:-0.017844401 4853:0.14930056 4854:0.26815087 4855:0.10260906 4856:0.53153139 4857:0.2075513 4858:0.048435807 4859:0.030557247 4860:-0.62025714 4861:0.030557247 4862:-0.38903746 4863:0.030557247 4864:0.10751302 4865:0.030557247 4866:-0.23508923 4867:-0.23508923 4868:-0.23508923 4869:-0.23508923 4870:-0.089565791 4871:0.31360999 4872:0.088691458 4873:-0.10277406 4874:0.088716187 4875:-0.32017803 4876:-0.089565791 4877:0.058899481 4878:0.0012422814 4879:0.0012422814 4880:0.0012422814 4881:0.032950118 4882:0.67750603 4883:0.046519075 4884:0.046519075 4885:0.046519075 4886:-0.16197389 4887:0.046519075 4888:0.046519075 4889:0.071831085 4890:-0.0086292922 4891:-0.0086292922 4892:0.17378697 4893:-0.069006622 4894:-0.069006622 4895:0.17269821 4896:0.090936884 4897:0.090936884 4898:0.29993793 4899:-0.093431994 4900:0.073401913 4901:0.20743227 4902:0.15683775 4903:0.3481631 4904:-0.050878379 4905:-0.018641118 4906:0.3597081 4907:0.17787066 4908:0.40786022 4909:0.36404255 4910:0.072006486 4911:0.057142023 4912:0.20234975 4913:-0.080937251 4914:0.37886864 4915:0.057142023 4916:-0.012351385 4917:0.12478984 4918:0.28649679 4919:-0.15210775 4920:-0.2532495 4921:-0.2532495 4922:-0.097499311 4923:-0.2532495 4924:-0.36244386 4925:-0.16623554 4926:-0.0066617122 4927:-0.0066617122 4928:0.13486478 4929:0.13486478 4930:0.13486478 4931:0.33178088 4932:0.11319105 4933:0.14389718 4934:-0.059442632 4935:0.11319105 4936:0.11319105 4937:0.11319105 4938:0.082163289 4939:-0.058796901 4940:0.11319105 4941:0.24879763 4942:0.11319105 4943:0.48721993 4944:0.11319105 4945:0.13046944 4946:0.13046944 4947:0.13046944 4948:0.13046944 4949:0.13046944 4950:-0.13570477 4951:0.13046944 4952:0.32365453 4953:-0.31849694 4954:-0.14313634 4959:-0.06723091 4960:0.50065774 4961:-0.28765571 4963:0.14136323 4964:-0.29126826 4965:0.064798094 4966:0.16784556 4967:0.20122257 4968:0.03386775 4969:0.03386775 4970:0.067735501 4971:0.71984667 4972:0.03386775 4973:0.073586427 4974:0.03386775 4975:-0.048673168 4976:0.03386775 4977:-0.03228106 4978:-0.3370434 4979:0.13426648 4980:-0.11204616 4981:-0.24952987 4982:-0.12646444 4983:0.0012251534 4984:0.041835871 4985:-0.082456343 4986:0.0012251534 4987:-0.20928347 4988:0.0012251534 4989:0.24656658 4990:0.0012251534 4991:0.0012251534 4992:0.0012251534 4993:0.12168916 4994:0.0012251534 4995:0.0012251534 4996:0.38015723 4997:0.35922235 4998:0.27666661 4999:0.36123508 5002:-0.1413694 5004:-0.034914304 5005:0.10985164 5006:-0.022964388 5007:0.016522286 5008:-0.022964388 5009:0.0047207796 5010:-0.022964388 5011:0.047782104 5012:0.13780557 5013:-0.022964388 5014:-0.067639858 5015:-0.15757777 5016:-0.052450679 5017:-0.15757777 5018:0.17902218 5019:0.47429314 5020:0.24387531 5021:0.24387531 5022:0.14538121 5023:-0.088676348 5024:-0.034702677 5025:0.027016871 5026:0.1315956 5027:-0.35840484 5028:0.14924197 5029:0.027016871 5030:0.027016871 5031:0.027016871 5032:0.1600813 5033:-0.16074593 5034:-0.19334482 5035:-0.13285118 5036:-0.34729707 5037:0.065717705 5038:-0.28551906 5039:-0.22940232 5040:0.19646913 5041:0.16788469 5042:-0.25519276 5043:0.15977351 5044:0.20792651 5045:-0.29627749 5046:-0.29627749 5047:-0.29627749 5048:-0.29627749 5049:-0.04857536 5050:-0.04857536 5051:-0.04857536 5052:-0.04857536 5053:0.075601876 5054:0.06272801 5055:0.06272801 5056:0.12431124 5057:0.086654395 5058:0.029273685 5059:0.029273685 5060:0.32159591 5061:0.32159591 5062:0.16546616 5063:-0.1304877 5064:-0.064393319 5065:-0.064393319 5066:-0.41133282 5067:-0.21207179 5068:-0.18319371 5069:-0.33561319 5070:-0.17450382 5071:-0.34738886 5072:-0.21207179 5073:-0.21207179 5074:0.079974547 5075:0.34162179 5076:0.079974547 5077:0.079974547 5078:0.079974547 5079:-0.53331882 5080:-0.28108576 5081:0.1433945 5082:0.1662434 5083:0.1433945 5084:0.1433945 5085:0.2685163 5086:0.1433945 5087:0.1433945 5088:0.1433945 5089:0.28952342 5090:0.24865188 5091:-0.12415219 5092:0.014984439 5093:0.014984439 5094:-0.010932983 5095:0.16652268 5096:0.058329429 5097:-0.11569316 5098:0.16652268 5099:0.51413172 5100:0.16652268 5101:0.3305718 5102:0.25942689 5103:0.095620848 5104:0.095620848 5105:0.35971582 5106:0.095620848 5107:-0.021886336 5108:-0.021886336 5109:-0.021886336 5110:-0.10337084 5111:-0.021886336 5112:0.068981238 5113:0.27331561 5114:-0.0088253962 5115:-0.041357163 5116:0.043192286 5117:-0.07324747 5118:-0.016094025 5119:-0.016094025 5120:0.27882072 5121:-0.32398009 5122:0.73399758 5123:0.17408006 5124:0.17408006 5125:0.17408006 5126:-0.026393199 5127:-0.23757714 5129:-0.0042904653 5130:-0.14588676 5131:-0.23411009 5132:0.077461593 5133:0.58452415 5140:-0.21167798 5141:-0.29838246 5142:-0.41937396 5143:-0.04170097 5144:0.15835942 5145:0.66545916 5146:-0.011149171 5147:0.33977339 5148:0.12435067 5149:-0.029155912 5150:0.033825886 5151:0.033825886 5152:0.23347753 5153:0.23347753 5154:0.23347753 5155:0.0039200834 5156:0.0039200834 5160:0.1157847 5163:0.44826084 5167:0.62309062 5168:-0.032042537 5169:0.065058738 5170:-0.032042537 5171:-0.062408511 5172:0.057959631 5173:-0.17812283 5174:-0.054642357 5175:-0.08323919 5176:0.019319877 5177:0.0088700661 5178:0.063979708 5179:0.016393306 5180:0.11492024 5181:0.016393306 5182:0.016393306 5183:0.016393306 5184:0.016393306 5185:0.016393306 5186:0.094200149 5187:0.094200149 5188:0.094200149 5189:-0.1010951 5190:0.26037267 5191:0.094200149 5192:-0.12254995 5193:0.094200149 5194:0.011144722 5195:0.094200149 5196:0.39195335 5197:0.14332342 5198:0.035944793 5199:0.011211217 5200:0.25495794 5201:-0.13502483 5202:0.10299978 5204:0.079288416 5205:0.26723763 5210:-0.15537225 5211:-0.15537225 5212:0.028423112 5213:0.018075801 5214:0.34051394 5215:0.018075801 5216:0.018075801 5219:0.058293518 5220:0.042748991 5221:0.058293518 5222:0.29024276 5223:0.16723795 5224:0.16723795 5225:0.16723795 5226:0.041665841 5227:-0.065859579 5228:0.15024927 5229:0.024355924 5230:0.024355924 5231:-0.31667167 5232:0.024355924 5233:0.043049756 5234:0.035682559 5235:-0.017396394 5236:-0.083478868 5237:0.058427446 5238:0.1502279 5239:0.19766578 5240:0.077462293 5241:0.12283092 5242:0.13540533 5243:0.12046401 5244:0.12046401 5245:-0.072913967 5246:0.12046401 5247:0.12046401 5248:0.12046401 5249:0.12046401 5250:0.12046401 5251:0.12046401 5252:-0.12268253 5253:0.24018671 5254:-0.12268253 5255:-0.12268253 5256:0.65797812 5257:0.14768088 5258:0.579274 5259:-0.11795063 5260:0.2684589 5261:0.2684589 5262:0.55446196 5263:0.056287955 5264:0.30542928 5265:-0.19712171 5266:-0.087827623 5267:-0.087827623 5268:-0.087827623 5269:-0.0038553567 5270:-0.0038553567 5271:0.021813301 5272:0.12677792 5273:0.12677792 5274:0.12677792 5275:-0.21050863 5276:-0.19518071 5277:-0.24392332 5278:-0.12156683 5279:0.082405739 5280:0.14858079 5281:-0.23785055 5282:-0.31438041 5283:0.13314465 5284:-0.23785055 5285:-0.23785055 5286:-0.34896687 5287:-0.34896687 5288:-0.033207174 5289:0.067366645 5290:0.030928375 5291:0.030928375 5292:0.030928375 5293:-0.069580883 5294:0.030928375 5295:0.031813126 5296:0.040500954 5297:-0.29911169 5298:-0.055339027 5299:0.18534546 5300:0.19597548 5301:-0.44474337 5302:-0.030274777 5303:0.091795497 5304:-0.029799236 5305:-0.25197589 5306:0.082280815 5307:0.26691824 5308:0.23835735 5309:0.74669534 5315:0.042318605 5316:0.31445223 5319:-0.030347649 5320:0.047113944 5321:-0.030347649 5322:-0.030347649 5323:-0.066128954 5324:-0.33091849 5325:-0.058165841 5326:-0.062890857 5327:-0.2757585 5328:-0.2757585 5329:-0.11678925 5330:-0.18311326 5331:-0.2757585 5332:-0.43654418 5333:0.17984951 5334:0.17984951 5335:-0.16470931 5336:0.17984951 5337:0.17984951 5338:0.17984951 5339:0.10198484 5340:0.20396967 5341:0.10198484 5342:0.10198484 5343:0.10198484 5344:0.080903605 5345:-0.0088580912 5346:0.10198484 5347:-0.021472523 5348:0.10198484 5349:-0.10584741 5350:0.081186526 5351:0.081186526 5352:0.081186526 5353:0.31406492 5354:0.31406492 5355:-0.23858963 5356:0.098612882 5357:0.0017303088 5358:0.0017303088 5359:0.0017303088 5360:-0.47352394 5361:-0.20941047 5362:-0.10527011 5363:0.17825724 5364:0.044175599 5365:0.46931547 5366:0.24286851 5367:0.1561664 5368:-0.47419429 5369:-0.23726279 5370:-0.26889375 5371:-0.41307163 5372:-0.23726279 5373:0.071940087 5374:0.071940087 5376:0.085423559 5377:-0.10674158 5378:0.26292741 5379:0.011589532 5380:-0.10674158 5381:0.0109788 5382:0.20699173 5383:0.14658028 5384:0.2992658 5385:0.27494386 5386:0.060645409 5387:0.14658028 5388:0.14658028 5389:0.14658028 5390:0.17987971 5391:0.78602606 5392:0.11268099 5393:0.023727776 5394:-0.067251317 5395:0.06393934 5396:0.12428969 5397:0.12428969 5398:0.12155235 5399:0.12428969 5400:-0.047599763 5401:0.12428969 5402:0.12428969 5403:0.12428969 5404:-0.26774123 5405:0.12428969 5406:-0.19861098 5407:-0.29444009 5408:-0.25182316 5409:-0.25182316 5410:0.027104553 5411:-0.1420532 5412:0.0022301006 5413:0.0022301006 5414:0.11070414 5415:-0.1677237 5416:-0.16382346 5417:0.0022301006 5418:0.0022301006 5419:0.23437844 5420:0.0022301006 5421:0.0022301006 5422:0.0022301006 5423:0.20165302 5424:0.20165302 5425:-0.11861449 5426:-0.11861449 5427:-0.11861449 5428:-0.085855536 5429:-0.22061571 5430:-0.11861449 5431:-0.348391 5432:-0.11202503 5433:-0.11202503 5434:-0.53803879 5435:-0.22291884 5438:0.21199664 5439:-0.28115311 5440:0.02999126 5441:0.02999126 5442:0.02999126 5443:0.079047367 5444:0.02999126 5445:0.02999126 5446:0.02999126 5447:0.02999126 5448:0.02999126 5449:0.12965153 5450:0.02999126 5451:0.20299795 5452:0.26579687 5453:0.051881026 5456:-0.27124572 5457:-0.12474055 5458:0.13399111 5459:0.13399111 5460:0.13399111 5461:0.062019564 5462:0.083428152 5463:0.13399111 5464:-0.11084293 5465:0.073582858 5466:-0.11084293 5467:-0.11084293 5468:0.58933443 5469:0.31467277 5470:-0.15116698 5471:-0.3195124 5472:0.32601365 5473:-0.21077617 5474:0.11969162 5475:0.11969162 5476:0.210658 5477:0.11969162 5478:0.035224207 5479:0.18445994 5480:0.13439316 5481:0.10934789 5482:0.10934789 5483:0.10934789 5484:0.10934789 5485:0.10934789 5486:0.10934789 5487:0.10934789 5490:0.32321846 5491:0.33406845 5492:0.29656598 5493:-0.12637186 5494:0.15434715 5495:-0.42883065 5496:0.24597819 5497:0.13712618 5498:-0.065430954 5499:0.1730067 5500:0.071649857 5501:0.218582 5502:-0.1978648 5503:0.1730067 5504:-0.29124132 5506:-0.12433007 5507:0.25315264 5509:-0.22330852 5510:-0.1017999 5511:0.22797072 5512:0.17675599 5513:0.22797072 5514:0.14801082 5515:0.65574682 5516:0.22624044 5517:-0.16132644 5518:-0.38209292 5519:0.14836921 5520:0.1159312 5521:-0.0085884295 5522:0.2571876 5525:-0.36314881 5532:-0.31136861 5534:-0.017222805 5537:-0.053372063 5538:-0.053372063 5539:0.19187813 5540:0.19187813 5541:0.087168142 5542:0.087168142 5543:0.049919907 5544:0.087168142 5545:0.087168142 5546:0.087168142 5547:0.10694604 5548:0.39075813 5549:0.64768595 5550:0.30778122 5551:0.15850185 5552:0.15932697 5553:0.071020819 5554:-0.016934423 5555:0.098081678 5556:-0.022104587 5557:-0.022104587 5558:0.56018633 5559:-0.022104587 5560:-0.022803919 5561:-0.40936011 5562:0.050291888 5564:-0.16807969 5565:-0.16274984 5566:-0.30823213 5567:0.053210746 5568:-0.04440853 5569:-0.04440853 5570:-0.04440853 5571:-0.04440853 5572:-0.2339678 5573:-0.2339678 5574:-0.2339678 5575:-0.74031341 5576:-0.077556893 5577:-0.0076724594 5578:-0.27263954 5579:0.096530713 5580:-0.03447463 5581:-0.03447463 5582:-0.38139361 5583:-0.03447463 5584:-0.056697316 5585:0.059755392 5586:0.66231799 5587:0.19406065 5588:0.065779679 5590:-0.27278033 5591:-0.001964998 5592:-0.02138791 5593:-0.02138791 5594:0.11844267 5595:-0.022971062 5596:-0.022971062 5597:-0.022971062 5598:0.1821914 5599:0.045394573 5600:-0.15192573 5601:0.20610859 5610:-0.34339142 5611:-0.11468569 5612:-0.18115325 5613:-0.16331667 5614:-0.24803536 5615:-0.24803536 5616:-0.30004799 5617:0.051791932 5618:-0.19628216 5619:-0.068660349 5620:0.051791932 5621:-0.049974468 5622:0.17485736 5623:0.11133627 5624:0.54036736 5625:0.21853907 5626:-0.03806043 5627:-0.03806043 5628:-0.075263493 5629:0.194158 5630:-0.075263493 5631:-0.1862134 5632:0.17244625 5633:-0.075263493 5634:0.085925333 5635:0.34542248 5636:-0.13679683 5637:-0.12644953 5638:-0.13679683 5639:0.11277317 5640:0.15185797 5641:0.060926303 5642:0.13861009 5643:0.060926303 5644:0.060926303 5645:0.060926303 5646:0.10809144 5647:0.41053775 5648:-0.089146689 5649:0.41053775 5650:0.41053775 5651:-0.051905997 5652:0.28321931 5653:0.333289 5654:-0.051631905 5655:-0.13878898 5656:0.015852947 5657:-0.13594551 5658:-0.094657563 5659:-0.5193553 5660:-0.13594551 5661:-0.13594551 5662:-0.45802686 5663:-0.13594551 5664:-0.12044446 5665:0.15177773 5666:0.15177773 5667:0.15177773 5668:0.15177773 5669:0.15177773 5670:0.15177773 5671:0.092889041 5672:0.092889041 5673:0.092889041 5674:0.092889041 5675:0.10466224 5677:-0.19264221 5678:-0.12149867 5679:-0.12149867 5680:-0.12149867 5681:-0.066757336 5682:-0.066757336 5683:-0.17134854 5684:-0.028444037 5685:-0.17134854 5686:-0.059367742 5687:-0.17134854 5688:-0.17134854 5689:-0.19771661 5690:-0.19771661 5691:-0.19771661 5692:0.24802898 5693:-0.2711384 5694:0.24678729 5695:0.24722511 5696:0.33966145 5697:0.0045657163 5698:-0.11745983 5699:0.0045657163 5700:0.0045657163 5701:0.0045657163 5702:0.16418399 5703:0.20261924 5704:0.11111242 5706:-0.14335594 5708:-0.089777149 5709:-0.021723511 5710:-0.18134624 5711:-0.11667319 5712:0.05185594 5713:0.05185594 5714:-0.13752456 5715:-0.13752456 5716:-0.13752456 5717:0.01034731 5718:0.016999042 5719:-0.084213898 5720:0.074954413 5721:0.47726098 5722:0.032758947 5723:0.032758947 5724:-0.0057487828 5725:0.032758947 5726:0.032758947 5727:0.032758947 5728:0.31997898 5729:0.031809125 5730:0.032758947 5731:0.0070982357 5732:0.0070982357 5733:0.041006431 5734:0.0070982357 5735:-0.45467499 5736:-0.082971208 5737:0.056848079 5738:-0.082971208 5739:-0.082971208 5740:-0.21196203 5741:0.24878699 5742:0.0068465495 5743:0.24878699 5744:0.1656474 5745:0.24878699 5746:0.24878699 5747:0.49041045 5748:0.39270267 5749:0.090876542 5750:0.24878699 5751:0.24878699 5752:0.24878699 5753:0.052673243 5754:0.29476097 5755:-0.095961839 5756:0.089785852 5757:0.052673243 5758:0.052673243 5759:0.052673243 5760:0.052673243 5761:-0.0119123 5762:0.05406848 5763:0.047714885 5764:0.033959694 5765:0.17533155 5766:0.21569465 5767:-0.16704167 5768:0.17533155 5769:0.14260735 5770:0.39614505 5771:0.11252224 5772:0.016743029 5773:-0.26927662 5774:-0.26927662 5775:-0.26927662 5776:-0.20405574 5777:-0.26927662 5778:0.16576177 5784:-0.27108553 5785:-0.042378854 5786:0.13826531 5787:-0.015899817 5788:-0.015899817 5789:0.13538623 5790:0.05838776 5791:-0.015899817 5792:0.35216367 5793:0.26438966 5794:-0.13406886 5795:-0.26257807 5796:0.014435288 5797:0.0021682857 5798:0.13296242 5799:-0.30441278 5800:0.0021682857 5801:0.065104596 5802:0.0021682857 5803:0.0021682857 5804:0.0021682857 5805:-0.095367931 5806:-0.19307904 5807:-0.099108174 5808:-0.099108174 5809:0.043983232 5810:0.043983232 5811:-0.085007586 5812:-0.02711886 5813:0.043983232 5814:0.026760425 5815:0.0084737139 5816:-0.13014603 5817:-0.093911208 5818:0.22061133 5819:0.22061133 5820:-0.036974646 5821:0.024963036 5822:0.17023823 5823:0.16502234 5824:0.16502234 5825:0.059544336 5829:-0.4772597 5831:0.16797547 5832:0.16797547 5833:0.26070589 5834:0.075850621 5835:0.22611485 5836:-0.28381208 5837:-0.28381208 5838:-0.28381208 5839:-0.42624995 5840:0.14771017 5841:0.047961682 5842:0.039767615 5843:-0.013207436 5844:0.047961682 5845:0.047961682 5846:0.047961682 5847:-0.10127405 5848:0.047961682 5849:0.047961682 5850:0.047961682 5851:0.34329987 5852:0.44864628 5853:0.15876015 5854:0.23094238 5855:0.23094238 5856:0.39108175 5857:0.23094238 5858:0.17101409 5860:-0.34376901 5861:-0.3504948 5862:-0.3504948 5863:-0.24385707 5864:-0.020575713 5865:-0.29750752 5866:-0.0050311862 5867:0.10363106 5868:0.10363106 5869:0.10363106 5870:0.097362414 5871:0.10363106 5872:0.40136126 5873:0.40136126 5874:0.40136126 5876:0.26623085 5877:-0.53951937 5878:-0.34889942 5879:-0.34889942 5880:-0.45907018 5881:0.033299427 5882:-0.18655114 5883:-0.047482628 5884:-0.06432604 5885:-0.63054407 5886:-0.29440302 5887:0.26133847 5889:-0.028030759 5890:0.17226958 5891:0.055280134 5892:-0.12125203 5893:-0.031736158 5894:0.018438181 5895:-0.071544088 5897:0.039242964 5898:-0.3482756 5899:-0.31895149 5900:0.30825818 5901:0.30825818 5902:0.30825818 5903:0.30825818 5904:0.061465614 5905:0.30825818 5907:-0.1502503 5908:-0.29203606 5909:0.017468367 5910:0.27755794 5911:0.090470143 5912:0.07748235 5913:-0.046306517 5914:-0.16416506 5915:-0.21819296 5916:0.064252473 5917:0.22808246 5918:0.1843638 5919:0.1843638 5920:0.48683113 5921:-0.35055834 5922:-0.28600782 5923:-0.28600782 5924:-0.28600782 5925:-0.17201348 5926:-0.12100906 5927:-0.12100906 5928:0.08720275 5931:0.24411462 5932:0.1010933 5933:0.1010933 5934:0.1010933 5935:-0.01334512 5936:0.1010933 5937:0.12154634 5938:-0.185976 5939:-0.061856449 5940:-0.17588988 5941:0.04067678 5942:-0.03716572 5943:-0.03716572 5944:-0.26624063 5945:-0.26624063 5946:-0.11154812 5947:0.10985537 5948:0.14464118 5949:-0.087746978 5950:-0.11627813 5951:0.064449698 5952:0.095673598 5953:-0.087746978 5954:0.093184337 5955:-0.087746978 5957:-0.52786875 5958:0.079918504 5959:0.19801912 5960:0.079918504 5961:0.022330211 5962:0.085389152 5963:-0.15217835 5964:-0.15217835 5965:-0.18082452 5966:0.23322363 5967:0.1565875 5968:0.047421902 5969:0.047421902 5970:-0.041838307 5971:-0.041838307 5972:-0.041838307 5973:-0.041838307 5974:-0.1552535 5975:0.28111726 5976:-0.037620455 5977:0.03866813 5978:-0.037620455 5979:-0.037620455 5980:-0.037620455 5981:-0.037620455 5982:-0.333958 5983:-0.333958 5984:-0.333958 5985:-0.39199075 5986:-0.15738112 5987:-0.29470855 5988:-0.24073713 5989:-0.26433936 5990:-0.20802568 5991:-0.20802568 5992:-0.20802568 5993:0.23498061 5994:0.19277643 5995:0.089198053 5996:0.094532199 5997:-0.058211748 5998:-0.058211748 5999:-0.058211748 6000:-0.058211748 6001:-0.021349808 6002:0.11508604 6003:-0.11021791 6004:-0.1228556 6005:-0.0019273516 6006:-0.0019273516 6007:-0.1770748 6008:-0.26846406 6009:0.440727 6010:0.14886799 6011:0.047314957 6012:-0.01346927 6013:0.10339788 6014:-0.19227268 6015:-0.027848648 6016:-0.027848648 6017:0.32443538 6018:0.11169331 6019:0.072067037 6020:0.13105741 6021:0.3572472 6022:0.23310691 6023:0.097789861 6024:0.23310691 6025:0.05923637 6026:0.05923637 6027:-0.58533287 6028:-0.58533287 6029:0.38675499 6030:-0.1525106 6031:0.23300806 6032:0.16715106 6033:0.04832238 6034:0.068514243 6035:0.04832238 6036:-0.071248889 6037:0.16095573 6038:0.076023601 6039:0.06279888 6040:0.06279888 6041:0.06279888 6042:0.28611779 6043:0.022848908 6044:0.22761443 6045:0.35971415 6046:0.022848908 6047:-0.060321283 6048:0.052221008 6049:0.21228287 6050:-0.043774806 6051:-0.043774806 6052:-0.043774806 6053:0.18335386 6054:-0.043774806 6055:-0.37929896 6056:-0.043774806 6057:0.05858095 6058:0.00017159585 6059:-0.066577904 6060:-0.1201655 6061:0.0052561262 6062:0.1416181 6063:0.0052561262 6064:0.0052561262 6065:0.0053357235 6068:0.14288656 6069:-0.1085524 6070:-0.05899037 6071:-0.05899037 6072:0.038858503 6073:0.038858503 6074:0.038858503 6075:0.077717006 6076:0.0041355575 6077:0.038858503 6078:0.038858503 6079:-0.25559184 6080:-0.33143312 6081:0.18132804 6082:0.18214466 6083:0.18214466 6084:-0.2915428 6085:-0.08903043 6086:-0.08903043 6087:0.26365256 6088:-0.12883602 6089:-0.35292503 6090:-0.28719464 6091:-0.28719464 6092:-0.22981393 6093:-0.19424318 6094:-0.28719464 6095:-0.28719464 6097:-0.07757473 6101:0.073866963 6102:0.16496569 6103:0.28424379 6104:0.22703084 6105:0.16496569 6106:-0.10846229 6107:-0.10846229 6108:0.094535865 6109:0.21014188 6110:0.14136325 6111:0.28833893 6112:0.20726144 6113:-0.31281593 6114:0.094535865 6115:0.094535865 6116:0.47138435 6117:0.33805692 6118:0.094535865 6119:-0.20826885 6120:-0.20826885 6122:-0.031650398 6123:0.1651094 6125:-0.47862676 6126:-0.0094027566 6127:-0.0094027566 6128:-0.0094027566 6129:-0.052979063 6130:-0.19974053 6131:-0.19974053 6132:-0.19974053 6133:-0.23267418 6134:0.016716281 6135:0.011808644 6137:-0.03463579 6139:0.13600239 6140:0.18087408 6141:-0.49603155 6147:-0.0095246881 6150:-0.074885949 6151:-0.19474562 6152:-0.330659 6153:0.10483717 6154:-0.074885949 6155:-0.1244601 6156:-0.037644718 6157:0.10343572 6158:0.17603776 6159:0.18293445 6160:0.18293445 6161:0.18293445 6162:0.18293445 6163:0.12065114 6164:0.12065114 6165:0.12065114 6166:0.1907519 6167:0.12065114 6169:-0.067566812 6170:-0.14173931 6171:-0.14173931 6172:0.46540263 6173:0.46540263 6174:-0.064695276 6175:-0.369176 6176:-0.037301663 6177:-0.095995143 6178:-0.085319303 6179:-0.026418509 6180:-0.33427718 6181:-0.065427363 6182:-0.1366691 6183:-0.23732676 6184:-0.26790991 6185:-0.23732676 6186:-0.1675109 6189:-0.1791569 6190:0.24079692 6194:-0.0882717 6197:0.017605823 6198:-0.30527863 6199:0.017605823 6200:0.017605823 6201:0.30437726 6202:0.30437726 6203:0.083392955 6204:0.29102182 6205:-0.21726617 6206:0.45335156 6207:0.2206084 6208:0.142012 6209:0.059094086 6210:-0.031406704 6211:0.18689588 6212:0.27041385 6213:0.27041385 6214:0.27041385 6215:0.13319418 6216:0.33872837 6217:0.12608936 6218:-0.14071545 6219:0.13088696 6220:-0.047505226 6221:-0.15726976 6222:-0.23679727 6223:0.071940087 6224:-0.29883352 6225:-0.1109499 6226:0.13093844 6227:-0.1109499 6228:0.040422525 6229:-0.24869637 6230:0.11268988 6231:0.11268988 6232:0.11268988 6233:0.29356396 6234:0.065764956 6235:0.11268988 6236:0.039718673 6237:-0.008897448 6238:-0.033365991 6239:-0.26182806 6240:-0.020026537 6241:-0.020026537 6242:-0.020026537 6243:-0.020026537 6244:-0.28607902 6245:-0.14255345 6246:-0.099513561 6247:-0.14255345 6248:-0.14255345 6249:0.10506541 6250:-0.029897714 6251:-0.19620831 6252:-0.38936877 6255:0.43595713 6260:-0.13776919 6261:0.12192739 6262:0.16753426 6263:0.16753426 6264:0.051574379 6265:-0.023071304 6266:-0.19893648 6267:-0.023071304 6268:0.081242189 6269:-0.023071304 6270:-0.023071304 6271:0.15256198 6272:0.39653811 6273:0.37808019 6274:0.050484568 6275:0.31540287 6276:0.0810403 6277:0.073401913 6278:-0.024242472 6279:-0.34090212 6280:0.073401913 6281:0.14541414 6282:0.095368773 6283:0.15671282 6284:0.15995866 6285:0.024125116 6286:-0.20920105 6287:-0.20917881 6288:0.013304007 6289:-0.014382625 6290:-0.014382625 6291:-0.014382625 6292:-0.014382625 6293:-0.014382625 6294:-0.014382625 6295:-0.014382625 6296:-0.014382625 