SVM-light Version V6.20
0 # kernel type
3 # kernel parameter -d 
1 # kernel parameter -g 
1 # kernel parameter -s 
1 # kernel parameter -r 
empty# kernel parameter -u 
11718 # highest feature index 
142 # number of training documents 
2 # number of support vectors plus 1 
0 # threshold b, each following line is a SV (starting with alpha*y)
1 1:-0.19385691 2:-0.43551257 3:0.070190266 4:0.3007172 5:-0.16829275 6:0.24866493 7:-0.43578809 8:-0.06376335 9:-0.34779307 10:-0.57387108 11:0.10882385 12:-0.081101865 13:0.9543854 14:0.037495125 15:-0.030908743 16:-0.23861808 17:0.033178467 18:0.67149287 19:-0.21635155 20:1.2432592 21:-0.21635155 22:0.16285843 23:-0.1070117 24:-0.033547133 25:-0.49622265 26:-0.078425772 27:-0.14321947 28:0.3733288 29:-1.0618001 30:0.060228527 31:-0.49622265 32:-0.49622265 33:0.064084567 34:0.68543434 35:1.0726415 36:1.23106 37:-0.33970293 38:-0.95859766 39:-0.25455615 40:0.059202388 41:0.12459466 42:-0.17110145 43:-0.41040304 44:-0.10867102 45:-1.0371614 46:0.60626423 47:0.17057952 48:-0.023006773 49:0.40783119 51:0.35434535 52:-0.27412415 53:0.46154317 55:0.62428796 56:-0.11371614 57:0.29939559 58:0.29920295 59:0.33320701 60:-0.38795248 61:-0.49518451 62:0.2829901 63:-0.19143476 64:-1.0054474 65:-1.2753298 66:0.018775171 67:-1.1560326 68:0.64957273 69:-0.64206624 70:0.6578297 71:-0.60430479 72:1.2111174 73:0.83728552 74:0.079467364 75:0.22695346 76:0.6271562 77:0.83728552 78:-0.32180551 79:-0.28585044 80:0.021115664 81:0.83910447 82:1.0100591 83:-0.14480041 84:-0.14480041 85:-0.19419496 86:-0.15596887 87:-0.42593598 88:-0.49891552 89:0.15317687 90:0.068173282 91:0.021304717 93:-1.1819968 94:-0.14290968 95:0.62113583 96:0.11604995 97:-0.631221 98:0.11894957 99:-0.83554423 100:-0.55698246 101:0.64948958 102:0.68435621 103:-0.58572388 104:1.1827286 105:-0.49459553 106:-0.26599386 107:0.65203065 108:0.40893614 109:0.49254426 110:0.18018064 111:0.041642025 112:0.10174771 113:-0.33827761 115:0.067245089 117:-0.039947342 118:0.0804649 119:0.4567188 120:1.5429847 121:1.2239188 122:0.92545336 123:-0.55532676 124:0.41456163 125:-1.6048325 127:-0.20614471 128:0.53814381 129:0.49701902 130:0.11447892 131:0.6191954 132:-0.65205938 133:0.89376789 134:-0.7450577 135:0.50032395 136:0.64546883 137:-0.010184731 138:1.1447481 139:1.5950171 140:0.45103449 141:0.27227551 142:0.081647567 143:-0.4308449 144:-0.69081849 145:0.50032395 146:0.50032395 147:0.039071072 148:1.0867429 149:0.41015676 150:0.20312095 151:0.2757642 152:-0.034930084 153:-0.10893197 155:-0.93886942 156:-0.092511311 157:-0.59717852 158:0.12955581 159:0.73899204 160:-1.2413386 161:-0.18891463 162:1.0570842 163:-0.48406479 164:-0.082313649 165:-0.28692165 166:0.94673872 167:-0.0024059315 168:-0.097145684 169:1.4273652 170:0.093637228 171:0.14645827 172:0.20340639 173:0.20340639 174:-0.80743092 175:0.28680968 176:0.20340639 177:0.044844337 178:0.20340639 179:-0.82951033 180:-0.25575042 181:-0.34189901 182:0.20340639 183:-0.66148657 184:-1.1462829 185:-0.25136006 186:-0.39766869 187:-0.011176507 188:1.1553397 189:0.53700304 190:0.61205173 191:-0.29343519 192:-0.29343519 193:0.079992987 194:1.0998824 195:0.04512104 196:0.89991033 197:0.28523144 198:0.34892768 199:0.48138806 200:1.6139753 201:-0.18052413 202:1.0072221 203:1.3196722 204:-1.0161402 205:0.95254439 206:0.21468215 207:-0.32956433 208:0.41663346 209:0.08355248 210:-0.37495255 211:0.43265834 212:-0.37495255 213:1.1061497 214:0.35543931 215:0.17884135 216:0.10647965 217:1.6427404 218:-0.28715783 219:0.19333696 220:-0.44540393 221:-0.31668225 222:-0.55007392 223:-0.051885463 224:0.26704478 225:-0.28715783 226:1.2949166 227:-0.37203205 228:-0.15348579 229:-0.51796019 230:-0.34617329 231:-0.28715783 232:-1.6270571 233:0.31984273 234:-3.1178625 235:0.37495184 236:0.19448596 237:0.0116945 238:-0.61258876 239:-1.2867149 240:-0.34358552 241:-0.18051441 242:-1.0154325 243:-0.30908042 244:-0.34358552 245:-0.59461486 246:0.32565886 247:0.39002299 248:-0.34358552 249:0.1091061 250:0.29901803 251:-0.34358552 252:-0.34358552 253:0.77922183 254:0.69317263 255:0.85298038 256:-0.95379853 257:0.88833028 258:0.67787057 259:0.62966681 260:-2.0330808 261:-0.92217278 262:-0.16937622 263:0.53195006 264:-0.38302723 265:-1.3794912 266:-0.5610671 267:0.35405058 268:0.18786222 269:-0.26359555 270:-0.55601299 271:-0.26359555 272:-0.3895551 273:-0.26359555 274:0.2627719 275:0.043884985 276:-0.62837625 277:-0.032167189 278:0.20872983 279:0.2956647 280:1.4151325 281:-0.59532601 282:0.30603674 283:0.39929143 284:-0.26359555 285:-0.26359555 286:-0.25082752 287:-0.26359555 288:-0.26359555 289:-0.99902427 290:2.1699636 291:0.50956553 292:0.63914299 293:-0.23129873 294:-0.41453916 295:-0.47818726 296:-0.15998246 297:0.53862619 298:0.57779318 299:-0.12248378 300:-0.19009669 301:-0.23893963 302:-0.88947695 303:0.29898778 304:-1.5025071 305:0.36698622 306:-0.67423469 307:0.88488132 308:0.32199454 309:0.55697113 310:-0.60107929 311:-0.29073626 312:0.68706286 313:0.68706286 314:0.64172691 315:1.0047143 316:0.40936732 317:0.079294838 318:-0.37878183 319:-0.40519243 320:-0.67438906 321:0.21118036 322:-0.56635308 323:-0.48904482 324:0.6520294 325:-0.16032551 326:0.098408386 327:1.3675383 328:-0.73891926 329:-0.16032551 330:0.40122986 331:-0.16032551 332:-0.73891926 333:-0.25698513 334:0.10688663 335:0.022927828 336:-0.49644393 337:-0.32578057 338:-0.40674406 339:-0.42292735 340:-0.10221419 341:-0.92548603 342:0.43707821 343:0.61043662 344:1.1769881 345:-0.76178265 346:0.43707821 347:0.43707821 348:-0.3796519 349:-0.33701709 350:0.6354723 351:-0.81354475 352:-0.3796519 353:1.04528 354:-0.3796519 355:-0.67167026 356:-0.84496498 357:0.49754414 358:-0.32235929 359:0.86065459 360:-0.33551365 361:-0.71905208 362:-0.83036649 363:-0.62956917 364:1.6656157 365:1.2021064 366:-0.55501372 367:-1.1123816 368:-0.087675862 369:0.26497638 370:0.027790908 371:0.32312763 372:-0.41198424 373:-0.087675862 374:0.15501449 375:-0.72099119 376:0.86000979 377:0.10803045 378:-0.30860829 379:0.16975553 380:1.2611086 381:0.44587925 382:0.49889266 383:0.75543284 384:0.49889266 385:-0.52444136 386:0.39654601 387:-0.57980061 388:0.11498278 389:-0.26720107 390:0.11498278 391:0.11498278 392:0.97948909 393:-0.77633721 394:0.11498278 395:-0.52218837 396:0.35230789 397:-0.12197073 398:-0.40327018 399:-0.17019804 400:-0.2005841 401:-0.47400633 402:-0.99593318 403:-0.12197073 404:-0.30920219 405:0.50682831 406:-0.14774591 407:-0.38115761 408:0.42675301 409:0.0083063878 410:0.076611899 411:-0.4100011 412:0.83416808 413:-0.12197073 414:0.49397585 415:0.13060501 416:0.52078408 417:-1.011305 418:-0.003888227 419:-0.044993091 420:-0.1868231 421:-0.16946936 422:-1.7477918 423:-0.38695276 424:0.49401996 425:-0.08078371 426:-0.22682226 427:0.77677113 428:0.12165067 429:1.9732852 430:-0.81817442 431:-0.24266958 432:0.59841084 433:-0.003888227 434:0.83808237 435:-0.37582901 436:-0.003888227 437:0.2107895 438:-0.88841313 439:-0.060666703 440:-0.071511187 441:0.38994914 442:-1.2632339 443:-1.1629174 444:-0.52544212 445:-0.53578967 446:0.36534125 447:-0.41331589 448:-1.5787201 449:0.012053648 450:0.44934043 451:-0.42479202 452:-0.30335194 453:-0.41331589 454:-0.012471018 455:-0.51521003 456:0.88199049 457:0.090717942 458:-0.20632333 459:0.72563863 460:0.11413563 461:1.5620773 462:0.50071222 463:0.16367416 464:-0.50029123 465:-0.011902523 466:0.52636749 467:0.42942041 468:-0.45567533 469:0.78195703 470:0.86847401 471:0.25414354 472:0.32493716 473:0.52636749 474:0.33664402 475:1.1755646 476:-0.44754165 477:-1.323243 478:1.5571254 479:0.23481014 480:0.053608719 481:0.32539114 482:2.0247958 483:1.4244429 484:1.1746496 485:-0.30875176 486:-1.1652843 487:2.0247958 488:0.48501313 489:0.085485034 490:0.811616 491:-0.069221944 492:0.52229321 493:-0.8466711 494:-0.09273082 495:-0.47260073 496:-0.14212579 497:0.076657549 499:-0.091967806 500:-0.21408854 502:-0.0021255077 503:1.4336514 504:0.055601444 505:1.2297562 506:0.58777183 508:0.16227104 509:-0.54635638 510:0.94273877 511:0.92079532 512:-1.4143317 513:-0.9462679 514:-0.35851091 515:-0.037764046 516:1.2994915 517:0.016173337 518:-0.097755067 519:0.43956515 520:-0.17195964 521:-0.35686418 522:-0.86689228 523:-1.548359 524:0.52690649 525:-0.39374778 526:0.0087695559 527:0.20492934 528:-0.66163665 529:-0.57036847 530:-0.57859373 531:-0.57859373 532:-0.58614922 533:0.26978028 534:-0.086998507 535:-0.21039259 536:0.22089174 537:0.1919913 538:0.15510584 539:-0.96932626 540:-0.56617701 541:-0.0055932845 542:0.73060805 543:1.6341761 544:-0.11593683 545:1.0333441 546:1.3258004 547:0.3005822 548:-0.70848286 549:0.20114881 550:0.36866483 551:-0.62585998 552:-0.048403669 553:0.15969205 554:0.64624441 556:0.55851758 557:0.43179214 558:1.1843828 559:0.51594067 560:1.0402541 561:0.28776661 562:-1.003124 563:-0.3310506 564:1.0978062 565:-0.68451983 566:-0.98190135 567:0.39772922 568:0.55969918 569:0.030821001 570:0.033382241 571:0.71560466 573:-0.47478914 574:-0.15774587 575:0.80183238 576:1.1819416 577:0.28383404 578:1.1141295 579:1.324303 583:-0.41005367 585:0.37964633 586:0.05453448 588:-0.24584435 589:0.51986903 590:-2.4450746 591:-0.30944946 592:-0.17222975 593:0.38764066 594:-0.27403024 595:0.26685023 596:-0.27403024 597:-0.93099147 598:1.4933749 599:-0.93099147 600:-0.93099147 601:0.29694477 602:0.48465285 603:-1.2467147 604:-0.58040434 605:-0.40485743 606:1.4510058 607:-0.13819614 608:0.43343899 609:-0.58908939 610:-0.30436757 611:0.47606143 612:-0.93519843 613:-0.996512 614:0.57451278 615:-0.64947355 616:-0.83744085 617:0.39489824 618:0.11509524 619:1.2080762 620:-0.084297307 621:0.38096094 622:-1.0351273 623:0.018687245 624:0.91096014 625:-0.075739838 626:0.68451613 627:-0.37590411 628:-0.64201379 629:-1.1594903 630:-0.54000741 631:-0.027937254 632:0.14859596 633:-0.82438332 634:-0.0098680882 635:-0.099911779 636:-0.37590411 637:0.61734831 638:-0.042466141 639:0.11844989 640:0.80480552 641:0.45579764 642:0.42526987 643:0.48087585 644:1.6446732 645:0.53588635 646:0.73715544 647:-1.2832115 648:0.10475402 649:-0.19030429 650:0.77633715 651:-0.2158521 652:0.54082149 653:-0.45295483 654:0.16109785 655:0.67674983 656:1.4046385 657:-0.63182437 658:0.31513351 659:-0.28675884 660:0.42566231 661:-0.19360527 662:-0.8174994 663:-0.83402187 664:-0.79285008 665:0.97258872 666:0.23349994 667:-0.32569534 668:-0.0658793 669:-0.24576299 670:-0.12671839 671:0.14634101 672:0.48553848 673:-0.44721168 674:-0.33705211 675:-0.81246358 676:0.60500896 677:0.16863641 678:0.41395223 679:-0.27044314 680:0.70676631 681:1.4811198 682:-0.042118162 683:0.28745133 684:0.21930493 685:0.19341971 686:-0.59345686 687:-0.21170428 688:0.26737422 689:-0.46527478 690:-0.86561781 691:0.12145861 692:0.30218565 693:-0.042118162 694:-0.7563951 695:-0.48451945 696:-0.042118162 697:-0.27609667 698:-0.27609667 699:-0.27609667 700:-0.27609667 701:-0.27609667 702:-0.42378345 703:-0.040234994 704:0.56466317 705:-0.27609667 706:0.014908825 707:0.04110704 708:-0.10860521 709:-0.45180055 710:0.7838878 711:-2.1171184 712:-0.57732183 713:-0.41131127 714:0.26446041 715:-1.2609754 716:-1.4120502 718:0.60995376 719:-0.16488685 721:0.13600557 722:-0.26564884 724:-0.27095699 725:0.10028147 726:-0.28545532 727:-0.54690373 728:-1.6234941 729:0.28205833 730:-1.7726121 731:0.39438394 732:0.99248475 733:0.61512488 734:0.61512488 735:0.88545036 736:0.61512488 737:0.30345088 738:0.79008543 739:-0.2291449 740:-0.040293369 741:0.56579411 742:0.026996445 743:0.11483476 744:-0.042689335 745:0.38586497 746:0.99139971 747:0.3617112 748:0.51135302 749:0.51000732 750:0.21048971 751:0.99115407 752:0.03524477 753:-1.3199692 754:-0.96448284 755:-0.85220826 756:-0.91681582 757:0.33591944 758:-0.37819418 759:0.61694145 760:-0.68177986 761:-0.37819418 762:-0.33400771 763:-0.37819418 764:-0.37819418 765:0.28870296 766:-0.37819418 767:0.13221693 768:0.62725824 769:-0.37819418 770:-0.28858039 771:0.21305323 772:1.0894873 773:0.31689903 774:-0.37819418 775:-0.2540834 776:-0.37819418 777:-0.37819418 778:-1.030148 779:-0.20400712 780:-0.73524171 781:-0.78229547 782:0.52517617 783:0.52517617 784:0.52517617 785:-0.31114677 786:0.35343522 787:-0.89595914 788:-0.15209445 789:-0.5628745 790:-0.79597998 791:-0.21649337 792:-0.66151869 793:0.81941968 794:0.48909056 795:0.2535471 796:0.81113207 797:0.89762652 798:0.39948973 799:-0.16146491 800:0.62107795 801:-0.55037737 802:-1.0891374 803:-0.55037737 804:-0.24686868 805:0.28340834 806:0.28340834 807:0.28340834 808:0.80476379 809:0.28340834 810:-0.13106744 811:-0.39994353 812:0.28340834 813:-0.35764706 814:0.94445318 815:-0.13034914 816:-0.13034914 817:-1.476053 818:-0.13034914 819:-0.49232894 820:-0.21470124 821:-0.10783471 822:0.23160613 823:-0.13034914 824:-0.13034914 825:-0.13034914 826:-0.086391486 827:0.29666078 828:-0.5888741 829:0.46150506 830:-0.20322609 831:-0.49476078 832:0.058381423 833:1.9499751 834:0.067408428 835:0.24764863 836:-0.42069718 837:-0.18056044 838:-1.8024477 839:0.50542885 840:0.77533567 841:0.28363031 842:-0.005217372 843:-0.52418929 844:-0.33797592 845:0.67830426 846:-0.03279303 847:0.073535286 848:1.7029822 849:-0.14159487 850:-0.14159487 851:0.47135118 852:-0.37992677 853:-0.66263652 854:-1.0861988 855:0.0096664354 856:0.45503691 857:1.6515596 858:-0.9713155 859:0.41215476 860:0.35331151 861:0.040064536 862:1.8875042 863:0.22556862 864:0.027685016 865:-0.21664658 866:0.93277127 867:0.28152213 868:-0.043910008 869:-1.132133 870:-0.98394179 871:-1.132133 872:0.29638436 873:0.70187306 874:-0.57433397 875:-0.46712071 876:0.60866576 877:-0.6259321 878:0.70187306 879:0.70187306 880:-0.65922785 881:0.70187306 882:1.1145492 883:0.065732002 884:-0.57923257 885:0.060868651 886:0.065732002 887:0.065732002 888:0.065732002 889:1.4975115 890:-0.49808145 891:-0.26165372 892:1.1164813 893:-0.17754869 894:0.043413751 895:-1.1014217 896:-0.26165372 897:-0.77953118 898:0.0019143936 899:-0.25503933 900:0.066956803 901:0.21138141 902:-0.35498226 903:3.4178784 904:-0.54845047 905:-0.61698622 906:-1.1266795 907:-0.8463822 908:0.57758063 909:-0.49245226 910:-0.78622299 911:-0.93796593 912:0.75996137 913:-0.18082543 914:-0.18082543 915:0.015952799 916:-1.0627102 917:1.2362835 918:0.85274589 919:0.015952799 920:-0.26482832 921:-0.13241416 922:-0.13241416 923:-0.48375145 924:-0.35817918 925:-0.13241416 926:-0.25115728 927:-0.21932034 928:-0.13241416 929:-0.13241416 930:-0.27005059 931:0.051713057 932:-0.13241416 933:-0.13241416 934:-0.13241416 935:-0.57604986 936:0.60822678 937:-0.13241416 938:-0.13241416 939:-0.13241416 940:-0.13241416 941:-0.058461566 942:-0.13241416 943:-0.13241416 944:-0.13241416 945:-0.28227866 946:-0.20789088 947:-0.20789088 948:-0.20789088 949:0.57979649 950:0.33320701 951:0.7075876 952:0.40927941 953:-0.84100223 954:0.29961991 955:0.18458973 956:0.23943084 957:0.65067613 958:-0.17782599 959:-0.32869589 960:0.10964549 961:0.65067613 962:0.4048318 963:0.99429655 964:0.65067613 965:0.57260644 966:0.021218965 967:0.81917024 968:1.4368829 969:-0.6335302 970:-0.6335302 971:0.16389036 972:-0.6335302 973:-0.55242008 974:-1.6084911 975:0.021071615 976:-0.45276186 977:0.54950392 978:-0.68319017 979:-0.68319017 980:-0.68319017 981:-0.37551656 982:0.3819077 983:-1.5251336 984:1.1151069 985:-0.047044471 986:-1.0011032 987:0.24781252 988:-1.0076606 989:-0.69417334 990:-0.94573146 991:-1.3608478 992:-0.30119336 993:1.0074816 994:-0.45997322 995:0.47951987 996:0.09340483 997:0.42584273 998:-0.50428325 999:0.23573841 1000:0.23573841 1001:0.23573841 1002:0.23573841 1003:0.23573841 1004:0.0017359502 1005:0.41082683 1006:1.2154191 1007:0.039628495 1008:-0.19156902 1009:1.3808105 1010:-2.1888692 1011:0.78846395 1012:-0.26518309 1014:0.83294398 1015:0.0060719498 1016:-0.36821043 1017:-0.8157239 1018:-0.54343522 1019:-0.26758134 1020:-0.78440863 1021:-0.58207655 1022:1.0807267 1023:0.93127066 1024:0.49818739 1025:0.81700897 1026:0.41763854 1027:0.15636155 1028:1.3400105 1029:-0.56691235 1030:-0.2317241 1033:-0.0322074 1035:-0.26730454 1036:-0.68700922 1037:0.33824408 1039:-0.16941145 1040:0.53610218 1041:-0.18270153 1042:0.76187986 1043:1.3398319 1044:-0.0094814636 1046:-1.3017327 1047:0.30459404 1048:-0.38079339 1049:-0.67984051 1050:0.41105869 1051:0.39780051 1052:1.2043971 1053:-0.0030080546 1054:-1.4339626 1055:0.75323462 1056:0.39780051 1057:-0.17455915 1058:0.39780051 1059:0.39780051 1060:0.39780051 1061:-0.11002424 1062:0.39780051 1063:1.0886447 1064:0.53298372 1065:1.7082795 1066:0.81230706 1067:1.3159113 1068:0.36965427 1069:1.1249063 1070:-0.76594996 1071:-0.83829093 1072:-0.83829093 1073:-0.0221742 1074:0.24128073 1075:0.018713051 1076:-0.20084046 1077:1.1735255 1078:-0.0052900631 1079:0.066900432 1080:-0.41709441 1081:1.0662123 1082:0.99749225 1083:-0.16172016 1084:0.24128073 1085:-0.97533351 1086:0.18588427 1087:-1.0367963 1088:0.6606015 1089:0.53651077 1090:-0.91059083 1091:-0.02710833 1092:-1.6255448 1093:-0.35615674 1094:0.47836381 1095:2.3355038 1096:2.3355038 1097:1.3631309 1098:0.055601444 1099:-0.47086972 1100:0.35406476 1101:-0.2293864 1102:0.6308428 1103:-0.067986712 1104:-0.15044908 1105:0.055601444 1106:0.10718538 1107:0.055601444 1108:0.24464576 1109:0.76554292 1110:0.29881889 1111:0.76231825 1112:-0.051541388 1113:-0.37824517 1114:-0.016679287 1115:0.00049579929 1116:0.17895702 1117:-0.38310829 1118:-0.19155414 1119:-0.19155414 1120:0.32940727 1121:-0.19155414 1122:0.44012928 1123:-0.50137943 1124:1.9235975 1125:0.96014947 1126:-0.19155414 1127:-0.19155414 1128:-0.19155414 1129:1.6476158 1130:0.0054011946 1131:-0.36462674 1132:-0.24614163 1133:-0.86221552 1134:-0.18617526 1135:-0.30719733 1136:-0.79206687 1137:-0.54790592 1138:-0.54790592 1139:0.82153082 1140:-0.38880983 1141:-0.54790592 1142:-0.097499765 1143:-0.54790592 1144:0.21915749 1145:-0.094248474 1146:-0.54790592 1147:-0.54790592 1148:-0.052099898 1149:-0.32069096 1150:-1.5980068 1151:-0.052099898 1152:-0.052099898 1153:0.3093259 1154:-0.20094359 1155:0.015491452 1156:-1.1381745 1157:-1.2543323 1158:-0.84775841 1159:-0.24334173 1160:-0.24334173 1161:-1.0076376 1162:-0.24334173 1163:1.2251809 1164:1.1854904 1165:1.1854904 1166:-0.38347158 1167:1.1854904 1168:0.21181922 1169:-0.47765139 1170:1.6070458 1171:-0.13251069 1172:1.324487 1173:1.4766638 1174:1.8495611 1175:1.3980862 1176:0.41557145 1177:-0.81375462 1178:-0.039631728 1179:0.30645186 1180:-0.81893742 1181:0.20172557 1182:0.20172557 1183:-1.1145521 1184:0.20172557 1185:-0.52237606 1186:0.84601671 1187:-0.94441199 1188:-0.025608895 1189:-0.025608895 1190:-0.025608895 1191:-1.2892118 1192:-0.15640981 1193:-1.3057175 1194:0.66346794 1195:0.46972889 1196:0.29254147 1197:0.92908955 1198:0.39532122 1199:0.12750131 1200:0.97501725 1201:0.88952351 1202:0.23433304 1203:0.29254147 1204:-0.28930122 1205:-0.033419229 1206:0.39459136 1207:-0.46580976 1208:0.39459136 1209:0.42059907 1210:0.39459136 1211:-1.0137475 1212:0.14806449 1213:-0.49237487 1214:0.41078189 1215:0.60563314 1216:0.39459136 1217:0.20892766 1218:0.39459136 1219:0.71972317 1220:0.39459136 1221:2.0339794 1222:-0.56191665 1223:0.31203559 1224:-0.1954696 1225:-0.1954696 1226:-0.1954696 1227:-0.1954696 1228:0.24287978 1229:1.4381146 1230:0.32161683 1231:0.8469165 1232:-0.095985726 1233:-0.095985726 1234:0.43064618 1235:-0.38574716 1236:1.4636397 1237:-0.19259025 1238:0.24964471 1239:-0.82682341 1240:-0.095985726 1241:-0.095985726 1242:-0.095985726 1243:-0.71316129 1244:0.19921771 1245:-0.095985726 1246:-0.095985726 1247:1.9443321 1248:0.25204381 1249:0.07902196 1250:0.29370522 1251:-0.15451734 1252:0.14277613 1253:-0.37354073 1254:0.89537054 1255:-0.89347923 1256:-0.94219166 1257:0.30980197 1259:-0.76868808 1260:-1.070798 1261:-0.13441694 1262:0.6093505 1263:-0.54834461 1264:-0.038383767 1265:0.98966271 1266:0.2745662 1267:-0.79575354 1268:0.53756636 1269:0.058950163 1270:0.50949895 1271:0.18475527 1272:-1.2148533 1273:-0.93900186 1274:-0.11343262 1275:0.3095926 1276:0.60087359 1277:-0.39604589 1278:0.023948979 1279:-0.36823177 1280:-0.34242827 1281:0.49757907 1283:-0.32798871 1284:0.072015814 1285:-0.17357405 1286:0.15325768 1287:-0.18743797 1288:-0.17357405 1289:-0.27473378 1290:0.071284749 1291:0.014348555 1292:-0.17357405 1293:0.0089618517 1294:-0.17357405 1295:0.15450461 1296:-0.15124838 1297:-0.15233453 1298:-0.17357405 1299:0.38636971 1300:-0.045057628 1301:-0.62441033 1302:-0.022561861 1303:-0.17357405 1304:0.239775 1305:-0.15741621 1306:-1.7980177 1307:-0.018866578 1308:-0.60820323 1309:1.1833609 1310:-0.35051146 1311:0.014947758 1312:-0.64528728 1313:0.27905333 1314:0.89138252 1315:1.4010646 1316:-0.56279314 1317:0.26745677 1318:-1.5817878 1319:-0.060086876 1320:0.099023163 1321:0.2176217 1322:-1.1127571 1323:1.3167922 1324:0.6743958 1325:-1.2340031 1326:-0.67884654 1327:-0.48469397 1328:-0.29407626 1329:0.012556693 1330:0.3527475 1331:1.867577 1332:-0.9877063 1333:-1.2161502 1334:0.24636479 1335:-0.21800119 1337:0.91656071 1338:0.58117628 1340:2.1314974 1341:0.25638106 1342:-0.57382983 1343:0.28415611 1344:-0.68374485 1345:1.5338036 1346:0.90965641 1347:-0.77049291 1348:1.2742256 1350:-0.0032726508 1351:-0.05569334 1352:-0.18636824 1353:0.4746601 1354:-0.048311986 1355:0.050244007 1356:1.2126279 1357:0.13098721 1358:0.27752236 1359:0.28235105 1360:0.15414703 1361:-1.9547142 1362:0.27683282 1363:0.5920409 1364:-0.38372675 1365:0.36517742 1366:0.36517742 1367:0.36517742 1368:2.7308877 1369:1.8116791 1370:-0.11558641 1371:0.78166312 1372:0.78166312 1373:0.068542741 1374:0.56571299 1375:-0.6338703 1376:-0.86980653 1377:-0.86980653 1378:-1.0019357 1379:-0.092285924 1380:-0.86980653 1381:0.64352292 1382:-0.12425074 1383:1.4655125 1384:0.1750567 1385:0.17521556 1386:-0.14548485 1387:-0.20845152 1388:0.23021871 1389:0.32077569 1390:0.17955297 1391:0.17955297 1392:-0.15059686 1393:-0.15059686 1394:0.094976544 1395:0.71008748 1396:-0.29789501 1397:-0.16669203 1398:0.094976544 1399:0.51689172 1400:0.8309617 1401:0.63169879 1402:1.2502174 1403:-0.40001142 1404:0.27461386 1405:0.07196977 1406:0.70948976 1407:-0.42798981 1408:0.51187003 1409:0.56262344 1410:0.73317015 1411:0.47351646 1412:0.71571702 1413:0.8441636 1414:0.36239105 1415:-1.2612269 1416:-0.014848311 1417:-0.014848311 1418:-0.014848311 1419:-0.014848311 1420:0.48790404 1421:-1.0673597 1422:0.095786035 1423:0.17440636 1424:0.63444418 1425:-0.014848311 1426:-0.014848311 1427:-0.10480322 1428:-0.18972294 1429:0.11898316 1430:-0.014848311 1431:-0.014848311 1432:0.35962871 1433:0.35962871 1434:0.41080859 1435:0.21529013 1436:1.8102466 1437:-0.2630758 1438:-0.97167158 1439:0.35962871 1440:0.37884218 1441:-1.2470071 1442:-0.3973954 1443:0.91693056 1444:1.2297162 1445:0.56235695 1446:0.71840727 1447:1.1880815 1448:0.91693056 1449:-1.6206504 1450:-1.3069665 1451:-0.051738493 1452:2.0018144 1453:-0.27029049 1454:-0.34554765 1455:0.39730197 1456:-0.14345159 1457:-0.39397129 1458:-0.14345159 1459:0.37812278 1460:0.7376979 1461:-0.14345159 1462:-0.51993632 1463:-1.4331213 1464:0.27188548 1465:0.70401174 1466:0.11458649 1467:0.069634698 1468:1.1406221 1469:-0.34077105 1470:0.70850986 1471:-0.049394548 1472:-0.049394548 1473:0.0030006501 1474:-0.049394548 1475:-0.49762598 1476:0.084179968 1477:0.95918339 1478:-0.54109108 1479:-0.44814843 1480:-0.83033228 1481:1.559682 1482:-0.59404379 1483:-0.37203702 1484:0.72734964 1485:0.25771073 1486:-0.12887028 1487:-1.4421645 1488:-0.02267505 1489:0.17809127 1490:-0.80123055 1491:0.12345345 1492:-0.31580949 1493:0.3971183 1494:-0.45242608 1495:-0.16488685 1496:0.24385065 1498:-1.0756691 1499:-0.66591209 1500:-0.7612806 1501:0.075653158 1502:-0.25375929 1503:-0.65327007 1504:0.035799198 1505:-0.62430948 1506:-1.0782979 1507:-0.2402256 1508:0.46125606 1509:0.032530773 1510:-0.58194923 1511:-0.75997293 1512:-0.26520932 1513:0.70817161 1514:-0.34189081 1515:0.6863758 1516:0.1174923 1517:0.1174923 1518:0.96206111 1519:1.0537329 1520:0.086087957 1521:0.44484651 1522:0.83991289 1523:0.13292569 1524:0.39381766 1525:0.83991289 1526:-0.90871906 1527:-0.61141741 1528:-0.61141741 1529:-0.61141741 1530:0.57923555 1531:-0.54259378 1532:0.2551499 1533:-0.06652882 1534:-1.6197288 1535:-0.76072633 1536:0.043129247 1537:1.0914036 1538:-0.48069546 1539:-0.73683614 1540:0.13028659 1541:0.13028659 1542:0.13028659 1543:0.12125085 1544:-0.043536473 1545:1.0546405 1546:-0.023006773 1547:-0.023006773 1548:-0.023006773 1549:-0.24933966 1550:-0.87076312 1551:-0.24933966 1552:-0.24933966 1553:1.1923747 1554:-0.46319738 1555:-0.49422571 1556:1.3735796 1557:-1.1168743 1558:0.40811154 1559:0.23460963 1560:0.50844085 1561:-0.97291631 1562:0.38203093 1563:0.89484686 1564:0.051023103 1565:-0.66245276 1566:0.37184024 1567:0.37184024 1568:0.077159449 1569:1.5548223 1570:0.37184024 1571:-0.16628179 1572:-0.31773612 1573:1.6107111 1574:0.28184456 1575:2.1301887 1576:-0.58879834 1577:-0.10944354 1578:-0.098837681 1579:-0.10944354 1580:-0.10944354 1581:-0.10944354 1582:0.24370353 1583:-0.41351151 1584:-1.2292413 1585:-1.5814847 1586:-0.079780132 1587:-0.079780132 1588:-0.079780132 1589:0.24286957 1590:0.3815552 1591:-0.079780132 1592:-0.24019805 1593:0.71498352 1594:-0.079780132 1595:0.24578387 1596:-0.079780132 1597:-0.75422293 1598:-0.27959776 1599:0.028119711 1600:-0.079780132 1601:-0.079780132 1602:1.0745769 1603:-1.4527236 1604:-0.25470605 1605:-0.11993122 1606:0.11132953 1607:-0.13182643 1608:-0.60747659 1609:0.20119108 1610:0.56165206 1611:-0.28334174 1612:-0.68098092 1613:0.246443 1614:1.3108889 1615:0.86850774 1616:-0.11512369 1617:1.0089114 1618:-0.6491816 1619:1.1418278 1620:0.0026272757 1621:0.54518247 1622:-0.35233596 1623:-0.4211255 1624:-0.460316 1625:0.29249123 1626:1.0580395 1627:-0.4211255 1628:-1.1096559 1629:1.1276623 1630:0.46169624 1631:1.2675247 1632:-0.090025209 1633:-0.68230879 1634:1.8598139 1635:0.57175928 1636:-0.28573912 1637:-0.30406857 1638:0.62053066 1639:-0.48231554 1640:-0.645302 1641:0.29524305 1642:0.0012038536 1643:-0.48748606 1644:-0.30963317 1645:0.33596432 1646:-0.30963317 1647:0.27868026 1648:-0.30963317 1649:-0.091992535 1650:0.26161578 1651:1.6656582 1652:-0.30084801 1653:-0.645302 1654:-0.41138464 1655:0.050751504 1656:-0.645302 1657:0.46344894 1658:-0.088344492 1659:-0.22530454 1660:-0.088344492 1661:-0.026082655 1662:-0.088344492 1663:-0.72187114 1664:-0.088344492 1665:-0.78854477 1666:0.78512043 1668:0.85214752 1669:-0.34342638 1670:-1.10137 1671:0.55237389 1672:-0.11908253 1673:0.65663409 1674:-0.53943276 1675:0.34154171 1676:1.4966451 1677:0.043226082 1680:0.28599727 1681:0.14779225 1683:1.2263476 1685:0.86948019 1687:0.2201097 1688:1.2292951 1689:1.1715806 1692:0.26694214 1694:-1.4946666 1695:2.0721936 1696:-0.68150312 1697:-0.92920512 1698:-0.68150312 1699:-0.68150312 1700:-0.68150312 1701:-0.51170057 1702:-0.14307082 1703:0.8858313 1704:0.91978109 1705:-0.38465714 1706:0.55105335 1707:0.40011433 1708:0.40011433 1709:0.40011433 1710:0.37686488 1711:0.40011433 1712:0.6749832 1713:-0.49545518 1714:0.8325277 1715:1.2055901 1716:0.62214363 1717:0.31179398 1718:0.72095513 1719:0.72095513 1720:1.1357107 1721:-0.87947041 1722:0.16908361 1723:-0.036738314 1724:-0.72119945 1725:0.01134752 1726:0.25535271 1727:-0.90647471 1728:-0.90647471 1729:-0.74996674 1730:-0.29319009 1731:-0.47585359 1732:0.23517054 1733:-0.34679651 1734:-0.10034387 1735:-0.22484455 1736:-0.027741052 1737:0.62718731 1738:0.23527236 1739:-0.12215779 1740:0.23527236 1741:0.55288494 1742:-0.47641149 1743:0.23527236 1744:0.17837401 1745:0.23527236 1746:0.23527236 1747:-0.5860638 1748:0.17965212 1749:0.23527236 1750:-0.49990898 1751:0.042386305 1752:-0.89469057 1753:-0.59162974 1754:-0.36607608 1755:-0.59162974 1756:1.4254687 1757:-0.018646682 1758:-0.9885124 1759:-0.11787631 1760:-0.14171953 1761:-0.11787631 1762:-0.11787631 1763:-0.6763984 1764:-0.038273342 1765:-0.0012633804 1766:-0.63612622 1767:0.39782295 1768:0.1424143 1769:1.1286283 1770:-0.16493583 1771:0.22684151 1772:0.18174252 1773:0.38867804 1774:-0.32833821 1775:0.88290697 1776:-0.87908691 1777:-0.59106159 1778:0.87328374 1779:-0.89944983 1780:-0.13666187 1781:0.22055578 1782:-0.1307762 1783:-0.56248766 1784:0.19914339 1785:-0.14188237 1786:-2.0738597 1787:-0.052632637 1788:0.31488606 1789:-1.0731454 1790:-0.0322074 1791:-0.16563354 1792:0.97129238 1793:0.13782376 1794:-0.091189481 1795:-0.091189481 1796:0.36096376 1797:-0.82935566 1798:-1.3122149 1799:-0.72445154 1800:-1.4730809 1801:-1.4730809 1802:-1.064721 1803:-0.21051317 1804:-0.42798695 1805:-0.94796789 1806:0.16605581 1807:0.07661657 1808:1.1358759 1809:-1.5366009 1810:0.12988365 1811:0.34337381 1812:0.75059807 1813:-0.1732277 1814:0.4261941 1815:0.72768617 1816:-0.15131739 1817:0.86554784 1818:-0.54539478 1819:0.11309467 1820:0.32711634 1821:1.0537037 1822:0.40140939 1823:1.2388859 1824:-0.29618475 1825:-1.4452534 1826:0.59907788 1827:0.44881597 1828:0.63145763 1829:-0.40223819 1830:-0.4299058 1831:-0.14844538 1832:-0.70928943 1833:0.45882219 1834:0.45882219 1835:0.45882219 1836:0.36707002 1837:-0.67114323 1838:0.67950535 1839:0.45882219 1840:0.37813079 1841:0.42047325 1842:-0.45953172 1843:0.45882219 1844:0.44526407 1845:0.45882219 1846:0.45882219 1847:0.64240044 1848:-0.12787434 1849:0.4531849 1850:-1.7254665 1851:-0.38003615 1852:1.3705528 1853:0.78466976 1854:-0.16293199 1855:-0.24752365 1856:-0.16293199 1857:-0.16293199 1858:0.60014963 1859:-0.16293199 1860:-1.319888 1861:-1.9638283 1862:-0.46952668 1863:-1.3225659 1864:-0.46952668 1865:-0.10279475 1866:-0.082798772 1867:-0.13769014 1868:0.0061588045 1869:-0.096643522 1870:-0.35384154 1871:0.34249675 1872:-0.44503272 1873:-1.027311 1874:1.1771729 1875:-0.39156657 1876:0.34249675 1877:0.34249675 1878:0.070380338 1879:0.078225888 1880:0.29020894 1881:0.34286201 1882:1.1410054 1883:-0.23826128 1884:0.78166223 1885:0.94678724 1886:-0.40209118 1887:-0.40209118 1888:0.72281659 1889:1.8961602 1890:2.1183739 1891:-0.83931524 1892:-0.97867364 1893:-0.40455472 1894:-0.40209118 1895:-1.1348393 1896:0.25655174 1897:0.16017054 1898:-0.13763361 1899:0.16017054 1900:1.7772533 1901:1.3679793 1902:0.73483855 1903:0.92110348 1904:0.89414215 1905:0.8860715 1906:-0.019084137 1907:-0.019084137 1908:0.14878461 1909:-0.27149001 1910:-0.019084137 1911:-0.47258851 1912:1.2111974 1913:-0.019084137 1914:0.30520412 1915:-0.3565723 1916:-0.019084137 1917:0.89347732 1918:-0.26671919 1919:0.57962418 1920:-0.13793172 1921:-3.663434 1922:1.747461 1923:-1.4085385 1924:0.2659075 1925:0.085685387 1926:0.93255764 1927:0.62627882 1929:-0.13572922 1930:-0.5741775 1931:0.38375318 1932:-0.87078679 1933:-0.55405295 1934:-0.59757262 1935:0.15125714 1936:0.13600557 1937:0.075881705 1938:0.075881705 1939:-0.11165527 1940:-0.38902128 1941:0.075881705 1942:-2.4394283 1943:0.44603163 1944:-0.07085111 1945:0.13185309 1946:0.31972957 1947:-1.1079925 1948:1.8922873 1949:0.6222769 1950:-0.60403633 1952:0.031416859 1953:-0.59153634 1954:-0.4644281 1955:-0.23895299 1956:0.031416859 1957:-0.25091797 1958:-0.2576268 1959:-0.63331532 1960:-0.63331532 1961:-0.086261876 1962:-0.19565278 1963:-0.63331532 1964:-0.12301423 1965:-0.59739769 1966:-0.27327496 1967:-0.22653997 1968:0.029571269 1969:0.41794851 1970:0.15494062 1971:1.1831441 1972:0.77318823 1973:-0.45350435 1974:-0.45350435 1975:-0.53901607 1976:-1.6203631 1977:1.6411772 1978:-0.57291412 1979:0.91953701 1980:2.0114534 1981:-0.68362951 1982:-0.71118194 1983:-0.20360972 1984:-0.27968162 1985:-0.27968162 1986:0.76713079 1987:0.76713079 1988:0.5680505 1989:0.5680505 1990:0.5680505 1991:-0.5901444 1992:1.0253491 1993:0.65683377 1994:-0.12660873 1995:0.05717345 1997:0.2291986 1999:0.60254967 2000:-0.67713135 2002:-0.60064626 2003:-0.60064626 2004:-0.46764207 2005:-0.33545387 2006:-0.25475821 2007:0.023037868 2008:-1.2567972 2009:0.67132765 2010:-2.0498869 2011:-0.28744137 2012:-0.04689727 2013:0.3416093 2014:-1.0851411 2015:-0.0864719 2016:-0.29402238 2017:-0.059280097 2018:0.25000772 2019:0.72298479 2020:-0.0864719 2021:-0.0864719 2022:-2.641017 2023:1.3897223 2024:0.66004831 2025:0.66004831 2026:0.90198874 2027:-0.62843019 2028:-1.2884117 2029:0.59212458 2030:0.67125607 2031:0.28526673 2032:0.3518528 2034:0.26343617 2035:0.11730552 2037:-0.030888369 2038:-0.47723895 2040:0.31060833 2041:0.31060833 2042:-0.6399523 2043:1.5549979 2044:-0.6399523 2045:-0.6399523 2046:1.9328552 2047:1.028064 2048:-0.7850706 2049:-0.13530828 2050:-0.60468775 2051:0.10885119 2052:-0.60468775 2053:0.91941547 2054:-0.54343075 2055:-0.38856378 2056:0.74199945 2057:-0.11011857 2058:0.054412961 2059:0.43975633 2060:-0.63535535 2061:0.95613611 2062:0.53989708 2063:0.85126734 2064:0.85126734 2065:1.5421222 2066:-1.0079433 2067:0.77446151 2068:0.80898416 2069:-1.0024709 2070:0.044633802 2071:-0.56965411 2072:0.015344062 2073:0.037511103 2074:0.53698987 2075:1.5194303 2076:1.3191583 2077:0.037511103 2078:0.037511103 2079:0.037511103 2080:-1.1101273 2081:1.2794083 2082:0.46329609 2083:-0.19220288 2084:0.20492743 2085:0.10778458 2086:0.091250114 2087:1.8990383 2088:0.12662172 2089:0.3854304 2090:0.3854304 2091:-0.18268663 2092:0.22635311 2093:-1.2489069 2094:0.9511506 2095:-0.019702807 2096:0.53420955 2097:-0.066910028 2098:-0.14425258 2099:-0.0506122 2100:-0.60473901 2101:0.34898588 2102:0.66472417 2103:-0.11805743 2104:-0.96310699 2105:1.6198051 2106:-0.83395571 2107:0.12454381 2109:-1.0183792 2110:0.14853665 2111:0.33843121 2112:0.72974551 2113:0.46232548 2115:-0.0052044177 2116:0.14980002 2117:-0.202235 2118:-0.029875265 2119:0.29559532 2120:-0.12606223 2121:-0.013010824 2122:0.38838735 2123:-0.088539481 2124:-0.12606223 2125:-0.61804777 2126:-0.63383615 2127:-0.61675519 2128:0.48209843 2129:-0.63383615 2130:1.2405258 2131:1.8394306 2132:0.38381693 2133:1.8394306 2134:1.6415097 2135:0.39718542 2136:0.0015219154 2137:0.90749347 2138:1.1082441 2139:-0.056369733 2140:-0.07936424 2141:-0.22100607 2142:-0.34919268 2143:-2.3231392 2144:0.65871304 2145:-0.11475161 2146:-0.07936424 2147:-0.07936424 2148:-0.07936424 2149:1.5216707 2150:-0.26513055 2151:1.0843474 2152:-0.07936424 2153:0.34314287 2154:-0.031835321 2155:-0.28679457 2156:1.0390923 2157:-0.2264888 2158:0.69859183 2159:1.2414511 2160:1.9889475 2161:1.4923708 2162:2.4418626 2163:0.59995335 2164:1.0630264 2165:0.22844389 2166:0.22844389 2167:0.22844389 2168:-1.1706082 2169:0.53033805 2170:0.0092833163 2171:-0.89884305 2173:-1.0603486 2174:0.2720266 2175:-0.3516598 2176:1.1421999 2177:-0.63773268 2179:-0.24997525 2180:0.058921378 2181:1.328002 2182:0.058921378 2183:0.058921378 2184:-0.49682724 2185:-0.36711532 2186:0.37362549 2187:0.40539396 2188:0.40539396 2189:0.40539396 2190:0.12469509 2191:-0.88847899 2192:1.264457 2193:0.22752182 2194:0.40539396 2195:-0.25798306 2196:0.33036476 2197:0.33036476 2199:0.077630579 2200:-0.40053076 2201:0.51615024 2202:0.13257439 2205:-0.49761006 2206:0.28562266 2207:0.20631842 2208:-0.25309485 2209:-1.141108 2210:-0.66421932 2211:-0.19808702 2212:0.46024033 2213:-0.36558914 2214:0.66635108 2215:-0.80602783 2216:-0.19808702 2217:-0.82731271 2218:0.64098132 2219:-1.0424485 2220:-0.30092853 2221:0.34360075 2222:0.30085894 2223:0.15042947 2224:-1.7786397 2225:0.37151939 2226:0.37151939 2227:0.28578344 2228:0.37151939 2229:-0.0040153405 2230:0.086774267 2231:0.37151939 2232:0.37151939 2233:0.51852548 2234:0.37151939 2235:-0.62324715 2236:-0.68389255 2237:0.74902946 2238:0.74902946 2239:1.5931259 2240:0.74902946 2241:1.2484323 2242:-0.61590791 2243:-0.61590791 2244:0.12856711 2245:-1.1616185 2246:-0.53029257 2247:-0.5893892 2248:-0.5893892 2249:-0.5893892 2250:-1.09035 2251:-0.016385971 2252:0.88324368 2253:-0.25313494 2254:0.4590345 2255:0.51371658 2256:0.57838541 2257:-0.56631035 2258:-1.4791263 2259:0.80664957 2260:-0.84130287 2261:-1.0053796 2262:0.29593128 2263:0.29593128 2264:0.21686961 2265:0.73360795 2266:0.73360795 2268:0.43240464 2269:-0.36488724 2270:-0.089468196 2271:-1.1494745 2273:-0.04477077 2274:0.60994506 2275:-0.27865562 2276:-0.27865562 2277:-0.27865562 2278:-0.27865562 2279:-0.27865562 2280:-1.4658309 2281:-0.12933803 2282:-0.12933803 2283:0.88085008 2284:0.75498897 2285:-0.3291997 2286:-0.43324834 2287:0.1862762 2288:-0.36180109 2289:0.37135383 2290:-0.14782934 2291:-0.39287156 2292:0.83494562 2293:-0.37607199 2294:-0.39287156 2295:0.095956542 2299:-0.86761516 2300:0.52047634 2301:-0.1382843 2302:0.34971836 2303:0.34971836 2304:0.16823176 2305:0.34971836 2306:0.82139891 2307:-0.18162002 2308:-0.4982757 2309:0.88346004 2310:0.9760012 2311:1.2351246 2312:-0.17946886 2313:1.6096493 2314:1.8719993 2315:1.4007117 2316:-0.81560564 2317:-2.2472088 2318:0.51438111 2319:0.041270293 2320:0.19456632 2321:0.26175022 2322:1.0932926 2323:0.51241267 2324:-0.22147095 2325:0.73675376 2326:0.19147915 2327:0.35846779 2328:0.2731075 2331:0.19303039 2333:0.07338208 2334:0.89357752 2335:0.29605526 2336:0.46404135 2337:-0.011604726 2338:-0.40085661 2339:-0.31485906 2340:0.71962136 2341:-0.92039388 2342:0.53432196 2343:0.13075791 2344:-0.54371017 2345:0.61490613 2346:-0.41459024 2347:-0.78988773 2348:-0.74933839 2349:1.286397 2350:-0.59217614 2351:-0.11669676 2352:-0.035408948 2353:0.99548322 2354:-0.51013929 2355:0.21228456 2356:-0.17234896 2357:-0.29972944 2358:-0.3528915 2359:-0.3528915 2360:-0.010273741 2361:1.0980537 2362:1.5119185 2363:1.0980537 2364:0.86737484 2365:-0.012678826 2366:-0.28213653 2367:-0.53910059 2368:-1.2079753 2369:1.4517282 2370:-0.11438219 2371:-0.090759374 2372:0.059165411 2373:-1.1261859 2374:-0.026908502 2375:0.31845084 2376:0.45621058 2377:-0.11438219 2378:1.3296676 2379:-0.041213151 2380:0.23500416 2381:-0.51115507 2382:0.038657829 2383:-0.041213151 2384:-0.041213151 2385:0.83279693 2386:1.0586479 2387:-0.041213151 2388:-0.0026035667 2389:-0.20140773 2390:0.5747686 2391:0.84878647 2392:0.35403559 2393:0.91731268 2394:-0.2667805 2395:0.43172899 2396:0.87355363 2397:-0.22748417 2398:-0.06338089 2399:-0.19038078 2400:0.44246382 2401:0.93209362 2402:0.078881912 2403:0.71861112 2404:0.26122233 2405:-0.06338089 2406:-0.06338089 2407:0.11487209 2408:0.19952452 2409:0.19952452 2410:1.042482 2411:1.0115912 2412:0.24639548 2413:0.35785294 2414:0.35785294 2415:0.43886036 2416:1.6161363 2417:0.35785294 2418:0.44944352 2419:0.52081835 2420:0.35785294 2421:0.57104003 2422:0.14421041 2423:0.14421041 2424:-0.99762845 2425:0.23477449 2426:0.258692 2427:-0.17423065 2428:0.49276635 2429:0.19954799 2430:0.085393116 2431:0.14421041 2432:0.14421041 2433:0.14421041 2434:2.0255427 2435:0.14421041 2436:-0.53845584 2437:0.14421041 2438:1.5238699 2439:-0.013400698 2440:0.82435328 2441:-0.19619162 2442:-0.20498878 2443:-0.49180675 2444:-1.5594846 2445:0.28614619 2446:0.28002736 2447:0.34339094 2448:0.81208724 2449:-1.2062753 2450:-0.85170388 2451:0.053090032 2452:-1.4284006 2453:-1.0811973 2454:-1.0811973 2455:-0.081204414 2456:-0.86397266 2457:0.59676307 2458:-0.024028799 2459:0.094834641 2460:-0.34508109 2461:0.26137784 2462:-0.31746742 2463:0.15570286 2464:0.094834641 2465:0.56635314 2466:1.3313285 2467:0.16290179 2468:1.1933155 2469:0.094834641 2470:0.094834641 2471:-0.028423473 2472:0.053369693 2473:0.18533532 2474:0.88464248 2475:-0.71776044 2476:0.33585131 2477:0.020578906 2478:-0.12989342 2479:-0.97940582 2480:0.053369693 2481:0.86559105 2482:0.20140836 2483:0.93496501 2484:0.79508793 2485:0.053369693 2486:0.99151748 2487:0.2440027 2488:0.053369693 2489:0.6992228 2490:-0.74419808 2491:-1.5744264 2492:-1.5744264 2493:0.14375868 2494:0.24167228 2495:0.053314552 2496:-0.35584483 2497:0.52923352 2498:0.73494858 2499:-0.0049467776 2500:-0.13532014 2501:-0.11150853 2502:0.053314552 2503:0.51980269 2504:-0.75201112 2505:1.0613444 2506:1.2728416 2507:-0.59907186 2508:-0.48409525 2509:-0.73057264 2510:0.051050793 2511:0.037258673 2512:0.62513274 2513:-0.56980228 2514:-0.53271967 2515:-1.2433879 2516:-0.56980228 2517:2.542465 2518:-0.59488964 2519:-0.16394348 2520:-0.16394348 2521:-0.6649003 2522:0.26850054 2523:-0.041883368 2524:0.68333226 2525:-0.43698418 2526:0.044640176 2527:-0.094510205 2528:-0.094510205 2529:-0.094510205 2530:0.72404194 2531:-0.088780649 2532:0.72404194 2533:-0.052176114 2534:-0.81845176 2535:-0.82179564 2536:-0.052176114 2537:0.027177513 2538:0.1218861 2539:-0.10663026 2540:1.340395 2541:-0.063736305 2542:-0.049360782 2543:0.0015547954 2544:-0.25465015 2545:-0.026157612 2546:-0.10663026 2547:0.52674288 2548:-0.30976832 2549:-1.3204297 2550:-0.10663026 2551:-0.2003341 2552:-0.2003341 2553:0.52586949 2554:0.176182 2555:-0.35446587 2556:0.77456015 2557:-0.2003341 2558:0.60298413 2559:-0.12700313 2560:-0.12700313 2561:-0.44358516 2562:-0.44358516 2563:-1.5402448 2564:-0.44358516 2565:-0.44358516 2566:-0.24859853 2567:-0.55780619 2568:-0.13635726 2569:-0.22386828 2570:-2.010566 2571:0.46341911 2572:-0.48755869 2573:-0.19788362 2574:0.88533127 2575:0.78712434 2576:0.814722 2577:-0.66074419 2578:0.048747059 2579:0.048747059 2580:1.1814473 2581:-0.39828646 2582:-0.76200974 2583:-1.0032823 2584:0.36912614 2585:-0.61167544 2586:0.64695221 2587:0.1512479 2588:0.65667963 2589:1.2101992 2590:0.3743017 2591:0.8859241 2592:-1.1613539 2593:0.80385256 2594:1.0878071 2595:-1.0075094 2596:-1.0075094 2597:-1.0075094 2598:-0.2130263 2599:1.3700374 2600:-0.085378297 2601:0.056257367 2602:-0.080681264 2604:0.66484612 2605:-0.58614653 2606:-0.2828142 2607:0.33062759 2608:0.36751127 2609:-0.29238939 2610:-0.24260588 2615:-0.47712374 2616:-0.51956826 2618:-0.54541153 2619:0.91518438 2620:-0.2574397 2621:-0.05012754 2623:-0.026175015 2624:0.49370265 2625:1.1569822 2626:1.1569822 2627:0.027990749 2628:-0.401261 2629:-0.31310368 2630:0.027990749 2631:-1.0421407 2632:0.027990749 2633:0.55612499 2634:-0.57643813 2635:0.75363058 2636:-0.72290784 2637:-0.51684475 2642:0.24698138 2643:0.42935091 2644:-0.36721441 2645:-0.38292435 2646:-0.12817642 2647:-1.2140985 2648:-0.55156857 2649:-0.47719863 2650:-0.94732672 2651:0.50552964 2652:1.0411015 2653:0.28395662 2654:-0.27268827 2655:0.95367068 2656:0.50552964 2657:0.27216536 2658:0.50552964 2659:-0.14188661 2660:0.29843709 2661:0.16331869 2662:0.079651915 2663:-0.055081412 2664:-0.055081412 2665:-0.48821056 2666:-0.16354915 2667:1.7665538 2668:-0.33184928 2669:-0.4937377 2670:-0.38322169 2672:-0.0019648585 2673:0.46047139 2674:0.73799932 2676:-0.85401088 2678:0.73140132 2679:-0.76461482 2680:0.14922874 2681:-0.14345571 2682:1.2103004 2683:-0.053123791 2684:-0.40456292 2685:0.68454212 2686:-0.46230483 2687:0.17170039 2688:0.85039651 2689:0.19535686 2690:0.17170039 2691:0.17170039 2692:-0.14201041 2693:-0.95688194 2694:-0.076323114 2695:0.24074557 2696:-0.30197757 2697:-0.5177297 2698:-0.65077972 2699:-0.95081222 2700:0.77570397 2701:-1.639764 2702:1.4133335 2703:0.25875464 2704:0.35599294 2705:0.027547769 2706:0.25875464 2707:0.070875488 2708:-1.1524951 2709:-0.012959645 2710:-0.096827634 2711:-1.7744306 2712:0.59754044 2713:0.12581663 2714:-0.1857105 2715:-0.059204802 2716:-0.065788642 2717:-1.3716916 2718:0.55025744 2719:1.0838102 2720:0.13489428 2722:0.7123546 2723:1.2791927 2725:0.78595269 2726:0.72833508 2727:1.6266366 2728:-0.36136007 2731:0.86673605 2732:0.74721807 2733:0.51100737 2734:-0.16581005 2735:-0.16581005 2736:-0.11100736 2737:-1.2935022 2738:-1.2935022 2739:-1.1710185 2740:-0.69841313 2741:0.39035481 2742:-0.74364066 2743:0.91712284 2744:-0.63536984 2745:0.0042766184 2746:-0.72179806 2747:0.72144097 2748:-2.5426316 2749:-0.55720186 2750:0.27927086 2751:0.50844175 2752:0.61199617 2753:0.93320698 2754:-1.9890589 2755:-0.471062 2756:-0.10854226 2757:-0.83573133 2758:1.6031954 2759:1.5118914 2760:0.32460323 2761:1.1566702 2762:1.232015 2763:0.99120694 2764:1.5186318 2765:-1.2340361 2766:0.28272536 2767:0.58863193 2768:0.79663706 2769:1.0232829 2770:1.459167 2771:1.459167 2772:-0.26581872 2773:-1.4288905 2774:1.5860894 2775:-0.026646225 2776:-0.026646225 2777:-0.026646225 2778:-0.40767458 2779:-0.14949442 2780:-0.34917569 2781:-0.34917569 2782:0.072386116 2783:-0.34917569 2784:-0.34917569 2785:-0.6099748 2786:-0.71746504 2787:-0.34917569 2788:-0.36136007 2789:0.37486216 2790:0.34022644 2791:-0.081060499 2792:0.34022644 2793:0.34022644 2794:0.34022644 2795:0.55918443 2796:0.34022644 2797:0.42663836 2798:-0.03320865 2799:1.1001555 2800:0.2199409 2801:0.58482814 2802:0.46549183 2803:0.57505804 2804:0.40055403 2805:0.31316617 2806:0.31316617 2807:-0.71517777 2808:-1.2437171 2809:-0.30182579 2810:0.27508774 2811:-0.50732136 2812:-0.50459695 2813:-0.88723242 2814:0.10577111 2815:1.5558492 2816:0.25187713 2817:1.4239804 2818:0.42829728 2819:0.49335369 2820:0.94924974 2821:0.47462487 2822:-0.071572199 2823:-0.52101761 2824:0.47462487 2825:0.018066719 2826:0.018066719 2827:0.21604981 2828:0.10687725 2829:-0.64846861 2830:0.018066719 2831:-0.5974502 2832:0.018066719 2833:-0.056759667 2834:0.018066719 2835:0.042371474 2836:0.38339248 2837:0.023622813 2838:0.023622813 2839:0.023622813 2840:0.38965884 2841:1.678226 2842:0.020969804 2843:0.13388959 2844:1.7910922 2845:-0.080903538 2846:-0.30750406 2848:0.82113081 2849:0.47702155 2850:0.021419803 2851:-0.26883909 2852:0.14198661 2853:-0.085199222 2854:0.84486264 2855:-0.51834613 2856:-0.26883909 2857:0.081012107 2858:1.2518716 2859:0.04508093 2860:-0.45275265 2861:-0.16530238 2862:-0.31680378 2863:-0.16669859 2864:-0.77941632 2865:0.12146255 2866:0.76193732 2867:0.60299051 2868:1.3944181 2869:0.076244056 2870:-0.15077259 2871:0.70803899 2872:0.076244056 2873:-0.15852547 2874:0.076244056 2875:0.45326498 2876:-0.1333773 2877:0.36603603 2878:1.3585328 2879:0.58242261 2880:0.36603603 2881:0.36603603 2882:0.36603603 2883:0.36603603 2884:0.36871254 2885:0.84602636 2886:1.0002943 2887:0.53994423 2888:-0.033225451 2889:0.92504376 2890:0.68554407 2891:0.51530933 2892:0.75893843 2893:-0.67280006 2894:-0.17787215 2895:0.17170538 2896:-0.17787215 2897:-0.17787215 2898:-0.2109831 2899:-0.17787215 2900:0.58217257 2901:0.28599307 2902:1.6120641 2903:1.1582729 2904:-0.036343016 2905:0.2663241 2906:0.68084389 2907:1.6303509 2908:0.63257223 2909:-0.43059906 2910:-1.6702932 2911:-0.18454915 2912:-0.26049009 2913:1.1076223 2914:1.3588058 2915:1.2494464 2916:0.66157633 2917:-0.12250259 2918:-0.039947342 2919:-0.25519055 2920:0.37992436 2921:-0.039947342 2922:-3.1984174 2923:-0.13009934 2924:-0.40053076 2925:1.1224921 2926:-0.52925229 2927:-0.49713141 2928:-0.26237932 2929:0.49906987 2930:-0.40053076 2931:-0.045526888 2932:-0.65924442 2933:-0.44676036 2934:0.89884025 2935:0.43373746 2936:0.8583647 2937:-1.4274317 2938:1.7167294 2939:0.14414364 2940:0.88363892 2941:-1.8286484 2943:-0.020530248 2944:-0.1709303 2945:-0.19753823 2946:0.85792285 2947:-0.27276734 2948:0.90951699 2949:1.1373497 2950:0.90951699 2951:0.90951699 2952:-1.3286239 2953:-0.54159015 2954:-1.6629195 2955:1.5064439 2956:-0.54159015 2957:0.015121854 2958:-0.47301528 2959:-0.78781551 2960:-0.060456455 2961:-0.54159015 2962:-0.54159015 2963:-0.54159015 2964:-0.59167349 2965:0.74726677 2966:0.74726677 2967:-0.54159015 2968:1.4198419 2969:0.3561514 2970:-0.66362375 2971:-0.24555936 2972:-0.13214983 2973:0.84648687 2974:-0.27786204 2975:-1.2112961 2976:-1.2112961 2977:-0.91170567 2978:0.34684676 2979:0.34684676 2980:0.34684676 2981:-2.0631399 2982:0.51513302 2983:0.34684676 2984:0.34684676 2985:-0.31328991 2986:-1.7227981 2987:-0.11576212 2988:-1.9149081 2989:0.67678529 2990:-0.85971421 2991:0.3362543 2992:0.3362543 2993:-0.024237016 2994:-0.6226716 2995:0.055503596 2996:0.055503596 2997:0.19908026 2998:-0.40952599 2999:0.63644189 3000:-0.57052875 3001:0.1487622 3002:-0.70268828 3003:-0.39141026 3004:0.57962418 3005:0.57962418 3006:1.0263892 3007:0.83466399 3008:1.535278 3009:-0.064668745 3010:-0.16126943 3011:-0.064668745 3012:0.90763777 3013:0.48893592 3014:-0.064668745 3015:1.039173 3016:1.0618695 3017:-1.2867888 3018:0.35328826 3019:-0.079353623 3020:-0.15957189 3021:0.08341115 3022:-0.19147094 3023:1.1031079 3024:0.5620653 3025:0.5620653 3026:0.63440686 3027:0.020549586 3028:0.83024693 3029:-1.1123499 3030:0.82340062 3031:-0.61306214 3032:-0.38026983 3033:-1.1336417 3034:-0.93251854 3035:-0.060167637 3036:0.42568702 3037:0.49765646 3038:-0.20365575 3039:0.12131123 3040:-0.76314223 3041:-0.83323073 3042:-0.83323073 3043:0.12774867 3044:1.0413576 3045:0.15968284 3046:-0.47335729 3047:0.21633951 3048:-0.23667865 3049:0.20820709 3050:-0.55689675 3051:-0.23667865 3052:0.17331056 3053:-0.14790691 3054:-0.056341153 3055:-0.10954102 3056:-0.70988733 3057:-0.36496878 3058:-0.36496878 3059:0.59741366 3060:-0.15980126 3061:-0.16166452 3062:-0.039278414 3063:-0.039278414 3065:0.58124173 3066:0.58124173 3067:0.58124173 3068:2.0015216 3069:-0.060671575 3070:0.26951134 3071:0.81788981 3072:-0.22765799 3073:0.90893871 3074:-0.84111178 3075:-0.71358287 3077:1.1327002 3078:0.014755714 3079:0.33001667 3080:0.33001667 3081:1.1104317 3082:-0.663894 3083:-0.63939458 3084:-0.86048031 3085:1.9766501 3086:-0.33081046 3087:1.1328599 3088:0.49410769 3089:-0.30889663 3090:-0.30889663 3091:-0.30889663 3092:-0.30889663 3093:-0.30889663 3094:-0.042165074 3095:-0.18296058 3096:-0.16831498 3097:-0.24622537 3099:-0.072783351 3100:-0.52768487 3101:-0.52768487 3102:-0.38518882 3103:-0.52768487 3104:-1.3958143 3105:-0.01482628 3106:0.71718633 3107:0.87387264 3108:-1.0838904 3109:-1.0061128 3110:-0.62233913 3111:0.21513015 3112:0.21513015 3113:0.21513015 3114:0.21513015 3115:-0.044119954 3116:0.21513015 3117:-0.19349483 3118:1.1069596 3119:-0.19686933 3120:0.21513015 3121:0.4900783 3122:0.21513015 3123:0.21513015 3124:-1.1235561 3125:0.21513015 3126:0.21513015 3127:0.19603993 3128:-0.54926151 3129:-0.54926151 3130:-0.54926151 3132:-0.30494037 3133:1.5428005 3135:0.94261658 3136:-0.13451505 3137:0.98731315 3138:-0.26433337 3139:0.5745905 3140:0.36961892 3141:-0.26433337 3142:-0.41688082 3143:-0.46454445 3144:-0.26433337 3145:0.35867104 3146:-0.36340049 3147:-0.50878936 3148:0.092138223 3149:-0.26433337 3150:-0.26433337 3151:-0.72006577 3152:-0.14721382 3153:-0.39506635 3154:-0.39506635 3155:-0.32549137 3156:1.0389378 3157:-1.3553708 3158:-0.31391084 3159:0.17767969 3160:-0.77358359 3161:0.92293841 3162:1.1339079 3163:0.10087144 3164:1.1339079 3165:-1.0936879 3166:0.42879787 3167:1.1339079 3168:-0.69820893 3169:0.6020354 3170:0.77452475 3171:0.53640419 3172:-0.53751928 3173:-0.13261761 3174:0.33306074 3175:0.18188401 3176:-0.44548237 3177:-0.40729684 3178:-0.37899512 3179:-0.5023123 3180:-0.5023123 3181:-0.43066999 3182:-0.16285682 3183:1.1313735 3184:0.2129039 3185:0.2129039 3186:0.26538989 3187:0.2129039 3189:-1.3642212 3190:-0.27653304 3191:-0.048883691 3192:1.0225817 3193:0.089150675 3194:0.89816141 3195:0.29691446 3196:-0.50894392 3197:0.72685426 3198:-0.59365797 3199:0.93987268 3200:0.93987268 3201:1.9351957 3202:0.69977331 3203:0.69958186 3204:0.62283885 3205:0.36279055 3206:0.78203064 3207:0.014684788 3208:-0.017790403 3209:-0.85807562 3210:-0.24181424 3211:0.73811555 3212:-0.84838277 3213:0.37397379 3214:-0.51769537 3215:1.4449029 3216:-0.51769537 3217:-0.51769537 3218:-0.46611145 3219:-0.51769537 3220:-0.34471884 3221:0.4354156 3222:-0.25613153 3223:-1.1060691 3224:-0.18505327 3225:0.17791054 3226:0.12453068 3227:1.5497892 3228:0.68963414 3229:-1.1562879 3230:-0.7602331 3231:-0.81557655 3232:-0.81557655 3233:-0.81557655 3234:-0.53054368 3235:0.4146634 3236:0.46046156 3237:0.79638046 3238:0.46046156 3239:0.36801979 3240:-0.70110607 3241:0.77919 3242:0.35536745 3243:0.78866035 3244:0.32942653 3245:0.2809701 3246:0.058212958 3247:0.22690202 3248:0.39591125 3249:0.34059688 3250:-0.33797905 3251:-0.046318624 3253:-0.091752186 3254:-0.091752186 3255:-0.030137591 3256:-0.091752186 3257:-0.091752186 3258:-0.091752186 3259:-0.091752186 3260:-0.20321168 3261:0.9066056 3262:0.49064645 3263:-0.091752186 3264:0.065860569 3265:0.36683965 3266:-0.091752186 3267:-0.890329 3268:0.71511263 3269:-0.64763951 3270:-0.091752186 3271:-0.091752186 3272:-0.76359916 3273:-0.90781969 3274:-0.091752186 3275:-0.80391443 3276:0.11651935 3277:-0.017942484 3278:0.13821639 3279:-1.2024101 3280:0.402233 3281:2.1797018 3282:-0.4121291 3283:-0.032179777 3284:-0.53371304 3285:-0.53371304 3286:0.14581354 3287:-0.53371304 3288:1.9409596 3289:-0.47770163 3290:0.53557181 3291:0.6323961 3292:-0.69234729 3293:0.53557181 3294:0.53557181 3295:0.53995574 3296:0.35568976 3297:0.50932634 3298:-1.0577546 3299:0.74003941 3300:-1.0474107 3301:0.17169091 3302:-0.10084838 3303:-0.47173923 3304:1.11218 3305:0.20695196 3306:-0.14603795 3307:0.027431432 3309:-0.044148359 3310:-0.15922868 3311:-0.15807702 3312:-0.52475441 3313:2.0000629 3314:0.36380088 3315:-1.2431629 3316:-1.1865693 3317:-0.49570432 3318:0.22669762 3319:-0.49570432 3320:-0.49570432 3321:-0.49570432 3322:0.21174403 3323:-0.49570432 3324:-0.49570432 3325:0.10056166 3326:0.62219995 3327:-0.47971728 3328:-0.62000263 3329:-0.49570432 3330:0.85350931 3331:0.37104589 3332:0.52939916 3333:1.1589266 3334:0.52939916 3335:0.25742552 3336:0.020252308 3337:0.58976322 3338:0.65208453 3339:-0.15217994 3340:0.27869424 3342:-0.37994933 3344:1.0483913 3345:-0.66851234 3346:-0.016892711 3347:0.72445738 3348:-0.98795861 3349:0.44902799 3350:0.6417861 3351:0.50668287 3352:0.026244679 3353:0.0028914397 3354:0.33566886 3355:-0.15495822 3356:0.042869262 3357:-0.50847244 3358:0.5280652 3359:-0.77517962 3360:0.22994423 3361:0.077676699 3362:0.2226218 3363:0.010254391 3364:0.2226218 3365:0.2226218 3366:0.13451467 3367:0.6070202 3368:0.2226218 3369:0.42998624 3370:0.42998624 3371:0.030582223 3372:0.030582223 3373:0.030582223 3374:-0.0056623612 3375:0.030582223 3376:0.030582223 3377:1.1584271 3378:0.030582223 3379:0.61642569 3380:-0.089128338 3381:-1.3926551 3382:-0.11149103 3383:-0.41205767 3384:-1.3826411 3385:0.26539093 3386:-2.0549536 3387:0.26382834 3388:0.075192139 3389:0.51062906 3390:0.75762284 3392:0.10939739 3393:0.41370592 3394:-0.12122537 3395:-0.98605847 3396:-0.48944715 3397:-0.12122537 3398:0.9845168 3399:-0.12122537 3400:-0.53313571 3401:-0.72392148 3402:0.053366903 3403:-0.24097745 3404:0.35909018 3405:-0.67218477 3407:0.74847227 3408:-0.85660815 3410:0.13649982 3411:0.029954163 3412:0.084150806 3413:0.011758261 3414:-0.020530248 3415:0.43338478 3416:-0.99376166 3417:0.71404344 3418:0.71404344 3419:1.3252969 3421:1.4341612 3422:-0.99073994 3424:-0.35001329 3426:0.24312526 3427:1.1478257 3428:1.1478257 3429:0.65280038 3430:1.1478257 3431:0.31272832 3432:0.82469738 3433:-0.53358263 3434:0.24272633 3435:0.6182183 3436:0.13042541 3437:0.13042541 3439:0.44100788 3440:1.1662666 3441:1.0483913 3442:0.61913955 3443:0.14940347 3444:-0.89677858 3445:-0.23852116 3446:0.12821922 3447:-0.75945795 3448:0.32143742 3450:0.11578275 3451:0.1598514 3452:0.2964282 3453:0.2964282 3454:-0.10107505 3455:0.78175479 3456:-0.31947118 3457:0.2964282 3458:-0.42130181 3459:-0.42130181 3460:-0.74778628 3461:-0.42130181 3462:-0.77769363 3463:-0.24144098 3464:-0.24563235 3465:-0.43759546 3466:0.290966 3467:-1.3262943 3468:-0.43759546 3469:-0.43759546 3470:-0.72955799 3471:-0.43759546 3472:1.2309526 3473:-0.10646524 3474:0.46331751 3476:0.62412119 3477:0.32661027 3478:0.49213099 3479:0.32661027 3480:-0.59673482 3481:-0.31911105 3482:-0.53133643 3483:0.68101281 3484:0.080472648 3485:0.080472648 3486:0.080472648 3487:0.036865272 3488:0.080472648 3489:-0.020864453 3490:-0.25584814 3491:0.25676382 3492:0.38707259 3493:-0.69488132 3494:-0.69037217 3495:-0.044863082 3496:-0.85853338 3497:0.19783863 3498:-2.0805688 3499:-0.21933644 3500:0.28758046 3501:-0.35956624 3502:-0.35956624 3503:-0.35956624 3504:0.22690429 3505:-0.35956624 3506:-0.49849644 3507:0.37095976 3508:-0.9716177 3509:-0.021786338 3510:0.083461583 3511:-0.35765025 3513:-0.22765799 3514:0.66663563 3515:0.29020646 3516:0.66663563 3517:0.66663563 3518:0.72311276 3519:0.43034846 3520:0.3520543 3521:0.99478495 3522:0.99478495 3523:0.99169981 3524:0.23293224 3525:0.23293224 3526:0.23293224 3527:0.70813769 3528:-0.14571178 3529:1.1027515 3530:0.59806716 3531:0.69144022 3532:0.40501675 3533:-0.1043692 3534:-0.073154658 3535:0.022049366 3536:0.022049366 3537:0.022049366 3538:0.022049366 3539:-0.25613832 3540:0.022049366 3541:0.037481103 3542:-0.24400376 3543:0.038237099 3544:-0.24400376 3545:0.049101848 3546:0.37058759 3547:0.44422328 3548:0.43966609 3549:1.1434381 3550:0.31284839 3551:0.077333219 3552:0.073288746 3553:-0.12475479 3554:-0.19002135 3555:0.86037606 3556:0.44820562 3557:-0.19002135 3558:-0.14011823 3559:-0.19002135 3560:-0.24798809 3561:1.9718168 3562:-0.38355389 3563:-0.12603922 3564:0.98765689 3565:-0.39041314 3566:-0.024848331 3567:0.93601769 3568:0.49019164 3569:1.1393973 3570:1.2630213 3571:1.7860833 3572:1.5289289 3573:-0.80000073 3574:-0.62636817 3575:-1.0525115 3576:1.0657787 3578:-0.014498319 3579:-1.2018367 3580:0.14130498 3581:0.48681319 3582:0.48681319 3583:0.37529749 3584:1.4835672 3585:1.4273167 3586:0.25687513 3587:-0.69440347 3588:-0.77802587 3589:0.1726874 3590:0.42219445 3591:0.42219445 3592:0.42219445 3593:0.42219445 3594:0.42219445 3595:-0.39800814 3596:0.40835235 3597:0.42219445 3598:-0.17771101 3599:0.46585178 3600:0.39154744 3601:-0.71424222 3602:-0.71424222 3603:-0.71424222 3604:1.3087462 3605:-0.75382489 3606:-0.75382489 3607:0.43240464 3608:-0.43915054 3609:1.8899949 3610:0.25493705 3611:-0.063301437 3612:0.22137722 3613:0.97435188 3614:0.85497308 3615:1.0566645 3616:0.1266591 3617:0.36862507 3618:0.36862507 3619:0.36862507 3620:-0.50418127 3621:-0.18630448 3622:-0.55036134 3623:0.36862507 3624:0.61486685 3625:-0.34862858 3626:2.4084432 3627:1.9386309 3628:0.35843748 3629:0.28015921 3630:0.28015921 3631:0.28015921 3632:0.33591893 3633:0.29719934 3634:0.33591893 3635:0.54606009 3636:0.33591893 3637:-0.41024864 3638:0.87605536 3639:1.0814778 3640:0.1021405 3641:0.1021405 3642:0.06376531 3643:0.1021405 3644:1.2637509 3645:-0.10935135 3646:-1.2418451 3647:0.66078508 3648:1.082171 3649:0.53803682 3650:-0.62716526 3651:1.3905202 3652:-2.0987427 3653:0.030560276 3654:-0.19638105 3655:-0.19638105 3656:-0.58583146 3657:0.50533366 3658:-1.2557055 3659:-0.51529044 3660:0.47865459 3661:0.2393273 3662:0.03777061 3663:0.2393273 3664:0.2393273 3665:-0.19221382 3666:-0.42104375 3667:-0.63926852 3668:0.54000986 3669:-1.5145507 3670:1.6638982 3671:0.15103398 3672:-0.37259939 3673:-0.51368439 3674:-0.03066764 3675:0.3276549 3676:-0.23299468 3677:-0.03066764 3678:-0.03066764 3679:-0.21961749 3680:-0.03066764 3681:-0.40513059 3682:0.047841415 3683:-0.03066764 3684:-0.03066764 3685:-0.03066764 3687:-0.6030798 3688:1.5203495 3689:0.28224087 3690:0.053464264 3691:0.28224087 3692:-0.77800453 3693:-0.77800453 3694:-0.29041108 3695:-0.77800453 3696:-0.77800453 3697:0.62036961 3698:-1.4131588 3699:0.0038668506 3700:-1.4588604 3701:-0.56703514 3702:0.2912977 3703:-0.56703514 3704:-0.56703514 3705:-0.56703514 3706:-0.57672381 3707:0.13725933 3708:-0.57672381 3709:0.9882949 3710:-0.12064879 3711:-0.12064879 3712:-0.29655588 3713:0.71243525 3714:-0.12064879 3715:-0.12064879 3716:-0.19172807 3717:-0.12064879 3718:-0.12064879 3719:-0.17304942 3720:0.93732828 3721:0.12206025 3722:0.12206025 3723:-0.075961791 3724:1.1259916 3725:0.1456878 3726:0.32077959 3727:0.57412779 3728:-0.50862855 3729:0.016880356 3730:0.1456878 3731:0.1456878 3735:-0.79424542 3736:-0.57045269 3737:-0.22791402 3738:1.0027875 3739:0.87981677 3740:0.50106686 3741:0.50106686 3742:0.50106686 3743:0.50106686 3744:-1.2868104 3745:0.50106686 3746:-0.092741579 3747:0.50106686 3748:0.50106686 3749:0.50106686 3750:0.4053511 3751:0.50106686 3752:-0.15595435 3753:-0.52230638 3754:-0.21793552 3755:-0.51294637 3756:-0.0071178954 3757:-0.27315393 3758:-0.27315393 3762:-0.1711888 3764:-0.84055048 3766:0.54650462 3771:-1.8460138 3772:0.76308161 3773:0.26307017 3774:-0.70985538 3775:-0.22345766 3776:-0.6496973 3777:-0.46527392 3778:-0.70985538 3779:-0.12734112 3780:-0.73911995 3781:-0.73911995 3782:-0.71225631 3783:-0.30560559 3784:-0.73911995 3785:-0.20155668 3786:0.2619682 3787:-0.08091712 3788:-0.20155668 3789:0.34009612 3790:0.65253234 3791:-0.53840411 3792:-0.79681587 3793:-1.1058588 3794:-0.7438944 3795:2.2487376 3796:-0.3719472 3797:0.48777089 3798:1.040596 3799:1.1731068 3800:-0.30043098 3801:-0.30043098 3802:0.13473333 3803:0.13473333 3804:-1.2224863 3805:-1.5186856 3806:0.13473333 3807:0.13473333 3808:-0.40625963 3809:0.13473333 3810:0.26946667 3811:0.13473333 3812:0.90313506 3813:0.13473333 3814:-0.13639474 3815:-0.13639474 3816:1.2133447 3817:0.19112407 3818:-0.13755116 3819:-0.1992863 3820:2.2832508 3821:-0.63596821 3822:-0.86245179 3823:-1.6093693 3824:0.53904825 3825:0.44819716 3826:0.26463264 3827:0.50012529 3828:-0.0092606358 3829:0.50012529 3830:0.50012529 3831:-0.021145642 3832:0.08079803 3833:0.96641916 3834:0.9793548 3836:-0.9078725 3838:-0.58118415 3839:-0.7368865 3840:1.3489865 3841:-0.24834359 3842:0.29342178 3843:0.87587589 3844:-0.041881032 3845:1.0635237 3846:0.15175188 3847:0.0010302032 3848:0.18294533 3849:0.0030906096 3850:0.0010302032 3851:-0.30336103 3852:0.0010302032 3853:0.0010302032 3854:0.0010302032 3855:0.26107848 3856:0.0010302032 3857:-0.29878989 3858:-0.80360627 3859:0.15486753 3860:-0.29878989 3861:0.41286293 3862:-0.29878989 3863:-0.29878989 3864:-0.51403826 3865:-0.18148659 3866:-0.18148659 3867:-0.17007354 3868:0.90171218 3869:0.44630015 3870:0.44630015 3871:0.40733182 3872:0.40733182 3873:0.51413953 3874:-1.3192874 3875:0.40733182 3876:0.89906329 3877:-0.74944496 3878:0.58173984 3879:0.19899091 3880:1.6053914 3881:0.36221719 3882:-0.49026018 3883:-0.22256769 3884:-0.57331294 3885:0.36711007 3886:0.45551401 3887:-0.22256769 3888:-0.22256769 3889:-0.22256769 3890:-0.22256769 3891:0.29754677 3892:-0.22256769 3893:0.3194249 3894:0.97143793 3895:-0.99462706 3896:0.25699359 3897:0.066032909 3898:-0.49608096 3899:0.2298221 3900:0.087412454 3901:0.087412454 3902:-0.31779367 3903:0.98782879 3904:1.2031054 3905:0.54538989 3906:-0.11656027 3907:-0.50002956 3908:0.065900683 3909:-0.11656027 3910:-0.11656027 3911:-0.11656027 3912:-0.11656027 3913:-0.46193907 3914:-0.21524322 3915:-1.0058721 3916:0.17450696 3917:-0.21524322 3918:-0.088105597 3919:1.7930954 3920:-0.28917232 3921:-0.47124824 3923:0.32141241 3924:-0.36764801 3925:-0.91053182 3926:-0.37143618 3927:-0.97992748 3928:1.7995201 3929:-0.53304029 3930:-0.40823773 3931:0.56571084 3932:0.094899602 3933:-0.65736306 3934:-0.77542621 3935:-1.0589951 3936:-0.52958184 3937:0.45587069 3938:0.7137962 3940:-1.2270304 3941:-0.79032356 3942:-0.34190267 3943:-0.040861312 3944:0.27953392 3945:-1.1323533 3946:0.46352488 3947:-0.86868936 3948:0.46352488 3949:-0.004677075 3950:-0.5793395 3951:1.5786685 3952:0.25357723 3953:-0.46169084 3955:-0.24421182 3956:0.773157 3958:-0.73309493 3959:-0.48150802 3960:-0.70046604 3961:-0.70046604 3962:-0.70046604 3963:-0.085742533 3964:1.4937871 3965:-0.9129132 3966:-0.41251862 3967:-0.62105316 3968:-0.872244 3969:-0.50396943 3970:-0.28154209 3971:-1.6552156 3972:0.27901331 3973:0.6458531 3974:0.57556975 3975:0.34376377 3976:0.080531724 3977:0.34376377 3978:0.34376377 3979:-0.41959062 3980:-0.29553324 3981:-0.41959062 3982:-0.41959062 3983:-0.80787164 3984:0.85411841 3985:0.54065406 3986:-0.38361081 3987:-1.064467 3988:1.8071895 3989:0.13585539 3990:-0.91383123 3991:0.10939739 3992:0.10939739 3993:0.089130051 3994:0.09349402 3995:-0.1953726 3996:-0.83810323 3997:-0.1953726 3998:-0.35733557 3999:-0.35733557 4000:0.36671257 4001:-0.41947681 4002:-0.68831307 4003:-1.1819968 4004:0.23528427 4005:-0.029612146 4006:0.076925673 4007:-0.0016877026 4008:0.050750662 4009:-0.095981769 4010:0.38611469 4011:0.48091206 4012:-0.46613231 4013:-0.46613231 4014:0.30939037 4015:-0.049609523 4016:-0.25948954 4017:0.078489505 4018:0.078489505 4020:-0.34709811 4021:-0.40291828 4022:-0.92071474 4023:-0.40291828 4024:0.1736038 4025:-1.0775087 4026:0.23058757 4030:-0.23694927 4031:-0.78925151 4034:-0.2703521 4036:-0.15291718 4037:-0.74636638 4038:0.018928004 4039:0.034733161 4040:-0.47783187 4041:-0.10129453 4042:0.20872197 4043:-0.38791332 4044:-0.42876235 4045:-1.4104633 4046:0.030219024 4047:0.86238229 4048:-1.3212137 4049:0.32043487 4050:1.1400012 4051:1.2738708 4052:-0.39115262 4053:0.27052048 4054:-0.23736721 4055:-0.27007952 4056:0.037971839 4057:0.037971839 4058:0.037971839 4059:-1.2678549 4060:0.037971839 4061:0.037971839 4062:-0.3180148 4063:-0.39673841 4064:-0.98067969 4065:-0.39673841 4066:-0.39673841 4067:-0.39673841 4068:-0.76565433 4069:-0.66252989 4070:-0.49423316 4071:1.6703207 4072:-2.3635864 4073:1.7999513 4074:1.6703207 4075:-0.40644729 4076:-0.2825793 4077:-0.34110963 4078:0.61286265 4079:-0.46530384 4080:-0.3038466 4081:0.8436709 4082:0.88360804 4083:0.3840282 4084:0.3840282 4085:0.3840282 4086:0.74888539 4087:0.3840282 4088:0.88959581 4089:-0.50441563 4091:-0.32097882 4092:0.0077492986 4093:-0.46656349 4094:-0.087360755 4095:-0.41375369 4096:-1.2320085 4097:1.2416079 4098:0.61594659 4099:-0.080975495 4100:0.32591376 4101:1.4160883 4102:0.96111578 4103:0.43997639 4104:0.43997639 4105:0.48565486 4106:0.54727888 4107:0.48565486 4108:0.64928049 4109:0.48565486 4110:0.48565486 4111:0.48565486 4112:0.48565486 4113:0.36318108 4114:0.75476021 4116:0.14221017 4117:-0.37739882 4119:0.36464757 4120:-0.38609245 4121:-0.04298405 4122:0.74614215 4123:-1.1841819 4124:-0.65878075 4125:-0.94427234 4126:-0.56856489 4127:-0.56856489 4128:-0.16385563 4129:-0.11077461 4130:0.093040578 4131:0.27326941 4132:0.91775388 4133:0.27326941 4134:-0.56048417 4135:-1.1076107 4136:0.057378393 4137:-0.0090776486 4138:0.29912677 4139:-0.3039372 4140:-0.47782409 4141:-0.31890461 4142:-0.41154683 4143:-0.11895355 4144:0.89144748 4145:-1.0319663 4146:-0.69077086 4147:-0.88486993 4148:-0.69077086 4149:0.15016995 4150:0.45365742 4151:0.45365742 4152:0.13549846 4153:-0.69869369 4154:0.13549846 4155:-0.050639134 4156:0.30761179 4157:-0.45780957 4158:0.4116604 4159:0.16700244 4160:-0.94616151 4161:-0.018941652 4162:-0.018941652 4163:-0.018941652 4164:-0.018941652 4165:-0.018941652 4166:0.8483271 4167:0.36607939 4168:0.36607939 4169:-1.160562 4170:0.48650318 4171:0.59232575 4172:0.59232575 4173:0.036248237 4174:-1.3657668 4175:1.3723452 4176:0.036248237 4177:-0.97048616 4178:0.036248237 4179:0.94111091 4180:0.028299861 4181:0.028299861 4182:-0.082965642 4183:0.22235608 4184:-1.1562164 4185:0.22235608 4186:0.12197789 4187:0.62405348 4188:-0.39128381 4189:-0.39128381 4190:-0.52910191 4191:-0.14399123 4192:-1.1279507 4193:-0.36499867 4194:-0.36499867 4195:-0.36499867 4196:-0.36499867 4197:1.5702772 4198:-0.86848056 4199:0.23371816 4200:-1.0591136 4201:0.50815707 4202:0.17111906 4204:0.18940388 4207:0.73167783 4208:-0.17847526 4210:-0.080964528 4211:-0.080964528 4212:-0.080964528 4213:-0.12672015 4214:0.19642958 4215:0.19642958 4216:-0.067418188 4217:1.5625428 4218:0.19642958 4219:-0.54221946 4220:0.041419096 4221:0.029880779 4222:0.54712719 4223:0.041419096 4224:-0.247702 4225:-0.247702 4226:0.52028847 4227:-0.247702 4228:-0.247702 4229:1.3622587 4230:-1.0802032 4231:-0.87055892 4232:-0.36478069 4233:-0.36478069 4234:-0.36478069 4235:0.20799844 4236:0.066456042 4237:0.41544238 4238:-0.083072662 4239:0.066456042 4240:-0.083072662 4241:0.081437238 4242:-0.083072662 4243:-0.41508278 4244:0.065534368 4245:0.1142827 4246:-0.038634699 4247:-0.038634699 4248:-0.038634699 4249:0.74681407 4250:-0.038634699 4251:-1.4018608 4252:-0.038634699 4253:-0.038634699 4254:-0.038634699 4255:-0.038634699 4256:-0.45404056 4257:-1.0427212 4258:-0.2786293 4260:-0.055956535 4261:-0.57549268 4262:0.35113204 4263:0.53348756 4264:0.67889893 4265:0.59535688 4266:0.59535688 4267:0.2924737 4268:0.68698382 4269:-0.089991458 4270:-1.2189229 4271:-0.21172695 4272:-0.79159856 4273:-1.0271198 4274:-0.015524793 4275:-0.015524793 4276:0.37375593 4277:0.54760146 4278:-0.18052688 4279:0.37375593 4280:0.34229574 4281:-0.65334678 4282:-1.0308102 4283:-1.0308102 4284:1.1510187 4285:-1.1904025 4286:-0.393731 4287:-0.393731 4288:-0.393731 4289:-0.92227888 4290:-0.393731 4291:-0.29249635 4292:-0.39834285 4293:-0.29249635 4294:-0.29249635 4295:-0.31827155 4296:-0.29249635 4297:-1.2150736 4298:-0.93270314 4299:0.13503562 4300:0.39574203 4301:0.39574203 4302:0.13873135 4303:0.13873135 4304:0.13873135 4305:0.26707312 4306:-0.61390901 4307:0.17987932 4308:-0.056898363 4309:-0.24729127 4310:0.030404491 4311:0.12641905 4312:-0.056898363 4313:-0.056898363 4314:-0.056898363 4315:-0.056898363 4316:0.53736907 4317:0.30364203 4318:0.53736907 4319:-1.1161444 4320:0.068046078 4321:-0.61924505 4322:0.01561778 4323:-0.29227391 4324:-0.22699127 4325:0.22670683 4326:-1.0793407 4327:0.08132226 4328:0.11157256 4329:0.11157256 4330:0.11157256 4331:0.32335651 4332:-0.0093887141 4333:0.88508135 4334:0.17154244 4335:-0.39057145 4336:-0.42035487 4337:-0.25332624 4338:0.17154244 4339:0.53198099 4340:0.21816967 4341:0.20720997 4342:-0.20903854 4343:0.35453898 4344:1.8181744 4345:-0.44519529 4346:0.39206553 4347:0.18389091 4348:-0.090408288 4349:-0.090408288 4350:0.041234814 4351:-0.020822443 4352:0.041234814 4353:0.14846316 4354:-0.39461666 4355:-0.38261056 4356:1.5045137 4357:0.80383444 4358:-0.51684475 4359:-0.077728502 4360:0.42084303 4361:0.42084303 4362:0.42084303 4363:0.85342509 4364:0.10619868 4365:-0.10930445 4366:-0.10930445 4367:-0.10930445 4368:-0.33357871 4369:0.44259727 4370:-0.58115435 4372:0.7453118 4374:0.24597637 4376:-0.27244872 4377:-0.011538317 4380:-0.72181726 4382:-0.16184954 4383:-0.46695757 4384:0.27381572 4385:1.0830549 4386:0.3379041 4387:-0.58294231 4388:0.3167924 4389:0.3379041 4390:-0.039402474 4391:0.3379041 4392:-0.21827081 4393:0.036729418 4394:0.51915377 4395:0.47290897 4396:0.036729418 4397:-0.79954129 4398:-0.37049732 4399:0.36178029 4400:-0.56770939 4401:-0.91256326 4402:-0.21170671 4403:-0.21170671 4404:-0.21170671 4405:-0.25492015 4406:-0.94497728 4407:-0.79062718 4408:-0.94497728 4409:-0.056318343 4410:-0.17042322 4411:0.22854985 4412:0.39469364 4413:0.46069029 4414:0.39469364 4415:-0.42137387 4416:0.2151901 4417:-0.061588634 4418:-0.38828105 4419:-1.2415469 4420:0.67529041 4421:-0.2230937 4422:1.3131778 4423:-0.2230937 4424:-0.39433864 4425:-0.2230937 4426:-0.39433864 4427:-0.41942143 4428:-0.15768035 4429:-0.15768035 4430:0.78489459 4431:-0.18963726 4432:0.27525142 4433:-1.2964519 4434:-1.2964519 4435:0.24653395 4436:0.24653395 4437:0.089613795 4438:-0.79062897 4439:0.39216062 4440:-0.98738217 4442:0.084086761 4443:-0.070611998 4444:-0.020807359 4445:-0.36968419 4446:-0.84588361 4447:-0.090817712 4448:-0.070611998 4449:-0.086660527 4450:0.88868159 4451:-0.070611998 4452:-0.070611998 4453:-0.54696566 4454:1.2199394 4455:0.71723324 4456:0.36833712 4457:0.68203956 4458:-0.87384307 4459:-0.97214454 4460:-0.051962055 4461:0.86929238 4462:1.0498024 4463:0.91269827 4464:0.12487819 4465:-0.030986082 4467:0.62089825 4468:0.64102143 4469:0.59183979 4470:0.97681636 4471:0.098271452 4472:0.41941187 4473:0.41941187 4474:-0.51232052 4475:-0.18530245 4476:-1.0450532 4477:0.31829229 4478:0.31829229 4479:0.053906504 4480:0.38556382 4481:0.053906504 4482:0.053906504 4483:-0.40416265 4484:-0.96968198 4485:-0.99927789 4486:0.78544879 4491:-0.66388053 4492:-0.053379856 4493:-0.053379856 4494:-0.080240808 4495:0.035424609 4496:0.035424609 4497:0.035424609 4498:0.035424609 4499:0.035424609 4500:-0.087049149 4501:0.24457015 4502:0.035424609 4503:-0.11102699 4504:0.035424609 4505:0.035424609 4506:2.1027856 4507:-0.81771815 4508:-0.27852318 4509:-0.57158732 4510:-0.27852318 4511:0.42565084 4512:0.42565084 4513:-0.69544411 4514:0.42565084 4515:0.42565084 4516:-0.75407743 4517:-0.18379341 4518:0.0082695233 4519:-0.058838382 4520:-0.058838382 4521:-0.058838382 4522:0.27993658 4523:0.27993658 4524:1.1077501 4525:-0.38573286 4526:0.81327033 4527:-0.53420901 4528:0.50145924 4529:-0.12044059 4530:1.6481144 4531:-0.27163047 4532:-0.16865563 4533:-0.28884375 4534:-1.0530993 4535:0.083453953 4536:-0.1495287 4537:0.27202669 4538:0.096459314 4539:-0.1626538 4540:-1.2816437 4541:-0.55927217 4542:-0.8798756 4543:1.7220176 4544:0.51982015 4545:0.20314151 4546:-0.22409967 4547:0.82558912 4548:0.53539634 4549:-0.38095555 4550:-0.39830679 4551:0.060645442 4552:0.060645442 4553:-0.086153872 4554:-0.40810624 4555:-0.0032094263 4556:-0.6586895 4557:-0.6586895 4558:-0.6586895 4559:-0.64299524 4560:0.17097342 4561:-0.99097776 4562:0.21793199 4563:-1.1612078 4564:-0.18381335 4565:0.43824604 4566:0.24827926 4567:-0.077990949 4568:-0.13349454 4569:0.22679184 4570:-0.38007107 4571:-1.3160088 4573:1.0244852 4574:-0.2703276 4576:0.29459152 4577:-1.2719774 4578:-0.72477281 4579:-0.94582194 4580:1.5777189 4581:0.027190778 4582:0.060138077 4583:0.060138077 4584:-0.087947115 4585:-0.32377493 4586:0.0096720103 4587:-0.079964563 4588:1.0511676 4589:-0.83289987 4590:0.060138077 4591:0.060138077 4592:0.060138077 4593:0.060138077 4594:-0.035577677 4595:-0.71156198 4596:0.45500216 4597:0.31544065 4598:0.25562072 4599:-0.89567882 4600:0.057792637 4601:0.85688293 4602:1.1645594 4603:0.56427497 4604:0.2656846 4605:0.25562072 4606:0.25562072 4607:0.38715106 4608:-0.56649941 4609:0.25562072 4610:0.25562072 4611:-0.34974706 4612:-0.0030861665 4613:-0.23066318 4614:-0.0030861665 4615:-0.0030861665 4616:-0.0030861665 4617:-0.62596041 4618:-0.0030861665 4619:0.801516 4620:1.0828726 4621:-0.213805 4622:-0.30079612 4623:-0.213805 4624:-1.3777925 4625:-0.213805 4626:-0.58388782 4627:0.031861052 4631:-0.32360986 4632:-0.064168543 4633:-8.6684151e-05 4634:0.33703804 4635:0.10478941 4636:0.59888995 4637:0.23678094 4638:0.59888995 4639:0.56405681 4640:-0.21510291 4641:0.23275378 4642:-0.21510291 4643:0.23275378 4644:0.1628904 4645:0.0033531417 4646:-0.63242614 4647:-0.63242614 4648:-0.60339165 4649:-0.14687485 4650:0.26977056 4651:0.26977056 4652:0.31123579 4653:0.46083862 4654:-0.90045977 4655:-0.026860954 4656:-0.16933697 4657:-0.95486534 4658:0.85503882 4659:-0.91874099 4660:0.98810446 4661:1.3262808 4662:-0.75768554 4663:0.39632258 4664:0.66447341 4665:-0.82781351 4666:0.065122239 4667:-0.66205865 4668:0.27372018 4669:0.16582035 4670:0.16582035 4671:0.16582035 4672:0.16582035 4673:-0.076177418 4674:-0.0033876859 4675:-0.71384352 4676:0.24107416 4677:0.24107416 4678:-0.21390443 4679:0.11868805 4680:-0.20133434 4681:0.24107416 4682:-0.88653886 4683:-0.037281204 4684:-0.37718934 4685:0.61204785 4686:-0.70931399 4687:0.53406304 4688:0.14221017 4689:0.60625172 4690:0.93012804 4691:-0.6078648 4692:0.90848964 4693:-0.34550822 4694:-0.532354 4695:-1.3468038 4696:0.87258738 4698:-0.1856128 4699:0.0070519117 4701:0.28532827 4702:0.6773079 4705:-0.24037279 4706:-0.53830254 4707:-0.48074558 4708:-0.12580155 4709:-0.08228267 4710:0.68761694 4711:0.64212674 4712:-0.19163895 4713:-0.19163895 4714:0.74847776 4715:0.34365129 4717:-0.24044791 4718:0.52089387 4719:0.52089387 4720:-0.054813188 4721:0.52089387 4722:-0.59323925 4723:0.18398011 4724:0.048110176 4725:0.048110176 4726:0.048110176 4727:0.56865221 4728:0.048110176 4729:0.31401768 4730:0.048110176 4731:-0.64276367 4732:0.54421699 4735:-0.54619706 4736:-0.39366695 4739:2.0704174 4740:0.36353379 4741:1.3140993 4742:0.43319803 4743:-1.0856882 4744:-1.1610637 4745:0.33268833 4746:-0.66566944 4747:0.23274791 4748:-0.66566944 4749:-0.16845959 4750:1.2330568 4751:0.51457757 4752:-0.16845959 4753:-0.16845959 4754:0.49986428 4755:0.12629397 4758:-0.35988823 4759:-1.1781391 4760:0.24785255 4761:-0.62301695 4762:-0.62301695 4763:0.18158519 4764:-0.42176801 4765:0.66704285 4766:-0.33994144 4767:-0.60021889 4768:-0.60021889 4769:-0.96704459 4770:0.79592943 4771:0.79592943 4772:0.070958793 4773:-0.083174378 4774:-0.82110143 4775:-0.77902251 4776:-0.00075599406 4777:-0.00075599406 4778:-0.00075599406 4779:-0.00075599406 4780:0.60580462 4781:0.21103893 4782:-0.23513661 4783:0.84268993 4784:-0.00075599406 4785:-0.19014357 4786:0.91943932 4787:0.0062959176 4788:0.91943932 4789:-0.2907888 4790:0.48113367 4791:0.31059235 4792:-0.015576107 4794:-0.66656214 4795:0.89409339 4796:0.15175015 4797:-0.41299421 4798:0.25516072 4799:0.93606067 4800:0.26722467 4801:-0.099041089 4802:-1.8795301 4803:-0.16325904 4804:0.28037664 4805:0.28037664 4806:0.28037664 4807:-0.25982299 4808:0.33712998 4809:0.2272674 4810:0.33712998 4811:0.33712998 4812:-0.010759535 4813:-1.4639573 4814:0.52011448 4815:0.60822505 4816:0.52011448 4817:-0.97763431 4818:0.21055202 4819:-0.13147555 4820:-0.19396405 4821:-0.78299683 4822:-0.55709046 4823:-0.87666452 4824:-0.87666452 4825:0.51993853 4826:0.51993853 4827:0.51993853 4828:0.19982317 4829:-0.12664525 4830:-0.12664525 4831:-0.12664525 4832:-0.20396648 4833:-0.12664525 4834:0.63714939 4835:-0.12664525 4836:1.460326 4837:0.13683628 4838:-0.12664525 4839:-0.12664525 4840:-0.35347521 4841:-0.12664525 4842:-0.21708977 4843:-0.022039352 4844:0.76275331 4845:0.14779225 4846:0.14779225 4847:0.14779225 4848:0.14779225 4849:-0.11914112 4850:0.29530081 4851:0.14779225 4852:-0.017094599 4853:1.1816361 4854:0.61483079 4855:0.074753016 4856:0.93345177 4857:0.93345177 4858:0.93345177 4859:0.26291683 4860:-1.4213721 4861:0.26291683 4862:-1.370662 4863:0.26291683 4864:0.4790408 4865:0.26291683 4866:-0.45991451 4867:-0.45991451 4868:-0.45991451 4869:0.62914848 4870:-0.017723536 4871:0.43151611 4872:-0.017723536 4873:-0.31769931 4874:0.2500214 4875:-0.74403381 4876:-0.017723536 4877:0.015968889 4878:-0.12273179 4879:-0.12273179 4880:-0.12273179 4881:-0.18405041 4882:1.2939593 4883:0.0086710593 4884:0.0086710593 4885:0.0086710593 4886:-0.28620967 4887:0.0086710593 4888:0.0086710593 4889:0.071832135 4890:-0.36345699 4891:0.12970358 4892:0.60303634 4893:-0.29003283 4894:-0.29003283 4895:0.21872546 4896:0.39399093 4897:0.39399093 4898:0.78994077 4899:-0.49142998 4900:-0.99014896 4901:1.5705078 4902:-0.018917389 4903:1.0883275 4904:-0.10213521 4905:-0.047471758 4906:0.72159976 4907:0.74477851 4908:1.1975012 4909:1.1975012 4910:-0.052253135 4911:0.27301064 4912:0.62759876 4913:-0.49830461 4914:1.1974765 4915:0.27301064 4916:0.050793599 4917:0.26104036 4918:2.5668225 4919:-0.90501672 4920:-0.91840053 4921:-0.91840053 4922:-0.50562412 4923:-0.91840053 4924:-1.4214604 4925:-0.53019291 4926:-0.04244554 4927:-0.04244554 4928:-0.91371489 4929:0.54811949 4930:0.54811949 4931:1.6953112 4932:0.20516752 4933:0.27090305 4934:-0.21357466 4935:0.20516752 4936:0.20516752 4937:0.20516752 4938:-0.11460919 4939:0.3655757 4940:0.20516752 4941:0.74564135 4942:0.20516752 4943:1.5292149 4944:0.20516752 4945:0.46522939 4946:0.46522939 4947:0.46522939 4948:0.46522939 4949:0.46522939 4950:-0.26255894 4951:0.46522939 4952:0.70649135 4953:-0.39046615 4954:-0.29306412 4955:0.11578275 4956:0.11578275 4957:0.11578275 4958:0.11578275 4959:0.15082215 4960:2.0364029 4961:-0.76353884 4962:0.11578275 4963:0.59756845 4964:-1.3525285 4965:0.026957067 4966:0.3462922 4967:0.73490179 4968:-0.009767117 4969:-0.009767117 4970:-0.019534234 4971:1.8954639 4972:-0.079001926 4973:0.25556919 4974:-0.009767117 4975:-0.22662219 4976:-0.009767117 4977:-0.22073665 4978:-1.0942705 4979:-0.65430987 4980:-0.79126626 4981:-0.63076079 4982:-0.36767253 4983:0.016556576 4984:0.15594962 4985:-0.39194992 4986:0.016556576 4987:-0.62617409 4988:0.016556576 4989:0.17677909 4990:0.016556576 4991:0.016556576 4992:0.016556576 4993:0.30608824 4994:0.016556576 4995:0.016556576 4996:1.6856205 4997:0.38655984 4999:1.5436506 5000:-0.26966208 5001:-0.26966208 5002:0.1728778 5003:0.48285922 5004:-0.33255047 5005:0.15055273 5006:-0.16958612 5007:0.079827547 5008:-0.16958612 5009:0.045516241 5010:-0.16958612 5011:0.36356422 5012:-0.28645268 5013:-0.16958612 5014:-0.51271003 5015:-0.10467255 5016:0.097210385 5017:-0.10467255 5018:0.38299981 5019:1.5380991 5020:0.55197418 5021:0.55197418 5022:0.10199048 5023:-0.14646398 5024:-0.023564542 5025:0.10199048 5026:0.69853663 5027:-1.25095 5028:0.5731706 5029:0.10199048 5030:0.10199048 5031:0.10199048 5032:0.4917351 5033:-0.61905885 5034:-0.61905885 5035:-0.42895454 5036:-1.0925254 5037:0.38175407 5038:-0.97757763 5039:-0.97285426 5040:0.59151775 5041:0.44013971 5042:-1.0431347 5043:0.75867695 5044:0.40797985 5045:-0.73901415 5046:-0.73901415 5047:-0.52145076 5048:-0.73901415 5053:0.21908532 5054:0.15026167 5055:0.15026167 5056:-0.16885851 5057:0.52215749 5058:0.26196536 5059:0.26196536 5062:0.28453836 5063:-0.38725135 5064:0.27630365 5065:0.27630365 5066:-1.007676 5067:-0.41786489 5068:-0.21004032 5069:-0.41786489 5070:-0.21562789 5071:-0.82648987 5072:-0.41786489 5073:-0.41786489 5074:0.2054455 5075:0.77115637 5076:0.2054455 5077:0.2054455 5078:0.2054455 5079:-1.2029861 5080:-1.2029861 5081:0.46939978 5082:0.54477525 5083:0.46939978 5084:0.46939978 5085:0.56702459 5086:0.46939978 5087:0.46939978 5088:0.46939978 5089:0.86460823 5090:1.019188 5091:0.086941741 5092:0.1074446 5093:0.1074446 5094:-0.16351241 5095:0.65124917 5096:0.37636903 5097:-0.91389203 5098:0.65124917 5099:1.2003241 5100:0.65124917 5101:0.33475494 5102:0.87710953 5103:0.067887068 5104:0.067887068 5105:0.88968557 5106:0.067887068 5107:0.06015807 5108:0.06015807 5109:0.06015807 5110:-0.3276476 5111:0.06015807 5112:0.65520102 5113:0.50608754 5114:-0.33105433 5115:-0.17630023 5116:0.29453084 5117:-0.043200146 5118:-0.072515428 5119:-0.072515428 5120:1.3256795 5122:2.1354017 5123:0.3136979 5124:0.3136979 5125:0.3136979 5126:0.035917625 5127:-0.6711151 5129:-0.79202825 5130:-0.67702675 5131:-1.1767999 5132:0.45603469 5133:2.1262212 5136:0.027082698 5137:0.027082698 5138:0.95457834 5139:0.95457834 5140:-0.75012583 5141:-0.78384811 5142:-1.1207527 5143:0.13998356 5144:0.60702211 5145:1.4527926 5146:0.72611064 5147:0.60322577 5148:0.52617615 5149:-0.53435081 5150:0.087190881 5151:0.087190881 5152:0.51208228 5153:0.51208228 5154:0.51208228 5155:0.12590675 5156:0.12590675 5157:0.075646602 5158:0.075646602 5159:0.075646602 5160:0.50063819 5161:0.075646602 5162:-0.40737015 5163:1.6357958 5164:0.075646602 5165:0.075646602 5166:0.075646602 5167:1.6443827 5168:-0.17966814 5169:-0.23880571 5170:-0.17966814 5171:-0.47813493 5172:0.43650824 5173:-0.88916469 5174:-0.37620676 5175:-0.23710977 5176:0.14550275 5177:0.035255991 5178:-0.21064655 5179:-0.084961519 5180:0.31594616 5181:-0.084961519 5182:-0.084961519 5183:-0.084961519 5184:-0.084961519 5185:-0.084961519 5186:0.19902247 5187:0.19902247 5188:0.19902247 5189:-0.53362799 5190:0.36206532 5191:0.19902247 5192:-0.16020687 5193:0.19902247 5194:0.013952153 5195:0.19902247 5196:0.54793549 5197:-0.051054496 5199:0.41763398 5200:0.79531425 5202:-0.042278439 5203:0.10614189 5204:0.22142598 5205:0.95727557 5212:-0.15058482 5213:-0.066950336 5214:0.49132526 5215:-0.066950336 5216:-0.066950336 5217:-0.43251562 5218:-0.43251562 5219:0.16282132 5220:-0.075961463 5221:0.16282132 5222:0.2046942 5223:0.5310297 5224:0.5310297 5225:0.5310297 5226:-0.096600674 5227:-0.42937809 5228:0.36199117 5229:-0.096600674 5230:-0.096600674 5231:-1.0431211 5232:-0.096600674 5233:-0.096600674 5234:0.0085831406 5235:-0.074826382 5236:-0.36604264 5237:0.26287857 5238:0.029449161 5239:0.54485565 5240:0.27191219 5241:0.46197438 5242:0.4758119 5243:0.28953165 5244:0.28953165 5245:-0.14370319 5246:0.28953165 5247:0.28953165 5248:0.28953165 5249:0.28953165 5250:0.28953165 5251:0.28953165 5252:-0.31517205 5253:0.84252465 5254:-0.31517205 5255:-0.31517205 5256:2.5826778 5257:0.51790333 5258:1.5515651 5259:0.47505888 5260:0.47505888 5261:0.47505888 5262:1.2240129 5263:0.33113283 5264:1.3072231 5265:-0.80065376 5266:-0.18064012 5267:-0.18064012 5268:-0.18064012 5269:-0.55262065 5270:-0.55262065 5271:0.33089781 5272:0.16288275 5273:0.16288275 5274:0.16288275 5275:-0.64273065 5276:-0.80428863 5277:-0.046054475 5278:-0.26639333 5279:0.36759219 5280:0.40639997 5281:-0.7142548 5282:-0.73352981 5283:1.5450097 5284:-0.7142548 5285:-0.7142548 5286:-1.0308394 5287:-1.0308394 5288:-0.38649943 5289:0.37730658 5293:-0.25977761 5295:0.050632834 5296:0.22433488 5297:-0.68096775 5299:0.59463161 5300:0.43906301 5301:-0.92908663 5302:0.18967226 5303:0.54024833 5304:-0.31573102 5305:-0.73040354 5306:0.50614691 5307:0.50441396 5308:0.24491066 5309:1.2702656 5310:0.13649982 5311:0.13649982 5312:0.13649982 5313:0.13649982 5314:0.13649982 5315:0.16545585 5316:0.30017537 5317:-0.24855468 5318:-0.24855468 5319:-0.45094588 5320:0.0050888262 5321:-0.45094588 5322:-0.45094588 5323:0.075613059 5324:-0.54343402 5325:-0.095129922 5326:-0.040443402 5327:-0.83918262 5328:-0.83918262 5329:-0.57587254 5330:-0.45542207 5331:-0.83918262 5332:-1.5087924 5333:0.28474343 5334:0.28474343 5335:-0.63377905 5336:0.28474343 5337:0.28474343 5338:0.10311291 5339:0.34743705 5340:0.69487411 5341:1.0836593 5342:0.34743705 5343:0.34743705 5344:0.29581839 5345:0.21561795 5346:0.34743705 5347:-0.23620151 5348:0.34743705 5349:-0.46385333 5350:0.16847628 5351:0.16847628 5352:0.31067225 5353:0.18416777 5354:0.65639645 5355:-0.52600276 5356:0.78921819 5357:0.26692426 5358:0.26692426 5359:0.26692426 5360:-1.1011989 5361:-0.84475088 5362:-0.25770134 5364:0.25277832 5365:1.2407062 5366:-0.14794393 5367:0.34886649 5368:-0.41021067 5371:-0.49845541 5373:0.06765984 5374:0.06765984 5376:-0.33677566 5377:-0.096604526 5378:0.92174643 5379:-1.071353 5380:-0.096604526 5381:0.21334009 5382:0.33027121 5383:0.39200637 5384:0.46383223 5385:0.46409196 5386:0.22711951 5387:0.39200637 5388:0.39200637 5389:0.39200637 5390:0.27332905 5391:2.411757 5392:0.32893389 5393:-0.11371614 5394:-1.1978935 5395:0.36923477 5396:0.36106947 5397:0.36106947 5398:0.31879103 5399:0.36106947 5400:0.36106947 5401:0.36106947 5402:0.36106947 5403:0.36106947 5404:-0.14711723 5405:0.36106947 5406:-0.58250207 5407:-0.96601045 5408:-0.89110339 5409:-0.89110339 5410:-0.043818388 5411:-0.04096948 5412:0.054079324 5413:0.054079324 5414:0.47979435 5415:-0.19534563 5416:-0.42937797 5417:0.054079324 5418:0.054079324 5419:0.48269999 5420:0.054079324 5421:0.054079324 5422:0.054079324 5423:1.2064089 5424:0.24170695 5425:-0.60695571 5426:-0.60695571 5427:-0.60695571 5428:-0.38684601 5429:-0.85798502 5430:-0.60695571 5431:-1.355396 5432:-0.42469358 5433:-0.42469358 5434:-1.2682543 5435:-0.70580959 5437:-0.37239856 5438:0.71163827 5439:-1.0005881 5440:0.11357758 5441:0.11357758 5442:0.11357758 5443:0.2614786 5444:0.11357758 5445:0.11357758 5446:0.11357758 5447:0.11357758 5448:0.11357758 5449:0.045759741 5450:0.11357758 5451:0.24040818 5452:0.76804537 5453:0.17945257 5454:0.17235973 5455:0.17235973 5456:-0.99673414 5457:-0.40783614 5458:0.44392946 5459:0.44392946 5460:0.44392946 5461:0.3297084 5462:0.38934198 5463:0.44392946 5464:-0.1318191 5465:0.39182904 5466:-0.1318191 5467:-0.1318191 5468:1.3920529 5469:0.79805011 5470:-0.88697606 5471:-1.1884775 5472:0.5970391 5473:-0.9235155 5474:0.63168341 5475:0.63168341 5476:0.6864298 5477:0.63168341 5478:0.05934437 5479:0.52379632 5480:0.73244506 5481:0.20698377 5482:0.20698377 5483:0.20698377 5484:0.20698377 5485:0.20698377 5486:0.20698377 5487:0.20698377 5488:0.48516807 5489:0.48516807 5490:0.67352754 5491:1.4772816 5492:0.67708534 5493:0.65195531 5494:0.4986541 5495:-0.9610461 5496:0.28796476 5497:0.90481496 5498:-0.34295678 5499:0.12683061 5500:0.4699904 5501:0.26932669 5502:-0.83117908 5503:0.12683061 5504:-1.1962956 5505:-0.95629191 5507:1.0045177 5508:-0.17950356 5509:-0.56673324 5510:-0.31524497 5511:0.44096968 5512:0.36831078 5513:0.44096968 5514:0.37068635 5515:1.8538746 5516:0.5087871 5517:-0.17655218 5518:-1.1446954 5519:0.15891203 5520:0.09056408 5521:-0.14510137 5522:0.48111987 5523:-0.56211388 5524:-0.06655819 5525:-0.0080765598 5526:-0.06655819 5527:-0.13311638 5528:-0.13311638 5529:-0.06655819 5530:-0.06655819 5531:-0.06655819 5532:-1.2879033 5533:-0.06655819 5534:-0.21540187 5535:-0.06655819 5536:-0.06655819 5537:-0.55982625 5538:-0.55982625 5539:0.72126311 5540:0.72126311 5541:0.24383067 5542:0.24383067 5543:0.24383067 5544:0.24383067 5545:0.24383067 5546:0.24383067 5547:-0.64932489 5549:-0.14103937 5550:0.68969804 5551:0.72856146 5552:0.019304316 5553:0.44525981 5555:0.10278527 5556:-0.062057257 5557:-0.062057257 5558:1.3937477 5559:-0.062057257 5560:-0.050691653 5561:-1.1889529 5562:-0.041766386 5563:-0.11886344 5564:-0.2695443 5565:-0.46608642 5566:-1.0576053 5567:0.21220766 5568:-0.11766946 5569:-0.11766946 5570:-0.11766946 5571:-0.11766946 5572:-1.0216715 5573:-1.0216715 5574:-1.0216715 5575:-1.953375 5576:-0.10943388 5578:-1.271691 5579:0.5990504 5580:-0.048793085 5581:-0.048793085 5582:-1.1324583 5583:-0.048793085 5584:-0.074354947 5585:0.19878207 5586:1.7257081 5587:0.35975641 5588:-0.11323109 5589:-0.27818769 5590:-1.0284559 5591:0.0012528289 5592:-0.12674746 5593:-0.12674746 5594:0.52543449 5595:0.050374366 5596:0.050374366 5597:0.050374366 5598:0.39421585 5599:0.34438854 5600:-0.21463576 5601:0.53913397 5602:0.073394358 5603:0.073394358 5604:0.14678872 5605:0.073394358 5606:0.073394358 5607:0.073394358 5608:0.073394358 5609:0.073394358 5610:-1.0564907 5611:-0.24606623 5612:-0.63683712 5613:-0.35814288 5616:-0.11891154 5617:0.25717902 5618:-0.33996576 5619:-0.079734765 5620:0.25717902 5621:-0.084263653 5622:0.487555 5623:0.3379446 5624:1.4362999 5625:0.71168858 5626:-0.03708262 5627:-0.03708262 5628:-0.24199776 5629:0.69803858 5630:-0.24199776 5631:-0.79828399 5632:0.76422393 5633:0.036696471 5634:0.46033216 5635:0.78368109 5636:-0.049827307 5637:-0.13346179 5638:-0.049827307 5639:0.58319545 5640:0.29601189 5641:0.45917472 5642:0.62798953 5643:0.45917472 5644:0.45917472 5645:0.45917472 5646:-0.7458322 5648:-0.78553993 5651:-0.060414266 5652:0.31955847 5653:0.71608049 5654:-0.0059118462 5655:-0.25486496 5656:0.67484283 5657:-0.26672232 5658:-0.16739768 5659:-1.3158482 5660:-0.26672232 5661:-0.26672232 5662:-0.58858323 5663:-0.26672232 5664:-0.25013468 5671:0.094278209 5672:0.094278209 5673:0.094278209 5674:0.094278209 5675:0.46384799 5676:0.70823121 5677:0.2439916 5678:-0.38731039 5679:-0.38731039 5680:-0.38731039 5681:0.025465719 5682:0.025465719 5683:-0.23438062 5684:-1.6662936 5685:-0.23438062 5686:0.18335325 5687:-0.23438062 5688:-0.23438062 5689:-0.62142348 5690:-0.62142348 5691:-0.62142348 5692:1.3455409 5693:-1.0961915 5694:0.49441779 5695:0.49441779 5696:0.26976374 5697:-0.44256261 5698:-0.85510314 5699:-0.44256261 5700:-0.44256261 5701:1.358102 5702:0.7241016 5703:0.48211503 5704:0.17297725 5705:0.96470189 5706:-0.60024977 5709:-0.049302265 5710:-0.38793775 5711:0.07207913 5712:0.0036883079 5713:0.0036883079 5714:-0.35453311 5715:-0.35453311 5716:-0.35453311 5717:-0.083634473 5718:0.020617573 5719:-0.083634473 5720:0.15570867 5721:1.2474493 5722:0.2201097 5723:0.2201097 5724:-0.12502763 5725:0.2201097 5726:0.2201097 5727:0.2201097 5728:1.0422237 5729:-0.75209874 5730:0.2201097 5733:0.051202852 5735:-1.0412544 5736:0.31278929 5737:-0.57906961 5738:0.052493647 5739:0.052493647 5740:-0.36863524 5741:0.68087184 5742:-0.08955583 5743:0.68087184 5744:0.4748213 5745:0.68087184 5746:0.68087184 5747:1.7432039 5748:0.87103122 5749:0.26954082 5750:0.68087184 5751:0.68087184 5752:0.68087184 5753:0.17493103 5754:0.84205633 5755:-0.17647342 5756:0.17493103 5757:0.17493103 5758:0.17493103 5759:0.14915584 5760:0.17493103 5761:-0.30930164 5762:0.059934933 5763:0.24363579 5765:0.2266115 5766:0.40960804 5767:-0.81134516 5768:0.2266115 5769:0.56677163 5770:0.88607866 5771:0.50888699 5772:0.12345345 5773:-0.66013569 5774:-0.79736418 5775:-0.79736418 5776:-0.51348287 5777:-0.79736418 5778:0.43491444 5779:-0.055165492 5780:-0.055165492 5781:-0.055165492 5782:-0.055165492 5783:-0.055165492 5784:-0.71623325 5785:-0.56958091 5786:-0.86794722 5789:0.16616417 5790:0.54231298 5792:1.0045078 5793:1.4333603 5794:-0.25570464 5795:-1.4774145 5796:0.15405235 5797:-0.026285149 5798:0.35700822 5799:-0.68459868 5800:-0.026285149 5801:0.043969426 5802:-0.026285149 5803:-0.026285149 5804:-0.026285149 5805:-0.19417529 5806:-0.32987246 5807:0.026681643 5808:0.026681643 5810:0.11404455 5811:-0.42112887 5812:-0.21541849 5814:-0.14884369 5815:0.093553111 5816:-0.56196445 5817:-0.27360237 5818:0.6041097 5819:0.6041097 5820:0.28011349 5821:0.058021817 5822:0.88833416 5823:0.83467621 5824:0.83467621 5825:0.080765575 5829:-1.0518311 5831:0.61132866 5832:0.61132866 5833:0.25179255 5834:0.073816866 5835:0.49413118 5836:-0.64932489 5837:-0.64932489 5838:-0.64932489 5839:-1.3206191 5840:0.60281122 5841:0.24984427 5842:-0.33252218 5843:-0.06467972 5844:0.24984427 5845:0.24984427 5846:0.24984427 5847:-0.2146077 5848:0.24984427 5849:0.24984427 5850:0.24984427 5851:0.78768498 5852:1.0782739 5853:1.1242827 5854:1.1034412 5855:1.1034412 5856:-0.98706573 5857:1.1034412 5858:1.0517781 5859:1.223243 5860:-1.1202705 5861:-1.0392058 5862:-1.0392058 5863:-0.95297545 5864:-0.25436369 5865:-1.0467912 5866:-0.015580905 5870:-0.42092264 5872:1.2297562 5873:1.2297562 5874:1.2297562 5875:-0.36432108 5876:0.45322955 5877:-1.8422508 5878:-1.2589689 5879:-1.2589689 5880:-1.6136143 5881:-0.11867732 5882:-0.47346652 5883:-0.47346652 5884:-0.0022863867 5885:-1.7877159 5886:-1.0412935 5887:1.2313405 5888:0.39227426 5889:-0.17432462 5890:0.55877608 5891:-0.087021761 5892:-0.40115458 5893:-0.11490875 5894:-0.16697323 5895:-0.54483587 5896:-0.4507679 5897:-0.39975414 5898:-1.0053197 5899:-0.86968917 5900:0.82135707 5901:0.82135707 5902:0.82135707 5903:0.82135707 5904:-0.012474826 5905:0.82135707 5907:-0.86115301 5908:-1.2497543 5909:-0.037342221 5910:0.41047975 5911:0.71408892 5912:0.26470175 5913:-0.013529413 5914:-0.5205707 5915:-0.44578749 5916:0.0055108196 5917:0.60428739 5918:0.30521294 5919:0.30521294 5920:1.4816071 5921:-1.1738099 5922:-0.79364133 5923:-0.79364133 5924:-0.79364133 5925:-0.93128461 5926:-0.087835103 5927:-0.087835103 5928:0.71440005 5929:0.20587134 5930:0.20587134 5931:0.18151797 5932:0.36309645 5933:0.36309645 5934:0.36309645 5935:0.010503256 5936:0.36309645 5937:0.85543251 5938:0.21478112 5939:-0.10368089 5940:-0.70771509 5941:0.015431721 5942:-0.21165532 5943:-0.21165532 5944:-0.42675367 5945:-0.42675367 5947:0.36611727 5948:0.87530994 5949:-0.2333643 5950:-1.8453925 5951:-0.082006566 5952:0.29882696 5953:-0.2333643 5954:0.82887673 5955:-0.2333643 5956:0.031110454 5957:-0.59611166 5958:0.17124492 5959:0.36290058 5960:0.17124492 5961:0.29411218 5962:0.21858421 5963:-0.60300499 5964:-0.60300499 5965:-0.39697647 5966:1.2077546 5967:0.18305127 5968:0.13386968 5969:0.13386968 5970:-0.2139647 5971:-0.2139647 5972:-0.2139647 5973:-0.60597187 5974:-0.32291061 5975:0.61870074 5976:-0.032898985 5977:0.04948793 5978:-0.032898985 5979:-0.032898985 5980:-0.032898985 5981:-0.032898985 5982:-1.0442425 5983:-1.0442425 5984:-1.0442425 5985:-0.89462125 5986:-0.27713042 5987:-1.003095 5988:-0.80066299 5989:-0.5733031 5990:-0.5733031 5991:-0.5733031 5992:-0.5733031 5993:0.44568872 5994:0.3251318 5996:-0.03198617 5997:-0.047094934 5998:-0.047094934 5999:-0.047094934 6000:-0.047094934 6001:-0.012964885 6002:-0.42496216 6003:-0.50054622 6004:0.21325848 6005:-0.20700844 6006:-0.20700844 6007:-0.60572088 6008:-0.8429181 6009:1.2895117 6010:0.79914987 6011:0.14084767 6012:-0.26387838 6013:0.33878586 6014:-0.68063408 6015:-0.082202382 6016:-0.082202382 6017:0.88114947 6018:0.16026826 6019:0.36532512 6020:0.4479146 6021:0.61020315 6022:0.99285197 6023:0.58422703 6024:0.99285197 6025:0.37314031 6026:0.37314031 6027:-2.2885575 6028:-2.2885575 6029:1.860633 6030:-0.10449938 6031:0.73513818 6032:0.32099992 6033:-0.038295556 6034:0.049648136 6035:-0.038295556 6036:-0.40357298 6037:0.39885494 6038:0.51605433 6039:0.30127484 6040:0.30127484 6041:0.30127484 6042:0.96682829 6043:0.075375445 6044:1.4526131 6045:0.6254276 6046:0.075375445 6047:-0.32428434 6048:0.140642 6050:0.026863599 6051:0.026863599 6052:0.026863599 6053:0.21416329 6054:0.026863599 6055:-1.2964404 6056:0.026863599 6057:0.71105868 6058:0.036677856 6059:-0.036418647 6060:-0.47221786 6061:0.076189011 6062:0.20620209 6063:0.076189011 6064:0.076189011 6065:-0.19425784 6066:-0.19409908 6067:-0.19409908 6068:0.014973318 6069:-0.078713715 6070:0.22489104 6071:-0.082589492 6072:0.14801235 6073:0.14801235 6074:0.14801235 6075:0.29602471 6076:0.070545748 6077:0.14801235 6078:0.14801235 6079:-0.39951077 6080:-0.55992872 6081:0.28875792 6082:0.36154127 6083:0.36154127 6084:-0.40646875 6085:-0.18339983 6086:-0.18339983 6087:0.28599727 6088:-0.45560414 6089:-0.71878624 6090:-0.97403204 6091:-0.85040796 6092:-0.59021586 6093:-0.93464905 6094:-0.85040796 6095:-0.85040796 6096:1.0768239 6097:0.76374674 6098:1.0768239 6099:1.0768239 6100:1.0768239 6101:0.30281737 6102:0.54036957 6103:1.2010854 6104:0.37840658 6105:0.54036957 6106:-0.010423345 6107:-0.010423345 6108:0.095956542 6109:0.39503139 6110:0.24027145 6111:0.82641661 6112:0.54943931 6113:-0.87154144 6114:0.095956542 6115:0.095956542 6116:1.4813517 6117:0.58741617 6118:0.095956542 6119:-0.43258619 6120:-0.43258619 6121:-0.1058465 6122:-0.20654461 6123:-0.072260126 6124:-0.1058465 6125:-1.7631962 6126:-0.043218944 6127:-0.043218944 6128:-0.043218944 6129:-0.5262357 6130:-0.98783928 6131:-0.98783928 6132:-0.98783928 6133:-1.0901344 6134:-0.040794928 6135:0.051922712 6136:-0.003368008 6137:-0.69124162 6138:-0.003368008 6139:0.23648863 6140:0.5973475 6141:-1.2722321 6142:-0.003368008 6143:0.67743522 6144:-0.003368008 6145:-0.003368008 6146:-0.003368008 6147:-0.12748288 6148:-0.003368008 6149:-0.003368008 6150:-0.18723148 6151:-0.29002169 6152:-0.73471606 6153:0.49676183 6154:-0.18723148 6155:-0.27372679 6156:-0.22087142 6157:0.75067109 6158:0.32121184 6159:0.74499565 6160:0.74499565 6161:0.74499565 6162:0.74499565 6163:0.25129125 6164:0.25129125 6165:0.25129125 6166:0.43698868 6167:0.25129125 6168:1.7934629 6169:-0.36328301 6170:-0.64260423 6171:-0.64260423 6172:1.577165 6173:1.577165 6174:-0.33888263 6175:-1.2181838 6176:-0.34426901 6177:0.049932968 6178:-0.5275501 6179:-0.40947428 6180:-0.67671597 6181:-0.64923155 6182:-0.41635033 6183:-0.52570194 6184:-0.71150279 6185:-0.52570194 6186:0.50116342 6187:0.35142654 6188:0.35142654 6189:-0.29027107 6190:1.1139466 6191:0.35142654 6192:0.35142654 6193:0.35142654 6194:0.12617294 6195:0.35142654 6196:0.35142654 6197:0.12834178 6198:-0.2263035 6199:0.12834178 6200:0.12834178 6203:-0.16005602 6204:-0.11947991 6205:-0.60033572 6206:1.1297011 6207:0.26058358 6208:-0.43459848 6209:0.29886994 6210:0.094708592 6211:0.45669043 6212:1.0349926 6213:1.0349926 6214:1.0349926 6215:0.78855544 6216:0.81481409 6217:0.24046814 6218:0.24046814 6219:1.183104 6220:-0.07351657 6221:-0.010102807 6222:-0.40781116 6223:1.0323617 6224:-0.96661353 6225:-0.547607 6226:0.7039426 6227:-0.547607 6228:0.21681212 6229:-1.098371 6230:0.10404862 6231:0.10404862 6232:0.10404862 6233:0.70476413 6234:-0.1487873 6235:0.10404862 6236:0.2653363 6237:0.73542678 6238:-0.60748637 6239:-1.3648263 6240:-0.25126466 6241:-0.25126466 6242:-0.25126466 6243:-0.25126466 6244:-0.39713132 6245:-0.23705861 6246:-0.12284034 6247:-0.23705861 6248:-0.23705861 6249:-0.24678303 6250:-0.12198577 6251:-0.89126742 6252:-1.0541087 6253:0.074393257 6254:0.26548323 6255:1.9345608 6256:0.074393257 6257:0.074393257 6258:0.074393257 6259:0.074393257 6260:-0.32743287 6261:0.22751501 6262:0.37635869 6263:0.37635869 6264:-0.18363579 6265:-0.24852966 6266:-0.50696039 6267:-0.24852966 6268:0.068339728 6269:-0.24852966 6270:-0.24852966 6271:0.4008213 6272:1.0100549 6273:1.0100549 6274:0.79085314 6275:0.24377926 6276:0.33023193 6277:0.091458462 6278:-0.063925013 6279:-0.5116055 6280:0.27783674 6281:0.14160801 6282:0.29497108 6283:0.36513957 6284:0.55436122 6285:0.058288626 6286:-0.84065241 6287:-0.63263935 6288:-0.078613378 6289:-0.078613378 6290:-0.078613378 6291:-0.078613378 6292:-0.078613378 6293:-0.078613378 6294:-0.078613378 6295:-0.078613378 6296:-0.078613378 6298:-0.2567741 6299:-0.2567741 6300:-0.2567741 6301:-0.2567741 6302:0.41779685 6304:-0.05762165 6305:-1.2597877 6308:-0.63219756 6312:0.45708269 6313:0.90893871 6317:0.1145433 6318:0.22244315 6319:0.1145433 6320:0.3751269 6321:0.1145433 6322:0.1145433 6323:0.27402237 6324:1.9258718 6325:0.88252997 6326:1.1354446 6327:-0.34160018 6328:0.76005656 6329:1.2747526 6330:-1.2792362 6331:0.22677805 6332:-1.6066358 6333:-1.0182654 6334:-6.7341622e-05 6335:-0.68632489 6336:1.0556002 6337:-0.17440297 6338:0.34551504 6339:-0.23947901 6340:-0.57639277 6341:-0.23947901 6342:0.33123308 6343:-0.23947901 6344:-0.23947901 6345:-0.23947901 6346:0.76597071 6347:-1.4090453 6348:0.42576861 6349:0.56224036 6350:-2.1441116 6351:-0.25408575 6352:-0.47306904 6353:0.3509258 6354:2.1791365 6355:0.45866632 6356:0.45866632 6357:0.45866632 6358:-0.64069986 6359:0.45866632 6360:-0.42833918 6361:0.042665977 6362:0.45866632 6363:-0.12594059 6364:0.66194856 6365:0.085017107 6366:-1.276623 6370:0.027653148 6371:0.17266245 6372:0.56347305 6373:0.56347305 6374:-0.16798609 6375:0.21188268 6376:0.32931364 6377:-0.21685508 6378:0.013241341 6379:0.013241341 6380:0.013241341 6381:-0.40275899 6382:0.013241341 