SVM-light Version V6.20
0 # kernel type
3 # kernel parameter -d 
1 # kernel parameter -g 
1 # kernel parameter -s 
1 # kernel parameter -r 
empty# kernel parameter -u 
11718 # highest feature index 
191 # number of training documents 
2 # number of support vectors plus 1 
0 # threshold b, each following line is a SV (starting with alpha*y)
1 1:0.14200884 2:-0.29729322 3:-1.0647492 4:1.1194379 5:0.40570545 6:0.37187871 7:-1.7115064 8:-0.10969285 9:-0.49884105 10:-0.62297106 11:-0.42366132 12:0.29542905 13:0.99657249 14:0.43036702 15:-0.48546049 16:0.049212676 17:-0.20996594 18:1.1958671 19:-0.048877653 20:1.3105744 21:-0.048877653 22:0.18750726 23:0.013997494 24:1.2681793 25:-1.1710459 26:-1.1710459 27:-0.31608522 28:0.85218042 29:-1.9470392 30:0.54795039 31:-1.1710459 32:-1.1710459 33:0.41226324 34:0.5472787 35:1.8274289 36:2.6611373 37:-1.3208202 38:-0.56926924 39:-0.24635723 40:-0.025436074 41:-0.040400144 42:-0.85748756 43:-1.5324053 44:-0.35047153 45:-1.9480091 46:1.700071 47:0.56399083 48:-1.4085814 49:0.88492793 50:-0.95049113 51:0.1778191 52:-1.7726666 53:-0.86508447 54:-0.95049113 55:1.9642085 56:-0.78937393 57:-0.16894925 58:0.045857161 59:-0.231078 60:-0.32207197 61:-0.7139318 62:-0.089759603 63:-0.27207932 64:-0.86102933 65:-1.4721905 66:-0.66943282 67:-1.7504541 68:0.80641049 69:0.22421181 70:1.1438029 71:0.041302677 72:1.9744666 73:0.90858811 74:0.43272004 75:0.5492928 76:0.53976423 77:0.90858811 78:-0.10476699 79:-0.72252291 80:0.67410803 81:1.4652425 82:1.7054828 83:-0.44739655 84:-0.44739655 85:-0.4936409 86:-0.68834716 87:-0.67298996 88:0.73688 89:0.19512799 90:0.46451613 91:0.84903228 92:0.94805896 93:-0.73639745 94:-0.6270842 95:0.99882394 96:0.94805896 97:-0.11403194 98:-0.33159027 99:-1.4326683 100:-0.29682273 101:0.84682876 102:2.0596664 103:-1.0607517 104:1.6029522 105:-0.36217433 106:0.4002125 107:1.8115782 108:0.6986993 109:1.7042032 110:1.4270902 111:-0.17635715 112:0.2274628 113:-1.2959638 115:0.29445514 117:0.028663645 118:0.49219534 119:0.38026744 120:2.2152014 121:1.3109477 122:1.1218284 123:-0.92770338 124:0.73430574 125:-2.7649174 126:0.11812795 127:-0.77296889 128:0.57308787 129:0.6557101 130:0.34780595 131:1.0701312 132:-0.74687624 133:0.61243898 134:-0.78618348 135:0.53031433 136:1.1429523 137:-0.15060535 138:2.3804555 139:3.2062712 140:0.51072621 141:0.56791979 142:0.11960886 143:-1.5160351 144:-0.74208671 145:0.53031433 146:0.53031433 147:0.36670581 148:1.07813 149:-0.35940364 150:-0.40320873 151:1.6167088 152:-0.17521381 153:-0.66928875 154:-0.040439714 155:-2.3735068 156:-0.69277042 157:-1.094111 158:1.0607686 159:1.4389839 160:-2.3564889 161:-0.38469896 162:1.385589 163:-1.7008458 164:-0.3393845 165:-0.59492391 166:2.0943031 167:-1.1149865 168:0.28278631 169:1.4204758 170:0.075551346 171:0.9062224 172:0.68367153 173:0.68367153 174:-1.2210121 175:0.73450643 176:0.68367153 177:-0.30301616 178:0.68367153 179:-0.33675745 180:-0.8533271 181:-0.76585793 182:0.68367153 183:-2.3182673 184:-1.2267735 185:-0.7454499 186:0.0042497464 187:-0.60874993 188:1.1432476 189:0.90700984 190:1.1426722 191:-0.20967849 192:-0.20967849 193:0.49084577 194:1.3291856 195:-0.28583941 196:-0.16021065 197:0.81745529 198:0.5337404 199:0.88409388 200:2.635463 201:-0.8522706 202:2.3621187 203:2.2834992 204:-2.4369462 205:1.9084285 206:0.084486946 207:-0.721744 208:1.3026944 209:0.89169335 210:-0.53227437 211:0.71431661 212:-0.44297084 213:1.1541852 214:0.51001346 215:1.0506155 216:0.10736606 217:2.4876029 218:-0.87895691 219:0.042871475 220:-0.77497107 221:-0.87895691 222:0.52002466 223:-0.33855894 224:0.24796669 225:-0.87895691 226:1.4072524 227:-0.52833617 228:-0.64833081 229:-0.46894827 230:-0.1837768 231:-0.87895691 232:-2.0402751 233:0.41014099 234:-6.5178881 235:0.51651692 236:0.75167787 237:-1.0573468 238:-0.65959191 239:-2.5107696 240:-0.49277148 241:0.63369197 242:-1.9812233 243:-0.74310189 244:-0.53319979 245:-0.92113358 246:0.41406658 247:0.51335073 248:-0.53319979 249:0.080915414 250:1.1641545 251:-0.53319979 252:-0.53319979 253:1.197198 254:1.7087475 255:0.37193012 256:-4.2743845 257:0.51406479 258:0.0013746913 259:-0.47320175 260:-3.4275367 261:-0.854406 262:1.2247409 263:0.68763745 264:0.84570003 265:-2.484098 266:-0.23698545 267:1.1272438 268:-0.047485188 269:-0.25777176 270:-1.0687462 271:0.27257299 272:0.17910935 273:-0.049758863 274:0.038801674 275:-0.25777176 276:-0.82180357 277:-0.35620612 278:-0.36604187 279:0.74075508 280:0.95330822 281:-1.0460103 282:0.23604241 283:-0.22246262 284:-0.25777176 285:-0.25777176 286:-0.92659783 287:-0.25777176 288:-0.25777176 289:-1.2892619 290:3.4646986 291:0.72455782 292:1.0461156 293:0.0038979813 294:-0.24713647 295:-0.24759525 296:-0.14880624 297:0.9005847 298:0.24366455 299:-0.8602131 300:1.3076278 301:-0.3322385 302:-0.6992442 303:0.37561807 304:-3.0882313 305:0.027591888 306:-0.85398132 307:1.7023331 308:0.83370835 309:1.1716064 310:-0.95400572 311:-0.017368898 312:0.16859715 313:1.5524405 314:0.75372225 315:1.6200588 316:0.20726377 317:0.67548943 318:-1.0462836 319:-1.153882 320:-1.8866602 321:0.0022306589 322:0.88756919 323:-0.78149581 324:1.4289426 325:-0.20503061 326:0.25748113 327:2.2912183 328:-1.3637238 329:-0.20503061 330:0.65544409 331:-0.20503061 332:-1.3637238 333:0.36734661 334:0.08563292 335:0.28660047 336:-0.70264709 337:0.73613667 338:0.21632427 340:0.50218493 341:-1.5466049 342:0.50890648 343:1.0034025 344:1.7746608 345:-1.1334089 346:0.50890648 347:0.50890648 348:-0.87239397 349:-0.33747503 350:0.62292254 351:-0.73793447 352:-0.87239397 353:1.8013908 354:-0.87239397 355:-0.89795727 356:-2.5692508 357:0.85514528 358:-0.66825879 359:1.297703 360:0.46746179 361:-1.3717784 362:-1.3514065 363:-1.4392396 364:1.6132525 365:2.3935676 366:-1.4138269 367:-0.55940932 368:0.74969965 369:0.36964974 370:-0.39568564 371:0.53408289 372:-0.98353559 373:-0.35587472 374:0.085737787 375:-1.4606522 376:1.5600042 377:0.20214844 378:0.0065076277 379:0.5877189 380:2.4138191 381:0.99134046 382:0.97707462 383:0.85256755 384:0.97707462 385:-0.45165837 386:0.85399836 387:-1.4231974 388:0.17401432 389:-0.52786994 390:0.17401432 391:0.17401432 392:1.1595205 393:-1.2189181 394:0.17401432 395:-1.2105862 396:1.1117539 398:0.71320611 399:-0.2038606 400:-0.29652417 401:-0.50216806 402:-0.44904119 404:-0.37504917 405:0.58471286 407:-0.2550776 408:-0.048217192 409:-0.20429982 410:-0.5164746 411:-0.3997122 412:1.268217 414:0.65691334 415:-0.79112631 416:1.8663744 417:-1.2010157 418:0.098639831 419:0.76705945 420:-0.023444004 421:-0.30718872 422:-2.2276657 423:-1.0632824 424:0.013158354 425:-0.56908774 426:-0.3448374 427:-0.13396864 428:0.35695824 429:2.9970798 430:-1.193391 431:-0.67426699 432:1.3690945 433:0.098639831 434:1.7263343 435:-0.81435931 436:0.098639831 437:-0.019201525 438:-1.4250163 439:0.057938263 440:-0.3339273 441:0.35778153 442:-1.7846205 443:-1.3354831 444:-0.078055635 445:-1.259508 446:1.137955 447:-0.42221001 448:-3.4096599 449:0.20497973 450:0.3369475 451:-0.63674378 452:-0.39935538 453:-0.42221001 454:0.20650639 455:0.35051537 456:0.12167167 457:1.1481984 458:-0.47277734 459:1.2116896 460:0.76859248 461:2.3464477 462:0.67591822 463:0.35736668 464:-1.443409 465:0.11513207 466:0.29657343 467:0.88149601 468:0.12636739 469:1.5177346 470:1.5169656 471:0.72470456 472:0.56665492 473:0.29657343 474:0.053670179 475:1.8777837 476:-0.59878957 477:-2.3198664 478:2.3021436 479:0.71359736 480:0.70570958 481:0.067327715 483:-0.46922019 484:1.5834134 485:-1.6473634 486:-2.4060035 488:0.084951483 489:0.73548138 490:1.1796688 491:0.026405184 492:0.2953248 493:-1.4471713 494:-0.45667911 495:-1.035138 496:-1.1786644 497:-1.0069339 498:-0.92028242 499:-0.70399946 500:-0.56451631 501:0.52154857 502:-0.011094015 503:1.7286698 504:-0.35285264 505:1.3306078 506:1.2647485 507:-0.92028242 508:-0.27174929 509:-1.6070168 510:2.1869104 511:2.4408188 512:-2.5570328 513:-1.5145108 514:-0.83413613 515:-0.17923108 516:2.635103 517:0.47546783 518:0.21738145 519:0.72715139 520:-1.0000534 521:-0.37848839 522:-1.498749 523:-2.0692496 524:0.90080136 525:-0.83482224 526:-1.0304586 527:0.38495752 528:-0.70285338 529:-0.55685824 530:-1.1586932 531:-1.1586932 532:-0.81742144 533:-0.092639595 534:0.16903949 535:-0.40565643 536:0.30562991 537:0.71006602 538:-0.20488952 539:-1.920118 540:-0.5952493 541:-0.72988921 542:1.8764503 543:3.2348397 544:-0.25859788 545:2.3868535 546:2.5611949 547:-0.24397668 548:-1.4271165 549:-0.066466302 550:0.45422181 551:-1.0769415 552:-0.36694422 553:1.3403502 554:-0.12823978 555:-3.5745909 556:1.3953247 557:-1.8016841 558:2.3344347 559:-1.9456624 560:0.27340737 561:0.097849451 562:-1.78157 563:-0.91147017 564:2.0768833 565:-0.6522094 566:-1.4138097 567:0.31645447 568:1.1224968 569:-0.50002104 570:-0.1254237 571:1.1048288 573:-0.88182521 574:0.43447107 575:0.97373563 576:0.40252551 577:0.43255427 578:2.2454228 579:2.1731129 583:0.2605609 585:1.0952611 586:-0.2685478 588:-0.080785654 589:1.5057791 590:-3.3662717 591:-2.9917545 592:0.68537551 593:0.3152788 594:-0.29520172 595:0.49576145 596:-0.29520172 597:-1.4669867 598:1.2973312 599:-1.4669867 600:-1.4669867 601:0.73903 602:0.17487916 603:-1.7741102 604:-0.47424138 605:0.16899242 606:0.5044446 607:-0.16708559 608:-0.36529243 609:-0.38412973 610:0.10867232 611:1.9602802 612:0.57414824 613:-1.1987535 614:1.351401 615:-0.83602357 616:-0.62299508 617:-0.48626199 618:-0.26682025 619:1.4088764 620:0.16227731 621:1.5533276 622:-1.1063839 623:0.31067199 624:1.3338702 625:0.0068831714 626:1.6707786 628:-0.80598736 629:-2.3680873 631:0.56049794 632:0.23014033 633:0.23693566 634:0.50203919 635:-0.1177725 637:0.6247009 638:0.39416429 639:-0.31518641 640:1.2857256 641:0.96604371 642:1.0464209 643:0.96724379 644:2.0256374 645:0.80507624 646:2.3560948 647:-0.8329618 648:-0.25840846 649:-0.60635203 650:0.80768234 651:0.68678463 652:1.7469037 653:-0.50426102 654:0.45968342 655:1.1421518 656:1.9390839 657:-1.971763 658:1.189363 659:-0.23289984 660:0.47076327 661:-0.15995154 662:-1.1340995 663:-1.2282852 664:-0.78021508 665:0.88682342 666:0.29346275 667:-0.53221846 668:0.40077493 669:-0.55424899 670:0.088842914 671:0.48817205 672:0.14148566 673:-0.14439431 674:-1.2655754 675:-0.94351488 676:1.3290884 677:0.28478968 678:0.73333418 679:-0.61774993 680:0.7744593 681:3.5743384 682:-0.10640971 683:0.51489455 684:0.29205203 685:0.8606987 686:-0.65480024 687:-0.18181776 688:-0.012974788 689:0.62085021 690:-1.3686999 691:-0.47322822 692:-0.61068606 693:-0.10640971 694:-2.3730602 695:-0.10640971 696:-0.10640971 697:-0.38525555 698:-0.38525555 699:-0.38525555 700:-0.38525555 701:-0.38525555 702:-0.68033493 703:-0.45432523 704:0.96343219 705:-0.38525555 706:-0.050570454 707:1.0798309 708:-0.25057507 709:-1.1511595 710:1.6722263 711:-3.6060615 712:1.0616621 713:-0.78432488 714:0.37115854 715:-2.1762705 716:-1.7810531 717:-0.26074541 718:0.46061903 719:-0.65626746 720:-0.26074541 721:0.34467292 722:0.81023729 723:-0.26074541 724:-0.51899165 725:0.66581434 726:0.095263153 727:-0.90908033 728:-3.9067154 729:1.4906976 730:-2.9613252 731:0.36725953 732:-0.23220354 733:2.2079978 734:0.97204715 735:0.65503019 736:2.2079978 737:0.6254487 738:0.51378822 739:0.72077084 740:-0.28660622 741:0.46904308 742:0.94269931 743:-0.24300806 744:0.038455177 745:0.018139422 746:1.8799869 747:0.72475266 748:0.61457509 749:0.71527231 750:0.93474782 751:0.57922584 752:0.0041742735 753:-1.9212557 754:-1.7483656 755:-1.6170435 756:-0.72490507 757:1.0549588 758:-0.61235106 759:1.0027829 760:-1.0825102 761:-0.61235106 762:0.41026211 763:-0.61235106 764:-0.61235106 765:0.69307953 766:-0.61235106 767:-0.041274786 768:0.68167228 769:-1.5327905 770:-0.85401231 771:0.95914912 772:0.4756875 773:0.24013573 774:-0.61235106 775:-0.47922054 776:-0.61235106 777:-0.61235106 778:-2.2308264 779:0.45373726 780:-1.2439662 781:-1.5676512 782:0.9074083 783:0.76217926 784:0.9074083 785:-0.41125542 786:0.39979905 787:-0.55451226 788:-0.33290491 789:-0.66606998 790:-1.5039147 791:-0.87675714 792:-0.5191257 793:0.46155018 794:0.70594811 795:0.0050676251 796:0.71257436 797:0.64170909 798:0.62300223 799:1.1064899 800:1.6069154 802:-0.91479915 804:-0.3780252 805:0.52128822 806:0.52128822 807:0.52128822 808:0.68477046 809:0.52128822 810:0.54725039 811:-0.65490872 812:0.52128822 813:-0.33598867 814:1.5636178 815:-0.27173862 816:-0.27173862 817:-2.0011635 818:-0.27173862 819:-0.72383904 820:0.058589727 821:0.092324801 822:0.12937465 823:-0.27173862 824:-0.27173862 825:-0.27173862 826:-0.56409532 827:-0.22701584 828:-0.28717241 829:-0.50344694 830:-1.836231 831:-1.1465886 832:-1.030471 833:2.7716601 834:-0.54663527 835:1.716108 836:-1.1070662 837:-0.55377477 838:-2.6721592 839:1.2239636 840:1.3364016 841:0.8349691 842:0.44056833 843:-0.90812337 844:-0.77539933 845:-0.35502586 846:0.0044988268 847:-0.33903748 848:4.0517559 849:-0.33903748 850:-0.33903748 851:-0.071177401 852:-0.31231704 853:-0.43323445 854:-0.79520673 855:0.48089898 856:1.0881152 857:2.0241954 858:-0.89240038 859:0.83768708 860:0.48397654 861:-0.28425327 862:2.5739989 863:0.72948802 864:0.79900151 865:-0.84232056 866:1.6074059 867:0.48089898 868:-0.068997294 869:-2.3202159 870:-1.2938961 871:-2.3202159 872:-0.73488694 873:1.0932527 874:-1.27527 875:0.15751041 876:0.80805725 877:-0.30135879 878:1.0932527 879:1.0932527 880:-1.1215705 881:1.0932527 882:0.88855314 883:0.16898641 884:0.76796508 885:0.29188383 886:0.16898641 887:-0.84035093 888:-0.84035093 889:2.243624 890:-0.23363112 891:-0.91967863 892:2.4646497 893:-0.62041336 894:0.022989029 895:-1.920483 896:-0.91967863 897:-1.5899018 898:-0.44623524 899:-1.4182961 900:-0.87801093 901:0.14154254 902:-1.2088045 903:4.6677761 904:-0.36960652 905:-0.029830206 906:-2.135561 907:-0.41844967 908:0.90416807 909:-0.37565958 910:-0.82860869 911:-0.87801093 912:0.94321936 913:0.14809076 914:0.14809076 915:0.2670514 916:-0.12001876 917:1.8484341 918:-0.44014588 919:0.2670514 920:-0.2490142 921:-0.1245071 922:-0.1245071 923:-0.18295766 924:-0.99965143 925:-0.1245071 926:-0.44190452 927:-0.27583271 928:-0.1245071 929:-0.1245071 930:0.29529074 931:0.27266043 932:-0.1245071 933:-0.1245071 934:-0.1245071 935:-0.1245071 936:0.77240181 937:-1.6041939 938:-0.1245071 939:-0.1245071 940:-0.1245071 941:-0.12343906 942:-0.1245071 943:-0.1245071 944:-0.1245071 945:0.074855246 946:0.034396693 947:0.034396693 948:0.034396693 949:0.26056823 950:0.71941316 951:1.67015 952:0.43351614 953:0.74520057 954:0.88483948 955:-0.2461917 956:-0.32949817 957:0.39168492 958:-0.55306774 959:0.27147081 960:0.12331288 961:0.39168492 962:0.50668138 963:0.38011503 964:0.39168492 965:1.3300266 966:0.11466774 967:1.5633701 968:2.6986723 969:-1.1972677 970:-1.1972677 971:0.45140088 972:-1.1972677 973:-1.0313494 974:-2.5212727 975:0.19745763 976:-0.28819054 977:1.1723621 978:-1.0745252 979:-1.0745252 980:-1.0745252 981:-0.22728251 982:0.21870339 983:-2.7390497 984:1.6084956 985:0.12357768 986:-1.3060716 987:-0.47471607 988:-0.82930988 989:-1.2018456 990:-0.86560464 991:-3.510366 992:-0.30644119 993:1.1410426 994:-0.1983681 995:0.1112757 996:0.62175256 997:0.48311815 998:-1.494465 999:0.51110464 1000:0.51110464 1001:0.51110464 1002:0.51110464 1003:0.51110464 1004:0.44761953 1005:0.51110464 1006:1.3029871 1007:-0.7524178 1008:-0.34300151 1009:2.3510807 1010:-1.0297009 1011:1.5036901 1012:0.30796012 1013:-0.039347991 1014:1.6507695 1015:0.47084549 1016:-0.58112961 1017:-1.020054 1018:-1.5153952 1019:-0.79563272 1020:-1.5812774 1021:-0.7808947 1022:1.5804385 1023:0.91600293 1024:1.2816938 1025:1.3100408 1026:0.15257597 1027:-0.17115949 1028:2.7501302 1029:-0.41465846 1030:-0.487636 1034:-0.63408703 1035:0.32490674 1036:-1.3201559 1037:0.64660239 1039:-1.6210598 1040:1.2185264 1041:0.5678888 1042:1.477295 1043:1.6076899 1046:-1.5826957 1047:0.46887073 1048:-0.5807426 1049:-1.7913921 1050:1.4540468 1051:0.3737309 1052:0.3737309 1053:-0.048102025 1054:-2.119812 1055:1.2377034 1056:0.3737309 1057:-0.54651773 1058:0.3737309 1059:1.9494067 1060:0.3737309 1061:1.7611655 1062:0.3737309 1063:1.6359638 1064:0.70825118 1065:2.3106961 1066:1.4793109 1067:2.5991387 1068:0.47329071 1069:0.96441567 1070:-0.095784195 1071:-1.7531908 1072:-1.7531908 1073:-0.49826536 1074:0.3563914 1075:-0.11922428 1076:-0.49755308 1077:0.73783565 1078:0.27403954 1079:-0.26083729 1080:-1.2151457 1081:2.3320713 1082:1.5720087 1083:1.0156062 1084:0.055477168 1085:-1.3066534 1086:0.26517805 1087:-1.7434809 1088:1.0777558 1089:1.3201679 1090:-2.0696459 1091:-0.027807845 1092:-3.0689297 1093:0.13698214 1094:0.58121127 1095:3.698045 1096:3.698045 1097:1.6092519 1098:0.56742978 1099:-0.32513967 1100:1.0179582 1101:-0.25587445 1102:0.79323167 1103:-0.18877339 1104:0.24546051 1105:0.56742978 1106:0.30166692 1107:0.56742978 1108:1.4059951 1109:1.2564071 1110:0.43111566 1111:0.87564987 1112:-1.372373 1113:-0.13177356 1114:-0.066283792 1115:-0.51111501 1116:0.47717252 1117:-0.69181985 1118:-0.10485183 1119:-0.10485183 1120:0.71484357 1121:-0.10485183 1122:0.63974506 1123:-0.69635785 1124:2.244014 1125:1.0980781 1126:-0.10485183 1127:-0.10485183 1128:-0.10485183 1129:1.8154271 1130:0.92538869 1131:-0.11616621 1132:0.9528327 1133:-0.80256945 1134:-0.73843962 1135:-0.61993188 1136:-0.94655186 1137:-1.0637079 1138:-1.0637079 1139:0.83136034 1140:-0.33590868 1141:-1.0637079 1142:0.034580752 1143:-1.0637079 1144:1.2220837 1145:-0.57216376 1146:-1.0637079 1147:-1.0637079 1148:-0.094214454 1149:-1.007323 1150:-1.2285537 1151:-0.094214454 1152:-0.094214454 1153:0.20509444 1154:-0.069661088 1155:-0.29399341 1156:-1.8261396 1157:-3.173981 1158:-1.171049 1159:-0.25735146 1160:-0.25735146 1161:-1.813719 1162:-0.25735146 1163:1.1638691 1164:2.4590697 1165:2.4590697 1166:0.22012429 1167:2.5565703 1168:0.081102774 1169:-1.9704274 1170:3.1047204 1171:0.083370417 1172:1.604848 1173:2.1069713 1174:2.1069713 1175:1.7482759 1176:0.79304141 1177:-0.2293503 1178:0.09629304 1179:0.76215124 1180:-1.3235618 1181:0.4187541 1182:0.4187541 1183:-1.7914304 1184:0.4187541 1185:-1.1232668 1186:1.1420491 1187:-2.6649168 1188:-0.36097407 1189:-0.36097407 1190:-0.36097407 1191:-1.3498963 1192:0.062908635 1193:-1.7221465 1194:1.3751016 1195:1.1288861 1196:0.7828005 1197:0.080390006 1198:0.35527733 1199:-0.032667588 1200:1.3682996 1201:0.90417957 1202:1.1465555 1203:0.7828005 1204:-0.53167099 1205:-0.89920789 1206:0.31067199 1207:-0.80807316 1208:0.31067199 1209:0.88982862 1210:0.31067199 1211:-1.9351206 1212:-0.31649247 1213:0.1595161 1214:1.1249746 1215:1.2843713 1216:0.31067199 1217:0.45779163 1218:0.31067199 1219:0.79662299 1220:0.31067199 1221:2.485126 1222:2.7066383 1223:0.87515461 1224:0.0077808355 1225:0.0077808355 1226:0.0077808355 1227:0.0077808355 1228:0.064237691 1229:1.6687413 1230:-0.14699924 1231:1.9294008 1232:-0.032017909 1233:-0.032017909 1234:0.62251776 1235:-0.42114046 1236:1.4793215 1237:0.16478696 1238:0.3762973 1239:-2.0457895 1240:-0.032017909 1241:-0.032017909 1242:-0.032017909 1243:-0.71212965 1244:-0.32864049 1245:-0.032017909 1246:-0.032017909 1247:1.8682728 1248:-0.42824224 1249:0.23575032 1250:2.0725236 1251:-0.39255986 1252:0.93362755 1253:-1.1660067 1254:0.75943393 1255:-2.0098848 1256:-1.7593378 1257:0.36922479 1259:-1.8147341 1260:0.04322641 1261:-0.54491276 1262:0.55606937 1263:-0.078997999 1264:-0.28701577 1265:1.2749451 1266:0.24929379 1267:-1.4182234 1268:0.81118983 1269:0.22831157 1270:0.7589891 1271:0.3147316 1272:-2.326036 1273:-0.95296717 1274:-0.22958152 1275:0.034072552 1276:1.5397422 1277:-0.91183615 1278:-0.45500916 1279:-1.1270278 1280:-0.025710087 1281:2.8406429 1282:0.77658629 1283:-0.61403525 1284:0.50242811 1285:-0.44264114 1286:-0.32187718 1287:-1.3804548 1288:-0.44264114 1289:0.096726649 1290:0.72124934 1291:0.39437351 1292:-0.44264114 1293:0.12069266 1294:-0.44264114 1295:-0.028010212 1296:-0.82165647 1297:-0.51329559 1298:-0.44264114 1299:0.11631156 1300:0.068745092 1301:0.20130172 1302:0.10819343 1303:-0.44264114 1304:0.23758097 1305:0.075855523 1306:-2.657428 1307:-0.31014556 1308:-2.370744 1309:0.81878722 1310:-0.37682462 1311:-0.42474598 1312:-0.68610561 1313:0.10094995 1314:0.34680972 1315:1.276323 1316:-1.9378145 1317:0.92408466 1318:-1.6126175 1319:0.27675968 1320:0.36476564 1321:1.0553068 1322:-1.8513633 1323:2.1946256 1324:0.69987541 1325:-1.7242106 1326:-0.97159815 1327:-0.59537125 1328:-0.30292669 1329:-0.45533213 1330:-1.1506732 1331:3.1862571 1332:-0.90573668 1333:-1.2928319 1334:0.28240412 1335:-1.6975121 1336:-0.92043954 1337:1.240577 1338:-0.18773557 1339:-0.92043954 1340:3.7634714 1341:0.34121704 1342:-1.0304428 1343:0.24695173 1344:-0.66842777 1345:2.8115995 1346:0.21079929 1347:-1.6058493 1348:1.8623492 1349:-1.3327905 1350:-1.3534915 1351:-0.45208395 1352:0.061428379 1353:-0.4557642 1354:0.66650128 1355:-0.52274424 1356:2.1425972 1357:0.94878238 1358:1.0803477 1359:-1.3770139 1360:0.56966299 1361:-1.6760526 1362:1.3639147 1363:0.52185273 1364:-1.0418744 1365:0.45380542 1366:0.45380542 1367:0.45380542 1368:2.7750697 1369:-0.31706035 1370:0.12952326 1371:1.0404387 1372:1.0404387 1373:0.082846321 1374:-0.7137363 1375:-0.51282233 1376:-0.6637547 1377:-0.6637547 1378:-0.9377262 1379:0.25720847 1380:-0.9377262 1381:0.12110998 1382:-1.3023584 1383:1.9264086 1384:0.026873283 1385:-0.15132751 1386:0.26349589 1387:-0.29226425 1388:0.35347399 1389:1.2364666 1390:0.23526786 1391:0.23526786 1392:-0.43454948 1393:-0.43454948 1395:1.6429499 1396:-0.97301137 1397:-0.29276508 1399:0.36555108 1400:1.1130433 1401:-0.20825991 1402:1.2651948 1403:-0.33165082 1404:0.26498166 1405:-0.45809025 1406:1.1868815 1407:-0.38104799 1408:0.75262284 1409:0.60736316 1410:1.2870134 1411:0.38348988 1412:1.1868446 1413:1.1585227 1414:-0.31237668 1415:-1.2631916 1416:-0.097175814 1417:-0.097175814 1418:-0.097175814 1419:-0.097175814 1420:2.1111665 1421:-1.8626822 1422:-0.81057149 1423:0.29149643 1424:0.4935734 1425:-0.097175814 1426:-0.097175814 1427:-1.0812389 1428:-0.69402772 1429:-0.1989575 1430:-0.097175814 1431:-0.097175814 1434:0.16043043 1435:0.32494554 1436:1.8865349 1437:-2.2797856 1438:-2.4053724 1440:-0.304443 1441:-2.4823442 1442:-1.2438519 1443:1.675439 1444:1.848336 1445:0.60066408 1446:1.5122486 1447:1.5357733 1448:1.675439 1449:-2.089865 1450:-2.1479917 1451:-0.093279421 1452:2.710645 1453:-0.86989969 1454:-0.81794399 1455:1.1012635 1456:-0.33329672 1457:-0.7481215 1458:-0.33329672 1459:0.6450659 1460:1.4829791 1461:-0.33329672 1462:-0.64190412 1463:-0.48456123 1464:-0.3521992 1465:-0.25138041 1466:-0.39993173 1467:-0.18604344 1469:-0.56867665 1470:1.0154501 1471:-0.046244357 1472:-0.046244357 1473:-0.015536477 1474:-0.046244357 1475:-0.94624275 1476:-0.32358932 1477:1.4179417 1478:-0.83569676 1479:-0.097865559 1480:-0.14215177 1481:1.8548777 1482:-1.0252368 1483:-0.88806134 1484:2.4220119 1485:0.96441263 1486:-1.2642964 1487:-2.4760134 1488:-0.22640926 1489:0.99278164 1490:-2.0839317 1491:0.40534681 1492:-0.34632856 1493:0.26998645 1494:-0.41339019 1495:0.26494777 1496:0.93753713 1497:0.52358294 1498:-1.9914424 1499:-1.3448397 1500:-1.2695216 1501:-0.087838702 1502:0.12797937 1503:-1.2097921 1504:-0.16344935 1505:0.027435783 1506:-1.7114902 1507:-0.82743376 1508:0.85277158 1509:0.45545268 1510:-0.73956358 1511:-2.120398 1512:0.094019637 1513:0.70400536 1514:-0.21971121 1515:0.62733001 1516:0.36471248 1517:0.36471248 1518:1.224683 1519:1.6583947 1520:-0.044035815 1521:0.92260998 1522:1.2872422 1523:0.50718325 1524:1.1205955 1525:1.2872422 1526:-1.0598476 1527:-1.0510553 1528:-1.0510553 1529:-1.0510553 1530:0.52478397 1531:-1.3160038 1532:0.27320564 1533:-0.53570682 1534:-1.7108445 1535:-1.0835935 1536:0.9632979 1537:3.1028817 1538:-0.79787862 1539:-0.48274603 1543:0.24222067 1544:-0.22875428 1545:1.3803153 1546:-0.45809025 1547:-0.45809025 1548:-0.45809025 1549:-0.64176142 1550:-1.4482281 1551:-0.64176142 1552:-0.64176142 1553:1.6810704 1554:-0.51256371 1555:-0.79397881 1556:6.6728182 1557:-1.6739351 1558:0.11168993 1559:0.021373753 1560:0.47634593 1561:-1.3841187 1562:0.84620398 1563:1.0026598 1564:0.67442048 1565:-1.5434066 1566:0.493994 1567:0.493994 1568:0.15433665 1569:2.845952 1570:0.493994 1571:-1.0279584 1572:-1.0870941 1573:3.0716956 1574:0.3484138 1575:3.4817011 1576:0.3133401 1577:-0.30406809 1578:-0.46961629 1579:-0.30406809 1580:-0.30406809 1581:-0.30406809 1582:0.26599738 1583:-1.374194 1584:-2.1892509 1585:-2.60308 1586:-0.09708529 1587:-0.09708529 1588:-0.09708529 1589:-0.09708529 1590:0.62045795 1591:-0.09708529 1592:-0.29575559 1593:1.4285485 1594:-0.09708529 1595:0.066681445 1596:-0.09708529 1597:-0.81992722 1598:-0.17128289 1599:0.17814213 1600:-0.09708529 1601:-0.09708529 1602:1.7839174 1603:-2.3268209 1604:-0.097512335 1605:0.19949113 1606:0.33572936 1607:-1.3470906 1608:-1.1612065 1609:0.78424627 1610:0.37391609 1611:-0.80460042 1612:-0.53825212 1613:0.40985161 1614:2.1778405 1615:1.8008082 1616:-0.17564544 1617:1.0982306 1618:-2.0371571 1619:1.6753488 1620:-0.34469286 1621:0.4417184 1622:-0.89387453 1623:-1.1528481 1624:-0.018306077 1625:0.78431755 1626:1.590752 1627:-1.1528481 1628:-1.1528481 1629:1.4204392 1630:0.67250985 1631:0.23242755 1632:-0.77395076 1633:-2.0281584 1634:2.4995561 1635:0.91441 1636:-0.047278594 1637:-0.46627134 1638:1.4874446 1639:-2.2527771 1640:-1.0505069 1641:0.14786558 1642:-0.34442601 1643:-0.70798379 1644:-0.15564509 1645:-0.13356519 1646:-0.15564509 1647:0.25948453 1648:-0.15564509 1649:-0.71342921 1650:0.40525496 1651:2.0983107 1652:0.091902412 1653:-1.0505069 1654:0.76694804 1655:-0.21680149 1656:-1.0505069 1657:1.6398486 1658:-0.36633271 1659:0.14023966 1660:-0.36633271 1661:-0.22041743 1662:-0.36633271 1663:-0.80632061 1664:-0.36633271 1665:-1.1965039 1666:0.37330204 1667:-0.41204274 1668:1.5088366 1669:-1.1640681 1670:-0.26900718 1671:0.76080304 1672:-0.75073612 1673:1.027428 1674:-1.7160923 1675:1.4405377 1676:2.8296528 1677:1.0234143 1678:-1.0660833 1679:-1.0660833 1680:0.24610259 1681:-0.72255701 1682:-1.0660833 1683:1.1343305 1684:-1.0660833 1685:1.399879 1686:-1.0660833 1687:-0.50060546 1688:0.69974971 1689:1.4848784 1690:-1.0660833 1691:-1.0660833 1692:-1.1850219 1693:-1.0660833 1694:-3.4787717 1695:3.7276478 1696:-0.96895105 1697:-1.5072606 1698:-0.96895105 1699:-0.96895105 1700:-0.62968421 1701:-0.9995051 1702:-0.44411334 1703:1.9404821 1704:1.4145726 1705:-1.0504714 1706:1.9545231 1707:0.48403159 1708:0.48403159 1709:0.48403159 1710:0.37657934 1711:0.48403159 1712:1.3367691 1713:-1.05264 1714:1.9012512 1715:2.1008129 1716:-1.0304275 1717:0.55109739 1718:1.8583328 1719:1.8583328 1720:1.9283918 1721:-0.93454164 1722:1.2105262 1723:-0.2688657 1724:-0.42750424 1725:-1.1930184 1726:-0.68820912 1727:-1.172285 1728:-1.172285 1729:-0.91626149 1730:-0.046961274 1731:-0.074166939 1732:0.8016426 1733:-1.0482132 1734:-0.015627755 1735:-0.20589092 1736:-0.015627755 1737:0.14991967 1738:0.540398 1739:0.46178079 1740:0.540398 1741:1.1068686 1742:-0.53776348 1743:0.540398 1744:0.14158151 1745:0.540398 1746:0.540398 1747:-0.59520239 1748:0.36712053 1749:0.540398 1750:-1.7729357 1751:-0.63065696 1752:-1.303973 1753:-1.0251114 1754:-0.48802772 1755:-1.0251114 1756:2.3991842 1757:-0.35950282 1758:-1.0453184 1759:-0.3099837 1760:-0.3284694 1761:-0.3099837 1762:-0.3099837 1763:-1.2558908 1764:-0.25359797 1765:0.074841775 1766:-0.52061814 1767:0.69786942 1768:-0.10793982 1769:2.2537899 1770:-0.38292855 1771:0.037432995 1772:1.358605 1773:0.43440783 1774:-0.68177015 1775:1.0227356 1776:-1.713877 1777:-1.4860405 1778:1.9854908 1779:-1.3979495 1781:0.5564723 1782:-1.0958377 1783:0.5564723 1784:0.86265981 1785:-0.36468151 1786:-3.4434741 1787:0.0041678124 1788:1.2298636 1789:-2.6004965 1790:2.6146996 1791:-1.0796099 1792:1.1696689 1793:0.44434026 1794:0.27961859 1795:0.27961859 1796:-0.27840155 1797:-2.0994062 1798:-2.0994062 1799:-0.70517695 1800:-1.7216939 1801:-1.7216939 1802:-1.7216939 1803:-0.16126424 1804:-0.11968619 1805:-1.0270711 1806:-0.053670008 1807:0.086471088 1808:-0.32296216 1809:-1.1815414 1810:0.289352 1811:1.0080467 1812:-0.2107808 1813:-0.00529538 1814:0.61837697 1815:1.0124626 1816:-0.24415389 1817:1.3571373 1818:-0.41608202 1819:0.15796323 1820:0.63238066 1821:1.5893513 1822:2.6672969 1823:1.5526959 1824:1.2615838 1825:-2.4984314 1826:0.94801956 1827:1.5608668 1828:-0.082389988 1829:0.1730507 1830:-1.1941917 1831:-0.54104483 1832:-0.74996591 1833:0.52117985 1834:0.52117985 1835:0.52117985 1836:0.82831442 1837:-0.838076 1838:0.83987933 1839:0.52117985 1840:0.46719652 1841:0.72102094 1842:-0.81690824 1843:0.52117985 1844:0.47075218 1845:0.35259825 1846:0.52117985 1847:0.9712106 1848:-0.76202703 1849:0.52117985 1850:-1.1163583 1851:0.59256202 1852:1.7405603 1853:-0.42858183 1854:-0.073701128 1855:-0.72075999 1856:-0.073701128 1857:-0.073701128 1858:0.76383877 1859:-0.073701128 1860:-2.6819596 1861:-3.2460699 1862:-1.0364817 1863:-1.8873483 1864:-1.0364817 1865:-0.046787784 1866:0.17078058 1867:-0.62207139 1868:0.014600415 1869:-0.077504419 1870:-0.53455627 1871:0.66031939 1872:-0.68887836 1873:-0.95838743 1874:1.8025897 1875:-0.066204369 1876:0.66031939 1877:0.66031939 1878:-0.04047361 1879:-0.19201292 1880:-0.071886227 1881:0.90589899 1882:1.7232937 1883:-0.97673869 1884:1.2542658 1885:1.1857609 1886:-0.94130701 1887:-0.94130701 1888:0.41784862 1889:3.6656861 1890:4.4661899 1891:-1.5625447 1892:-1.0203614 1893:-1.0055088 1894:-0.94130701 1895:-1.61388 1896:-1.0409038 1897:0.30251688 1898:0.25355053 1899:1.4015125 1900:3.8348203 1901:2.1657155 1902:0.67902809 1903:1.1523324 1904:0.3714233 1905:0.95349485 1908:-1.6898314 1909:-0.34315798 1911:-0.6635046 1912:1.9249618 1914:0.7844345 1915:-0.69195604 1917:2.0675502 1918:1.7054237 1919:1.6513611 1920:-0.93249863 1921:-5.8564115 1922:3.1821728 1923:-1.7368013 1924:0.2393776 1925:-0.83434826 1926:0.75105149 1927:-0.51602715 1928:-1.2182312 1929:-0.89130539 1931:0.96137214 1932:-1.7879059 1933:-1.2728645 1934:0.4443557 1935:-0.54440272 1936:0.60541832 1937:-0.78584909 1938:-0.78584909 1939:0.61195213 1940:0.83860755 1941:-0.78584909 1942:-3.9264736 1943:0.46951476 1944:-0.66612273 1945:1.343194 1946:0.20756191 1947:-2.1872761 1948:3.2936954 1949:1.7051213 1950:-1.2163792 1951:2.8216369 1953:-0.5973931 1954:-0.035998452 1955:-0.27135378 1957:0.093859531 1958:-1.0481524 1959:-1.1047775 1960:-1.1047775 1961:0.099133573 1962:-0.73681855 1963:-1.1047775 1964:-0.28533337 1965:-1.0448256 1966:-0.19328633 1967:-0.27641907 1968:0.31873843 1969:0.61246705 1970:0.39587355 1971:1.1483153 1972:1.4534776 1973:-0.6635046 1974:-0.6635046 1975:-1.1932715 1976:-1.7537135 1977:-0.89315176 1978:-0.80606633 1979:2.9284618 1980:2.5735903 1981:-1.0386677 1982:-0.71172482 1983:0.34138668 1984:-0.53876626 1985:-0.53876626 1986:1.163642 1987:1.163642 1988:0.93528986 1989:0.93528986 1990:0.93528986 1991:-0.8880474 1992:1.4459513 1993:-0.47167686 1994:0.08587572 1995:-0.069363959 1996:-0.11461395 1997:0.36281496 1998:-0.11461395 1999:0.49134731 2000:-1.0119675 2001:-0.11461395 2002:-1.2039049 2003:-0.49806866 2004:-0.82147217 2005:-0.55062467 2006:-0.35120362 2007:-0.067688733 2008:-1.8285214 2009:1.0202519 2010:-2.4556556 2011:0.63717306 2012:-0.17606446 2013:-0.91348416 2014:-0.91369307 2016:-0.46391416 2017:0.020598864 2018:0.85916674 2019:1.2017812 2022:-5.3226624 2023:2.3514307 2024:1.7895601 2025:1.7895601 2026:2.0517113 2027:-0.92009699 2028:-1.7238542 2029:1.14279 2030:1.0306937 2031:0.19229329 2032:0.15246338 2033:0.13688691 2034:0.9346475 2035:0.70740074 2036:0.13688691 2037:0.44812694 2038:-0.36342001 2039:0.13688691 2040:0.51885754 2041:0.51885754 2042:-0.6789763 2043:1.4807019 2044:-0.6789763 2045:-0.6789763 2046:2.8711987 2047:1.8751217 2048:-0.9299742 2049:-0.70671505 2050:-0.83794665 2051:-0.54309887 2052:-0.83794665 2053:0.46057722 2054:0.34310713 2055:-0.56687236 2056:1.1303833 2057:-0.38789177 2058:0.15739851 2059:-0.24008398 2060:0.27228504 2061:2.311321 2062:1.2697392 2063:2.0200651 2064:2.0200651 2065:2.5034788 2066:-0.95550627 2067:0.42860547 2068:-0.14709273 2069:-1.4154764 2070:0.21234845 2071:0.40658063 2072:0.55411994 2073:-0.10997628 2074:0.13850705 2075:2.8432226 2076:1.922219 2077:-0.10997628 2078:-0.10997628 2079:-0.10997628 2080:-1.777594 2081:1.487868 2082:0.29053783 2083:-0.10690013 2084:1.1463665 2085:0.1619819 2086:0.63647538 2087:2.3593214 2088:1.0291697 2089:0.21798873 2090:0.21798873 2091:0.26679817 2092:0.12589021 2093:-2.4482181 2094:1.8793455 2095:-0.64951348 2096:0.40034735 2097:0.21798873 2098:0.010872579 2099:-0.13278101 2100:-1.1025862 2101:0.23890021 2102:1.0372851 2103:-0.058537953 2104:-1.7872381 2105:1.6798567 2106:-2.0705614 2107:0.51967478 2108:0.20801291 2109:-1.493017 2110:0.058457967 2111:-0.3971391 2112:2.0406408 2113:0.82767868 2114:0.25876373 2115:0.28849357 2116:0.54300928 2117:-0.18971592 2118:-0.18971592 2119:0.5484553 2120:-0.32056442 2121:-0.00053495989 2122:0.075688615 2123:0.40494096 2124:-0.32056442 2125:-0.56233424 2126:-1.1536046 2127:-0.41639808 2128:-0.093610592 2129:-1.1536046 2130:1.7231051 2131:3.0730181 2132:0.83996624 2133:3.0730181 2134:3.0730181 2135:0.57090002 2136:-0.027886719 2137:1.2779367 2138:0.10333444 2139:-0.8293311 2140:-0.087926932 2141:1.1578363 2142:0.10543332 2143:0.14372405 2144:0.64307547 2145:-0.093826793 2146:-0.087926932 2147:-0.087926932 2148:-0.087926932 2149:2.7436886 2150:-0.18512225 2151:1.5132408 2152:-0.087926932 2153:-0.30879137 2154:-0.062253866 2155:-0.27317673 2156:1.8830009 2157:-0.20911117 2158:1.3883752 2159:2.3141253 2160:2.5796595 2161:1.7546933 2162:3.567399 2163:1.3922274 2164:1.5655836 2165:0.38709524 2166:0.38709524 2167:0.38709524 2168:-2.1380012 2169:0.99233109 2170:0.55444068 2171:-0.4959268 2172:1.178405 2173:-0.97555465 2174:1.7121279 2175:-0.02133188 2176:2.208004 2177:-0.95875114 2178:1.178405 2179:-0.4011569 2180:0.25424373 2181:2.2715435 2182:0.25424373 2183:0.25424373 2184:-0.69517547 2185:-0.83202332 2186:0.27285939 2187:0.62433195 2188:0.62433195 2189:0.62433195 2190:0.15183572 2191:-1.2390081 2192:1.6447082 2193:0.40507963 2194:0.62433195 2195:0.10399394 2198:-0.88144135 2199:0.59869057 2200:-1.2421668 2201:0.023258224 2202:-0.1780121 2203:0.11895669 2204:-0.88144135 2205:0.11761502 2206:0.98745865 2208:-0.53777623 2209:-1.7440886 2210:-0.94267154 2211:-0.48018318 2212:1.9407254 2213:-1.1376247 2214:-0.45600349 2215:-1.3220464 2216:-0.48018318 2217:-1.8160708 2218:1.0731239 2219:-1.2376176 2220:-1.3422869 2222:0.69612199 2223:0.348061 2224:-2.5824881 2227:-0.36794415 2229:-0.050241727 2230:-0.54551846 2233:0.92472458 2235:-0.7699039 2236:-0.84234297 2237:1.5607599 2238:1.5607599 2239:1.4817054 2240:1.5607599 2241:1.8633448 2242:-1.0497998 2243:-1.0497998 2244:0.09865763 2245:-0.73886877 2246:-2.0781415 2247:-1.2595458 2248:-1.2595458 2249:-1.2595458 2250:-1.4684772 2251:-0.90722817 2252:0.58191711 2253:-0.13623291 2254:0.85677731 2255:0.89949238 2256:1.7697024 2257:-1.2453039 2258:-2.7759938 2259:1.2639858 2260:-1.6954248 2261:-0.76100671 2262:0.82184744 2263:0.82184744 2264:0.81330788 2265:1.2925575 2266:1.2925575 2267:0.43273005 2268:0.43273005 2269:-0.13238584 2270:0.49390861 2271:0.43273005 2272:0.43273005 2273:0.43116266 2274:0.13413258 2275:-0.48307532 2276:-0.48307532 2277:-0.48307532 2278:-0.48307532 2279:-0.48307532 2280:-2.7224836 2281:-0.14156699 2282:-0.14156699 2283:0.43693876 2284:0.26136556 2285:0.1215571 2286:-0.11548983 2287:0.54563427 2288:-1.5177099 2289:0.84746426 2290:0.0665107 2291:-0.97301137 2292:0.57033753 2293:-0.70294505 2294:-0.97301137 2295:-0.015007742 2296:-0.22138067 2297:-0.22138067 2298:-0.22138067 2299:-0.91418201 2300:0.60678613 2301:0.45440212 2302:0.41148362 2303:0.18326244 2304:0.41148362 2305:0.41148362 2306:1.5794927 2307:-0.30579126 2308:-0.87749714 2309:0.58730429 2310:1.162707 2311:2.5272849 2312:-1.0796 2313:3.3051295 2314:3.1491187 2315:1.7373548 2316:-0.39010802 2317:-3.6906438 2318:1.2556903 2319:-0.96023273 2320:1.366928 2321:0.43416944 2322:1.619723 2323:0.4190073 2324:0.12200746 2325:1.1667541 2326:-0.15034898 2327:0.70264775 2328:-0.12795852 2329:0.6900034 2330:0.6900034 2331:0.31027171 2332:0.6900034 2333:0.088320754 2334:2.4030614 2335:-0.13717975 2336:0.49343988 2337:0.7535525 2338:-0.7958771 2339:1.2103125 2340:0.43361619 2341:-0.66706961 2342:1.0361695 2343:-0.39781302 2344:-1.3987243 2345:1.3820664 2346:0.82229477 2348:0.23307338 2349:1.3273734 2350:-0.71204793 2351:-0.056659427 2352:-0.21399683 2353:1.6708241 2354:-0.77194953 2355:0.9415006 2356:-0.780586 2357:-0.54910046 2358:-0.99732453 2359:-0.99732453 2360:-0.5393793 2361:1.9369186 2362:2.3942282 2363:1.9369186 2364:0.83060253 2365:0.64970475 2366:-0.10980463 2367:-1.239575 2368:-0.99233109 2369:2.6535537 2370:0.4467687 2371:-0.38799018 2372:0.40204883 2373:-1.8884686 2374:0.49537119 2375:1.1568611 2376:0.55750537 2377:0.4467687 2378:2.7529371 2379:0.31308728 2380:0.85142291 2381:-1.8387336 2382:-0.26888049 2383:0.31308728 2384:0.31308728 2385:1.2496226 2386:1.4728519 2387:0.31308728 2388:0.49238116 2389:-0.49243748 2390:1.1956644 2391:1.2671683 2392:0.70935494 2393:3.2950301 2394:-0.60963213 2395:1.1610699 2396:-0.48041728 2399:-0.5739007 2400:-0.19689345 2402:0.16525057 2403:1.2543725 2404:0.87080902 2407:0.16451599 2408:0.18076651 2409:0.18076651 2410:2.4786501 2411:2.0362906 2412:0.66560858 2413:0.66560858 2414:0.66560858 2415:0.97727042 2416:1.8920071 2417:0.66560858 2418:0.34936273 2419:1.060213 2420:0.66560858 2421:2.6096668 2422:0.066528395 2423:0.066528395 2424:-0.60193872 2425:0.46721852 2426:0.65920919 2427:-0.73799247 2428:1.6831057 2429:0.84102541 2430:0.53297156 2431:0.066528395 2432:1.1706156 2433:0.066528395 2434:1.345602 2435:0.066528395 2436:-0.38030568 2437:0.066528395 2438:2.3328655 2439:-0.43956992 2440:1.8812937 2441:-0.82903624 2442:0.70323104 2443:-1.248575 2444:-2.6624327 2445:1.218116 2446:-0.46016294 2447:0.21140239 2448:1.0579926 2449:-0.85358965 2450:-0.10399655 2451:1.7660683 2452:-0.8991797 2453:-1.5028729 2454:-1.5028729 2455:-0.85620409 2456:-1.2202787 2457:-0.031312723 2458:0.048521426 2459:0.048521426 2460:-0.68861061 2461:-0.013992502 2462:-0.16842143 2463:0.45002401 2464:0.048521426 2465:0.87174714 2466:2.5429795 2467:0.40076113 2468:1.9344649 2469:0.048521426 2470:0.048521426 2471:-0.14184172 2472:0.019118542 2473:0.15024151 2474:1.0430058 2475:-1.3582846 2476:0.73772901 2477:-0.20149362 2478:-0.34087059 2479:-1.0486567 2480:0.019118542 2481:1.0347065 2482:0.62987608 2483:1.7550273 2484:0.97510225 2485:0.019118542 2486:1.8085362 2487:-0.45740435 2488:0.019118542 2489:0.6356346 2490:-0.60201198 2491:-2.4848216 2492:-2.4848216 2493:-0.64061165 2494:0.14318316 2495:-0.099440567 2496:-0.54658455 2497:0.97842115 2498:1.4467351 2499:-0.25341949 2500:-0.2246504 2501:0.048142299 2502:-0.099440567 2503:0.36847919 2504:0.07729511 2505:1.9286457 2506:1.5925084 2507:-0.71898448 2508:-0.32984942 2509:-0.73859012 2510:-0.24675532 2511:-0.059594922 2512:0.98650622 2513:-0.58539599 2514:-0.61554062 2515:-0.90265375 2516:-0.58539599 2517:4.0538912 2518:-0.76724422 2519:-2.1029582 2520:-2.1029582 2521:-1.1003759 2522:0.2263204 2523:-0.35163093 2524:1.9687634 2525:-0.59873682 2526:-0.076596543 2527:-0.59873682 2528:-0.59873682 2529:-0.59873682 2530:1.0334531 2531:0.57754439 2532:1.0334531 2533:-0.26829353 2534:-1.1096041 2535:-1.2745776 2536:-0.26829353 2538:-0.36158285 2540:2.1766322 2541:-0.18201683 2542:-0.17676422 2543:-0.75234902 2544:-0.066598736 2545:0.15819149 2547:1.2509749 2548:-0.152454 2549:-0.24788029 2551:-0.37678194 2552:-0.37678194 2553:0.55625409 2554:0.44802827 2555:-0.93560767 2556:0.82711446 2557:-0.37678194 2558:0.37077269 2559:0.64651376 2560:0.64651376 2561:-0.65880227 2562:-0.99806911 2563:-2.2637768 2564:-0.99806911 2565:-0.99806911 2566:-0.59962797 2567:-1.2535228 2568:-0.34363297 2569:-0.68212974 2570:-3.140985 2571:1.5036882 2572:-1.0791439 2573:-0.79420185 2574:1.8741261 2575:1.601801 2576:0.54573655 2577:-0.55411029 2578:-0.11809321 2579:-0.11809321 2580:1.7753531 2581:-0.98156798 2582:-0.65406048 2583:-1.4244072 2584:1.193565 2585:-1.2071476 2586:1.011521 2587:0.25407827 2588:1.8944119 2589:0.98831522 2590:-0.30276582 2591:1.3792124 2592:-0.77950007 2593:1.3792124 2594:1.7162901 2595:-1.5375574 2596:-1.5375574 2597:-1.5375574 2598:-0.76313913 2599:1.5432966 2600:0.41259706 2601:0.56498426 2602:0.060477655 2603:2.3332105 2604:0.36383295 2605:-0.53744298 2606:0.043086253 2607:0.28196758 2608:0.22698247 2609:-0.46677735 2610:-0.71418464 2611:0.61721808 2612:0.61721808 2613:0.61721808 2614:0.61721808 2615:-0.5386939 2616:-0.63617945 2617:0.61721808 2618:-0.67045975 2619:2.0065064 2620:-0.098263934 2621:-0.35384881 2622:-0.1654425 2623:-0.1654425 2624:0.8883419 2625:2.0905571 2626:2.0905571 2627:0.22509994 2628:-0.55397159 2629:0.14274536 2630:0.22509994 2631:-1.9230169 2632:0.22509994 2633:1.2268587 2634:-1.3071564 2635:1.5982176 2636:-0.75268763 2637:-0.94810319 2642:1.4220244 2643:0.6828931 2644:-0.82736778 2645:-0.32051873 2646:-0.76572871 2647:-1.244556 2648:-1.2643327 2649:-0.90775949 2650:-1.3942188 2651:0.73270392 2652:0.64340043 2653:0.60158217 2654:-0.24463494 2655:1.6265694 2656:0.73270392 2657:0.25669023 2658:0.73270392 2659:-0.014185206 2660:0.53768879 2661:0.44426972 2662:0.28912371 2663:-0.030852497 2664:-0.030852497 2665:-0.80654478 2666:-0.26046926 2667:2.6979244 2668:-0.55167747 2669:-0.67217171 2670:-0.94841564 2671:1.441831 2672:-1.2554481 2673:1.8034767 2674:2.6016941 2675:1.441831 2676:0.77027458 2677:1.441831 2678:0.81043267 2679:-0.8805908 2680:0.81043267 2681:-0.53575158 2682:1.2527952 2683:-0.35630023 2684:-0.29033133 2685:1.222811 2686:-0.2409337 2687:-0.4259465 2688:1.6503811 2689:-0.16560405 2690:0.57245809 2691:0.57245809 2692:-1.0796099 2693:-1.5776166 2694:-0.87130296 2695:-0.74651992 2696:-1.0796099 2697:3.2015133 2698:-1.1189986 2699:-1.9008609 2700:2.2513144 2701:-2.300838 2702:2.3732953 2703:0.46297824 2704:-0.12941884 2705:-0.49637547 2706:0.46297824 2707:0.2796036 2708:-1.1461771 2709:-0.77570021 2710:-0.31848839 2711:-3.0729938 2712:0.80651611 2713:-0.10953627 2714:-0.79982615 2715:0.10187332 2716:-0.33675614 2717:-0.88732451 2718:1.1562597 2719:1.4080906 2720:0.10187332 2722:0.5215683 2723:1.8853418 2725:1.4984589 2726:1.8254366 2727:3.012152 2728:0.082823895 2731:1.8148756 2732:0.99799907 2733:1.2210456 2734:-0.6012367 2735:-0.6012367 2736:3.7153666 2739:-1.9993778 2740:-1.4727323 2741:-0.52526635 2742:-2.834024 2743:1.7372619 2744:-0.35177112 2745:-0.073371671 2746:-1.8824402 2747:1.574662 2748:-4.1293392 2749:-0.2568031 2750:-0.44727069 2751:1.0233103 2752:0.47482526 2753:1.2276405 2754:-2.6595173 2755:-1.1217782 2756:0.24319954 2757:-1.092967 2758:2.7809205 2759:2.3797369 2760:0.87080902 2761:1.9178021 2762:2.1109462 2763:1.8878982 2764:3.2841313 2765:-2.2700608 2766:-0.085183971 2767:1.0447543 2768:1.1891274 2769:1.7031231 2770:2.2164435 2771:2.2164435 2773:-0.58381367 2774:3.1650448 2775:-0.13655531 2776:-0.13655531 2777:-0.13655531 2778:-0.58726799 2779:-0.38653001 2782:0.50024664 2784:-0.22575156 2785:-0.5709452 2786:-0.26353434 2787:-0.22575156 2788:-0.19933923 2789:-0.19933923 2790:0.66883224 2791:0.58762801 2792:0.66883224 2793:0.66883224 2794:0.66883224 2795:1.2059218 2796:0.66883224 2797:1.3684592 2798:-0.84903318 2799:0.87042409 2800:0.32104838 2801:0.88616425 2802:0.69100422 2803:1.0877759 2804:0.4038519 2805:0.74828631 2806:0.74828631 2807:-0.22158837 2808:-1.3284186 2809:-0.13984914 2810:0.78858894 2811:-0.78159374 2812:-0.50142902 2813:-1.4952023 2814:0.25907022 2815:3.7215097 2816:0.37418994 2817:2.9936209 2818:0.64321548 2819:1.0907657 2820:1.3642879 2821:0.68214393 2822:0.12307794 2823:-0.59301519 2824:0.72257227 2825:-0.023544455 2826:-0.023544455 2827:-0.21883875 2828:1.2743731 2829:-0.72942632 2830:-0.023544455 2831:-0.023544455 2832:-0.023544455 2833:-0.10707062 2834:-0.023544455 2835:-0.20083438 2836:0.72738993 2837:-0.83475888 2838:-0.83475888 2839:-0.83475888 2840:-0.33271968 2841:1.5529237 2842:1.2466735 2843:0.20206182 2844:3.1420248 2845:-0.86482799 2846:0.060894705 2847:0.64761311 2848:1.9323314 2849:0.96767706 2850:0.26877782 2851:-0.53949934 2852:0.44652611 2853:0.29466626 2854:1.8779019 2855:-0.92341238 2856:-0.53949934 2857:0.3550716 2858:1.6650234 2859:-0.50178564 2860:-0.094393805 2861:-0.10963045 2862:-0.84793186 2863:-0.33846676 2864:-1.2808015 2866:1.2032657 2867:1.7298712 2868:1.2599177 2869:0.60729074 2870:0.19297014 2871:1.4350601 2872:0.60729074 2873:-0.012623636 2874:0.60729074 2875:1.0938208 2876:0.39866504 2877:0.50203919 2878:2.4962931 2879:1.3274766 2880:0.50203919 2881:0.50203919 2882:0.50203919 2883:0.50203919 2884:-0.092416942 2885:0.38328388 2886:0.9459607 2887:0.72724199 2888:0.56301767 2889:2.1730287 2890:1.3656678 2891:0.79698718 2892:1.3656678 2893:-0.73647445 2894:-0.21925233 2895:-0.29559252 2896:-0.21925233 2897:-0.21925233 2898:-0.3087877 2899:-0.11336556 2900:0.10588678 2901:0.23433919 2902:2.137543 2903:0.83887208 2904:0.22180553 2906:0.83135676 2907:2.0351503 2908:0.91467702 2909:-0.57110834 2910:-2.6685939 2911:-0.37945709 2912:-0.39048514 2913:1.4758694 2914:2.7545478 2915:1.2882828 2916:0.42399335 2917:-0.13279024 2918:0.56900781 2919:-0.15616708 2920:0.34871793 2921:0.028663645 2922:-5.4628139 2923:0.096514903 2924:-0.36072534 2925:1.1341236 2926:-0.026628222 2927:-1.2556738 2928:-0.086916275 2929:0.99893481 2930:-0.36072534 2931:0.25030139 2932:-0.98625982 2933:-0.56352675 2934:1.1728793 2935:0.40589121 2936:1.1728793 2937:-0.52752501 2938:2.3457587 2939:-0.79087043 2940:2.2823961 2941:-3.1486976 2943:0.16580839 2944:0.71182632 2945:-0.79612261 2946:0.91959691 2947:-0.8687396 2948:1.5185051 2949:0.59985125 2950:1.5185051 2951:1.5185051 2952:-1.0409936 2953:-0.88569248 2954:-2.448281 2955:1.1758755 2956:-0.88569248 2957:0.75879467 2958:-0.086299405 2959:-0.69417328 2960:-0.23031037 2961:-0.88569248 2962:-1.2086493 2963:-0.88569248 2964:-1.2620409 2965:0.2842291 2966:0.2842291 2967:-0.88569248 2968:3.716028 2969:0.5518381 2970:-0.78879243 2971:-0.71478623 2972:0.0011423879 2973:0.90080374 2974:0.0011423879 2975:-1.6386902 2976:-2.0201766 2977:-1.0721093 2978:-0.085805096 2979:-0.085805096 2980:-0.085805096 2981:-1.2925336 2982:0.1668981 2983:1.4095143 2984:-0.085805096 2985:0.57958865 2986:-2.2266512 2987:0.41079429 2988:-1.8879583 2989:-0.18159366 2990:-0.43742621 2991:1.123313 2992:1.123313 2993:-0.37899345 2994:-0.10466251 2995:0.2045425 2996:0.2045425 2997:0.10273148 2998:0.34012911 2999:0.63244432 3000:-0.30823281 3001:0.88188732 3002:-1.2471542 3003:-0.89668298 3005:-3.1516349 3006:1.954756 3007:1.8755578 3008:0.14940058 3009:0.090613939 3010:0.16141859 3011:0.090613939 3012:1.7198832 3013:0.82382238 3014:0.090613939 3015:1.7329624 3016:2.3831217 3017:-3.0030661 3018:2.0233865 3019:-0.26829353 3020:-0.27604988 3021:0.18673712 3022:-0.59572959 3023:2.4482932 3024:0.68687618 3025:0.68687618 3026:-0.30696145 3027:0.14897376 3028:1.7524987 3029:-2.2357419 3030:-1.1322287 3031:0.62427926 3032:0.54763454 3033:-1.0636146 3034:-1.6391857 3035:0.56897223 3036:0.62746328 3037:1.974776 3038:0.75910008 3039:0.19835638 3040:-1.2312262 3041:-1.3359925 3042:-1.3359925 3043:0.771029 3044:1.1349368 3045:0.55006462 3046:-0.49690878 3047:0.30680323 3048:-0.24845439 3049:0.043170009 3050:-1.1319752 3051:-0.24845439 3052:0.62346923 3053:-0.73185009 3054:-0.71266943 3055:-0.12660468 3056:-1.172738 3057:-0.68826318 3058:-1.1647861 3059:0.44758457 3060:-0.18165578 3061:-1.0026447 3062:-0.32678878 3063:-0.32678878 3065:0.88429344 3066:0.88429344 3067:0.88429344 3068:2.2119672 3069:-0.78908151 3070:-0.033616573 3071:-0.26665092 3072:-0.53753591 3073:0.51084554 3074:-1.7060486 3075:-1.1768453 3076:-0.68653566 3077:1.2069106 3078:0.98046589 3081:-0.40820321 3082:-1.4301586 3083:-1.355354 3084:-1.4233283 3085:2.4081049 3086:0.15349589 3087:1.4316173 3088:0.96615291 3089:-0.65540063 3090:-0.65540063 3091:-0.65540063 3092:-0.65540063 3093:-0.39447564 3094:-1.037618 3095:-1.5567755 3096:-1.52692 3097:-1.4728383 3098:-1.6643575 3099:-1.4423364 3100:-0.79828686 3101:-0.79828686 3102:-0.59612799 3103:-0.79828686 3104:-3.1714056 3105:-0.0030029211 3106:0.93839663 3107:1.6575527 3108:-1.8888309 3109:-2.2476983 3110:-0.97383636 3115:0.92845654 3117:-0.48606628 3118:2.0967157 3119:-0.9042328 3121:0.59059894 3124:-1.515746 3127:0.38913307 3128:-1.1612893 3129:-1.1612893 3130:-1.1612893 3131:-0.016677113 3132:-0.37159866 3133:1.0858135 3134:-0.016677113 3135:1.4888772 3136:-0.30468434 3137:-0.8090418 3138:-0.26913598 3139:0.98725283 3140:0.99819064 3141:-0.26913598 3142:-0.40399572 3143:-0.52034098 3144:-0.26913598 3145:0.85205269 3146:-0.14586516 3147:-0.48207629 3148:0.54742426 3149:-0.26913598 3150:-0.26913598 3151:-0.82772642 3152:-0.63571286 3153:-0.36463219 3154:-0.36463219 3155:-0.61507827 3156:1.527459 3157:-2.6040635 3158:-0.0030546661 3159:0.29289389 3160:-0.94892293 3161:1.3479712 3162:1.7785405 3163:0.57691389 3164:1.7785405 3165:-0.84647232 3166:-0.1196363 3167:1.7785405 3168:-0.48835021 3169:0.78931063 3170:0.49468488 3171:1.1811185 3172:-0.35769174 3173:-0.71356118 3174:1.0197519 3175:0.19006179 3176:-0.8455075 3177:-1.1143358 3178:-0.87747067 3179:-0.92966861 3180:-0.92966861 3181:-0.33291245 3182:-0.92146516 3183:1.4680634 3184:0.36376116 3185:0.36376116 3186:0.52885205 3187:0.36376116 3188:0.63812202 3189:-1.5598725 3190:-0.38413653 3191:-0.08969368 3192:2.1907947 3193:-0.15296631 3195:-0.50198096 3196:-0.42600986 3197:0.6226598 3198:-0.3349961 3199:1.6353904 3200:1.6353904 3201:3.6496089 3202:0.15666728 3203:1.573733 3204:1.0870122 3205:1.0870122 3206:2.2800891 3207:0.73692471 3208:0.48849142 3209:-0.60416913 3210:-0.71568954 3211:1.7095408 3212:-1.2718017 3213:-0.50891823 3214:-0.86678398 3215:3.0938048 3216:-0.86678398 3217:-0.86678398 3218:-1.1325469 3219:-0.86678398 3220:-0.94199032 3221:0.6351822 3222:-0.43485844 3223:-1.6573588 3224:-0.59517753 3225:0.39666843 3226:0.28116491 3227:2.7892697 3228:0.82621694 3229:-1.0254378 3230:-1.4395629 3231:-1.354526 3232:-1.354526 3233:-1.354526 3234:-1.0893525 3235:3.5849552 3236:0.47719535 3237:0.77485245 3238:0.47719535 3239:0.21972667 3240:-1.3347183 3241:0.28466401 3242:1.4311388 3243:1.8165292 3244:0.16661957 3245:0.23381007 3246:0.28186649 3247:0.56593215 3248:0.37834883 3249:0.37834883 3250:0.54629058 3251:0.32113883 3253:-0.12559548 3254:-0.12559548 3255:-0.62102449 3256:-0.12559548 3257:-0.12559548 3258:-0.12559548 3259:-0.12559548 3260:-0.26370493 3261:1.2164446 3262:1.5173544 3263:-0.12559548 3264:0.17710304 3265:0.64075744 3266:-0.12559548 3267:-1.2906063 3268:0.91594124 3269:-0.98169947 3270:-0.12559548 3271:-0.12559548 3272:-1.0745819 3273:-1.5530788 3274:-0.12559548 3275:-1.549789 3276:-0.35235465 3277:0.39478213 3278:0.013702432 3279:-1.9486493 3280:0.81760585 3281:2.9883642 3282:-0.13588902 3283:-0.13588902 3284:-0.7310065 3285:-0.7310065 3286:0.26811621 3287:-0.20066173 3288:2.6608179 3289:-0.69243848 3291:0.14061444 3292:-1.9076265 3295:1.0799568 3296:0.08638382 3297:0.38499814 3298:-1.2524382 3299:2.5275044 3300:-1.696384 3301:-0.2076548 3302:-1.197719 3303:-0.41002631 3304:1.7274834 3305:0.37668395 3306:0.31581128 3307:1.3816174 3309:-0.86102182 3310:-0.62592131 3311:1.4713625 3312:-0.56631112 3314:-0.91180587 3315:-2.4849141 3316:-3.1870725 3317:-0.73695427 3318:0.48599315 3319:-0.73695427 3320:-0.73695427 3321:-0.73695427 3322:-0.21093431 3323:-0.73695427 3324:-2.6721601 3325:-0.076729715 3326:1.3549111 3327:-0.64617985 3328:-0.97992885 3329:-0.73695427 3330:0.87405628 3331:0.37875304 3332:0.68244791 3333:1.1182457 3334:0.68244791 3335:-0.35126814 3336:-0.62795186 3337:1.5363735 3338:1.7778019 3339:0.31388909 3340:0.20044248 3341:0.20044248 3342:-0.089247987 3343:-0.089247987 3344:2.0531175 3345:-0.5318768 3346:0.29909265 3347:1.70732 3348:-1.0336516 3349:1.4213141 3350:0.3457737 3351:-0.37301213 3352:-0.30243906 3353:0.30295527 3354:0.89486188 3355:-1.0094209 3356:0.67568976 3357:-0.03227964 3358:1.2963735 3359:-1.6512009 3360:1.0752242 3361:-0.38895684 3362:0.3809188 3363:0.16412769 3364:0.3809188 3365:0.3809188 3366:-0.26870492 3367:0.61297035 3368:0.3809188 3369:0.314071 3370:0.314071 3371:0.18744585 3372:0.18744585 3373:0.18744585 3374:0.46054631 3375:0.18744585 3376:0.18744585 3377:1.8889486 3378:0.18744585 3379:0.2356046 3380:-0.31960282 3381:-2.1428013 3382:-0.064084105 3383:-0.67349619 3384:-2.1128354 3385:-0.35664615 3386:-0.31164172 3387:0.84884238 3388:-1.3277723 3389:0.26612651 3390:0.71903569 3391:0.22094943 3392:0.32515085 3393:0.51374847 3395:-0.62426895 3396:-0.73842567 3397:-0.41117799 3398:0.58996958 3400:-1.5686421 3401:-0.42084783 3402:0.10839639 3403:-1.2799121 3404:-0.069288835 3405:-0.34884006 3407:0.77415293 3408:-1.5850548 3411:-1.322104 3412:2.0504558 3413:1.8097473 3414:0.16580839 3415:-0.21266708 3416:-1.8647971 3417:1.0723686 3418:1.0723686 3419:2.4037015 3420:-0.60766345 3421:2.204145 3422:-1.8485441 3423:1.0830462 3424:1.1520305 3425:1.0830462 3426:1.2404191 3427:1.4681971 3428:1.4681971 3429:0.82681084 3430:1.4681971 3431:0.64043635 3432:1.7371578 3433:-0.98438412 3434:0.79812449 3435:0.19446619 3438:0.081362791 3439:1.6418782 3440:2.36555 3441:2.1423655 3442:1.3632939 3443:0.31889069 3444:-1.3465085 3445:-0.37409547 3446:0.44948763 3447:-0.55448735 3448:0.9157182 3449:0.82922369 3450:0.82922369 3451:-0.44889158 3452:0.46511728 3453:0.46511728 3454:0.063572317 3455:1.4895041 3456:-0.38514033 3457:0.46511728 3458:-0.32930911 3459:-0.32930911 3460:-0.93670213 3461:-0.32930911 3462:-1.2517941 3463:0.056382917 3464:-0.57937473 3465:-0.28186896 3466:0.95022392 3467:-1.9424245 3468:-0.28186896 3469:-0.28186896 3470:-0.80732548 3471:-0.28186896 3472:2.6618662 3473:-0.43533036 3474:0.41478971 3475:-0.47652289 3476:0.8443532 3477:0.58837676 3478:0.32573846 3479:0.58837676 3480:-1.7479738 3481:-0.29001084 3482:-0.55801916 3483:1.5028181 3484:0.15819149 3485:0.15819149 3486:0.15819149 3487:-0.018162329 3488:0.15819149 3489:-0.054787163 3490:-0.4039163 3491:0.15819149 3492:0.7372278 3493:-0.66208845 3494:-1.2915649 3495:-1.057343 3496:-0.081101827 3497:0.25958946 3498:-4.772162 3499:0.037022453 3500:0.21870518 3501:-0.2756598 3502:-0.76350123 3503:-0.2756598 3504:0.7855494 3505:-0.2756598 3506:-0.40620887 3507:-0.2756598 3508:-2.3307884 3510:1.6574351 3511:-0.68056095 3512:0.19761141 3513:0.022966957 3514:1.3410277 3515:0.42466184 3516:1.3410277 3517:1.3410277 3518:0.92980546 3519:1.1144155 3520:0.088979714 3521:1.2269487 3522:1.2269487 3523:1.698613 3524:0.20055908 3525:0.20055908 3526:0.20055908 3527:1.3626808 3528:-0.60143578 3529:1.8938153 3530:0.423307 3531:1.3702358 3532:1.508976 3533:0.77921039 3534:0.031566039 3535:-0.16333076 3536:-0.16333076 3537:-0.16333076 3538:-0.16333076 3539:-0.16333076 3540:-0.16333076 3541:-0.034948871 3542:-0.32589817 3543:0.071241803 3544:-0.32589817 3545:0.93277538 3546:0.4637588 3547:0.66769552 3548:0.22312015 3549:1.8055186 3550:0.93307132 3551:0.10571098 3552:-0.12023375 3553:0.034638938 3554:-0.019407267 3555:1.7854754 3556:0.89227158 3557:-0.019407267 3558:-0.19546078 3559:-0.019407267 3560:1.4074242 3561:1.5973901 3562:-2.1382265 3563:-0.24512102 3564:1.4141575 3565:-0.049996272 3566:-1.1999141 3567:1.1180595 3568:0.43645829 3569:1.756653 3570:1.756653 3571:2.8659647 3572:2.172523 3573:-0.56231761 3574:-1.066411 3575:-1.7655064 3576:-0.26567027 3577:-0.68219692 3578:-0.06794212 3579:-1.4118127 3580:-0.82558483 3583:0.82229477 3584:2.6112659 3585:2.4291334 3586:0.24681771 3587:-0.88921344 3588:-1.320919 3589:0.19226958 3590:0.5761826 3591:0.5761826 3592:0.5761826 3593:0.5761826 3594:0.5761826 3595:-0.83592403 3596:0.49572247 3597:0.5761826 3598:-0.094195329 3599:0.34502393 3600:-0.17519233 3601:-1.1659516 3602:-1.1659516 3603:-0.95241785 3604:1.8314365 3605:-1.331278 3606:-1.331278 3608:-1.3440709 3609:3.2685745 3610:-0.59573358 3611:-0.35006759 3612:1.1966033 3613:0.14591706 3614:0.6859957 3615:1.7194602 3616:0.4505029 3617:0.90439087 3618:0.90439087 3619:0.90439087 3620:-0.11811908 3621:0.41563517 3622:-0.70642412 3623:0.90439087 3624:0.26217842 3625:-1.0066756 3626:-0.96001315 3627:3.0529749 3628:0.32918808 3629:0.19104508 3630:0.52104807 3631:0.52104807 3632:0.29765707 3633:0.34899023 3634:0.29765707 3635:0.59625626 3636:0.29765707 3637:-0.55718631 3638:0.96520084 3639:1.6917546 3640:0.20103259 3641:0.20103259 3642:0.40531251 3643:0.20103259 3644:0.90565807 3645:-0.17365459 3646:-2.5640051 3647:1.2626022 3648:1.3664401 3649:0.88747102 3650:-0.77958685 3651:1.3798043 3652:-0.39599809 3653:-0.48931354 3654:-0.43636188 3655:-0.43636188 3656:-1.6705496 3657:0.49586987 3658:-1.699921 3659:-1.0893954 3660:1.0908275 3661:0.54541373 3662:0.54541373 3663:0.54541373 3664:0.54541373 3665:-0.58179432 3666:-0.81308788 3667:-1.3908803 3668:1.4692974 3670:3.8219628 3671:0.87497526 3672:0.69055146 3673:0.081185907 3674:-0.33207875 3675:-0.18446554 3676:-0.16202235 3677:-0.33207875 3678:-0.33207875 3679:-0.95496666 3680:-0.33207875 3681:-1.5642933 3682:-0.6169855 3683:-0.33207875 3684:-0.33207875 3685:-0.33207875 3686:-0.36223254 3687:-0.25330731 3688:1.9926167 3689:0.39713997 3690:0.012853772 3691:0.39713997 3692:-1.1763985 3693:-1.1763985 3694:0.44871894 3695:-1.1763985 3696:-1.1763985 3697:1.6338921 3698:-3.5539453 3699:1.2686741 3700:-2.5818536 3701:-0.94494259 3702:0.69374156 3703:-0.94494259 3704:-0.94494259 3705:-0.94494259 3706:-0.38414431 3707:-0.1043379 3708:-0.38414431 3709:1.3985391 3710:-0.20113198 3711:-0.20113198 3712:-0.34353891 3713:0.83314335 3714:-0.20113198 3715:-0.20113198 3716:-0.37183729 3717:-0.20113198 3718:-0.20113198 3719:0.52440131 3720:0.41454685 3721:0.47942787 3722:0.47942787 3723:-0.10777027 3724:1.8557444 3725:0.0075900927 3726:2.4344504 3727:0.80836576 3728:0.0075900927 3729:-0.43940225 3730:0.0075900927 3731:0.0075900927 3732:-0.54953188 3733:-0.54953188 3734:-0.54953188 3735:-1.5754981 3736:-2.8160608 3737:-0.59938562 3738:2.6072798 3739:1.1973827 3740:0.67055666 3741:0.67055666 3742:0.67055666 3743:0.67055666 3744:-2.5294025 3745:0.67055666 3746:0.25221768 3747:0.67055666 3748:0.67055666 3749:0.87998933 3750:0.95763338 3751:0.67055666 3752:0.82770663 3753:-0.73837864 3754:-0.48569924 3755:-0.59922141 3756:-0.79812646 3757:-0.12464065 3758:-0.12464065 3762:-0.17745611 3764:-1.6044965 3766:0.64197826 3771:-0.92723912 3772:0.83753985 3773:-0.29791602 3774:-0.82067132 3775:-0.54968917 3776:-0.81405836 3777:-0.45066997 3778:-0.82067132 3779:0.65045017 3780:-0.83800554 3781:-0.83800554 3782:-0.80458629 3783:-0.65157318 3784:-0.83800554 3787:0.45935816 3789:0.48517826 3790:-0.1447973 3791:-1.558984 3792:-0.81767428 3793:-1.0244116 3794:-0.83536965 3795:4.4793296 3796:-0.41768482 3797:0.73548108 3798:1.3748437 3799:2.2104194 3802:0.31997621 3803:0.31997621 3804:-1.5997696 3805:-2.6502271 3806:0.31997621 3807:0.31997621 3808:-0.43364584 3809:0.31997621 3810:0.63995242 3811:0.31997621 3812:1.2953759 3813:0.31997621 3814:-0.5451864 3815:-0.5451864 3816:2.289408 3817:0.36866185 3818:-0.071984373 3819:-0.40308881 3820:4.2285681 3821:-0.84487826 3822:-1.7361959 3823:-2.429682 3824:-0.025755102 3825:0.80877787 3826:0.16712186 3827:0.67532682 3828:-0.054438725 3829:-0.19881679 3830:0.67532682 3831:-0.022866746 3832:0.36235395 3833:1.685039 3834:2.5179102 3835:-0.25754464 3836:-1.4524784 3837:-0.25754464 3838:0.1719777 3839:-0.24643417 3840:2.6851959 3841:1.0728947 3842:1.1973813 3843:1.4986538 3844:-0.99133056 3845:0.60274184 3846:0.63060719 3848:0.59708899 3851:-0.22585373 3853:-0.28477922 3858:-0.66114771 3859:0.49154425 3861:0.70225579 3864:-0.65565789 3867:-0.089124203 3868:1.253794 3869:0.50379175 3870:0.50379175 3871:-0.3498607 3872:-0.3498607 3873:0.48179966 3874:-0.82324523 3875:-0.3498607 3876:0.80120182 3877:-0.3249867 3878:1.1814681 3879:0.35964313 3880:2.1456192 3881:0.85066783 3882:-1.1673372 3883:-0.2481198 3884:-1.2881429 3885:0.95992327 3886:-0.20114869 3887:-0.2481198 3888:-0.2481198 3889:-0.2481198 3890:-0.2481198 3891:0.48464817 3892:-0.2481198 3893:0.76020092 3894:1.4503351 3895:-0.11507561 3896:0.23673829 3897:-0.28010896 3898:-0.28010896 3899:0.70899975 3900:-0.013440012 3901:-0.013440012 3902:-0.90667397 3903:1.8388859 3904:1.9095304 3905:-0.52371365 3906:-0.12347578 3907:-0.79519689 3908:-0.41758674 3909:-0.12347578 3910:-0.12347578 3911:-0.12347578 3912:-0.12347578 3913:-0.61341256 3914:-0.18483071 3915:-1.2251247 3916:0.17343256 3917:-0.18483071 3918:-0.062981002 3919:1.9732144 3920:-0.89794844 3921:-0.82625312 3922:0.91756511 3923:1.0571545 3924:0.61574185 3925:-1.8996403 3926:-0.58448249 3927:-1.0941944 3928:2.0900686 3929:-0.57722402 3930:-1.2633188 3931:0.82026684 3933:-1.1026 3934:-1.37103 3935:-1.9353765 3936:-1.2902443 3937:0.55604738 3938:1.0715566 3939:-0.9032132 3940:-2.0317571 3941:-0.7868529 3942:0.20458318 3943:0.72576517 3944:0.50428712 3945:1.0451421 3947:0.0069716494 3949:0.33760533 3950:-0.40723875 3951:2.5021791 3952:-0.17377165 3953:-1.252386 3954:-0.47825855 3955:-0.82241166 3956:0.94359887 3957:0.022616656 3958:-2.0191765 3959:-1.0702567 3960:-1.6073463 3961:-1.6073463 3962:-1.6073463 3963:0.49814287 3964:1.6325768 3965:-1.0459285 3966:-0.51412356 3967:-1.2086287 3968:-1.0800755 3969:-1.4904795 3970:-0.88620335 3971:-2.7354414 3972:-0.2952517 3973:0.61651605 3974:0.019128989 3975:0.48805907 3976:-0.45703137 3977:0.48805907 3978:0.48805907 3979:-0.14624754 3980:-0.69845617 3981:-0.14624754 3982:-0.14624754 3983:-1.0050851 3984:1.4204204 3985:1.4710082 3986:-1.5866451 3987:-2.8731544 3988:1.9755536 3989:-1.024552 3990:-1.8245119 3991:0.10420143 3992:0.10420143 3993:0.40558285 3994:0.35788357 3995:-0.35840359 3996:-1.4963726 3997:-0.35840359 3998:-0.1244332 3999:-0.1244332 4000:0.52287555 4001:-0.47191441 4002:-1.4814144 4003:-2.6662068 4004:-0.22582211 4005:-0.21127312 4007:-0.29652417 4009:-0.289731 4010:0.71672207 4011:0.49678519 4012:-0.64117497 4013:-0.64117497 4014:1.3990978 4015:-0.16078837 4016:-0.42276305 4020:-0.13809392 4022:-0.6351741 4024:-0.56579328 4025:-0.29714328 4026:1.3189349 4030:0.16696723 4031:-0.82581174 4034:-0.14654337 4036:-0.48841739 4037:-0.67309964 4038:-0.037485603 4039:0.78332102 4040:-1.1251348 4041:-0.1878255 4042:0.14168589 4043:-0.7910164 4044:0.0057823062 4045:-2.5587676 4046:0.0067985863 4047:0.13919742 4048:-1.1539387 4049:1.1089971 4050:1.7292646 4051:1.7456408 4052:0.030627029 4053:1.3148426 4054:0.52785337 4055:0.52785337 4056:0.51355064 4057:0.51355064 4058:0.51355064 4059:-1.5308133 4060:0.51355064 4061:0.51355064 4062:-0.60988188 4063:-0.48404011 4064:-2.4759798 4065:-0.48404011 4066:-0.48404011 4067:-0.48404011 4068:-0.71208483 4069:-1.027316 4070:-0.63643122 4071:4.0149021 4072:-3.2542598 4073:2.3074946 4074:4.0149021 4075:-1.3360635 4076:-0.77989638 4077:-0.74633825 4078:0.68645293 4079:-0.44904119 4080:-0.31422183 4081:0.041342769 4082:2.4275498 4086:0.4777422 4088:0.279798 4089:1.3087354 4090:1.6613261 4091:0.30379352 4092:1.616444 4093:-2.302182 4094:-0.30520359 4095:-1.2638476 4096:-0.8881408 4097:1.5364888 4098:0.65691334 4099:-0.26055863 4100:0.28719667 4101:2.0763872 4102:1.9336054 4103:0.42931572 4104:0.42931572 4105:0.64474797 4106:0.89379334 4107:0.64474797 4108:0.9434759 4109:0.64474797 4110:0.64474797 4111:0.64474797 4112:0.64474797 4113:-0.34467649 4114:0.98956871 4115:-0.37848032 4116:-0.59413296 4117:-1.1357601 4118:-0.37848032 4119:0.76755613 4120:-1.0448242 4121:-1.5576112 4122:0.99224114 4123:-2.1177609 4124:-0.75113165 4125:-1.0724611 4126:-0.39221311 4127:-0.39221311 4128:-0.41168627 4129:-1.1371222 4130:-0.66484952 4131:0.04438794 4132:1.4683456 4133:0.04438794 4134:-0.6210165 4135:-1.7588911 4136:0.56641865 4137:-0.21140958 4138:0.44969398 4139:-0.48835155 4140:-0.94906545 4141:-0.35854337 4142:-0.70018452 4143:-0.315754 4144:0.51448619 4145:-2.3770592 4146:-1.332453 4147:-1.332453 4148:-1.332453 4149:0.73332059 4150:0.49154425 4151:0.49154425 4152:-0.11032069 4153:-1.0878667 4154:-0.11032069 4155:0.56241733 4156:0.39088479 4157:-1.3487282 4158:0.89286584 4159:1.2833873 4160:-0.9912014 4161:-0.017971387 4162:-0.017971387 4163:-0.017971387 4164:-0.017971387 4165:-0.017971387 4166:1.0420234 4167:0.73166376 4168:0.73166376 4169:-2.0538683 4170:0.57513493 4171:1.6375343 4172:1.6375343 4173:0.089717232 4174:-2.5506487 4175:3.349633 4176:0.089717232 4177:-1.9034814 4178:0.089717232 4179:0.71489722 4180:-0.44738001 4181:-0.44738001 4182:-0.64883381 4183:0.04322641 4184:-1.6221336 4185:0.04322641 4186:-0.36025766 4187:1.1482368 4188:-0.46073258 4189:-0.46073258 4190:-0.701653 4191:0.29321864 4192:-2.3992593 4193:-0.41687375 4194:-0.41687375 4195:-0.41687375 4196:-0.41687375 4197:3.909651 4199:1.8265802 4201:0.252094 4202:-0.066457532 4203:-1.0093373 4204:-0.34336552 4205:-1.0093373 4206:-1.0093373 4207:0.28128985 4208:-0.94766885 4209:4.6760907 4210:0.072366029 4211:0.072366029 4212:0.072366029 4213:-0.18819785 4214:0.35580012 4215:0.35580012 4216:-0.31717148 4217:1.4584939 4218:0.35580012 4219:-0.72571266 4220:0.14528494 4221:-0.042019367 4222:0.84479934 4223:0.14528494 4224:-0.53830945 4225:-0.53830945 4226:0.83841574 4227:-0.53830945 4228:-0.53830945 4229:1.2465791 4230:-1.5384642 4231:-0.37885776 4232:-0.56403178 4233:-0.95391959 4234:-0.56403178 4235:0.30071339 4236:-0.13032885 4237:0.92940825 4238:-0.35206482 4239:-0.13032885 4240:-0.35206482 4241:-0.47295296 4242:-0.35206482 4243:-3.1421406 4244:-0.05600467 4245:-0.13350818 4246:-0.20832328 4247:-0.20832328 4248:-0.20832328 4249:0.95202965 4250:-0.20832328 4251:-1.7683371 4252:-0.20832328 4253:-0.20832328 4254:-0.20832328 4255:-0.20832328 4256:-0.020701068 4257:-0.99623597 4258:0.38393116 4259:-0.44651568 4260:-0.34618697 4261:-0.51316732 4262:0.16071446 4263:0.38807213 4264:1.0311188 4265:0.50959885 4266:0.50959885 4267:0.94056106 4268:1.0282081 4269:-0.17265691 4270:-1.7463628 4271:-0.0088957017 4272:-1.219089 4273:-1.648777 4274:-0.039633427 4275:-0.039633427 4276:0.35238558 4277:0.51104861 4278:-0.29759082 4279:0.35238558 4280:1.1002274 4281:-0.17493173 4282:-1.4921248 4283:-1.4921248 4284:0.85381746 4285:-2.058676 4286:-0.56524169 4287:-0.56524169 4288:-0.56524169 4289:-0.95454079 4290:-0.56524169 4291:-0.088548124 4292:-0.40664819 4293:-0.40664819 4294:-0.40664819 4295:-0.40664819 4296:-0.40664819 4297:-2.2529683 4298:-1.5618414 4299:0.49634963 4300:1.0590763 4301:1.0590763 4302:0.015797431 4303:0.015797431 4304:0.015797431 4305:0.30026683 4306:-0.53264588 4307:0.72126549 4308:-0.080926321 4309:-0.44677562 4310:0.36794201 4311:0.057431862 4312:-0.080926321 4313:-0.080926321 4314:-0.080926321 4315:-0.080926321 4316:0.84910405 4317:0.7091887 4318:0.84910405 4319:-0.76037949 4320:-0.37302804 4321:-1.1206144 4322:-0.37302804 4323:-0.72635144 4324:-0.67759472 4325:0.8586964 4326:-2.0893135 4327:0.040316056 4328:0.0429185 4329:0.0429185 4330:0.0429185 4331:0.48435217 4332:0.61123484 4333:1.3596753 4334:0.38502619 4335:0.38502619 4336:-0.59055454 4337:-0.014963268 4338:0.38502619 4339:0.08534503 4340:-0.0095071187 4341:-0.4503386 4342:0.11433332 4343:0.8398807 4344:2.1080718 4345:-0.39912862 4346:-1.3403659 4347:0.56708384 4348:-0.28281769 4349:-0.28281769 4350:-0.049210005 4351:-0.16104537 4352:-0.049210005 4353:0.69206673 4354:0.88469011 4355:-1.0017642 4356:2.6928327 4357:0.88393474 4358:-0.94810319 4359:-0.35843837 4360:0.56863928 4361:0.56863928 4362:0.56863928 4363:3.3385761 4364:-0.88512123 4365:0.052184016 4366:0.052184016 4367:0.052184016 4368:-0.28421819 4369:0.80710292 4370:-1.3781506 4371:-0.28428355 4372:0.84823924 4373:-0.28428355 4374:0.096920535 4375:-0.28428355 4376:-0.25988975 4377:-0.47158784 4378:-0.28428355 4379:-0.28428355 4380:-1.5170708 4381:-0.28428355 4382:-0.45104644 4383:-0.70228767 4384:0.8652727 4385:0.9626531 4386:0.62733561 4387:-0.42165142 4388:1.0681094 4389:0.62733561 4390:0.064881049 4391:0.62733561 4392:-0.45681247 4394:0.95875245 4395:-0.14848506 4397:-1.428185 4398:-0.67291868 4399:0.61810607 4400:-1.0512242 4401:-1.0512242 4402:0.032266788 4403:0.032266788 4404:0.032266788 4405:0.02286477 4406:-2.8002083 4407:-2.0188193 4408:-2.8002083 4409:-0.45488548 4410:0.34224153 4411:0.84449536 4412:0.30888769 4413:0.60704118 4414:0.30888769 4415:-1.1700879 4416:0.30888769 4417:-0.86498648 4418:-0.8588376 4419:-1.9825736 4420:1.5819677 4421:0.024781879 4422:1.6477568 4423:-0.56198978 4424:-0.69746649 4425:-0.56198978 4426:-0.69746649 4427:-0.7658366 4428:-0.099207118 4429:-0.099207118 4430:1.8729303 4431:-0.3443605 4432:0.65549558 4433:-2.0088255 4434:-2.0088255 4435:0.88699013 4436:0.88699013 4437:-0.24166125 4438:-1.0402941 4439:0.46750969 4440:-2.3074045 4441:0.59140384 4442:0.30597919 4443:0.13816042 4444:0.35183659 4445:0.09091533 4446:-0.85083044 4447:-0.83738405 4448:0.13816042 4449:0.050051346 4450:1.8508186 4451:0.13816042 4452:0.13816042 4453:-1.3951651 4454:1.8038393 4455:1.8214386 4456:-0.17837074 4457:0.55707419 4458:-1.2148471 4459:-1.5284925 4460:-0.24074857 4461:1.8663081 4462:1.9316773 4463:0.5859791 4464:1.1589947 4465:-1.6339328 4466:-0.99693191 4467:1.1236101 4468:1.2723283 4469:0.91314006 4470:1.0704548 4471:-0.17629245 4472:0.15720885 4473:0.15720885 4474:-1.2520829 4475:-1.1768255 4476:-0.90740937 4477:1.3126767 4478:1.3126767 4479:0.23450863 4480:0.51291406 4481:0.23450863 4482:0.23450863 4483:-0.21181139 4484:-1.2406335 4485:-1.1427578 4486:0.65653139 4487:-0.50382155 4488:-0.50382155 4489:-0.50382155 4490:-0.50382155 4491:-1.5856683 4492:-0.11550351 4493:-0.11550351 4494:0.3087118 4495:0.14990854 4496:0.14990854 4497:0.14990854 4498:0.14990854 4499:-0.57729423 4500:-0.68738943 4501:0.99997705 4502:0.14990854 4503:-0.19026028 4504:0.14990854 4505:0.14990854 4506:4.0170617 4507:-1.1424251 4508:-0.28179255 4509:-1.0027657 4510:-0.28179255 4511:0.7606293 4512:0.7606293 4513:-1.0087444 4514:0.7606293 4515:0.7606293 4516:-0.77524346 4517:0.64709842 4518:0.4381651 4519:0.012076685 4520:0.012076685 4521:0.012076685 4522:0.1834403 4523:0.1834403 4525:-0.88163263 4526:0.16320516 4527:-0.28459898 4528:0.50683272 4529:-0.098813608 4530:2.5883904 4531:-0.28335437 4532:-1.0189027 4533:-0.22173598 4534:-1.7392244 4535:-0.011381889 4536:-0.22173598 4537:0.32641405 4538:0.58535641 4539:-1.1957227 4540:-2.5804176 4541:-1.0885922 4542:-1.1822915 4543:1.7483772 4544:1.0593865 4545:0.27459791 4546:-0.47307938 4547:1.1666274 4548:1.0281895 4549:-1.1272835 4550:-0.31832978 4551:0.072439037 4552:0.072439037 4553:0.39241359 4554:-0.29665673 4555:0.17035572 4556:-0.80211216 4557:-0.80211216 4558:-0.80211216 4559:-0.54001319 4560:-0.31951791 4561:-1.8772449 4562:-0.28492299 4563:-1.90531 4564:-0.3694849 4565:0.4042792 4566:-0.013236851 4567:0.045240249 4568:-0.28492299 4569:0.22404143 4570:-0.82505405 4571:-2.1310482 4572:-1.8985897 4573:1.4178987 4574:-0.69268501 4576:0.87039852 4577:-1.1943846 4579:-1.143522 4580:2.8554697 4581:-0.24699102 4582:0.3866407 4583:0.3866407 4584:-0.04181575 4585:-0.36990172 4586:-0.42724067 4587:-0.48955554 4588:2.8818781 4589:-1.3922783 4590:0.3866407 4591:0.3866407 4592:0.3866407 4593:0.3866407 4594:0.14337264 4595:-0.52593994 4596:-0.0167067 4597:0.61191875 4598:0.32645184 4599:2.2820165 4600:0.052863706 4601:1.5046992 4602:1.523833 4603:0.3643904 4604:0.026265355 4605:0.32645184 4606:0.32645184 4607:0.28862846 4608:-0.6218189 4609:0.32645184 4610:0.32645184 4611:0.41933623 4612:-0.13869922 4613:-1.3327299 4614:-0.13869922 4615:-0.13869922 4616:-0.13869922 4617:-1.0552378 4618:-0.13869922 4619:0.82425487 4620:0.60499638 4621:0.18998815 4622:0.31094345 4623:0.18998815 4624:-2.622843 4625:0.18998815 4626:-0.25558698 4627:-0.41373974 4628:-0.50087517 4629:-0.50087517 4630:-0.50087517 4631:0.13929594 4632:-0.36043337 4633:-0.011905761 4634:0.31855154 4635:-0.24026024 4636:1.3171458 4637:0.53941649 4638:1.3171458 4639:-0.0043201251 4640:-0.33601004 4641:0.35657319 4642:-0.33601004 4643:0.35657319 4644:0.51489425 4645:0.22417618 4646:-0.36591703 4647:-1.0000041 4648:-0.099465527 4649:-0.12100139 4652:-0.091690466 4653:0.27475649 4654:-1.8127602 4655:0.42421532 4656:0.13761546 4657:-2.3726873 4658:2.1657619 4659:-1.7425339 4660:1.7701044 4661:2.6143568 4662:-1.0394317 4663:0.68192035 4664:1.16778 4665:0.1834403 4666:0.20212314 4667:-0.631194 4668:0.69637293 4669:0.42114553 4670:0.42114553 4671:0.42114553 4672:0.42114553 4673:-0.04959628 4674:-0.334604 4675:-1.7320089 4676:0.44934818 4677:0.44934818 4678:-0.25274175 4679:-0.22650774 4680:-0.42858809 4681:-0.50591946 4682:-1.2305939 4683:0.61998922 4684:-0.79713625 4685:1.0638607 4686:-0.2074603 4687:-0.42445669 4688:-0.21565266 4689:-0.30996531 4690:0.90775263 4691:0.44038734 4692:0.44038734 4693:-0.82558483 4694:-0.81394899 4695:-2.3572648 4696:1.8002434 4697:-0.068850353 4698:-0.81499326 4699:0.12972304 4700:-0.068850353 4701:0.47438359 4702:1.0571847 4703:-0.068850353 4704:-0.13770071 4705:-1.1697319 4706:-0.60424316 4707:-0.52064162 4708:0.24035309 4709:0.24000241 4710:1.2657256 4711:1.0596069 4712:-0.46494928 4713:-0.46494928 4714:1.6482162 4715:0.17060709 4716:-1.8585775 4717:-1.9105394 4718:0.80186981 4719:0.80186981 4720:0.84757191 4721:0.80186981 4722:-0.63779122 4723:0.36079821 4724:-0.11075197 4725:-0.11075197 4726:-0.11075197 4727:0.89865601 4728:-0.11075197 4729:0.30511814 4730:-0.11075197 4731:-0.96473634 4732:0.2677514 4735:-0.559066 4736:0.2677514 4739:4.2583485 4740:-1.9370009 4741:3.0239949 4742:1.407831 4743:-2.5527065 4744:-2.7525814 4745:0.27696723 4746:-1.0650729 4747:0.47861874 4748:-1.0650729 4749:-0.42832187 4750:1.8381648 4751:0.57811737 4752:-0.42832187 4753:-0.42832187 4754:1.0177717 4758:-0.86213833 4759:0.07374008 4760:-0.27108064 4761:-0.7487449 4762:-0.7487449 4763:0.21420918 4764:-1.0638908 4765:1.1596643 4766:-0.68994409 4767:-0.66573709 4768:-0.66573709 4769:-1.9872421 4770:1.2279491 4771:1.2279491 4772:-0.82023728 4773:-0.52901667 4774:-1.2041723 4775:-1.4117669 4776:-0.10619067 4777:-0.10619067 4778:-0.10619067 4779:-0.10619067 4780:0.97587878 4781:1.0101023 4782:-0.60367626 4783:1.6100729 4784:-0.10619067 4785:-0.10619067 4786:1.2627108 4787:0.092382722 4788:1.2627108 4789:-0.47590736 4790:0.6553821 4791:0.64895809 4792:-0.060586162 4794:-0.23869838 4795:0.71972501 4796:-0.16256361 4797:-1.1312523 4798:0.30106819 4799:2.0690439 4800:0.96094799 4801:-1.0908883 4802:-2.3331928 4803:0.45141438 4804:0.45141438 4805:0.45141438 4806:0.45141438 4807:-0.64129859 4808:0.29990256 4809:0.88137507 4810:0.29990256 4811:0.29990256 4812:-0.93402362 4813:-2.0312636 4814:0.732768 4815:0.71119142 4816:0.732768 4817:-1.8524132 4818:0.39606154 4819:-0.29018727 4820:-0.74488497 4821:-1.4439175 4822:-0.96718109 4823:-1.5074797 4824:-1.5074797 4825:0.84387809 4826:0.84387809 4827:0.84387809 4828:0.55202353 4829:0.10304207 4830:0.10304207 4831:0.10304207 4832:-0.1798725 4833:0.10304207 4834:1.3122298 4835:0.10304207 4836:2.2163067 4837:-0.95039123 4838:0.10304207 4839:0.10304207 4840:-0.41789651 4841:0.10304207 4842:-0.60704362 4843:-0.18327424 4844:0.3435263 4845:0.3435263 4846:0.3435263 4847:0.3435263 4848:0.3435263 4849:-0.31478941 4850:0.20265406 4851:0.3435263 4852:-0.051995747 4853:1.4093863 4854:1.4380009 4855:0.51706296 4856:3.7249508 4857:1.3366781 4858:0.75270557 4859:0.27829084 4860:-2.7103636 4861:0.27829084 4862:-1.3680322 4863:0.27829084 4864:0.54936516 4865:0.27829084 4866:-1.4267112 4867:-1.4267112 4868:-1.4267112 4869:-1.4267112 4870:-0.32368213 4871:1.7692015 4872:0.67623055 4873:-0.16614777 4874:0.18123224 4875:-1.8392783 4876:-0.32368213 4877:0.11943032 4878:-0.10866945 4879:-0.10866945 4880:-0.10866945 4881:0.52653503 4882:3.033958 4883:0.224555 4884:0.224555 4885:0.224555 4886:-0.67462468 4887:0.224555 4888:0.224555 4889:-0.33035153 4890:-0.43759665 4891:-0.43759665 4892:1.3447195 4893:-0.36971667 4894:-0.36971667 4895:0.85957831 4896:0.59608585 4897:0.59608585 4898:1.1652105 4899:-0.13078031 4900:0.22333178 4901:1.1847925 4902:0.52946538 4903:1.9855999 4904:-0.31373185 4905:0.11262451 4906:2.199075 4907:1.1115513 4908:1.8232915 4909:1.8894507 4910:0.34195659 4911:0.80540138 4912:1.3708884 4913:-0.82171756 4914:1.2936076 4915:0.80540138 4916:-0.88816202 4917:0.16591389 4918:2.6486447 4919:-0.99132884 4920:-1.5003844 4921:-1.5003844 4922:-0.55863208 4923:-1.5003844 4924:-2.2386148 4925:-1.0638908 4926:0.05350158 4927:0.05350158 4928:0.41371667 4929:0.41371667 4930:0.41371667 4931:1.6234605 4932:0.50660741 4933:0.84052211 4934:-0.064857207 4935:0.50660741 4936:0.50660741 4937:0.50660741 4938:-0.25909722 4939:-0.4535653 4940:0.50660741 4941:1.400327 4942:0.50660741 4943:2.3272014 4944:0.50660741 4945:0.64659047 4946:0.64659047 4947:0.64659047 4948:0.64659047 4949:0.64659047 4950:-0.66510379 4951:0.64659047 4952:1.3309553 4953:-1.1531274 4954:-0.72097313 4959:0.12522684 4960:3.7557409 4961:-1.692266 4963:0.81727052 4964:-2.1979945 4965:0.17521341 4966:0.72411716 4967:1.5572331 4968:0.18518703 4969:0.18518703 4970:0.37037405 4971:3.1787455 4972:0.18518703 4973:1.003656 4974:0.18518703 4975:-1.1919683 4976:0.18518703 4977:-0.24538217 4978:-1.5254213 4979:0.17327939 4980:-1.0139092 4981:-1.253554 4982:-1.0237556 4983:-0.013930748 4984:-0.23240227 4985:-0.64881831 4986:-0.013930748 4987:-1.1518998 4988:-0.013930748 4989:0.72939837 4990:-0.013930748 4991:-0.013930748 4992:-0.013930748 4993:0.3947576 4994:-0.013930748 4995:-0.013930748 4996:2.6271706 4997:1.8013111 4998:1.4953194 4999:2.3872209 5002:-0.19825704 5004:-0.39721933 5005:0.45489952 5006:-0.075408034 5007:-0.98867518 5008:-0.075408034 5009:-0.20397362 5010:-0.075408034 5011:0.1238431 5012:0.8530333 5013:-0.075408034 5014:-0.70025671 5015:-0.69983798 5016:-0.36276022 5017:-0.69983798 5018:0.98762441 5019:1.6451176 5020:1.1971854 5021:1.1971854 5022:0.7436201 5023:-1.0404856 5024:0.052196212 5025:0.17929389 5026:0.17491286 5027:-1.6988966 5028:0.7731595 5029:0.17929389 5030:0.17929389 5031:0.17929389 5032:0.59534246 5033:-1.1299226 5034:-1.1835389 5035:-1.1579092 5036:-1.9786297 5037:0.49287146 5038:-1.3152424 5039:-0.88251966 5040:0.83887208 5041:0.29752171 5042:-0.87511021 5043:1.5687377 5044:0.15151171 5045:-1.2998055 5046:-1.2998055 5047:-1.2998055 5048:-1.2998055 5049:-0.22575156 5050:-0.22575156 5051:-0.22575156 5052:-0.22575156 5053:-0.0023297747 5054:0.26016545 5055:0.26016545 5056:0.26561219 5057:0.91212267 5058:0.43429303 5059:0.43429303 5060:2.2931902 5061:2.2931902 5062:0.4021481 5063:-1.0029982 5064:0.16165669 5065:0.16165669 5066:-2.4221048 5067:-0.8589468 5068:-0.25519174 5069:-1.4567263 5070:-0.95451498 5071:-1.3450131 5072:-0.8589468 5073:-0.8589468 5074:0.22850081 5075:1.3741941 5076:0.22850081 5077:0.22850081 5078:0.22850081 5079:-2.533102 5080:-1.7521799 5081:0.732153 5082:0.932028 5083:0.732153 5084:0.732153 5085:1.3754598 5086:0.732153 5087:0.732153 5088:0.732153 5089:1.642885 5090:1.6170716 5091:-0.49052691 5092:0.17408851 5093:0.17408851 5094:-0.31165355 5095:1.1265069 5096:0.35871732 5097:-0.29798001 5098:1.1265069 5099:1.8325704 5100:1.1265069 5101:1.3245062 5102:1.512419 5103:0.25468674 5104:0.25468674 5105:1.2737473 5106:0.25468674 5107:0.0066129523 5108:0.0066129523 5109:0.0066129523 5110:-0.64666378 5111:0.0066129523 5112:1.0940808 5113:1.2582742 5114:0.34196559 5115:-0.52545649 5116:-0.18787107 5117:-0.33140531 5118:-0.2471628 5119:-0.2471628 5120:0.70603776 5121:-2.3882728 5122:4.610815 5123:0.47395134 5124:0.47395134 5125:0.47395134 5126:0.059951901 5127:-1.4287509 5129:-0.18397912 5130:-0.16588968 5131:-1.5486263 5132:0.38341022 5133:2.802474 5140:-1.4520688 5141:-1.8823744 5142:-2.6482563 5143:-0.40208724 5144:0.69238734 5145:3.0273569 5146:-0.29039517 5147:1.5869335 5148:0.61383837 5149:-0.50203234 5150:-0.11027639 5151:-0.11027639 5152:1.1911771 5153:1.1911771 5154:1.1911771 5155:0.18004639 5156:0.18004639 5160:0.53842008 5163:2.5053332 5167:3.1067502 5168:-0.80674326 5169:-0.67985761 5170:-0.80674326 5171:-0.1428223 5172:0.50202763 5173:-0.88625658 5174:-0.88444054 5175:-0.45766202 5176:0.16734254 5177:-0.43484285 5178:0.28403118 5179:0.090740204 5180:0.25943875 5181:0.090740204 5182:0.090740204 5183:0.090740204 5184:0.090740204 5185:0.090740204 5186:0.26954779 5187:0.26954779 5188:0.26954779 5189:-0.68101686 5190:1.545949 5191:0.26954779 5192:-0.95764297 5193:0.26954779 5194:-0.12225226 5195:0.26954779 5196:1.8607835 5197:0.22611997 5198:-0.4776952 5199:-0.20727362 5200:1.0556123 5201:-0.90941107 5202:-0.060860634 5204:0.6458286 5205:2.0544333 5210:-0.4776338 5211:-0.4776338 5212:-0.17293808 5213:-0.09245801 5214:0.91241664 5215:-0.09245801 5216:-0.09245801 5219:0.036206558 5220:-0.084332556 5221:0.036206558 5222:1.3184345 5223:0.70817018 5224:0.70817018 5225:0.70817018 5226:0.022854973 5227:-0.52110195 5228:0.88510728 5229:0.070804648 5230:0.070804648 5231:-1.5785731 5232:0.070804648 5233:-0.15669122 5234:0.18694204 5235:-0.083526172 5236:-0.017455133 5237:0.30295059 5238:0.10109729 5239:0.82407326 5240:-0.63525897 5241:0.52047449 5242:0.32326522 5243:0.40868834 5244:0.40868834 5245:-0.28645575 5246:0.40868834 5247:0.40868834 5248:0.40868834 5249:0.40868834 5250:0.40868834 5251:0.40868834 5252:-0.78507972 5253:1.0622007 5254:-0.78507972 5255:-0.78507972 5256:4.7825346 5257:0.89620978 5258:2.9107203 5259:-1.2747742 5260:1.7667618 5261:1.7667618 5262:2.9120748 5263:0.6719988 5264:2.8461163 5265:-0.93191469 5266:-0.012549886 5267:-0.012549886 5268:-0.012549886 5269:0.078542002 5270:0.078542002 5271:-0.10004807 5272:0.6240747 5273:0.6240747 5274:0.6240747 5275:-1.137969 5276:-1.1925287 5277:-0.048318971 5278:0.36053544 5279:1.4806634 5280:1.4850465 5281:-0.92511964 5282:-1.0970675 5283:0.73529649 5284:-0.92511964 5285:-0.92511964 5286:-2.0218906 5287:-2.0218906 5288:-0.22336046 5289:0.56245458 5290:0.65111321 5291:0.65111321 5292:0.65111321 5293:-0.1997534 5294:0.65111321 5295:-0.38998374 5296:0.40900734 5297:-1.287848 5298:0.46875682 5299:0.71601188 5300:0.49469304 5301:-2.9253833 5302:0.11373075 5303:0.81927413 5304:-0.3164134 5305:-0.75768989 5306:0.70754308 5307:1.1258198 5308:0.084236488 5309:2.9712415 5315:-0.1375338 5316:1.2384119 5319:-0.59062219 5320:-0.20721196 5321:-0.59062219 5322:-0.59062219 5323:-0.5582552 5324:-0.78937906 5325:-0.25936317 5326:-0.050365794 5327:-1.2761073 5328:-1.2761073 5329:-0.96370661 5330:-0.86844397 5331:-1.2761073 5332:-1.9647405 5333:0.52905494 5334:0.52905494 5335:-0.774575 5336:0.52905494 5337:0.52905494 5338:0.52905494 5339:0.52007538 5340:1.0401508 5341:0.52007538 5342:0.52007538 5343:0.52007538 5344:0.42567253 5345:-0.0076981517 5346:0.52007538 5347:-0.35092217 5348:0.52007538 5349:-0.56013924 5350:0.57409388 5351:0.57409388 5352:0.57409388 5353:0.97104204 5354:0.97104204 5355:-0.83889836 5356:0.63355255 5357:0.75515306 5358:0.75515306 5359:0.75515306 5360:-1.616111 5361:-1.1419294 5362:-0.27777699 5363:0.99991262 5364:0.32121673 5365:2.0200002 5366:1.2815173 5367:0.75813216 5368:-2.8121459 5369:-0.89525515 5370:-1.1234764 5371:-1.6577888 5372:-0.89525515 5373:0.32231563 5374:0.32231563 5376:-0.045755733 5377:-0.48747346 5378:0.96013874 5379:0.34386787 5380:-0.48747346 5381:-0.25924799 5382:0.295178 5383:0.62628245 5384:1.2673377 5385:0.31416136 5386:0.23076038 5387:0.62628245 5388:0.62628245 5389:0.62628245 5390:0.61634541 5391:4.9765005 5392:0.62342507 5393:0.16111723 5394:-1.1120605 5395:-0.062385514 5396:0.75406247 5397:0.75406247 5398:0.64165121 5399:0.75406247 5400:-0.21169065 5401:0.75406247 5402:0.75406247 5403:0.75406247 5404:-1.0746931 5405:0.75406247 5406:-1.1032517 5407:-1.4547226 5408:-1.4483806 5409:-1.4483806 5410:-0.10337233 5411:-0.47830889 5412:-0.049830567 5413:-0.049830567 5414:0.75020158 5415:-0.3809289 5416:-0.67858577 5417:-0.049830567 5418:-0.049830567 5419:0.7097829 5420:-0.049830567 5421:-0.049830567 5422:-0.049830567 5423:1.1642534 5424:1.1642534 5425:-0.9191063 5426:-0.9191063 5427:-0.9191063 5428:-0.35362843 5429:-1.3070401 5430:-0.9191063 5431:-1.4754484 5432:-1.2757 5433:-1.2757 5434:-2.7357559 5435:-0.96793205 5438:0.91394687 5439:-1.6471639 5440:-0.01729605 5441:-0.01729605 5442:-0.01729605 5443:0.18544617 5444:-0.01729605 5445:-0.01729605 5446:-0.01729605 5447:-0.01729605 5448:-0.01729605 5449:-0.21424581 5450:-0.01729605 5451:0.55855829 5452:1.3560292 5453:0.67909795 5456:-1.1760316 5457:-1.0158924 5458:0.65421402 5459:0.65421402 5460:0.65421402 5461:0.39876041 5462:0.53349358 5463:0.65421402 5464:-0.52777356 5465:0.33904958 5466:-0.52777356 5467:-0.52777356 5468:2.3328676 5469:1.7837306 5470:-1.27783 5471:-1.3033305 5472:2.2321415 5473:-0.82689619 5474:0.7445969 5475:0.7445969 5476:1.2219567 5477:0.7445969 5478:0.25506359 5479:1.0897869 5480:0.19201843 5481:0.3504594 5482:0.3504594 5483:0.3504594 5484:0.3504594 5485:0.3504594 5486:0.3504594 5487:0.3504594 5490:1.6969343 5491:1.9982064 5492:1.2603477 5493:-0.39998946 5494:0.87654454 5495:-1.1151229 5496:1.114628 5497:1.1087005 5498:-0.38653001 5499:0.5758543 5500:0.51278883 5501:0.77801317 5502:-1.6860387 5503:0.5758543 5504:-1.4645485 5506:-0.52973425 5507:2.0707216 5509:-0.9693681 5510:-0.3858996 5511:1.0875679 5512:1.0778718 5513:1.0875679 5514:0.49018082 5515:3.28684 5516:0.81602281 5517:-0.68082076 5518:-2.4373405 5519:0.28234679 5520:0.40069011 5521:0.11264274 5522:0.99075049 5525:-2.1286793 5532:-1.1511842 5534:0.024553364 5537:-0.20280156 5538:-0.20280156 5539:0.96744937 5540:0.96744937 5541:0.33544222 5542:0.33544222 5543:0.19580334 5544:0.33544222 5545:0.33544222 5546:0.33544222 5547:0.27838114 5548:1.6910242 5549:2.5119848 5550:1.5056214 5551:1.2320929 5552:0.37117997 5553:-0.070281297 5554:-0.04845101 5555:0.11033039 5556:-0.11183537 5557:-0.11183537 5558:2.1800852 5559:-0.11183537 5560:-0.4217239 5561:-2.0471265 5562:-0.027545307 5564:0.16041137 5565:-0.54862863 5566:-0.71618116 5567:0.33215165 5568:0.12292307 5569:0.12292307 5570:0.12292307 5571:0.12292307 5572:-1.6777115 5573:-1.6777115 5574:-1.6777115 5575:-3.6818645 5576:0.34667698 5577:0.41326466 5578:-1.5227082 5579:0.7434606 5580:-0.14728302 5581:-0.14728302 5582:-1.7765516 5583:-0.14728302 5584:-0.1277521 5585:0.31650066 5586:4.5449157 5587:1.0756818 5588:0.41682711 5590:-1.1279478 5591:0.17252573 5592:-0.15154958 5593:-0.15154958 5594:0.53850049 5595:-0.11023187 5596:-0.11023187 5597:-0.11023187 5598:0.31534892 5599:0.23603654 5600:-0.37184873 5601:0.80198312 5610:-2.2248187 5611:-0.02922128 5612:-1.022346 5613:-0.68307918 5614:-0.81997174 5615:-0.81997174 5616:-1.0266957 5617:0.030759569 5618:-1.0546063 5619:-0.41031206 5620:0.030759569 5621:-0.53233659 5622:0.26055807 5623:1.1107937 5624:2.5263505 5625:1.1817272 5626:0.030144671 5627:0.030144671 5628:-0.47074181 5629:0.93915528 5630:-0.47074181 5631:-1.2920339 5632:0.79807699 5633:-0.47074181 5634:0.56971771 5635:1.533556 5636:-0.079312377 5637:-0.15979244 5638:-0.079312377 5639:0.76783794 5640:0.71322238 5641:0.98694748 5642:0.81093323 5643:0.98694748 5644:0.98694748 5645:0.98694748 5646:0.81849313 5647:2.9175956 5648:0.18421902 5649:2.9175956 5650:2.9175956 5651:-0.10033406 5652:0.56153429 5653:1.0246562 5654:-0.12285395 5655:-0.56570297 5656:0.30944398 5657:-0.23239866 5658:0.23338914 5659:-2.706872 5660:-0.23239866 5661:-0.23239866 5662:-0.81214911 5663:-0.23239866 5664:-0.039433844 5665:0.79732984 5666:0.79732984 5667:0.79732984 5668:0.79732984 5669:0.79732984 5670:0.79732984 5671:0.060703207 5672:0.060703207 5673:0.060703207 5674:0.060703207 5675:0.42808306 5677:-0.4569073 5678:-0.69832546 5679:-0.69832546 5680:-0.69832546 5681:0.040264525 5682:0.040264525 5683:-0.49748558 5684:0.085692868 5685:-0.49748558 5686:0.16740458 5687:-0.49748558 5688:-0.49748558 5689:-0.80646676 5690:-0.80646676 5691:-0.80646676 5692:1.5971352 5693:-1.5614359 5694:1.3206342 5695:1.6022271 5696:0.40205929 5697:0.040127229 5698:-1.0005176 5699:0.040127229 5700:0.040127229 5701:0.040127229 5702:1.5420209 5703:0.80266201 5704:0.50450814 5706:-0.58891428 5708:-0.39720803 5709:-0.024621209 5710:-0.5586344 5711:-0.39858827 5712:0.44867271 5713:0.44867271 5714:-0.63171065 5715:-0.63171065 5716:-0.63171065 5717:-0.080480069 5718:-0.64228517 5719:-0.59722036 5720:0.5244137 5721:2.364665 5722:0.56547791 5723:0.56547791 5724:0.28846976 5725:0.56547791 5726:0.56547791 5727:0.56547791 5728:1.4702282 5729:0.46696079 5730:0.56547791 5731:0.55074227 5732:0.55074227 5733:0.76408982 5734:0.55074227 5735:-2.0160973 5736:-0.018852178 5737:1.0061516 5738:-0.018852178 5739:-0.018852178 5740:-0.64436114 5741:1.2055531 5742:0.6743595 5743:1.2055531 5744:0.88358378 5745:1.2055531 5746:1.2055531 5747:2.5451312 5748:1.7892178 5749:0.7407794 5750:1.2055531 5751:1.2055531 5752:1.2055531 5753:0.24609302 5754:1.1566267 5755:-0.68023783 5756:0.42477962 5757:0.24609302 5758:0.24609302 5759:0.24609302 5760:0.24609302 5761:0.43442568 5762:0.42336163 5763:0.58280605 5764:0.44594154 5765:0.882752 5766:1.3376065 5767:-0.80284554 5768:0.882752 5769:1.167013 5770:1.8327926 5771:0.83779788 5772:-0.11823611 5773:-1.1525208 5774:-1.1525208 5775:-1.1525208 5776:-0.8730644 5777:-1.1525208 5778:1.7639166 5784:-1.2134647 5785:-0.49534065 5786:0.27528518 5787:-0.089303516 5788:-0.089303516 5789:0.35907814 5790:-0.035787847 5791:-0.089303516 5792:1.2265013 5793:1.1535485 5794:-0.45249543 5795:-1.7263511 5796:-0.11818609 5797:-0.043858834 5798:0.26075479 5799:-1.303365 5800:-0.043858834 5801:0.03374787 5802:-0.043858834 5803:-0.043858834 5804:-0.043858834 5805:-0.58345366 5806:-0.39203846 5807:-0.060545817 5808:-0.060545817 5809:0.15212651 5810:0.15212651 5811:-0.47338241 5812:0.24080624 5813:0.15212651 5814:0.17667986 5815:-0.38953751 5816:-0.85432297 5817:-0.26797509 5818:0.98222619 5819:0.98222619 5820:0.28992555 5821:0.027856346 5822:1.0120333 5823:1.1422703 5824:1.1422703 5825:1.0800341 5829:-1.6194534 5831:0.85671675 5832:0.85671675 5833:1.6483234 5834:-0.021499157 5835:0.95615101 5836:-1.4126431 5837:-1.4126431 5838:-1.4126431 5839:-2.3932478 5840:0.75432181 5841:0.37605 5842:-0.014718811 5843:-0.0035185993 5844:0.37605 5845:0.37605 5846:0.37605 5847:-0.45867327 5848:0.37605 5849:0.37605 5850:0.37605 5851:1.7325333 5852:1.9477576 5853:0.82500523 5854:1.0115384 5855:1.0115384 5856:1.7666967 5857:1.0115384 5858:0.65783834 5860:-1.563771 5861:-1.7589394 5862:-1.7589394 5863:-1.0726014 5864:-0.18460539 5865:-1.7952583 5866:-0.064066276 5867:0.1554715 5868:0.1554715 5869:0.1554715 5870:-0.17629118 5871:0.1554715 5872:2.1140032 5873:2.1140032 5874:2.1140032 5876:1.1353219 5877:-3.8740823 5878:-1.5598979 5879:-1.5598979 5880:-2.4022579 5881:-0.0099370489 5882:-0.84870708 5883:-0.41650385 5884:-0.25484145 5885:-2.7979455 5886:-1.475598 5887:1.1832693 5889:-0.16704674 5890:0.50773758 5891:0.28182155 5892:-0.68798536 5893:-0.060468011 5894:-0.11042167 5895:-0.23286803 5897:0.005019363 5898:-1.6760687 5899:-1.4743496 5900:1.251452 5901:1.251452 5902:1.251452 5903:1.251452 5904:-0.41429687 5905:1.251452 5907:-0.70544475 5908:-1.5474941 5909:0.43169069 5910:1.215463 5911:0.74101341 5912:0.18622063 5913:-0.20820694 5914:-0.72834069 5915:-1.1820301 5916:-0.028146828 5917:1.5062331 5918:0.85057098 5919:0.85057098 5920:2.2290001 5921:-1.6885829 5922:-1.6404262 5923:-1.6404262 5924:-1.6404262 5925:-1.6346447 5926:-0.62324089 5927:-0.62324089 5928:1.0993408 5931:0.79275513 5932:0.59516793 5933:0.59516793 5934:0.59516793 5935:-0.1751108 5936:0.59516793 5937:1.1451527 5938:-0.84259266 5939:-0.28964069 5940:-0.96620888 5941:0.13193777 5942:-0.16256361 5943:-0.16256361 5944:-1.1803117 5945:-1.1803117 5946:-0.86019999 5947:0.044139896 5948:1.3274399 5949:-0.47601372 5950:-1.5228008 5951:0.26012295 5952:0.37495765 5953:-0.47601372 5954:0.21587642 5955:-0.47601372 5957:-3.3442528 5958:0.13547668 5959:0.94749874 5960:0.13547668 5961:0.2080176 5962:0.44551307 5963:-1.0090815 5964:-1.0090815 5965:-0.87971067 5966:2.0981002 5967:0.37556431 5968:0.016376136 5969:0.016376136 5970:-0.39952356 5971:-0.39952356 5972:-0.39952356 5973:-0.39952356 5974:-0.73151135 5975:0.9228853 5976:-0.26456797 5977:-0.1312672 5978:-0.26456797 5979:-0.26456797 5980:-0.26456797 5981:-0.26456797 5982:-1.6679327 5983:-1.6679327 5984:-1.6679327 5985:-1.3153938 5986:-0.15050729 5987:-1.3583519 5988:-0.74052864 5989:-0.91397041 5990:-0.84689486 5991:-0.84689486 5992:-0.84689486 5993:1.9061083 5994:0.91286182 5995:0.42691082 5996:0.019499891 5997:-0.24172203 5998:-0.24172203 5999:-0.24172203 6000:-0.24172203 6001:0.13079152 6002:0.415876 6003:-0.27891999 6004:-0.4881562 6005:0.15320818 6006:0.15320818 6007:-1.3079931 6008:-1.5732701 6009:2.2194715 6010:0.905855 6011:0.30039641 6012:-0.26887336 6013:0.66461891 6014:-0.51747614 6015:0.24860109 6016:0.24860109 6017:1.8162757 6018:0.95954031 6019:0.71798837 6020:1.1211317 6021:1.7038369 6022:1.6206832 6023:1.1346169 6024:1.6206832 6025:0.33873758 6026:0.33873758 6027:-4.0470042 6028:-4.0470042 6029:2.2495131 6030:-0.063037522 6031:1.248333 6032:0.81338602 6033:-0.24474439 6034:-0.94933325 6035:-0.24474439 6036:-0.66569841 6037:0.80831134 6038:0.35946366 6039:0.30298063 6040:0.30298063 6041:0.30298063 6042:1.5370457 6043:0.19987503 6044:2.5063379 6045:1.4262736 6046:0.19987503 6047:-0.37770751 6048:0.25392124 6049:1.7422049 6050:0.033419244 6051:0.033419244 6052:0.033419244 6053:0.63711411 6054:0.033419244 6055:-2.0060737 6056:0.033419244 6057:-0.4675656 6058:0.57222378 6059:0.061487541 6060:-0.78252 6061:-0.21970634 6062:0.25292471 6063:-0.21970634 6064:-0.21970634 6065:0.032708865 6068:-0.31941402 6069:-0.3552801 6070:-0.40314326 6071:-0.40314326 6072:0.010543231 6073:0.010543231 6074:0.010543231 6075:0.021086462 6076:-0.10975848 6077:0.010543231 6078:0.010543231 6079:-1.3377715 6080:-1.5364418 6081:0.69343203 6082:0.4714109 6083:0.4714109 6084:-1.0424721 6085:-0.073269971 6086:-0.073269971 6087:1.3121859 6088:-1.0834744 6089:-1.0707834 6090:-1.3330592 6091:-1.3330592 6092:-0.85522962 6093:-1.3521866 6094:-1.3330592 6095:-1.3330592 6097:-0.30849621 6101:0.18914346 6102:0.89779979 6103:2.1286104 6104:1.1317701 6105:0.89779979 6106:-0.55621129 6107:-0.55621129 6108:0.20637292 6109:0.68230975 6110:0.75452292 6111:0.82149237 6112:1.2210478 6113:-1.3949411 6114:0.20637292 6115:0.20637292 6116:3.19168 6117:1.2259299 6118:0.20637292 6119:-1.4926847 6120:-1.4926847 6122:-0.24207032 6123:0.39889261 6125:-3.2623491 6126:0.03748345 6127:0.03748345 6128:0.03748345 6129:-0.13109814 6130:-0.9597559 6131:-0.9597559 6132:-0.9597559 6133:-1.3123405 6134:0.17820427 6135:-0.33411348 6137:-1.6025265 6139:-0.11342909 6140:0.78554273 6141:-2.267992 6147:0.037980307 6150:-0.37504917 6151:-0.71148527 6152:-1.300295 6153:0.42046466 6154:-0.37504917 6155:-0.6215468 6156:-0.174863 6157:0.66430676 6158:0.8743239 6159:1.0161743 6160:1.0161743 6161:1.0161743 6162:1.0161743 6163:0.74312627 6164:0.74312627 6165:0.74312627 6166:0.73854554 6167:0.74312627 6169:-0.093229912 6170:-1.0847299 6171:-1.0847299 6172:2.5539947 6173:2.5539947 6174:-1.0614491 6175:-2.1720824 6176:-0.55861712 6177:-0.70519572 6178:0.015534109 6179:0.18235864 6180:-0.99442095 6181:-1.0474838 6182:-0.26939356 6183:-1.5434965 6184:-1.7712802 6185:-1.5434965 6186:-0.2066014 6189:-0.61871099 6190:1.714276 6194:-0.31179383 6197:0.2844694 6198:-0.65568429 6199:0.2844694 6200:0.2844694 6201:1.3419739 6202:1.3419739 6203:0.51193339 6204:1.2944933 6205:-0.35332632 6206:1.6516515 6207:1.0397547 6208:0.55642664 6209:0.17798452 6210:-0.36158285 6211:0.28067893 6212:1.088118 6213:1.088118 6214:1.088118 6215:1.3155351 6216:1.4750109 6217:1.2143242 6218:-1.1702312 6219:0.41828462 6220:0.29575756 6221:-1.1591606 6222:-1.6554339 6223:0.32231563 6224:-1.1389397 6225:-0.8212921 6226:0.8707931 6227:-0.8212921 6228:0.40313625 6229:-2.1712141 6230:0.50198108 6231:0.50198108 6232:0.50198108 6233:1.2875237 6234:0.32099083 6235:0.50198108 6236:0.81846905 6237:0.10628504 6238:-0.50712985 6239:-1.9270045 6240:-0.16153102 6241:-0.16153102 6242:-0.16153102 6243:-0.16153102 6244:-1.1155956 6245:-0.57925868 6246:0.10864017 6247:-0.57925868 6248:-0.57925868 6249:0.45674819 6250:-0.42333177 6251:-1.1747241 6252:-1.6494483 6255:2.4352174 6260:-0.025455814 6261:0.6529637 6262:0.80670375 6263:0.80670375 6264:-0.083530478 6265:-0.41403535 6266:-0.97027481 6267:-0.41403535 6268:0.12422668 6269:-0.41403535 6270:-0.41403535 6271:0.1798591 6272:2.096216 6273:1.7953018 6274:0.99575543 6275:1.2549055 6276:0.25403965 6277:0.22333178 6278:-0.14336386 6279:-1.2342486 6280:0.22333178 6281:0.021542227 6282:0.17925999 6283:0.67220008 6284:0.91352201 6285:0.12233058 6286:-0.91176772 6287:-0.7952916 6288:-0.31701258 6289:-0.29652417 6290:-0.29652417 6291:-0.29652417 6292:-0.29652417 6293:-0.29652417 6294:-0.29652417 6295:-0.29652417 6296:-0.29652417 6298:0.012481163 6299:0.012481163 6300:0.012481163 6301:0.012481163 6303:-0.54376394 6304:-0.61796153 6305:-2.3827286 6306:0.4322032 6307:0.4322032 6308:-0.73743582 6309:0.4322032 6310:0.4322032 6311:0.4322032 6312:-0.07808736 6313:1.1973813 6317:0.28221616 6318:0.55744356 6319:0.62824541 6320:0.39685446 6321:0.28221616 6322:0.28221616 6323:0.16278361 6324:1.9907534 6325:1.5504224 6326:1.4006945 6327:-0.83809853 6328:0.95488483 6329:2.3817327 6330:-2.6548259 6331:0.041133139 6332:-2.4823442 6333:-0.98935843 6334:0.64441252 6335:0.68634087 6336:0.31593996 6337:0.30418596 6338:0.24986191 6339:-0.67491043 6340:-1.1159821 6341:-0.67491043 6342:0.42048821 6343:-0.67491043 6344:-0.67491043 6345:-0.67491043 6346:1.4147437 6347:-0.64529669 6348:-0.25916219 6349:2.4696302 6350:-3.3316166 6351:0.8632201 6352:-0.71730518 6353:0.58265811 6354:3.8979867 6355:0.57752234 6356:0.57752234 6357:0.57752234 6358:-1.4483625 6359:0.57752234 6360:-0.15658912 6361:-0.52218318 6362:0.57752234 6364:0.81794751 6365:0.57893538 6366:-2.257484 6367:-1.1203889 6368:-1.1203889 6369:-1.1203889 6370:0.29079032 6371:0.18026833 6372:0.63055569 6373:0.63055569 6374:-0.63061965 6375:0.078510925 6376:0.60255116 6377:-1.3771554 6378:-0.10897963 6379:-0.10897963 6380:-0.10897963 6381:-1.2086852 6382:-0.10897963 6383:-0.10897963 6384:-0.10897963 6385:-0.10897963 6386:0.45846727 6387:0.53639883 6388:-0.29410973 6389:-0.59809333 6390:0.481895 6391:0.481895 6392:0.049735606 6393:-1.5460746 6394:-0.14273448 6395:0.070244171 6396:0.070244171 6397:0.070244171 6398:-0.14273448 6399:0.052826528 6400:0.052826528 6401:-0.38824511 6402:-0.021371061 6403:0.052826528 6404:0.052826528 6405:0.052826528 6406:0.10565306 6407:-0.43383932 6408:0.62501472 6409:0.15473956 6410:1.3322707 6411:1.3322707 6412:-1.6904713 6413:0.40463221 6414:0.69180143 6415:-0.046740774 6416:0.49799842 6417:-1.0495949 6418:0.77904665 6419:-0.78214926 6420:-0.75416279 6421:-0.75416279 6422:-0.75416279 6423:-0.75416279 6424:0.6415543 6425:-0.90690064 6426:-0.59915257 6427:-1.7213575 6428:1.4481425 6429:-1.3200103 6430:0.63383991 6431:0.65759802 6432:0.65759802 6433:2.4251924 6434:2.0978377 6435:2.4251924 6436:-0.45682698 6437:-0.39213255 6438:0.29317525 6439:-0.20145378 6440:0.73655689 6441:-1.423802 6442:1.0623263 6443:1.2723014 6444:-0.027432451 6445:-0.027432451 6446:-0.027432451 6447:0.098134257 6448:-1.0893693 6449:-0.44265822 6450:0.52892458 6451:0.96205574 6452:0.52892458 6453:1.2187787 6454:2.7542067 6455:1.0982397 6456:1.2187787 6457:-0.46477365 6458:-0.30204713 6459:-0.89534289 6460:-3.0333016 6461:-0.91625255 6462:-0.36669564 6463:-0.36669564 6464:-0.36669564 6465:-0.13734946 6466:-0.4376775 6467:0.065559216 6468:-0.43386441 6469:-0.36669564 6470:0.42310956 6471:0.59916306 6472:0.59916306 6473:-1.5579911 6474:-0.13839813 6475:-0.36126617 6476:0.1942203 6477:-0.48399746 6479:0.69923228 6481:0.020439588 6482:-0.28634942 6483:-0.28634942 6484:-1.1423097 6485:-1.1423097 6486:-1.1423097 6487:-1.562632 6488:0.51792848 6490:1.3324569 6491:-0.050230052 6492:0.080004007 6493:0.080004007 6494:0.080004007 6495:0.080004007 6496:0.87961495 6497:-0.090701297 6498:-1.1140419 6499:-0.18879607 6500:0.5325684 6501:-0.28784257 6502:-0.18879607 6503:0.21551591 6504:-0.18879607 6505:1.4643351 6506:1.4643351 6507:1.4643351 6508:-1.3547437 6509:-0.69906855 6510:-0.36756572 6511:-0.36756572 6512:1.1390743 6513:-0.15821527 6514:1.7617451 6515:-0.061108015 6517:-2.2638476 6521:-0.38653001 6524:0.23740269 6525:3.3438079 6526:-0.48211619 6527:1.689481 6528:1.5340279 6529:-1.3292062 6530:-0.46524689 6531:-2.0991025 6532:-2.7002618 6533:-0.13117956 6534:-0.48585972 6535:-0.48585972 6536:-0.48585972 6537:-0.74131334 6538:-0.48585972 6539:0.39550096 6540:0.39550096 6541:0.39550096 6544:0.15663996 6546:0.094531439 6547:0.094531439 6548:0.81335676 6549:0.094531439 6550:0.094531439 6551:0.094531439 6552:0.094531439 6553:0.094531439 6557:0.9234007 6559:1.3548795 6561:0.84475231 6562:0.95133108 6563:0.84475231 6564:0.84475231 