SVM-light Version V6.20
0 # kernel type
3 # kernel parameter -d 
1 # kernel parameter -g 
1 # kernel parameter -s 
1 # kernel parameter -r 
empty# kernel parameter -u 
11718 # highest feature index 
101 # number of training documents 
2 # number of support vectors plus 1 
0 # threshold b, each following line is a SV (starting with alpha*y)
1 1:-0.035767555 2:-0.15973955 3:0.0038841013 4:0.069946617 5:0.036162633 6:0.12842765 7:-0.16078457 8:-0.063761361 9:-0.05128463 10:-0.10359565 11:-0.075919777 12:0.0094752312 13:0.25752676 14:0.011876658 15:-0.01446431 16:-0.011147474 17:2.6089099e-05 18:0.12701981 19:-0.028685793 20:0.14889748 21:-0.028685793 22:0.13933222 23:0.039987974 24:0.057146452 25:-0.069289498 26:-0.035124693 27:-0.14501238 28:0.010509322 29:-0.19449334 30:-0.0052885055 31:-0.069289498 32:-0.069289498 33:-0.013336924 34:0.0045149471 35:0.31175914 36:0.31461424 37:-0.056312237 38:-0.10088401 39:-0.13919143 40:0.021388112 41:-0.042974114 42:-0.21642032 43:-0.19247641 44:-0.09468203 45:-0.22922841 46:0.15770589 47:0.0050670663 48:-0.14725338 49:0.10155103 50:-0.1607796 51:0.096580245 52:-0.091414519 53:-0.1129052 54:-0.1607796 55:0.5068953 56:-0.12241726 57:0.20588903 58:-0.055084884 59:0.0059111058 60:-0.063159302 61:-0.11710183 62:0.064029239 63:-0.18617016 64:-0.17166629 65:-0.160098 66:-0.023140864 67:-0.54942554 68:0.34042755 69:0.01796966 70:0.34881985 71:-0.12313904 72:0.17846368 73:0.18174839 74:0.10859731 75:-0.088034488 76:0.15751356 77:0.16645783 78:-0.079666965 79:-0.0026127163 80:-0.067689806 81:0.17546155 82:0.21741898 86:0.092168503 87:-0.050617177 88:0.097337551 89:0.19175704 90:0.13467544 91:0.11064986 92:0.13293709 93:-0.09801504 94:-0.027403148 95:0.18961884 96:0.012899088 97:-0.12875143 98:-0.00088628603 99:-0.059621703 100:-0.068298869 101:0.13014098 102:0.12986626 103:-0.42042378 104:0.32221565 105:-0.10525569 106:-0.036209017 107:0.26744813 108:0.1256126 109:0.37259185 110:0.066940866 111:0.03147598 112:0.090582117 113:0.046885889 115:0.036341242 118:0.011089217 119:0.13076711 120:0.30318522 121:0.2263031 122:0.12800103 123:-0.09009511 124:0.15140054 125:-0.29272631 126:0.069966033 127:-0.10662336 128:0.30995744 129:0.021175055 130:0.091561414 131:0.17454585 132:0.023772513 133:0.15094952 134:-0.090497397 135:0.066227496 136:0.011937192 137:0.033074606 138:0.39796454 139:0.21728605 140:0.095580623 141:0.056231443 142:0.060656037 143:-0.10208073 144:-0.018787032 145:0.066227496 146:0.066227496 147:0.071121164 148:0.12723555 149:0.062403712 150:0.0013574627 151:0.036417723 152:-0.1034113 153:-0.015688905 155:-0.25131696 156:-0.011203696 157:-0.10427009 158:0.094867021 159:0.16679017 160:-0.20443879 161:-0.088247262 162:0.32656562 163:-0.12327274 164:-0.13448122 165:-0.07028731 166:0.16348973 167:-0.043010559 168:-0.015457833 169:0.29115555 170:-0.046412427 171:0.16144529 172:0.032466568 173:0.032466568 174:-0.084326312 175:0.10225923 176:0.032466568 177:0.026222985 178:0.032466568 179:-0.062483151 180:-0.043280218 181:-0.10392095 182:0.032466568 183:-0.39585686 184:-0.20267852 185:-0.067862146 186:-0.020650765 187:-0.06239238 188:0.22356531 189:0.1193509 190:0.11417603 191:-0.090032116 192:-0.090032116 193:-0.047187429 194:0.050547607 195:-0.0036249773 196:-0.11346114 197:0.11184391 198:-0.24938223 199:0.084882796 200:0.38497651 201:-0.36023876 202:0.26931494 203:0.37795591 204:-0.25814676 205:0.17333297 206:0.033915259 207:-0.10592451 208:0.05984994 209:0.014735356 210:-0.063477084 211:0.15878211 212:-0.031091511 213:0.40490633 214:-0.078633897 215:-0.0041911006 216:0.13035841 217:0.38415483 218:-0.067798562 219:0.15252317 220:-0.096208207 221:-0.1631677 222:-0.036309637 223:0.0047764489 224:-0.038292132 225:-0.067798562 226:0.34178323 227:-0.075066246 228:-0.032047931 229:-0.034547705 230:-0.034348417 231:-0.067798562 232:-0.29279563 233:0.12194101 234:-0.72236139 235:0.085943334 236:0.056510527 237:-0.044937704 238:0.043652013 239:-0.31464601 240:-0.071616806 241:0.028882274 242:-0.19662642 243:0.079400547 244:-0.04367663 245:-0.084371217 246:-0.058806002 247:0.03575306 248:-0.04367663 249:0.0011843953 250:0.060271706 251:-0.04367663 252:-0.04367663 253:0.28694174 254:0.25689074 255:0.086128473 256:-0.42324972 257:-0.077631339 258:0.076559849 259:-0.019198112 260:-0.70069885 261:-0.2076513 262:0.020251859 263:0.021418881 264:-0.066160895 265:-0.35229439 266:-0.15653864 267:0.15677811 268:0.11080041 269:-0.047913555 270:-0.12253698 271:0.0042039538 272:-0.033465594 273:0.018699665 274:0.022837458 275:-0.0050644209 276:-0.10749777 277:0.012868415 278:0.020126402 279:0.10714185 280:0.13576488 281:-0.11450201 282:0.042457625 283:-0.13072206 284:-0.047913555 285:-0.047913555 286:-0.080157183 287:-0.047913555 288:-0.047913555 289:-0.20732486 290:0.42199248 291:0.16252246 292:0.19679061 293:-0.0209121 294:-0.0072759497 295:-0.031332865 296:-0.031172303 297:0.10330644 298:0.10439941 299:-0.11166343 300:0.029333903 301:-0.02092392 302:-0.066404164 303:0.055446807 304:0.059613362 305:-0.061657209 306:-0.20739065 307:0.086557768 308:0.060539898 309:0.10822087 310:-0.12656796 311:-0.11020955 312:0.0081452457 313:0.15950359 314:0.12645629 315:0.26112413 316:0.07944122 317:0.014349454 318:0.06388586 319:-0.057310794 320:-0.16629151 321:-0.020362897 322:-0.026477173 323:-0.17204624 324:0.22826445 325:-0.01209237 326:-0.0069924351 327:0.52781314 328:-0.10874242 329:-0.01209237 330:0.061241373 331:-0.01209237 332:-0.10874242 333:-0.090678193 334:0.072752692 335:-0.052238584 336:0.12801135 337:-0.064587317 338:-0.13496184 339:-0.18055147 340:-0.029300511 341:-0.12266114 342:0.019763947 343:0.063032098 344:0.20417717 345:-0.08378917 346:0.019763947 347:0.019763947 348:-0.046210121 349:-0.094271012 350:0.078063034 351:-0.13551627 352:-0.046210121 353:0.12461342 354:-0.046210121 355:-0.039416868 356:-0.097194396 357:0.12401491 358:0.01060881 359:0.17571463 360:0.034198441 361:-0.061972309 362:-0.13806182 363:-0.15817219 364:0.27141941 365:0.15124279 366:-0.14880681 367:-0.14264762 368:0.021702144 369:0.066382125 370:-0.018026717 371:0.15212828 372:-0.14179513 373:-0.056592211 374:-0.015447193 375:-0.18024176 376:0.081445582 377:0.094184667 378:-0.069773033 379:0.071878046 380:0.17212126 381:0.011979914 383:0.10238981 385:0.021263048 386:0.085164487 387:-0.11258029 388:-0.013919117 389:-0.077059895 390:-0.013919117 391:-0.013919117 392:0.16608752 393:-0.15994675 394:-0.013919117 395:-0.021389568 396:0.045279831 397:-0.026190123 398:0.085739158 399:-0.058890276 400:-0.048406526 401:-0.035751972 402:-0.13064872 403:-0.026190123 404:-0.054536939 405:0.081594534 406:-0.025465205 407:-0.084437504 408:0.080941387 409:-0.042297654 410:-0.066539899 411:-0.010178979 412:0.07148961 413:-0.026190123 414:-0.023986723 415:-0.047126725 416:0.14271379 417:-0.10819951 418:-0.022506384 419:-0.022119477 420:0.062951341 421:-0.059546236 422:-0.20320387 423:-0.086762369 424:0.013012941 425:-0.096009605 426:-0.08745493 427:0.066709332 428:0.15598433 429:0.24092099 430:-0.19228823 431:-0.034694534 432:0.021670744 433:-0.022506384 434:0.24420568 435:-0.058718313 436:-0.022506384 437:-0.043664411 438:-0.13447119 439:0.047549501 440:-0.054443333 441:0.029441681 442:-0.21401998 443:-0.12675564 444:-0.12431946 445:-0.061893933 446:0.10659222 447:-0.078276008 448:-0.31605425 449:0.019853277 450:-0.0056162351 451:-0.15728877 452:-0.089643151 453:-0.078276008 454:-0.014031728 455:-0.068908304 456:0.093327999 457:-0.064049363 458:-0.095089599 459:0.15226106 460:0.21156831 461:0.19127476 462:0.11552882 463:0.051004637 464:-0.13021535 465:0.0052130981 466:0.072848819 467:0.17151651 468:-0.012554279 469:0.13821886 470:0.10170117 471:0.044192094 472:0.10915776 473:0.072848819 474:-0.0064377859 475:0.1219788 476:-0.21585377 477:-0.37082398 478:0.27294379 479:0.10834116 480:0.068243034 481:0.21817276 482:0.37218317 483:0.21888457 484:0.28215167 485:-0.054297242 486:-0.18558262 487:0.37218317 488:0.044213917 489:0.026709855 490:0.22093211 491:-0.039803278 492:0.065219358 493:-0.17888814 494:-0.043152865 495:-0.1278539 496:-0.16055235 497:-0.067657568 498:-0.13537621 499:0.015412846 500:-0.15295298 501:0.012208139 502:0.02261406 503:0.16696124 504:-0.07061974 505:0.070667952 506:0.19557501 507:-0.13537621 508:0.004820379 509:-0.12809475 510:0.16257223 511:0.35762879 512:-0.27323014 513:-0.13036399 514:0.040032975 515:-0.04131804 516:0.24459802 517:0.034423284 518:0.0019799978 519:0.09218622 520:-0.091861509 521:-0.020635519 522:-0.16214739 523:-0.28595468 524:0.10527258 525:-0.16756621 526:-0.066806614 527:0.017827002 528:-0.08876349 529:0.026864816 530:-0.1066388 531:-0.1066388 532:-0.18508621 533:0.10945982 534:0.02133576 535:-0.047038514 536:0.0043186075 537:0.019082958 538:-0.0051574269 539:-0.11753239 540:-0.12057386 541:-0.02766267 542:-0.10974175 544:-0.11113186 545:0.23763542 546:0.24889778 547:0.051651176 548:-0.21294551 549:-0.068086803 550:0.12877479 551:-0.06911654 552:-0.081942476 553:0.075074829 554:-0.030444715 555:-0.3644357 556:0.077480607 557:-0.15477253 558:0.36202383 559:-0.22017261 560:-0.017539717 561:0.021195507 562:-0.18651673 563:-0.087914154 564:0.21948136 565:-0.087758452 566:-0.094076209 567:0.092880681 568:0.066127479 569:-0.097436972 570:-0.055856902 571:0.14079688 572:-0.032904282 573:-0.20420152 574:-0.035470981 575:0.1216898 576:0.023129389 577:-0.0013430468 578:0.25016364 579:0.27646217 580:-0.032904282 581:-0.032904282 582:-0.032904282 583:0.014371235 584:-0.032904282 585:0.11409184 586:-0.035233762 587:-0.032904282 588:-0.040736336 589:-0.00079541636 590:-0.31155375 591:-0.11435202 592:-0.062089328 593:0.096177317 594:-0.047494791 595:0.089970939 596:-0.047494791 597:-0.17555095 598:0.38196182 599:-0.17555095 600:-0.17555095 601:0.11944819 602:-0.014030015 603:-0.10034373 604:-0.072194375 605:-0.04652017 606:0.21000347 607:-0.10709625 608:-0.06229933 609:-0.030348014 610:-0.074768014 611:0.16759127 612:0.07187745 613:-0.17349508 614:0.15828748 615:-0.12820262 616:-0.16640335 617:0.19632943 618:0.06458918 619:0.048644658 620:-0.076637633 621:0.18120681 622:-0.18062007 623:-0.059337452 624:0.12596591 625:0.12692408 626:0.16952416 627:-0.11196133 628:-0.16453665 629:-0.17491105 630:-0.10254211 631:-0.020837178 632:0.028299555 633:0.030405508 634:-0.027740503 635:-0.10232137 636:-0.11196133 637:0.041017927 638:-0.093934119 639:-0.058003232 640:0.16244675 641:0.090254717 642:0.12372595 643:0.13166997 644:0.25601831 645:0.11533473 646:0.13417628 647:-0.24012041 648:0.035697017 649:-0.056617077 650:0.15357369 651:0.054657314 652:0.058168449 653:-0.11549805 654:0.010121887 655:0.080195755 656:0.40002835 657:-0.20672777 658:0.042099006 659:-0.046826031 660:0.042422634 661:0.076003887 662:-0.2003037 663:-0.15725389 664:-0.10614822 665:0.15359996 666:0.056586545 667:-0.12571673 668:0.038245384 669:-0.021883151 670:-0.020203473 671:0.10540987 672:0.0072670118 673:-0.033200759 674:-0.056623433 675:-0.069681287 676:0.25110865 677:0.083217867 678:0.055984862 679:-0.11060405 680:-0.0067605111 681:0.25651446 682:0.0062246807 683:0.11397083 684:0.12686296 685:0.074804187 686:-0.044798352 687:-0.027330324 688:0.049609024 689:-0.14373016 690:-0.12556338 691:-0.13946617 692:0.020161293 693:0.0062246807 694:-0.16591872 695:-0.083977222 696:0.0062246807 702:-0.028217563 703:0.079939038 704:0.097285286 706:0.059745144 707:0.19767284 708:-0.049005389 709:-0.067084879 710:0.19336621 711:-0.80186421 712:0.069127239 713:-0.072022557 714:0.006203765 715:-0.22238143 716:-0.26356983 717:-0.040408596 718:0.054271903 719:-0.06638997 720:-0.040408596 721:0.083949342 722:0.045543913 723:-0.040408596 724:-0.062621303 725:0.0074116443 726:-0.027322559 727:-0.098175749 728:-0.33358389 729:0.14601427 730:-0.35685605 731:0.01319809 732:-0.092981607 733:0.18108995 734:0.054796875 735:0.28223625 736:0.18108995 737:-0.029212611 738:0.064326443 739:0.075541615 740:-0.0094306739 741:0.14591457 742:-0.18753491 743:0.017377695 744:0.089474194 745:0.0053368052 746:0.24259481 747:0.059589364 748:0.14335924 749:0.084746495 750:0.017524753 751:0.21394992 752:0.032685671 753:-0.23754257 754:-0.1330411 755:-0.13877493 756:-0.0046074451 757:0.052590862 758:-0.07766182 759:0.13273452 760:-0.15060998 761:-0.07766182 762:-0.056130268 763:-0.07766182 764:-0.07766182 765:0.1933535 766:-0.07766182 767:-0.073454976 768:0.36529535 769:-0.17673926 770:-0.06204259 771:-0.0062649003 772:0.30116713 773:0.10515875 774:-0.07766182 775:-0.062598057 776:-0.07766182 777:-0.07766182 778:-0.16007349 779:-0.22728851 780:-0.056006245 781:-0.10009939 782:0.12325989 783:0.12182174 784:0.12325989 785:-0.010530753 786:0.14560083 787:-0.18190069 788:0.031283952 789:-0.12991455 790:-0.081812657 791:-0.068520881 792:-0.1814788 793:0.12758826 794:0.030260352 795:-0.16259108 796:0.048839658 797:0.11254312 798:0.17672123 799:-0.040632401 800:0.054700609 801:-0.094769992 802:-0.17304346 803:-0.094769992 804:0.032841854 805:0.046118636 806:0.046118636 807:0.046118636 808:-0.014370648 809:0.046118636 810:-0.018623041 811:0.006419254 812:0.046118636 813:-0.022383653 814:0.1338499 817:-0.22241694 819:-0.094561227 820:-0.036522623 821:0.027657447 822:0.037410911 826:-0.027818203 827:-0.037851717 828:-0.16064036 829:-0.085857786 830:-0.038487405 831:-0.088680506 832:-0.19081974 833:0.39087677 834:-0.098675624 835:0.10620359 836:-0.14568685 837:-0.084227875 838:-0.26836854 839:0.016205631 840:0.22316042 841:0.012039542 842:-0.0049666781 843:-0.061104026 844:-0.022777712 845:-0.067978248 846:0.019324381 847:-0.011391625 848:0.45734462 849:-0.028788833 850:-0.028788833 851:-0.093160935 852:-0.066888139 853:-0.12644142 854:-0.1549264 855:0.045101169 856:0.13911694 857:0.097858839 858:-0.11057305 859:0.12174803 860:0.11355735 861:-0.017810715 862:0.29215446 863:0.10153175 864:-0.069012836 865:-0.075587668 866:0.19417962 867:0.10684767 868:0.068248883 869:-0.21180092 870:-0.209125 871:-0.21180092 872:0.037464529 873:0.066793188 874:-0.13047613 875:0.014779202 876:0.045876011 877:-0.052193251 878:0.066793188 879:0.066793188 880:0.061173897 881:0.066793188 882:0.083886586 883:0.036055926 884:-0.1420382 885:0.19476928 886:0.036055926 887:-0.039599586 888:-0.039599586 889:0.15949264 890:-0.012454237 891:-0.046460498 892:0.21333398 893:-0.045387957 894:-0.065262966 895:-0.21822819 896:-0.046460498 897:-0.11786096 898:-0.02068419 899:-0.123205 900:-0.14410281 901:-0.020008139 902:-0.087196708 903:0.56484115 904:-0.11303879 905:-0.053634468 906:-0.19155614 907:-0.008519453 908:0.087370515 909:-0.057637636 910:-0.17664024 911:-0.15733975 912:0.19428267 915:-0.007370091 916:0.01888134 917:0.15546484 918:0.091577597 919:-0.007370091 920:-0.045880396 921:-0.022940198 922:-0.022940198 923:0.087072052 924:-0.10813219 925:-0.022940198 926:0.031814244 927:-0.025311129 928:-0.022940198 929:-0.022940198 930:-0.011911178 931:0.020713132 932:-0.022940198 933:-0.022940198 934:-0.022940198 935:-0.077704519 936:0.037965942 937:-0.28655636 938:-0.022940198 939:-0.022940198 940:-0.022940198 941:-0.053353667 942:-0.022940198 943:-0.022940198 944:-0.022940198 945:-0.072140269 946:-0.035900343 947:-0.035900343 948:-0.035900343 949:0.18714093 950:0.13983715 951:0.085396647 952:0.094209224 953:0.084088556 954:0.17680947 955:0.039419223 956:0.074053176 957:0.077494808 958:-0.09683352 959:0.095593162 960:0.031631127 961:0.077494808 962:0.057131059 963:0.13279611 964:0.077494808 965:0.12328356 966:0.035125747 967:0.28131878 968:0.28498656 969:-0.087723345 970:-0.087723345 971:0.015887082 972:-0.087723345 973:-0.071253702 974:-0.41643724 975:0.094587117 976:0.034505427 977:0.22297403 978:-0.15100022 979:-0.15100022 980:-0.15100022 981:0.0098686051 982:0.11703958 983:-0.2558859 984:0.26289642 985:-0.015875768 986:-0.15615191 987:-0.0081751095 988:-0.11909079 989:-0.14785008 990:-0.19403197 991:-0.33003369 992:-0.013242057 993:0.21972255 994:-0.023022925 995:-0.11936349 996:0.15128101 998:-0.23262921 1004:-0.034862891 1005:0.012352626 1006:0.17596525 1007:-0.063390054 1008:-0.016198592 1009:0.35288176 1010:-0.38190678 1011:0.25171271 1012:-0.015182862 1013:0.034542706 1014:0.22472832 1015:0.048137568 1016:-0.028597031 1017:-0.14082336 1018:-0.072269596 1019:-0.077324405 1020:-0.088445023 1021:-0.11971038 1022:0.12746568 1023:0.069392093 1024:0.17131659 1025:0.14159128 1026:0.12053316 1027:-0.027130822 1028:0.2986244 1029:-0.14619792 1030:-0.031081509 1031:-0.065171033 1032:-0.065171033 1033:-0.10883116 1034:-0.098128244 1035:-0.00031925621 1036:-0.12550259 1037:0.14979063 1038:0.09678898 1039:-0.2193052 1040:0.10541931 1041:-0.067823775 1042:0.29574153 1043:0.13970701 1044:0.03824902 1045:0.041762464 1046:-0.19554333 1047:0.12554114 1048:-0.1255262 1049:-0.17850593 1050:0.17547475 1051:0.015053225 1052:0.24632555 1053:0.05120942 1054:-0.19436692 1055:0.12954487 1056:0.015053225 1057:-0.053010311 1058:0.015053225 1059:0.20393987 1060:0.015053225 1061:0.088311426 1062:0.015053225 1063:0.19787794 1064:0.14814711 1065:0.33888435 1066:0.12671556 1067:0.21134795 1068:0.052853808 1069:0.1703084 1070:-0.12379529 1071:-0.14901866 1072:-0.14901866 1073:-0.07782498 1074:0.052606683 1075:0.038564872 1076:-0.096262246 1077:0.072680973 1078:-0.040826332 1079:0.048180595 1080:-0.0047874171 1081:0.19581667 1082:0.1711601 1083:0.0064792363 1084:0.027319096 1085:-0.13813092 1086:0.010575981 1087:-0.095914446 1088:0.10356265 1089:0.28166649 1090:-0.14175133 1091:0.033432778 1092:-0.31873101 1093:-0.1567287 1094:0.12791967 1095:0.38663232 1096:0.38663232 1097:0.18167083 1098:0.058269393 1099:-0.0028693513 1100:0.12298882 1101:-0.13993208 1102:0.20140758 1103:0.022639174 1104:-0.01021708 1105:0.058269393 1106:0.051318772 1107:0.058269393 1108:0.11613827 1109:0.14954619 1110:0.10234259 1111:0.20230412 1112:-0.022639481 1113:-0.037719931 1114:-0.012765055 1115:-0.071409367 1116:0.094131194 1117:-0.081147313 1118:-0.013937667 1119:-0.013937667 1120:-0.026992055 1121:-0.013937667 1122:0.044713546 1123:-0.20766549 1124:0.31157494 1125:0.33323061 1126:-0.013937667 1127:-0.013937667 1128:-0.013937667 1129:0.32146633 1130:-0.082294479 1131:0.076362029 1132:0.021203002 1133:-0.064153537 1134:-0.084349327 1135:-0.039238285 1136:-0.17547008 1137:-0.12168197 1138:-0.12168197 1139:0.060713165 1140:-0.039953213 1141:-0.12168197 1142:-0.033043105 1143:-0.12168197 1144:0.060203627 1145:0.021703014 1146:-0.12168197 1147:-0.12168197 1148:-0.022714941 1149:-0.15845691 1150:-0.16367251 1151:-0.022714941 1152:-0.022714941 1153:0.046236441 1154:-0.027489631 1155:0.035091743 1156:-0.21644473 1157:-0.14176631 1158:-0.14099325 1159:-0.029550476 1160:-0.029550476 1161:-0.18309826 1162:-0.029550476 1163:0.31052405 1164:0.075354181 1165:0.075354181 1166:-0.13461801 1167:0.0053498796 1168:-0.1082448 1169:-0.17830324 1170:0.089050345 1171:-0.054164313 1172:0.22164057 1173:0.24042602 1174:0.31973165 1175:0.24210674 1176:0.063326597 1177:-0.17328396 1178:-0.014832061 1179:-0.019950835 1180:-0.095193274 1181:0.050596878 1182:0.050596878 1183:-0.25285059 1184:0.050596878 1185:-0.10059886 1186:0.10211834 1187:-0.23906632 1188:-0.057277247 1189:-0.057277247 1190:-0.057277247 1191:-0.26933131 1192:-0.040680043 1193:-0.17238513 1194:0.17073254 1195:0.098589018 1196:0.10764515 1197:0.029125663 1198:0.062400062 1199:0.067158915 1200:0.20481978 1201:0.21886973 1202:0.13072751 1203:0.10764515 1204:-0.062089074 1205:-0.090195976 1206:0.047173481 1207:-0.061762288 1208:0.047173481 1209:0.062867001 1210:0.047173481 1211:-0.14709407 1212:0.019229023 1213:-0.0056878626 1214:0.039852768 1215:0.047407236 1216:0.047173481 1217:0.054181956 1218:0.047173481 1219:0.12096888 1220:0.047173481 1221:0.37160406 1222:0.11250621 1223:0.093838982 1228:0.056255825 1229:0.24180184 1230:0.12948373 1231:0.17927453 1232:-0.025899392 1233:-0.025899392 1234:0.046704244 1235:-0.1293218 1236:0.31494659 1237:0.039037336 1238:0.080869071 1239:-0.036247976 1240:-0.025899392 1241:-0.025899392 1242:-0.025899392 1243:-0.16706838 1244:0.032236055 1245:-0.025899392 1246:-0.025899392 1247:0.32329237 1248:-0.00219068 1249:0.053156335 1250:0.26330066 1251:-0.042832449 1252:0.067249537 1253:-0.16344978 1254:0.16277024 1255:-0.23735967 1256:-0.20744626 1257:0.031817544 1259:-0.1536191 1260:-0.29267126 1261:-0.079969272 1262:0.16681738 1263:0.050542343 1264:-0.037903167 1265:0.061093312 1266:-0.06877467 1267:-0.073990427 1268:0.098604657 1269:0.076416962 1270:0.10273083 1271:0.14382997 1272:-0.21342285 1273:-0.30425352 1274:-0.048810899 1275:0.0055321846 1276:0.15871498 1277:-0.085227996 1278:0.00014522532 1279:-0.063277826 1280:-0.18545319 1281:0.18135753 1283:-0.066221587 1284:0.037593279 1285:-0.069234364 1286:-0.016606627 1287:-0.11331732 1288:-0.069234364 1289:-0.13023131 1290:0.074654013 1291:0.010932141 1292:-0.069234364 1293:-0.014096418 1294:-0.069234364 1295:0.044093415 1296:-0.066279516 1297:-0.038927592 1298:-0.069234364 1299:0.1099128 1300:0.063560866 1301:-0.088984348 1302:-0.046629131 1303:-0.069234364 1304:-0.033960201 1305:0.090244718 1306:-0.31183496 1307:-0.089221269 1308:-0.23315252 1309:0.11437972 1310:0.068173751 1311:-0.040635243 1312:-0.1317053 1313:-0.025123119 1314:0.023869412 1315:0.13508664 1316:-0.20525649 1317:0.15948352 1318:-0.27453196 1319:0.013760985 1320:-0.044010766 1321:0.1163635 1322:-0.25796947 1323:0.39586145 1324:0.0013274176 1325:-0.23353143 1326:-0.090358414 1327:-0.10459623 1328:-0.10321479 1329:0.038694769 1330:-0.022949366 1331:0.38732633 1332:-0.15040079 1333:-0.22234288 1334:-0.010102356 1335:-0.19389816 1336:-0.11531232 1337:-7.007923e-05 1338:0.025967391 1339:-0.11531232 1340:0.42311409 1341:0.088494793 1342:-0.081027731 1343:0.011830681 1344:-0.1009002 1345:0.33662134 1346:0.12132664 1347:-0.092329636 1348:0.1909616 1349:-0.12221362 1350:-0.16062026 1351:-0.12858227 1352:0.013545161 1353:-0.0024790089 1354:0.037380006 1355:0.080104969 1356:0.22392902 1357:-0.0049002501 1358:0.1805037 1359:-0.22599274 1360:0.075181924 1361:-0.52593011 1362:0.1059212 1363:-0.072978705 1364:0.023946878 1365:0.061632406 1366:0.061632406 1367:0.061632406 1368:0.28278536 1369:0.41063005 1370:0.19010246 1371:0.15606296 1372:0.15606296 1373:0.094713442 1374:0.1179378 1375:-0.052452557 1376:-0.097031407 1377:-0.097031407 1378:-0.064947896 1379:0.15491058 1381:0.090689346 1382:-0.0056393747 1383:0.29172862 1384:0.04461924 1385:0.0090099163 1386:-0.083067484 1387:-0.051002651 1388:0.0043285186 1389:0.13534926 1390:0.01388595 1391:0.01388595 1392:-0.015045737 1393:-0.015045737 1394:0.039218917 1395:0.18500556 1396:-0.030780843 1397:0.019083535 1398:0.039218917 1399:0.1015491 1400:0.0066697365 1401:0.087233581 1402:0.32616797 1403:-0.089291543 1404:0.1008227 1405:0.075816832 1406:0.10477533 1407:-0.071070619 1408:0.11812783 1409:0.090565525 1410:0.17464231 1411:0.095570847 1412:0.15104419 1413:0.16072726 1414:0.074911207 1415:-0.20276625 1416:-0.022016974 1417:-0.022016974 1418:-0.022016974 1419:-0.022016974 1420:0.1320603 1421:-0.23964199 1422:0.027921321 1423:0.067171343 1424:0.17045479 1425:-0.022016974 1426:-0.022016974 1427:-0.1230955 1428:-0.078525871 1429:0.052443806 1430:-0.022016974 1431:-0.022016974 1432:0.070950627 1433:0.070950627 1434:0.061894339 1435:-0.004569598 1436:0.18725166 1437:0.046870083 1438:-0.19168217 1439:0.070950627 1440:0.024285141 1441:-0.21061687 1442:-0.12525964 1443:0.15845004 1444:0.19897461 1445:0.047472276 1446:0.16551206 1447:0.22128503 1448:0.15845004 1449:-0.20181446 1450:-0.25677335 1451:0.052200995 1452:0.32812929 1453:-0.080873683 1454:-0.0022743775 1455:0.075396083 1456:0.046803094 1457:0.0042924932 1458:0.046803094 1459:0.0057041743 1460:0.23474512 1461:0.046803094 1462:-0.018321037 1463:-0.32817936 1464:0.041169919 1465:-0.0029309727 1466:0.036640421 1467:0.047825478 1468:0.099894837 1469:0.012440514 1470:0.033050206 1473:-0.013116009 1475:-0.08409065 1476:-0.037178159 1477:0.062517941 1478:-0.057486564 1479:-0.071950495 1480:-0.043703903 1481:0.067530453 1482:-0.10813853 1483:0.13779461 1484:0.1647557 1485:0.051898733 1486:-0.064695619 1487:-0.27753758 1488:-0.074241139 1489:0.017033786 1490:-0.17173259 1491:0.073080786 1492:-0.078286096 1493:0.091436371 1494:-0.030354183 1495:0.030876482 1496:0.1052084 1497:0.079793818 1499:-0.12106031 1500:-0.041887984 1501:0.10188559 1502:-0.015704354 1503:-0.14183937 1504:-0.013968942 1505:-0.11088885 1506:-0.19565409 1507:-0.15213211 1508:0.057632532 1509:0.046140462 1510:-0.17189974 1511:-0.18414186 1512:-0.036669951 1513:0.13313575 1514:-0.084637679 1515:0.034430318 1516:0.062926523 1517:0.062926523 1518:0.094198771 1519:0.34937143 1520:0.038977914 1521:0.034313031 1522:0.14414024 1523:0.04709544 1524:0.050003286 1525:0.14414024 1526:-0.13004209 1527:-0.13099773 1528:-0.13099773 1529:-0.13099773 1530:0.054874968 1531:-0.099173695 1532:0.031742096 1533:0.037246197 1534:-0.40884057 1535:-0.14249645 1536:0.10659306 1537:0.19919826 1538:-0.0343972 1539:-0.12750217 1540:0.012446741 1541:0.012446741 1542:0.012446741 1543:0.071879111 1544:-0.0020799488 1545:0.099569179 1550:-0.1157242 1553:0.2774781 1554:-0.02482854 1555:0.021611979 1556:0.72720706 1557:-0.19291672 1558:0.082099706 1559:0.23164846 1560:0.098099612 1561:-0.19764471 1562:0.032301564 1563:0.10970255 1564:0.1971218 1565:-0.14935312 1566:0.078269601 1567:0.078269601 1568:0.0094101625 1569:0.25312233 1570:0.078269601 1571:-0.064312413 1572:-0.10420889 1573:0.23442681 1574:0.033261932 1575:0.39145809 1576:-0.13576929 1577:0.0092920791 1578:0.0068747876 1579:0.0092920791 1580:0.0092920791 1581:0.0092920791 1582:0.096125573 1583:-0.19047473 1584:-0.22620255 1585:-0.27553347 1589:0.10559157 1590:0.07038644 1593:0.11314529 1595:-0.014838399 1597:-0.13761289 1598:0.0020019568 1599:0.013471127 1602:0.14592944 1603:-0.27914324 1604:-0.1331916 1605:0.090465821 1606:-0.039160471 1607:-0.076031543 1608:0.02018295 1609:0.098708868 1610:0.057827424 1611:-0.025349719 1612:-0.10548314 1613:0.1156942 1615:0.068424135 1616:-0.028159458 1617:-0.062897637 1618:-0.13659054 1619:0.11347245 1620:0.022061227 1621:0.15952362 1622:-0.10266992 1623:-0.076081999 1624:-0.13467383 1625:0.15400556 1626:0.16753602 1627:-0.076081999 1628:-0.28540251 1629:-0.036844615 1630:0.091506928 1631:0.34003237 1632:0.0020964369 1633:-0.21997693 1634:0.35217261 1635:0.14254519 1636:0.0084584448 1637:-0.0050873267 1638:0.15335032 1639:-0.11319349 1640:-0.14971738 1641:0.006564673 1642:-0.051485989 1643:-0.046658859 1644:-0.079358406 1645:-0.017354356 1646:-0.079358406 1647:0.034798037 1648:-0.079358406 1649:-0.040047362 1650:0.081962235 1651:0.23689553 1652:-0.049172807 1653:-0.14971738 1654:-0.033801798 1655:0.074497916 1656:-0.14971738 1657:0.15597978 1658:-0.011869845 1659:0.01999726 1660:-0.011869845 1661:-0.031430766 1662:-0.011869845 1663:-0.084807195 1664:-0.011869845 1665:-0.17522241 1666:0.16835374 1667:-0.16169718 1668:0.24878958 1669:0.066522479 1670:-0.24201737 1671:0.18006636 1672:0.058980852 1673:0.18847577 1674:-0.073488928 1675:0.13721539 1676:0.27249616 1677:0.012871156 1678:-0.10045733 1679:-0.10045733 1680:-0.042534821 1681:-0.047604892 1682:-0.10045733 1683:0.16405937 1684:-0.10045733 1685:0.182486 1686:-0.10045733 1687:-0.046487123 1688:0.11320686 1689:0.16259617 1690:-0.10045733 1691:-0.10045733 1692:-0.069937162 1693:-0.10045733 1694:-0.35937321 1695:0.46276909 1696:-0.1251505 1697:-0.17245422 1698:-0.1251505 1699:-0.1251505 1700:-0.12429957 1701:-0.10388678 1702:0.013852044 1703:0.24145193 1704:0.14377199 1705:-0.095419616 1706:0.11539143 1707:0.077090338 1708:0.077090338 1709:0.077090338 1710:0.040228195 1711:0.077090338 1712:0.14965089 1713:-0.11400455 1714:0.18034434 1715:0.24443212 1716:-0.04822525 1717:0.031217054 1718:0.19119026 1719:0.19119026 1720:0.18818931 1721:-0.078600705 1722:0.35369495 1723:0.059289116 1724:-0.2215351 1725:-0.052861832 1726:-0.010753563 1727:-0.14833112 1728:-0.14833112 1729:-0.11699087 1730:-0.055050768 1731:-0.039158329 1732:0.067693561 1733:-0.10775778 1734:-0.01135252 1735:-0.031071175 1736:-0.0035639189 1737:0.1188597 1738:0.073013753 1739:0.020261677 1740:0.073013753 1741:0.10386118 1742:-0.02797186 1743:0.073013753 1744:0.0098971892 1745:0.073013753 1746:0.073013753 1747:0.047526378 1748:0.076971814 1749:0.073013753 1750:-0.24043746 1751:-0.059309755 1752:-0.12729095 1753:-0.090994969 1754:-0.064289644 1755:-0.090994969 1756:0.39962825 1757:-0.064691067 1758:-0.12640002 1759:-0.029693725 1760:-0.036330719 1761:-0.029693725 1762:-0.029693725 1763:-0.11261829 1764:-0.01424517 1765:-0.02227453 1766:-0.051012114 1767:0.040230747 1768:-0.039474122 1769:0.21585311 1770:-0.026613077 1771:0.012822947 1772:0.17170671 1773:0.045323294 1774:-0.023908379 1775:0.17166232 1776:-0.22515175 1777:-0.12756261 1778:0.26313454 1779:-0.16914317 1780:-0.028767552 1781:0.039800897 1782:-0.11622914 1783:-0.035956763 1784:0.042560518 1785:-0.0021779244 1786:-0.4462657 1787:0.015386992 1788:0.076700784 1789:-0.24702847 1790:0.23724321 1791:-0.037397061 1792:0.022352379 1793:0.045401946 1794:-0.037823465 1795:-0.037823465 1796:-0.016135674 1797:-0.12914728 1798:-0.28662211 1799:-0.20416053 1802:0.0058072885 1803:0.15030192 1804:-0.095077917 1805:-0.17747831 1806:-0.029710736 1807:-0.0042725806 1808:0.14483683 1809:-0.45041475 1810:0.10660765 1811:0.073105313 1812:0.23775274 1813:-0.073013216 1814:0.042359512 1815:0.087171517 1816:-0.010742709 1817:0.18385459 1818:-0.032229729 1819:-0.015467414 1820:0.037110154 1821:0.11851376 1822:0.12871672 1823:0.36437839 1824:-0.0041538575 1825:-0.11424578 1826:-0.042425018 1827:0.19186184 1828:0.075549088 1829:0.12189759 1830:-0.14962687 1831:-0.050420053 1832:-0.076290421 1833:0.086232774 1834:0.086232774 1835:0.086232774 1836:0.088322572 1837:-0.060735401 1838:0.089364804 1839:0.086232774 1840:0.078978218 1841:0.065704234 1842:-0.11358104 1843:0.086232774 1844:0.085385635 1845:0.063354939 1846:0.086232774 1847:0.11781336 1848:-0.034177452 1849:0.097872593 1850:-0.28001025 1851:0.10799165 1852:0.25794894 1853:0.079241656 1854:0.031891409 1855:-0.16269015 1856:0.031891409 1857:0.031891409 1858:0.029208411 1859:0.031891409 1860:-0.29033962 1861:-0.45791543 1863:-0.16521399 1865:0.067120343 1866:0.045247976 1867:-0.13100758 1868:-0.017624523 1869:-0.00063794293 1870:-0.19363061 1871:0.088431127 1872:-0.11741675 1873:-0.12277599 1874:0.1810953 1875:-0.044666573 1876:0.088431127 1877:0.088431127 1878:-0.035578705 1879:0.035070091 1880:0.086828344 1881:0.12965597 1882:0.17334665 1883:-0.12916413 1884:0.15951948 1885:0.07032758 1886:-0.076805465 1887:-0.076805465 1888:0.0059296903 1889:0.21054833 1890:0.34669304 1891:-0.15427604 1892:-0.057308786 1893:-0.062843204 1894:-0.076805465 1895:-0.23341289 1896:0.03948452 1897:-0.0086425887 1898:-0.035887353 1899:0.093110994 1900:0.36103848 1901:0.28559497 1902:0.06600669 1903:0.12033021 1904:0.19587846 1905:0.24877268 1906:-0.014042169 1907:-0.014042169 1908:-0.042188287 1909:-0.012860852 1910:-0.014042169 1911:-0.066303261 1912:0.18588331 1913:-0.014042169 1914:0.10747945 1915:-0.030763013 1916:-0.014042169 1917:0.15302828 1918:-0.039802007 1919:0.24326116 1920:-0.05734881 1921:-0.82623959 1922:0.087964326 1923:-0.52067494 1924:0.02892866 1925:-0.080437601 1926:0.10918936 1927:0.015072929 1928:-0.097655021 1929:-0.17060857 1930:-0.18682404 1931:0.17110658 1932:-0.14030412 1933:-0.11588839 1934:0.13200806 1935:-0.012040712 1936:0.12249397 1939:-0.0037213897 1940:-0.0071722758 1941:0.0079739029 1942:-0.6032607 1943:0.024783408 1944:0.049507003 1945:0.056155689 1946:0.051403251 1947:0.17241737 1948:0.081094682 1949:0.22635998 1950:-0.15626197 1951:0.17733069 1952:-0.020142132 1953:-0.062925324 1954:-0.054587547 1955:-0.020570906 1956:-0.020142132 1957:0.0022737659 1958:-0.053913314 1959:-0.14020622 1960:-0.14020622 1961:-0.018608632 1962:-0.083848044 1963:-0.14020622 1964:0.027427737 1965:-0.099561408 1966:-0.079104371 1967:-0.053965326 1968:-0.071255364 1969:0.030470289 1970:0.050742749 1971:0.10899632 1972:0.11578042 1973:-0.058351427 1974:-0.058351427 1975:-0.04861854 1976:-0.26849306 1977:0.03007083 1978:-0.013406331 1979:0.36959121 1980:0.25370824 1981:-0.094122447 1982:-0.064314045 1983:0.047616813 1984:-0.016631654 1985:-0.016631654 1986:0.1018271 1987:0.1018271 1988:0.053163275 1989:0.053163275 1990:0.048690565 1991:0.0010551179 1992:0.2625868 1993:0.073888347 1994:-0.10860306 1995:-0.060951885 1996:-0.055386208 1997:0.14015213 1998:-0.055386208 1999:0.078606695 2000:-0.15111992 2001:-0.055386208 2002:-0.11999936 2003:-0.031200172 2004:-0.13367835 2005:-0.043168642 2006:-0.042702366 2007:-0.0065492257 2008:-0.41661698 2009:0.037612423 2010:-0.39552066 2011:0.0031881267 2012:-0.086638436 2013:0.21541999 2014:-0.17751612 2015:-0.042566277 2016:-0.054854393 2017:-0.021388957 2018:0.030127663 2019:0.11919022 2020:-0.042566277 2021:-0.042566277 2022:-0.71992272 2023:0.28592613 2024:0.14739378 2025:0.14739378 2026:0.25636283 2027:-0.12936784 2028:-0.22283143 2029:0.10414554 2030:0.13580903 2031:0.03406807 2032:0.10523199 2033:-0.012087063 2034:0.071335226 2035:0.11084302 2036:-0.012087063 2037:-0.025805777 2038:-0.060023613 2039:0.048822638 2040:0.034668688 2041:0.034668688 2042:-0.062233932 2043:0.25236648 2044:-0.062233932 2045:-0.062233932 2046:0.38146371 2047:0.17358735 2048:-0.089466304 2049:-0.060359329 2050:-0.11855081 2051:0.0217064 2052:-0.11855081 2053:0.11721252 2054:0.00097185554 2055:-0.077342242 2056:0.18857901 2057:0.012000153 2058:0.016267329 2059:-0.053235836 2060:-0.052329347 2061:0.32275116 2062:-0.061630163 2063:0.17210452 2064:0.17210452 2065:0.24998352 2066:-0.28853512 2067:0.16506298 2068:-0.019053288 2069:-0.1484908 2070:-0.0014763668 2071:-0.024134632 2072:0.023561904 2074:-0.11836859 2075:0.32004252 2076:0.19452336 2080:-0.012767517 2081:0.24668698 2082:0.079023182 2083:-0.05652694 2084:0.13208602 2085:0.0010775467 2086:0.1015278 2087:0.22360654 2088:0.14181648 2089:0.082469314 2090:0.082469314 2091:0.0097431894 2092:0.06210386 2093:-0.30298385 2094:0.21026701 2095:-0.01033837 2096:0.1033253 2097:-0.038609341 2098:0.04516175 2099:0.027682409 2100:-0.17551051 2101:0.013790856 2102:0.085775174 2103:0.077784546 2104:-0.18012793 2105:0.20619304 2106:-0.19324537 2107:0.085409969 2108:0.068330757 2109:-0.14717878 2110:0.082929716 2111:0.095903613 2112:0.20720074 2113:0.035561055 2114:-0.10676401 2115:0.019926762 2116:-0.028793676 2117:-0.0038307291 2118:0.016544424 2119:-0.027402725 2120:-0.0090277828 2121:0.00047304548 2122:0.094662391 2123:0.08576034 2124:-0.0090277828 2125:-0.087720245 2126:-0.058742981 2127:-0.16773638 2128:-0.0099884374 2129:-0.058742981 2130:0.16356981 2131:0.27568394 2132:0.11766732 2133:0.27568394 2134:0.25249094 2135:0.025504503 2136:0.051943149 2137:0.17760034 2138:0.036908887 2139:-0.038696874 2141:0.15795907 2142:-0.010448224 2143:-0.3887004 2144:0.22432056 2145:0.016704524 2149:0.35138184 2150:-0.010432597 2151:0.21468811 2153:-0.04586336 2154:-0.0054078535 2155:-0.068143785 2156:0.2621896 2157:-0.048078753 2158:0.11560294 2159:0.32885629 2160:0.29609534 2161:0.22432239 2162:0.5176571 2163:0.21313953 2164:0.21840426 2165:0.058126774 2166:0.058126774 2167:0.058126774 2168:-0.27408612 2169:0.10877974 2170:0.22424936 2171:-0.03380518 2172:0.12135031 2173:-0.020643333 2174:0.11114098 2175:-0.0061196648 2176:0.10875267 2177:-0.032885376 2178:0.12135031 2179:-0.057978876 2180:0.028398452 2181:0.24631038 2182:0.028398452 2183:0.028398452 2184:-0.058341067 2185:-0.1030639 2186:0.034676582 2187:0.079536535 2188:0.079536535 2189:0.079536535 2190:0.048797205 2191:-0.12074986 2192:0.15900634 2193:0.05281613 2194:0.079536535 2195:0.0044099018 2196:0.041779 2197:0.041779 2198:-0.099048451 2199:0.098897569 2200:-0.12036531 2201:-0.090715654 2202:-0.050517958 2203:0.079127893 2204:-0.099048451 2205:-0.10527702 2206:0.13241352 2207:-0.047925659 2208:0.03928506 2209:-0.2476486 2210:-0.057046212 2211:-0.046469137 2212:-0.089312933 2213:-0.11204277 2214:-0.011337317 2215:-0.13668177 2216:-0.046469137 2217:-0.22715409 2218:0.14700326 2219:-0.14738128 2220:-0.0058421576 2221:0.085432239 2222:0.011569037 2223:0.0057845186 2224:-0.30285743 2225:0.040906597 2226:0.040906597 2227:-0.018402174 2228:0.040906597 2229:-0.012305317 2230:0.017096004 2231:0.040906597 2232:0.040906597 2233:0.14154097 2234:0.040906597 2235:-0.099999383 2236:-0.11496582 2239:0.23878439 2241:0.20476903 2242:-0.1766924 2243:-0.1766924 2244:0.034456041 2245:-0.11228597 2246:-0.16360357 2247:-0.11334299 2248:-0.11334299 2249:-0.11334299 2250:0.023704201 2251:0.0038655791 2252:0.031098031 2253:-0.1038074 2254:0.08537066 2255:0.067800507 2256:0.08253295 2257:-0.13025907 2258:-0.064547591 2259:0.21456672 2260:-0.16743754 2261:-0.055029158 2262:0.05999279 2263:0.05999279 2264:0.063535281 2265:0.11566985 2266:0.11566985 2267:0.051639896 2268:0.14075355 2269:-0.022225158 2270:0.055094264 2271:-0.17272559 2272:0.051639896 2273:0.0081918323 2274:0.07735534 2275:-0.048321798 2276:-0.048321798 2277:-0.048321798 2278:-0.048321798 2279:-0.048321798 2280:-0.2780441 2281:0.0077751502 2282:0.0077751502 2283:0.0070532747 2284:0.10798558 2285:-0.058272619 2286:-0.065695703 2287:0.03616355 2288:-0.13498826 2289:0.044097576 2290:-0.098283596 2291:-0.072827101 2292:0.034238193 2293:-0.034719743 2294:-0.072827101 2295:-0.017371831 2296:-0.028338397 2297:-0.028338397 2298:-0.028338397 2299:-0.18062901 2300:0.11790585 2301:0.072431959 2302:0.077855952 2303:0.045055714 2304:0.011158203 2305:0.077855952 2306:0.075803295 2307:-0.033670567 2308:-0.12900463 2309:0.13274921 2310:0.16360727 2311:0.25198257 2312:0.047031675 2314:0.35732812 2315:0.28846496 2316:-0.075568944 2317:-0.38444886 2318:0.16224605 2319:-0.12338436 2320:0.066039763 2321:0.056566097 2322:0.32387826 2323:0.17424271 2324:-0.038485836 2325:0.18639539 2326:0.05906789 2327:0.12286133 2328:-0.072751999 2329:0.11352447 2330:0.11352447 2331:0.010653757 2332:0.11352447 2333:0.11185236 2334:0.16703638 2335:0.077278599 2336:0.17600679 2337:-0.029638724 2338:-0.14562425 2339:-0.12257852 2340:0.14560218 2341:-0.2596519 2342:0.19350733 2343:0.12856935 2344:-0.064559944 2345:0.059956741 2346:-0.070990629 2347:-0.17071199 2348:-0.13423552 2349:0.19974102 2350:-0.15221919 2351:-0.083787121 2352:0.088875078 2353:0.14836603 2354:-0.13258065 2355:0.030797916 2356:0.041347519 2357:-0.090080604 2358:-0.13075347 2359:-0.13075347 2360:-0.013868973 2361:0.16224204 2362:0.39604956 2363:0.16224204 2364:0.086370096 2365:0.02113614 2366:-0.13259146 2367:-0.064792767 2368:-0.16828138 2369:0.31776267 2370:-0.00043476114 2371:-0.00039830411 2372:0.05478007 2373:-0.098522633 2374:0.034580618 2375:0.073698662 2376:0.049625322 2377:-0.00043476114 2379:-0.0015487534 2380:-0.030897303 2381:-0.18301292 2382:-0.058156211 2383:-0.0015487534 2384:-0.0015487534 2385:0.30304664 2386:0.1463474 2387:-0.0015487534 2388:-0.0011291612 2389:-0.041849721 2390:0.10270291 2391:0.12659283 2392:0.01112956 2393:0.17947179 2394:-0.043930493 2395:0.10113502 2396:0.16193481 2397:-0.026764231 2398:-0.029222555 2399:-0.027309256 2400:0.028501973 2401:0.20649855 2402:0.0071544172 2403:0.18448122 2404:0.06195445 2405:-0.029222555 2406:-0.029222555 2407:-0.019626878 2408:-8.3707353e-05 2409:-8.3707353e-05 2410:0.25288203 2411:0.31304032 2412:-0.030884326 2415:0.075116493 2416:0.15732321 2418:0.020372836 2419:0.045357592 2421:0.30557251 2422:0.0024421175 2423:0.0024421175 2424:0.010553395 2425:0.042413421 2426:0.094687715 2427:-0.0012475457 2428:0.23632726 2429:0.015574846 2430:0.027185457 2431:0.0024421175 2432:-0.004378919 2433:0.0024421175 2434:0.32777435 2435:0.0024421175 2436:-0.055500191 2437:0.0024421175 2438:0.2164671 2439:-0.052789282 2440:0.39336532 2441:-0.012614847 2442:0.051767059 2443:-0.083298288 2444:-0.12117157 2445:0.2889238 2446:0.12268224 2447:0.53216535 2448:0.03286599 2449:-0.20640777 2450:-0.040375747 2451:0.10478835 2452:-0.29757965 2453:-0.24790172 2454:-0.24790172 2455:0.019302405 2456:-0.14564078 2457:0.1304042 2458:0.017481091 2459:0.049577471 2460:-0.066483699 2461:-0.0011660871 2462:-0.072743073 2463:0.050320387 2464:-0.021729331 2465:0.12141565 2466:0.38604501 2467:0.02793029 2468:0.21134387 2469:0.049577471 2470:0.049577471 2471:-0.00087616924 2472:0.017448071 2473:0.062990196 2474:0.11568551 2475:-0.081999868 2476:0.053371366 2477:-0.026163725 2478:-0.080948673 2479:-0.018194458 2480:0.017448071 2481:0.083688609 2482:0.084272452 2483:0.23954126 2484:0.12341094 2485:0.017448071 2486:0.15794456 2487:0.038624361 2488:0.017448071 2489:0.10559914 2490:-0.069106996 2491:-0.18461068 2492:-0.18461068 2493:-0.16661403 2494:0.071066432 2495:0.02673178 2496:-0.062474146 2497:0.019915497 2498:0.18836439 2499:0.0022857396 2500:-0.0067401011 2501:0.0043509551 2502:0.078686267 2503:0.055166278 2504:0.070569292 2505:0.27072817 2506:0.33949244 2507:-0.075295947 2508:0.0099723618 2509:-0.16530593 2510:-0.060981266 2511:-0.093111508 2512:0.24949479 2513:-0.10198312 2514:-0.13080163 2515:-0.12445007 2516:-0.10198312 2517:0.53919852 2518:-0.012709269 2519:-0.13151434 2520:-0.13151434 2521:-0.12236138 2522:-0.018512091 2523:-0.025607118 2524:0.23836266 2525:-0.072779246 2526:-0.11701462 2527:-0.01737803 2528:-0.01737803 2529:-0.01737803 2530:0.10023936 2531:0.075496882 2532:0.10023936 2533:-0.033799138 2534:-0.065948807 2535:-0.15058462 2536:-0.033799138 2537:-0.023759939 2538:-0.035292104 2539:-0.024974747 2540:0.25577319 2541:-0.004639077 2542:0.025589071 2543:-0.064670049 2544:-0.017299606 2545:0.018379614 2546:-0.024974747 2547:-0.058976721 2548:-0.034043539 2549:-0.13846318 2550:-0.024974747 2551:-0.059893101 2552:-0.059893101 2553:0.093942158 2554:0.040292457 2555:-0.051464323 2556:0.21474631 2557:-0.059893101 2558:0.11256856 2559:0.061034046 2560:0.061034046 2561:-0.0096784085 2563:-0.23700722 2566:-0.01100185 2567:-0.037155014 2568:0.02132036 2569:-0.00060456863 2570:-0.35131001 2571:0.17591538 2572:-0.19117822 2573:-0.11399528 2574:0.23260391 2575:0.19774622 2576:0.072865196 2577:0.065360442 2578:-0.020282468 2579:-0.020282468 2580:0.16756292 2581:-0.066821106 2582:-0.085808977 2583:-0.14125082 2584:0.038256153 2585:0.033602044 2586:0.082645603 2587:0.0091901906 2588:-0.015526137 2589:0.1567838 2590:0.052671418 2591:0.19971249 2592:-0.17404616 2593:0.18088007 2594:0.23772575 2595:-0.16717093 2596:-0.16717093 2597:-0.16717093 2598:-0.069334336 2600:-0.10953065 2601:0.0026962049 2602:-0.09232711 2603:0.18483938 2604:-0.013815071 2605:0.047242794 2606:-0.029740334 2607:0.056703143 2608:0.017766394 2609:-0.046976347 2610:-0.079445407 2611:0.058513895 2612:0.058513895 2613:0.058513895 2614:0.058513895 2615:-0.065596223 2616:-0.044900201 2617:0.058513895 2618:-0.082590282 2619:0.20154409 2620:-0.018420488 2621:-0.032394931 2624:-0.020369295 2625:0.20343988 2626:0.20343988 2627:-0.0049996376 2628:-0.080559023 2629:-0.022071941 2630:-0.0049996376 2631:-0.24853884 2632:-0.0049996376 2633:0.047748551 2634:-0.13006763 2635:0.15035699 2636:-0.090049997 2637:-0.048652809 2638:-0.038251746 2639:-0.038251746 2640:-0.038251746 2641:-0.038251746 2642:-0.23183352 2643:0.014246798 2644:-0.10637318 2645:0.15659088 2646:-0.00029586142 2647:-0.14753519 2648:-0.13840419 2649:-0.17045349 2650:-0.083029225 2651:0.12769139 2652:0.15703273 2653:-0.036116537 2654:-0.067095235 2655:0.061209414 2656:0.12769139 2657:0.11694857 2658:0.12769139 2659:-0.070589416 2660:0.074137568 2661:0.041055851 2662:0.025105687 2663:-0.00022249761 2664:-0.00022249761 2665:-0.11553149 2666:-0.07945469 2667:0.20561714 2668:-0.13032305 2669:-0.041494355 2670:-0.060583241 2671:0.1487055 2672:0.015258259 2673:0.19654605 2674:0.18471386 2675:0.1487055 2676:0.066716157 2677:0.1487055 2678:0.19454005 2679:-0.114801 2680:0.035422903 2681:0.0034480945 2682:0.13330351 2683:-0.079547055 2684:0.049620971 2685:0.036632527 2686:-0.011171277 2687:-0.13060127 2688:0.23641941 2689:0.03637873 2690:0.068085976 2691:0.068085976 2692:-0.010156826 2693:-0.13558559 2694:-0.032078445 2695:-0.083470888 2696:-0.066469185 2697:0.2841078 2698:-0.067143239 2699:-0.21044323 2700:0.25275433 2701:-0.22581704 2702:0.18082432 2703:0.053377755 2704:0.034467693 2705:-0.054018248 2706:0.053377755 2707:-0.031193679 2708:-0.13972794 2709:0.13515748 2710:-0.078551099 2711:-0.30838528 2712:0.078565918 2713:-0.022461481 2714:-0.10593234 2715:-0.036159758 2716:-0.038527694 2717:-0.14300701 2718:0.026790809 2719:0.1733086 2720:0.0084066456 2721:-0.089555547 2722:0.027512301 2723:0.14455295 2724:-0.089555547 2725:0.15971312 2726:0.031344146 2727:0.31918982 2728:-0.12227719 2729:-0.13339344 2730:-0.13339344 2731:0.15087293 2732:0.10737491 2733:0.11873773 2734:-0.033797368 2735:-0.033797368 2736:0.37184021 2739:-0.23373961 2740:-0.17981251 2741:0.05624707 2742:-0.19342692 2743:0.19931208 2744:-0.036459796 2745:-0.0058523486 2746:-0.18297274 2747:0.14026575 2748:-0.44435164 2749:-0.079396836 2750:0.028145747 2751:0.17057504 2752:0.047608562 2753:0.049312953 2754:-0.26814017 2755:-0.13384247 2756:0.01385342 2757:-0.12680189 2758:0.38162667 2759:0.18010414 2760:0.09686821 2761:0.19772096 2762:0.2224763 2763:0.073294051 2764:0.31203219 2765:-0.23121646 2766:0.12507084 2767:0.11073999 2768:0.11409736 2769:0.18265224 2770:0.26801929 2771:0.26801929 2772:-0.022433275 2773:-0.25313959 2774:0.2921612 2775:0.034615103 2776:0.034615103 2777:0.034615103 2778:-0.19569342 2779:0.04813664 2780:-0.030298045 2781:-0.030298045 2782:-0.042337425 2783:-0.030298045 2784:-0.066014655 2785:-0.088190429 2786:-0.08815629 2787:-0.066014655 2788:-0.061257135 2789:0.10434958 2790:0.068892859 2791:0.055489738 2792:0.068892859 2793:0.068892859 2794:0.068892859 2795:0.081759974 2796:0.068892859 2797:0.17712432 2798:-0.031837497 2799:0.069739021 2800:0.044392996 2801:0.12437762 2802:0.11408801 2803:0.14499179 2804:0.15193199 2805:0.052605648 2806:0.052605648 2807:0.023278132 2808:-0.16812147 2809:0.01224747 2810:-0.0021573801 2811:-0.033820085 2812:-0.093498908 2813:-0.071722589 2814:0.012776613 2815:0.42143178 2816:0.067749411 2817:0.29178214 2818:0.13141958 2819:0.10919072 2820:0.20284098 2821:0.10142049 2822:0.021472057 2823:-0.099652931 2824:0.0612734 2825:0.0083299549 2826:0.0083299549 2827:-0.13878475 2828:0.28585413 2829:-0.24418269 2830:0.0083299549 2831:-0.048503943 2832:0.0083299549 2833:-0.014187644 2834:0.0083299549 2835:0.020834738 2836:0.0977301 2840:0.074801572 2841:0.1968203 2842:0.060611274 2843:0.062351838 2844:0.34134942 2845:0.038255755 2846:0.007815537 2847:0.072396897 2848:0.21642518 2849:0.12702484 2850:0.10527899 2851:-0.021885028 2852:0.012003539 2853:0.12301158 2854:0.068051681 2855:-0.098082237 2856:-0.021885028 2857:-0.032572702 2858:0.1375064 2859:-0.094816968 2860:0.039058898 2861:-0.052966688 2862:-0.033229042 2863:-0.00048669716 2864:-0.30119544 2865:0.047377989 2866:0.12331556 2867:0.13748197 2868:0.15060131 2869:0.098139629 2870:0.034192637 2871:0.13675591 2872:0.098139629 2873:0.0014556297 2874:0.098139629 2875:0.027801761 2876:0.031140741 2877:0.081672713 2878:0.10510474 2879:0.11072993 2880:0.081672713 2881:0.081672713 2882:0.081672713 2883:0.081672713 2884:-0.026503654 2885:0.068317257 2886:-0.03124507 2887:0.023445569 2888:-0.036065027 2889:0.045396812 2890:0.12109648 2891:0.068111271 2892:0.11090893 2893:-0.11402375 2894:-0.021868763 2895:0.00041764908 2896:-0.021868763 2897:-0.021868763 2898:-0.045510076 2899:-0.054027699 2900:0.044037305 2901:0.18517689 2902:0.29062772 2903:0.15877466 2904:-0.10859031 2905:0.11487601 2906:0.17528541 2907:0.31124181 2908:0.21583062 2909:-0.076649345 2910:-0.15934838 2911:-0.038232774 2912:-0.027590269 2913:0.22368222 2914:0.3165684 2915:0.24021734 2916:0.15617657 2917:-0.011762687 2918:-0.0056349961 2919:-0.021428024 2920:0.066214398 2922:-0.67433709 2923:0.0091209691 2924:-0.032373291 2925:0.1259833 2926:-0.072320528 2927:-0.019734191 2928:-3.1083895e-05 2929:0.10456855 2930:-0.032373291 2931:0.021774629 2932:-0.13944302 2933:-0.062458571 2934:0.14825009 2935:0.099049136 2936:0.12338532 2937:-0.10386521 2938:0.24677064 2939:0.064638473 2940:0.24494474 2941:-0.35329127 2942:0.022668097 2943:0.016788809 2944:-0.045892667 2945:-0.065649152 2946:0.14786959 2947:-0.066639811 2948:0.14228401 2949:0.22497602 2950:0.14228401 2951:0.14228401 2952:-0.2263473 2953:-0.067642935 2954:-0.39364839 2955:0.23165593 2956:-0.067642935 2957:-0.011431475 2958:0.012677864 2959:-0.03958223 2960:0.0086380951 2961:-0.067642935 2962:-0.080707535 2963:-0.067642935 2964:-0.13564524 2965:-0.01477576 2966:-0.01477576 2967:-0.067642935 2968:0.35556701 2969:-0.038019191 2970:-0.16218603 2971:-0.13530193 2972:-0.081370413 2973:0.13725109 2974:-0.050504833 2975:-0.17003261 2976:-0.21490972 2977:-0.17042899 2978:0.027276438 2979:0.027276438 2980:0.027276438 2981:-0.39028919 2982:-0.089365259 2983:0.20163941 2984:0.027276438 2985:0.078654587 2986:-0.39988482 2987:0.11880399 2988:-0.30546325 2989:0.082079597 2990:-0.085154183 2993:-0.063747123 2994:-0.17869121 2995:0.084177211 2996:0.084177211 2997:0.026478628 2998:-0.05573662 2999:0.0012802801 3000:-0.087471545 3001:0.17779964 3002:-0.10118282 3003:-0.036636047 3004:0.26560622 3005:-0.2004396 3006:0.14015007 3007:0.15506729 3008:0.19855686 3009:0.016038876 3010:0.022222614 3011:0.016038876 3012:0.33687067 3013:0.10268476 3014:0.016038876 3015:0.20895845 3016:-0.015454683 3017:-0.21404627 3018:0.15472426 3019:-0.013143738 3020:-0.072557941 3021:0.026062442 3022:-0.025723582 3023:0.23324127 3024:0.1306529 3025:0.1306529 3026:0.06136214 3027:0.0067195673 3028:0.16722526 3029:-0.27883238 3030:0.045973741 3031:-0.030289464 3032:-0.082617275 3033:-0.19866107 3034:-0.14721666 3035:0.11477778 3036:0.0067552952 3037:0.26545703 3038:-0.026399748 3039:0.085224889 3043:0.034525175 3044:0.13229789 3045:-0.010606677 3046:-0.055414815 3047:-0.016960096 3048:-0.027707407 3049:-0.00021540197 3050:-0.049994383 3051:-0.027707407 3052:0.05468278 3053:-0.074779116 3054:-0.064632066 3055:0.0058912421 3056:-0.075829968 3057:-0.083905242 3058:-0.090990797 3059:0.024681108 3060:-0.020075319 3061:-0.050661918 3062:-0.020537941 3063:-0.020537941 3064:0.1397392 3065:0.045737028 3066:0.045737028 3067:0.045737028 3068:0.37038934 3069:-0.14205688 3070:-0.03617385 3071:0.005652986 3072:-0.011425318 3073:0.10110608 3074:-0.15738381 3075:-0.16709512 3076:-0.039496988 3077:0.1499652 3078:0.055724408 3079:0.03424152 3080:0.03424152 3081:0.13220455 3082:-0.095789082 3083:-0.13714285 3084:-0.13504139 3085:0.28775141 3086:-0.042429931 3087:0.24606077 3088:0.19298778 3089:-0.0917034 3090:-0.0917034 3091:-0.0917034 3092:-0.0917034 3093:-0.083988339 3094:-0.12719277 3095:-0.14313546 3096:-0.14021482 3097:-0.21654196 3098:-0.26085699 3099:-0.18915324 3100:-0.13754992 3101:-0.13754992 3102:-0.086039238 3103:-0.13754992 3104:-0.28857133 3105:0.0036516143 3106:0.11576141 3107:0.12639488 3109:-0.37325093 3110:-0.14223014 3111:0.016350748 3112:0.016350748 3113:0.016350748 3114:0.016350748 3115:0.15770091 3116:0.016350748 3117:-0.029726271 3118:0.23568791 3119:-0.0091176564 3120:0.016350748 3121:0.069210052 3122:0.016350748 3123:0.016350748 3124:-0.028400088 3125:0.016350748 3126:0.016350748 3127:-0.027112506 3128:-0.12330051 3129:-0.12330051 3130:-0.12330051 3132:-0.025447408 3133:0.13656433 3135:0.1504966 3136:0.058318403 3137:-0.079071328 3138:-0.044843253 3139:0.12254133 3140:0.13529165 3141:-0.044843253 3142:-0.06137092 3143:-0.065042704 3144:-0.044843253 3145:0.047567509 3146:-0.068316221 3147:-0.044624008 3148:0.033968657 3149:-0.044843253 3150:-0.044843253 3151:-0.041160986 3152:-0.069812573 3153:-0.10667524 3154:-0.10667524 3155:-0.12367779 3156:0.059564132 3157:-0.30019042 3158:-0.10134327 3159:0.17859386 3160:-0.19272384 3163:-0.011265425 3165:-0.25977272 3166:-0.14096668 3168:-0.12108443 3169:-0.0015696822 3170:0.065437317 3171:0.091210701 3172:-0.050069984 3173:-0.033423286 3174:-0.036092337 3175:0.10372403 3176:-0.0099914344 3177:-0.09719117 3178:-0.0589973 3179:-0.080809273 3180:-0.080809273 3181:-0.10838709 3182:-0.099674165 3183:0.17228828 3184:0.028141275 3185:0.028141275 3186:0.051546879 3187:0.028141275 3188:0.091970399 3189:-0.15025662 3190:-0.0034301467 3191:0.079174109 3192:0.32494181 3193:0.036855407 3194:0.23437338 3195:0.036604352 3196:-0.12411996 3197:0.090156756 3198:0.10928623 3199:0.11932493 3200:0.11932493 3201:0.33331841 3202:0.045534033 3204:0.055409513 3206:0.16260514 3207:0.10815484 3208:-0.03361702 3209:-0.12746474 3210:-0.046903964 3211:0.19547094 3212:-0.063620478 3213:-0.081506133 3214:-0.071238592 3215:0.30084309 3216:-0.071238592 3217:-0.071238592 3218:-0.067293584 3219:-0.071238592 3220:-0.065245338 3221:0.0010836166 3222:-0.0080067264 3223:-0.14532131 3224:-0.048217263 3225:0.0011831351 3226:0.0010836166 3227:0.26951447 3228:0.13294274 3229:-0.18119963 3230:-0.13069646 3231:-0.14057373 3232:-0.14057373 3233:-0.14057373 3234:-0.14402549 3235:0.464203 3236:0.064392611 3237:0.10696871 3238:0.064392611 3239:0.034310512 3240:-0.19277087 3241:0.11402134 3242:0.08489725 3243:0.1386302 3244:0.039972674 3245:0.046369907 3246:-0.0094180424 3247:0.066273555 3248:0.054538365 3249:0.085728899 3250:-0.023148159 3251:-0.0186163 3252:-0.028550537 3253:-0.035960823 3254:-0.035960823 3255:0.022033831 3256:-0.035960823 3257:-0.035960823 3258:-0.035960823 3259:-0.035960823 3260:0.052990794 3261:0.098957479 3262:0.10990947 3263:-0.035960823 3264:0.041367281 3265:0.038942009 3266:-0.035960823 3267:0.0063406075 3268:0.029551268 3269:-0.022859195 3270:-0.035960823 3271:-0.035960823 3272:-0.037811141 3273:-0.18286498 3274:-0.035960823 3275:-0.15066196 3276:0.064091481 3277:-0.0024511586 3278:0.07760042 3279:-0.23500569 3280:0.034728818 3281:0.19139536 3282:-0.10963169 3283:-0.019833986 3284:-0.057078779 3285:-0.057078779 3286:0.091142714 3287:-0.0041902601 3288:0.32834712 3289:-0.075892583 3290:0.091718823 3291:0.036724877 3292:-0.19105272 3293:0.091718823 3294:0.091718823 3295:0.32354003 3297:0.032229114 3298:-0.19380629 3299:0.33609238 3300:-0.22041476 3301:0.022532342 3302:-0.026602376 3303:-0.19189899 3304:0.24578176 3305:-0.017966861 3306:0.066070713 3307:-0.053710155 3308:-0.02758047 3309:-0.16365086 3310:0.11125752 3311:0.3243922 3312:-0.10146283 3314:-0.20783687 3315:-0.32368186 3316:-0.49237713 3317:-0.074018121 3318:0.095464535 3319:-0.074018121 3320:-0.074018121 3321:-0.074018121 3322:0.14108306 3323:-0.074018121 3324:-0.21074891 3325:0.053878468 3326:0.11286665 3327:-0.020851925 3328:-0.07343933 3329:-0.074018121 3330:0.11062972 3331:0.091705553 3332:0.10012964 3333:0.11102866 3334:0.10012964 3335:-0.01534485 3336:-0.055809755 3337:0.15955253 3338:0.19048506 3339:0.13166425 3340:0.034143984 3341:0.059747852 3342:-0.034090895 3343:0.062645696 3344:0.30238658 3345:-0.092129089 3346:0.01969956 3347:0.10640615 3348:-0.15047987 3349:0.15581085 3350:0.085929103 3351:0.047408909 3352:-0.020165248 3353:0.057763252 3354:0.063069351 3355:-0.074750543 3356:-0.024489487 3357:0.0028378917 3358:0.10659764 3359:-0.3085466 3360:0.18486552 3361:-0.033931009 3362:0.025041096 3363:-0.09697789 3364:0.025041096 3365:0.025041096 3366:0.026870197 3367:0.087196827 3368:0.025041096 3369:0.034467027 3370:0.034467027 3371:-0.0153877 3372:-0.0153877 3373:-0.0153877 3374:0.083308458 3375:-0.0153877 3376:-0.0153877 3377:0.2842674 3378:-0.0153877 3379:0.11514907 3380:-0.0074542328 3381:-0.32657516 3382:-0.0045600911 3383:-0.020038979 3384:-0.26069081 3385:0.030222807 3386:-0.32138628 3387:0.014456298 3388:-0.077892624 3389:0.10093603 3390:0.11808144 3391:-0.028834717 3392:-0.0082310196 3393:0.06873668 3394:-0.0043355161 3395:-0.020805476 3396:-0.13299188 3397:-0.050160605 3398:0.21309021 3399:-0.0043355161 3400:-0.35086074 3401:-0.041579857 3402:0.033686511 3403:-0.11437421 3404:-0.051828083 3405:-0.14880945 3406:0.063917339 3407:0.13765436 3408:-0.13490947 3409:0.063917339 3410:0.10769096 3411:-0.01608263 3412:-0.0012197653 3413:-0.092047453 3414:0.05456778 3415:0.047485478 3416:-0.0077762762 3417:0.14483958 3418:0.14483958 3419:0.32126492 3420:-0.079798214 3421:0.19786912 3422:-0.23397318 3423:0.16729307 3424:-0.040324133 3425:0.16729307 3426:0.16888998 3427:0.18480878 3428:0.18480878 3429:0.084633298 3430:0.18480878 3431:0.15818468 3432:0.17059988 3433:-0.072312593 3434:-0.075919442 3435:0.06329675 3436:0.057715349 3437:0.057715349 3438:-0.061601534 3439:0.091969363 3440:0.19327943 3441:0.26751691 3442:0.16903079 3443:0.0012383173 3444:-0.2072003 3445:-0.014106044 3446:0.041372683 3447:-0.14312738 3448:0.15804999 3449:0.13773286 3450:0.11788788 3451:0.0037663332 3452:-0.013257817 3453:-0.013257817 3454:-0.021131555 3455:0.080610879 3456:0.15078679 3457:-0.013257817 3458:-0.084564298 3459:-0.084564298 3460:-0.14570403 3461:-0.084564298 3462:-0.18945563 3463:-0.028253656 3464:-0.091638982 3465:-0.011933519 3466:-0.010929649 3467:-0.12303945 3468:-0.011933519 3469:-0.011933519 3470:-0.025984097 3471:-0.011933519 3472:0.23128639 3473:0.011412833 3474:-0.044891685 3475:-0.015443749 3476:0.075164996 3477:0.05592645 3478:0.10896989 3479:0.05592645 3480:0.089359947 3481:-0.071620993 3482:-0.12069874 3483:0.024113689 3484:0.045042593 3485:0.045042593 3486:0.045042593 3487:0.02126357 3488:0.045042593 3489:0.028441137 3490:-0.0036639064 3491:0.041253414 3492:0.088294186 3493:-0.12920992 3494:-0.12045299 3495:-0.039831653 3496:-0.040476803 3497:0.0097350739 3498:-0.3863073 3500:0.16326091 3501:-0.090892538 3502:-0.083245695 3503:-0.090892538 3504:0.017947407 3505:-0.090892538 3506:-0.083245695 3507:0.11230846 3508:-0.15076384 3509:-0.011464626 3510:0.175367 3511:-0.1119294 3512:0.027323768 3513:0.041170757 3514:0.1437394 3515:0.10047996 3516:0.1437394 3517:0.1437394 3518:0.13278282 3519:0.087018535 3520:0.055356413 3521:0.17614844 3522:0.17614844 3523:0.15663542 3524:0.039289903 3525:0.039289903 3526:0.039289903 3527:-0.095396057 3528:-0.094127454 3530:-0.021573933 3531:-0.035013538 3532:0.12099104 3533:0.012849118 3534:0.14338598 3535:-0.029626235 3536:-0.029626235 3537:-0.029626235 3538:-0.029626235 3539:-0.02713377 3540:-0.029626235 3541:0.038954582 3542:0.0089264335 3543:0.064463653 3544:0.0089264335 3545:0.055048902 3546:0.052513599 3547:0.050668914 3548:0.13396998 3549:0.27071074 3550:0.09005978 3551:0.062236633 3552:0.0025929324 3553:-0.0051719034 3554:0.009898643 3555:0.20697479 3556:-0.0044924463 3557:0.009898643 3558:0.0090657044 3559:0.009898643 3560:0.015725607 3561:0.23116019 3562:-0.19708358 3563:-0.19925226 3564:0.1675089 3565:0.048152234 3566:-0.06493523 3567:0.17528956 3568:0.059393756 3569:0.19998971 3570:0.22862932 3571:0.31942394 3572:0.24618706 3573:-0.072529614 3574:-0.10845349 3575:-0.2396379 3576:0.077263638 3577:-0.14929682 3578:-0.1029894 3579:-0.19065242 3580:0.038190834 3581:0.068152279 3582:0.068152279 3583:0.093200237 3584:0.31387964 3585:0.22956297 3586:0.052007612 3587:-0.052163545 3588:-0.1552009 3589:-0.023407213 3590:0.059649304 3591:0.059649304 3592:0.059649304 3593:0.059649304 3594:0.059649304 3595:-0.092660956 3596:0.12761903 3597:0.059649304 3598:-0.014885646 3599:0.059336036 3600:0.023480199 3601:-0.14791183 3602:-0.14791183 3603:-0.13546841 3604:0.26655993 3605:-0.10158208 3606:-0.10158208 3607:0.10204285 3608:-0.12108857 3609:0.40747121 3610:-0.021393562 3611:0.014515882 3612:-0.065560132 3613:-0.02126847 3614:0.16950263 3615:0.21254078 3616:0.0043989625 3617:0.058226585 3618:0.058226585 3619:0.058226585 3620:-0.060439795 3621:-0.075704612 3622:-0.013821914 3623:0.058226585 3624:-0.054379839 3625:-0.027165238 3626:0.4069981 3627:0.26809683 3628:0.12482196 3629:0.017479422 3630:0.071852349 3631:0.071852349 3632:0.052402202 3633:-0.020657308 3634:0.052402202 3635:0.095193662 3636:0.052402202 3637:0.030485004 3638:0.078135937 3639:0.20075577 3640:0.021353696 3641:0.021353696 3642:0.044933997 3643:0.021353696 3644:0.14381059 3645:-0.015223742 3646:-0.045977876 3647:0.026398109 3648:-0.0054053906 3649:0.10175092 3650:-0.094161339 3651:0.24827538 3652:-0.33721495 3653:0.0067924941 3654:0.0039187656 3655:0.0039187656 3656:-0.1094797 3657:0.042009372 3658:-0.16588989 3659:-0.066190973 3660:0.1033355 3661:0.05166775 3662:0.0037270156 3663:0.05166775 3664:0.05166775 3665:-0.03569825 3666:-0.056045938 3667:-0.19311032 3668:0.10076817 3669:-0.26270288 3670:0.33808109 3671:0.055895958 3672:0.024040379 3673:0.0096619446 3674:-0.023915639 3675:0.020232974 3676:0.025097508 3677:-0.023915639 3678:-0.023915639 3679:-0.017576013 3680:-0.023915639 3681:-0.085470669 3682:0.014126195 3683:-0.023915639 3684:-0.023915639 3685:-0.023915639 3687:-0.13299999 3688:0.30896541 3689:0.061458893 3690:0.055387683 3691:0.061458893 3692:-0.09080144 3693:-0.09080144 3694:-0.091866918 3695:-0.09080144 3696:-0.09080144 3697:0.19142766 3698:-0.33128771 3699:-0.32438439 3700:-0.17967939 3701:-0.10965271 3702:0.090159528 3703:-0.10965271 3704:-0.10965271 3705:-0.10965271 3706:-0.037436161 3707:0.0022646086 3708:-0.037436161 3709:0.10412058 3710:0.0087200915 3711:-0.0029574779 3712:-0.037280351 3713:0.13401216 3714:0.0087200915 3715:0.0087200915 3716:-0.018499397 3717:0.0087200915 3718:0.0087200915 3719:0.098690115 3720:0.078545295 3721:0.04472303 3722:0.04472303 3723:0.013856309 3724:0.33620334 3725:0.017209893 3726:0.34562674 3727:0.083625771 3728:-0.027644435 3729:-0.0096851951 3730:0.017209893 3731:0.017209893 3732:-0.047451541 3733:-0.047451541 3734:-0.047451541 3735:-0.16584143 3736:-0.19203037 3737:0.0099823726 3738:0.22098109 3739:0.15148555 3740:0.087311402 3741:0.087311402 3742:0.087311402 3743:0.087311402 3744:-0.19683123 3745:0.087311402 3746:0.012593645 3747:0.087311402 3748:0.087311402 3749:0.075004302 3750:0.070097245 3751:0.087311402 3752:-0.1385334 3753:-0.023778232 3754:-0.049705002 3755:-0.1154825 3756:-0.12451745 3757:-0.02850337 3758:-0.02850337 3762:-0.036528122 3764:-0.12428308 3766:0.12635015 3771:-0.030195789 3773:0.087515675 3774:-0.012028868 3775:0.065379523 3776:-0.019938627 3777:-0.015175886 3778:-0.012028868 3779:-0.11081392 3780:-0.095832422 3781:-0.095832422 3782:-0.089309908 3783:-0.027711485 3784:-0.095832422 3785:-0.047598392 3786:0.054368176 3787:0.0082650753 3788:-0.047598392 3789:-0.06710019 3790:0.0028301415 3791:-0.10024703 3792:-0.077538766 3793:-0.10581903 3795:0.44455138 3797:0.10187343 3798:0.17839432 3799:0.35366574 3800:-0.047930874 3801:-0.047930874 3802:0.027634451 3803:0.027634451 3804:-0.16775817 3805:-0.26705873 3806:0.027634451 3807:0.027634451 3808:-0.066670746 3809:0.027634451 3810:0.055268902 3811:0.027634451 3812:0.11319309 3813:0.027634451 3814:-0.067542858 3815:-0.067542858 3816:0.23334785 3817:0.071970075 3818:-0.041269477 3819:-0.056752671 3820:0.39709312 3821:-0.084878772 3822:-0.11708654 3823:-0.094543755 3824:0.0155815 3825:-0.0078447862 3826:-0.084822893 3827:0.097401842 3828:-0.0087557165 3829:-0.045589354 3830:0.097401842 3831:0.044870794 3832:0.054479487 3833:0.10824201 3834:0.073144197 3835:0.037527878 3836:-0.11665578 3837:0.037527878 3838:0.036090773 3839:-0.097523674 3840:0.29795527 3841:-0.024032459 3842:0.081146784 3843:0.10065299 3844:0.0049218186 3845:0.14063109 3846:0.070234381 3847:0.011089373 3848:0.14274862 3849:0.033269159 3850:0.011089373 3851:-0.01916071 3852:0.011089373 3853:0.010156553 3854:0.011089373 3855:0.065566361 3856:0.011089373 3857:-0.06859073 3858:-0.11088011 3859:0.070327863 3860:-0.06859073 3861:0.11811427 3862:-0.06859073 3863:-0.06859073 3864:-0.14587614 3865:-0.065672986 3866:-0.065672986 3867:0.044851467 3868:0.097654983 3871:-0.0017681614 3872:-0.0017681614 3873:0.11734468 3874:-0.048299823 3875:-0.0017681614 3876:0.082947999 3877:-0.09572345 3878:0.10076883 3879:0.061380476 3880:0.32967588 3881:0.13064158 3882:-0.14018747 3883:-0.0088784881 3884:-0.11982268 3885:0.059734561 3886:0.05531716 3887:-0.0088784881 3888:-0.0088784881 3889:-0.0088784881 3890:-0.0088784881 3891:0.054351542 3892:-0.0088784881 3893:0.077867448 3894:0.058022846 3895:-0.076329663 3896:0.047276121 3897:-0.014556239 3898:-0.085098989 3899:0.064843446 3900:0.025723187 3901:0.025723187 3902:-0.019052871 3903:0.16985705 3904:0.13066554 3905:0.10377604 3906:-0.027853228 3907:-0.06872604 3908:0.026773758 3909:-0.027853228 3910:-0.027853228 3911:-0.027853228 3912:0.023343105 3913:-0.078510411 3914:-0.023396332 3915:-0.16402479 3916:0.017005349 3917:-0.023396332 3918:0.0098397052 3919:0.18661059 3920:0.022152113 3921:-0.17982259 3922:0.12393159 3923:0.083852597 3924:0.027940648 3925:-0.061039574 3926:-0.078196697 3927:-0.13132879 3928:0.304544 3929:-0.12099313 3931:0.087896913 3932:0.11672474 3933:-0.15897724 3934:-0.14642812 3935:-0.045381475 3936:-0.14830466 3937:0.043501768 3938:0.16173179 3940:-0.12513271 3941:-0.031765494 3942:-0.099678926 3943:0.050505936 3944:-0.0044147531 3945:0.057924036 3946:0.10696073 3947:-0.13009652 3948:0.10696073 3949:0.010628286 3950:-0.12798621 3951:0.17365173 3952:0.081486627 3953:-0.09923365 3954:-0.12229754 3955:0.0060256287 3956:0.059984345 3957:-0.018349152 3958:-0.055568762 3959:-0.15070888 3960:-0.18492998 3961:-0.18492998 3962:-0.18492998 3963:-0.05398101 3964:0.16190311 3965:-0.15405291 3966:0.046264883 3967:-0.15860304 3968:-0.11536583 3969:-0.21150617 3970:-0.041496575 3971:-0.23014264 3972:0.1380063 3973:0.094910763 3974:0.077577911 3976:-0.062273581 3979:-0.0007751481 3980:-0.026385983 3981:-0.0007751481 3982:-0.0007751481 3983:-0.038746171 3984:0.051622998 3985:0.20035708 3986:-0.088940829 3987:-0.28486285 3988:0.10300004 3989:-0.086525045 3990:-0.22621486 3991:0.019847425 3992:0.019847425 3993:0.018177824 3994:0.018177824 3996:-0.10597276 3998:-0.026770296 3999:-0.026770296 4000:0.080058657 4001:-0.049192928 4002:-0.17485695 4003:-0.29220554 4004:0.010769277 4005:0.014246088 4006:0.010466977 4007:-0.014833175 4008:0.0095864497 4009:-0.0097351493 4010:0.10605757 4011:0.041455913 4012:-0.066062517 4013:-0.066062517 4014:0.12995821 4015:-0.044578265 4016:-0.05605356 4017:-0.020787142 4018:-0.020787142 4019:0.057624437 4020:0.05929837 4022:-0.039992031 4024:-0.02577859 4025:-0.028546685 4026:0.15732397 4027:0.035842191 4028:0.035842191 4029:0.035842191 4030:-0.029811637 4031:-0.092183262 4032:0.035842191 4033:0.035842191 4034:-0.021537442 4035:0.035842191 4036:-0.081685685 4037:-0.15477611 4038:0.025540104 4039:0.076829113 4041:0.034786608 4042:0.10655858 4043:-0.061634652 4044:-0.055743221 4045:-0.19940522 4046:0.011744048 4047:0.1889594 4049:0.113956 4050:0.15403695 4051:0.14107791 4052:-0.060349897 4053:0.20548126 4054:-0.0037420255 4055:-0.0034271628 4056:-0.015695767 4057:-0.015695767 4058:-0.015695767 4059:-0.20203969 4060:-0.015695767 4061:-0.015695767 4062:-0.080603063 4063:-0.069084205 4064:-0.15872248 4065:-0.069084205 4066:-0.069084205 4067:-0.069084205 4068:-0.13137391 4069:-0.1434415 4070:-0.1178076 4071:0.36514544 4072:-0.543607 4073:0.30799553 4074:0.36514544 4075:-0.14150961 4076:-0.15908009 4077:-0.063116491 4078:0.23333444 4080:0.0087245489 4081:0.063139774 4082:0.24114792 4083:0.038128335 4084:0.038128335 4085:0.038128335 4086:0.12144811 4087:0.038128335 4088:0.1264991 4089:0.078568801 4090:0.25616506 4091:0.0050924462 4092:0.0098067299 4093:-0.090379886 4094:-0.005800053 4095:-0.08999534 4096:-0.24014656 4097:0.19579822 4099:-0.099629246 4100:-0.0033396422 4101:0.1225566 4102:0.14979526 4103:0.05733877 4104:0.05733877 4105:0.0681329 4106:0.13678513 4107:0.0681329 4108:0.095020533 4109:0.0681329 4110:0.0681329 4111:0.0681329 4112:0.0681329 4113:0.018133895 4114:0.13298041 4115:-0.067621768 4116:-0.032758832 4117:-0.17902519 4118:-0.067621768 4119:0.14363737 4120:-0.10681397 4122:0.19134055 4123:-0.29594165 4124:-0.010941327 4125:-0.16172911 4126:-0.078989983 4127:-0.078989983 4128:0.0060109189 4129:-0.066004492 4130:-0.05454253 4131:0.019480644 4132:0.17411369 4133:0.019480644 4134:0.10850374 4135:-0.22629681 4136:0.089673705 4137:-0.032931522 4138:0.00066443859 4139:-0.036724057 4140:-0.054538369 4141:-0.031602077 4142:-0.093526863 4143:-0.024019387 4144:0.14909345 4145:-0.23222473 4146:-0.097116627 4147:-0.13280548 4148:-0.097116627 4149:0.1070658 4150:0.1453786 4151:0.1453786 4152:-0.026788183 4153:-0.16433036 4154:-0.026788183 4155:-0.051437762 4156:0.042499959 4157:-0.11331908 4158:0.085464828 4159:0.18395545 4160:-0.13491388 4161:-0.0074368557 4162:-0.0074368557 4163:-0.0074368557 4164:-0.0074368557 4165:-0.0074368557 4166:0.12792329 4167:0.096394189 4168:0.096394189 4169:-0.22427236 4170:0.21755739 4171:0.13574027 4172:0.13574027 4173:-0.017227434 4174:-0.2111678 4175:0.24814272 4176:-0.017227434 4177:-0.20257589 4178:-0.017227434 4179:0.1323002 4180:0.026093815 4181:0.026093815 4182:-0.0018145802 4183:0.047143105 4184:-0.17605208 4185:0.047143105 4186:0.021970944 4187:0.078050897 4188:-0.054172453 4189:-0.054172453 4190:-0.035490524 4191:-0.0090627912 4192:-0.15105699 4193:-0.040950991 4194:-0.040950991 4195:-0.040950991 4196:-0.040950991 4197:0.27645433 4198:-0.20128241 4199:0.028782606 4200:-0.26233372 4201:0.069381624 4202:-0.0018592017 4203:-0.079292968 4204:0.0047210152 4205:-0.079292968 4206:-0.079292968 4207:0.052345239 4208:-0.056862574 4209:0.44544378 4210:0.0092851585 4211:0.0092851585 4212:0.0092851585 4213:-0.079279333 4214:-0.041395053 4215:-0.041395053 4216:-0.11361584 4217:0.21703221 4218:-0.041395053 4219:-0.056927565 4220:0.0034864591 4221:-0.0091888756 4222:0.087482981 4223:0.0034864591 4224:-0.063145034 4225:-0.063145034 4226:0.05174036 4227:-0.063145034 4228:-0.063145034 4229:0.28785288 4230:-0.20701267 4231:-0.17512581 4232:-0.069458805 4233:-0.1065411 4234:-0.069458805 4235:0.094459385 4236:0.069178954 4237:0.16819692 4238:0.0088928957 4239:0.069178954 4240:0.0088928957 4241:0.043203089 4242:0.0088928957 4243:-0.14444247 4244:-0.080561802 4245:-0.019915454 4246:-0.028391009 4247:-0.028391009 4248:-0.028391009 4249:0.086946547 4250:-0.028391009 4251:-0.11750355 4252:-0.028391009 4253:-0.028391009 4254:-0.028391009 4255:-0.028391009 4256:-0.10578334 4257:-0.21062818 4258:-0.054702651 4259:-0.033056471 4260:0.0044813589 4261:-0.11455753 4262:0.20107019 4263:0.075580053 4264:0.20060119 4265:0.056746699 4266:0.056746699 4267:0.11171068 4268:0.16148385 4269:0.030480277 4270:-0.17416145 4271:-0.030841164 4272:-0.1068358 4273:-0.15176812 4274:-0.020710105 4275:-0.020710105 4276:0.081124 4277:0.056962136 4278:0.044940509 4279:0.081124 4280:0.093349136 4281:-0.1070454 4282:-0.11079872 4283:-0.11079872 4284:-0.081785589 4285:-0.20853388 4286:-0.10555931 4287:-0.10555931 4288:-0.10555931 4289:-0.048336413 4290:-0.10555931 4291:0.03684175 4292:-0.098214969 4293:-0.033040471 4294:-0.033040471 4295:-0.031739425 4296:-0.033040471 4297:-0.19383234 4299:0.067035422 4302:0.025916591 4303:0.025916591 4304:0.025916591 4305:0.050015606 4306:-0.041845474 4307:0.024638904 4309:-0.038596544 4310:0.044837508 4311:0.05303264 4316:0.047049526 4317:0.03121786 4318:0.047049526 4319:-0.24459331 4320:-0.00056338724 4321:-0.10343178 4322:-0.021154109 4323:0.047671817 4324:-0.021869579 4325:0.089646094 4326:-0.12045784 4327:0.0060781389 4328:0.0057201488 4329:0.0057201488 4330:0.0057201488 4331:0.08006084 4332:0.0021910002 4333:0.15058407 4334:0.01976794 4335:-0.053662624 4336:-0.095169738 4337:-0.05943419 4338:0.01976794 4339:0.08093825 4340:0.02584463 4341:-0.040682323 4342:-0.017421125 4343:0.094509393 4344:0.2770687 4345:-0.052788626 4346:-0.046076275 4347:0.047500234 4348:-0.0051662801 4349:-0.0051662801 4350:0.00045818396 4351:-0.027672382 4352:0.00045818396 4353:-0.0064801946 4354:0.021898136 4355:-0.12764882 4356:0.32653853 4357:0.17325167 4358:-0.014870123 4359:0.018814817 4360:0.11443409 4361:0.11443409 4362:0.11443409 4363:0.16234609 4364:-0.056969192 4365:-0.028329039 4366:-0.028329039 4367:-0.028329039 4368:-0.0254218 4369:0.07704556 4370:-0.11372355 4371:-0.039651547 4372:0.013047234 4373:-0.039651547 4374:0.01721606 4375:-0.039651547 4376:-0.10046596 4377:-0.048697699 4378:-0.039651547 4379:-0.039651547 4380:-0.0953914 4381:-0.039651547 4382:-0.00052349071 4383:-0.093779467 4384:0.026085056 4385:0.14388344 4386:0.054133017 4387:-0.075747781 4388:0.10244033 4389:0.054133017 4390:-0.026778232 4391:0.054133017 4392:-0.02220344 4393:-0.021065231 4394:0.1150487 4395:0.042712096 4396:-0.021065231 4397:-0.14043471 4398:-0.089278437 4399:0.049669035 4400:-0.14469436 4401:-0.18569042 4405:0.01357635 4407:-0.11462821 4409:-0.02631693 4410:-0.006354488 4411:0.072452001 4412:0.024265461 4413:0.10056156 4414:0.024265461 4415:-0.12150884 4416:0.054920051 4417:0.0090217916 4418:-0.041529886 4419:-0.14060393 4420:0.066065557 4421:0.0023798316 4422:0.20849741 4423:-0.043351036 4424:-0.073946036 4425:-0.043351036 4426:-0.073946036 4427:-0.11159553 4428:-0.038251624 4429:-0.038251624 4430:0.22496946 4431:-0.048745137 4432:-0.046472386 4433:-0.16048639 4434:-0.16048639 4435:0.090415381 4436:0.090415381 4437:0.009920001 4438:-0.15569527 4439:0.14374331 4440:-0.23077983 4442:-0.020073669 4443:-0.026267996 4444:-0.024058107 4445:-0.0040295934 4446:-0.11055848 4447:-0.057158481 4448:-0.026267996 4449:-0.048471458 4450:0.19240731 4451:-0.026267996 4452:-0.026267996 4453:-0.12578207 4454:0.22601996 4455:0.14174868 4456:0.017957821 4457:0.072804168 4458:-0.028739767 4459:-0.11263324 4460:-0.017879074 4461:0.20694448 4462:0.20190214 4463:0.17279223 4464:0.2676937 4465:-0.14799853 4467:0.15362367 4468:0.15254511 4469:0.16655745 4470:0.17379406 4471:0.011420263 4472:0.076984271 4473:0.076984271 4474:-0.074189216 4475:-0.063527927 4476:-0.062283479 4477:0.041670449 4478:0.041670449 4479:0.023186738 4480:0.0087075317 4481:0.023186738 4482:0.023186738 4483:0.0022617106 4484:-0.11131136 4485:-0.22974129 4486:0.021510968 4487:-0.099837378 4488:-0.099837378 4489:-0.099837378 4490:0.0052132173 4491:-0.19603695 4494:-0.043094281 4495:0.0085306335 4496:0.0085306335 4497:0.0085306335 4498:0.0085306335 4499:-0.16741015 4500:0.013337975 4501:0.087115318 4502:0.0085306335 4503:-0.006369527 4504:0.0085306335 4505:0.0085306335 4506:0.30772716 4507:-0.084960595 4508:-0.011406432 4509:-0.066584259 4510:-0.011406432 4513:-0.1403719 4516:-0.099527344 4517:0.0038793292 4518:-0.00069397746 4519:0.0044761929 4520:0.0044761929 4521:0.0044761929 4522:0.052952036 4523:0.052952036 4524:0.18942931 4525:-0.021127973 4526:0.033356834 4527:-0.11757501 4528:0.12281971 4529:-0.042157579 4530:0.15969573 4531:0.053841151 4532:-0.05777495 4533:-0.086513579 4534:-0.12648819 4535:-0.024750067 4536:-0.059469108 4537:0.034584455 4538:0.013276937 4539:-0.12070392 4540:-0.15093628 4541:-0.087229706 4542:-0.17664857 4543:0.12681323 4544:0.080488667 4545:0.045233455 4546:-0.015075087 4547:0.11883925 4548:0.10916618 4549:-0.090445071 4550:-0.048608691 4551:0.0057809222 4552:0.0057809222 4553:0.015071852 4554:-0.11826957 4555:-0.018816007 4556:-0.061008476 4557:-0.061008476 4558:-0.058802877 4559:-0.07137876 4560:0.10723428 4561:-0.20217139 4562:0.0013898165 4563:-0.15036207 4564:-0.078042485 4565:0.053721491 4566:-0.014764315 4567:0.072238952 4568:-0.042141821 4569:-0.020964211 4570:-0.033948701 4571:-0.29547828 4572:-0.15052356 4573:0.17130397 4574:-0.15780912 4575:-0.15851513 4576:0.065918073 4577:-0.2510024 4578:-0.12744053 4579:-0.23519126 4580:0.2996408 4581:-0.035701469 4584:0.020827821 4585:-0.059903208 4586:0.039247017 4587:-0.053150233 4588:0.22619721 4589:-0.1098287 4594:-0.053974841 4595:0.0070842043 4596:-0.043433797 4597:0.038238499 4598:0.041750811 4599:0.23704526 4600:0.0047060736 4601:0.17505278 4602:0.17551842 4603:0.1441998 4604:0.059290424 4605:0.041750811 4606:0.041750811 4607:0.03644482 4608:-0.023338759 4609:0.041750811 4610:0.041750811 4611:0.068148427 4612:-0.023335386 4613:-0.13947789 4614:-0.023335386 4615:-0.023335386 4616:-0.023335386 4617:-0.050906032 4618:-0.023335386 4619:0.082893945 4620:0.20650606 4621:-0.05791546 4622:-0.042735487 4623:-0.05791546 4624:-0.22936353 4625:-0.05791546 4626:-0.024980815 4627:-0.0027989738 4628:-0.11518226 4629:-0.11518226 4630:-0.11518226 4631:-0.10222301 4632:-0.045215271 4633:-0.020432245 4634:0.077614173 4635:-0.095950119 4636:0.17437345 4637:0.09310741 4638:0.17437345 4639:0.13663754 4640:-0.08675044 4641:-0.04359217 4642:-0.08675044 4643:-0.04359217 4644:0.03497776 4645:0.027835427 4646:-0.13268444 4647:-0.15996207 4648:-0.040012248 4649:-0.042420343 4650:0.08656808 4651:0.08656808 4652:0.0083136493 4653:0.080236703 4654:-0.13755524 4655:-0.047052771 4656:0.004915507 4657:-0.28336632 4658:0.17388204 4659:-0.20982347 4660:0.13679852 4661:0.11194599 4662:0.1233449 4663:0.12102053 4664:0.15737721 4665:-0.11574672 4666:-0.002659139 4667:-0.13157153 4668:0.046857871 4669:0.036453567 4670:0.036453567 4671:0.036453567 4672:0.036453567 4673:-0.021206338 4674:0.027352165 4675:-0.019777279 4676:0.044778187 4677:0.044778187 4678:-0.016138159 4679:0.0091590211 4680:-0.11495492 4681:-0.10780293 4682:-0.18407315 4683:0.014846139 4684:0.061156642 4685:0.065532185 4686:-0.10453377 4687:0.072670318 4688:0.027314277 4689:0.094965026 4690:0.27000573 4691:-0.1447103 4692:0.22524521 4693:-0.026453482 4694:-0.094617195 4695:-0.42511511 4696:0.25865501 4697:-0.017897509 4698:-0.052445494 4699:0.0125813 4700:-0.017897509 4701:0.094164766 4702:-0.012186881 4703:-0.017897509 4704:-0.035795018 4705:-0.090810962 4706:-0.053053916 4707:-0.076892979 4708:0.032065883 4709:-0.071836278 4710:-0.03521198 4711:-0.028143324 4712:0.075313084 4713:0.075313084 4714:0.20286737 4715:0.062603474 4716:-0.13600545 4717:-0.14386384 4718:0.10655086 4719:0.091732711 4720:-0.0079737091 4721:0.10655086 4722:-0.089844346 4723:0.04792051 4724:0.019870475 4725:0.019870475 4726:0.019870475 4727:0.068642564 4728:0.019870475 4729:0.054990791 4730:0.019870475 4731:-0.18508102 4732:0.099523842 4733:0.03106478 4734:0.03106478 4735:-0.042964805 4736:-0.026930949 4737:0.03106478 4738:0.03106478 4739:0.1512965 4740:0.091393866 4742:-0.055279035 4743:-0.11250465 4744:-0.10353208 4745:0.044584557 4746:-0.0953288 4747:-0.009588128 4748:-0.0953288 4749:-0.032980848 4750:0.21720411 4751:0.11106993 4752:-0.032980848 4753:-0.032980848 4754:0.08250466 4755:-0.08508943 4756:0.16538721 4757:0.16538721 4758:0.0062543619 4759:-0.17522098 4760:0.026121441 4761:-0.10799456 4762:-0.10799456 4763:0.005356872 4764:-0.081142977 4765:0.10790628 4766:-0.036207255 4767:-0.07479316 4768:-0.07479316 4769:-0.25647175 4770:0.15989551 4771:0.15989551 4772:0.2497492 4773:0.33295017 4774:0.10765421 4775:-0.11182307 4776:-0.025436776 4777:-0.025436776 4778:-0.025436776 4779:-0.025436776 4780:0.12624715 4781:0.10481535 4782:-0.056088872 4783:0.17209022 4784:-0.025436776 4785:-0.051052548 4786:0.16022128 4787:0.0056767678 4788:0.16022128 4789:-0.026636567 4790:0.10101141 4791:0.068670012 4792:0.050606731 4793:0.033215754 4794:-0.059794657 4795:0.11961685 4796:-0.011157833 4797:-0.043411471 4798:-0.010040554 4799:0.18941696 4800:0.021340115 4801:-0.0418166 4802:-0.2879785 4803:-0.082253948 4804:0.084576197 4805:0.084576197 4806:0.084576197 4807:-0.036009803 4808:0.059466109 4809:0.097449794 4810:0.059466109 4811:0.059466109 4812:-0.070058338 4813:-0.27600423 4814:0.068222649 4815:0.052308202 4816:0.068222649 4817:-0.21756645 4818:0.038473282 4819:0.030814717 4820:0.054207407 4821:-0.057444148 4822:-0.099717252 4823:-0.14107352 4824:-0.14107352 4825:0.058896028 4826:0.058896028 4827:0.058896028 4828:0.043360211 4829:-0.024814095 4830:-0.024814095 4831:-0.024814095 4832:-0.039825995 4833:-0.024814095 4834:0.15285546 4835:-0.024814095 4836:0.096076094 4837:-0.083461829 4838:-0.024814095 4839:-0.024814095 4840:-0.04686923 4841:-0.024814095 4842:0.023671305 4843:-0.21132155 4844:0.12203741 4845:0.048479602 4846:0.048479602 4847:0.048479602 4848:0.048479602 4849:0.011988138 4850:0.035663988 4851:0.048479602 4852:0.015020042 4853:0.1624689 4854:0.13822727 4855:0.0040574986 4856:0.35416043 4857:0.084535621 4858:0.076770432 4859:0.29580808 4860:-0.2615687 4861:-0.032591734 4862:-0.2464056 4863:-0.032591734 4864:0.0013852174 4865:-0.032591734 4866:-0.1741823 4867:-0.1741823 4868:-0.1741823 4869:0.067048945 4870:-0.043006536 4871:0.24776769 4872:0.078077957 4873:-0.052824005 4874:0.11494548 4875:-0.15460809 4876:-0.043006536 4877:0.030898917 4878:-0.0087691667 4879:-0.0087691667 4880:-0.0087691667 4881:0.02563775 4882:0.24656372 4883:-3.1988231e-05 4884:-3.1988231e-05 4885:-3.1988231e-05 4886:-0.042480525 4887:-3.1988231e-05 4888:-3.1988231e-05 4889:-0.020799855 4890:-0.0081975199 4891:0.064668253 4892:0.086329423 4893:-0.0036461102 4894:-0.0036461102 4895:-0.083650991 4899:-0.043905392 4900:-0.14433803 4901:0.24153763 4902:0.11897954 4903:0.21519043 4904:-0.016238561 4905:0.016548643 4906:0.26132751 4907:0.15655784 4908:0.13994023 4909:0.15902692 4910:0.14564799 4911:-0.03456191 4912:0.07508529 4913:-0.17786147 4914:0.15399222 4915:-0.02901672 4916:-0.012733706 4917:-0.0011933406 4918:0.34692535 4919:-0.075350568 4920:-0.15619397 4921:-0.15619397 4922:-0.05784725 4923:-0.15619397 4924:-0.25148812 4925:-0.12873651 4926:0.020040173 4927:0.020040173 4928:-0.058729663 4929:0.11931637 4930:0.11931637 4931:0.20349272 4932:0.061985917 4933:0.056321628 4934:-0.034076881 4935:0.061985917 4936:0.061985917 4937:0.061985917 4938:0.01163623 4939:0.083460428 4940:0.061985917 4941:0.056770843 4942:0.061985917 4943:0.25514209 4944:0.061985917 4945:0.071433909 4946:0.10301313 4947:0.071433909 4948:0.071433909 4949:0.071433909 4950:-0.025884833 4951:0.071433909 4952:0.12649439 4953:-0.15680806 4954:-0.059918437 4955:-0.0090162614 4956:-0.0090162614 4957:-0.0090162614 4958:-0.0090162614 4959:-0.0060994043 4960:0.44657636 4961:-0.21822353 4962:-0.0090162614 4963:0.079543278 4964:-0.2297038 4965:0.012505124 4966:0.076638348 4967:0.13403626 4971:0.52800244 4975:-0.11326011 4978:-0.15503541 4979:-0.16663563 4980:-0.14917128 4981:-0.088546775 4982:-0.033411428 4983:-0.004169804 4984:0.01721433 4985:-0.019540165 4986:-0.004169804 4987:-0.10979179 4988:-0.004169804 4989:0.039410628 4990:-0.004169804 4991:-0.004169804 4992:-0.004169804 4993:0.051791012 4994:-0.004169804 4995:-0.004169804 4996:0.32089987 4997:0.17665778 4998:0.19288525 4999:0.21012571 5000:-0.041113146 5001:-0.041113146 5002:0.094039142 5003:0.16393284 5004:0.0046196189 5005:0.042627502 5006:-0.03606547 5007:-0.056948602 5008:-0.03606547 5009:-0.013809026 5010:-0.03606547 5011:0.039549973 5012:-0.039524268 5013:-0.03606547 5014:-0.00079786405 5015:-0.034230269 5016:0.023463679 5017:-0.034230269 5018:0.063162707 5019:0.33510384 5022:0.12509882 5023:-0.019696914 5024:-0.028396206 5025:0.029468922 5026:0.10308188 5027:-0.23944771 5028:0.10389996 5029:0.029468922 5030:0.029468922 5031:0.029468922 5032:0.10685125 5034:0.032629915 5036:-0.13823043 5037:0.10066894 5038:-0.0070985546 5041:-0.084909886 5042:-0.44247141 5043:-0.077442296 5044:-0.18398698 5045:-0.14206314 5046:-0.14206314 5047:-0.10558063 5048:-0.14206314 5049:-0.041780658 5050:-0.041780658 5051:-0.041780658 5052:-0.041780658 5053:-0.00038154679 5054:0.029422486 5055:0.029422486 5056:-0.020070519 5057:0.031247338 5058:0.0077106417 5059:0.0077106417 5060:0.17202234 5061:0.17202234 5063:-0.062491182 5064:-0.044313919 5065:-0.044313919 5066:-0.19379394 5067:-0.10006551 5068:0.088610277 5069:-0.16619007 5070:-0.099829406 5071:-0.13634841 5072:-0.10006551 5073:-0.10006551 5074:0.010827904 5075:0.11152419 5076:0.010827904 5077:0.010827904 5078:0.010827904 5079:-0.29243591 5080:-0.22749759 5081:0.11898438 5082:0.091291308 5083:0.11898438 5084:0.11898438 5085:0.13362186 5086:0.11898438 5087:0.11898438 5088:0.11898438 5089:0.28104392 5090:0.16833638 5091:0.0039009987 5092:-0.046048332 5093:-0.046048332 5094:-0.063476413 5095:0.10516881 5096:0.046835631 5097:-0.053902239 5098:0.10516881 5099:0.15929666 5100:0.10516881 5101:0.0044952431 5102:0.15366401 5105:0.11711325 5107:-0.0097412504 5108:-0.0097412504 5109:-0.0097412504 5110:-0.06356623 5111:-0.0097412504 5112:0.11595278 5113:0.1356491 5114:0.096005775 5115:-0.065761536 5116:0.076557972 5117:-0.013436345 5118:0.010412742 5119:0.010412742 5120:0.075693779 5121:-0.2618598 5122:0.27126631 5123:0.040648766 5124:0.040648766 5125:0.040648766 5126:0.031499442 5127:-0.073408552 5128:-0.0031960506 5129:0.046751752 5130:-0.0029269767 5131:-0.31215087 5132:-0.0029269767 5133:0.34314069 5134:-0.0031960506 5135:-0.0031960506 5136:0.091995291 5137:0.091995291 5138:0.10044615 5139:0.10044615 5140:-0.15898781 5141:-0.14768475 5142:-0.25763795 5143:-0.011928977 5144:0.082901008 5145:0.31313965 5146:0.0075783096 5147:0.18891995 5148:0.11212939 5149:-0.018999314 5150:-0.025816787 5151:-0.025816787 5152:0.15900576 5153:0.15900576 5154:0.15900576 5155:0.0038090905 5156:0.0038090905 5157:0.017584113 5158:0.017584113 5159:0.017584113 5160:0.009077291 5161:0.017584113 5162:0.016104857 5163:0.35374272 5164:0.017584113 5165:0.017584113 5166:0.017584113 5167:0.33484033 5171:0.082804926 5172:0.097849712 5173:-0.13610919 5174:-0.072556183 5175:-0.098829418 5176:0.032616574 5177:0.011661169 5178:-0.01223018 5179:-0.012547686 5180:0.090203531 5181:-0.012547686 5182:-0.012547686 5183:-0.012547686 5184:-0.012547686 5185:-0.012547686 5186:0.035088018 5187:0.035088018 5188:0.035088018 5189:-0.10476302 5190:0.11769968 5191:0.035088018 5192:0.032136418 5193:0.035088018 5194:-0.023258163 5195:0.035088018 5196:0.19124059 5197:0.13396317 5198:-0.020002887 5199:0.022056773 5200:0.13598721 5201:-0.060706124 5202:0.097477987 5204:0.097873695 5205:0.21574417 5206:0.10588881 5207:0.052944403 5208:0.052944403 5209:0.052944403 5210:-0.081241652 5211:-0.081241652 5212:0.014254468 5213:0.011028412 5214:0.05804551 5215:0.011028412 5216:0.011028412 5217:-0.093753763 5218:-0.093753763 5219:0.07180988 5220:0.041103676 5221:0.07180988 5222:-0.031816579 5226:-0.0057057138 5227:0.0087950248 5228:0.097384408 5229:0.0096030068 5230:0.0096030068 5231:-0.1655719 5232:0.0096030068 5233:0.0095009636 5234:-0.02743775 5235:-0.023821151 5236:-0.063875169 5237:0.020970376 5238:-0.045075398 5239:0.14287908 5240:-0.090283036 5241:0.1204479 5242:0.053717833 5243:0.060718007 5244:0.060718007 5245:-0.045873944 5246:0.060718007 5247:0.060718007 5248:0.060718007 5249:0.060718007 5250:0.060718007 5251:0.060718007 5252:-0.03478507 5253:0.15656248 5254:-0.03478507 5255:-0.03478507 5256:0.49336648 5257:0.084295191 5258:0.25186688 5259:0.14246427 5260:0.15555067 5261:0.15555067 5262:0.21041076 5263:0.15941665 5264:-0.0037027139 5265:-0.04281408 5266:-0.0040427996 5267:-0.0040427996 5268:-0.0040427996 5269:0.043974016 5270:0.043974016 5271:0.04363871 5272:0.058672674 5273:0.058672674 5274:0.058672674 5275:-0.11570714 5276:-0.087153547 5277:-0.047681414 5278:-0.022879269 5279:-0.036736928 5280:-0.034762997 5281:-0.1552493 5282:-0.14218828 5283:0.3497265 5284:-0.1552493 5285:-0.1552493 5288:0.0080130184 5289:0.085883848 5290:0.071179599 5291:0.071179599 5292:0.071179599 5293:0.067233384 5294:0.071179599 5295:-0.037860774 5296:0.011509484 5297:-0.055616003 5298:-0.050709676 5299:0.06538368 5300:0.063927293 5301:-0.38477865 5302:-0.033984799 5303:0.05050097 5304:-0.072628878 5305:-0.069294706 5307:0.10427263 5308:-0.0037449833 5309:0.39604968 5310:0.053665876 5311:0.053665876 5312:0.053665876 5313:0.053665876 5314:0.053665876 5315:-0.068599604 5316:0.054499816 5317:-0.022531396 5318:-0.022531396 5319:-0.066192321 5320:-0.06062362 5321:-0.066192321 5322:-0.066192321 5323:-0.0014806555 5324:-0.092217907 5325:0.036605906 5326:-0.010206924 5327:-0.12658376 5328:-0.12658376 5329:-0.08491645 5330:-0.037228867 5331:-0.12658376 5332:-0.23335735 5333:0.067372255 5334:0.067372255 5335:-0.1262303 5336:-0.019855876 5337:0.067372255 5338:0.03257193 5339:0.043553174 5340:0.087106347 5341:0.20034279 5342:0.043553174 5343:0.043553174 5344:0.0056155976 5345:0.039889283 5346:0.043553174 5347:-0.020231586 5348:0.043553174 5349:0.023369577 5350:0.063042492 5351:0.063042492 5352:0.06465742 5353:0.0034550976 5354:0.14137822 5355:-0.12280942 5356:0.22232179 5357:0.061493129 5358:0.061493129 5359:0.061493129 5360:-0.23534521 5361:-0.17922337 5362:-0.027563997 5363:0.12825635 5364:-0.011674168 5365:0.14810871 5366:0.0064560752 5367:0.062409159 5368:-0.055294268 5370:-0.026250439 5371:-0.082031824 5373:0.078109577 5374:0.078109577 5375:0.10655425 5376:0.052907787 5377:-0.0020690849 5378:0.050288364 5379:-0.20901756 5380:-0.0020690849 5381:-0.07941892 5382:0.032499868 5383:0.056181651 5384:0.15541697 5385:0.031373579 5386:0.022074152 5387:0.056181651 5388:0.056181651 5389:0.056181651 5390:0.41801247 5391:0.53440815 5392:0.027947525 5393:0.027117321 5394:-0.10101843 5395:0.054663762 5396:0.095003672 5397:0.095003672 5398:0.041673582 5399:0.095003672 5400:0.08701057 5401:0.095003672 5402:0.095003672 5403:0.095003672 5404:-0.091907471 5405:0.095003672 5406:-0.14837369 5407:-0.10684239 5408:-0.13594989 5409:-0.13594989 5410:-0.028739037 5411:0.0406936 5412:-0.011036603 5413:-0.011036603 5414:0.072551668 5415:-0.012560223 5416:-0.11371186 5417:-0.011036603 5418:-0.011036603 5419:0.12057351 5420:-0.011036603 5421:-0.011036603 5422:-0.011036603 5423:0.25468239 5424:0.065282546 5425:-0.040111542 5426:-0.040111542 5427:-0.040111542 5428:0.0087813819 5429:-0.081106037 5430:-0.040111542 5431:-0.1670424 5432:-0.046744756 5433:-0.046744756 5434:-0.18245208 5435:-0.22401111 5436:0.041536383 5437:-0.10771303 5438:0.11735662 5439:-0.15061834 5440:0.00027718689 5441:0.00027718689 5442:0.00027718689 5443:0.03077241 5444:0.00027718689 5445:0.00027718689 5446:0.00027718689 5447:0.00027718689 5448:0.00027718689 5449:-0.027495706 5450:0.00027718689 5451:0.045145288 5452:0.16636194 5453:0.0006779196 5454:0.021894671 5455:0.021894671 5456:-0.074721567 5457:-0.02753276 5458:0.077637941 5459:0.077637941 5460:0.077637941 5461:0.033951271 5462:0.028745588 5463:0.077637941 5465:0.054296918 5468:0.29241368 5469:0.16454685 5470:-0.22705397 5471:-0.18042813 5472:0.16084884 5473:0.042288437 5474:0.062758423 5475:0.062758423 5476:0.10895479 5477:0.062758423 5478:0.055339549 5479:0.060422882 5480:0.067824103 5481:0.010102695 5482:0.010102695 5483:0.010102695 5484:0.010102695 5485:0.010102695 5486:0.010102695 5487:0.010102695 5488:0.097849011 5489:0.097849011 5490:0.19542222 5491:0.22439119 5492:0.14407803 5493:0.31814942 5494:0.3401309 5495:-0.24549195 5496:0.077528827 5497:0.081335217 5498:-0.13056692 5499:0.049014963 5500:0.1038939 5501:0.084830664 5502:-0.12721443 5503:0.049014963 5504:-0.16291976 5505:-0.10798642 5506:-0.019443935 5507:0.11469022 5508:0.035699382 5509:-0.04072028 5510:-0.16237171 5511:0.071672544 5512:0.08000119 5513:0.071672544 5514:0.050767612 5515:0.2991505 5516:0.16538237 5517:-0.029224543 5519:0.022057053 5520:0.043867026 5521:0.017444624 5522:0.14681701 5523:-0.078359984 5524:-0.0055802087 5525:-0.20117119 5526:-0.0055802087 5527:-0.011160417 5528:-0.011160417 5529:-0.0055802087 5530:-0.0055802087 5531:-0.0055802087 5532:-0.26697302 5533:0.033461291 5534:-0.011796682 5535:-0.0055802087 5536:-0.0055802087 5537:-0.021356948 5538:-0.021356948 5539:0.091005199 5540:0.091005199 5541:0.042556215 5542:0.042556215 5543:0.016877348 5544:0.042556215 5545:0.042556215 5546:0.042556215 5547:0.21983065 5548:0.24002376 5549:0.082462624 5550:0.095941231 5552:0.064128019 5553:-0.063347727 5554:0.012465507 5555:0.026410885 5556:-0.030672558 5557:-0.030672558 5558:0.14399846 5559:-0.030672558 5560:-0.090393774 5561:-0.19121449 5562:-0.026450021 5563:-0.030490341 5564:-0.034388516 5565:-0.094656743 5566:-0.15291448 5567:-0.13436645 5568:-0.035950784 5569:-0.035950784 5570:-0.035950784 5571:-0.035950784 5572:-0.20215409 5573:-0.20215409 5574:-0.20215409 5575:-0.33746085 5576:-0.011043683 5577:0.035063971 5578:-0.25916985 5579:0.031114612 5580:-0.014447665 5581:-0.014447665 5582:-0.16806121 5583:-0.014447665 5584:0.011808147 5585:0.05451043 5586:0.51312721 5587:0.052315786 5588:-0.0069963457 5590:-0.13220578 5591:-0.021992169 5592:-0.025604682 5593:-0.025604682 5595:-0.011181787 5596:-0.011181787 5597:-0.011181787 5598:0.10711621 5599:0.034878075 5600:-0.058129828 5601:0.0960951 5610:-0.10358871 5613:-0.02863013 5614:-0.14074898 5615:-0.14074898 5616:-0.1337911 5617:0.03310753 5618:-0.046499602 5619:-0.019343978 5620:0.03310753 5621:0.031924576 5622:0.0854581 5623:0.11565886 5624:0.32514313 5625:0.21916959 5626:0.019450681 5627:0.019450681 5628:-0.059607957 5629:0.13947505 5630:-0.059607957 5631:-0.057443794 5632:0.22196521 5633:-0.075170361 5634:0.037943166 5635:0.089280933 5636:-0.06903442 5637:-0.059072722 5638:-0.06903442 5639:0.16418523 5640:0.098423049 5641:0.082101427 5642:0.071153745 5643:0.082101427 5644:0.082101427 5645:0.082101427 5646:0.031486209 5647:0.31574026 5648:0.029794376 5649:0.31574026 5650:0.31574026 5651:-0.00037487037 5652:0.099548735 5653:0.20376667 5654:0.0014848181 5655:-0.11618451 5656:0.074841417 5657:-0.0055216635 5658:0.0060690325 5659:-0.21496056 5660:-0.0055216635 5661:-0.0055216635 5662:-0.14903721 5663:-0.0055216635 5664:-0.071251176 5665:0.084712617 5666:0.084712617 5667:0.084712617 5668:0.084712617 5669:0.084712617 5670:0.084712617 5671:0.015286909 5672:0.015286909 5673:0.015286909 5674:0.015286909 5675:0.15881997 5677:-0.076446995 5681:-0.039669015 5682:-0.039669015 5683:-0.035804037 5684:-0.31709892 5685:-0.035804037 5686:0.044733126 5687:-0.035804037 5688:-0.035804037 5689:-0.13352868 5690:-0.13352868 5691:-0.13352868 5692:0.28776601 5693:-0.30354974 5694:0.048116181 5695:0.070692614 5696:0.10140419 5697:-0.0080115469 5698:-0.32687372 5699:-0.0080115469 5700:-0.0080115469 5701:0.25983873 5702:0.16822127 5703:-0.061320685 5704:0.056453146 5705:0.20646615 5706:-0.010167197 5707:0.012636485 5708:-0.082575716 5709:0.012144255 5710:-0.32866874 5711:-0.069136515 5712:0.065901577 5713:0.065901577 5717:0.0045353998 5718:0.0085903564 5719:0.0041538449 5720:0.078654326 5721:0.25827613 5722:0.049700107 5723:0.049700107 5724:-0.025435481 5725:0.049700107 5726:0.049700107 5727:0.11987277 5728:0.12780727 5729:-0.15144728 5730:0.049700107 5731:0.06188621 5732:0.06188621 5733:0.062148094 5734:0.06188621 5735:-0.28954679 5736:0.035118949 5737:0.17138276 5738:-0.042385425 5739:-0.042385425 5740:-0.11374135 5741:0.147608 5742:0.082876809 5743:0.147608 5744:0.07160563 5745:0.147608 5746:0.147608 5747:0.33242244 5748:0.19088905 5749:0.072525769 5750:0.147608 5751:0.147608 5752:0.147608 5753:-0.017605767 5754:0.069270946 5755:8.949358e-05 5756:0.026653597 5757:-0.017605767 5758:-0.017605767 5759:-0.017603347 5760:-0.017605767 5761:-0.0203883 5762:0.047833901 5763:0.13168222 5764:0.026113838 5766:0.076404408 5767:-0.14991878 5769:0.0953677 5770:0.089872718 5771:0.063523896 5773:-0.13890277 5774:-0.15097681 5775:-0.15097681 5776:-0.085423931 5777:-0.15097681 5778:0.036196508 5779:-0.011216601 5780:-0.011216601 5781:-0.011216601 5782:-0.011216601 5783:-0.011216601 5784:-0.10193191 5785:-0.070396826 5786:-0.099257536 5787:-0.0382163 5788:-0.0382163 5789:0.014099243 5790:0.10870899 5791:-0.0382163 5792:0.24554139 5793:0.15352783 5794:-0.12223925 5795:-0.26943409 5796:-0.016666716 5797:-0.018197877 5798:0.042161178 5799:-0.1511617 5800:-0.018197877 5801:0.081164889 5802:-0.018197877 5803:-0.018197877 5804:-0.018197877 5805:-0.052113064 5806:-0.049133874 5807:-0.020946503 5808:-0.020946503 5809:0.055192366 5810:0.055329349 5811:-0.024372514 5812:0.023596512 5813:0.055192366 5814:0.043863397 5815:0.030295057 5816:-0.096571334 5817:-0.10526907 5818:0.091467433 5819:0.091467433 5820:0.076582238 5821:-0.015848316 5822:0.12553902 5823:0.10929909 5824:0.10929909 5825:0.093175247 5829:-0.12870285 5831:0.052287955 5832:0.052287955 5833:0.29085463 5834:-0.020991679 5835:0.10196072 5839:-0.23622088 5840:0.04677882 5841:0.070319943 5842:-0.0087057222 5843:-0.018346958 5844:0.070319943 5845:0.070319943 5846:0.070319943 5847:0.064403877 5848:0.070319943 5849:0.070319943 5850:0.070319943 5851:-0.021184957 5853:0.094350822 5854:0.13273045 5855:0.13273045 5856:-0.23824075 5857:0.13273045 5858:0.10358163 5859:0.22328731 5860:-0.17331766 5861:-0.177058 5862:-0.177058 5864:-0.0013874628 5865:-0.13178937 5866:0.025415767 5867:0.032714296 5868:0.032714296 5869:0.032714296 5870:0.0052804425 5871:0.032714296 5872:0.22900414 5873:0.22900414 5874:0.22900414 5875:-0.072805904 5876:0.22033265 5877:-0.37807229 5878:-0.17552641 5879:-0.17552641 5880:-0.23275048 5881:-0.16431804 5882:-0.15092774 5883:-0.062721916 5884:-0.061320502 5885:-0.2903856 5886:-0.065403521 5887:0.22007844 5888:0.022419909 5889:-0.063085951 5890:-0.020148698 5891:-0.012941344 5892:-0.081920996 5893:-0.063864343 5894:-0.026805466 5895:-0.099797502 5896:-0.058939587 5897:-0.029558703 5899:0.0064355107 5900:0.14941119 5901:0.14941119 5902:0.14941119 5903:0.14941119 5904:-0.037358798 5905:0.14941119 5906:0.034467496 5909:0.030187512 5910:0.10952646 5911:0.12983669 5912:0.041219439 5913:-0.090982944 5914:-0.11868216 5915:-0.08740212 5916:-0.062726803 5917:0.06763266 5918:0.060541391 5919:0.060541391 5920:0.16114809 5921:-0.21101339 5922:-0.16364945 5923:-0.16364945 5924:-0.16364945 5925:-0.19462439 5926:-0.015830295 5927:-0.015830295 5929:-0.021753903 5930:-0.021753903 5931:0.065287255 5932:0.045104083 5933:0.045104083 5934:0.045104083 5935:-0.01096618 5936:0.045104083 5937:0.16785245 5938:0.017332723 5939:-0.060522862 5940:-0.15527615 5941:-0.04738988 5942:-0.083821408 5943:-0.083821408 5944:-0.12025087 5945:-0.12025087 5947:0.036269698 5948:0.24744727 5950:-0.19993268 5951:0.06225004 5952:0.057189371 5954:0.1121457 5956:0.11061392 5957:-0.28950137 5958:0.02661301 5959:0.095543966 5960:0.02661301 5961:0.0022133698 5962:0.026408697 5963:-0.096902758 5964:-0.096902758 5965:0.007344842 5970:-0.017236419 5971:-0.017236419 5972:-0.017236419 5973:-0.087908402 5974:-0.19883808 5975:0.092657454 5976:-0.014683645 5977:0.049573459 5978:-0.014683645 5979:-0.014683645 5980:-0.014683645 5981:-0.014683645 5985:-0.079423256 5986:0.03578113 5987:-0.20139843 5988:-0.13526535 5989:-0.11399487 5990:-0.10933274 5991:-0.10933274 5992:-0.10933274 5993:0.31368965 5994:0.20798288 5995:0.14218047 5996:0.049608603 5997:0.00336614 5998:0.00336614 5999:0.00336614 6000:0.00336614 6001:-0.044117812 6002:0.098429292 6003:-0.028971046 6004:0.0096914284 6005:-0.0057748011 6006:-0.0057748011 6007:-0.12212773 6008:-0.087473065 6009:0.22787645 6010:0.10645229 6011:-0.048287973 6012:0.068577126 6013:0.079480737 6014:-0.2087466 6015:-0.00084024487 6016:-0.00084024487 6017:0.20950475 6018:0.018837063 6019:0.048987854 6020:0.090395577 6021:0.21475028 6022:0.14415914 6023:0.087329797 6024:0.14415914 6027:-0.41025144 6028:-0.41025144 6029:0.42494813 6030:0.0069083655 6031:0.096612558 6032:0.14607634 6033:-0.038689435 6034:-0.05994729 6035:-0.038689435 6036:-0.056177616 6037:0.076869085 6038:0.11848534 6039:0.070606507 6040:0.070606507 6041:0.070606507 6042:0.18860143 6043:-0.019306947 6044:0.20141357 6045:0.11135077 6046:-0.025669001 6047:-0.058254108 6048:-0.031919766 6049:0.074446552 6050:-0.0016806086 6051:-0.0016806086 6052:-0.0016806086 6053:0.035555508 6054:-0.0016806086 6055:-0.24295111 6056:-0.0016806086 6057:0.014794885 6058:-0.043657254 6059:-0.11109859 6060:-0.041311387 6061:0.010760427 6062:0.055540275 6063:0.010760427 6064:0.010760427 6065:-0.010305389 6066:-0.047888067 6067:-0.047888067 6068:0.0068647885 6069:-0.058425203 6070:0.0001919684 6071:-0.042174079 6072:0.021553569 6073:0.021553569 6074:0.021553569 6075:0.043107137 6076:0.019740483 6077:0.021553569 6078:0.021553569 6079:-0.13916416 6080:-0.12745628 6081:0.076636426 6082:0.029347524 6083:0.029347524 6084:-0.063986272 6085:-0.069863319 6086:-0.069863319 6087:0.054015242 6088:-0.093101323 6089:-0.08924067 6090:-0.13792828 6091:-0.14032933 6092:-0.10433778 6093:-0.14947613 6094:-0.14032933 6095:-0.14032933 6096:0.16243762 6097:0.11052378 6098:0.16243762 6099:0.16243762 6100:0.16243762 6101:0.017206885 6102:0.12003113 6103:0.072018132 6104:0.083162941 6105:0.12003113 6106:0.05689818 6107:0.05689818 6108:0.009370842 6109:0.030609794 6110:0.087453507 6111:-0.034478623 6112:0.017874857 6113:-0.13238207 6114:0.009370842 6115:0.009370842 6116:0.32990658 6117:0.082491979 6118:0.009370842 6119:-0.14604855 6120:-0.14604855 6121:-0.07419619 6122:-0.089603081 6123:-0.027996685 6124:-0.07419619 6125:-0.2931231 6126:-0.023574067 6127:-0.023574067 6128:-0.023574067 6129:-0.035214659 6130:-0.10474914 6131:-0.10474914 6132:-0.10474914 6133:-0.014235128 6134:0.0060236175 6135:0.028533936 6136:-0.0095353564 6137:-0.03858953 6138:-0.0095353564 6139:0.071016952 6140:0.073429145 6141:-0.23199436 6142:-0.0095353564 6143:0.078601167 6144:-0.0095353564 