SVM-light Version V6.20
0 # kernel type
3 # kernel parameter -d 
1 # kernel parameter -g 
1 # kernel parameter -s 
1 # kernel parameter -r 
empty# kernel parameter -u 
11718 # highest feature index 
206 # number of training documents 
2 # number of support vectors plus 1 
0 # threshold b, each following line is a SV (starting with alpha*y)
1 1:0.0011365798 2:0.024654865 3:-0.1900426 4:0.051700477 5:-0.12604868 6:0.42022663 7:-0.39512777 8:-0.15231127 9:-0.037551682 10:-0.17399991 11:0.096641876 12:-0.065771133 13:0.57832015 14:-0.17630154 15:-0.043465927 16:0.002323474 17:0.091250323 18:0.37324953 19:0.02139597 20:0.42752409 21:0.02139597 22:-0.18794872 23:0.46846113 24:0.03098206 25:-0.18306825 26:-0.13800567 27:-0.34889084 28:0.17968494 29:-0.42097703 30:0.21318603 31:-0.18306825 32:-0.18306825 33:0.058237422 34:0.043327391 35:0.82540995 36:0.873007 37:-0.32301232 38:-0.52453434 39:-0.035231236 40:0.21217676 41:0.096153401 42:-0.51060903 43:-0.66113603 44:-0.36303425 45:-0.53866053 46:0.57359439 47:0.20529772 48:-0.36559281 49:0.30570781 50:-0.28518409 51:0.42803174 52:-0.37499779 53:-0.082543738 54:-0.28518409 55:1.4815849 56:-0.16624948 57:0.1121791 58:-0.34889293 59:-0.21771967 60:-0.21870418 61:-0.36088726 62:-0.048178311 63:-0.16864498 64:-0.27916619 65:-0.44154769 66:-0.09683115 67:-0.95607859 68:0.69007927 69:-0.20486413 70:0.73652709 71:-0.043882627 72:0.24238731 73:0.2455457 74:0.1874162 75:0.05982491 76:0.23232976 77:0.2248888 78:-0.42551434 79:0.013306811 80:0.16172393 81:0.52670079 82:0.5389483 85:-0.037593618 86:0.009341415 87:-0.41725972 88:0.2421578 89:0.065607958 90:0.13046816 91:0.19002965 92:0.27738932 93:-0.12890095 94:-0.14149483 95:0.43926167 96:-0.066126265 97:-0.21881628 98:0.059598345 99:-0.41912907 100:-0.17926505 101:0.59347558 102:0.3508009 103:-0.4243637 104:0.4095169 105:-0.18601966 106:0.0069167106 107:0.63695276 108:-0.040827844 109:0.53936839 110:0.25140512 111:-0.012433857 112:-0.23702574 113:-0.28239298 115:-0.016327603 118:0.056759436 119:0.13747196 120:0.69852394 121:0.35495466 122:0.29633629 123:-0.20546693 124:0.024727998 125:0.16917911 126:0.078388236 127:-0.20234656 128:0.33726111 129:0.17837399 130:-0.11649241 131:0.36750004 132:0.027791321 133:0.46720952 134:-0.015919799 135:0.22696218 136:0.24185421 137:0.096115768 138:0.41907069 139:0.66312557 140:0.33669558 141:0.038678885 142:0.024562173 143:-0.56706989 144:-0.12831463 145:0.22696218 146:0.22696218 147:0.16298078 148:0.31745583 149:0.08235088 150:0.065700084 151:0.19097298 152:-0.25624651 153:-0.072604872 155:-0.60350168 156:0.19484754 157:-0.115145 158:0.14046645 159:0.25306094 160:-0.54653168 161:-0.23755348 162:0.77896541 163:-0.23694499 164:-0.10048657 165:-0.040619481 166:0.28875986 167:-0.38826039 168:-0.16515464 169:0.37463787 170:0.080589175 171:0.24923888 172:0.13542008 173:0.13542008 174:-0.33512017 175:0.29538286 176:0.13542008 177:0.075959139 178:0.13542008 179:-0.096259952 180:-0.064817771 181:-0.41657647 182:0.13542008 183:-0.76753086 184:-0.32676229 185:0.0078477189 186:-0.084763929 187:-0.073956214 188:0.41659856 189:0.32694075 190:0.26193216 191:-0.096679881 192:-0.096679881 193:-0.36642757 194:0.068752579 195:-0.078680679 196:0.25380996 197:0.095326036 198:-0.50239235 199:0.29631883 200:0.93788844 201:-0.73508346 202:0.18558453 203:0.73833591 204:-0.53302419 205:0.11521456 206:0.11948784 207:-0.28692365 208:0.17485486 209:-0.024811026 210:-0.015543546 211:0.17512469 212:-0.016971357 213:0.88351214 214:0.28998032 215:0.19777232 216:0.014115638 217:0.75953019 218:-0.18513982 219:0.11531796 220:-0.25957444 221:-0.10450138 222:-0.3178159 223:-0.11154974 224:0.31445852 225:-0.18513982 226:0.66581774 227:-0.11527647 228:-0.058917806 229:-0.28288233 230:-0.058631353 231:-0.18513982 232:-0.45834273 233:-0.044337131 234:-0.060584579 235:-0.10311667 236:0.13287009 237:-0.18161575 238:-0.3736012 239:-0.82606477 241:0.0223515 242:-0.38524938 243:-0.055746991 245:-0.099692143 246:-0.047242526 247:-0.0035295724 249:0.11676587 250:0.26574993 253:0.65843189 254:0.41611344 255:-0.018578606 256:-0.6998418 257:-0.065554984 258:0.023813657 259:-0.1343323 260:-0.98867232 261:-0.36880919 262:0.46020216 263:0.11176971 264:-0.017739421 265:-0.44219255 266:-0.07739789 267:0.28952911 268:0.07618317 269:-0.06906116 270:-0.084811985 271:0.029702282 272:-0.15078124 273:0.023830863 274:0.081441157 275:0.047511335 276:-0.16916139 277:-0.0048193238 278:0.016932031 279:0.16666771 280:0.10939118 281:-0.087423563 282:-0.027640752 283:-0.060020056 284:-0.06906116 285:-0.06906116 286:-0.067734458 287:-0.06906116 288:-0.06906116 289:-0.19942358 290:0.7947771 291:0.26879901 292:0.20466758 293:-0.011494295 294:-0.33398119 295:0.031911582 296:-0.05965548 297:0.32569292 298:0.40298805 299:-0.41800305 300:0.23606169 301:0.035944704 302:-0.12895504 303:-0.017394748 304:0.093445785 305:-0.14290477 306:-0.46795365 307:-0.072323762 308:0.095001765 309:0.26800275 310:-0.32800868 311:-0.39132679 312:0.15218908 313:0.37931603 314:0.26108411 315:0.54859501 316:0.33785176 317:0.060132951 318:-0.019316319 319:-0.10002027 320:-0.42911997 321:-0.16571046 322:-0.10995723 323:-0.45486 324:0.38204205 325:-0.097342826 326:0.0059785363 327:0.90876955 328:-0.089152776 329:-0.097342826 330:0.034045983 331:-0.097342826 332:-0.089152776 333:0.17544974 334:-0.084242873 335:0.025001191 336:0.088102028 337:0.15142833 338:0.045816686 340:-0.073744483 341:-0.49837705 343:-0.18562517 344:0.31536487 345:-0.46810946 348:-0.10005171 349:-0.25369769 350:0.37118348 351:-0.20574208 352:-0.10005171 353:0.36219463 354:-0.10005171 355:-0.17156945 356:-0.093786813 357:0.13305852 358:-0.25849503 359:0.38091588 360:-0.07800965 361:-0.22797492 362:-0.20778395 363:0.29018897 364:0.28181043 365:0.33598697 366:-0.12017162 367:-0.28709993 368:-0.096795037 369:0.0077420678 370:-0.19334292 371:0.46375522 372:-0.40380478 373:-0.21297181 374:-0.10323434 375:-0.36502442 376:0.12482157 377:0.34547627 378:-0.082889363 379:0.27498373 380:0.48808947 381:0.24438305 382:0.18281455 383:0.066403985 384:0.18281455 385:0.059394181 386:0.27287656 387:-0.24689019 388:-0.066261902 389:-0.060686935 390:-0.066261902 391:-0.066261902 392:0.40183669 393:-0.30017948 394:-0.066261902 395:-0.072093472 396:0.16612777 397:-0.086131237 398:-0.056745771 399:-0.10381611 400:-0.10323667 401:0.015055497 402:-0.12771133 403:-0.086131237 404:-0.14384244 405:0.35841092 406:-0.097563691 407:-0.079372466 408:0.14396425 409:-0.012835846 410:-0.07926181 411:-0.17529568 412:0.17233163 413:-0.086131237 414:-0.0019044481 415:0.081830204 416:0.41390908 417:-0.16003948 418:0.044375993 419:0.26744756 420:0.025425067 421:-0.16536954 422:-0.43099445 423:-0.14229493 424:0.017719287 425:-0.10001568 426:-0.32430109 427:-0.16658944 428:0.2171808 429:0.72273964 430:-0.39530477 431:-0.14361896 432:0.10124374 433:0.044375993 434:0.46881521 435:-0.19635554 436:0.044375993 437:0.020553168 438:-0.56132877 439:0.12988521 440:-0.037765123 441:0.098755173 442:-0.43017989 443:-0.43594819 444:-0.19970016 445:-0.14994469 446:0.11298154 447:-0.17867114 448:-0.66076052 449:0.14210473 450:0.006700479 451:-0.2373962 452:-0.16011046 453:-0.17867114 454:0.036473915 455:-0.29388517 456:0.32915297 457:-0.16739704 458:-0.2869474 460:0.51893443 461:0.34917703 462:-0.013550959 463:0.010844766 464:0.048226602 465:0.038180135 466:0.15798599 467:0.19441801 468:-0.057990462 469:0.11325397 470:0.23717606 471:0.11412895 472:0.15367603 473:0.15798599 474:0.16487603 475:0.10451975 476:-0.37726986 477:-0.7883082 478:0.64657384 479:0.19742478 480:0.29180235 481:0.13116974 482:0.63935941 483:0.48425785 484:0.67767799 485:0.0501814 486:-0.38230667 487:0.63935941 488:0.19329295 489:0.046720874 490:0.4730207 491:0.17104755 492:0.10386432 493:-0.40662795 494:-0.090995103 495:-0.21132751 496:-0.024214493 497:-0.12861943 498:-0.21644869 499:-0.072843157 500:-0.18222378 501:-0.19824156 502:-0.12771752 503:0.40166554 504:-0.10561293 505:0.17912127 506:0.36616033 507:-0.21644869 508:-0.039507803 509:0.20180784 510:0.21034114 511:0.44432914 512:-0.70208246 513:-0.18980382 514:0.069530711 515:-0.10629836 516:0.41474059 517:-0.033188146 518:0.025702691 519:0.10928399 520:-0.14428747 521:0.11312023 522:-0.37656346 523:-0.44706926 524:0.060863554 525:-0.25881845 526:-0.13975504 527:0.072167397 528:-0.029034924 529:-0.051738344 532:-0.30459821 533:0.16109149 534:0.053367466 535:-0.05994935 536:0.13074575 537:-0.0022504281 538:0.0088792695 539:-0.24223894 540:-0.31087607 541:-0.071713008 542:0.33647576 543:0.69531673 544:-0.11809249 545:0.62983823 546:0.59350377 547:-0.031044746 548:-0.46823677 549:-0.19562516 550:0.17664799 551:-0.28926381 552:-0.25320622 553:0.49160808 554:0.025135396 555:-0.59297049 556:0.474213 557:-0.16090782 558:0.69086432 559:-0.57481843 560:-0.23228393 561:0.017873703 562:-0.41523004 563:-0.061758246 564:0.34482035 565:-0.1175655 566:-0.28821471 567:0.21988405 568:0.17818661 569:-0.15810362 570:-0.080665074 571:0.24612045 572:-0.080713533 573:-0.42614591 574:-0.1575544 575:0.10589352 576:0.30090955 577:0.1381893 578:0.51011515 579:0.48733115 580:-0.080713533 581:-0.080713533 582:-0.080713533 583:-0.14758474 584:-0.080713533 585:0.33824888 586:0.095605165 587:-0.080713533 588:-0.10252491 589:0.23272911 590:-0.74068326 591:-0.70032334 592:-0.0066706096 593:0.040202368 594:-0.10494055 595:0.14817497 596:-0.10494055 598:0.79064971 601:0.36930543 602:-0.022165213 603:-0.4420335 604:-0.19879247 605:-0.0074073388 606:0.34354085 607:-0.17087504 608:0.12411334 609:0.15352079 610:-0.067453668 611:0.23783496 612:0.20021361 613:-0.23647286 614:0.35882995 615:-0.19054179 616:-0.31869575 617:0.42822886 618:0.092782162 619:0.16589895 620:0.046713512 621:0.34945658 622:-0.067336284 624:0.29518661 625:0.20166072 626:0.4142054 628:-0.17156361 629:-0.58231568 631:0.13578628 632:-0.079074025 633:-0.17367624 634:0.078423873 635:0.17082731 637:0.35248876 638:-0.17583118 639:-0.17618676 640:0.38647637 641:0.10481252 642:0.34640154 643:0.15885547 644:0.56294471 645:0.29750109 646:0.36994189 647:-0.61283129 648:0.031291764 649:-0.062670097 650:0.32079229 651:0.10022987 652:0.16555816 653:-0.063527197 654:0.01789315 655:0.18494998 656:0.74778467 657:-0.50874662 658:0.061005287 659:-0.050580528 660:0.22269888 661:-0.13272086 662:-0.47035199 663:-0.24186377 664:-0.63984197 665:0.6274671 666:-0.14797062 667:-0.21714675 668:0.11886479 669:0.028308867 670:0.090382963 671:0.094364442 672:0.070706315 673:0.14029938 674:-0.31443584 675:-0.098586589 676:0.34285137 677:0.2501775 678:0.40796149 679:-0.13904291 680:0.23795128 681:0.79713798 682:0.015987718 683:0.20090275 684:0.18283792 685:0.31338623 686:-0.13097797 687:-0.044278804 688:0.040816773 689:-0.42329434 690:-0.046180449 691:-0.027473092 692:0.13628878 693:0.015987718 694:-0.18866295 695:-0.17244172 696:0.015987718 697:-0.18735667 698:-0.18735667 699:-0.18735667 700:-0.18735667 701:-0.18735667 702:-0.15849376 703:0.13534448 704:0.27584594 705:-0.18735667 706:0.0176937 707:0.42326632 708:-0.22808352 709:-0.13065961 710:0.51990199 711:-1.9411043 712:0.084819146 713:-0.13189094 714:0.14273047 715:-0.43640941 716:-0.53213346 717:0.0079936497 718:0.14642489 719:-0.053883705 720:0.0079936497 721:0.1640721 722:-0.044408467 723:0.0079936497 724:-0.13309105 725:-0.056594856 726:-0.055222996 727:0.0024764033 728:-0.49828237 729:0.12111006 730:-0.63163865 731:0.1008075 732:-0.32744467 733:0.40874082 734:0.14481357 735:0.37172848 736:0.40874082 737:0.21577486 738:0.27129054 739:-0.13957851 740:0.04335548 741:0.20696263 742:0.318459 744:-0.050641838 745:0.030670544 746:0.36136621 747:0.31900135 748:0.35389805 749:0.13732485 750:0.26811859 751:0.62780786 752:-0.056055479 753:-0.58646435 754:-0.326363 755:-0.36831206 756:0.20777473 757:0.27903399 758:-0.15552436 759:0.34431857 760:-0.26138484 761:-0.15552436 762:-0.1153625 763:-0.15552436 764:-0.15552436 765:0.19890027 766:-0.15552436 767:-0.063993707 768:0.52816826 769:-0.18325621 770:-0.14818154 771:0.14841236 772:0.068362698 773:0.1256042 774:-0.15552436 775:-0.12471841 776:-0.15552436 777:-0.15552436 778:-0.39184269 779:-0.034715209 780:-0.13170666 781:-0.32223025 782:0.21285516 783:0.21037285 784:0.21285516 785:-0.046729904 786:0.15522814 787:-0.35199472 788:-0.026528999 789:-0.19363999 790:-0.34786603 791:-0.25784686 792:-0.18612224 793:0.21648091 794:0.059040204 795:0.12760288 796:0.064825661 797:0.12485109 798:0.38487083 799:0.22312124 800:0.095260434 801:-0.15401928 802:-0.37367982 803:-0.15401928 804:0.059504226 805:0.036495641 806:0.036495641 807:0.036495641 808:0.20128442 809:0.036495641 810:-0.10506114 811:0.055455938 812:0.036495641 813:-0.25024191 814:0.30801278 817:-0.45466563 819:-0.086697482 820:-0.050721645 821:-0.093158402 822:0.080523357 826:-0.09389966 827:-0.2078774 828:-0.30370444 829:-0.29153904 830:-0.089926541 831:-0.17303485 832:-0.22611479 833:0.78785872 834:-0.16558863 835:0.19718872 836:-0.023540828 837:0.003791878 838:-0.39895883 839:0.50851959 840:0.19287302 841:0.23641314 842:-0.025711572 843:-0.098652087 844:-0.036492698 845:-0.25725016 846:-0.0099110715 847:-0.034450877 848:0.83157021 849:-0.050444178 850:-0.050444178 851:-0.070802055 852:-0.15463124 853:-0.24431324 854:-0.18125369 855:0.12978095 856:0.057854172 857:0.41124928 858:-0.23829471 859:0.52970201 860:0.22717109 861:-0.10883784 862:0.87596613 863:0.1912732 864:0.14652117 865:-0.33162814 866:0.15876947 867:0.14574832 868:0.074339427 869:-0.491292 870:-0.20710824 871:-0.491292 872:0.077898972 873:0.19259208 874:-0.2840035 875:-0.046285927 876:0.18872783 877:-0.012055151 878:0.19259208 879:0.19259208 880:-0.33572954 881:0.19259208 882:0.32715678 883:0.10716598 884:-0.22044699 885:0.13867554 886:0.10716598 887:-0.12568876 888:-0.12568876 889:0.4784236 890:-0.042321131 891:-0.26532727 892:0.44535738 893:-0.11723799 894:0.036981117 895:-0.63210207 896:-0.26532727 897:-0.40563548 898:0.42632294 899:-0.032850798 900:0.086140372 901:-0.0014578737 902:-0.006587896 903:1.173149 904:0.039240342 905:-0.071020007 906:-0.2835848 907:-0.29030845 908:0.38001555 909:-0.32642528 910:-0.13501874 912:0.36998722 913:0.073676154 914:0.073676154 915:0.099531151 916:-0.49255505 917:0.16653036 918:0.3385559 919:0.099531151 920:-0.084314793 921:-0.042157397 922:-0.042157397 923:0.19998695 924:-0.21214679 925:-0.042157397 926:-0.070835583 927:-0.064008705 928:-0.042157397 929:-0.042157397 930:-0.0059395931 931:0.098598272 932:-0.042157397 933:-0.042157397 934:-0.042157397 935:-0.089721374 936:0.14480804 937:-0.56112391 938:-0.042157397 939:-0.042157397 940:-0.042157397 941:-0.1513921 942:-0.042157397 943:-0.042157397 944:-0.042157397 945:-0.005573628 949:0.28816792 950:0.012148501 951:0.25771582 952:0.25529885 953:-0.25107661 954:-0.046269726 955:0.1052081 956:0.0090936609 957:0.24544802 958:-0.063584216 959:0.080634773 960:0.15089269 961:0.24544802 962:0.18017821 963:0.34689555 964:0.24544802 965:0.21696636 966:0.088490531 967:0.42541143 968:-0.22034341 969:-0.085539997 970:-0.085539997 971:0.10042877 972:-0.085539997 973:-0.062933549 974:-0.68813616 975:0.19404078 976:0.019532215 977:0.42267558 981:-0.14004891 982:0.46221173 983:-0.3891184 984:0.623716 985:0.086365238 986:-0.20722534 987:0.092328146 988:-0.24873996 989:-0.27055097 990:-0.39998099 991:-0.49867269 992:-0.16996296 993:0.34419701 994:-0.37245321 995:0.16094597 996:0.29517663 997:0.12282502 998:-0.34109169 999:0.095687553 1000:0.095687553 1001:0.095687553 1002:0.095687553 1003:0.095687553 1004:0.29741457 1005:0.18682486 1006:0.22992377 1008:-0.015103113 1009:0.80518496 1010:-1.1498287 1011:0.4643164 1012:0.058760181 1013:-0.035862282 1014:0.36515814 1015:0.040724877 1016:-0.0091451034 1017:-0.066113509 1018:-0.11418455 1019:-0.10346238 1020:-0.13411844 1021:-0.20121203 1022:0.19812252 1023:0.1827763 1024:0.31356645 1025:0.31916609 1026:0.21676239 1027:-0.027748911 1028:0.56230849 1029:-0.065725878 1030:-0.038361531 1031:-0.22235806 1032:-0.22235806 1033:-0.23905241 1034:-0.20365097 1035:0.073828414 1036:-0.19628508 1037:0.36189094 1038:0.17544435 1039:-0.44481954 1040:0.33983424 1041:-0.070231691 1042:0.60540783 1043:0.39861715 1044:0.042212851 1045:0.055062808 1046:-0.30964795 1047:0.12820944 1048:-0.11339295 1049:-0.30881616 1050:0.32972616 1051:0.066060618 1052:0.63014561 1053:-0.095380418 1054:-0.38545942 1055:0.25593358 1056:0.066060618 1057:-0.065246403 1058:0.066060618 1059:0.64624804 1060:0.066060618 1061:-0.18985982 1062:0.066060618 1063:0.66633445 1064:-0.097697884 1065:0.62288219 1066:0.067773208 1067:0.60395581 1068:0.20731787 1069:0.39705613 1070:-0.29421481 1071:-0.1344167 1072:-0.1344167 1073:-0.053063344 1074:0.052669302 1075:-0.052651275 1076:-0.084120095 1077:-0.099336818 1078:0.096324831 1079:-0.085061103 1080:-0.058044009 1081:0.32316065 1082:0.44330513 1083:-0.067806959 1084:0.020801065 1085:-0.029296435 1086:-0.053567316 1087:-0.19728364 1088:0.19565199 1089:0.30738977 1090:-0.2661677 1091:-0.031116197 1092:-0.58343977 1093:-0.29338679 1094:0.35108814 1097:0.19494203 1098:0.10113588 1099:-0.094696246 1100:0.21516073 1101:-0.36251408 1102:0.57061231 1103:0.012530394 1104:0.0018553777 1105:0.10113588 1106:0.16852678 1107:0.10113588 1108:0.12592614 1109:0.32792717 1110:0.26428568 1111:0.93580657 1112:-0.20427157 1113:0.030122934 1114:-0.0463898 1115:-0.24615851 1116:0.25020927 1117:-0.23823816 1118:-0.0074349735 1119:-0.0074349735 1120:-0.0057709171 1121:-0.0074349735 1122:0.12612282 1123:-0.13387649 1124:0.68553096 1125:0.94871348 1126:-0.0074349735 1127:-0.0074349735 1128:-0.0074349735 1129:0.68107378 1130:-0.095506273 1131:0.038385458 1132:-0.1102814 1133:-0.24558641 1134:-0.1836648 1135:-0.092928134 1136:-0.44195065 1137:-0.26937139 1138:-0.26937139 1139:0.23079807 1140:-0.10390262 1141:-0.26937139 1142:-0.13504481 1143:-0.26937139 1144:0.20457155 1145:-0.0030088292 1146:-0.26937139 1147:-0.26937139 1148:-0.12765087 1149:-0.2228002 1150:-0.27271301 1151:-0.12765087 1152:-0.12765087 1153:0.030039759 1154:-0.18759379 1155:0.097752251 1156:-0.14509058 1157:-0.35291991 1158:-0.41256389 1159:-0.061055422 1160:-0.061055422 1161:-0.23523152 1162:-0.061055422 1163:0.6750167 1164:0.43592286 1165:0.43592286 1166:0.089389302 1167:0.37680259 1168:0.098907143 1169:-0.44993529 1170:0.5163632 1171:0.10290184 1172:0.59076834 1173:0.38832611 1174:0.45159212 1175:0.40221322 1176:0.048492096 1177:-0.32623091 1178:-0.016678713 1179:-0.0045073642 1180:-0.31694344 1181:0.12812665 1182:0.12812665 1183:-0.4054018 1184:0.12812665 1185:-0.15426014 1186:0.1882339 1187:-0.40024149 1188:-0.089895725 1189:-0.089895725 1190:-0.089895725 1191:-0.37990758 1192:-0.16902837 1193:-0.34097812 1194:0.26752746 1195:0.2566525 1196:0.20752494 1197:-0.12670885 1198:0.1007272 1199:-0.039378669 1200:0.54228932 1201:0.3039723 1202:0.2975879 1203:0.20752494 1204:-0.18967718 1205:-0.17484532 1207:-0.21401747 1209:-0.006903871 1211:-0.37115237 1212:-0.043067478 1213:0.0089780493 1214:0.032537382 1215:0.019898821 1217:0.11710348 1221:0.8415519 1222:-0.31986949 1223:0.20129992 1224:0.010119858 1225:0.010119858 1226:0.010119858 1227:0.010119858 1228:0.039112739 1229:0.18182097 1230:0.26138741 1231:0.36792117 1232:0.01245771 1233:0.01245771 1234:0.17996672 1235:-0.15485863 1236:0.64723247 1237:0.054891869 1238:-0.01128997 1239:-0.17739545 1240:0.01245771 1241:0.01245771 1242:0.01245771 1243:-0.42842922 1244:-0.040075585 1245:0.01245771 1246:0.01245771 1247:0.70075935 1248:0.14787555 1249:0.35158521 1250:0.45662594 1251:-0.071514972 1252:0.3041397 1253:-0.28225401 1254:0.20163789 1255:-0.41000396 1256:-0.6893487 1257:0.13581343 1259:-0.276205 1260:-0.44971776 1261:-0.37536794 1262:0.062288746 1263:-0.3303822 1264:-0.049902286 1265:0.36568242 1266:-0.20605733 1267:-0.14448334 1268:0.35476869 1269:0.067219704 1270:0.42387822 1271:0.16556205 1272:-0.62468374 1273:-0.54189342 1274:-0.078090206 1275:-0.0043160901 1276:0.5882169 1277:-0.070242174 1278:0.1379469 1279:-0.018449806 1280:-0.23915569 1281:0.20850404 1283:-0.11117098 1284:-0.0041217161 1285:-0.077923827 1286:0.0011050355 1287:-0.095478229 1288:-0.077923827 1289:-0.11914863 1290:0.11468619 1291:0.06979873 1292:-0.077923827 1293:0.077102713 1294:-0.077923827 1295:-0.028202189 1296:-0.086064056 1297:-0.066153795 1298:-0.077923827 1299:0.12999411 1300:0.174931 1301:-0.16079997 1302:-0.019091848 1303:-0.077923827 1304:0.016209872 1305:-0.26863962 1306:-0.53736693 1307:-0.072543405 1308:-0.4612259 1309:0.20978075 1310:0.063297942 1311:-0.047763027 1312:-0.3833167 1313:-0.23030716 1314:-0.017955301 1315:0.32734105 1316:-0.41473311 1317:0.27683619 1318:-0.55296439 1319:-0.019873528 1320:-0.11447385 1321:0.2615526 1322:-0.38155583 1323:0.85410237 1324:0.030903637 1325:-0.50007087 1326:-0.05291434 1327:-0.197247 1328:-0.17087838 1329:-0.10475343 1330:-0.1529443 1331:0.72733206 1332:-0.28201929 1333:-0.37675476 1334:0.082552016 1335:-0.26105958 1336:-0.044562969 1337:0.48159713 1338:0.191155 1339:-0.044562969 1340:-0.13481316 1341:0.13868168 1342:-0.30821654 1343:0.065988772 1344:-0.11538932 1345:0.68714499 1346:0.10554492 1347:-0.24026778 1348:0.29273573 1349:-0.34873253 1350:-0.27044386 1351:-0.051176406 1352:0.032873418 1353:0.048286565 1354:0.066181473 1355:0.23351002 1356:0.38808057 1357:-0.10348455 1358:0.10234362 1359:-0.24150264 1360:0.14890411 1361:-0.86442101 1362:0.13117883 1363:0.11708243 1364:-0.10861447 1365:0.15592812 1366:0.15592812 1367:0.15592812 1368:0.51892221 1369:0.54605067 1370:0.52322942 1371:0.16099611 1372:0.16099611 1373:0.051104881 1374:0.29251328 1375:0.014293601 1376:-0.015142241 1377:-0.015142241 1378:-0.11283831 1379:0.12526801 1381:0.26377475 1382:0.045391884 1383:0.52595055 1384:-0.17543136 1385:0.14744711 1386:0.082998887 1387:0.071778126 1388:0.051728282 1389:-0.082211599 1390:-0.036619015 1391:-0.036619015 1392:-0.1618592 1393:-0.1618592 1394:0.064563006 1395:0.059130002 1396:-0.098335139 1397:-0.015968636 1398:0.064563006 1399:0.28106961 1400:-0.021188367 1401:0.092490636 1402:0.33841029 1403:-0.049158007 1404:0.15581098 1405:0.14909793 1406:0.23752378 1407:-0.1203789 1408:0.22049613 1409:0.047967181 1410:0.27340662 1411:0.030892778 1412:0.28582114 1413:0.28672814 1414:0.067401618 1415:-0.55315781 1416:-0.050795514 1417:-0.050795514 1418:-0.050795514 1419:-0.050795514 1420:0.36785913 1421:-0.40749061 1422:-0.011691374 1423:-0.046196967 1424:0.1438832 1425:-0.050795514 1426:-0.050795514 1427:-0.24034652 1428:-0.27179152 1429:0.071330436 1430:-0.050795514 1431:-0.050795514 1432:0.17434937 1433:0.17434937 1434:0.047423311 1435:0.015469462 1436:0.55013126 1437:-0.18980289 1438:-0.40867558 1439:0.17434937 1440:0.10272186 1441:-0.56621444 1442:-0.18606104 1444:0.29998219 1445:0.094848298 1446:0.090422198 1447:0.24187972 1449:-0.63996863 1450:-0.5176599 1451:0.073711023 1452:0.85796416 1453:-0.082143717 1454:0.053276595 1455:0.17931698 1456:-0.004708007 1457:-0.061987855 1458:-0.004708007 1459:0.050153904 1460:0.41923684 1461:-0.004708007 1462:-0.022511967 1463:-0.38826665 1464:0.170893 1465:0.12694903 1466:-0.010788381 1467:0.14573777 1468:0.27394226 1469:-0.11674492 1470:0.098732971 1471:-0.041047718 1472:-0.041047718 1473:-0.039313808 1474:-0.041047718 1475:-0.14937721 1476:-0.058459084 1477:0.41672909 1478:0.0042657484 1479:-0.12031821 1480:0.13171904 1481:0.54551089 1482:-0.21764061 1483:0.14093785 1484:0.38615614 1485:0.086026259 1486:-0.28007627 1487:-0.50772864 1488:-0.054482423 1489:0.060167942 1490:-0.17470375 1491:0.12126668 1492:-0.21642552 1493:0.14347881 1494:0.0081833927 1495:-0.022370584 1496:0.18091305 1497:0.082687013 1498:-0.33669081 1499:-0.19374257 1500:-0.32991165 1501:0.22384952 1502:0.025583928 1503:-0.31020179 1504:0.012504411 1505:-0.063511625 1506:-0.51055074 1507:-0.17520921 1508:0.16647248 1509:0.082710236 1510:-0.34548664 1511:-0.42736456 1512:-0.30969372 1513:0.14744696 1514:0.0090465927 1515:0.024327461 1516:0.09030766 1517:0.09030766 1518:0.086869046 1519:0.5986166 1520:0.036362771 1521:0.12521741 1522:0.35609141 1523:0.05514203 1524:0.064830564 1525:0.35609141 1526:-0.24950476 1527:-0.22990783 1528:-0.22990783 1529:-0.22990783 1530:0.19470133 1531:-0.077209592 1532:0.029157201 1533:0.12156937 1534:-1.0955595 1535:-0.035760552 1536:0.092451118 1537:0.42598212 1538:-0.098157704 1539:-0.29085246 1540:0.035113543 1541:0.035113543 1542:0.035113543 1543:-0.031102911 1544:-0.10756698 1545:0.18832523 1546:-0.11399242 1547:-0.11399242 1548:-0.11399242 1549:-0.17585003 1550:-0.38012448 1551:-0.17585003 1552:-0.17585003 1553:0.33235481 1554:-0.18694568 1555:-0.015799748 1556:1.9196415 1557:-0.56960976 1558:0.19565168 1559:0.28955799 1560:0.089329228 1561:-0.3470951 1562:0.0087437648 1563:0.15649918 1564:0.25084773 1565:-0.21803869 1566:0.10209952 1567:0.10209952 1568:0.038600419 1569:0.64794713 1570:0.10209952 1571:-0.13792072 1572:-0.28004748 1573:0.38804775 1574:0.24433072 1575:0.87608141 1576:-0.34477782 1578:-0.1399198 1582:0.15864678 1583:-0.13995658 1584:-0.30313775 1585:-0.6434316 1586:0.022526747 1587:0.022526747 1588:0.022526747 1589:0.020631278 1590:0.1941624 1591:0.022526747 1592:-0.019240409 1593:0.22128676 1594:0.022526747 1595:-0.067935966 1596:0.022526747 1597:-0.29213923 1598:-0.14499359 1599:0.055684429 1600:0.022526747 1601:0.022526747 1602:0.29697105 1603:-0.5566265 1604:-0.19534415 1605:0.22457847 1606:-0.059442323 1607:-0.29559967 1608:0.073844709 1609:0.11050598 1610:0.1094403 1611:-0.18805437 1612:-0.187704 1613:0.29051319 1614:0.62243849 1615:0.26281533 1616:-0.09116412 1617:0.27187529 1618:-0.19790071 1619:0.28076136 1620:-0.1405593 1621:0.36024642 1622:-0.070413858 1623:-0.13457572 1624:-0.0017459533 1625:0.31971636 1626:0.17321637 1627:-0.13457572 1628:-0.67316508 1629:0.22924754 1630:0.22009194 1631:0.66140389 1632:-0.020101724 1633:-0.18371914 1634:0.36178288 1635:0.25173032 1636:-0.073553279 1637:-0.007400794 1638:0.11592203 1639:0.028001308 1640:-0.26880461 1641:-0.001258222 1642:0.0281514 1643:-0.17956628 1644:-0.12341233 1645:0.02392054 1646:-0.12341233 1647:0.11663125 1648:-0.12341233 1649:-0.044717766 1650:0.12980555 1651:0.62353402 1652:-0.074104249 1653:-0.26880461 1654:-0.084922843 1655:0.17980501 1656:-0.26880461 1657:0.16805881 1658:-0.0057630185 1659:-0.073987789 1660:-0.0057630185 1661:-0.045338362 1662:-0.0057630185 1663:-0.23407385 1664:-0.0057630185 1665:-0.40908527 1666:0.5521962 1668:0.26983052 1669:-0.11127048 1670:-0.33857495 1671:0.22402106 1672:0.071989395 1673:-0.094561048 1674:-0.32174671 1675:0.35816193 1676:0.49149173 1677:0.1534854 1678:-0.20881939 1679:-0.20881939 1680:0.022008302 1681:-0.19125044 1682:-0.20881939 1683:0.23931338 1684:-0.20881939 1685:0.27519 1686:-0.20881939 1687:-0.14102224 1688:0.29559031 1689:0.31222332 1690:-0.20881939 1691:-0.20881939 1692:-0.12298531 1693:-0.20881939 1695:1.2152903 1696:-0.26644841 1697:-0.3944124 1698:-0.26644841 1699:-0.26644841 1700:-0.24403489 1701:-0.36703047 1702:-0.014357775 1703:0.39267942 1704:0.29732159 1705:-0.22074556 1706:0.34416175 1707:0.14865015 1708:0.14865015 1709:0.14865015 1710:0.1379354 1711:0.14865015 1712:0.28366062 1713:-0.12808821 1714:0.36454505 1715:0.56487107 1716:-0.25722998 1717:0.12580127 1718:0.3609758 1719:0.3609758 1720:-0.41135404 1721:-1.210921 1722:0.71383852 1723:0.023874132 1724:-0.39784101 1725:-0.10504425 1726:-0.13465454 1727:-0.19672655 1728:-0.19672655 1729:-0.15899989 1730:0.06964539 1731:-0.032041144 1732:0.137153 1733:-0.25431126 1734:-0.012398634 1735:-0.057290882 1737:-0.022482717 1738:0.063342892 1739:-0.073611982 1740:0.063342892 1741:0.37072262 1742:-0.043570582 1743:0.063342892 1744:0.036463618 1745:0.063342892 1746:0.063342892 1747:0.0016466436 1748:0.094609484 1749:0.063342892 1750:-0.22104956 1751:-0.0026023746 1752:-0.07564716 1753:-0.13068593 1754:-0.20406438 1755:-0.13068593 1756:0.55392611 1757:-0.007318933 1758:-0.27981845 1759:-0.04759514 1760:-0.041646279 1761:-0.04759514 1762:-0.04759514 1763:-0.23051468 1764:-0.081104726 1765:0.055019028 1766:-0.17137463 1767:0.26642936 1768:-0.0022873145 1769:0.46203503 1770:0.0050007217 1771:0.11019271 1772:-0.085811518 1773:0.11799695 1774:-0.15005204 1775:0.40508446 1776:-0.44181955 1777:-0.29601219 1778:0.68141878 1779:-0.35192347 1780:-0.070134334 1781:0.13127659 1782:-0.074239634 1783:-0.065751731 1784:0.29925728 1785:-0.26691255 1786:-0.92038035 1787:-0.080749907 1788:0.56703329 1789:-0.45093748 1790:0.55764383 1791:-0.30713606 1792:0.21825899 1793:0.053909395 1794:0.01440882 1795:0.01440882 1796:-0.11979344 1797:-0.24120019 1798:-0.53810179 1799:-0.095386632 1800:-0.61648172 1801:-0.61648172 1802:-0.41526809 1803:-0.060005561 1804:-0.35093498 1805:-0.032054394 1806:-0.1004384 1807:-0.027840806 1808:0.050561674 1809:-0.21203172 1810:-0.13874589 1811:0.12942564 1812:0.37000662 1813:-0.22220309 1814:0.075725645 1815:0.22085901 1816:-0.0053143799 1817:0.35785332 1818:-0.14926073 1819:0.00501263 1820:0.24739754 1821:0.18275361 1822:0.29150519 1823:0.79320014 1824:-0.085910335 1825:-0.39139476 1826:-0.0026158537 1827:0.40394515 1828:-0.049398858 1829:0.34116718 1830:-0.22252196 1831:-0.03975974 1832:-0.22212473 1833:0.14486945 1834:0.14486945 1835:0.14486945 1836:0.082705721 1837:-0.0083649661 1838:0.35066777 1839:0.14486945 1840:0.081963599 1841:0.083650455 1842:0.080086239 1843:0.14486945 1844:0.16583888 1845:0.10138588 1846:0.14486945 1847:0.29588538 1848:0.029976595 1849:0.16308604 1851:-0.089341253 1852:0.41627443 1853:-0.076754577 1854:-0.039173994 1855:-0.35383901 1856:-0.039173994 1857:-0.039173994 1858:0.11708423 1859:-0.039173994 1860:-0.53293663 1861:-0.90341198 1862:-0.14475511 1863:-0.44241968 1864:-0.14475511 1865:-0.020328384 1866:0.050287321 1867:-0.14067698 1868:0.023552101 1869:-0.0057937158 1870:-0.27068081 1871:0.19275625 1872:-0.38165691 1873:-0.0226482 1874:0.17654134 1875:0.11695982 1876:0.19275625 1877:0.19275625 1878:0.0095480243 1879:0.067113332 1880:0.15409172 1881:0.21650346 1882:0.35136172 1883:-0.055685949 1884:0.19211449 1885:-0.067585237 1886:-0.26674417 1887:-0.26674417 1888:0.074747868 1889:0.61822206 1890:0.99688083 1891:-0.25655746 1892:-0.21516895 1893:0.019871783 1894:-0.26674417 1895:-0.31213236 1896:-0.24488139 1897:0.0085989814 1898:-0.07366056 1899:0.0081383381 1900:0.77428526 1901:0.50384027 1902:0.16128281 1903:0.13672647 1904:0.32566109 1905:0.47433111 1906:0.037328128 1907:0.037328128 1908:-0.28395483 1909:0.034187756 1910:0.037328128 1911:-0.14839475 1912:0.41035315 1913:0.037328128 1914:0.054991722 1915:0.063050106 1916:0.037328128 1917:0.15688255 1918:0.071713366 1919:0.53459775 1920:-0.29671869 1921:-1.5784163 1922:0.84924984 1923:-0.89903772 1924:0.13212551 1925:-0.14370561 1926:0.21885456 1927:0.17137912 1928:-0.18016578 1929:-0.11568674 1930:-0.26211506 1931:0.18201676 1932:-0.24155156 1933:-0.090879895 1934:-0.047702242 1935:0.12720762 1936:0.16402981 1939:0.11031114 1940:0.26120597 1941:0.074418381 1942:-1.1878657 1943:0.18015133 1944:-0.038541075 1945:0.13025859 1946:0.084251761 1947:-0.67692035 1948:0.65944868 1949:0.33684489 1950:-0.23337217 1951:0.35705623 1952:-0.081673563 1953:-0.13000201 1954:-0.31074765 1955:-0.021809837 1956:-0.081673563 1957:-0.039265584 1958:0.019257311 1959:-0.18558259 1960:-0.18558259 1961:0.024467196 1962:-0.40804216 1963:-0.18558259 1964:-0.15042914 1965:-0.19773394 1966:-0.04967742 1967:0.015113184 1968:0.032715149 1969:0.1443709 1970:0.012896738 1971:0.30706149 1972:0.47565201 1973:-0.19935285 1974:-0.19935285 1975:-0.13743693 1976:-0.65739429 1977:1.0741445 1978:-0.46680352 1979:0.22411893 1980:0.95398062 1981:-0.24258518 1982:-0.35000762 1983:0.21752861 1984:0.038986813 1985:0.038986813 1986:0.21204126 1987:0.21204126 1988:0.19201401 1989:0.19201401 1990:-0.018047241 1991:-0.19704571 1992:0.42359412 1993:0.036674909 1994:0.022146437 1995:0.33253232 1996:-0.10690084 1997:-0.10334282 1998:-0.10690084 1999:0.11759909 2000:-0.2902714 2001:-0.10690084 2002:-0.27248174 2003:-0.089745522 2004:-0.28722337 2005:-0.063229114 2006:-0.026110541 2007:-0.12618379 2008:-0.75408083 2009:0.32271013 2010:-0.65033233 2011:-0.17187247 2012:-0.14461668 2013:0.3540979 2014:-0.39127487 2015:0.017158557 2016:-0.148514 2017:-0.0078864973 2018:0.14836024 2019:0.30312276 2020:0.017158557 2021:0.017158557 2022:-1.9951568 2023:0.53052866 2024:0.3954598 2025:0.3954598 2026:0.27540025 2027:-0.22395463 2028:-0.25514624 2029:0.16552289 2030:0.26519066 2031:0.17499968 2032:0.24422322 2033:-0.041671734 2034:0.08963117 2035:0.036609486 2036:-0.041671734 2037:0.15081516 2038:-0.18797174 2039:0.048174676 2040:0.20869331 2041:0.20869331 2042:-0.20431396 2043:0.47065979 2044:-0.20431396 2045:-0.20431396 2046:0.67335731 2047:0.42709193 2048:-0.23186286 2049:-0.052531354 2050:-0.2173536 2051:-0.064090483 2052:-0.2173536 2053:0.17057872 2054:-0.11686133 2055:-0.096858911 2056:0.29266769 2057:0.042392213 2058:0.049964294 2059:0.1099433 2060:-0.059405483 2061:0.68968129 2062:0.21163724 2063:0.27280602 2064:0.27280602 2065:0.37604904 2066:-0.64942801 2067:0.27613062 2068:0.16206533 2069:-0.16313121 2070:-0.26964927 2071:-0.14919299 2072:-0.12958553 2073:0.038688388 2074:0.32089818 2075:0.63218188 2076:0.4679133 2077:0.038688388 2078:0.038688388 2079:0.038688388 2080:0.024715219 2081:0.43675527 2082:0.2873081 2083:-0.2406619 2084:0.26944807 2085:0.020957775 2086:0.18758665 2087:0.4918406 2088:0.063689232 2091:-0.071410932 2092:-0.046229865 2093:-0.52998108 2094:0.50754881 2095:-0.076061785 2096:0.34644789 2098:-0.035095781 2099:0.040317129 2100:-0.15018399 2101:0.082533337 2102:0.24983719 2103:-0.14708747 2104:-0.17555873 2105:0.45162797 2106:-0.40117851 2107:0.052010134 2108:0.095081732 2109:-0.34414119 2110:0.14858961 2111:0.19674748 2112:0.39615148 2113:0.055737376 2114:-0.30476999 2115:0.050140776 2116:0.052820832 2117:-0.031289812 2118:-0.00035849187 2119:0.27200013 2120:-0.12105121 2121:-7.3461051e-05 2122:0.064884268 2123:0.21642144 2124:-0.12105121 2125:-0.26119739 2126:-0.38060483 2127:-0.21578115 2128:0.25036144 2129:-0.38060483 2130:0.32658005 2131:0.53561342 2132:0.17809336 2133:0.53561342 2134:0.47283092 2135:0.18498527 2136:0.056740258 2137:0.44828606 2138:0.067808166 2139:0.1067112 2140:-0.079549439 2141:0.41534302 2142:-0.12814629 2143:-0.022592975 2144:0.21097492 2145:-0.069483377 2146:-0.079549439 2147:-0.079549439 2148:-0.079549439 2149:0.77534264 2150:-0.12234632 2151:0.2034155 2152:-0.079549439 2153:-0.21094626 2154:-0.16074395 2155:-0.024995156 2156:0.57078278 2157:0.067050442 2158:-0.055958439 2159:0.52362889 2160:0.58584428 2161:0.39948466 2162:0.93536389 2163:0.21024084 2164:0.43748254 2165:0.068828426 2166:0.068828426 2167:0.068828426 2168:-0.3654657 2169:0.19117554 2170:0.11603032 2171:-0.24539919 2173:-0.43566924 2174:0.18094556 2175:-0.38913333 2176:0.39767784 2177:-0.43892643 2179:-0.13395284 2180:0.070629813 2181:0.33137017 2182:0.070629813 2183:0.070629813 2184:-0.2387927 2185:-0.10925753 2186:0.027803302 2187:0.10886841 2188:0.10886841 2189:0.10886841 2190:-0.016660079 2191:-0.17928271 2192:0.21361351 2193:0.071549691 2194:0.10886841 2195:-0.028712768 2196:0.011763644 2197:0.011763644 2198:-0.15991537 2199:0.27131528 2200:-0.21069686 2201:-0.14646317 2202:-0.1119474 2203:0.022807389 2204:-0.15991537 2205:-0.34088117 2206:0.052428775 2207:0.15956305 2208:-0.077881411 2209:-0.20821953 2210:-0.17222512 2211:-0.19572726 2212:0.13965049 2213:0.036804777 2214:0.020297024 2215:-0.40256217 2216:-0.19572726 2217:-0.51875079 2218:0.29604799 2219:-0.28522351 2220:-0.22911893 2221:0.16732973 2222:-0.029412869 2223:-0.014706435 2224:-0.62169349 2225:0.070738547 2226:0.070738547 2227:0.035830289 2228:0.070738547 2229:0.068776481 2230:0.064787835 2231:0.070738547 2232:0.070738547 2233:0.22859913 2234:0.070738547 2235:-0.13132071 2236:-0.20710012 2237:0.25606471 2238:0.25606471 2239:0.71777672 2240:0.25606471 2241:0.191319 2242:-0.24051261 2243:-0.24051261 2244:0.16430569 2245:-0.24206103 2246:-0.46004304 2247:-0.126936 2248:-0.126936 2249:-0.126936 2250:-0.073648684 2251:-0.4611659 2252:0.045404758 2253:0.049843438 2254:0.040385991 2255:0.25916266 2256:0.13039884 2257:-0.21363325 2258:-0.094984293 2259:0.28537539 2260:-0.22090544 2261:-0.32458094 2262:0.13924348 2263:0.13924348 2264:0.057479877 2265:0.22569016 2266:0.22569016 2268:0.12657261 2269:-0.1738068 2270:-0.020323206 2271:-0.38463756 2273:-0.0048243739 2274:0.023974957 2275:-0.097358525 2276:-0.097358525 2277:-0.097358525 2278:-0.097358525 2279:-0.097358525 2280:-0.67596537 2283:0.22563383 2284:0.32118005 2285:-0.20114912 2286:-0.19717205 2287:0.039486371 2288:-0.42007047 2289:0.26306647 2290:-0.22610618 2291:-0.17192778 2292:0.14312093 2293:-0.16422693 2294:-0.17192778 2295:0.022298694 2296:-0.040699512 2297:-0.040699512 2298:-0.040699512 2299:-0.26371109 2300:0.21122499 2301:-0.061212186 2302:0.1838102 2303:0.14916544 2304:-0.10321187 2305:0.1838102 2306:0.44989464 2307:-0.09474545 2308:-0.42956245 2309:0.29396364 2310:0.36318514 2311:0.5617429 2312:-0.066859089 2314:0.70181072 2315:0.30821538 2316:-0.21357968 2317:-1.0285522 2318:0.37857145 2319:-0.12066718 2320:0.30055687 2321:0.26368263 2322:0.35388187 2324:-0.10207888 2325:0.11150955 2326:0.17897314 2327:0.19336711 2328:0.019038828 2329:0.14320847 2330:0.14320847 2331:-0.092080876 2332:0.14320847 2333:0.34929127 2334:0.35753074 2335:0.12363326 2336:0.22397524 2337:-0.3485823 2338:-0.14446287 2339:-0.041280553 2340:0.32840976 2341:-0.59462583 2342:0.46214661 2343:-0.083277419 2344:-0.15213709 2345:0.055398047 2346:-0.17809585 2347:-0.40634787 2348:-0.28237462 2349:0.47298774 2350:-0.31452516 2351:-0.209649 2352:0.099268064 2353:0.25535363 2354:-0.13106242 2355:0.14792652 2356:0.0026090918 2357:-0.12763274 2358:-0.21499328 2359:-0.21499328 2360:-0.1727028 2361:0.20695913 2362:0.80423707 2363:0.20695913 2364:0.11282187 2365:0.12169679 2366:0.18954721 2367:-0.10810953 2368:-0.28279433 2369:0.049672455 2370:0.053897262 2371:0.049361508 2372:0.11893978 2373:0.013901603 2374:0.075211912 2375:0.1967397 2376:0.023707252 2377:0.053897262 2378:0.4574112 2379:-0.021196032 2380:0.1459869 2381:-0.36784962 2382:-0.16189611 2383:-0.021196032 2384:-0.021196032 2385:0.4939979 2386:0.30010277 2387:-0.021196032 2388:-0.055332381 2389:0.063657492 2390:0.19815306 2391:0.27327919 2392:0.17808804 2393:0.42505267 2394:-0.1058375 2395:0.10143413 2396:0.39754695 2397:-0.072910771 2398:-0.079607725 2399:-0.087926328 2400:0.26308143 2401:0.48542657 2402:0.017388487 2403:0.25312439 2404:0.1932686 2405:-0.079607725 2406:-0.079607725 2407:0.016693216 2410:0.17057419 2411:0.59583867 2412:0.10020868 2413:0.10941575 2414:0.10941575 2415:0.18551195 2416:0.59547311 2417:0.10941575 2418:0.19719464 2419:0.17091873 2420:0.10941575 2421:0.22485855 2422:0.036062296 2423:0.036062296 2424:-0.19459178 2425:0.15667322 2426:0.11693735 2427:-0.016520547 2428:0.29520985 2429:0.14339593 2430:0.085787408 2431:0.036062296 2432:0.033028506 2433:0.036062296 2434:0.68277514 2435:0.036062296 2436:-0.21602535 2437:0.036062296 2438:0.53555214 2439:0.12359267 2440:0.24658909 2441:-0.085576423 2442:0.13045335 2443:-0.17385933 2444:-0.18864173 2445:0.55823201 2446:0.35337919 2447:1.0748365 2448:0.17838287 2449:-0.33098468 2450:-0.1234055 2451:0.17105266 2452:-0.43209001 2453:-0.4541738 2454:-0.4541738 2455:-0.22953537 2456:-0.49109596 2457:0.13853043 2458:0.041895986 2459:0.04174317 2460:-0.083172388 2461:0.073074989 2462:-0.11062023 2463:0.080361366 2464:-0.17161298 2465:0.15914661 2466:0.89340931 2467:-0.017923193 2468:0.44508207 2469:0.04174317 2470:0.04174317 2471:0.012365487 2473:0.1290292 2474:0.18822789 2475:-0.15542331 2476:-0.07431218 2477:-0.078149132 2478:-0.083778769 2479:-0.065827295 2481:0.18408442 2482:0.29099664 2483:0.17614943 2484:-0.064174391 2486:0.02902502 2487:0.15701914 2489:0.24297872 2490:-0.25872478 2491:-0.46716344 2492:-0.46716344 2493:0.30572921 2494:0.016187211 2495:0.01767393 2496:-0.072419278 2497:0.05029038 2498:0.38435429 2499:0.082200594 2500:-0.059752252 2501:-0.070660368 2502:0.14660978 2503:0.19018783 2504:-0.37558088 2505:0.35766017 2506:0.23086381 2507:-0.13822727 2508:-0.035030618 2509:-0.2653358 2510:-0.12503026 2511:0.028199388 2512:0.30113015 2513:-0.15244983 2514:-0.16645351 2515:-0.33049327 2516:-0.15244983 2517:1.1419117 2518:0.18142416 2519:-0.30080807 2520:-0.30080807 2521:-0.40188286 2522:-0.053844593 2523:-0.20378001 2524:0.15621328 2525:-0.064774774 2526:-0.035791054 2527:-0.071921162 2528:-0.071921162 2529:-0.071921162 2530:0.19943942 2531:0.074222513 2532:0.19943942 2533:-0.19116224 2534:-0.24046551 2535:-0.18089291 2536:-0.19116224 2537:-0.16748795 2538:-0.090361521 2539:-0.0094451541 2540:0.54495901 2541:-0.025261788 2542:-0.15870871 2543:-0.18119583 2544:0.042764988 2545:0.074635088 2546:-0.0094451541 2547:0.19956397 2548:0.12519528 2549:-0.18514286 2550:-0.0094451541 2553:0.24891719 2554:0.21343128 2555:-0.014747571 2556:0.48446417 2558:0.12784494 2559:0.23593538 2560:0.23593538 2561:-0.20191017 2562:-0.22045812 2563:-0.53171176 2564:-0.22045812 2565:-0.22045812 2566:-0.14852798 2567:-0.22218779 2568:-0.15489231 2569:-0.082564816 2570:-0.87623054 2571:0.58903617 2572:-0.18008934 2573:-0.2374879 2574:0.35461009 2575:0.32504177 2576:0.080906726 2577:-0.13460466 2578:0.013575111 2579:0.013575111 2580:0.49202451 2581:-0.093712851 2582:-0.21572262 2583:-0.42401433 2584:0.26329079 2585:-0.52460247 2586:0.42308027 2587:0.31764227 2588:0.01978042 2589:0.38282445 2590:0.012139469 2591:0.26611 2592:-0.36623731 2593:0.327178 2594:0.35375416 2598:0.17945699 2599:0.30327809 2600:9.3148818e-05 2601:-0.016844958 2602:-0.19576858 2603:0.4137727 2604:0.29123211 2605:-0.17208007 2606:-0.0019935651 2607:-0.049169376 2608:-0.084778227 2609:-0.26027671 2610:-0.090151474 2611:0.072128534 2612:0.072128534 2613:0.072128534 2614:0.072128534 2615:-0.19227493 2616:-0.13386846 2617:0.072128534 2618:-0.25857016 2619:0.36072415 2620:0.007327667 2621:-0.079200618 2622:0.0084549775 2623:0.084256083 2624:0.32139611 2625:0.3596524 2626:0.3596524 2627:-0.013651783 2628:-0.076693639 2629:-0.013029728 2630:-0.013651783 2631:-0.41516039 2632:-0.013651783 2633:0.096579514 2634:-0.28185216 2635:0.17093982 2636:0.0059649479 2637:-0.24544132 2638:-0.11155233 2639:-0.11155233 2640:-0.11155233 2641:-0.11155233 2642:-0.034599204 2643:0.15436156 2644:-0.17936482 2645:0.18663679 2646:0.05402879 2647:-0.33966929 2648:-0.2525143 2649:-0.22427271 2650:-0.19528367 2651:0.19601589 2652:0.37300125 2653:-0.01188087 2654:-0.067843989 2655:0.23923457 2656:0.19601589 2657:0.18942502 2658:0.19601589 2659:0.27903011 2660:0.079510808 2661:0.086998932 2662:0.0098458743 2663:-0.010711278 2664:-0.010711278 2665:-0.37819177 2666:-0.054583672 2667:0.54262775 2668:-0.2644957 2669:-0.13832109 2670:-0.15727869 2672:-0.50003153 2673:0.17712653 2674:-0.0081203664 2676:-0.2678346 2678:0.091033079 2679:-0.12515596 2680:-0.16105048 2681:-0.2670601 2682:0.36816251 2683:-0.024094904 2684:0.045497153 2685:0.19589889 2686:0.16004845 2687:-0.35116681 2688:0.45342508 2689:0.046325762 2690:0.089542829 2691:0.089542829 2692:-0.2125565 2693:-0.19784616 2694:-0.18434209 2695:-0.0078200391 2696:-0.28275776 2697:0.80799145 2698:-0.34211299 2699:-0.19571956 2700:0.52542317 2701:-0.5235042 2702:0.33621553 2703:0.076640174 2704:0.059580106 2705:0.17001355 2706:0.076640174 2707:0.0070176939 2708:-0.27519959 2709:0.14461835 2710:-0.42314056 2711:-0.4785665 2712:0.11818507 2713:-0.14552197 2714:-0.15569793 2715:-0.10948114 2716:-0.1563676 2717:-0.18465608 2718:0.26885995 2719:0.28062102 2720:-0.061909348 2721:-0.070386022 2722:-0.015152567 2723:0.25695133 2724:-0.070386022 2725:0.32166427 2726:0.088890366 2727:0.57121062 2728:-0.1050786 2729:-0.22768342 2730:-0.22768342 2731:0.38235268 2732:0.086318187 2733:0.1943175 2734:-0.030420683 2735:-0.030420683 2736:0.37531394 2737:-0.80120462 2738:-0.80120462 2739:-0.31531048 2740:-0.26364702 2741:0.13754173 2742:-0.37470448 2743:0.36870649 2744:-0.11114483 2745:-0.060071602 2746:-0.18274811 2747:0.39497092 2749:-0.24886996 2750:-0.039409056 2751:0.10733596 2752:0.18792093 2753:0.30237988 2754:-0.55840874 2755:-0.10649996 2756:-0.0046212231 2757:-0.37406233 2758:0.76084328 2759:0.32888401 2760:0.29062739 2761:0.39860412 2762:0.46690944 2763:0.18956083 2764:0.49325764 2765:-0.6572364 2766:0.39188471 2767:0.21571083 2768:0.26401076 2769:0.35449857 2770:0.60468525 2771:0.60468525 2772:0.1433726 2773:-0.62878895 2774:0.56886947 2775:0.094988413 2776:0.094988413 2777:0.094988413 2778:-0.44996363 2779:0.10908767 2780:-0.11658142 2781:-0.11658142 2782:0.054186095 2783:-0.11658142 2784:-0.076308683 2785:-0.044446211 2786:-0.1999221 2787:-0.076308683 2790:0.14591774 2791:0.096305892 2792:0.14591774 2793:0.14591774 2794:0.14591774 2795:0.17662916 2796:0.14591774 2797:0.26284879 2798:-0.098209463 2799:0.20694539 2800:0.21111163 2801:0.42027432 2802:0.27213579 2803:0.33530113 2804:0.39447242 2805:0.068714768 2806:0.068714768 2807:-0.10836899 2808:-0.201518 2809:0.14350699 2810:0.042440556 2811:-0.07896363 2812:-0.0080126263 2813:-0.29034632 2814:-0.10998847 2815:0.84921783 2816:0.23181227 2817:0.61628371 2818:0.083393015 2819:0.064595215 2822:-0.054316923 2823:-0.17965987 2825:-0.018931508 2826:-0.018931508 2827:-0.31958401 2828:0.51472753 2829:-0.72933686 2830:-0.018931508 2831:-0.1535887 2832:-0.018931508 2833:-0.029119955 2834:-0.018931508 2835:0.022313891 2836:0.49500027 2840:0.078423873 2841:0.46892869 2842:0.37192857 2843:0.030159686 2844:0.21583937 2845:-0.33495066 2846:-0.037446354 2847:0.079202853 2848:0.4548682 2849:0.17539518 2850:0.1825843 2851:-0.1167232 2852:-0.14532228 2853:0.33126783 2854:0.16006292 2855:-0.2266268 2856:-0.1167232 2857:-0.02259819 2858:0.38330099 2859:0.0024682179 2860:0.094622836 2861:-0.017886044 2862:-0.16215122 2863:-0.10690356 2864:-0.38273719 2865:-0.0029736706 2866:0.23049729 2867:0.38681442 2868:0.3893846 2869:0.14816286 2870:0.090971276 2871:0.054472938 2872:0.14816286 2873:-0.18836415 2874:0.14816286 2875:0.0269932 2876:-0.0051950635 2877:0.085626096 2878:0.6007297 2879:0.13356356 2880:0.085626096 2881:0.085626096 2882:0.085626096 2883:0.085626096 2884:0.067565523 2885:0.24737933 2886:0.39798772 2887:0.27583474 2888:0.25513297 2889:0.41093978 2890:0.14112531 2891:0.10587901 2892:0.18868476 2893:-0.31042787 2894:-0.030744113 2895:0.02835881 2896:-0.030744113 2897:-0.030744113 2898:-0.031247234 2899:-0.0028756906 2900:0.1887196 2901:0.29335344 2902:0.40314701 2903:0.53017086 2904:-0.14048073 2905:0.3824977 2906:0.38380635 2907:0.53914541 2908:0.40309188 2909:-0.056693345 2910:-0.66622627 2911:-0.13899821 2912:-0.030590573 2914:0.48592034 2915:0.23178639 2916:-0.030289514 2917:-0.022418067 2918:-0.066377051 2919:-0.057597827 2920:-0.06979309 2922:-1.5565783 2923:0.02172528 2924:-0.070132256 2925:0.38449696 2926:-0.13014312 2927:-0.18477075 2928:-0.018156787 2929:0.15885366 2930:-0.070132256 2931:-0.0020003135 2932:-0.20772512 2933:-0.098369569 2934:0.087193973 2935:0.0068416232 2937:-0.33440918 2939:0.47056502 2940:0.68973809 2941:-0.60018569 2943:0.0023699282 2944:0.22540307 2945:-0.15854079 2946:0.27061635 2947:-0.076280706 2948:0.24540256 2949:0.41659567 2950:0.24540256 2951:0.24540256 2952:-0.44738039 2953:-0.23006751 2954:-0.80453324 2955:0.51534635 2956:-0.23006751 2957:-0.18665653 2958:-0.041312572 2959:-0.19503295 2960:0.00038260024 2961:-0.23006751 2962:-0.28619131 2963:-0.23006751 2964:-0.29289761 2965:0.28602898 2966:0.28602898 2967:-0.23006751 2968:0.29749158 2969:0.32481751 2970:-0.16186294 2971:-0.047724057 2973:0.21223925 2975:0.042229503 2977:-0.062108397 2978:0.083078839 2979:0.083078839 2980:0.083078839 2981:-0.42393354 2982:-0.062324971 2983:0.39748296 2984:0.083078839 2985:0.0028860122 2986:-0.98344129 2987:0.1637681 2988:-0.48388135 2989:0.13417867 2990:-0.14933009 2991:0.18136357 2992:0.18136357 2993:-0.13185184 2994:-0.23031451 2995:0.17115957 2996:0.17115957 2997:0.20578077 2998:-0.21719846 2999:0.19039354 3000:-0.021230448 3001:0.25000563 3002:-0.19284149 3003:-0.29680285 3004:0.58370328 3005:-0.35019526 3006:0.39778832 3007:0.31628051 3008:0.27323118 3010:0.022894848 3012:0.63286448 3013:0.021047769 3015:0.51764709 3016:0.10995509 3017:-0.16356827 3018:0.26962641 3019:-0.041235164 3020:-0.15590155 3021:-0.04369358 3022:-0.20104969 3023:0.43667203 3024:0.28806245 3025:0.28806245 3026:0.066636823 3027:0.14666824 3028:0.36340007 3029:-0.5933727 3030:0.32601014 3031:0.060722146 3032:-0.018304005 3033:-0.22509363 3035:0.061667494 3036:-0.29669178 3037:0.49648404 3038:0.16840298 3039:0.014184805 3040:-0.28398275 3041:-0.23469719 3042:-0.23469719 3043:0.11996665 3044:0.20511155 3045:0.072193101 3046:-0.12039145 3047:-0.063650228 3048:-0.060195725 3049:-0.013398744 3050:-0.19484337 3051:-0.060195725 3052:-0.090865359 3053:-0.1439755 3054:-0.078609943 3055:-0.022409126 3056:-0.24002726 3057:-0.18713637 3058:-0.0054579135 3059:0.14114986 3060:-0.044873737 3061:-0.026320584 3065:0.080238216 3066:0.080238216 3067:0.080238216 3068:0.55846101 3069:-0.18312916 3070:-0.051109232 3071:0.015286868 3072:-0.16718587 3073:0.062250074 3074:-0.4064855 3075:-0.27966908 3076:-0.22919129 3077:0.26967904 3078:0.18469428 3079:0.18580058 3080:0.18580058 3081:-0.15381591 3082:-0.039669659 3083:-0.12447389 3084:-0.27768219 3085:0.47811601 3086:-0.11920009 3087:0.17822993 3088:-0.11685091 3089:-0.216885 3090:-0.216885 3091:-0.216885 3092:-0.216885 3093:-0.06279508 3094:-0.095534854 3095:-0.41845378 3096:-0.28929457 3097:-0.40277058 3098:-0.45689076 3099:-0.32577556 3102:0.05252162 3104:-0.4508594 3105:0.2364642 3106:0.14959782 3107:0.25818491 3108:-0.71492165 3109:-0.61834908 3110:-0.21086496 3111:0.012827228 3112:0.012827228 3113:0.012827228 3114:0.012827228 3115:0.28107646 3116:0.012827228 3117:-0.07668785 3118:0.33232394 3119:-0.088978797 3120:0.012827228 3121:0.066359609 3122:0.012827228 3123:0.012827228 3124:-0.072649278 3125:0.012827228 3126:0.012827228 3127:-0.03215431 3128:-0.20606588 3129:-0.20606588 3130:-0.20606588 3131:-0.0046806992 3132:-0.048150472 3133:0.24751401 3134:-0.13702533 3135:0.42280704 3136:-0.049921077 3137:-0.5141418 3138:-0.088650294 3139:0.28807589 3140:0.20548573 3141:-0.088650294 3142:-0.11166751 3143:-0.12018572 3144:-0.088650294 3145:0.22219677 3146:-0.11931579 3147:-0.12660378 3148:0.14752255 3149:-0.088650294 3150:-0.088650294 3151:-0.10337792 3152:-0.124246 3153:-0.21936992 3154:-0.21936992 3155:-0.22864394 3156:0.34558764 3157:-0.67714393 3158:-0.13380429 3159:0.52703744 3161:0.24797927 3162:0.37249088 3163:0.04670798 3164:0.37249088 3165:-0.066182829 3166:-0.19094238 3167:0.37249088 3168:-0.1053384 3169:0.071979105 3170:0.063824035 3171:0.11471054 3172:-0.26568681 3173:-0.029547386 3174:-0.011539049 3175:-0.021234032 3176:-0.081940942 3177:-0.01365932 3178:-0.11701086 3179:-0.13322043 3180:-0.13322043 3181:-0.2009097 3182:-0.29561555 3183:0.49693236 3184:0.052429795 3185:0.052429795 3186:0.056164898 3187:0.052429795 3188:0.22059202 3189:-0.28718147 3190:0.12236031 3191:0.31499758 3192:0.48359382 3193:0.33445311 3194:0.40536329 3195:0.075136431 3196:-0.3686226 3197:0.81162149 3198:-0.074321225 3199:0.32608652 3200:0.32608652 3201:0.5604338 3202:-0.009886113 3203:0.10601374 3206:0.2090756 3207:0.0093351882 3208:0.067143932 3209:-0.18970364 3210:-0.18764162 3211:0.41540763 3212:-0.26266891 3213:-0.093415052 3214:-0.16777225 3215:0.48928803 3216:-0.16777225 3217:-0.16777225 3218:-0.077756397 3219:-0.16777225 3220:-0.15365784 3221:0.12078507 3222:-0.0049979538 3223:-0.46603766 3224:-0.053013433 3225:0.04022193 3226:0.035416432 3227:0.56711686 3228:0.21986014 3229:-0.34641698 3230:-0.12597588 3231:-0.31362298 3232:-0.31362298 3233:-0.31362298 3234:-0.35139754 3235:1.0475397 3236:0.035145663 3237:0.083846517 3238:0.035145663 3239:0.0085265702 3240:-0.035308074 3241:0.12996228 3242:0.25842893 3243:0.3840985 3244:0.19502491 3245:0.20340158 3246:0.10117223 3247:0.13763009 3248:0.21655157 3249:0.18263733 3250:0.14451006 3251:0.029920703 3252:-0.0014651167 3253:-0.049439531 3254:-0.049439531 3255:-0.067044161 3256:-0.049439531 3257:-0.049439531 3258:-0.049439531 3259:-0.049439531 3260:0.01466559 3261:0.1403835 3262:-0.045639053 3263:-0.049439531 3264:0.028190967 3265:0.13544711 3266:-0.049439531 3267:-0.27663353 3268:0.14562605 3269:0.065004066 3270:-0.049439531 3271:-0.049439531 3272:-0.18156348 3273:-0.35291278 3274:-0.049439531 3275:-0.42840195 3276:-0.048517395 3277:0.085509039 3278:0.21776995 3279:-0.38510182 3280:-0.024287265 3281:0.63240278 3282:-0.23265731 3283:-0.026519058 3286:0.20495635 3287:0.092955597 3288:0.54230613 3289:-0.03398452 3290:0.23437312 3291:0.20876342 3292:-0.42317143 3293:0.23437312 3294:0.23437312 3295:0.68866366 3296:-0.0073734256 3297:0.058105294 3298:-0.30587515 3299:0.54970002 3300:-0.27087927 3301:0.092706881 3302:-0.080031328 3303:-0.682437 3304:0.48845723 3305:0.26340383 3306:-0.11798001 3307:0.0074668429 3308:0.086328849 3309:-0.1012277 3310:-0.348001 3311:0.59684652 3312:-0.14257377 3313:1.2825288 3314:0.15488258 3315:-0.43501797 3316:-0.82495129 3317:-0.18201129 3318:0.23226367 3319:-0.18201129 3320:-0.18201129 3321:-0.18201129 3322:0.39577705 3323:-0.18201129 3324:-0.49262238 3325:0.071558259 3326:0.2542783 3327:-0.11164221 3328:-0.18220268 3329:-0.18201129 3330:0.26224107 3331:0.21932837 3332:0.23947486 3333:0.31587487 3334:0.23947486 3335:-0.22442357 3336:-0.071786851 3337:0.39860839 3338:0.44536856 3339:0.087052353 3340:0.043157272 3341:0.13254552 3342:-0.013765581 3343:0.21247876 3344:0.194603 3345:-0.33998412 3346:0.1483572 3347:0.21273795 3348:0.036678683 3349:0.0098726135 3350:-0.040266264 3351:-0.061012425 3352:-0.081748568 3353:0.12277857 3354:0.13405557 3355:-0.0548274 3356:0.080070488 3357:-0.07813897 3358:0.17304549 3359:-0.48844734 3360:0.29631215 3361:-0.094818838 3362:0.054818396 3363:0.11055342 3364:0.054818396 3365:0.054818396 3366:-0.077821009 3367:0.081471823 3368:0.054818396 3369:0.13701741 3370:0.13701741 3371:-0.014917292 3372:-0.014917292 3373:-0.014917292 3374:-0.029995022 3375:-0.014917292 3376:-0.014917292 3377:0.40714651 3378:-0.014917292 3379:0.29017812 3380:0.03392322 3381:-0.60455376 3382:0.044629786 3383:-0.087663136 3384:-0.54047763 3385:0.16671295 3386:-0.36873654 3387:0.15002441 3388:-0.22687981 3389:0.26983997 3390:0.32465535 3391:-0.036766086 3392:0.10328276 3393:0.021510085 3394:0.0034902098 3395:0.024241751 3396:-0.25803256 3397:-0.16154158 3398:0.3237052 3399:0.0034902098 3400:-0.37702638 3401:-0.21214117 3402:-0.036085267 3403:0.04460359 3404:0.18562269 3405:0.072620012 3406:0.13649802 3407:0.16192894 3408:-0.064988397 3409:0.13649802 3410:0.20430703 3411:-0.10788893 3412:0.22267815 3413:-0.24978788 3414:0.12738264 3415:0.30311087 3416:-0.051523156 3417:0.38501304 3418:0.38501304 3419:0.79241574 3420:-0.14529231 3421:0.36413202 3422:-0.49473989 3423:0.2836723 3424:0.00013553238 3425:0.2836723 3426:0.28778559 3427:0.42779139 3428:0.42779139 3429:0.23912257 3430:0.42779139 3431:0.33300537 3432:0.27577341 3433:-0.066485338 3434:-0.0466608 3435:-0.17924428 3436:0.19678892 3437:0.19678892 3439:0.21610318 3440:-0.050715491 3442:-0.064190589 3443:0.084910586 3444:-0.47016358 3445:-0.012917692 3446:0.22085698 3447:-0.065578699 3448:0.31166419 3449:0.37205154 3450:0.29658437 3451:-0.24943538 3452:-0.054387171 3453:-0.054387171 3454:-0.17909399 3455:0.16785562 3456:0.34871176 3457:-0.054387171 3458:-0.09020108 3459:-0.09020108 3460:-0.34474716 3461:-0.09020108 3462:-0.52069587 3463:-0.15103431 3464:-0.22264823 3465:-0.12720521 3466:0.038337339 3467:-0.1165041 3468:-0.12720521 3469:-0.12720521 3470:-0.1802299 3471:-0.12720521 3472:0.59266013 3473:-0.053697154 3474:0.12091921 3475:0.18117747 3476:0.086457267 3477:0.091990441 3478:0.17256795 3479:0.091990441 3480:0.24653909 3481:-0.21180749 3482:-0.084867254 3483:0.062190585 3484:0.090933181 3485:0.090933181 3486:0.090933181 3487:-0.0070690317 3488:0.090933181 3489:0.052482031 3490:-0.13575432 3491:0.15061258 3492:0.32829642 3493:0.088257603 3495:0.25145796 3496:0.21454547 3497:0.14428464 3498:-1.1063396 3499:-0.030424947 3500:-0.038910624 3501:-0.1535612 3502:-0.39871445 3503:-0.1535612 3504:0.074395746 3505:-0.1535612 3506:-0.14064501 3507:0.21632877 3508:-0.387003 3510:0.58725232 3512:0.082783714 3513:0.0045954385 3514:0.27105966 3515:0.14142612 3516:0.27105966 3517:0.27105966 3518:0.18781242 3519:0.21096049 3520:0.051279567 3521:0.2647492 3522:0.2647492 3523:0.23127505 3524:-0.015310796 3525:-0.015310796 3526:-0.015310796 3527:0.15881215 3528:-0.20410907 3529:0.42415184 3530:0.30184475 3531:0.24925381 3532:0.17235672 3533:0.075814344 3534:0.14700666 3535:-0.026047688 3536:-0.026047688 3537:-0.026047688 3538:-0.026047688 3539:-0.078380488 3540:-0.026047688 3541:-0.074213699 3542:-0.025813824 3543:-0.023642026 3544:-0.025813824 3545:0.20905308 3546:-0.020052275 3547:-0.0081378967 3548:0.056791045 3549:0.54493046 3550:0.10383624 3551:0.054458078 3552:-0.011751398 3553:-0.030041998 3554:-0.015777707 3555:0.36771229 3556:0.013785762 3557:-0.015777707 3558:0.012318935 3559:-0.015777707 3560:0.029069487 3561:0.74887055 3562:-0.29739583 3563:0.040451888 3564:0.43556443 3565:-0.067189179 3566:-0.24718505 3567:0.17755002 3568:0.19017464 3569:0.38620499 3570:0.45966914 3571:0.50572246 3572:0.53444558 3573:-0.26585162 3574:-0.39571345 3575:-0.39412203 3576:0.13475837 3577:-0.21782647 3578:-0.12476561 3579:-0.50854558 3580:0.1187236 3581:0.12963121 3582:0.12963121 3583:0.21189308 3584:0.7540307 3585:0.55080378 3586:0.02902857 3587:-0.10812217 3588:-0.40467814 3589:0.015451089 3590:0.14759192 3591:0.14759192 3592:0.14759192 3593:0.14759192 3594:0.14759192 3595:-0.33893725 3596:0.16984579 3597:0.14759192 3598:0.010058559 3599:0.068571359 3600:0.14775111 3604:0.40805319 3605:-0.31638867 3606:-0.31638867 3607:0.13820058 3608:-0.17304254 3609:0.84339082 3610:-0.034664158 3611:-0.026782081 3612:0.18003383 3613:0.21257886 3614:0.37619722 3615:0.40431446 3616:-0.002946669 3617:0.18293054 3618:0.18293054 3619:0.18293054 3620:-0.08273223 3621:-0.011982093 3622:0.051917054 3623:0.18293054 3624:-0.094877504 3625:-0.2637547 3626:0.97775871 3627:0.65601057 3628:0.12701005 3629:-0.089829728 3630:0.052827168 3631:0.052827168 3632:0.056402873 3633:0.048964404 3634:0.056402873 3635:0.18161401 3636:0.056402873 3637:-0.22616036 3638:0.066606171 3639:0.13705827 3642:-0.10236892 3644:0.42540008 3645:-0.11737786 3646:-0.31725493 3647:-0.012443983 3648:0.14745718 3649:0.10716858 3650:-0.10565505 3651:0.37051299 3652:-0.64879835 3653:0.16408396 3654:0.010597813 3655:0.010597813 3656:-0.078172594 3657:0.009707056 3658:-0.37032402 3659:-0.17209791 3660:0.1167566 3661:0.058378302 3662:0.066953793 3663:0.058378302 3664:0.058378302 3665:-0.12958218 3666:-0.15011054 3667:-0.39368498 3668:0.015013988 3669:-0.49072134 3670:0.47375703 3671:-0.010349102 3672:0.064971462 3673:-0.12036723 3674:-0.017450469 3675:0.24569522 3676:-0.11099134 3677:-0.017450469 3678:-0.017450469 3679:-0.11034222 3680:-0.017450469 3681:-0.15385012 3682:-0.07720007 3683:-0.017450469 3684:-0.017450469 3685:-0.017450469 3686:0.01117248 3687:-0.26661918 3688:0.74470317 3690:-0.061465785 3694:0.013690242 3697:0.16745223 3698:-0.79693794 3699:-0.76461625 3700:-0.51009572 3702:0.32729459 3706:-0.19655766 3707:-0.032056853 3708:-0.19655766 3709:0.079142384 3710:-0.098451063 3711:-0.042714849 3712:-0.21852323 3713:0.13042013 3714:-0.098451063 3715:-0.098451063 3716:-0.03095437 3717:-0.098451063 3718:-0.098451063 3719:0.36917871 3720:0.11929692 3721:0.17640562 3722:0.17640562 3723:-0.10170685 3724:0.55388099 3725:0.069529377 3726:0.55510974 3727:0.24220419 3728:-0.13724901 3729:0.049062103 3730:0.069529377 3731:0.069529377 3732:-0.16183694 3733:-0.16183694 3734:-0.16183694 3735:-0.38870645 3736:-0.47619861 3737:-0.10304467 3738:0.22697084 3739:0.23371398 3740:0.14578784 3741:0.14578784 3742:0.14578784 3743:0.14578784 3744:-0.39719164 3745:0.14578784 3746:0.029272461 3747:0.14578784 3748:0.14578784 3749:0.25116083 3750:0.11772706 3751:0.14578784 3752:-0.0097884014 3753:-0.16463293 3754:-0.10650725 3755:-0.16369912 3756:-0.089337289 3757:-0.048119567 3758:-0.048119567 3762:-0.044795509 3764:-0.22185142 3766:0.20808202 3771:-0.24926269 3772:0.16701381 3773:-0.13063166 3774:-0.013125336 3775:0.11100253 3776:-0.070429988 3777:0.047804758 3778:-0.013125336 3779:-0.22212826 3780:-0.17909235 3781:-0.17909235 3782:-0.21308801 3783:-0.092811614 3784:-0.17909235 3785:0.014724588 3786:0.013486553 3787:0.078848742 3788:0.014724588 3789:0.072089709 3790:0.28655425 3791:-0.17895302 3792:-0.13069804 3793:-0.22439671 3795:1.1423131 3797:0.028721334 3798:0.2443089 3799:0.43277901 3800:-0.013754614 3801:-0.013754614 3802:0.021461589 3803:0.021461589 3804:-0.344015 3805:-0.63634104 3806:0.021461589 3807:0.021461589 3808:-0.046794098 3809:0.021461589 3810:0.042923179 3811:0.021461589 3812:0.14057821 3813:0.021461589 3814:-0.15179983 3815:-0.15179983 3816:0.11142941 3817:0.078586154 3818:-0.054109775 3819:-0.06899707 3820:0.90655601 3821:-0.17037 3822:-0.26302436 3823:-0.37584549 3824:-0.021609006 3825:0.15194452 3826:0.022829266 3828:-0.082043663 3829:-0.20776847 3831:0.13664041 3832:0.097763918 3833:0.33982578 3834:0.64068162 3835:-0.10641333 3836:-0.33818814 3837:-0.10641333 3838:-0.19522373 3839:-0.13624878 3840:0.56076717 3841:0.026035521 3842:0.13591275 3843:0.31019843 3844:0.16739683 3845:0.3948319 3846:0.10555316 3847:0.024806812 3848:0.35326019 3849:0.074410334 3850:0.024806812 3851:0.016333733 3852:0.024806812 3853:-0.020133467 3854:0.024806812 3855:0.022717062 3856:0.024806812 3857:-0.044108395 3858:-0.20998394 3859:0.20330483 3860:-0.044108395 3861:0.070532367 3862:-0.044108395 3863:-0.044108395 3864:-0.20720704 3865:-0.29650304 3866:-0.29650304 3867:0.21867272 3868:0.21606092 3871:0.020651758 3872:0.020651758 3873:0.190678 3874:-0.48225269 3875:0.020651758 3876:0.095065162 3877:-0.3115066 3879:0.10497399 3880:0.56698465 3881:0.094646171 3882:-0.38177007 3883:-0.051800109 3884:-0.085097656 3885:0.22981633 3886:0.09616264 3887:-0.051800109 3888:-0.051800109 3889:-0.051800109 3890:-0.051800109 3891:0.044873286 3892:-0.051800109 3893:0.16515481 3894:0.10802488 3895:-0.20989928 3896:0.19239905 3897:0.049609002 3898:-0.1975199 3899:0.21442205 3900:0.076668717 3901:0.076668717 3902:-0.060166802 3903:0.33810043 3904:0.26061478 3905:0.017923869 3906:-0.045220427 3907:-0.22363879 3908:0.19905843 3909:-0.045220427 3910:-0.045220427 3911:-0.045220427 3912:-0.041415356 3913:-0.13435115 3914:-0.062888704 3915:-0.057597827 3916:-0.0019142468 3917:-0.062888704 3918:-0.024873568 3919:0.46207145 3920:-0.068837248 3921:-0.27876505 3922:0.12796484 3923:0.22147919 3924:-0.098233245 3925:-0.28918135 3926:-0.020804163 3927:-0.46412843 3928:0.6585269 3929:-0.10429902 3930:-0.34225273 3931:-0.015324635 3933:-0.19331469 3934:-0.36318251 3935:-0.35304976 3936:-0.36531577 3937:0.095532253 3938:0.22892544 3940:-0.38844162 3941:-0.23018153 3942:-0.066286065 3943:0.05380765 3944:-0.0020655782 3945:0.12440293 3947:-0.46489522 3949:0.14445685 3950:-0.2650449 3951:0.2749584 3952:0.069958866 3953:-0.12031441 3954:-0.29351938 3955:-0.0081909234 3956:0.14059767 3957:-0.13136563 3958:-0.060713965 3959:-0.32943192 3960:-0.40662727 3961:-0.40662727 3962:-0.40662727 3963:-0.16644226 3964:0.39502266 3965:-0.4419241 3966:-0.2265254 3967:-0.01175587 3968:-0.17251809 3969:-0.19269681 3970:-0.36109471 3971:-0.44809601 3972:0.040801257 3973:0.25317502 3974:0.17744048 3975:0.091454901 3976:-0.0064806305 3977:0.091454901 3978:0.091454901 3979:0.055805307 3980:0.11701818 3981:0.055805307 3982:0.055805307 3983:-0.25373763 3984:0.2385942 3985:0.30402741 3986:-0.0020332001 3987:-0.43302467 3988:0.65079367 3989:0.016248679 3990:-0.45071602 3991:0.14953381 3992:0.14953381 3993:0.14044821 3994:0.18710682 3996:-0.19119745 3998:-0.1069434 3999:-0.1069434 4000:0.17753188 4001:0.016645474 4002:-0.33415431 4003:-0.5786652 4004:-0.0097113103 4005:0.0018740861 4006:0.0021268013 4007:-0.022402011 4008:0.078459211 4009:-0.14307192 4010:0.059721231 4011:0.14335456 4012:-0.032779623 4013:-0.032779623 4014:0.37460306 4015:-0.066403188 4016:-0.14077917 4017:-0.012367389 4018:-0.012367389 4019:0.031807691 4020:-0.12442677 4021:-0.069404058 4022:-0.077897578 4023:-0.069404058 4024:-0.078843683 4025:-0.18179862 4026:0.097130992 4027:0.070070848 4028:0.070070848 4029:0.070070848 4030:0.012179215 4031:-0.24030139 4032:0.070070848 4033:0.070070848 4034:-0.033337511 4035:0.070070848 4036:-0.10988195 4037:-0.1828036 4038:0.06488362 4039:0.11421886 4040:-0.16425049 4041:0.14458878 4042:0.065663628 4043:-0.15043238 4044:-0.14282618 4045:-0.50976115 4046:0.03290214 4047:0.1690539 4048:-0.5526967 4049:0.36360648 4050:0.22481385 4051:0.25150204 4052:0.010889716 4053:0.36013669 4054:0.02082691 4055:0.016127607 4056:0.05931145 4057:0.05931145 4058:0.05931145 4059:-0.45203269 4060:0.05931145 4061:0.05931145 4062:-0.038834084 4064:-0.18607126 4068:-0.22328447 4069:-0.31642216 4070:-0.23899136 4071:0.90632504 4072:-1.1998786 4073:0.47580156 4074:0.90632504 4075:-0.27379614 4076:-0.28282157 4077:-0.12834555 4078:0.5028438 4079:-0.096538678 4080:-0.088415138 4081:0.11520305 4082:0.43795958 4083:0.032072168 4084:0.032072168 4085:0.032072168 4086:0.28734869 4087:0.032072168 4088:0.38012296 4089:-0.18074927 4091:-0.28117242 4092:-0.11554414 4093:-0.19290164 4094:-0.017249206 4095:-0.1456067 4096:-0.62838018 4097:0.20798041 4098:0.084052555 4099:0.018190173 4100:0.076493561 4101:0.39484805 4102:0.13302109 4103:0.073485218 4104:0.073485218 4105:0.14958937 4106:0.17845485 4107:0.14958937 4108:0.19537462 4109:0.14958937 4110:0.14958937 4111:0.14958937 4112:0.14958937 4113:0.041849345 4114:0.24983697 4116:0.018990904 4117:-0.29447368 4119:0.24485593 4120:-0.12778474 4121:-0.3343797 4122:0.37988585 4123:-0.62275749 4124:-0.13799602 4125:-0.14923076 4126:-0.16293751 4127:-0.16293751 4128:0.19293736 4129:-0.013138223 4130:-0.016069436 4131:-0.11326297 4132:0.25045529 4133:-0.11326297 4134:0.38622734 4135:-0.44624227 4136:0.160522 4137:-0.096978635 4138:-0.011500195 4139:-0.15951712 4140:-0.25269344 4141:-0.025316246 4142:-0.20432253 4143:-0.0082409633 4144:0.12998609 4145:-0.46644199 4146:-0.19040695 4147:-0.22717051 4148:-0.19040695 4149:-0.0094229737 4150:0.26608607 4151:0.26608607 4153:-0.19408678 4155:-0.012839258 4156:0.087001711 4157:-0.31136256 4158:0.17144044 4159:0.4792347 4160:-0.31315991 4161:-0.030290989 4162:-0.030290989 4163:-0.030290989 4164:-0.030290989 4165:-0.030290989 4166:0.32692096 4167:0.17663153 4168:0.17663153 4169:-0.50098252 4170:0.26290652 4171:0.28697416 4172:0.28697416 4173:-0.02634434 4174:-0.40494156 4175:0.46607152 4176:-0.02634434 4177:-0.46154946 4178:-0.02634434 4179:0.29646087 4180:0.016932536 4181:0.016932536 4182:-0.039848018 4184:-0.53570747 4186:-0.058346085 4187:0.22877097 4188:-0.1104703 4189:-0.1104703 4190:-0.11807512 4191:-0.00097910722 4192:-0.34346235 4193:-0.089451738 4194:-0.089451738 4195:-0.089451738 4196:-0.089451738 4197:0.60788995 4198:-0.22260651 4199:-0.22260651 4200:-0.24305233 4201:0.057203185 4202:0.0899349 4203:-0.24440025 4204:-0.082432218 4205:-0.24440025 4206:-0.24440025 4207:0.085766219 4208:-0.093515277 4209:1.312359 4210:0.023841577 4211:0.023841577 4212:0.023841577 4213:-0.15048505 4214:0.033488043 4215:0.033488043 4216:-0.23303951 4217:0.43725547 4218:0.033488043 4219:-0.052790258 4221:-0.0035350195 4222:0.083808228 4224:-0.16418809 4225:-0.16418809 4226:0.23276833 4227:-0.16418809 4228:-0.16418809 4229:0.48769465 4230:-0.37283409 4231:-0.26641914 4232:-0.1156369 4233:-0.14256939 4234:-0.1156369 4235:0.020632537 4237:0.19951242 4238:-0.046462703 4240:-0.046462703 4241:-0.0241796 4242:-0.046462703 4243:0.00042490193 4244:-0.17922533 4245:-0.0081475032 4246:-0.092817418 4247:-0.092817418 4248:-0.092817418 4249:0.16578357 4250:-0.092817418 4251:-0.371948 4252:-0.092817418 4253:-0.092817418 4254:-0.092817418 4255:-0.092817418 4256:-0.1257114 4257:-0.29906151 4258:0.0042347764 4259:0.0094834566 4260:0.065195702 4261:-0.12847227 4262:0.34830025 4263:0.086372204 4264:0.52792948 4265:0.020585619 4266:0.020585619 4267:0.20150506 4268:0.068822183 4269:-0.025418399 4270:-0.30043864 4271:-0.028379235 4272:-0.18474261 4273:-0.29582307 4274:0.084967844 4275:0.084967844 4276:0.10797203 4277:0.13077947 4278:0.01181643 4279:0.10797203 4280:0.14852116 4281:-0.043630201 4282:-0.22099939 4283:-0.22099939 4284:-0.062893614 4285:-0.47788349 4286:-0.093589135 4287:-0.093589135 4288:-0.093589135 4289:-0.26240554 4290:-0.093589135 4291:0.11624991 4292:-0.22504602 4293:-0.079834759 4294:-0.079834759 4295:-0.09179537 4296:-0.079834759 4297:-0.47822273 4298:-0.33067054 4299:0.10689294 4300:0.15187483 4301:0.15187483 4302:0.077801876 4303:0.077801876 4304:0.077801876 4305:0.078325942 4306:-0.14698181 4307:0.085438758 4308:0.014292986 4309:-0.045184035 4310:0.085531786 4311:0.056876637 4312:0.014292986 4313:0.014292986 4314:0.014292986 4315:0.014292986 4316:0.079531536 4317:0.032748006 4318:0.079531536 4319:-0.31669351 4321:-0.33182967 4323:0.092842236 4324:-0.080850929 4325:0.2162869 4326:-0.45645797 4327:0.042414039 4328:0.03705439 4329:0.03705439 4330:0.03705439 4331:0.15520813 4332:0.10001258 4333:0.3892464 4334:0.053311788 4335:-0.19413097 4336:-0.16325647 4337:-0.08187452 4338:0.053311788 4339:0.1953043 4340:0.01094345 4341:0.16358441 4342:0.11978257 4343:0.19513756 4344:0.023393204 4345:0.065469004 4346:-0.12836948 4347:0.10430111 4348:-0.065466858 4349:-0.065466858 4350:0.0088305008 4351:-0.036125585 4352:0.0088305008 4353:0.13302645 4354:0.15692785 4355:-0.1202192 4357:0.35061082 4358:-0.15643568 4359:-0.24452677 4360:0.28813371 4361:0.28813371 4362:0.28813371 4363:0.31502694 4364:-0.23211412 4365:0.023259955 4366:0.023259955 4367:0.023259955 4368:-0.18635975 4369:-0.3216131 4370:-0.0046237665 4371:-0.038411632 4372:-0.13670737 4373:-0.038411632 4374:0.074472666 4375:-0.038411632 4376:-0.16877066 4377:-0.038714573 4378:-0.038411632 4379:-0.038411632 4380:-0.18410851 4381:-0.038411632 4382:-0.058706198 4383:-0.26631978 4384:0.20117052 4385:0.40259412 4386:0.095752306 4387:-0.35840777 4388:0.14109169 4389:0.095752306 4391:0.095752306 4392:-0.089641578 4394:0.26056036 4395:-0.0050916225 4397:-0.21764982 4398:-0.22174102 4399:0.16924979 4400:-0.25585815 4401:-0.29684243 4402:-0.0096862614 4403:-0.0096862614 4404:-0.0096862614 4405:0.020902643 4406:-0.56630421 4407:-0.34325108 4408:-0.56630421 4409:-0.11359832 4410:0.097648107 4411:0.17379616 4412:0.05564595 4413:0.15593137 4414:0.05564595 4415:-0.24661303 4416:0.04478953 4417:-0.15260726 4418:-0.33284238 4419:-0.49299315 4420:0.41002229 4421:-0.022823716 4422:0.53162462 4423:-0.10417318 4424:-0.23757549 4425:-0.10417318 4426:-0.23757549 4427:-0.023992557 4428:-0.028878456 4429:-0.028878456 4430:0.22388774 4431:-0.11442184 4432:-0.1021539 4433:-0.37961298 4434:-0.37961298 4435:0.17860335 4436:0.17860335 4437:-0.0062673977 4439:0.50793171 4441:0.10153835 4442:0.047515873 4445:-0.045218159 4446:-0.18582432 4447:-0.22272618 4449:-0.033549912 4450:0.10379253 4453:0.12491931 4454:0.62572896 4455:0.26755491 4456:0.096090533 4457:0.23617791 4458:0.17603812 4459:-0.2506932 4460:-0.088674359 4461:0.42370322 4462:0.645455 4463:0.44533786 4464:0.49529317 4465:-0.4681831 4466:-0.38075036 4467:0.15364973 4468:0.16934356 4469:0.13748229 4470:0.18071301 4471:-0.086394101 4472:0.058962047 4473:0.058962047 4474:-0.20380285 4475:-0.19240381 4476:-0.038164321 4477:0.12684073 4478:0.12684073 4479:0.025266351 4480:0.17589836 4481:0.025266351 4482:0.025266351 4483:-0.056943033 4484:-0.26794878 4485:-0.25897354 4486:0.033353623 4487:-0.23740798 4488:-0.23740798 4489:-0.23740798 4490:0.12934543 4491:-0.44414467 4492:-0.0015523857 4493:-0.0015523857 4494:-0.059208021 4495:0.024138335 4496:0.024138335 4497:0.024138335 4498:0.024138335 4499:-0.27747211 4500:0.025821866 4501:0.2433304 4502:0.024138335 4503:0.092908166 4504:0.024138335 4505:0.024138335 4506:0.75776434 4507:-0.18818432 4508:-0.033939168 4509:-0.26193294 4510:-0.033939168 4511:0.082264245 4512:0.082264245 4513:-0.22332141 4514:0.082264245 4515:0.082264245 4516:-0.3189798 4517:-0.038735401 4518:0.046280593 4519:-0.028205905 4520:-0.028205905 4521:-0.028205905 4522:0.091013536 4523:0.091013536 4524:0.54939669 4525:-0.036183666 4526:0.035090446 4527:-0.30610222 4528:0.28051499 4529:0.081267014 4530:-0.035889011 4531:0.28247666 4532:0.077156633 4533:-0.088903256 4534:-0.24177611 4535:0.028231414 4536:-0.050728414 4537:0.053217802 4538:0.24219637 4539:-0.0038885809 4540:-0.44687095 4541:0.057244152 4542:-0.14345771 4543:0.11920492 4544:0.28835005 4545:0.11087454 4546:0.058358103 4547:0.34019181 4548:0.21932401 4549:-0.2480756 4550:0.021608381 4551:0.06371554 4552:0.06371554 4553:0.13764241 4554:-0.32619002 4555:-0.12527573 4556:-0.11688474 4557:-0.11688474 4558:-0.11700583 4559:-0.16196218 4560:-0.052693382 4561:-0.5483312 4562:0.017542671 4563:-0.31733984 4564:-0.077098504 4565:0.13646452 4566:-0.088110849 4567:-0.069799766 4568:-0.077921867 4569:0.45079693 4570:0.18775252 4571:0.025284529 4572:-0.3713108 4573:0.10940135 4574:-0.28604281 4575:-0.35884508 4576:0.085915297 4577:-0.50635248 4578:-0.3029218 4579:-0.15478995 4580:0.51157188 4581:0.081154868 4582:0.067857571 4583:0.067857571 4584:-0.24086106 4585:-0.037530966 4586:0.044877421 4587:-0.098163389 4588:0.41424915 4589:-0.17154096 4590:0.067857571 4591:0.067857571 4592:0.067857571 4593:0.067857571 4594:-0.03992027 4595:-0.037824646 4596:0.10004199 4597:0.12154569 4598:0.062505402 4599:0.96206176 4600:0.038811553 4601:0.32674506 4602:0.32940844 4603:0.19643775 4604:0.1065754 4605:0.062505402 4606:0.062505402 4607:0.11600112 4608:-0.087139711 4609:0.062505402 4610:0.062505402 4611:0.11021337 4613:-0.28720844 4617:-0.19282165 4619:0.44365263 4620:0.6030699 4622:-0.031380039 4624:-0.51536781 4626:0.13068604 4627:-0.057297658 4628:-0.18911542 4629:-0.18911542 4630:-0.18911542 4631:-0.15908927 4632:0.0081148166 4633:-0.032771997 4634:-0.02747816 4635:-0.0059613963 4636:0.44178066 4637:0.18602739 4638:0.44178066 4639:-0.18274775 4640:-0.043129284 4641:0.0081369793 4642:-0.043129284 4643:0.0081369793 4644:0.15956219 4645:0.22378114 4648:0.059475198 4649:-0.012680558 4650:0.13110003 4651:0.13110003 4652:0.0026637597 4653:0.13819833 4654:-0.24074236 4655:-0.063095249 4656:-0.084455058 4657:-0.59614295 4658:0.32042286 4659:-0.38671297 4660:0.46909067 4661:0.56638891 4662:-0.057091363 4663:0.092923194 4664:0.23575631 4665:-0.40219602 4666:-0.043431934 4667:-0.20367427 4668:0.047706198 4669:0.013808793 4670:0.013808793 4671:0.013808793 4672:0.013808793 4673:-0.1016835 4674:0.22595321 4675:-0.29118267 4676:0.10203766 4677:0.10203766 4678:-0.048972774 4679:0.067130774 4680:-0.14910914 4681:-0.042183906 4682:-0.36176163 4683:0.088825606 4684:0.036720708 4685:0.21164395 4687:0.058712326 4688:0.02007043 4689:0.13755944 4690:0.4316563 4691:-0.070901312 4692:0.4569563 4694:-0.22630952 4695:-0.84409791 4696:0.35760409 4697:-0.0088797575 4698:-0.033809058 4699:0.070181698 4700:-0.0088797575 4701:-0.00066147128 4702:-0.11227734 4703:-0.0088797575 4704:-0.017759515 4705:-0.16268973 4706:-0.023809535 4708:0.021575322 4709:-0.050846871 4710:0.35662013 4711:0.2908873 4712:0.06389977 4713:0.06389977 4714:0.42579514 4715:0.23736668 4716:-0.27809879 4717:-0.37452152 4719:-0.019906491 4720:-0.017555185 4722:-0.32238457 4723:-0.071679644 4727:0.15461822 4729:0.11344559 4731:-0.3713423 4732:0.34791115 4733:0.019828163 4734:0.019828163 4735:-0.036156494 4736:0.062050853 4737:0.019828163 4738:0.019828163 4739:0.6735903 4740:0.26610819 4741:0.38150716 4742:-0.072608791 4743:-0.23205912 4744:-0.34172812 4745:0.035753489 4746:-0.16368 4747:0.054141153 4748:-0.16368 4749:-0.035081781 4750:0.12802099 4751:0.15800281 4752:-0.035081781 4753:-0.035081781 4754:0.41586295 4755:-0.048044845 4756:0.20610406 4757:0.20610406 4758:0.026433142 4759:-0.31856146 4760:0.07600718 4761:-0.23501363 4762:-0.23501363 4763:0.22840931 4764:-0.32430002 4765:0.19071686 4766:-0.0021156496 4767:-0.18520825 4768:-0.18520825 4769:-0.21129523 4772:-0.90136957 4773:0.086496189 4774:-0.12647292 4775:-0.091610722 4776:-0.059818074 4777:-0.059818074 4778:-0.059818074 4779:-0.059818074 4780:0.2495808 4781:0.2193585 4782:-0.054784529 4783:0.21026787 4784:-0.059818074 4785:-0.054784529 4786:0.19530554 4787:0.023531962 4788:0.19530554 4789:-0.055271085 4790:0.35339299 4791:0.22880252 4792:0.17638963 4793:0.15536669 4794:-0.18551199 4795:0.23541436 4796:0.07387083 4797:-0.20959209 4798:-0.05460076 4799:0.58176684 4800:0.19373226 4801:-0.21105152 4803:0.0020264778 4804:0.12852964 4805:0.12852964 4806:0.12852964 4807:-0.10269004 4808:0.060733505 4809:0.073476188 4810:0.060733505 4811:0.060733505 4812:-0.10230962 4813:-0.5997808 4814:0.1007955 4815:0.1693345 4816:0.1007955 4817:-0.36876097 4818:0.03773566 4819:-0.030945295 4820:-0.0096941562 4821:-0.33968386 4822:-0.19578125 4823:-0.28175402 4824:-0.28175402 4825:0.10182175 4826:0.10182175 4827:0.10182175 4828:0.30504665 4829:-0.053660966 4830:-0.053660966 4831:-0.053660966 4832:-0.06658306 4833:-0.053660966 4834:0.37093332 4835:-0.053660966 4836:0.32891047 4837:-0.21772917 4838:-0.053660966 4839:-0.053660966 4840:-0.10951108 4841:-0.053660966 4842:-0.062133424 4843:-0.36964768 4844:0.2215244 4849:-0.12816606 4850:0.04001252 4852:-0.061206851 4853:0.28120592 4854:0.28918833 4855:-0.017685765 4856:0.97567469 4857:0.43832079 4858:-0.19677033 4859:0.69805473 4860:-0.42991367 4861:-0.092997707 4862:-0.51574075 4863:-0.092997707 4864:0.017035378 4865:-0.092997707 4866:-0.33975071 4867:-0.33975071 4868:-0.33975071 4869:-0.31116888 4870:0.11461681 4871:0.24778843 4872:0.36128604 4873:-0.09192241 4874:0.18422014 4875:-0.21964562 4876:0.11461681 4877:-0.086154595 4878:0.065534838 4879:0.065534838 4880:0.065534838 4881:-0.017036917 4882:0.46058998 4883:0.032035947 4884:0.032035947 4885:0.032035947 4886:-0.069952659 4887:0.032035947 4888:0.032035947 4889:-0.19137561 4890:-0.10523983 4891:0.064483866 4892:0.31609759 4893:-0.00053209095 4894:-0.00053209095 4895:0.035682015 4896:0.13723892 4897:0.13723892 4898:0.22368158 4899:-0.21571849 4900:-0.10941849 4901:0.49679783 4902:0.28171459 4903:0.29399014 4904:0.078912593 4905:0.19135453 4906:0.52623314 4907:0.35473534 4908:0.026089989 4911:-0.014533575 4912:0.15215786 4913:-0.3392446 4914:0.35010311 4915:0.021129714 4916:-0.0048288121 4917:0.12995605 4918:0.76796073 4919:-0.053293683 4920:-0.32550812 4921:-0.32550812 4922:-0.12379558 4923:-0.32550812 4924:-0.62122715 4925:-0.29486537 4926:-0.0080799581 4927:-0.0080799581 4928:-0.33009994 4929:0.16289213 4930:0.16289213 4931:0.65076768 4932:0.13813899 4933:0.15325139 4934:0.02655066 4935:0.13813899 4936:0.13813899 4937:0.13813899 4938:0.068980895 4939:-0.010027083 4940:0.13813899 4941:0.32340086 4942:0.13813899 4943:0.54016066 4944:0.13813899 4945:0.1496888 4946:0.17855974 4947:0.1496888 4948:0.1496888 4949:0.1496888 4950:-0.083929017 4951:0.1496888 4952:0.21026418 4953:-0.23482227 4954:-0.24572316 4955:-0.048224319 4956:-0.048224319 4957:-0.048224319 4958:-0.048224319 4959:0.1059493 4960:0.85868335 4961:-0.53357399 4962:-0.048224319 4963:0.14460972 4964:-0.50471991 4965:0.12662455 4966:0.23863362 4967:0.031645324 4968:0.012597972 4969:0.012597972 4970:0.025195943 4971:1.0019985 4972:0.011537462 4973:0.22862525 4974:0.012597972 4975:-0.22827864 4976:0.012597972 4977:-0.081635594 4978:-0.25709885 4979:-0.45755103 4980:-0.33860952 4981:-0.002950758 4982:0.07171265 4983:-0.041412391 4984:0.091388807 4985:-0.021715185 4986:-0.041412391 4987:-0.22912546 4988:-0.041412391 4989:0.11425054 4990:-0.041412391 4991:-0.041412391 4992:-0.041412391 4993:0.077139691 4994:-0.041412391 4995:-0.041412391 4996:0.73534703 4997:0.32139322 4998:0.350916 4999:0.57770252 5000:-0.071216375 5001:-0.071216375 5002:0.12051233 5003:0.30921653 5004:-0.021795575 5005:0.06831684 5006:-0.06433475 5007:-0.23735812 5008:-0.06433475 5009:-0.016349668 5010:-0.06433475 5011:0.13332665 5012:-0.23959051 5013:-0.06433475 5014:-0.23790112 5016:0.11002781 5018:0.12351831 5019:0.4896701 5022:0.22881849 5023:-0.18813126 5024:0.05848917 5025:0.036957316 5026:0.23657046 5027:-0.43813691 5028:0.1931266 5029:0.036957316 5030:0.036957316 5031:0.036957316 5032:0.23466446 5033:-0.34593487 5034:-0.26699263 5035:-0.28163767 5036:-0.51816714 5037:-0.091646209 5038:-0.26232997 5039:-0.30778104 5040:0.14748916 5041:0.01853659 5042:-0.48785985 5043:0.44029146 5044:0.41182539 5045:-0.27077901 5046:-0.27077901 5047:-0.21780035 5048:-0.27077901 5049:0.033262987 5050:0.033262987 5051:0.033262987 5052:0.033262987 5053:-0.044162154 5054:0.050198846 5055:0.050198846 5056:-0.093384974 5057:0.094099469 5058:0.0054257559 5059:0.0054257559 5060:0.50261641 5061:0.50261641 5062:0.093566097 5063:-0.20780595 5064:-0.17415088 5065:-0.17415088 5066:-0.46449372 5067:-0.1749011 5068:-0.005295455 5069:-0.32922468 5070:-0.22233914 5071:-0.24862105 5072:-0.1749011 5073:-0.1749011 5074:-0.023454316 5075:0.29717821 5076:-0.023454316 5077:-0.023454316 5078:-0.023454316 5079:-0.52912021 5080:-0.57772321 5081:0.17188677 5082:0.23834933 5083:0.17188677 5084:0.17188677 5085:0.16029036 5086:0.17188677 5087:0.17188677 5088:0.17188677 5089:0.66893423 5090:0.24237396 5091:0.11227093 5092:-0.036697164 5093:-0.036697164 5094:-0.21807709 5095:0.02760732 5096:-0.023937423 5097:-0.13101274 5098:0.02760732 5099:0.39263299 5100:0.02760732 5101:-0.015306203 5102:0.11181176 5103:0.11623297 5104:0.11623297 5105:0.29764262 5106:0.11623297 5107:-0.063774697 5108:-0.063774697 5109:-0.063774697 5110:-0.059560489 5111:-0.063774697 5112:0.22930172 5113:-0.06372606 5114:0.094968922 5115:-0.072860472 5116:0.20919649 5117:0.013388501 5120:0.28192091 5121:-0.49708796 5122:0.76656199 5123:0.076759428 5124:0.076759428 5125:0.076759428 5126:-0.030313741 5127:-0.23414002 5128:-0.010865564 5129:0.077947609 5130:-0.10188675 5131:-0.57987177 5132:0.14698759 5133:0.78859693 5134:-0.010865564 5135:-0.010865564 5136:-0.060254756 5137:-0.060254756 5138:0.30138418 5139:0.30138418 5140:0.0023731848 5141:0.10219156 5143:-0.04690196 5144:0.24623238 5145:0.65872622 5146:0.083273165 5147:0.46995202 5148:0.16925594 5149:0.047422089 5150:0.054236539 5151:0.054236539 5152:0.28614509 5153:0.28614509 5154:0.28614509 5155:0.094953343 5156:0.094953343 5157:0.069107592 5158:0.069107592 5159:0.069107592 5160:0.11317238 5161:0.069107592 5162:-0.13937722 5163:0.76967096 5164:0.069107592 5165:0.069107592 5166:0.069107592 5167:0.62912542 5168:-0.067563407 5169:-0.066519193 5170:-0.067563407 5171:0.061185978 5172:0.31002033 5173:-0.27980781 5174:-0.19052546 5175:-0.13428634 5176:0.10334013 5177:0.029844843 5178:0.072437122 5180:0.21306275 5186:0.071736842 5187:0.071736842 5188:0.071736842 5189:-0.20220627 5190:0.31856123 5191:0.071736842 5192:-0.18474498 5193:0.071736842 5194:0.065703601 5195:0.071736842 5196:0.33806446 5197:0.16833583 5198:0.13029458 5199:-0.04486502 5200:0.25340751 5201:-0.17763375 5202:-0.21345869 5204:0.055775847 5205:0.26543814 5206:0.24439226 5207:0.12219613 5208:0.12219613 5209:0.12219613 5210:-0.074046865 5211:-0.074046865 5212:0.014951311 5213:0.022413287 5214:0.019424792 5215:0.022413287 5216:0.022413287 5217:-0.16868718 5218:-0.16868718 5220:-0.028205864 5222:0.44332406 5223:0.054272782 5224:0.054272782 5225:0.054272782 5226:-0.031233165 5227:0.0018237574 5228:0.22329797 5229:0.0019937456 5230:0.0019937456 5231:-0.35093746 5232:0.0019937456 5233:-0.054609507 5234:0.035957549 5235:-0.012861512 5236:-0.15715373 5237:-0.011779627 5238:-0.18781283 5239:0.19931008 5240:0.040474471 5241:0.10786333 5242:0.11726402 5243:0.12563422 5244:0.12563422 5245:-0.059447013 5246:0.12563422 5247:0.12563422 5248:0.12563422 5249:0.12563422 5250:0.12563422 5251:0.12563422 5252:-0.091840982 5253:0.31896961 5254:-0.091840982 5255:-0.091840982 5256:0.67792171 5257:0.32081169 5258:0.54584748 5259:-0.35220677 5260:0.47012946 5261:0.47012946 5262:0.47594765 5263:0.30184782 5264:0.57969958 5265:-0.17334269 5266:-0.055624057 5267:-0.055624057 5268:-0.055624057 5269:0.080978401 5270:0.080978401 5271:-0.11542433 5272:0.080392919 5273:0.080392919 5274:0.080392919 5275:-0.20876028 5276:-0.12981592 5277:-0.06914556 5278:0.011458373 5279:0.18378794 5280:0.22486188 5281:-0.31693339 5282:-0.28499323 5283:0.62711722 5284:-0.31693339 5285:-0.31693339 5286:-0.34935948 5287:-0.34935948 5288:-0.27210119 5289:0.10454798 5290:0.12321937 5291:0.12321937 5292:0.12321937 5293:-0.03586372 5294:0.12321937 5295:-0.061548617 5296:-0.0042978963 5297:-0.11946851 5298:0.00072725979 5299:0.18542157 5300:0.17936082 5301:-0.63242841 5302:-0.0082637789 5303:0.20485197 5304:-0.13661391 5305:-0.13732003 5306:0.37401819 5307:0.31995815 5308:0.18363741 5309:0.51690638 5310:0.086579375 5311:0.086579375 5312:0.086579375 5313:0.086579375 5314:0.086579375 5315:0.12861522 5317:0.025453983 5318:0.025453983 5319:-0.064731129 5320:0.097657539 5321:-0.064731129 5322:-0.064731129 5323:0.16832043 5324:-0.12389102 5325:0.090933718 5326:0.10886843 5327:-0.39930162 5328:-0.39930162 5329:-0.22129023 5330:-0.11182439 5331:-0.39930162 5332:-0.39835685 5333:0.0029116692 5334:0.0029116692 5335:-0.32857341 5336:-0.06171247 5337:0.0029116692 5338:-0.010282082 5339:0.088445611 5340:0.17689122 5341:0.081006251 5342:0.088445611 5343:0.088445611 5344:0.044192221 5345:0.012848355 5346:0.088445611 5347:0.028215438 5348:0.088445611 5349:-0.13632298 5350:0.18528177 5351:0.18528177 5352:0.1543497 5353:0.033975735 5354:0.23944934 5355:-0.22021741 5356:0.33618048 5357:-0.034067973 5358:-0.034067973 5359:-0.034067973 5360:-0.071675427 5361:-0.42734188 5362:-0.14660019 5363:0.27985623 5364:0.17000072 5365:0.30461287 5366:0.11096442 5367:0.55632651 5368:-0.34036794 5369:-0.18376355 5370:-0.18748635 5371:-0.32862747 5372:-0.18376355 5373:0.1153629 5374:0.1153629 5375:0.17182122 5376:0.063645139 5377:-0.06193357 5378:-0.11147865 5379:-0.33269456 5380:-0.06193357 5381:-0.18548359 5382:0.040791728 5383:0.065768644 5384:0.23681405 5385:0.10767747 5386:-0.00097284361 5387:0.065768644 5388:0.065768644 5389:0.065768644 5390:0.94015032 5391:1.1374702 5392:0.1832014 5393:0.10366049 5394:-0.30442524 5395:0.10831478 5396:0.14511603 5397:0.14511603 5398:0.07001552 5399:0.14511603 5400:5.2327319e-05 5401:0.14511603 5402:0.14511603 5403:0.14511603 5404:0.018292561 5405:0.14511603 5406:-0.19408967 5407:-0.23952875 5408:-0.27501708 5409:-0.27501708 5410:0.042458128 5411:0.021415733 5414:0.13067761 5415:-0.20760286 5416:-0.16373333 5419:0.22438341 5423:0.46178752 5424:0.10707978 5428:0.050226364 5429:-0.099692143 5431:-0.49190027 5432:-0.16527511 5433:-0.16527511 5434:-0.52598232 5436:0.029664034 5437:-0.18997362 5438:0.1975549 5439:-0.13834126 5440:-0.015780104 5441:-0.015780104 5442:-0.015780104 5443:0.13682775 5444:-0.015780104 5445:-0.015780104 5446:-0.015780104 5447:-0.015780104 5448:-0.015780104 5449:0.085964896 5450:-0.015780104 5451:0.075576134 5452:0.21484411 5453:-0.051212776 5454:0.030898403 5455:0.030898403 5456:-0.32020509 5457:-0.012926172 5458:0.11717681 5459:0.11717681 5460:0.11717681 5461:0.087046467 5462:0.094658419 5463:0.11717681 5464:-0.074417785 5465:0.070580669 5466:-0.074417785 5467:-0.074417785 5468:0.4477551 5470:-0.42191458 5471:-0.28675172 5472:0.22637847 5473:0.13971265 5474:0.14514464 5475:0.14514464 5476:0.29179135 5477:0.14514464 5478:0.079929352 5479:0.1929787 5480:0.11866933 5481:0.025935354 5482:0.025935354 5483:0.025935354 5484:0.025935354 5485:0.025935354 5486:0.025935354 5487:0.025935354 5488:0.18755722 5489:0.18755722 5490:0.41197851 5491:0.5276556 5492:0.37731969 5493:0.63827735 5494:0.63713503 5495:-0.36416179 5496:0.35451633 5497:0.17796001 5498:-0.010561565 5499:0.098291837 5500:0.16594994 5501:0.14253952 5502:-0.35895082 5503:0.098291837 5504:-0.47464445 5505:-0.59688973 5506:0.18726259 5507:0.49302095 5508:-0.0067415526 5509:-0.14180583 5510:0.14631616 5511:0.13292277 5512:0.17374371 5513:0.13292277 5514:0.049570512 5515:0.57043087 5516:0.11867478 5517:-0.20003717 5518:-0.53837806 5519:0.11059115 5520:0.13500045 5521:0.083984479 5522:0.18896258 5523:-0.26527077 5524:-0.0025105993 5525:-0.41315466 5526:-0.0025105993 5527:-0.0050211987 5528:-0.0050211987 5529:-0.0025105993 5530:-0.0025105993 5531:-0.0025105993 5532:-0.41157615 5533:0.041692801 5534:-0.072981253 5535:-0.0025105993 5536:-0.0025105993 5537:-0.15027608 5538:-0.15027608 5541:0.088405088 5542:0.088405088 5543:0.080967739 5544:0.088405088 5545:0.088405088 5546:0.088405088 5547:-0.19089678 5549:0.65355927 5550:0.35744107 5551:0.1690629 5552:0.38715628 5553:0.0040842309 5554:0.12076741 5555:0.11060717 5556:-0.048274081 5557:-0.048274081 5558:0.23956817 5559:-0.048274081 5560:-0.012197401 5562:-0.11355131 5563:0.0040018004 5564:-0.056739818 5565:-0.33653247 5566:-0.46868995 5567:-0.039154653 5568:0.0012937327 5569:0.0012937327 5570:0.0012937327 5571:0.0012937327 5572:-0.21811667 5573:-0.21811667 5574:-0.21811667 5575:-0.7877 5576:-0.07647492 5577:0.099850707 5578:-0.50292391 5579:0.27603966 5580:-0.028594093 5581:-0.028594093 5582:-0.41135809 5583:-0.028594093 5584:0.067334302 5585:0.1246822 5586:1.3063381 5587:0.11113565 5588:-0.49980706 5589:-0.059533153 5590:-0.21950524 5591:-0.054522838 5592:-0.012193008 5593:-0.012193008 5594:0.14394467 5595:0.050835449 5596:0.050835449 5597:0.050835449 5598:0.10601819 5599:0.091742553 5600:-0.12527297 5601:0.23828734 5602:0.064888142 5603:0.064888142 5604:0.12977628 5605:0.064888142 5606:0.064888142 5607:0.064888142 5608:0.064888142 5609:0.064888142 5610:-0.37989402 5611:0.043366611 5612:-0.28141665 5613:-0.31792226 5614:-0.25316775 5615:-0.25316775 5616:-0.23974128 5617:0.097638614 5618:-0.0085668871 5619:0.017744131 5620:0.097638614 5621:0.084619246 5622:0.16113426 5623:0.30761856 5624:0.51841331 5625:0.34725019 5628:-0.12483763 5629:0.27635124 5630:-0.12483763 5631:-0.035047274 5632:0.27216858 5633:-0.19257291 5634:-0.033653598 5635:0.2128488 5636:-0.0058478508 5637:-0.010933363 5638:-0.0058478508 5639:0.32811651 5640:0.020835964 5641:0.25112322 5642:0.16093832 5643:0.25112322 5644:0.25112322 5645:0.25112322 5646:-0.16822781 5648:-0.15918982 5651:0.065964453 5652:0.071532749 5653:0.34675238 5654:-0.030002935 5655:-0.15697551 5656:0.26275685 5657:-0.077848442 5658:-0.0098290602 5659:-0.43201166 5660:-0.077848442 5661:-0.077848442 5662:-0.24603459 5663:-0.077848442 5664:-0.10850114 5671:0.015510531 5672:0.015510531 5673:0.015510531 5674:0.015510531 5675:0.18621154 5676:0.20224917 5677:0.063148521 5678:-0.19029757 5679:-0.19029757 5680:-0.19029757 5681:-0.026839729 5682:-0.026839729 5684:-0.49172178 5686:0.11697209 5689:-0.24660635 5690:-0.24660635 5691:-0.24660635 5692:0.39920396 5693:-0.49923125 5694:0.26059759 5695:0.36824548 5696:0.17527811 5697:-0.043526921 5698:-0.29775476 5699:-0.043526921 5700:-0.043526921 5701:0.47433162 5702:0.31626597 5703:-0.23567422 5704:0.15749928 5705:0.53431702 5706:0.12791085 5707:0.18627599 5708:0.11750386 5709:0.091353483 5710:-0.15374017 5711:0.13213356 5712:0.034934197 5713:0.034934197 5714:-0.059698623 5715:-0.059698623 5716:-0.059698623 5717:-0.0060891123 5718:0.010572877 5719:-0.20888519 5720:0.082648426 5721:0.57387835 5722:0.054838676 5723:0.054838676 5724:-0.10468653 5725:0.054838676 5726:0.054838676 5727:0.19863996 5728:0.24295303 5729:-0.32984832 5730:0.054838676 5731:0.12673618 5732:0.12673618 5733:0.093172505 5734:0.12673618 5735:-0.43545806 5736:-0.0036256751 5737:0.18073589 5738:-0.050797049 5739:-0.050797049 5740:-0.22314116 5741:0.16602683 5742:0.045495901 5743:0.16602683 5744:0.061287146 5745:0.16602683 5746:0.16602683 5747:0.68373209 5748:0.1812593 5749:0.11768782 5750:0.16602683 5751:0.16602683 5752:0.16602683 5753:0.11395414 5754:0.23015177 5755:-0.050590236 5756:0.13164487 5757:0.11395414 5758:0.11395414 5759:0.085690759 5760:0.11395414 5761:0.12250952 5762:0.11042289 5763:0.16373409 5764:0.066881038 5765:0.090197377 5766:0.22892222 5767:-0.36227137 5768:0.090197377 5769:0.32891184 5770:0.3378244 5771:0.22160578 5772:0.049719971 5773:-0.23660219 5774:-0.28738785 5775:-0.28738785 5776:-0.084648773 5777:-0.28738785 5784:-0.080997147 5785:-0.0034359717 5786:-0.20342071 5789:0.048850596 5790:0.16363445 5792:0.59561366 5793:0.29198197 5794:-0.5357126 5795:-0.64260423 5796:-0.019823203 5797:-0.031166542 5798:0.11357865 5799:-0.34803352 5800:-0.031166542 5801:0.18708268 5802:-0.031166542 5803:-0.031166542 5804:-0.031166542 5805:-0.12989518 5806:-0.13727823 5807:0.13557921 5808:0.13557921 5809:0.10955025 5810:0.11013257 5811:-0.076281153 5812:0.097682625 5813:0.10955025 5814:0.029652251 5815:-0.027873959 5816:0.011841505 5817:-0.077269897 5818:0.16998023 5819:0.16998023 5820:0.23311277 5821:-0.055154897 5822:0.066032439 5825:0.23823826 5826:-0.2117188 5827:-0.2117188 5829:-0.22454697 5831:0.072215535 5832:0.072215535 5833:0.26334414 5835:0.15397903 5836:-0.20843069 5837:-0.20843069 5838:-0.20843069 5839:-0.241134 5840:0.20174631 5841:0.078731373 5842:-0.023584487 5843:0.028484385 5844:0.078731373 5845:0.078731373 5846:0.078731373 5847:-0.024704695 5848:0.078731373 5849:0.078731373 5850:0.078731373 5851:0.32655072 5852:0.42516398 5853:0.25946105 5854:0.19775821 5855:0.19775821 5856:0.1713883 5857:0.19775821 5858:0.17373791 5859:0.40610591 5860:-0.35445347 5861:-0.36720765 5862:-0.36720765 5863:-0.33923501 5864:-0.007223207 5865:-0.48991999 5866:0.022911469 5867:0.085955292 5868:0.085955292 5869:0.085955292 5870:0.070194103 5871:0.085955292 5872:0.46480322 5873:0.46480322 5874:0.46480322 5875:-0.14396773 5876:0.44225842 5877:-0.62318289 5878:-0.31570083 5879:-0.31570083 5880:-0.28914142 5881:-0.28188822 5882:-0.21983001 5883:-0.10526708 5884:-0.042062297 5885:-0.37147969 5886:-0.21209303 5887:0.32442474 5888:0.14154434 5889:-0.068540893 5890:0.077182993 5891:0.0096660797 5892:-0.12313671 5893:-0.040179458 5894:-0.014055785 5895:-0.010792746 5896:-0.1817313 5897:-0.12860788 5899:0.020598488 5900:0.28518039 5901:0.28518039 5902:0.28518039 5903:0.28518039 5904:-0.057335086 5905:0.28518039 5906:-0.021363333 5909:0.19970918 5910:0.22080679 5911:0.2611073 5912:0.16846281 5913:-0.055273913 5914:-0.16259737 5915:-0.19901353 5916:-0.1579439 5917:0.1802607 5918:0.13830212 5919:0.13830212 5920:0.21478446 5921:-0.3564705 5922:-0.36557189 5923:-0.36557189 5924:-0.36557189 5925:-0.42441213 5928:0.51577598 5929:-0.07837408 5930:-0.07837408 5931:-0.16895396 5932:0.15770259 5933:0.15770259 5934:0.15770259 5935:0.00019312379 5936:0.15770259 5937:0.33238283 5938:-0.026769822 5939:-0.096622191 5940:-0.37146193 5941:0.0018098007 5942:-0.055844121 5943:-0.055844121 5944:-0.11381658 5945:-0.11381658 5946:-0.22820327 5947:-0.12702039 5948:0.33920023 5949:0.010806274 5950:-0.67677444 5951:0.15750146 5952:0.17990816 5953:0.010806274 5954:0.32928547 5955:0.010806274 5957:-0.68017209 5958:0.12383219 5959:0.18783264 5960:0.12383219 5961:0.1578144 5962:0.084321104 5963:-0.26263973 5964:-0.26263973 5965:-0.15323411 5967:0.089035183 5968:0.049792167 5969:0.049792167 5970:-0.0039427341 5971:-0.0039427341 5972:-0.0039427341 5973:-0.099765144 5974:-0.46562222 5975:0.2449943 5976:-0.077476092 5977:0.0070312857 5978:-0.077476092 5979:-0.077476092 5980:-0.077476092 5981:-0.077476092 5982:-0.3566899 5983:-0.3566899 5984:-0.3566899 5985:-0.45420617 5986:-0.42979467 5987:-0.35331511 5988:-0.24919169 5989:-0.16682491 5990:-0.18214884 5991:-0.18214884 5992:-0.18214884 5993:0.24674726 5996:-0.037921041 5997:-0.057927109 5998:-0.057927109 5999:-0.057927109 6000:-0.057927109 6001:-0.11691562 6002:0.17767 6003:-0.094331585 6004:0.0017144361 6005:-0.078995191 6006:-0.078995191 6007:-0.14566013 6008:0.12799957 6009:0.47635698 6010:0.28487948 6011:0.027661657 6012:0.076823585 6013:0.28569353 6014:-0.55021995 6015:0.083073862 6016:0.083073862 6017:0.46245161 6018:0.049745861 6019:0.1583167 6020:0.2490332 6021:0.33742142 6022:0.3589983 6023:0.2403595 6024:0.3589983 6025:0.037363518 6026:0.037363518 6027:-0.88047749 6028:-0.88047749 6029:0.66290981 6030:-0.093185492 6031:0.30523393 6032:0.070282146 6033:0.022556227 6034:-0.15685737 6035:0.022556227 6036:0.24474171 6037:0.10605308 6038:0.15535097 6039:0.11764921 6040:0.11764921 6041:0.11764921 6042:0.34723815 6043:0.088352397 6044:0.55937225 6045:0.24834456 6046:0.047034495 6047:-0.038285706 6048:0.065332942 6050:-0.053567976 6051:-0.053567976 6052:-0.053567976 6053:0.035291046 6054:-0.053567976 6055:0.072110422 6056:-0.053567976 6057:-0.11094646 6058:-0.074538328 6059:-0.15760531 6060:-0.27733001 6061:-0.022108058 6062:0.085816756 6063:-0.022108058 6064:-0.022108058 6065:0.049890127 6066:-0.057628047 6067:-0.057628047 6068:-0.076942213 6069:-0.022502745 6070:0.029035557 6071:-0.089234389 6072:0.017622663 6073:0.017622663 6074:0.017622663 6075:0.035245325 6076:-0.00013750652 6077:0.017622663 6078:0.017622663 6079:-0.36427909 6080:-0.37350932 6081:0.098560058 6082:0.006416983 6083:0.006416983 6084:-0.2211816 6085:-0.065241382 6086:-0.065241382 6087:0.23284747 6088:-0.27186567 6089:-0.12935838 6090:-0.28246695 6091:-0.27042478 6092:-0.15854461 6093:-0.38527533 6094:-0.27042478 6095:-0.27042478 6096:0.32861909 6097:0.26301131 6098:0.32861909 6099:0.32861909 6100:0.32861909 6101:0.00088678487 6102:0.25617641 6103:0.23483561 6104:0.12768188 6105:0.25617641 6106:0.028746465 6107:0.028746465 6108:0.065047853 6109:0.094333485 6110:0.18396577 6111:0.27766117 6112:0.21298674 6113:-0.26817244 6114:0.065047853 6115:0.065047853 6116:0.59316093 6117:0.23215277 6118:0.065047853 6119:-0.22691067 6120:-0.22691067 6121:-0.16588427 6122:-0.18837424 6123:0.00071932725 6124:-0.16588427 6125:-0.2420588 6126:0.028793825 6127:0.028793825 6128:0.028793825 6129:-0.19644304 6130:-0.33545598 6131:-0.33545598 6132:-0.33545598 6133:-0.076594293 6134:-0.13385898 6135:0.051701669 6136:-0.014306989 6137:-0.14564134 6138:-0.014306989 6139:0.03313262 6140:0.13398939 6141:-0.45219448 6142:-0.014306989 6143:0.36645347 6144:-0.014306989 6145:-0.014306989 6146:-0.014306989 6147:-0.013101609 6148:-0.014306989 6149:-0.014306989 6150:-0.036295414 6151:0.030321958 6152:-0.26704359 6153:0.31808141 6154:-0.036295414 6155:-0.093399219 6156:-0.052331112 6157:0.1680437 6158:-0.17520232 6159:0.19573547 6160:0.19573547 6161:0.19573547 6162:0.19573547 6163:0.17975555 6164:0.17975555 6165:0.17975555 6166:0.096094362 6167:0.17975555 6168:0.73257983 6169:-0.1228356 6170:-0.17443718 6171:-0.17443718 6172:0.51014167 6173:0.51014167 6174:-0.1218923 6175:-0.21172802 6176:-0.28873238 6177:-0.12906958 6178:-0.29042524 6179:-0.28562465 6180:-0.20994276 6181:-0.23722418 6182:-0.15795125 6183:-0.30681729 6184:-0.30265281 6185:-0.30681729 6186:0.17910856 6187:0.097073406 6188:0.097073406 6189:-0.12769575 6190:0.56879151 6191:0.097073406 6192:0.097073406 6193:0.097073406 6194:0.015502035 6195:0.097073406 6196:0.097073406 6197:0.0077212732 6198:-0.11525973 6199:0.0077212732 6200:0.0077212732 6203:-0.052352224 6204:0.20320167 6205:-0.20361444 6206:0.35582405 6207:0.23553695 6208:-0.18292366 6209:0.17878513 6210:0.068822816 6211:0.025055105 6212:0.20801584 6213:0.20801584 6214:0.20801584 6215:0.33000374 6216:0.63411403 6217:0.30527148 6218:-0.14166915 6219:0.20584521 6220:-0.10426055 6221:-0.14184238 6222:-0.20937745 6223:0.32170942 6224:-0.38198301 6226:0.25334936 6228:0.24951699 6229:-0.25052211 6230:0.10018396 6231:0.16627541 6232:0.10018396 6233:0.23884919 6234:-0.038038433 6235:0.10018396 6236:0.23702838 6237:0.091665857 6238:-0.11302013 6239:-0.44806769 6240:-0.12863438 6241:-0.12863438 6242:-0.12863438 6243:-0.12863438 6244:-0.18474494 6245:-0.14004487 6246:-0.11952788 6247:-0.14004487 6248:-0.14004487 6249:-0.03179663 6250:-0.012483378 6251:-0.38342354 6252:-0.40931186 6253:0.10780875 6254:0.15367393 6255:0.54486507 6256:0.10780875 6257:0.10780875 6258:0.10780875 6259:0.10780875 6260:-0.11515851 6261:0.096303746 6262:0.2259728 6263:0.2259728 6264:-0.087030105 6265:-0.0796552 6266:-0.26973018 6267:-0.0796552 6268:0.11495833 6269:-0.0796552 6270:-0.0796552 6271:-0.031338867 6272:0.47913122 6273:0.41138804 6274:0.16193658 6275:0.37587044 6276:0.11130196 6277:0.064881086 6278:-0.032158431 6279:-0.19808117 6280:0.12340578 6281:-0.0027732376 6282:0.068620905 6283:0.18546146 6285:-0.080920063 6286:-0.44240728 6287:-0.081236377 6288:0.090542965 6289:-0.026586423 6290:-0.026586423 6291:-0.026586423 6292:-0.026586423 6293:-0.026586423 6294:-0.026586423 6295:-0.026586423 6296:-0.026586423 6297:-0.070291445 