SVM-light Version V6.20
0 # kernel type
3 # kernel parameter -d 
1 # kernel parameter -g 
1 # kernel parameter -s 
1 # kernel parameter -r 
empty# kernel parameter -u 
11718 # highest feature index 
353 # number of training documents 
2 # number of support vectors plus 1 
0 # threshold b, each following line is a SV (starting with alpha*y)
1 1:-0.021510703 2:0.14555328 3:-0.25295043 4:0.33556199 5:-0.15086065 6:0.29944435 7:-0.74800032 8:-0.14656222 9:-0.19472282 10:-0.35174078 11:0.43222627 12:-0.16928223 13:0.78689945 14:0.041726395 15:0.14781648 16:-0.040966053 17:-0.13634743 18:0.27529755 19:-0.014945152 20:0.53681123 21:-0.014945152 22:-0.34560829 23:-0.16042954 24:0.27169979 25:-0.23847072 26:-0.11351057 27:-0.20610146 28:-0.012990372 29:-0.3988871 30:0.21721403 31:-0.23847072 32:-0.23847072 33:0.13410084 34:0.073352844 35:1.1636147 36:1.1035596 37:-0.64391065 38:-0.49901548 39:-0.033151649 40:0.16557671 41:-0.093897775 42:-0.65627617 43:-0.73639292 44:-0.15006934 45:-0.71523601 46:0.50433052 47:0.033822406 48:-0.50665778 49:0.44553801 50:-0.35668266 51:0.19873787 52:-0.76593536 53:-0.31135622 54:-0.35668266 55:3.5325313 56:-0.20036064 57:0.081385359 58:-0.37562329 59:-0.090736501 60:-0.054086778 61:-0.47185889 62:-0.2032489 63:-0.46083033 64:-0.39894941 65:-0.42552871 66:-0.088680044 67:-0.87012446 68:1.0578374 69:0.16833274 70:0.76816559 71:-0.2493519 72:0.35641178 74:0.27631742 75:-0.17967194 76:-0.057924066 78:-0.0047599133 79:0.074174806 80:0.054684047 81:0.31065238 82:0.79381543 85:-0.06008302 86:-0.10419596 87:-0.51629269 88:0.063128874 89:-0.73905379 90:0.30230308 91:0.38158524 92:0.41663137 93:-0.20242044 94:-0.067439973 95:0.61104637 96:-0.13164902 97:-0.10720765 98:0.088900082 99:-0.24441686 100:-0.081575051 101:0.48278314 102:0.5553841 103:-1.5358489 104:0.48654163 105:-0.19850385 106:-0.094743051 107:0.87511492 108:0.046172172 109:0.98016977 110:0.30167004 111:-0.45398146 112:0.010602186 113:-0.26738781 115:0.10970594 118:0.025621541 119:0.41509408 120:0.94545794 122:0.37952632 123:-0.296069 124:0.30093411 125:-0.59651458 127:-0.28776315 128:0.79434282 129:0.19422869 130:-0.078344166 131:0.29336604 132:0.019143937 133:0.58086699 134:-0.049142864 136:0.20807932 137:0.029639548 138:1.1557592 139:0.70433402 140:0.13874675 141:0.32220894 142:0.020836864 143:-0.49624142 144:-0.44223168 147:0.55175859 148:0.38416597 149:0.10063805 150:-0.1061276 151:0.18452516 152:-0.1154582 153:0.14344747 155:-0.81521612 156:0.11291387 157:-0.047690414 158:0.32169819 159:0.6624139 160:-0.64445299 161:-0.37533534 162:0.20898385 163:-0.38739276 164:-0.055153329 165:0.13229905 166:0.35885179 167:-0.12149669 168:-0.34077451 169:0.83801371 170:-0.11500149 171:0.32364929 172:0.15292469 173:0.15292469 174:-0.29651332 175:0.24356027 176:0.15292469 177:0.35249466 178:0.15292469 179:-0.26828426 180:-0.27130875 181:-0.44116619 182:0.15292469 183:-1.2176484 184:-0.54358399 185:0.05405746 186:-0.1447885 187:-0.039098363 188:0.31605101 189:0.35982525 190:0.24180113 191:0.031776953 192:0.031776953 193:-0.086900465 194:-0.29696539 195:0.11514116 196:0.39781696 197:0.1309945 198:-0.79265857 199:0.54131722 200:1.2024384 201:-0.96944416 202:0.54346234 203:0.54884785 204:-0.68767726 205:0.61389601 206:0.20944411 207:-0.47102928 208:0.078775652 209:0.13937448 210:-0.05915473 211:0.12271959 212:0.019247949 213:0.99247432 214:-0.26711521 215:0.20354235 216:-0.80655706 217:0.9057849 218:-0.1829205 219:0.33034992 220:-0.23789378 221:0.00083426165 222:-0.35103393 223:-0.00862554 224:-0.084037535 225:-0.1829205 226:1.1791328 227:-0.09970399 228:0.10044687 229:-0.070596658 230:-0.10291376 231:-0.1829205 232:-0.71761346 233:-0.0040610996 234:-0.089303166 235:-0.024498669 236:0.022324251 237:-0.12563005 238:-0.48428974 239:-1.0909081 240:-0.2050686 241:0.0087255174 242:-0.19546071 243:0.06148012 244:-0.21341646 245:-0.24858582 246:0.10463531 247:0.086077921 248:-0.21341646 249:0.058805868 250:0.25957468 251:-0.21341646 252:-0.21341646 253:0.77609348 254:0.61513752 255:0.35284224 256:-0.95758379 257:0.18415873 258:-0.0098682782 259:-0.19047454 260:-1.918501 261:-0.50273609 262:0.14877653 263:-0.059282247 264:-0.22283319 265:-0.57958627 266:-0.37601399 267:0.36080408 268:0.13725603 269:-0.095384344 270:-0.071423694 271:0.016568651 272:-0.28734615 273:0.024163878 274:0.10288607 275:0.029357377 276:-0.087374821 277:0.086528674 278:-0.014432026 279:0.38027284 280:0.20658034 281:-0.26627558 282:0.099314466 283:-0.2896221 284:-0.095384344 285:-0.095384344 286:-0.21149975 287:-0.095384344 288:-0.095384344 289:-0.1439873 290:1.1607436 291:0.37055808 292:0.38833982 293:-0.0093138739 294:0.045642864 295:-0.061458424 296:-0.38387355 297:0.54600883 298:0.23719949 299:-0.62992221 300:0.31489789 301:0.0012785417 302:0.03704283 303:-0.070696518 304:0.17798385 305:-0.32275435 306:-0.36565453 307:0.31944695 308:0.11934852 309:0.24623664 310:-0.17826 311:-0.25524771 312:0.12089495 313:0.50879282 314:0.2999585 315:0.51519769 316:0.54064697 317:-0.092874087 318:-0.23012418 319:-0.18120858 320:-0.47288278 321:-0.25932306 322:0.18992342 323:-0.46030825 324:0.7703681 325:0.05581646 326:0.063917041 327:1.2757238 328:-0.28594372 329:0.05581646 330:0.21312237 331:0.05581646 332:-0.28594372 333:-0.44132847 334:0.053107962 335:0.14783795 336:0.3639906 337:-0.045413554 338:-0.39592993 339:-0.5311926 340:-0.022699423 341:-0.16906938 342:0.152935 343:0.30780709 344:0.40307027 345:-0.74415922 346:0.152935 347:0.152935 348:-0.15953542 349:-0.30589214 350:0.55811018 351:-0.39207044 352:-0.15953542 353:0.5194788 354:-0.15953542 355:-0.049719512 356:-0.50013083 357:0.25576544 358:-0.32380411 359:0.2659952 360:-0.23414867 361:-0.2674064 362:-0.33695525 363:-0.2065694 364:0.39024121 365:0.53879911 366:-0.33469433 367:-0.34242982 368:-0.18114857 369:0.11339623 370:-0.23699878 371:0.56329793 372:-0.50946563 373:-0.19779745 374:-0.078678235 375:-0.32208049 376:0.36864296 377:0.50509202 378:0.1181993 379:0.17671211 380:0.68926817 381:0.27239797 382:0.16662587 383:0.17354991 384:0.16662587 385:0.22656162 386:0.32875165 387:-0.12897508 388:-0.018802034 389:-0.28808981 390:-0.018802034 391:-0.018802034 392:0.28252995 393:-0.50428271 394:-0.018802034 395:-0.096043468 396:0.23880216 397:-0.058443751 398:0.14426517 399:-0.008608046 400:-0.082701206 401:0.017718023 402:-0.10636474 403:-0.058443751 404:-0.13586491 405:0.15705672 406:-0.12098157 407:-0.060160823 408:-0.082777537 409:-0.0052353307 410:-0.32333142 411:-0.15855391 412:0.020317759 413:-0.058443751 414:0.13629618 415:0.11807814 416:0.57815558 417:-0.19656289 418:-0.024856934 419:0.16151114 420:-0.26021382 421:-0.26485494 422:-0.57320482 423:-0.17125373 424:0.03997552 425:-0.24193995 426:-0.25238672 427:0.52869791 428:0.30368403 429:0.87544513 430:-0.043897599 431:-0.37542084 432:0.32785648 433:-0.024856934 434:0.64392793 435:-0.23573907 436:-0.024856934 437:0.043456927 438:-0.65933341 439:-0.050192617 440:-0.10311034 441:0.090035819 442:-0.73948324 443:-0.8552404 444:-0.22373109 445:-0.072491758 446:0.3947638 447:0.010304728 448:-1.2227304 449:0.084583446 450:0.1627261 451:-0.38211614 452:0.0094186468 453:0.010304728 454:-0.052057087 455:0.073833607 456:0.27674827 457:0.03687799 458:-0.1055568 459:0.33036718 460:0.42939058 461:0.57760167 462:0.2556375 463:0.30258784 464:-0.39847112 465:-0.074495301 466:0.20774111 467:0.50879067 468:-0.12278672 469:0.1537289 470:0.17607823 471:0.19710158 472:0.30578828 473:0.20774111 474:0.063991182 475:0.37053734 476:-0.24041288 477:-1.067598 478:1.060685 479:0.34945258 480:0.32986376 481:0.2959823 482:1.0754769 483:0.74828446 484:0.62926859 485:-0.13597079 486:-0.66783255 487:1.0754769 488:0.065820552 489:-0.13760543 490:0.27102691 491:-0.031038404 492:0.0673417 493:-0.40656722 494:0.065926887 495:-0.33168393 496:-0.28267014 497:-0.25099662 498:-0.24860355 499:-0.079426147 500:-0.17379385 501:0.044949189 502:-0.051552091 503:0.35921651 504:-0.00075298897 505:0.30202734 506:0.0099171828 507:-0.24860355 508:-0.28810313 509:-0.76138097 510:0.37632677 511:0.78918839 512:-0.80177605 513:-0.37339145 514:0.067043602 515:0.16666149 516:0.79092431 517:0.20682389 518:-0.025385946 519:0.40410778 520:-0.25657988 521:0.039292507 522:-0.37634996 523:-0.5186848 524:0.1710629 525:-0.14681059 526:-0.059036318 527:0.14110088 528:-0.097297229 529:-0.084853493 530:-0.3680144 531:-0.3680144 532:-0.35246065 533:0.0021497488 534:0.022641242 535:-0.10074987 536:0.57510287 537:-0.44404292 538:0.34260198 539:-0.39670825 540:-0.21700318 541:-0.075146914 542:0.47304794 543:0.98626059 544:-0.44631302 545:0.66065067 546:0.58928621 547:-0.0038729126 548:-0.22106034 549:-0.11971544 550:0.62453717 551:-0.57153338 552:-0.31634235 553:0.249971 554:0.52066314 555:-0.64441895 556:0.36707833 557:-0.43108612 558:1.0778821 559:-0.44234717 560:-0.24422626 561:0.21583454 562:-0.42522979 563:-0.056570724 564:0.43588319 565:-0.14622104 566:-0.52882481 567:0.20663257 568:0.38334444 569:-0.26063439 570:-0.043774892 571:0.16438186 572:-0.1552867 573:-0.76642269 574:-0.12464516 575:0.21392353 576:0.24554823 577:0.49901935 578:0.74484223 579:0.64085996 580:-0.1552867 581:-0.1552867 582:-0.1552867 583:-0.27443591 584:-0.1552867 585:0.64693964 586:0.1422241 587:-0.1552867 588:-0.13799587 589:0.040036757 590:-0.74646097 591:-1.1022726 592:-0.10699069 593:0.14700249 595:0.30531579 597:-0.32993251 598:0.51521105 599:-0.32993251 600:-0.32993251 601:0.11805716 602:0.10161414 603:-0.55199915 604:-0.34549931 605:-0.10682323 606:0.46213484 607:-0.50105697 608:-0.15640973 609:-0.18506277 610:0.027789056 611:0.76108474 612:-0.49476397 613:-0.27774361 614:0.41843641 615:-0.28124344 616:-0.19474551 617:0.44707331 618:-0.023735166 619:-0.038907085 620:-0.10613318 621:0.33461353 622:-0.39488214 623:-0.077181473 624:0.011920857 625:0.33002734 626:0.54068714 627:-0.2246889 628:-0.35160181 629:-0.59974456 630:-0.20579694 631:0.039070901 632:0.10048284 633:-0.42256513 634:-0.091980696 635:-0.013534474 636:-0.2246889 637:0.17459252 638:-0.2673859 639:0.25806367 640:0.40420076 641:0.16640417 642:0.42944652 643:0.35489422 644:0.48225576 645:0.59169674 646:0.59351784 647:-0.51555645 648:-0.16722789 649:0.040041018 650:0.32071406 651:0.31680498 652:0.11853316 653:0.062873602 654:-0.018742539 655:0.27875081 656:0.99775195 657:-0.70724332 658:0.13226607 659:-0.16826391 660:0.33018437 661:-0.13528368 662:-0.77460104 663:-0.24962029 664:0.051869787 665:-0.16094176 666:0.13689378 667:-0.2028904 668:0.15879196 669:-0.036391642 670:0.22990718 671:0.0043739555 672:0.031241447 673:0.13621524 674:-0.4234134 675:-0.10420989 676:0.68143141 677:0.28632909 678:-0.058940776 679:-0.13763928 680:0.44218209 681:1.0676012 682:0.0071940087 683:-0.015258909 684:0.39029565 685:0.58485562 686:-0.20835948 687:-0.071886472 688:0.006577258 689:-0.15769583 690:-0.31745708 691:0.27107668 692:0.07550735 693:0.0071940087 694:-0.4343431 695:-0.21743917 696:0.0071940087 697:-0.048362918 698:-0.048362918 699:-0.048362918 700:-0.048362918 701:-0.048362918 702:-0.13841845 703:0.28976732 704:0.13679098 705:-0.048362918 706:0.10595714 707:-0.56702614 708:-0.2917155 709:-0.25193062 710:0.40424207 711:-2.0689154 712:0.19416349 713:-0.17624305 714:0.20705597 715:-0.79655528 716:-0.5055775 717:-0.046697076 718:0.20105655 719:-0.12732732 720:-0.046697076 721:0.2789897 722:0.12518054 723:-0.046697076 724:-0.10422082 725:-0.011583335 726:0.057701711 727:-0.051536277 728:-0.65144795 729:0.24878553 730:-1.0959663 731:0.30267408 732:-0.086901605 733:0.45779535 734:0.076801591 735:0.28986007 736:0.45779535 737:0.47136217 738:0.44118276 739:0.1673957 740:-0.19368187 741:0.1807968 742:0.34354687 743:-0.045235321 744:0.048835389 745:-0.055613469 746:0.47531909 747:0.74456733 748:0.19951531 749:0.084737085 750:0.47576332 751:0.58471555 752:0.085207485 753:-1.0385212 754:-0.29353547 755:-0.33711198 756:0.11514694 757:0.28127813 758:-0.20037717 759:-0.087189153 760:-0.20257808 761:-0.20037717 762:0.018496148 763:-0.20037717 764:-0.20037717 765:0.56108594 766:-0.20037717 767:-0.22537072 768:1.3773179 769:-0.18352637 770:-0.26969996 771:0.20345029 772:0.14428799 773:-0.021379 774:-0.20037717 775:-0.15884636 776:-0.20037717 777:-0.20037717 778:-0.5196718 779:0.18433012 780:-0.21387449 781:-0.12515263 782:0.26375616 783:0.2606889 784:0.26375616 785:-0.072124407 786:0.19586602 787:-0.17359497 788:-0.10340407 789:-0.07238429 790:-0.44504368 791:-0.22911154 792:-0.19952789 793:-0.058193099 794:0.025670622 795:-0.05765615 796:0.15262407 797:0.14310612 798:0.77633983 799:0.4684236 800:0.088690683 801:-0.22396357 802:-0.58842915 803:-0.22396357 804:0.018960958 805:0.16914952 806:0.16914952 807:0.16914952 808:-0.052253094 809:0.16914952 810:0.16905922 811:-0.1603127 812:0.16914952 813:-0.22516774 814:0.40818158 817:-0.39903668 819:0.029937377 820:-0.052423164 821:-0.17314103 822:0.20966108 826:0.071299352 827:-0.052949641 828:-0.28140083 829:-0.2215638 830:-0.0066902079 831:-0.29619223 832:-0.23326406 833:0.67581487 834:0.0018003292 835:0.12930779 836:-0.75318903 837:-0.19034472 838:-0.53215945 839:0.32927153 840:0.78558367 841:-0.080191419 842:-0.080994688 843:-0.059428837 844:-0.11883811 845:-0.40140238 846:0.097103916 847:0.048056982 848:1.0609596 849:-0.016489552 850:-0.016489552 851:-0.18500428 852:-0.24774189 853:-0.28836292 854:-0.14892934 855:0.10422882 856:0.16518049 857:0.49022052 858:-0.45763391 859:0.91760832 860:0.41926011 861:0.10913383 862:0.96712774 863:0.35783717 864:0.27985996 865:-0.23341568 866:0.30875081 867:0.12673913 868:0.27264866 869:-0.4561018 870:-0.47428489 871:-0.4561018 872:0.048689365 873:0.30222026 874:-0.44094381 875:0.032611486 876:0.27679965 877:0.083478048 878:0.30222026 879:0.30222026 880:-0.43945992 881:0.30222026 882:0.22444057 883:0.16823496 884:-0.22765215 885:0.044382356 886:0.16823496 887:-0.082520165 888:-0.082520165 889:0.46724242 890:-0.32655293 891:-0.32169744 892:0.29831412 893:-0.096993096 894:0.24806526 895:-0.61136401 896:-0.32169744 897:-0.21790496 898:0.0025060864 899:0.0025050698 900:0.006507433 901:0.25913909 902:-0.10660116 903:1.203702 904:-0.24070385 905:-0.35572198 906:-0.69363779 907:-0.13763855 908:0.65117621 909:-0.30754212 910:-0.49181619 911:-0.54818672 912:0.42812496 913:0.18345088 914:0.18345088 915:0.15060428 916:-0.84450418 917:0.55117655 918:0.46189564 919:0.15060428 920:-0.14154175 921:-0.070770875 922:-0.070770875 923:0.090687819 924:-0.038750309 925:-0.070770875 926:-0.15069862 927:-0.010333939 928:-0.070770875 929:-0.070770875 930:0.15215035 931:-0.10367494 932:-0.070770875 933:-0.070770875 934:-0.070770875 935:-0.064821973 936:0.34966531 937:-0.064821973 938:-0.070770875 939:-0.070770875 940:-0.070770875 941:-0.077885002 942:-0.070770875 943:-0.070770875 944:-0.070770875 945:-0.15907933 946:0.033012904 947:0.033012904 948:0.033012904 949:0.32152399 950:0.20285782 951:0.44160116 952:0.23205981 953:-0.22789125 954:-0.091920048 955:0.26711777 956:-0.16767766 957:0.24838752 958:-0.099505849 959:0.27504689 960:0.1534013 961:0.24838752 962:0.1921117 963:0.53736115 964:0.24838752 965:0.3089672 966:0.15946336 967:0.68451524 968:-0.1691106 969:-0.17689681 970:-0.17689681 971:0.10616799 972:-0.17689681 973:-0.12953696 974:-1.1233439 975:0.48243093 976:0.16929105 977:0.54918861 978:-0.3329328 979:-0.3329328 980:-0.3329328 981:0.10093535 982:0.25312462 983:-0.66055161 984:0.84190571 985:-0.20419024 986:-0.022062704 987:-0.11104853 988:-0.13705511 989:-0.31179535 990:-0.34439737 991:-1.0644116 992:0.055982377 993:0.44420844 994:-0.37902674 995:0.43703184 996:0.18687895 997:0.078477703 998:-0.13091984 999:0.069741234 1000:0.069741234 1001:0.069741234 1002:0.069741234 1003:0.069741234 1004:0.4089449 1005:0.29926413 1006:0.48323664 1007:-0.057370514 1008:-0.038214948 1009:1.1196717 1010:-1.7963561 1011:0.51829606 1012:-0.011261683 1013:0.22733957 1014:0.67615354 1015:0.20820892 1016:0.21282609 1017:0.15763237 1018:0.23588212 1019:-0.085310772 1020:-0.055169255 1021:0.20883217 1022:0.1227598 1023:-0.019413568 1024:0.47566241 1025:0.25728002 1026:0.053566348 1027:-0.010377069 1028:1.1038793 1029:-0.1250086 1030:-0.33714652 1031:-0.25962123 1032:-0.25962123 1033:-0.23778249 1034:-0.32589889 1035:-0.095736638 1036:-0.16853458 1037:0.29709804 1038:0.20161912 1039:-0.23242739 1040:0.4231317 1041:-0.039930753 1042:0.64888948 1043:0.33416069 1044:0.061619975 1045:0.025427351 1046:-0.69584471 1047:0.10104157 1048:-0.14001974 1049:-0.43133056 1050:0.40980616 1051:0.06760931 1052:0.66119909 1053:0.23425259 1054:-0.40294629 1055:0.2473477 1056:0.06760931 1057:-0.12371523 1058:0.06760931 1059:0.61419827 1060:0.06760931 1061:-0.30059069 1062:0.06760931 1063:0.27741641 1064:-0.19947225 1065:0.77985203 1066:0.022351073 1067:0.51062995 1068:-0.19346917 1069:0.29880533 1070:-0.33437836 1071:-0.33487767 1072:-0.33487767 1073:-0.125489 1074:0.13213368 1075:0.11893691 1076:-0.0017632064 1077:0.31789976 1078:0.021904767 1079:-0.045888666 1080:-0.079670981 1081:0.45968398 1082:0.4610253 1083:-0.075653814 1084:0.12348133 1085:-0.089447238 1086:0.068372451 1087:-0.32243174 1088:0.35551205 1089:0.42125142 1090:-0.33804655 1091:0.065290555 1092:-0.85958916 1093:-0.010764967 1094:0.096766643 1095:1.0502146 1096:1.0502146 1097:0.3481949 1098:0.24779627 1099:0.34080499 1100:-0.053059828 1101:-0.22129092 1102:0.38867867 1103:0.17510772 1104:0.0969375 1105:0.24779627 1106:0.31916678 1107:0.24779627 1108:0.25132501 1109:0.49862063 1110:0.054200005 1111:0.45728812 1112:-0.46408021 1113:-0.052854627 1114:-0.011623932 1115:-0.17658205 1116:0.28475702 1120:0.080952629 1123:0.063453101 1124:0.9792878 1125:1.2199159 1129:0.56915992 1130:0.24735533 1131:0.017131971 1132:0.075342931 1133:-0.12559658 1134:-0.18061298 1135:-0.15987182 1136:-0.59094483 1137:-0.41727126 1138:-0.41727126 1139:0.25432402 1140:-0.10582424 1141:-0.41727126 1142:-0.13690905 1143:-0.41727126 1144:0.34903049 1145:-0.11390264 1146:-0.41727126 1147:-0.41727126 1148:-0.012848465 1149:-0.22349799 1150:-0.28891516 1151:-0.012848465 1152:-0.012848465 1153:0.11903942 1154:-0.042407311 1155:-0.27565771 1156:-0.57760966 1157:-0.4993813 1158:-0.12345457 1159:0.0028667406 1160:0.0028667406 1161:-0.38222718 1162:0.0028667406 1163:0.83140284 1164:0.56780899 1165:0.56780899 1166:0.35872656 1167:0.53170615 1168:0.2378269 1169:-0.60472727 1170:0.5492993 1171:-0.073882453 1172:0.82445133 1173:0.8502295 1174:0.77576625 1175:0.4536373 1176:0.27974492 1177:-0.24891677 1178:-0.052945968 1179:0.0065312739 1180:-0.39102569 1181:0.31285924 1182:0.31285924 1183:-0.4037807 1184:0.31285924 1185:-0.17540228 1186:0.038835175 1187:-0.72532046 1188:0.0077711339 1189:0.0077711339 1190:0.0077711339 1191:-0.85961479 1192:-0.0027183627 1193:-0.18754713 1194:0.42432022 1195:0.32614926 1196:0.28815341 1197:-0.16977078 1198:-0.018690215 1199:-0.0019421357 1200:0.4725737 1201:0.22176804 1202:0.50608325 1203:0.28815341 1204:-0.15207519 1205:-0.049292002 1206:0.14041103 1207:0.065408431 1208:0.14041103 1209:0.0093927737 1210:0.14041103 1211:-0.40320486 1212:0.13369103 1213:0.25319719 1214:0.18094505 1215:0.19479093 1216:0.14041103 1217:0.14852092 1218:0.14041103 1219:0.16427138 1220:0.14041103 1221:1.0990429 1222:-0.33516741 1223:0.19726011 1224:-0.048977893 1225:-0.048977893 1226:-0.048977893 1227:-0.048977893 1228:0.1609555 1229:0.63519335 1230:0.6032905 1231:0.44048935 1232:-0.062277831 1233:-0.062277831 1234:0.37617481 1235:-0.55035406 1236:0.80553794 1237:0.16108796 1238:0.24277204 1239:0.24607679 1240:-0.062277831 1241:-0.062277831 1242:-0.062277831 1243:-0.44905496 1244:0.41223752 1245:-0.062277831 1246:-0.062277831 1247:0.36279526 1248:0.10113619 1249:0.16873419 1250:0.51146638 1251:0.099203423 1252:0.19104525 1253:-0.25556442 1254:0.36816865 1255:-0.50949478 1256:-0.84339386 1257:0.19634202 1259:-0.29476336 1260:0.031515855 1261:0.05540045 1262:0.19229354 1263:-0.23230827 1264:0.17875941 1265:0.60114753 1266:-0.29159129 1267:-0.21796368 1268:0.26499707 1269:0.27951267 1270:0.15637739 1271:0.06686043 1272:-0.044670872 1273:-1.0141965 1274:-0.29056051 1275:-0.070873186 1276:0.73835719 1277:-0.080759846 1278:0.12952214 1279:-0.073441021 1280:-0.16864182 1281:0.59577143 1283:-0.24772561 1284:0.022976497 1285:-0.12752867 1286:-0.11683036 1287:0.10378929 1288:-0.12752867 1289:-0.1733193 1290:0.60088897 1291:-0.26202226 1292:-0.12752867 1293:0.28257987 1294:-0.12752867 1295:-0.13638388 1296:-0.27427819 1297:0.026541756 1298:-0.12752867 1299:0.30419922 1300:0.21588877 1301:-0.30314973 1302:0.0042570569 1303:-0.12752867 1304:0.07671082 1305:-0.43812519 1306:-0.80705434 1307:-0.31644869 1308:-0.58608192 1309:0.035239317 1310:0.14403152 1311:-0.30960089 1312:-0.38766223 1313:-0.034103587 1314:-0.27768064 1315:0.10087523 1316:-0.75873387 1317:0.31051794 1318:-0.23448209 1319:0.051935777 1320:-0.020550227 1321:0.31744987 1322:-0.69072682 1323:1.2333148 1324:0.2969332 1325:-0.61777538 1326:-0.35600075 1327:-0.099036552 1328:-0.53570485 1329:-0.002939238 1330:-0.21913365 1331:1.3954854 1332:-0.055870835 1334:0.23313616 1335:-0.30768794 1337:0.34253541 1338:0.3397629 1340:1.0367546 1341:0.12037501 1342:-0.55444151 1343:0.07648772 1344:-0.17329648 1345:1.0363224 1346:0.20206124 1347:-0.38053471 1348:0.69514483 1349:-0.54752541 1350:-0.3944582 1351:-0.40077046 1352:-0.09136191 1353:-0.00077651604 1355:-0.12339468 1356:0.50248891 1357:0.22522175 1358:0.22504821 1359:-0.36597267 1360:0.20521893 1361:-0.28992653 1362:0.77261865 1363:0.046434317 1364:0.042830762 1365:0.29819658 1366:0.29819658 1367:0.29819658 1368:0.90800142 1369:1.0324085 1370:0.28872159 1373:-0.013564134 1374:0.33853725 1375:0.024043294 1376:-0.16116108 1377:-0.16116108 1378:-0.10353035 1379:0.34770188 1381:0.32113886 1382:0.0085861795 1383:0.65445298 1384:-0.58942771 1385:0.57139134 1386:0.12001903 1387:0.15244941 1388:0.13388634 1389:0.36370793 1390:0.12270688 1391:0.12270688 1394:0.016144956 1395:0.48670408 1396:0.014780024 1397:-0.13576226 1398:0.016144956 1399:0.45892587 1400:-0.068275236 1401:0.18139817 1402:0.73652899 1403:-0.15898755 1404:0.11152896 1405:0.12641378 1406:0.29796028 1407:-0.23117194 1408:0.3311218 1409:0.30164272 1410:0.73794234 1411:0.046456702 1412:0.50851578 1413:0.35567275 1414:-0.15335909 1415:-0.64375174 1416:-0.018950777 1417:-0.018950777 1418:-0.018950777 1419:-0.018950777 1420:0.59133023 1421:-0.42019585 1422:-0.049502708 1423:-0.17467339 1424:0.19244304 1425:-0.018950777 1426:-0.018950777 1427:-0.20666018 1428:-0.53509188 1429:0.12359708 1430:-0.018950777 1431:-0.018950777 1432:-0.055667002 1433:-0.055667002 1434:0.24239978 1435:-0.2329997 1436:0.56201601 1437:-0.1649283 1438:-0.33822629 1439:-0.055667002 1440:0.052267887 1441:-0.79867595 1442:-0.069256313 1443:0.53348082 1444:0.30509087 1445:-0.12590761 1446:0.55597329 1447:0.5973931 1448:0.53348082 1449:-0.71652645 1450:-0.21111178 1451:0.11626033 1452:1.2296779 1453:-0.031670064 1454:0.10688837 1455:0.45502034 1456:0.056812126 1457:-0.015242928 1458:0.056812126 1459:-0.067398034 1460:0.55301172 1461:0.056812126 1462:-0.034547236 1463:-0.45158923 1464:0.3338989 1465:0.054638386 1466:0.047355905 1467:0.098972268 1468:0.17887183 1469:-0.22503836 1470:0.00068240805 1471:-0.065600991 1472:-0.065600991 1473:-0.003965266 1474:-0.065600991 1475:-0.20643486 1476:-0.078617908 1477:0.21778744 1478:-0.16972081 1479:-0.068408579 1480:0.11219895 1481:0.90798789 1482:-0.24396554 1483:0.073105522 1484:0.44516206 1485:0.47043532 1486:-0.29065576 1487:-0.57243866 1488:-0.040601067 1489:0.19205196 1490:-0.39591056 1491:0.15055555 1492:-0.097461894 1493:0.23339827 1494:0.12409957 1495:0.039686076 1496:0.066238113 1497:0.1381129 1498:-0.31004843 1499:-0.1919264 1500:-0.32213339 1501:-0.18167117 1503:-0.4063448 1504:0.051145684 1505:0.40341622 1506:-0.40264076 1507:-0.37657806 1508:0.31382716 1509:0.12493894 1510:-0.46797949 1511:-0.73328143 1512:-0.51214421 1513:0.51808172 1514:-0.11378242 1515:0.31053519 1516:0.15758446 1517:0.15758446 1518:-0.095536888 1519:0.55522859 1520:-0.17292595 1521:-0.15438236 1523:-0.35103226 1524:-0.069753453 1526:-0.33364004 1527:-0.30251041 1528:-0.30251041 1529:-0.30251041 1530:-0.2275026 1531:-0.20835775 1532:0.021747993 1533:0.014159393 1534:-1.2080184 1535:0.048255067 1536:0.32624298 1537:0.83468354 1538:-0.44329116 1539:-0.2535474 1540:0.070517071 1541:0.070517071 1542:0.070517071 1543:-0.44940045 1544:-0.20597556 1545:-0.0030672469 1546:-0.19652678 1547:-0.19652678 1548:-0.19652678 1549:-0.22462684 1550:-0.48181888 1551:-0.22462684 1552:-0.22462684 1553:0.76893163 1554:-0.076474786 1555:0.11346909 1556:2.7479694 1557:-0.77813953 1558:0.47802621 1559:0.48055843 1560:0.08481051 1561:-0.52731353 1562:0.065895468 1563:0.33145553 1564:0.1709432 1565:-0.66354728 1566:0.23763146 1567:0.23763146 1568:0.018003417 1569:0.65281087 1570:0.23763146 1571:-0.057700142 1572:-0.49841347 1573:0.80873978 1574:0.30035806 1575:1.0578938 1576:-0.43517995 1577:-0.10202909 1578:0.021564493 1579:-0.10202909 1580:-0.10202909 1581:-0.10202909 1582:0.41759595 1583:-0.070643738 1584:-0.51672965 1585:0.064958394 1586:-0.066839471 1587:-0.066839471 1588:-0.066839471 1589:0.1982142 1590:0.16804309 1591:-0.066839471 1592:-0.067339256 1593:0.33853948 1594:-0.066839471 1595:-0.18224204 1596:-0.066839471 1597:-0.35152221 1598:0.058137469 1599:-0.0066611925 1600:-0.066839471 1601:-0.066839471 1602:0.36222056 1603:-0.7448234 1604:-0.33855522 1605:0.3017928 1606:-0.0068713371 1607:-0.085936308 1608:-0.36803526 1609:0.24673937 1610:0.050550275 1611:-0.12716748 1612:-0.2557219 1613:0.6114915 1614:0.66870165 1615:0.48269397 1616:0.076047786 1617:0.20344236 1618:-0.14425027 1619:0.68888116 1620:0.021910645 1621:0.46633202 1622:0.084743299 1623:-0.26643389 1624:-0.62202853 1625:0.73888397 1626:0.42871714 1627:-0.26643389 1628:-0.95391178 1629:0.21326523 1630:0.12613297 1631:0.78722823 1632:-0.25449872 1633:-1.6419237 1634:0.69115877 1635:0.18857707 1636:0.056793395 1637:-0.10782758 1638:0.39022905 1639:0.056450289 1640:-0.21031605 1641:0.027111504 1642:-0.050879005 1643:-0.14545433 1644:-0.19262849 1645:0.017789487 1646:-0.19262849 1647:-0.36453357 1648:-0.19262849 1649:0.06665127 1650:0.24448842 1651:0.79779649 1652:-0.12532558 1653:-0.21031605 1654:-0.020179568 1655:-0.069097988 1656:-0.21031605 1657:0.48296544 1659:0.14221723 1661:0.082933627 1663:-0.35507214 1665:-0.62836277 1666:0.58337271 1667:-0.33196744 1668:0.60328716 1669:-0.12946488 1670:-0.77917832 1671:0.26364169 1672:-0.027478158 1673:0.15227783 1674:-0.51236409 1675:0.29609489 1676:0.54871935 1677:-0.042045992 1678:-0.26046404 1679:-0.26046404 1680:0.025949756 1681:-0.18336691 1682:-0.26046404 1683:0.24461396 1684:-0.26046404 1685:-0.015279117 1686:-0.26046404 1687:-0.2261916 1688:0.53606987 1689:0.39746755 1690:-0.26046404 1691:-0.26046404 1692:-0.047128938 1693:-0.26046404 1694:-0.67326438 1695:1.7963511 1700:0.16532578 1701:-0.28081024 1702:-0.11791769 1703:0.68136287 1704:0.38080698 1705:-0.29074055 1706:0.33227107 1707:0.19796693 1708:0.19796693 1709:0.19796693 1710:0.23995133 1711:0.19796693 1712:0.37598035 1713:-0.25968337 1714:0.53711379 1715:0.70405209 1716:-0.59013802 1717:0.51802832 1718:0.51007664 1719:0.51007664 1720:-0.11761378 1721:-1.3240498 1722:1.1295316 1723:0.17269178 1724:-0.17567888 1725:-0.15737168 1726:0.16305003 1727:-0.42518124 1728:-0.42518124 1729:-0.37353551 1730:0.14930995 1731:0.090266503 1732:0.16514415 1733:-0.52870286 1734:0.0099278167 1735:-0.05053303 1736:-0.0050583426 1737:0.2605764 1738:0.17349753 1739:0.28403172 1740:0.17349753 1741:0.2103374 1742:-0.16108713 1743:0.17349753 1744:0.077760972 1745:0.17349753 1746:0.17349753 1747:-0.19929825 1748:0.094338417 1749:0.17349753 1750:-0.13810885 1751:0.06129656 1752:-0.081800908 1753:-0.30952537 1754:0.030540224 1755:-0.30952537 1756:1.1823981 1757:-0.087166719 1758:-0.43618682 1759:-0.094796851 1760:-0.020032395 1761:-0.094796851 1762:-0.094796851 1763:-0.26210716 1764:-0.1343704 1765:0.024136037 1766:-0.22056799 1767:0.12481481 1768:0.10897854 1769:0.70464849 1770:0.12624882 1771:-0.0085864114 1772:0.51418841 1773:0.15923494 1774:-0.0049120411 1775:0.022105446 1776:-0.38673684 1777:-0.42705679 1778:0.84265071 1779:-0.38673961 1780:-0.11370408 1781:0.12755895 1782:-0.30165812 1783:-0.16122317 1784:0.25218034 1785:0.053505961 1786:-0.85900825 1787:0.07978408 1788:0.38412097 1789:-0.81596714 1790:0.44562215 1791:-0.043009862 1792:0.20543091 1793:0.10826211 1794:-0.0026622296 1795:-0.0026622296 1796:0.079531588 1797:-0.38884494 1798:-0.70189792 1799:-0.44848269 1800:-0.62253618 1801:-0.62253618 1802:-0.47756195 1803:-0.08726766 1804:-0.23116423 1805:-0.34437919 1806:-0.40018213 1807:-0.11030462 1808:0.050097506 1809:-0.94040614 1810:-0.075081497 1811:0.16705054 1812:0.63206959 1813:-0.344836 1814:-0.046180997 1815:0.25867829 1816:-0.13367458 1817:0.45377657 1818:-0.035586968 1819:-0.0039609587 1820:0.12083072 1821:0.32051376 1822:0.75174373 1823:1.0695713 1824:0.063681103 1825:-0.31503877 1826:0.040092923 1827:0.4512262 1828:-0.028586669 1829:0.10707766 1830:-0.2015449 1831:-0.20376229 1832:-0.019892007 1833:0.21694072 1834:0.21694072 1835:0.21694072 1836:0.18439761 1837:-0.069959246 1838:0.3781344 1839:0.21694072 1840:0.074881978 1841:0.26149875 1842:-0.67940485 1843:0.21694072 1844:0.26003218 1845:0.16996025 1846:0.21694072 1847:0.36359069 1848:0.10329513 1849:0.25609902 1850:-0.76196492 1851:0.2007598 1852:0.69241112 1853:0.26093844 1854:-0.12266855 1855:-0.1028512 1856:-0.12266855 1857:-0.12266855 1858:0.16337755 1859:-0.12266855 1860:0.11167532 1862:-0.11031005 1863:-0.47989815 1864:-0.11031005 1865:0.14820042 1866:0.1313383 1867:-0.26476559 1868:-0.09126012 1869:-0.076029688 1870:-0.36449996 1871:0.23505183 1872:-0.17448102 1873:-0.19258833 1874:0.46385157 1875:0.078949377 1876:0.23505183 1877:0.23505183 1878:0.01112474 1879:-0.015372273 1880:0.18406902 1881:0.19229963 1882:0.4895699 1883:0.027980043 1884:0.23741794 1885:0.045123454 1886:-0.34361249 1887:-0.34361249 1888:0.4235841 1889:1.027102 1890:1.0758557 1891:-0.48943952 1892:-0.19650748 1893:-0.32192832 1894:-0.34361249 1895:-0.41580844 1896:-0.093434542 1897:0.042998388 1898:-0.044709802 1899:0.2731095 1900:0.88679433 1901:0.85237622 1902:0.27983776 1903:0.23820762 1904:0.39124799 1905:0.71752101 1906:0.035944846 1907:0.035944846 1908:-0.54915619 1909:0.03291529 1910:0.035944846 1911:-0.15252206 1912:0.58429152 1913:0.035944846 1914:0.33453909 1915:-0.023927281 1916:0.035944846 1917:0.32131231 1918:0.13726252 1919:0.88791722 1920:-0.74244618 1921:-1.8475777 1922:0.67460304 1923:0.0095897857 1924:0.31380498 1925:-0.038937442 1926:-0.038937442 1927:0.14049955 1928:-0.042519871 1929:0.14713195 1930:-0.25373083 1931:0.086082421 1932:-0.36829868 1933:-0.23011519 1934:0.22938031 1935:0.33117133 1936:0.33117497 1939:0.46812698 1940:0.094673768 1941:0.18782157 1942:-1.4832165 1943:0.091488704 1944:-0.17973313 1945:0.42522153 1946:0.13334082 1947:-0.79335177 1949:0.77220345 1951:0.77470064 1952:-0.086151205 1953:-0.26231119 1954:-0.11513308 1955:-0.21281575 1956:-0.086151205 1957:-0.13448609 1958:-0.074267305 1959:-0.1538624 1960:-0.1538624 1961:0.10590702 1962:-0.70185262 1963:-0.1538624 1964:0.0051101684 1965:-0.017170887 1966:0.018738374 1967:0.11374715 1968:0.15020803 1969:0.21769699 1970:0.25917223 1971:0.29987329 1972:0.60059375 1973:-0.20248345 1974:-0.20248345 1975:-0.088188544 1976:-0.49393371 1977:1.5119113 1978:-0.55431587 1979:0.14713068 1980:1.5591334 1981:-0.40105733 1982:-0.48957786 1983:0.27166563 1984:0.14031576 1985:0.14031576 1986:0.27971414 1987:0.27971414 1988:0.20972078 1989:0.20972078 1990:-0.14769936 1991:-0.41598147 1992:0.55393827 1993:0.19818178 1994:0.0057022586 1995:-0.15961167 1996:-0.24426879 1997:0.046028905 1998:-0.24426879 1999:0.10271712 2000:-0.15788996 2001:-0.24426879 2002:-0.21058732 2003:-0.064636521 2004:-0.27555111 2005:0.091812208 2006:0.073475607 2007:-0.27434126 2008:-1.4177687 2009:0.16071756 2010:-0.7487663 2011:-0.06773226 2012:-0.23590416 2013:0.62563944 2014:-0.48854443 2015:-0.12267345 2016:-0.073425949 2017:0.15615012 2018:-0.051094156 2019:0.29162893 2020:-0.12267345 2021:-0.12267345 2022:-0.077689916 2023:0.20361105 2024:0.12957513 2025:0.12957513 2026:0.28108159 2027:-0.22997911 2028:-0.51540375 2029:0.22929762 2030:0.40956232 2031:0.10442732 2032:0.13911285 2034:0.20691295 2035:0.25059676 2037:0.39092922 2038:0.11877577 2039:0.07665354 2040:0.26873544 2041:0.26873544 2043:0.61909896 2046:1.1832739 2047:0.79080683 2048:-0.041765757 2049:0.1139034 2050:-0.35181713 2051:-0.23230091 2052:-0.35181713 2053:0.11384032 2054:-0.0088655585 2055:-0.25900519 2056:0.52688599 2057:0.073410019 2058:-0.2038151 2059:0.25005564 2060:-0.29623383 2061:1.0995361 2062:0.13094735 2063:0.54832757 2064:0.54832757 2065:1.055884 2066:-0.69848645 2067:0.32963908 2068:0.16377291 2069:-0.45552677 2070:-0.11308271 2071:-0.46747965 2072:-0.085111581 2073:-0.033789869 2074:0.44296151 2075:0.61489737 2076:0.5876072 2077:-0.033789869 2078:-0.033789869 2079:-0.033789869 2080:-0.17474194 2081:0.45697466 2082:-0.11397355 2083:-0.30795482 2084:0.40388718 2085:0.02621302 2086:0.097218566 2087:0.26430896 2088:0.76151907 2089:0.091624156 2090:0.091624156 2091:-0.23267874 2092:0.024370104 2093:-0.91782266 2094:0.40124866 2095:-0.092783466 2096:0.21523298 2097:-0.10981297 2098:0.017393136 2099:-0.15407385 2100:-0.071277462 2101:0.072137035 2102:0.3116011 2103:0.015862195 2104:-0.56028104 2105:0.22054918 2106:-0.31821421 2107:0.011008505 2108:0.12177056 2109:-0.39233211 2110:0.19332744 2111:0.26830399 2112:0.70009571 2113:0.18553026 2114:-0.26952159 2115:0.15546848 2116:0.0046073338 2117:0.071053095 2118:0.026524547 2119:0.045895129 2120:0.0066950899 2121:-0.048941229 2122:-0.015306571 2123:0.30855256 2124:0.0066950899 2125:-0.11484235 2127:0.092515446 2128:0.23093539 2130:0.47031564 2131:0.81444061 2132:0.33928585 2133:0.81444061 2134:0.61661136 2135:0.3448734 2136:0.012337999 2137:0.58490515 2138:-0.038316429 2139:-0.10696174 2140:-0.0757237 2141:0.42547962 2142:-0.0991451 2143:-1.2084588 2144:0.52786481 2145:-0.011188647 2146:-0.0757237 2147:-0.0757237 2148:-0.0757237 2149:0.92862606 2150:-0.10330803 2151:0.53015083 2152:-0.0757237 2153:0.11090525 2154:-0.17326517 2155:-0.13529266 2156:0.76051563 2157:0.1343642 2158:-0.60135281 2159:0.78888685 2160:0.66117835 2161:0.67918271 2162:1.332595 2163:0.2860263 2164:0.4995541 2165:-0.060999263 2166:-0.060999263 2167:-0.060999263 2168:-0.59214216 2169:0.10759688 2170:0.051495802 2171:0.40238807 2172:0.43933076 2173:-0.026768265 2174:0.47437775 2175:-0.29872552 2176:0.53129613 2177:-0.044149306 2178:0.43933076 2179:-0.21524769 2180:0.0055268025 2181:0.65659338 2182:0.0055268025 2183:0.0055268025 2184:-0.067805558 2185:-0.089710362 2186:0.10137448 2187:0.19748057 2188:0.19748057 2189:0.19748057 2190:0.1464065 2191:-0.38494107 2192:0.36895365 2193:0.18088382 2194:0.19748057 2195:0.023508647 2196:0.095919237 2197:0.095919237 2198:-0.1213728 2199:0.19695112 2200:-0.23929873 2201:-0.11116722 2202:-0.028060315 2203:-0.15251285 2204:-0.1213728 2205:0.26717192 2206:0.61296129 2207:0.058693174 2208:-0.26235482 2209:-0.48620069 2210:-0.21556441 2211:-0.24675597 2212:0.27383456 2213:-0.41884294 2214:0.11259275 2215:-0.42400447 2216:-0.24675597 2217:-0.8390004 2218:0.44777882 2219:-0.37587407 2220:-0.12056813 2221:0.22421429 2222:0.03771051 2223:0.018855255 2224:-0.98761606 2225:0.089285612 2226:0.089285612 2227:0.0456976 2228:0.089285612 2229:-0.075753435 2230:-0.014474421 2231:0.089285612 2232:0.089285612 2233:0.25416377 2234:0.089285612 2235:-0.22020979 2236:-0.30648205 2237:0.39917764 2238:0.39917764 2239:0.8297593 2240:0.39917764 2241:0.80331379 2242:-0.41623136 2243:-0.41623136 2244:0.15738611 2245:-0.34818557 2246:-0.63436371 2250:-0.12012678 2251:-0.60665578 2252:-0.063113451 2253:0.24166806 2254:0.35860702 2255:0.093618862 2256:0.61159128 2257:-0.74032259 2258:0.22007303 2259:0.39417472 2260:-0.28007662 2261:-0.38520867 2262:0.14001667 2263:0.14001667 2264:0.19509777 2267:0.1017314 2268:0.25247785 2269:0.09317226 2270:0.052816287 2271:0.09317226 2272:0.1017314 2273:-0.10808808 2274:0.20749566 2275:-0.10016579 2276:-0.10016579 2277:-0.10016579 2278:-0.10016579 2279:-0.10016579 2280:-0.85037702 2281:0.11129329 2282:0.11129329 2283:0.11110885 2284:-0.037769496 2285:-0.12848003 2286:-0.081174701 2287:0.23382168 2288:-0.37768525 2289:0.38443714 2290:-0.22763133 2292:0.3823421 2293:0.054964844 2295:0.031736769 2296:-0.062049929 2297:-0.062049929 2298:-0.062049929 2299:-0.40406734 2300:0.30479458 2301:0.042140335 2302:0.33277905 2303:0.15291478 2304:-0.25781831 2305:0.33277905 2306:0.46253651 2307:0.10226716 2308:-0.6954698 2309:0.2827366 2310:0.28957543 2311:0.77983487 2312:-0.013617191 2314:0.65120196 2315:0.087883785 2316:0.010756238 2317:-0.62237638 2318:0.65655673 2319:-0.23471129 2320:0.15738988 2321:0.32305518 2322:0.37358356 2323:0.31453523 2324:0.055449974 2325:0.37687078 2326:-0.036518838 2327:0.21056212 2328:0.07577429 2329:0.26218006 2330:0.26218006 2331:0.26789367 2332:0.26218006 2333:0.29358432 2334:0.54753691 2335:0.2652677 2336:0.28377652 2337:-0.30306235 2338:-0.24926585 2339:-0.12751609 2340:0.29303321 2341:0.18948489 2342:0.43602434 2343:-0.50610191 2344:-0.24891184 2345:0.27974367 2346:-0.23237865 2347:-0.36207154 2348:-0.31213486 2349:0.37709504 2350:-0.20611243 2352:0.16152768 2353:0.49462128 2354:-0.068490058 2355:-0.042798199 2356:0.10327545 2357:0.047458861 2358:-0.27213934 2359:-0.27213934 2360:-0.25302249 2361:0.60438138 2362:0.62140679 2363:0.60438138 2364:0.18712933 2365:0.07841935 2366:-0.13752861 2367:-0.16741589 2368:-0.50118899 2369:0.62385964 2370:-0.021835694 2371:-0.020009393 2372:0.28243053 2373:-0.42748481 2374:0.049125873 2375:0.17808622 2376:0.24147329 2377:-0.021835694 2378:0.60295588 2379:-0.11321848 2380:0.19675161 2381:-0.46012548 2382:-0.029528826 2383:-0.11321848 2384:-0.11321848 2385:0.66424197 2386:0.38512403 2387:-0.11321848 2388:0.010007974 2389:0.28423056 2390:0.37163129 2391:0.18100441 2392:0.29091299 2393:0.74873984 2394:-0.23034979 2395:-0.19494221 2396:0.77685696 2399:-0.054863393 2400:0.13219599 2401:0.78222734 2402:0.12541488 2403:0.41478518 2404:0.3488346 2407:0.040840592 2408:-0.0051905694 2409:-0.0051905694 2410:0.76597965 2411:0.79113865 2412:0.058159951 2413:0.13997672 2414:0.13997672 2415:0.26400504 2416:0.82787603 2417:0.13997672 2418:0.23951571 2419:0.22868195 2420:0.13997672 2421:0.43889853 2422:0.028353268 2423:0.028353268 2424:0.037983295 2425:0.09721446 2426:-0.24267593 2427:0.17178766 2428:0.6542803 2429:0.29366979 2430:-0.352016 2431:0.028353268 2432:0.20602436 2433:0.028353268 2434:0.86474532 2435:0.028353268 2436:0.037381366 2437:0.028353268 2438:0.58029628 2439:-0.13404784 2440:0.47320792 2441:-0.1772051 2442:0.17712533 2443:-0.18784831 2444:0.29957166 2445:0.80443412 2446:0.57000911 2447:1.466451 2448:-0.0082173226 2449:-0.42312419 2450:-0.47282577 2451:0.45201975 2452:-0.5947383 2453:-0.62723142 2454:-0.62723142 2455:-0.25078717 2456:-0.57593489 2457:0.30431443 2458:0.05926336 2459:0.064724527 2460:-0.081230834 2461:0.14221905 2462:-0.22600888 2463:0.17162745 2464:-0.068003871 2465:0.30842492 2466:1.3172133 2467:0.076613784 2468:0.61931008 2469:0.064724527 2470:0.064724527 2471:-0.036010921 2472:0.0093750125 2473:0.063450381 2474:0.45867214 2475:-0.18175095 2476:0.14069934 2477:-0.18250544 2478:-0.16014609 2479:-0.37082025 2480:0.0093750125 2481:0.24028558 2482:0.33026433 2483:0.80596143 2484:0.44513819 2485:0.0093750125 2486:0.42551178 2487:0.18407777 2488:0.0093750125 2489:0.19877811 2490:-0.67022264 2491:-0.6903547 2492:-0.6903547 2493:0.24294311 2494:0.05745985 2495:-0.12671462 2496:-0.1978796 2497:0.196532 2498:0.56813288 2499:-0.39001057 2500:-0.18418659 2501:-0.016432123 2502:-0.11604682 2503:0.34250459 2504:-0.30067796 2505:0.45557821 2506:0.64708692 2507:-0.20390852 2508:-0.29342401 2509:-0.38468048 2510:-0.053028591 2511:0.0062583494 2512:0.69284362 2513:-0.2667022 2514:-0.33485794 2515:-0.37498239 2516:-0.2667022 2517:1.8934653 2518:0.081629872 2519:-0.56788021 2520:-0.56788021 2521:-0.31479231 2522:0.028743567 2523:-0.070540309 2524:-0.64232469 2525:0.22916649 2526:0.21550138 2527:-0.089102045 2528:-0.089102045 2529:-0.089102045 2530:0.21157286 2531:0.29147643 2532:0.21157286 2533:0.10794492 2534:-0.11456946 2535:-0.30289686 2536:0.10794492 2537:0.16873187 2538:-0.023265004 2539:-0.064961337 2540:0.58777505 2541:-0.079579473 2542:-0.31399795 2543:0.0058347406 2544:-0.020340536 2545:0.092425548 2546:-0.064961337 2547:0.11864384 2548:-0.1326029 2549:-0.31813705 2550:-0.064961337 2551:0.0082759904 2552:0.0082759904 2553:0.21834807 2554:-0.17545861 2555:-0.46606708 2556:0.58445704 2557:0.0082759904 2558:0.25567263 2559:0.14159214 2560:0.14159214 2561:-0.15366358 2562:-0.34825629 2563:-0.71826226 2564:-0.34825629 2565:-0.34825629 2566:-0.051450469 2567:-0.36277288 2568:-0.1036204 2569:-0.051472902 2570:-1.0814074 2571:1.0066324 2572:-0.39518833 2573:-0.33587971 2574:0.45574266 2575:0.35860932 2576:0.12928541 2577:-0.14723599 2578:0.0075120563 2579:0.0075120563 2580:0.60971975 2581:-0.45303878 2582:-0.28022012 2583:-0.31039321 2584:0.41914195 2585:-0.5038234 2586:0.4512319 2587:0.23592457 2588:0.024489675 2589:0.43189949 2590:0.056970917 2591:0.44152632 2592:-0.28513622 2593:0.41391581 2594:0.56034613 2595:-0.40535295 2596:-0.40535295 2597:-0.40535295 2598:-0.13440984 2599:0.40849799 2600:-0.038495645 2601:0.16852474 2602:-0.21481426 2604:0.19380303 2605:0.23212819 2606:-0.078814194 2607:-0.21642399 2608:-0.22342299 2609:-0.44844654 2610:-0.14828311 2611:0.13809262 2612:0.13809262 2613:0.13809262 2614:0.13809262 2615:-0.11798009 2616:-0.22417471 2617:0.13809262 2618:-0.37436801 2619:0.45334902 2620:-0.00053214532 2621:-0.014450889 2622:0.0054236576 2623:-0.013162383 2624:-0.18249522 2625:0.47272 2626:0.47272 2627:-0.039865978 2628:-0.19168922 2629:0.0054791002 2630:-0.039865978 2631:-0.50961608 2632:-0.039865978 2633:0.12062135 2634:-0.12166008 2635:0.47339159 2636:-0.24196957 2637:-0.39094955 2638:-0.13464174 2639:-0.13464174 2640:-0.13464174 2641:-0.13464174 2642:-0.28098443 2643:0.20675422 2644:-0.28036952 2645:0.23936139 2646:0.095605768 2647:-0.41969535 2648:-0.36736652 2649:-0.23225883 2650:-0.15714566 2651:0.31729424 2652:0.3739107 2653:-0.13937153 2654:-0.26787347 2655:0.55067855 2656:0.31729424 2657:0.31891772 2658:0.31729424 2659:-0.083018519 2660:0.25750759 2661:0.030776381 2662:0.0030796146 2663:-0.024794577 2664:-0.024794577 2665:-0.68527567 2666:-0.1619807 2667:0.94441563 2669:0.13476443 2670:-0.17816064 2671:0.2976779 2672:-0.53245324 2673:0.42116952 2674:0.37450704 2675:0.2976779 2676:-0.072392941 2677:0.2976779 2678:0.5012843 2679:-0.40754041 2681:-0.34000263 2682:0.42579934 2683:-0.19515586 2684:-0.14710891 2685:0.34348309 2686:-0.14298171 2687:-0.42548332 2688:0.55651331 2689:0.14519489 2690:0.20569243 2691:0.20569243 2692:-0.37608337 2693:-0.014108079 2694:-0.30006832 2695:-0.63306493 2696:-0.3974492 2697:0.92104149 2699:-0.49079552 2700:0.94864237 2701:-0.3606703 2702:0.41226795 2703:0.24933568 2704:0.05324829 2705:-0.21980834 2706:0.24933568 2707:0.017707761 2708:-0.30360439 2709:0.45659411 2710:-0.29865384 2711:-0.83070767 2713:-0.061875433 2714:-0.20717525 2715:-0.10165989 2716:-0.22125745 2717:-0.22750115 2718:0.35151514 2719:0.53673756 2721:-0.053105451 2722:-0.68005753 2723:0.4238309 2724:-0.053105451 2725:0.14667052 2726:-0.12478982 2727:1.1795481 2728:-0.064315319 2729:-0.1653963 2730:-0.1653963 2731:0.8353104 2732:0.13254602 2733:0.34433776 2734:-0.18714759 2735:-0.18714759 2736:0.33262119 2737:-1.1875751 2738:-1.1875751 2739:-0.30044425 2740:-0.17082101 2741:0.17118397 2742:-0.42172387 2743:0.30724126 2744:-0.015272835 2745:0.19009298 2746:-0.35273367 2747:0.11885534 2748:-1.1642281 2749:-0.1282692 2750:-0.72430223 2751:0.063126124 2752:0.32301033 2753:0.43020764 2754:-0.43678653 2755:-0.65702331 2756:0.21137524 2757:-0.16860981 2758:0.87318498 2759:0.40666872 2760:0.38087323 2761:0.58105135 2762:0.65182889 2763:0.65823102 2764:0.77247947 2765:-0.57008481 2766:0.36390775 2767:0.08527036 2768:0.26748031 2769:0.38458872 2770:0.71098053 2771:0.71098053 2772:0.033021931 2773:-0.93432927 2774:1.0761822 2775:-0.077892751 2776:-0.077892751 2777:-0.077892751 2778:-0.65678209 2779:-0.030726036 2780:-0.033531193 2781:-0.033531193 2782:-0.099236615 2783:-0.033531193 2784:0.00046441425 2785:-0.2348136 2786:-0.16591592 2787:0.00046441425 2788:0.091154158 2789:0.38055933 2790:0.15854573 2791:0.24313636 2792:0.15854573 2793:0.15854573 2794:0.15854573 2795:0.32454631 2796:0.15854573 2797:0.21928263 2798:-0.37104696 2799:0.10328027 2802:0.13119207 2803:0.45935735 2804:0.52813405 2807:-0.18978226 2808:-0.37445211 2809:0.31946877 2810:0.0073890248 2811:-0.18652657 2812:-0.05150472 2813:-0.36274904 2814:-0.30781823 2815:1.2774328 2816:0.21981592 2817:0.96482563 2818:0.19778655 2819:0.35755637 2820:0.33916143 2821:0.16958071 2822:0.08413443 2823:-0.23603614 2824:0.14570606 2827:-0.41733482 2828:0.2400828 2829:-0.892133 2831:-0.093678989 2833:-0.040593389 2835:-0.095105849 2836:0.28435877 2840:0.11380432 2841:0.40943474 2842:0.25402233 2843:-0.31501776 2844:1.252381 2845:0.64987439 2846:-0.10649835 2848:0.66723716 2849:0.28128695 2850:0.073995642 2851:-0.1254736 2852:-0.039233584 2853:0.43988082 2854:0.42915311 2855:-0.14746799 2856:-0.1254736 2857:0.0029330854 2858:0.5324977 2859:-0.22545101 2860:0.085323244 2861:0.043551669 2862:-0.1149172 2863:-0.046308041 2864:-0.43151107 2865:0.037997998 2866:0.52748817 2867:0.62512046 2868:0.066861764 2869:0.32088679 2870:0.24343832 2871:0.42269653 2872:0.32088679 2873:-0.14202499 2874:0.32088679 2875:0.10197891 2876:-0.16174653 2877:0.12427206 2878:0.59305108 2879:0.38104218 2880:0.12427206 2881:0.12427206 2882:0.12427206 2883:0.12427206 2884:-0.28275827 2885:0.4572663 2886:0.53279048 2887:0.20223726 2888:0.19632845 2889:0.57657921 2890:0.37178451 2891:0.2489716 2892:0.3612287 2893:-0.18305469 2895:0.034399521 2898:-0.010662252 2899:-0.026052576 2900:0.25518522 2901:0.18925671 2902:0.60432917 2903:0.50088304 2904:0.26736471 2905:0.28035185 2906:0.28035185 2907:0.8374657 2908:0.36971948 2909:-0.33803344 2910:-0.67305666 2911:-0.13138986 2912:-0.06153113 2913:0.60024345 2914:0.5674842 2915:0.421666 2916:0.25367448 2917:0.12335537 2919:-0.021232938 2920:-0.03301153 2922:-1.8903812 2923:-0.025504623 2924:-0.13990685 2925:0.50026578 2926:-0.016968466 2927:-0.22421905 2928:-0.12050506 2929:0.1747185 2930:-0.13990685 2931:0.082850397 2932:-0.32784909 2933:-0.092414044 2934:0.40972245 2935:0.12507039 2936:0.31037813 2937:-0.35682395 2938:0.62075627 2939:0.27923542 2940:0.63013953 2941:-0.80979496 2942:-0.26278451 2943:-0.20576939 2944:0.33887056 2945:-0.27073124 2946:0.35502118 2947:-0.17345504 2949:0.29247054 2952:-0.48621187 2953:-0.20284224 2954:-0.84742004 2955:0.74890941 2956:-0.20284224 2957:-0.1463287 2958:-0.1374463 2959:-0.082880311 2960:-0.034965664 2961:-0.20284224 2962:-0.36905634 2963:-0.20284224 2964:-0.32432187 2965:0.34411395 2966:0.34411395 2967:-0.20284224 2968:1.1678667 2969:-0.086179502 2970:-0.24156329 2971:-0.17457111 2972:-0.16114552 2973:0.17360169 2974:-0.20988567 2975:-0.41253594 2976:-0.5268296 2977:-0.2176166 2978:0.19152369 2979:0.19152369 2980:0.19152369 2981:-0.74309391 2982:-0.27702725 2983:0.48094177 2984:0.19152369 2985:-0.037719615 2986:-0.64430368 2987:0.13008717 2988:-0.62674314 2989:0.29225028 2990:-0.40663135 2991:0.2638739 2992:0.2638739 2993:-0.016873658 2994:-0.20053364 2995:0.10380091 2996:0.10380091 2997:0.13234569 2998:-0.11482074 2999:0.14939848 3000:-0.18025994 3001:0.3605808 3002:-0.34178945 3003:-0.25892493 3004:0.96946943 3005:-0.41916022 3006:0.48175973 3007:0.36233571 3008:0.67693114 3009:0.052263454 3010:0.11236309 3011:0.052263454 3012:0.61278403 3013:-0.18439177 3014:0.052263454 3015:0.64566731 3016:-0.073631249 3017:-0.48099071 3018:0.62994295 3019:-0.050838899 3020:-0.030356124 3021:0.18593097 3022:0.037018646 3023:0.40685067 3024:0.31092778 3025:0.31092778 3026:0.21153837 3027:0.043366283 3028:0.26385835 3029:-0.66821539 3030:-0.071001589 3031:-0.10184647 3032:-0.039527155 3033:-0.24597552 3034:-0.44018704 3035:0.086707607 3036:0.020114483 3037:0.79911965 3038:0.2313178 3039:0.14729039 3040:-0.31129831 3041:-0.32598212 3042:-0.32598212 3043:0.19391306 3044:0.50107569 3045:0.20730282 3047:0.30399552 3050:-0.12491712 3052:0.24333109 3053:-0.16976722 3054:-0.022924459 3055:0.040842969 3056:-0.19145167 3057:-0.17256521 3058:0.0070932666 3059:0.095865265 3060:-0.15805224 3061:-0.083117835 3062:-0.090741925 3063:-0.090741925 3064:0.026155574 3065:0.071699612 3066:0.071699612 3067:0.071699612 3068:-0.031745974 3069:-0.39901438 3070:0.11062458 3071:0.18402204 3072:0.032013766 3073:0.13449192 3074:-0.4718883 3075:-0.30251467 3076:-0.21798663 3077:0.40318891 3078:0.31968343 3079:0.22660094 3080:0.22660094 3081:-0.3428041 3082:0.076949373 3083:0.20808864 3084:-0.45988616 3085:0.56521142 3086:-0.2898688 3087:0.62303728 3088:0.25968203 3089:-0.24052769 3090:-0.24052769 3091:-0.24052769 3092:-0.24052769 3093:-0.066158988 3094:-0.34025946 3095:-0.031711586 3096:-0.30068487 3097:-0.40410921 3098:-0.55356294 3099:-0.39770654 3100:-0.20582825 3101:-0.20582825 3102:-0.10669552 3103:-0.20582825 3104:-0.56757784 3105:-0.12302636 3106:-0.14370342 3107:0.38672483 3108:-0.66907245 3109:-0.62076527 3110:-0.32015532 3111:0.068945676 3112:0.068945676 3113:0.068945676 3114:0.068945676 3115:0.13453864 3116:0.068945676 3117:-0.083133131 3118:0.55698353 3119:-0.027325707 3120:0.068945676 3121:0.17897733 3122:0.068945676 3123:0.068945676 3124:-0.1825352 3125:0.068945676 3126:0.068945676 3127:0.15454559 3128:-0.2864404 3129:-0.2864404 3130:-0.2864404 3131:-0.17329037 3132:-0.11961551 3133:0.58846474 3134:-0.40792426 3135:0.25033289 3136:0.034637261 3137:-1.0777563 3138:-0.11065712 3139:0.18042238 3140:0.11515041 3141:-0.11065712 3142:-0.22888029 3143:-0.13467769 3144:-0.11065712 3145:0.15406829 3146:-0.20097569 3147:-0.010450153 3148:0.070645876 3149:-0.11065712 3150:-0.11065712 3151:-0.21261549 3152:-0.16711132 3153:-0.16856293 3154:-0.16856293 3155:-0.12845229 3156:0.22614396 3157:-0.67537469 3158:-0.26847175 3159:0.44971591 3160:-0.31668672 3161:0.31469214 3162:0.46798092 3163:0.04012654 3164:0.46798092 3165:-0.55924273 3166:-0.093424402 3167:0.46798092 3168:-0.45533648 3169:0.032198142 3170:-0.16733189 3171:0.071895882 3172:-0.4463475 3173:-0.22632046 3174:0.18065402 3175:0.21080643 3176:-0.20637137 3177:-0.26791844 3178:-0.32701802 3179:-0.21803918 3180:-0.21803918 3181:-0.37192106 3182:0.0016760613 3183:0.74155593 3184:0.063400283 3185:0.063400283 3186:0.11001037 3187:0.063400283 3188:0.10975334 3189:-0.31261954 3190:0.087897621 3191:0.26965117 3192:0.77217007 3193:-0.0088512646 3194:0.60674691 3195:0.10769705 3196:-0.1921822 3197:0.44984999 3198:0.018413711 3199:0.35150695 3200:0.35150695 3201:0.82496238 3202:-0.18165688 3203:0.14257012 3204:0.23023127 3206:0.41223878 3207:0.1120085 3209:0.083013572 3210:-0.12038776 3211:0.65406132 3212:-0.34362069 3213:-0.12850802 3214:-0.2150564 3215:0.76150143 3216:-0.2150564 3217:-0.2150564 3218:-0.10472704 3219:-0.2150564 3220:-0.19696943 3221:0.10302715 3222:-0.21324407 3223:-0.63030308 3224:-0.12388009 3225:0.017031925 3226:0.062649682 3227:0.66205961 3228:0.20482373 3229:-0.19746828 3230:-0.57872117 3231:-0.25546458 3232:-0.25546458 3233:-0.25546458 3234:-0.40711698 3235:1.4171978 3236:0.086467743 3237:0.13380648 3238:0.086467743 3239:0.018311435 3240:-0.24426538 3241:0.0885965 3242:0.16058598 3243:0.21963136 3244:0.20328869 3245:0.12682565 3246:0.10622631 3247:-0.051630683 3250:0.2122408 3251:-0.23496805 3253:-0.10589812 3254:-0.10589812 3255:0.083384231 3256:-0.10589812 3257:-0.10589812 3258:-0.10589812 3259:-0.10589812 3260:0.17131922 3261:0.14207751 3262:0.33687633 3263:-0.10589812 3264:-0.14442904 3265:0.17946108 3266:-0.10589812 3267:-0.40574804 3268:0.27192298 3269:-0.039971467 3270:-0.10589812 3271:-0.10589812 3272:0.25737879 3273:-0.50888032 3274:-0.10589812 3275:-0.39034331 3276:-0.064765356 3277:0.024265608 3278:-0.012952851 3279:-0.12644351 3280:-0.0013830372 3281:1.1633351 3282:-0.31884488 3283:-0.13805747 3284:-0.15935154 3285:-0.15935154 3286:0.21801598 3287:-0.041999631 3288:0.90152895 3289:-0.1490971 3290:0.19796906 3291:0.20556414 3292:-0.51528913 3293:0.19796906 3294:0.19796906 3295:0.41287118 3296:0.043388382 3297:0.17572361 3298:-0.30948904 3299:0.71583062 3300:-0.55347598 3301:0.16568638 3302:0.14927956 3303:-1.0970792 3304:0.54003465 3305:0.16241641 3306:-0.046782278 3307:-0.041323308 3308:0.019878816 3309:-0.20450954 3310:-0.20009425 3311:1.0617263 3313:1.1196884 3314:0.32413909 3315:0.3059321 3316:-0.22897288 3317:-0.2152981 3318:0.67083168 3319:-0.2152981 3320:-0.2152981 3321:-0.2152981 3322:-0.01123814 3323:-0.2152981 3324:-0.65920746 3325:-0.16662014 3326:0.25061515 3327:-0.055454139 3328:-0.22538048 3329:-0.2152981 3330:0.30474544 3331:0.25331545 3332:0.27659509 3333:0.70158571 3334:0.27659509 3335:0.031397883 3336:-0.13848077 3337:0.40980023 3338:0.46764186 3339:0.0333937 3340:-0.027027948 3341:-0.029517883 3342:0.084997155 3343:0.30292448 3344:0.76746267 3345:-0.38689071 3346:0.13736311 3347:0.3573353 3348:-0.06148991 3349:0.18019719 3351:-0.018296391 3352:-0.026405064 3355:-0.58769232 3356:0.36766961 3357:-0.06646587 3358:0.34810948 3359:-0.63383102 3360:0.40488303 3361:-0.041082773 3362:0.13404958 3363:-0.032662887 3364:0.13404958 3365:0.13404958 3366:0.028458003 3367:0.24497683 3368:0.13404958 3369:0.050353203 3370:0.050353203 3374:0.080040894 3377:0.49277878 3379:0.24416232 3380:0.040199846 3381:-0.77106667 3382:-0.10730832 3383:-0.1609537 3384:-0.72638464 3386:-0.72540492 3387:0.1017234 3388:-0.3490648 3389:0.16455695 3390:0.2397605 3391:-0.093560912 3392:-0.0173981 3393:0.19636257 3394:0.030321185 3395:0.055676337 3396:-0.56764072 3397:-0.25801754 3398:0.29236922 3399:0.030321185 3400:-0.72292268 3401:-0.19991942 3402:-0.23047645 3403:-0.17836052 3404:0.17320928 3405:-0.20367311 3406:0.1947218 3407:0.37415498 3408:-0.17145643 3409:0.1947218 3410:0.2748192 3411:-0.15599956 3412:-0.41205561 3413:-0.14601448 3414:0.21326034 3415:0.071996048 3416:0.14548294 3417:0.16819511 3418:0.16819511 3419:1.0162314 3421:0.42600009 3422:-0.40072894 3424:0.080039591 3426:0.13287118 3427:0.55755687 3428:0.55755687 3429:0.23151399 3430:0.55755687 3431:0.3418456 3432:0.093006663 3433:0.026514724 3434:-0.033153217 3435:0.18760629 3436:0.24649321 3437:0.24649321 3438:-0.078828603 3439:0.34876066 3440:0.22088845 3441:0.53508127 3442:0.33490336 3443:0.16009036 3444:-0.4934715 3445:0.10101652 3446:0.26299432 3447:-0.27098915 3448:0.36134979 3449:0.25509813 3450:0.23364972 3451:0.19105014 3452:0.048948396 3453:0.048948396 3454:0.089516178 3455:0.24821402 3456:0.44459176 3457:0.048948396 3460:-0.17491515 3462:-0.33031303 3463:0.021235891 3464:-0.3912006 3465:-0.05362336 3466:0.17844567 3467:-0.52637649 3468:-0.05362336 3469:-0.05362336 3470:-0.041719656 3471:-0.05362336 3472:0.60548323 3473:-0.044381302 3474:0.17101689 3475:0.18030581 3476:0.14261413 3477:0.1706928 3478:0.15344401 3479:0.1706928 3480:0.26360857 3481:-0.27449107 3482:-0.23888005 3483:0.046740007 3484:0.16583458 3485:0.16583458 3486:0.16583458 3487:0.13487966 3488:0.16583458 3489:0.1551667 3490:-0.38036525 3491:0.13212793 3492:0.056203622 3493:-0.29577136 3494:-0.29793227 3495:-0.0083716698 3496:-0.056253675 3497:-0.059106495 3498:-1.0916463 3499:-0.20195824 3500:0.010096895 3501:-0.09171965 3502:-0.39679816 3503:-0.09171965 3504:0.13025913 3505:-0.09171965 3506:-0.084004305 3507:0.33108708 3508:-0.21254975 3509:-0.37547612 3510:0.19088413 3511:-0.48292658 3512:0.21547417 3513:0.18964855 3515:-0.070136972 3518:0.37007675 3519:-0.021023046 3520:0.29789859 3521:0.3252537 3522:0.3252537 3523:0.30446026 3527:0.17392312 3528:0.13971305 3529:0.40366438 3530:0.1701887 3531:0.23621158 3533:-0.21070276 3534:0.33650756 3535:-0.028147209 3536:-0.028147209 3537:-0.028147209 3538:-0.028147209 3539:-0.29126778 3540:-0.028147209 3541:0.023656806 3542:-0.013287789 3543:0.025004324 3544:-0.013287789 3545:0.06188703 3546:-0.082655586 3547:0.0076843235 3548:0.055014029 3550:0.12578863 3551:0.04156645 3552:-0.1166444 3553:-0.029878933 3555:0.50214016 3556:0.030828211 3558:0.046964493 3560:-0.38589859 3561:0.68069714 3562:-0.4179551 3563:-0.04170756 3564:0.10729991 3565:-0.18286064 3566:-0.51800084 3567:0.093639851 3568:0.098846599 3569:0.5096845 3570:0.62092358 3571:0.85458666 3572:0.67347991 3573:-0.3106958 3574:-0.3721458 3575:-0.43983665 3576:0.015549466 3577:-0.33363366 3578:-0.14039657 3579:-0.78439021 3580:-0.19148737 3581:0.20895597 3582:0.20895597 3583:0.10834435 3584:1.1155297 3585:0.58620065 3586:0.047473665 3587:-0.22957297 3588:-0.38416532 3589:0.050184377 3590:0.090336837 3591:0.090336837 3592:0.090336837 3593:0.090336837 3594:0.090336837 3595:-0.22874388 3596:0.3362928 3597:0.090336837 3598:0.049038954 3599:0.17352079 3600:0.079001002 3601:-0.26394725 3602:-0.26394725 3603:-0.2417407 3604:0.54099059 3605:-0.18879408 3606:-0.18879408 3607:0.17397362 3608:-0.1793182 3609:1.0616411 3610:0.11670088 3611:-0.10096423 3612:0.44727862 3613:0.32347503 3614:0.42876616 3615:0.59538543 3616:-0.051232144 3617:0.23981509 3618:0.23981509 3619:0.23981509 3620:-0.045532491 3621:-0.071769543 3622:-0.24615908 3623:0.23981509 3624:0.10715614 3625:0.24344979 3626:1.1926788 3627:0.72741759 3628:0.27329561 3629:-0.11832537 3630:0.096146978 3631:0.096146978 3632:0.059642948 3633:0.040759865 3634:0.059642948 3635:0.16942781 3636:0.059642948 3637:-0.17920901 3638:0.28413999 3639:0.3298139 3640:0.074871361 3641:0.074871361 3642:0.081212938 3643:0.074871361 3644:0.25078511 3645:0.057830941 3646:-0.60563105 3647:0.049116947 3648:0.00089269772 3649:0.18184137 3650:-0.17615178 3651:0.39398807 3652:-0.79073298 3653:-0.026575239 3654:-0.11328162 3655:-0.11328162 3656:-0.29513007 3657:-0.052609652 3658:0.013279586 3659:-0.31959096 3660:0.081231624 3661:0.040615812 3662:0.011197032 3663:0.040615812 3664:0.040615812 3665:-0.11787999 3666:-0.20725495 3667:-0.51411217 3668:0.20292716 3669:-0.56395745 3670:0.90825051 3671:-0.14123473 3672:-0.099970669 3673:-0.20532899 3674:-0.076442614 3675:0.12910022 3676:0.15109412 3677:-0.076442614 3678:-0.076442614 3679:-0.11638571 3680:-0.076442614 3681:-0.071202375 3682:-0.14557713 3683:-0.076442614 3684:-0.076442614 3685:-0.076442614 3686:0.10435889 3687:-0.38300186 3688:1.0750198 3689:0.04059235 3690:-0.094755769 3691:0.04059235 3692:-0.17762357 3693:-0.17762357 3694:-0.15855561 3695:-0.17762357 3696:-0.17762357 3697:0.63180453 3698:-0.74687356 3699:-0.2179589 3700:-0.60977697 3701:-0.27817345 3702:-0.034911193 3703:-0.27817345 3704:-0.27817345 3705:-0.27817345 3706:-0.24813323 3707:0.019280767 3708:-0.24813323 3709:0.27327406 3710:-0.19510533 3711:-0.15184796 3712:-0.11575492 3713:-0.015909826 3714:-0.19510533 3715:-0.19510533 3716:-0.20854905 3717:-0.19510533 3718:-0.19510533 3719:0.022055656 3720:0.11596721 3721:0.002411346 3722:0.002411346 3723:-0.19987455 3724:0.58838248 3725:-0.043720048 3726:0.27006811 3727:0.16637008 3728:-0.15088528 3729:-0.0062335148 3730:-0.043720048 3731:-0.043720048 3732:-0.013533469 3733:-0.013533469 3734:-0.013533469 3735:-0.25581789 3736:-1.0508901 3737:0.047105867 3738:0.56851143 3739:0.30764666 3740:0.28506339 3741:0.28506339 3742:0.28506339 3743:0.28506339 3744:-0.63859618 3745:0.28506339 3746:0.079126365 3747:0.28506339 3748:0.28506339 3749:0.42065853 3750:0.21154356 3751:0.28506339 3752:0.1859252 3753:0.22768967 3754:-0.088379182 3755:-0.29084721 3756:-0.087667599 3757:0.12763131 3758:0.12763131 3762:-0.097650938 3764:-0.19328189 3766:0.34670702 3771:-0.39280409 3772:0.30105773 3773:0.31699204 3774:0.014374733 3775:0.038352516 3776:0.052785724 3777:0.093427643 3778:0.014374733 3779:-0.2677823 3780:-0.19398677 3781:-0.19398677 3782:-0.17768514 3783:-0.17768514 3784:-0.19398677 3785:-0.028380917 3786:0.22527145 3787:0.11247548 3788:-0.028380917 3789:0.03257715 3790:-0.061752424 3791:-0.14554986 3792:-0.11916164 3793:-0.21811126 3795:1.3048151 3797:-0.085209511 3798:0.012537868 3799:0.66292483 3802:0.028153587 3803:0.028153587 3804:-0.40123793 3805:-0.91427624 3806:0.028153587 3807:0.028153587 3808:0.0017224888 3809:0.028153587 3810:0.056307174 3811:0.028153587 3812:0.340074 3813:0.028153587 3814:-0.19486775 3815:-0.19486775 3816:0.60982758 3817:0.2448964 3818:-0.10103593 3819:-0.12239648 3820:1.2928817 3821:-0.31423563 3822:-0.24896659 3823:-0.39784497 3824:-0.15480375 3825:-0.071652904 3826:-0.013979169 3827:0.18165469 3828:-0.044322912 3829:-0.00010867611 3830:0.18165469 3831:0.039201401 3832:0.13382451 3833:0.25309509 3834:0.92198843 3835:-0.13402773 3836:-0.36102861 3837:-0.13402773 3838:0.053835824 3839:-0.20414521 3840:0.46135998 3841:-0.012790744 3842:0.24048302 3843:0.40489513 3844:0.11270022 3845:0.40910646 3846:-0.07199683 3848:0.33949867 3851:-0.037286263 3853:-0.07315658 3855:0.23023127 3857:-0.11156251 3858:-0.30101764 3859:0.1661287 3860:-0.11156251 3861:-0.11287576 3862:-0.11156251 3863:-0.11156251 3864:-0.48806059 3865:-0.61428636 3866:-0.61428636 3867:-0.17141758 3868:0.27363241 3871:-0.063852847 3872:-0.063852847 3873:0.22374989 3874:-0.68226457 3875:-0.063852847 3876:0.33016297 3877:0.23212698 3878:0.23212698 3879:0.23409589 3880:0.82494843 3881:0.30723944 3882:-0.46693417 3883:-0.0036324544 3884:-0.28495592 3885:0.086189993 3886:0.14339525 3887:-0.0036324544 3888:-0.0036324544 3889:-0.0036324544 3890:-0.0036324544 3891:-0.21226983 3892:-0.0036324544 3893:0.24067287 3894:-0.0033278489 3895:-0.26533923 3896:0.29522467 3897:0.19897693 3898:-0.20150059 3899:-0.18472007 3900:-0.10656995 3901:-0.10656995 3902:0.10346517 3903:0.39339757 3904:0.64968157 3905:-0.047507446 3906:-0.13451086 3907:-0.33413354 3908:0.13875027 3909:-0.13451086 3910:-0.13451086 3911:-0.13451086 3912:0.027100643 3913:-0.094193973 3914:-0.023219792 3915:-0.28601584 3916:0.11433922 3917:-0.023219792 3918:0.019579301 3919:0.52075207 3920:0.10378247 3921:-0.34911343 3922:0.089899696 3923:0.17577358 3924:-0.19655943 3925:-0.10521457 3926:-0.02968091 3927:-0.29895312 3928:0.098803945 3929:0.045323472 3930:-0.33964324 3931:0.24557981 3932:-0.057646677 3933:-0.26442009 3934:-0.35551304 3935:-0.6674521 3936:-0.39280078 3937:0.13953286 3938:0.42713189 3940:-0.48880339 3941:-0.16645202 3942:0.26116973 3943:0.12142459 3944:-0.38934937 3945:0.2303281 3946:0.27434072 3947:-0.37259603 3948:0.27434072 3949:0.019712213 3950:-0.58551234 3951:0.11590846 3952:-0.079405136 3953:-0.41079742 3954:-0.40934047 3955:0.020460084 3956:0.26509362 3957:-0.093968958 3958:-0.16567458 3959:-0.43572572 3960:-0.67156631 3961:-0.67156631 3962:-0.67156631 3963:-0.32721207 3964:0.34824616 3965:-0.40791968 3966:-0.46702063 3967:-0.11614621 3968:-0.028015595 3969:0.011939084 3970:0.15768588 3971:-0.62675273 3972:0.24069306 3973:0.19895765 3974:0.10129691 3975:0.18502803 3976:-0.16653308 3977:0.18502803 3978:0.18502803 3979:-0.071202792 3980:0.31685573 3981:-0.071202792 3982:-0.071202792 3983:-0.30359635 3984:0.07677114 3985:0.31690818 3986:-0.215169 3987:-0.78080463 3988:0.63085943 3989:-0.16858439 3990:-0.52047783 3991:0.074551433 3992:0.074551433 3993:0.080225624 3994:0.084117509 3998:-0.031932697 3999:-0.031932697 4000:0.25965336 4001:-0.12308452 4002:-0.57304007 4003:-0.89231747 4004:-0.12457113 4005:-0.0307665 4006:0.067962341 4007:0.033087488 4008:0.044117447 4009:-0.065359809 4010:0.19120839 4011:0.2979691 4014:0.21542054 4015:-0.060252603 4016:-0.16806671 4017:-0.029999249 4018:-0.029999249 4019:0.0010732397 4020:-0.0028526403 4021:-0.1596083 4022:-0.10870327 4023:-0.1596083 4024:-0.0034060946 4025:-0.22018145 4026:0.31220299 4027:0.095972806 4028:0.095972806 4029:0.095972806 4030:-0.010490498 4031:-0.29177001 4032:0.095972806 4033:0.095972806 4034:-0.16846628 4035:0.095972806 4036:-0.026457898 4037:-0.28519246 4038:0.075251892 4039:0.23853676 4040:-0.10830336 4041:-0.17253201 4042:0.16132899 4043:-0.28646654 4044:0.45415923 4045:-1.414238 4046:-0.14810407 4047:0.55413473 4048:-0.22394805 4049:0.3077566 4050:0.44838747 4051:0.45739427 4052:-0.15446687 4053:-0.087905213 4054:0.096203528 4055:0.069155052 4056:0.037864316 4057:0.037864316 4058:0.037864316 4059:-0.51183528 4060:0.037864316 4061:0.037864316 4062:-0.11100271 4063:-0.12795787 4064:-0.38888818 4065:-0.12795787 4066:-0.12795787 4067:-0.12795787 4068:-0.3183054 4069:-0.41891661 4070:-0.2849558 4071:1.0813243 4072:-1.1287696 4073:0.54403633 4074:1.0813243 4075:-0.52750224 4076:-0.18400794 4077:-0.46090081 4078:0.48540199 4079:-0.11234698 4080:-0.078439347 4081:0.14295921 4082:0.46162942 4083:0.053787701 4084:0.053787701 4085:0.053787701 4086:0.22166899 4087:0.053787701 4088:-0.058539528 4089:0.37932447 4090:0.46007335 4091:0.1998229 4092:-0.079837695 4093:-0.40831813 4094:-0.20215343 4095:-0.31094781 4096:-0.7199046 4097:0.25767025 4098:0.20725952 4099:-0.2816906 4100:0.047296908 4101:0.38503322 4102:0.16517404 4103:0.24936968 4104:0.24936968 4105:0.21418902 4106:0.1045451 4107:0.21418902 4108:0.26055717 4109:0.21418902 4110:0.21418902 4111:0.21418902 4112:0.21418902 4113:0.015044034 4114:0.31372091 4115:-0.19233423 4116:-0.062718742 4117:-0.65537101 4118:-0.19233423 4119:0.2321789 4120:-0.24120782 4121:-0.25944111 4122:0.36032912 4123:-0.44373393 4124:-0.090877503 4125:-0.29232258 4126:-0.047358066 4127:-0.047358066 4128:-0.04864281 4129:0.096120872 4130:-0.10379276 4131:-0.12609042 4132:0.43283355 4133:-0.12609042 4134:-0.22395752 4135:-0.37748435 4136:0.13724528 4137:-0.067579433 4138:-0.0060911123 4139:-0.17974745 4140:-0.33365235 4141:-0.078717023 4142:-0.31830367 4143:-0.17055559 4144:0.50859869 4145:-0.80006641 4146:-0.25320816 4147:-0.33356327 4148:-0.25320816 4149:0.11232001 4150:0.29291913 4151:0.29291913 4152:-0.0080005685 4153:-0.23200838 4154:-0.0080005685 4155:-0.04023445 4156:0.039763734 4157:-0.27467296 4158:0.12148011 4159:0.51056331 4160:-0.478892 4161:0.026078073 4162:0.026078073 4163:0.026078073 4164:0.026078073 4165:0.026078073 4166:0.4760814 4167:0.19728749 4168:0.19728749 4169:-0.49040627 4170:0.15719765 4171:0.50505805 4172:0.50505805 4173:-0.060928784 4174:-0.24876188 4175:0.5522489 4176:-0.060928784 4177:-0.49473059 4178:-0.060928784 4179:0.43279845 4180:-0.080496319 4181:-0.080496319 4182:-0.073744193 4183:0.03441184 4184:-0.76898038 4185:0.03441184 4186:0.015140019 4187:0.31096843 4188:-0.10881355 4189:-0.10881355 4190:-0.16701585 4191:0.0084001254 4192:-0.49926114 4193:-0.1128303 4194:-0.1128303 4195:-0.1128303 4196:-0.1128303 4197:1.0634474 4198:0.02079118 4199:0.35226369 4201:0.05573602 4202:0.096222095 4203:-0.25833797 4204:-0.14773111 4205:-0.25833797 4206:-0.25833797 4207:0.21310042 4208:-0.20460075 4209:0.56965315 4210:0.11904363 4211:0.11904363 4212:0.11904363 4213:-0.40125439 4214:-0.02269497 4215:-0.02269497 4216:-0.42818001 4217:0.13649274 4218:-0.02269497 4219:-0.11802213 4220:0.058043987 4221:0.011921522 4222:0.27596191 4223:0.058043987 4226:-0.024467645 4229:0.74361902 4230:-0.44487357 4231:-0.037088491 4233:-0.12261439 4235:0.054218687 4236:0.069573574 4237:0.31728739 4238:-0.026990373 4239:0.069573574 4240:-0.026990373 4241:-0.086649343 4242:-0.026990373 4243:-0.17834665 4244:0.040266629 4245:0.075303048 4246:-0.036249075 4247:-0.036249075 4248:-0.036249075 4249:-0.033200212 4250:-0.036249075 4251:-0.28378361 4252:-0.036249075 4253:-0.036249075 4254:-0.036249075 4255:-0.036249075 4256:-0.22954781 4257:-0.23529759 4258:0.010993896 4259:-0.1251203 4260:-0.062329493 4261:-0.27416089 4262:0.47563136 4263:0.31511131 4264:0.33235136 4265:0.10073507 4266:0.10073507 4267:0.58962238 4268:0.38269833 4269:0.20277666 4270:-0.40592954 4271:0.037360754 4272:-0.44404635 4273:-0.29986608 4274:-0.028202236 4275:-0.028202236 4276:0.044421919 4277:-0.0053063016 4278:0.038498141 4279:0.044421919 4280:0.1186752 4281:-0.28262639 4282:-0.42297956 4283:-0.42297956 4284:-0.1536012 4285:-0.43114537 4286:-0.044265289 4287:-0.044265289 4288:-0.044265289 4289:-0.22697909 4290:-0.044265289 4291:-0.1482477 4292:-0.16247907 4293:-0.0021573785 4294:-0.0021573785 4295:-0.069421656 4296:-0.0021573785 4297:-0.37742421 4298:-0.41014424 4299:-0.040999211 4300:0.39982677 4301:0.39982677 4302:-0.090871066 4303:-0.090871066 4304:-0.090871066 4305:0.029809872 4306:-0.22494885 4307:0.40542829 4308:0.010534841 4309:-0.024130534 4310:0.13764757 4311:0.21650067 4312:0.010534841 4313:0.010534841 4314:0.010534841 4315:0.010534841 4316:0.072626784 4317:-0.029990071 4318:0.072626784 4319:-0.61521757 4320:0.039806385 4321:-0.3507081 4322:-0.00040526051 4323:0.276151 4324:-0.064543061 4325:0.24632424 4326:-0.78079486 4327:-0.023928942 4328:0.07637164 4329:0.07637164 4330:0.07637164 4331:0.32071465 4332:0.32611257 4333:0.39043415 4334:0.094312698 4335:-0.29733568 4336:-0.097623572 4337:-0.032775585 4338:0.094312698 4339:0.11335535 4340:-0.055509306 4341:-0.093529373 4342:0.086396374 4343:0.27042341 4344:1.0592668 4345:-0.076057009 4346:0.0046844976 4347:-0.027734334 4348:-0.17027077 4349:-0.17027077 4350:-0.10316235 4351:-0.090956837 4352:-0.10316235 4353:0.35040677 4354:0.11476086 4355:0.021469524 4356:0.85374379 4357:0.39866415 4358:-0.29223919 4359:-0.28788227 4360:0.36802787 4361:0.36802787 4362:0.36802787 4363:0.48230678 4364:-0.10154779 4365:0.0038814868 4366:0.0038814868 4367:0.0038814868 4368:-0.098673575 4369:0.044982526 4370:-0.24430138 4371:-0.036088031 4372:0.095703907 4373:-0.036088031 4374:0.099732824 4375:-0.036088031 4376:-0.16446307 4377:-0.074292377 4378:-0.036088031 4379:-0.036088031 4380:-0.4038592 4381:-0.036088031 4382:-0.086874358 4383:-0.092195392 4384:0.14547566 4385:0.25829488 4386:0.17063779 4387:-0.25210243 4388:0.24030702 4389:0.17063779 4390:-0.0034010811 4391:0.17063779 4392:-0.099146202 4393:-0.097158775 4394:0.65626556 4395:0.24990411 4396:-0.097158775 4397:-0.26364049 4398:-0.037609193 4399:0.21238835 4400:-0.22501957 4401:-0.29310781 4402:-0.0095275333 4403:-0.0095275333 4404:-0.0095275333 4405:0.15157905 4406:-0.90170777 4407:-0.71348739 4408:-0.90170777 4409:-0.090105563 4410:0.23611717 4411:0.24511738 4412:0.07277929 4413:0.11858112 4414:0.07277929 4415:-0.29892921 4416:-0.027278796 4417:-0.20852774 4418:-0.26033559 4419:-0.46480602 4420:0.74374986 4421:-0.049583398 4422:0.50074452 4423:-0.099922746 4424:-0.34276798 4425:-0.099922746 4426:-0.34276798 4427:0.029212529 4428:-0.055171791 4429:-0.055171791 4430:0.24235046 4431:-0.1582645 4432:-0.070371471 4433:-0.48281386 4434:-0.48281386 4435:0.36229733 4436:0.36229733 4437:-0.09409456 4438:-0.28905863 4439:0.19745909 4440:-0.39141867 4441:0.29829577 4442:0.17025414 4443:0.027545944 4444:0.025231773 4445:-0.12057892 4446:-0.11426646 4447:-0.43125856 4448:0.027545944 4449:-0.047472775 4450:0.66578948 4451:0.027545944 4452:0.027545944 4453:-0.19223002 4454:0.4907212 4455:0.19589734 4456:-0.037994605 4457:0.087213062 4458:0.11164641 4459:-0.24183135 4460:-0.074678779 4461:0.58635324 4462:0.95241123 4463:0.41792002 4464:0.64545429 4465:-0.77917057 4466:-0.33897516 4467:0.17293352 4468:0.088014409 4470:0.26029968 4471:0.089088887 4472:0.097260311 4473:0.097260311 4474:-0.27984571 4475:-0.44388056 4476:-0.29327154 4479:-0.04603707 4480:0.07121741 4481:-0.04603707 4482:-0.04603707 4483:-0.095211037 4484:-0.3667421 4485:-0.39610553 4486:-0.05995179 4487:-0.065455638 4488:-0.065455638 4489:-0.065455638 4490:0.23120677 4491:-0.31393179 4492:0.051386725 4493:0.051386725 4494:0.047055222 4495:0.057284851 4496:0.057284851 4497:0.057284851 4498:0.057284851 4499:-0.57077014 4500:-0.031742506 4501:0.25289622 4502:0.057284851 4503:-0.32188606 4504:0.057284851 4505:0.057284851 4506:1.1266927 4507:-0.31688699 4508:-0.0062613473 4509:-0.29756308 4510:-0.0062613473 4511:0.22458044 4512:0.22458044 4513:-0.35462493 4514:0.22458044 4515:0.22458044 4516:-0.15881957 4517:-0.15162584 4518:0.12542354 4519:0.023923641 4520:0.023923641 4521:0.023923641 4522:0.076080054 4523:0.076080054 4524:0.57681572 4525:-0.071167156 4526:0.19301926 4527:-0.54890436 4528:0.38066578 4529:-0.036091112 4530:1.150398 4531:-0.090720199 4532:-0.17527495 4533:-0.044571415 4534:-0.29210725 4535:-0.075367667 4536:-0.099050164 4537:-0.090720199 4538:0.11178586 4539:-0.30626592 4540:-0.68530762 4541:0.18811119 4542:-0.18386525 4543:0.089332007 4544:0.19310594 4545:0.14229779 4546:-0.035738654 4547:0.34455863 4548:0.27108261 4549:-0.30115622 4550:0.044190545 4551:0.066048831 4552:0.066048831 4553:0.00066506729 4554:-0.28310093 4555:-0.20790754 4556:-0.18198869 4557:-0.18198869 4558:-0.14488675 4559:-0.12254083 4560:0.19128126 4561:-0.55320245 4562:0.063654013 4563:-0.43242919 4564:-0.056209438 4565:0.17306161 4566:-0.043417163 4567:0.015633129 4568:-0.047421843 4569:-0.082266308 4570:-0.071947768 4571:-0.86758077 4573:0.42657369 4574:-0.45304126 4575:-0.63809443 4576:0.28362691 4577:0.027162572 4579:-0.4699356 4580:0.71396548 4581:0.045849781 4582:0.045446575 4583:0.045446575 4584:-0.038420875 4585:-0.075216822 4586:0.29707989 4587:-0.23586252 4588:0.57857239 4589:-0.34609783 4590:0.045446575 4591:0.045446575 4592:0.045446575 4593:0.045446575 4594:-0.099803381 4595:-0.20087241 4596:0.0587066 4597:0.41210425 4598:0.16194633 4599:-0.3573184 4600:0.080343813 4601:0.55583358 4602:0.48246622 4603:0.31559867 4604:0.076690093 4605:0.16194633 4606:0.16194633 4607:0.2409367 4608:-0.11154421 4609:0.16194633 4610:0.16194633 4611:-0.044423696 4612:-0.0083333068 4613:-0.15769929 4614:-0.0083333068 4615:-0.0083333068 4616:-0.0083333068 4617:-0.30396199 4618:-0.0083333068 4619:0.45117116 4620:0.80815476 4621:-0.088172615 4622:-0.087230168 4623:-0.088172615 4624:-0.81170875 4625:-0.088172615 4626:0.062456124 4627:-0.23289146 4628:-0.35297608 4629:-0.35297608 4630:-0.35297608 4631:-0.18410648 4632:-0.04757861 4633:-0.13449992 4634:-0.035395458 4635:-0.22915383 4636:0.40668991 4637:0.0077800564 4638:0.40668991 4639:0.30626103 4640:-0.084744975 4641:0.091193639 4642:-0.084744975 4643:0.091193639 4644:-0.060300846 4645:-0.20602992 4646:-0.15798193 4647:-0.23278108 4648:0.12533422 4649:-0.13596459 4652:-0.14985119 4653:0.005915687 4656:-0.11465375 4657:-0.54717571 4658:0.1259461 4659:-0.54232365 4660:0.40535215 4661:0.63488609 4662:-0.36676124 4663:0.28816849 4664:0.43815595 4665:-0.44296715 4666:-0.039424241 4667:-0.36284161 4668:0.083306164 4669:0.031428959 4670:0.031428959 4671:0.031428959 4672:0.031428959 4673:0.028771795 4674:-0.16233924 4675:-0.29190156 4678:-0.20191789 4680:-0.13878857 4682:-0.41602692 4683:-0.0031896178 4684:0.046815626 4685:0.26689175 4686:-0.16183276 4687:0.060700562 4688:0.10987268 4689:0.11997054 4690:0.68738937 4691:0.24285956 4692:0.26516056 4693:-0.4180077 4694:-0.40350083 4695:-1.2652767 4696:0.50816417 4697:-0.051268891 4698:-0.13013175 4699:-0.022666566 4700:-0.051268891 4701:-0.072411992 4702:0.1629616 4703:-0.051268891 4704:-0.10253778 4705:-0.45689914 4706:-0.15718101 4707:-0.17227226 4708:-0.07889469 4709:-0.015754258 4710:0.4086833 4711:0.44440594 4714:0.24700938 4715:-0.015125659 4716:-0.48996654 4717:-0.51400435 4718:0.33802065 4719:0.3531096 4720:0.11948898 4721:0.33802065 4722:-0.38239324 4723:0.21480928 4724:-0.07903412 4725:-0.07903412 4726:-0.07903412 4727:-0.068710469 4728:-0.07903412 4729:0.032386698 4730:-0.07903412 4731:-0.58938491 4732:0.5497691 4735:-0.071174711 4736:-0.093439609 4739:1.132099 4740:0.25863519 4741:0.46541584 4742:-0.15699895 4743:-0.64596874 4744:-0.70502126 4745:0.064675413 4746:-0.19041741 4747:0.34136581 4748:-0.19041741 4749:-0.18998893 4750:0.47075525 4751:0.1665667 4752:-0.18998893 4753:-0.18998893 4754:0.93052965 4755:-0.16191252 4756:0.22695377 4757:0.22695377 4758:0.038708992 4759:-0.5831514 4760:-0.024260765 4761:-0.27320087 4762:-0.27320087 4763:0.20857593 4764:-0.43595868 4765:0.42876458 4766:-0.025687052 4767:-0.32742196 4768:-0.32742196 4769:-0.98555994 4770:0.29540792 4771:0.29540792 4772:-0.47940099 4773:-0.37679866 4774:-0.80721939 4775:-0.22248432 4781:0.26350185 4782:-0.052042216 4783:0.38562521 4785:-0.05699607 4786:0.45571795 4787:0.024308434 4788:0.45571795 4789:-0.14251694 4790:0.24148178 4791:0.10994644 4792:0.22917461 4793:0.099015839 4794:-0.27139524 4795:0.2430931 4796:-0.095501624 4797:-0.28748813 4798:0.17240183 4799:0.60083914 4800:0.14598396 4801:-0.54707092 4802:-0.69485545 4803:-0.16334353 4807:-0.46351722 4808:0.15495111 4809:0.13428921 4810:0.15495111 4811:0.15495111 4813:-0.8580929 4814:-0.22812909 4815:0.10531922 4816:-0.22812909 4817:-0.52510232 4818:0.078732662 4819:0.077262819 4820:0.36818841 4821:-0.38304445 4822:0.061692446 4825:0.23046359 4826:0.23046359 4827:0.23046359 4829:-0.045442265 4830:-0.045442265 4831:-0.045442265 4832:-0.15151872 4833:-0.045442265 4834:0.51874524 4835:-0.045442265 4836:0.35332599 4837:-0.29199269 4838:-0.045442265 4839:-0.045442265 4840:-0.041618649 4841:-0.045442265 4842:-0.14717826 4843:-0.50743151 4844:0.28858835 4845:0.060247883 4846:0.060247883 4847:0.060247883 4848:0.060247883 4849:-0.095518179 4850:0.1075118 4851:0.060247883 4852:-0.029368991 4853:0.29424575 4854:0.42440423 4855:-0.057462752 4856:1.1727128 4857:0.60056645 4858:-0.1444896 4859:0.1009925 4860:-0.75452191 4861:0.11026288 4862:-0.31119314 4863:0.11026288 4864:0.16419984 4865:0.11026288 4866:-0.22392398 4867:-0.22392398 4868:-0.22392398 4869:0.3345969 4870:0.002141152 4871:0.16382344 4872:0.0019548978 4873:0.16963334 4874:-0.026930112 4875:-0.17553976 4876:0.002141152 4877:-0.079562746 4878:-0.14623857 4879:-0.14623857 4880:-0.14623857 4881:-0.19768053 4882:0.54726171 4886:-0.038926683 4889:0.063096158 4890:0.0258289 4891:0.16153154 4892:-0.23740052 4893:-0.15557736 4894:-0.15557736 4895:0.18886842 4896:0.12516925 4897:0.12516925 4898:0.2535947 4899:-0.0063341358 4900:0.0074998667 4901:0.73609102 4902:0.63870752 4903:0.49703076 4904:0.032470312 4905:0.056916539 4906:0.80940789 4907:0.54709119 4908:0.35741308 4909:0.44874549 4910:0.41097939 4911:0.072513081 4912:0.28398257 4913:-0.21218319 4914:0.60423607 4915:0.079174645 4916:0.0018990965 4917:-0.080338001 4918:1.2758092 4919:-0.31544733 4920:-0.43705747 4921:-0.43705747 4922:-0.21546313 4923:-0.43705747 4924:-1.0166186 4925:-0.64213109 4926:-0.036545303 4927:-0.036545303 4928:-0.21168722 4931:0.88901579 4934:-0.0855041 4938:0.033581592 4939:-0.085376561 4941:0.20383391 4943:0.33657509 4945:0.21376395 4946:0.28464937 4947:0.21376395 4948:0.21376395 4949:0.21376395 4950:-0.018903779 4951:0.21376395 4952:0.26894513 4953:-0.065820903 4954:-0.30873829 4959:-0.11080288 4960:1.1793748 4961:-0.74337536 4963:0.24473853 4964:-0.3909415 4965:0.18826279 4966:0.17124484 4967:0.33940288 4968:-0.0040495456 4969:-0.0040495456 4970:-0.0080990912 4971:0.8125059 4972:-0.0037140772 4973:0.33761334 4974:-0.0040495456 4975:-0.28664842 4976:-0.0040495456 4977:-0.11765119 4978:-0.39287207 4979:-0.32532585 4980:-0.42398652 4981:-0.27877378 4982:-0.25981438 4983:-0.030047692 4984:0.090764314 4985:-0.10320055 4986:-0.030047692 4987:-0.027519299 4988:-0.030047692 4989:0.16626306 4990:-0.030047692 4991:-0.030047692 4992:-0.030047692 4993:0.14109424 4994:-0.030047692 4995:-0.030047692 4996:0.79679501 4997:0.30554768 4998:0.33363464 4999:0.62165236 5000:-0.13088422 5001:-0.13088422 5002:0.17084816 5003:0.31770211 5004:0.067637905 5005:-0.074453838 5006:-0.085676476 5007:-0.35527796 5008:-0.085676476 5009:-0.16017461 5010:-0.085676476 5011:0.19183344 5012:-0.070406199 5013:-0.085676476 5014:-0.14660917 5015:-0.05273708 5016:0.10768441 5017:-0.05273708 5018:0.10519305 5019:0.70667684 5022:0.11429698 5023:-0.043150049 5024:-0.008547388 5025:0.12480697 5026:0.30139771 5027:-0.59936297 5028:0.29862881 5029:0.12480697 5030:0.12480697 5031:0.12480697 5032:0.32912895 5033:-0.37071666 5034:-0.39515999 5035:-0.32489881 5036:-0.6753425 5037:0.33901656 5038:-0.16968018 5039:-0.14897297 5040:0.24081834 5041:0.14804976 5042:-0.40938735 5043:0.59244579 5044:0.88421088 5045:-0.34428284 5046:-0.34428284 5047:-0.2323425 5048:-0.34428284 5049:0.034072354 5050:0.034072354 5051:0.034072354 5052:0.034072354 5053:0.095998771 5054:0.067503601 5055:0.067503601 5056:-0.058803834 5057:0.13738178 5058:0.059462484 5059:0.059462484 5060:0.34598765 5061:0.34598765 5062:0.10014935 5063:0.090218708 5064:0.10405814 5065:0.10405814 5066:-0.28464091 5067:-0.10734168 5068:0.077029139 5069:-0.34536219 5070:-0.11182219 5071:-0.24454369 5072:-0.10734168 5073:-0.10734168 5074:0.045849063 5075:0.42422462 5076:0.045849063 5077:0.045849063 5078:0.045849063 5079:-0.66467714 5080:-0.58588892 5081:0.31443378 5082:0.2877503 5083:0.31443378 5084:0.31443378 5085:0.32521558 5086:0.31443378 5087:0.31443378 5088:0.31443378 5089:0.68593335 5090:0.51104754 5091:0.17819868 5092:0.018325631 5093:0.018325631 5094:-0.034729052 5095:0.21039337 5096:0.023117293 5097:0.08696872 5098:0.21039337 5099:0.43483809 5100:0.21039337 5101:0.11172471 5102:0.35274324 5103:0.16672556 5104:0.16672556 5105:0.21919508 5106:0.16672556 5107:0.043258749 5108:0.043258749 5109:0.043258749 5110:-0.15501456 5111:0.043258749 5112:0.38768187 5113:0.35043916 5114:0.12093783 5115:-0.15003264 5116:-0.012153352 5117:0.078796633 5118:0.086130634 5119:0.086130634 5120:0.38460606 5121:-0.51695603 5122:1.1619369 5123:-0.036244292 5124:-0.036244292 5125:-0.036244292 5126:0.13513906 5127:-0.15194945 5128:0.023784451 5129:0.35395727 5130:0.019122139 5131:-0.50490272 5132:0.22011697 5133:0.47611108 5134:0.023784451 5135:0.023784451 5136:0.15668878 5137:0.15668878 5138:0.43002331 5139:0.43002331 5140:-0.45501548 5141:-0.62047899 5142:-0.76073974 5143:-0.033037841 5144:0.33896154 5145:0.83411485 5146:0.1363195 5147:0.51950216 5148:0.23282953 5149:0.036220994 5150:-0.033953261 5151:-0.033953261 5152:0.37913233 5153:0.37913233 5154:0.37913233 5155:0.05145321 5156:0.05145321 5157:0.074708499 5158:0.074708499 5159:0.074708499 5160:-0.1303301 5161:0.074708499 5162:-0.18271597 5163:0.81219691 5164:0.074708499 5165:0.074708499 5166:0.074708499 5167:0.72927648 5168:0.10536522 5169:0.0068011428 5170:0.10536522 5171:0.099719182 5172:0.24607337 5173:-0.23258492 5174:-0.2031209 5175:-0.14163823 5176:0.082024284 5177:-0.14309427 5178:0.051278058 5179:-0.021163998 5180:0.12667669 5181:-0.021163998 5182:-0.021163998 5183:-0.021163998 5184:-0.021163998 5185:-0.021163998 5186:0.042046167 5187:0.042046167 5188:0.042046167 5189:-0.2777659 5190:0.39569125 5191:0.042046167 5192:-0.22341293 5193:0.042046167 5194:-0.027706614 5195:0.042046167 5196:0.56311977 5197:0.20243223 5198:0.052650552 5199:-0.16883907 5200:0.29934707 5201:-0.41272891 5202:0.057057474 5204:0.31504086 5205:0.47614604 5206:0.30566022 5207:0.15283011 5208:0.15283011 5209:0.15283011 5212:-0.094654456 5213:-0.068332918 5214:-0.064043857 5215:-0.068332918 5216:-0.068332918 5217:-0.16431884 5218:-0.16431884 5219:-0.19647931 5220:-0.23013289 5221:-0.19647931 5222:0.72424525 5223:0.056156252 5224:0.056156252 5225:0.056156252 5226:0.018870527 5227:0.018870527 5228:0.3054885 5229:0.02059599 5230:0.02059599 5231:0.21359786 5232:0.02059599 5233:0.026811313 5234:0.05591869 5235:-0.044322189 5236:-0.41874766 5237:0.070826627 5238:-0.13620646 5239:0.2000517 5240:-0.32253093 5241:0.1648868 5242:0.36535496 5243:0.18412852 5244:0.18412852 5245:0.030832279 5246:0.18412852 5247:0.18412852 5248:0.18412852 5249:0.18412852 5250:0.18412852 5251:0.18412852 5252:-0.16862151 5253:0.33028343 5254:-0.16862151 5255:-0.16862151 5256:1.3962102 5257:0.54899657 5258:0.71635389 5259:-0.21089175 5262:0.77929515 5263:0.51060992 5264:0.64815849 5265:-0.27370584 5269:0.16477305 5270:0.16477305 5271:-0.0080430442 5276:-0.033056051 5277:0.21856588 5278:0.3265698 5279:0.32841834 5280:0.37586382 5281:-0.34239507 5282:-0.33482778 5283:0.94539094 5284:-0.34239507 5285:-0.34239507 5286:-0.36503825 5287:-0.36503825 5288:-0.1557315 5289:0.18972258 5290:0.13689829 5291:0.13689829 5292:0.13689829 5293:-0.10253449 5294:0.13689829 5295:0.14940761 5296:0.11573287 5297:-0.12164311 5298:-0.41529411 5299:0.063190594 5300:0.07071007 5301:-0.38035008 5302:0.15234627 5303:0.32771504 5304:-0.17271429 5305:-0.064492203 5306:0.40764034 5307:0.34529427 5308:0.16681074 5309:0.79179716 5310:0.10536212 5311:0.10536212 5312:0.10536212 5313:0.10536212 5314:0.10536212 5315:-0.019045459 5316:0.052152839 5317:-0.13949355 5318:-0.13949355 5319:-0.29686511 5320:-0.073584206 5321:-0.29686511 5322:-0.29686511 5323:0.19377559 5324:-0.037438143 5325:0.025042532 5326:0.064931437 5327:-0.38366881 5328:-0.38366881 5329:-0.26632029 5330:-0.17591976 5331:-0.38366881 5332:-0.53167671 5333:0.076480947 5334:0.076480947 5335:-0.2378539 5336:-0.13551481 5337:0.076480947 5338:0.03380847 5339:0.084241003 5340:0.16848201 5341:0.37422019 5342:0.084241003 5343:0.084241003 5344:-0.029768931 5345:-0.057678431 5346:0.084241003 5347:-0.094024725 5348:0.084241003 5349:-0.22454309 5350:0.14252262 5351:0.14252262 5352:0.28211623 5353:0.28114811 5354:0.28114811 5355:-0.34882557 5356:0.67237157 5360:-0.71416765 5361:-0.61079705 5362:-0.11633659 5364:0.41206792 5365:0.27410448 5366:-0.14987849 5368:-0.28892148 5369:-0.12926714 5370:-0.27027473 5371:-0.26395401 5372:-0.12926714 5373:0.304261 5374:0.304261 5375:0.17010061 5376:0.082958639 5377:0.094835408 5378:0.092861086 5379:0.15527771 5380:0.094835408 5381:-0.36167049 5382:0.1667219 5383:0.21464641 5384:0.15351164 5385:-0.064056955 5386:0.11202627 5387:0.21464641 5388:0.21464641 5389:0.21464641 5390:0.82628661 5391:1.6226169 5392:0.093626633 5393:0.13790879 5394:-0.34445029 5395:0.029424554 5398:-0.10948975 5400:-0.12765975 5404:-0.43296406 5406:-0.14254594 5407:-0.53601354 5408:-0.47402787 5409:-0.47402787 5410:0.020703932 5411:0.097642839 5412:0.01885996 5413:0.01885996 5414:0.10435485 5415:-0.034354363 5416:-0.10098755 5417:0.01885996 5418:0.01885996 5419:0.15329523 5420:0.01885996 5421:0.01885996 5422:0.01885996 5423:0.59435666 5424:0.2268444 5425:-0.13419044 5426:-0.13419044 5427:-0.13419044 5428:-0.11051789 5429:-0.17604345 5430:-0.13419044 5431:-0.22198944 5432:-0.42620751 5433:-0.42620751 5434:-0.63806456 5435:-0.066636786 5436:0.15992337 5437:0.1464719 5438:0.30676362 5439:-0.39134046 5440:-0.012862353 5441:-0.012862353 5442:-0.012862353 5443:0.037424892 5444:-0.012862353 5445:-0.012862353 5446:-0.012862353 5447:-0.012862353 5448:-0.012862353 5449:0.026409389 5450:-0.012862353 5451:0.055550814 5452:0.53692138 5453:0.12301316 5454:-0.042094629 5455:-0.042094629 5456:-0.041364234 5457:-0.1340979 5458:0.13092628 5459:0.13092628 5460:0.13092628 5461:0.07613463 5462:0.055456635 5463:0.13092628 5464:-0.14722447 5465:0.21572834 5466:-0.14722447 5467:-0.14722447 5468:0.57540786 5469:0.37453324 5470:-0.56669223 5471:-0.6177448 5472:0.70150971 5473:0.22175261 5476:0.080510415 5478:0.016429143 5479:0.30580008 5480:0.12473313 5488:0.25399965 5489:0.25399965 5490:0.43228328 5491:0.36627549 5492:0.29046786 5493:0.86435038 5494:0.71277261 5495:-0.41833416 5496:0.39343023 5497:0.35862169 5498:-0.37688625 5499:0.07344956 5500:0.65795219 5501:0.14910588 5502:-0.066730753 5503:0.07344956 5504:-0.5319069 5505:-0.16365263 5506:0.27277529 5507:0.63580209 5508:-0.10254414 5509:-0.19146226 5510:-0.065043435 5511:0.15621397 5512:0.21276826 5513:0.15621397 5514:0.044357989 5515:0.76543587 5516:0.025763594 5517:-0.24237323 5518:-0.66032356 5519:0.12639454 5520:0.077786468 5521:0.066846222 5522:0.51493537 5523:-0.41896388 5524:-0.01696939 5525:-0.3380329 5526:-0.01696939 5527:-0.03393878 5528:-0.03393878 5529:-0.01696939 5530:-0.01696939 5531:-0.01696939 5532:-0.63752609 5533:0.098923258 5534:-0.0461918 5535:-0.01696939 5536:-0.01696939 5537:-0.29431146 5538:-0.29431146 5539:0.28549549 5540:0.28549549 5541:0.14838125 5542:0.14838125 5543:0.13311172 5544:0.14838125 5545:0.14838125 5546:0.14838125 5547:0.029297275 5548:0.36805555 5549:0.65483522 5551:0.24847424 5552:0.3455483 5553:-0.058174606 5554:-0.074396834 5555:-0.10606921 5556:0.0038358038 5557:0.0038358038 5558:0.4509193 5559:0.0038358038 5560:-0.0845396 5561:-0.47058949 5562:-0.1206486 5564:0.26703057 5565:-0.24305752 5566:-0.27947465 5567:0.092073269 5568:-0.041793991 5569:-0.041793991 5570:-0.041793991 5571:-0.041793991 5572:-0.32189658 5573:-0.32189658 5574:-0.32189658 5575:-1.310012 5576:0.10419464 5577:0.11377091 5578:-0.70602816 5579:0.36093158 5580:0.020660551 5581:0.020660551 5582:-0.44820875 5583:0.020660551 5584:0.087332033 5585:0.043137133 5586:2.5445757 5587:0.005099521 5588:-0.10307538 5589:-0.28988275 5590:-0.43220791 5591:0.037711523 5592:-0.0090550715 5593:-0.0090550715 5594:0.36762494 5595:-0.003283534 5596:-0.003283534 5597:-0.003283534 5598:0.028128656 5599:0.13913877 5600:-0.053680509 5601:0.32150903 5602:0.022626236 5603:0.022626236 5604:0.045252472 5605:0.022626236 5606:0.022626236 5607:0.022626236 5608:0.022626236 5609:0.022626236 5610:-0.49386507 5611:-0.17468807 5612:-0.34579921 5613:-0.14325458 5614:-0.27448696 5615:-0.27448696 5616:-0.25140032 5617:0.026034756 5618:-0.1518728 5619:-0.070886463 5620:0.026034756 5621:-0.0019886426 5622:0.023856223 5623:0.27121451 5624:0.94447666 5625:0.74832344 5626:0.043670014 5627:0.043670014 5631:0.10703822 5632:0.57835585 5634:0.39504492 5635:0.32131252 5636:0.12379951 5637:0.081304006 5638:0.12379951 5639:0.51427966 5641:0.1447906 5642:0.11445363 5643:0.1447906 5644:0.1447906 5645:0.1447906 5646:-0.064571843 5647:0.72401655 5648:-0.061105914 5649:0.72401655 5650:0.72401655 5651:-0.016394742 5652:0.19809599 5653:0.36953783 5654:-0.019885708 5655:-0.29370987 5656:0.43249953 5657:-0.15809356 5658:0.070155844 5659:-0.53176051 5660:-0.15809356 5661:-0.15809356 5662:-0.0037579217 5663:-0.15809356 5664:-0.086569473 5665:0.17061995 5666:0.17061995 5667:0.17061995 5668:0.17061995 5669:0.17061995 5670:0.17061995 5671:0.034047205 5672:0.034047205 5673:0.034047205 5674:0.034047205 5675:-0.071757771 5676:0.35961282 5677:0.073185898 5678:-0.097009003 5679:-0.097009003 5680:-0.097009003 5681:-0.45733133 5682:-0.45733133 5683:-0.056827329 5684:-1.0092705 5685:-0.056827329 5686:0.18092139 5687:-0.056827329 5688:-0.056827329 5689:-0.31068435 5690:-0.31068435 5691:-0.31068435 5693:-1.2512931 5694:-0.10684512 5696:0.13277696 5697:0.011604465 5698:-0.27699775 5699:0.011604465 5700:0.011604465 5701:0.65680665 5702:0.55251223 5703:-0.25408089 5704:0.20665121 5705:0.48476145 5706:-0.00046881961 5707:0.10716537 5708:-0.14270951 5710:-0.46840096 5711:-0.19773327 5712:0.10662442 5713:0.10662442 5714:-0.032846961 5715:-0.032846961 5716:-0.032846961 5717:-0.035026059 5718:-0.083904527 5719:-0.33006585 5720:0.012364862 5721:0.50338554 5722:0.013475882 5723:0.013475882 5724:-0.058011096 5725:0.013475882 5726:0.013475882 5727:0.47576189 5728:0.31708202 5729:-0.42530164 5730:0.013475882 5731:0.24448445 5732:0.24448445 5733:0.2372757 5734:0.24448445 5735:-0.54955065 5736:0.021939181 5737:0.19497371 5738:-0.037670996 5739:-0.037670996 5740:-0.387909 5742:-0.14289163 5744:-0.13001677 5747:0.63514537 5748:0.12472457 5749:0.034001227 5753:0.089606695 5754:0.26280165 5755:-0.037457466 5756:0.080252178 5757:0.089606695 5758:0.089606695 5759:0.014628628 5760:0.089606695 5761:0.10018639 5762:0.13914855 5763:0.36485791 5764:0.18326949 5765:0.1223678 5766:0.29612786 5767:-0.15729401 5768:0.1223678 5769:0.45425984 5770:0.34669194 5771:0.24516951 5772:0.026264362 5773:-0.32426262 5774:-0.37482867 5775:-0.37482867 5776:-0.14593899 5777:-0.37482867 5778:0.52776951 5779:0.14913575 5780:0.14913575 5781:0.14913575 5782:0.14913575 5783:0.14913575 5784:0.25501126 5785:-0.44639051 5786:-0.12852168 5787:-0.083857119 5788:-0.083857119 5789:-0.0053091617 5790:-0.02295232 5791:-0.083857119 5792:0.28913257 5793:-0.065845795 5794:-0.29589692 5795:-0.65980232 5796:0.09294074 5797:-0.0059584337 5798:0.09751156 5799:-0.57922763 5800:-0.0059584337 5801:0.16444993 5802:-0.0059584337 5803:-0.0059584337 5804:-0.0059584337 5805:-0.15328518 5806:-0.26472306 5807:-0.11449931 5808:-0.11449931 5809:0.10387097 5810:0.12752175 5811:-0.25826097 5812:0.083792865 5813:0.10387097 5814:0.064506426 5815:-0.14367805 5817:-0.061800011 5818:0.32033667 5819:0.32033667 5820:0.13419108 5821:0.054957572 5822:0.43620878 5823:0.27138805 5824:0.27138805 5825:0.27006349 5826:-0.37098664 5827:-0.37098664 5829:-0.11622649 5831:0.25298089 5832:0.25298089 5833:0.22399926 5834:0.2839871 5835:0.52353913 5836:-0.33606926 5837:-0.33606926 5838:-0.33606926 5839:-0.71752858 5840:0.26434588 5841:0.15758005 5842:0.1002146 5843:0.020798443 5844:0.15758005 5845:0.15758005 5846:0.15758005 5847:-0.11931217 5848:0.15758005 5849:0.15758005 5850:0.15758005 5851:0.57356024 5852:0.66327631 5853:0.14186284 5854:0.355268 5855:0.355268 5856:-0.66617036 5857:0.355268 5858:-0.089925118 5860:-0.39604339 5861:-0.44622245 5862:-0.44622245 5863:-0.34804231 5864:-0.17756379 5865:-0.3800154 5866:-0.13903843 5867:-0.13156027 5868:-0.13156027 5869:-0.13156027 5870:-0.14612347 5871:-0.13156027 5872:0.59710252 5873:0.59710252 5874:0.59710252 5875:0.14062788 5876:0.26975042 5877:-0.80094796 5878:-0.39918473 5879:-0.39918473 5880:-0.5535568 5881:-0.33663681 5882:-0.36667934 5883:-0.19339514 5884:-0.15151642 5885:-0.30941403 5886:0.07015653 5887:0.60250133 5888:0.13977709 5889:-0.13408102 5890:-0.045050815 5891:0.0051734392 5892:-0.12280131 5893:-0.073137268 5894:0.010390504 5895:-0.091775231 5896:-0.35725448 5897:-0.19168457 5899:0.057331514 5900:0.3386313 5901:0.3386313 5902:0.3386313 5903:0.3386313 5904:0.021207253 5905:0.3386313 5906:-0.040030688 5909:0.29537439 5910:0.42958751 5911:0.32849368 5912:0.0077139884 5913:-0.26295343 5914:-0.16970377 5915:-0.12629004 5916:-0.27581376 5917:0.40229467 5918:0.13158013 5919:0.13158013 5920:0.36313513 5921:-0.23318371 5922:-0.51481271 5923:-0.51481271 5924:-0.51481271 5925:-0.68830812 5926:-0.034579117 5927:-0.034579117 5928:0.38777512 5929:-0.043221071 5930:-0.043221071 5931:0.099344216 5932:0.11371163 5933:0.11371163 5934:0.11371163 5935:-0.010255514 5936:0.11371163 5937:0.2589809 5938:-0.027635584 5939:-0.066847503 5940:-0.23176378 5941:0.014616776 5942:-0.21727861 5943:-0.21727861 5944:-0.26325879 5945:-0.26325879 5946:-0.63580638 5947:-0.58231694 5948:0.57529938 5949:0.030868407 5950:-0.92458516 5951:0.19243969 5952:0.15220214 5953:0.030868407 5954:0.33046407 5955:0.030868407 5956:0.39447924 5957:-0.84754831 5958:0.23368356 5959:0.2140252 5960:0.23368356 5961:0.23831637 5962:0.0098674549 5963:-0.39445165 5964:-0.39445165 5965:-0.35345271 5967:0.13477418 5968:0.051029161 5969:0.051029161 5970:-0.060590733 5971:-0.060590733 5972:-0.060590733 5973:-0.17583416 5974:0.029093187 5975:0.5051043 5976:-0.041360542 5977:0.030334627 5978:-0.041360542 5979:-0.041360542 5980:-0.041360542 5981:-0.041360542 5982:-0.40051585 5983:-0.40051585 5984:-0.40051585 5985:-0.57015628 5986:-0.38974217 5987:-0.83036774 5988:-0.21069147 5989:-0.26638839 5990:-0.22002374 5991:-0.22002374 5992:-0.22002374 5993:0.63199311 5994:0.34884501 5995:0.34196138 5996:0.17053168 5997:-0.060208078 5998:-0.060208078 5999:-0.060208078 6000:-0.060208078 6001:-0.13153534 6002:0.23082548 6003:-0.14778614 6004:-0.046536069 6005:-0.087268613 6006:-0.087268613 6007:0.031674009 6008:-0.24453501 6009:0.40224126 6010:0.42877552 6011:-0.088463977 6012:-0.044431083 6013:0.30436209 6014:-0.78636259 6015:0.010552523 6016:0.010552523 6017:0.54697353 6018:0.18416005 6019:0.27175841 6020:0.3631883 6021:0.40737695 6023:-0.14628623 6025:0.029223762 6026:0.029223762 6027:-0.96753079 6028:-0.96753079 6029:0.88306803 6030:-0.54427779 6031:0.41460714 6032:0.058018927 6033:0.078753203 6034:-0.33788425 6035:0.078753203 6036:-0.31390414 6037:0.22415644 6038:0.2921612 6039:0.17820945 6040:0.17820945 6041:0.17820945 6042:0.50861919 6043:-0.00027973781 6044:1.0429213 6045:0.15499321 6046:-0.00024603526 6047:-0.15464742 6048:-0.030112803 6049:0.35655236 6055:-0.51633918 6057:-0.38669488 6058:0.24112554 6059:-0.031170424 6060:-0.48649469 6061:0.024367403 6062:0.14469151 6063:0.024367403 6064:0.024367403 6065:-0.010927556 6066:-0.11099193 6067:-0.11099193 6068:-0.3049311 6069:-0.11084893 6070:0.040739339 6071:-0.082980081 6072:0.050846349 6073:0.050846349 6074:0.050846349 6075:0.1016927 6076:0.012692038 6077:0.050846349 6078:0.050846349 6079:-0.44366196 6080:-0.41244066 6081:0.29586345 6082:0.20367536 6083:0.20367536 6084:-0.62915593 6087:0.28879166 6088:-0.26816341 6089:-0.23846506 6090:-0.059017833 6092:0.082909338 6093:-0.34174874 6096:0.5371033 6097:0.32998249 6098:0.5371033 6099:0.5371033 6100:0.5371033 6101:-0.025970848 6102:0.23742555 6103:0.42265701 6104:0.18552873 6105:0.23742555 6106:0.046965051 6107:0.046965051 6108:0.096720383 6109:0.18850301 6110:0.024430024 6111:0.36542168 6112:0.27063546 6113:-0.33392581 6114:0.096720383 6115:0.096720383 6116:0.274205 6117:0.36952025 6118:0.096720383 6119:-0.42172432 6120:-0.42172432 6121:-0.1752473 6122:-0.21431138 6123:0.12689254 6124:-0.1752473 6125:-1.1562332 6126:0.11533409 6127:0.11533409 6128:0.11533409 6129:-0.16486873 6130:-0.29621735 6131:-0.29621735 6132:-0.29621735 6133:-0.54117507 6134:0.026661513 6135:0.0221912 6136:0.0165156 6137:-0.30822423 6138:0.0165156 6139:0.061776102 6140:0.21030471 6141:-0.57351589 6142:0.0165156 6143:-0.069050841 6144:0.0165156 6145:0.0165156 6146:0.0165156 6147:-0.0985002 6148:0.0165156 6149:0.0165156 6150:-0.079145029 6151:-0.001672343 6152:-0.38139531 6153:0.35492688 6154:-0.079145029 6155:-0.10672534 6156:-0.095431022 6157:0.03367117 6158:-0.1090407 6159:0.25591627 6160:0.25591627 6161:0.25591627 6162:0.25591627 6163:0.27099442 6164:0.27099442 6165:0.27099442 6166:0.28267744 6167:0.27099442 6168:0.732804 6169:0.031408992 6170:-0.26232538 6171:-0.26232538 6172:0.80136806 6173:0.80136806 6174:-0.041372195 6175:-0.42066631 6176:0.086087078 6177:0.091241024 6178:-0.26625732 6179:-0.22175434 6180:-0.18477634 6181:-0.21354334 6182:-0.18557999 6183:-0.38324791 6184:-0.47228867 6185:-0.38324791 6186:0.18995841 6187:0.11692736 6188:0.11692736 6189:0.05273322 6190:0.79427677 6191:0.11692736 6192:0.11692736 6193:0.11692736 6194:0.091662474 6195:0.11692736 6196:0.11692736 6197:0.12344228 6198:0.090021878 6199:0.12344228 6200:0.12344228 6201:0.47202888 6202:0.47202888 6203:0.10993978 6204:0.57705206 6205:-0.080825657 6206:0.43749815 6207:0.34889096 6208:0.034695938 6209:-0.0014429917 6210:-0.19411707 6211:-0.14077123 6212:0.31806293 6213:0.31806293 6214:0.31806293 6215:-0.071107559 6216:0.64722389 6217:0.51669794 6218:-0.18611392 6219:0.27651045 6220:-0.29911137 6221:-0.12295952 6222:-0.036842972 6223:0.53509617 6224:-0.43431747 6226:-0.11557516 6228:0.32062775 6229:-0.64236557 6230:0.092874646 6231:0.093792439 6232:0.092874646 6233:0.28028414 6234:-0.064590454 6235:0.092874646 6236:0.37268192 6237:0.31911352 6238:0.30229241 6240:0.0039740121 6241:0.0039740121 6242:0.0039740121 6243:0.0039740121 6244:-0.25744167 6245:-0.14483202 6246:0.12737985 6247:-0.14483202 6248:-0.14483202 6249:-0.034146208 6250:-0.1249233 6251:-0.46787533 6252:-0.51073694 6253:-0.0025036917 6254:0.091343194 6255:1.0677563 6256:-0.0025036917 6257:-0.0025036917 6258:-0.0025036917 6259:-0.0025036917 6260:-0.09266223 6261:0.11094791 6262:0.23543015 6263:0.23543015 6264:-0.08484935 6265:-0.16160433 6266:-0.31123713 6267:-0.16160433 6268:0.049410261 6269:-0.16160433 6270:-0.16160433 6271:0.14857905 6272:0.46201813 6273:0.42556232 6274:0.46865642 6275:0.19413409 6276:0.12920439 6277:0.013317027 6278:-0.028666651 6279:-0.12540434 6280:0.079800099 6281:0.056562018 6282:0.069734655 6283:0.20105661 6284:0.65711737 6285:0.3344574 6286:-0.14990291 6287:0.10443088 6288:0.0040990887 6289:-0.031855352 6290:-0.031855352 6291:-0.031855352 6292:-0.031855352 6293:-0.031855352 6294:-0.031855352 6295:-0.031855352 6296:-0.031855352 6297:-0.22443326 6298:0.15640582 6299:0.15640582 6300:0.15640582 6301:0.15640582 6302:0.11455019 6303:-0.051723886 6304:0.2115583 6305:-0.65754908 6306:0.15548465 6307:0.15548465 6308:-0.21450768 6309:0.15548465 6310:0.15548465 6311:0.15548465 6312:0.013532085 6313:0.5132817 6314:0.19563968 6315:0.19563968 6316:0.19563968 6317:0.13528067 6318:0.17846173 6319:0.43334746 6320:0.12388072 6321:0.13528067 6322:0.13528067 6323:0.11625323 6325:0.43591568 6326:0.23600967 6328:0.41156685 6330:-0.40548646 6331:0.25379166 6332:-0.81638759 6333:-0.32077742 6334:0.12260026 6335:0.34567052 6336:0.15138587 6337:0.26151076 6338:0.15168871 6340:-0.094761625 6342:0.23034197 6346:0.56767136 6347:-0.64100617 6348:0.21787104 6349:0.91881579 