SVM-light Version V6.20
0 # kernel type
3 # kernel parameter -d 
1 # kernel parameter -g 
1 # kernel parameter -s 
1 # kernel parameter -r 
empty# kernel parameter -u 
11718 # highest feature index 
120 # number of training documents 
2 # number of support vectors plus 1 
0 # threshold b, each following line is a SV (starting with alpha*y)
1 1:-0.019577442 2:0.0014804731 3:-0.1149912 4:0.025919631 5:-0.079942845 6:0.26129895 7:-0.23019361 8:-0.11821318 9:-0.017364144 10:-0.09588787 11:0.073807947 12:-0.045293503 13:0.36540908 14:-0.097959869 15:-0.01436872 16:-0.017788665 17:0.063629806 18:0.20603913 19:0.00048662984 20:0.2677004 21:0.00048662984 22:-0.066534981 23:0.1598372 24:0.0400347 25:-0.11676167 26:-0.086719602 27:-0.14502801 28:0.12640412 29:-0.26672456 30:0.12453208 31:-0.11676167 32:-0.11676167 33:0.029724862 34:0.026484279 35:0.48115662 36:0.51582587 37:-0.18485004 38:-0.29637748 39:-0.072598845 40:0.094163388 41:0.078391425 42:-0.3042872 43:-0.36026415 44:-0.20807013 45:-0.3301174 46:0.35367063 47:0.13004018 48:-0.20353608 49:0.19042942 50:-0.15052947 51:0.26058492 52:-0.15359423 53:-0.0070546228 54:-0.15052947 55:0.50250435 56:-0.10802412 57:0.092763662 58:-0.19682229 59:-0.12032671 60:-0.1290841 61:-0.2019145 62:-0.0045879125 63:-0.08833494 64:-0.15633684 65:-0.25893956 66:-0.059990294 67:-0.6176306 68:0.40959746 69:-0.14508849 70:0.46914965 71:-0.016857928 72:0.15227728 73:0.17022638 74:0.086038947 75:0.011886926 76:0.15305007 77:0.1559052 78:-0.24741937 79:0.021464525 80:0.094724469 81:0.30355227 82:0.33077705 85:-0.034013052 86:0.010116615 87:-0.20992056 88:0.1412822 89:0.19393307 90:0.073544562 91:0.10829531 92:0.15148602 93:-0.085438989 94:-0.062901512 95:0.25661278 96:0.0032621224 97:-0.14565951 98:0.019925008 99:-0.22702327 100:-0.13348083 101:0.37289897 102:0.16851009 103:-0.26890382 104:0.32145861 105:-0.11117777 106:0.0039259139 107:0.37542889 108:-0.014119852 109:0.30784661 110:0.15129679 111:-0.010273624 112:-0.10215356 113:-0.17223021 115:-0.012446843 118:0.012217262 119:0.079250388 120:0.4349491 121:0.27093598 122:0.18952146 123:-0.13735665 124:0.0094874883 125:0.11516512 126:0.053307589 127:-0.12903503 128:0.21576713 129:0.10023201 130:-0.065820746 131:0.2258946 132:0.013600462 133:0.29434437 134:-0.026211696 135:0.14584018 136:0.1548963 137:0.067742303 138:0.22635637 139:0.42848659 140:0.18238039 141:0.022713194 142:0.025268307 143:-0.32610479 144:-0.10588406 145:0.14584018 146:0.14584018 147:0.061688777 148:0.1898265 149:0.059766017 150:0.058751527 151:0.1204693 152:-0.15500155 153:-0.058294773 155:-0.38850662 156:0.090037733 157:-0.070697479 158:0.053589281 159:0.13171892 160:-0.31425199 161:-0.1253693 162:0.52402502 163:-0.13303532 164:-0.04368474 165:-0.031498138 166:0.17400791 167:-0.22064565 168:-0.095266476 169:0.20897245 170:0.040587742 171:0.1694095 172:0.077797167 173:0.077797167 174:-0.23194845 175:0.1615613 176:0.077797167 177:0.042647727 178:0.077797167 179:-0.057762899 180:-0.020666901 181:-0.25388801 182:0.077797167 183:-0.44568431 184:-0.20882154 185:0.0045382949 186:-0.042788014 187:-0.063128561 188:0.23485185 189:0.1734948 190:0.17643946 191:-0.069132797 192:-0.069132797 193:-0.21594261 194:0.038029727 195:-0.040937815 196:0.10533736 197:0.050768048 198:-0.29794985 199:0.18536779 200:0.5391134 201:-0.41297361 202:0.11767358 203:0.46824953 204:-0.32522294 205:0.086653613 206:0.072073974 207:-0.16041756 208:0.082314417 209:0.01237485 210:-0.0094887232 211:0.10375442 212:-0.010360332 213:0.52800071 214:0.14522444 215:0.10951515 216:0.072552003 217:0.4672963 218:-0.11051606 219:0.085999958 220:-0.15345447 221:-0.058241356 222:-0.1678468 223:-0.064556867 224:0.16309796 225:-0.11051606 226:0.39235741 227:-0.075306699 228:-0.046286248 229:-0.1784561 230:-0.038071077 231:-0.11051606 232:-0.31682786 233:-0.028169278 234:-0.051688846 235:-0.069651462 236:0.076057434 237:-0.11216933 238:-0.22284248 239:-0.48175091 241:0.027084896 242:-0.2178649 243:-0.021606188 245:-0.064776354 246:0.014960285 247:-0.021639857 249:0.060313035 250:0.16091913 253:0.36893317 254:0.22895777 255:0.014772483 256:-0.44293889 257:-0.032502797 258:0.025016278 259:-0.050897736 260:-0.64319611 261:-0.21239702 262:0.26761657 263:0.067527361 264:-0.0012927826 265:-0.28943554 266:-0.061461043 267:0.18334892 268:0.038450651 269:-0.044418689 270:-0.046419751 271:0.016534749 272:-0.090502419 273:0.011454673 274:0.051591929 275:0.02958932 276:-0.11340793 277:-0.019816222 278:0.023887422 279:0.103453 280:0.097703375 281:-0.071084954 282:-0.024261894 283:-0.031544596 284:-0.044418689 285:-0.044418689 286:-0.044275846 287:-0.044418689 288:-0.044418689 289:-0.14125419 290:0.48557249 291:0.17684706 292:0.12801258 293:-0.0076693683 294:-0.19676706 295:-0.010527899 296:-0.03847491 297:0.20482309 298:0.22937058 299:-0.25671205 300:0.13260385 301:0.0077757435 302:-0.08214879 303:0.0085207559 304:0.073334992 305:-0.075606279 306:-0.29335892 307:-0.045503728 308:0.081007004 309:0.16740397 310:-0.17020752 311:-0.23462392 312:0.089791819 313:0.21739951 314:0.14906235 315:0.32792631 316:0.20657623 317:0.038487155 318:-0.015535085 319:-0.067865178 320:-0.27343249 321:-0.063496321 322:-0.045203973 323:-0.28815737 324:0.25907373 325:-0.064285897 326:0.0061787497 327:0.5499717 328:-0.058877386 329:-0.064285897 330:0.024476198 331:-0.064285897 332:-0.058877386 333:0.075903125 334:-0.06099939 335:-0.040846858 336:0.089124307 337:0.10196383 338:0.037607145 340:-0.048855986 341:-0.31344131 343:-0.091737971 344:0.20172268 345:-0.24833719 348:-0.085355014 349:-0.12230503 350:0.2040531 351:-0.13513215 352:-0.085355014 353:0.21923752 354:-0.085355014 355:-0.089367144 356:-0.062979117 357:0.089231879 358:-0.14088447 359:0.23394832 360:-0.061246373 361:-0.14470223 362:-0.12996426 363:0.16911355 364:0.15833728 365:0.21972696 366:-0.045678854 367:-0.17756209 368:-0.047676474 369:0.035385594 370:-0.11220034 371:0.27049807 372:-0.22509106 373:-0.12308393 374:-0.057143081 375:-0.21731807 376:0.06570287 377:0.18518244 378:-0.076495908 379:0.14872184 380:0.31192774 381:0.14721584 382:0.12462638 383:0.049370397 384:0.12462638 385:0.027511032 386:0.1492406 387:-0.14935698 388:-0.042696528 389:-0.039104447 390:-0.042696528 391:-0.042696528 392:0.25300923 393:-0.17374577 394:-0.042696528 395:-0.054622233 396:0.068579592 397:-0.041894142 398:-0.020945033 399:-0.064499043 400:-0.051160052 401:-0.002957141 402:-0.085474581 403:-0.041894142 404:-0.083742775 405:0.18615216 406:-0.050653767 407:-0.041489307 408:0.077306211 409:0.00076505705 410:-0.093357399 411:-0.11017181 412:0.10838149 413:-0.041894142 414:0.015977439 415:0.018478854 416:0.24988699 417:-0.1018749 418:0.02987808 419:0.14825201 420:0.008957278 421:-0.10027482 422:-0.24377757 423:-0.10662732 424:0.016332146 425:-0.069048993 426:-0.19084533 427:-0.041855063 428:0.090474375 429:0.42709193 430:-0.24318682 431:-0.07774999 432:0.065116741 433:0.02987808 434:0.28811136 435:-0.10623307 436:0.02987808 437:9.5378862e-05 438:-0.32919586 439:0.067908809 440:-0.029723881 441:0.060836587 442:-0.23769538 443:-0.27799052 444:-0.10933298 445:-0.097588167 446:0.061737042 447:-0.11131351 448:-0.37646922 449:0.084734812 450:-0.0099031013 451:-0.15613106 452:-0.11022633 453:-0.11131351 454:0.03836726 455:-0.1942572 456:0.18805082 457:-0.12096071 458:-0.18370636 460:0.27044249 461:0.21665478 462:0.010768556 463:-0.0094545363 464:0.015441939 465:0.026303984 466:0.10075038 467:0.13305911 468:-0.035909165 469:0.078860812 470:0.16275182 471:0.07476455 472:0.098707743 473:0.10075038 474:0.087852925 475:0.090751968 476:-0.23982784 477:-0.46918121 478:0.41554019 479:0.10264776 480:0.15375739 481:0.071140766 482:0.39288226 483:0.30484146 484:0.41872367 485:0.017172122 486:-0.23848009 487:0.39288226 488:0.14909978 489:0.039448358 490:0.2794551 491:0.11801744 492:0.027127432 493:-0.24248071 494:-0.077681974 495:-0.12249516 496:-0.0027561742 497:-0.053907953 498:-0.14788145 499:-0.032427881 500:-0.1157539 501:-0.13544092 502:-0.085250333 503:0.23018983 504:-0.079675421 505:0.11758404 506:0.23175678 507:-0.14788145 508:0.0060363659 509:0.11441232 510:0.14205037 511:0.27126452 512:-0.40858629 513:-0.12394303 514:0.036486484 515:-0.045765027 516:0.26171613 517:-0.045773461 518:-0.009350935 519:0.0388797 520:-0.097306862 521:0.035360418 522:-0.23045644 523:-0.27543679 524:0.042231873 525:-0.16839615 526:-0.068040796 527:0.058784012 528:-0.043491513 529:-0.026683072 532:-0.14461052 533:0.068496808 534:0.035276622 535:-0.0077975034 536:0.052473485 537:0.0059793955 538:-0.014157252 539:-0.14113592 540:-0.17855853 541:-0.025795361 542:0.18418345 543:0.41433138 544:-0.068608448 545:0.38698858 546:0.37993619 547:-0.044262297 548:-0.31704703 549:-0.11258657 550:0.094537385 551:-0.11806372 552:-0.15041631 553:0.29365459 554:-0.012552169 555:-0.36357906 556:0.27649975 557:-0.091620304 558:0.4510611 559:-0.36515376 560:-0.14610547 561:0.0013596967 562:-0.25082344 563:-0.01985592 564:0.21749282 565:-0.088687338 566:-0.14167449 567:0.13871469 568:0.079595014 569:-0.079374187 570:-0.071223281 571:0.13184518 572:-0.049982872 573:-0.23974828 574:-0.082270242 575:0.072484486 576:0.21141189 577:0.068577811 578:0.30219668 579:0.30624846 580:-0.049982872 581:-0.049982872 582:-0.049982872 583:-0.081786968 584:-0.049982872 585:0.16091515 586:0.053488288 587:-0.049982872 588:-0.059904106 589:0.11697607 590:-0.42345378 591:-0.40041313 592:0.023172896 593:0.040287916 594:-0.078317784 595:0.086209804 596:-0.078317784 598:0.48227063 601:0.21689376 602:-0.030052727 603:-0.26377046 604:-0.11862381 605:-0.020968318 606:0.21976648 607:-0.070198379 608:0.045094416 609:0.074631616 610:-0.058893804 611:0.1385314 612:0.16379482 613:-0.14539707 614:0.20411523 615:-0.097985953 616:-0.15791325 617:0.28686684 618:0.068860106 619:0.10233995 620:0.027040187 621:0.24755444 622:-0.044710893 624:0.19642527 625:0.13161682 626:0.24062355 628:-0.11381429 629:-0.34523836 631:0.087894469 632:-0.028222302 633:-0.049557049 634:0.05248829 635:0.098814934 637:0.2005233 638:-0.11043509 639:-0.011953179 640:0.24128048 641:0.075365946 642:0.21002568 643:0.11886555 644:0.34362456 645:0.18817829 646:0.20587848 647:-0.35328037 648:0.02051416 649:-0.016195977 650:0.19631404 651:0.047049727 652:0.095525019 653:-0.080770299 654:0.0096845645 655:0.10987986 656:0.46211636 657:-0.32900345 658:0.051704872 659:-0.034313172 660:0.10842812 661:-0.068077803 662:-0.29678047 663:-0.16986252 664:-0.35594329 665:0.37386557 666:-0.072676994 667:-0.13388574 668:0.042456232 669:0.014006483 670:0.058394674 671:0.054434288 672:0.060970366 673:0.048130114 674:-0.19349873 675:-0.077872612 676:0.2111236 677:0.19092095 678:0.21932743 679:-0.11106134 680:0.12349202 681:0.44048539 682:0.0025517177 683:0.102129 684:0.14802147 685:0.14547886 686:-0.07935255 687:-0.036975347 688:0.014931263 689:-0.28063533 690:-0.0308998 691:-0.03641222 692:0.065897316 693:0.0025517177 694:-0.132116 695:-0.1091246 696:0.0025517177 697:-0.10880587 698:-0.10880587 699:-0.10880587 700:-0.10880587 701:-0.10880587 702:-0.067746311 703:0.07612019 704:0.16786326 705:-0.10880587 706:0.0028250355 707:0.21312465 708:-0.099802278 709:-0.064466991 710:0.29267666 711:-1.1545792 712:0.039067332 713:-0.074700534 714:0.071941018 715:-0.24259214 716:-0.30642867 717:0.010419426 718:0.083374023 719:-0.031120557 720:0.010419426 721:0.10523497 722:-0.031300217 723:0.010419426 724:-0.070886113 725:-0.034280654 726:-0.040758882 727:0.0089788958 728:-0.29617554 729:0.086069264 730:-0.38721466 731:0.055255029 732:-0.21070117 733:0.25648594 734:0.11535096 735:0.21913648 736:0.25648594 737:0.096228965 738:0.12556429 739:-0.098489024 740:0.0032064847 741:0.1092649 742:0.16243982 744:-0.053566068 745:0.026469685 746:0.23047449 747:0.17704187 748:0.18698235 749:0.077354848 750:0.11067156 751:0.3630982 752:-0.021996072 753:-0.29929903 754:-0.22014689 755:-0.21889377 756:0.11412128 757:0.15100592 758:-0.091338679 759:0.18079308 760:-0.1585377 761:-0.091338679 762:-0.063956209 763:-0.091338679 764:-0.091338679 765:0.13325669 766:-0.091338679 767:-0.042413317 768:0.32609445 769:-0.12269845 770:-0.065236203 771:0.093345232 772:0.06095925 773:0.068620801 774:-0.091338679 775:-0.083463117 776:-0.091338679 777:-0.091338679 778:-0.23656473 779:-0.01619355 780:-0.082559042 781:-0.20984642 782:0.1354927 783:0.13391235 784:0.1354927 785:-0.029116843 786:0.10220908 787:-0.22070655 788:-0.014934427 789:-0.13835116 790:-0.22215228 791:-0.15112151 792:-0.10853942 793:0.12003427 794:0.023944948 795:0.050630741 796:0.015499977 797:0.091442324 798:0.20565768 799:0.14004955 800:0.073468588 801:-0.1010696 802:-0.22854848 803:-0.1010696 804:0.045444008 805:0.034263056 806:0.034263056 807:0.034263056 808:0.096881613 809:0.034263056 810:0.0067261416 811:0.034931067 812:0.034263056 813:-0.14362888 814:0.19363426 817:-0.29413947 819:-0.072860606 820:-0.033882365 821:-0.042570293 822:0.040742606 826:-0.014162633 827:-0.083139017 828:-0.19463374 829:-0.17836812 830:-0.080007218 831:-0.11509913 832:-0.16296223 833:0.4800567 834:-0.10335052 835:0.11502638 836:-0.026152216 837:-0.015566733 838:-0.24359943 839:0.27783635 840:0.12337127 841:0.14848414 842:-0.010671925 843:-0.064227127 844:-0.031322319 845:-0.11056185 846:-0.016071351 847:-0.021476788 848:0.47330511 849:-0.032413617 850:-0.032413617 851:-0.064095125 852:-0.077464923 853:-0.13974693 854:-0.10556543 855:0.064108133 856:0.034237709 857:0.26695955 858:-0.10339398 859:0.30925441 860:0.12303942 861:-0.079888128 862:0.52746719 863:0.1183066 864:0.059135195 865:-0.18864758 866:0.093706153 867:0.085824117 868:0.044433475 869:-0.29570177 870:-0.11069593 871:-0.29570177 872:0.053024098 873:0.10455673 874:-0.13550903 875:-0.05179413 876:0.11083781 877:-0.031240907 878:0.10455673 879:0.10455673 880:-0.18774971 881:0.10455673 882:0.22043209 883:0.071582586 884:-0.14185601 885:0.097591378 886:0.071582586 887:-0.068429269 888:-0.068429269 889:0.24678871 890:-0.025286363 891:-0.14515015 892:0.27615172 893:-0.068946451 894:0.0015459543 895:-0.37109649 896:-0.14515015 897:-0.23175177 898:0.2053684 899:-0.035685245 900:0.047754049 901:-0.023274824 902:-0.0045362841 903:0.74778408 904:0.014029434 905:-0.028521815 906:-0.16116343 907:-0.16343185 908:0.18015815 909:-0.2116012 910:-0.085122086 912:0.24836968 913:0.03441117 914:0.03441117 915:0.057500642 916:-0.21229878 917:0.091096297 918:0.17515872 919:0.057500642 920:-0.048472852 921:-0.024236426 922:-0.024236426 923:0.10244707 924:-0.15997829 925:-0.024236426 926:-0.041273899 927:-0.043885887 928:-0.024236426 929:-0.024236426 930:-0.0023755773 931:0.04624917 932:-0.024236426 933:-0.024236426 934:-0.024236426 935:-0.066750966 936:0.077478692 937:-0.32232329 938:-0.024236426 939:-0.024236426 940:-0.024236426 941:-0.10394272 942:-0.024236426 943:-0.024236426 944:-0.024236426 945:-0.024688903 949:0.17837301 950:0.00082420796 951:0.13026141 952:0.13164905 953:-0.13021049 954:-0.0090145934 955:0.08423014 956:0.028833576 957:0.14703751 958:-0.061062571 959:0.032711737 960:0.056387074 961:0.14703751 962:0.11972962 963:0.21059005 964:0.14703751 965:0.13250501 966:0.04782569 967:0.26818556 968:-0.066151075 969:-0.064963281 970:-0.064963281 971:0.073444024 972:-0.064963281 973:-0.050408438 974:-0.38263232 975:0.10559904 976:0.010791208 977:0.2520712 981:-0.057933789 982:0.28185424 983:-0.24302657 984:0.37437725 985:0.016239243 986:-0.12148152 987:0.028768439 988:-0.12779555 989:-0.156556 990:-0.22800426 991:-0.306117 992:-0.12767284 993:0.20001486 994:-0.16231613 995:0.0388574 996:0.15427524 997:0.088937551 998:-0.22874065 999:0.066622555 1000:0.066622555 1001:0.066622555 1002:0.066622555 1003:0.066622555 1004:0.14163822 1005:0.097903401 1006:0.14468284 1008:-0.0099301767 1009:0.49438673 1010:-0.61304009 1011:0.30839863 1012:0.025549237 1013:-0.016399149 1014:0.22916724 1015:0.029612776 1016:0.0012372149 1017:-0.055111185 1018:-0.06472145 1019:-0.062711567 1020:-0.096810929 1021:-0.12158567 1022:0.11987762 1023:0.095954388 1024:0.20233837 1025:0.2144842 1026:0.13430031 1027:0.00043671593 1028:0.31724912 1029:-0.034652859 1030:-0.028129958 1031:-0.14149083 1032:-0.14149083 1033:-0.14531402 1034:-0.12958722 1035:0.04140833 1036:-0.12921338 1037:0.222363 1038:0.10556189 1039:-0.26565474 1040:0.19640496 1041:-0.034854148 1042:0.37656391 1043:0.26035115 1044:0.027756123 1045:0.02787504 1046:-0.21778336 1047:0.079250231 1048:-0.082497664 1049:-0.19463013 1050:0.21343361 1051:0.045008149 1052:0.35913533 1053:-0.065183803 1054:-0.22510637 1055:0.15536407 1056:0.045008149 1057:-0.038034007 1058:0.045008149 1059:0.38174844 1060:0.045008149 1061:-0.12868129 1062:0.045008149 1063:0.37056491 1064:0.098037347 1065:0.3658832 1066:0.059646722 1067:0.3882319 1068:0.095930733 1069:0.26483828 1070:-0.19532944 1071:-0.067325264 1072:-0.067325264 1073:-0.044882879 1074:0.039522573 1075:-0.029734051 1076:-0.067179509 1077:-0.017788183 1078:0.025525326 1079:-0.038034149 1080:-0.067832723 1081:0.2041675 1082:0.28970373 1083:-0.045350049 1084:0.011753489 1085:-0.0056682546 1086:-0.031694684 1087:-0.13354164 1088:0.11476212 1089:0.18259673 1090:-0.16317692 1091:0.0073547028 1092:-0.40576717 1093:-0.15845706 1094:0.21368058 1097:0.13085778 1098:0.060887486 1099:-0.064652331 1100:0.16878501 1101:-0.21557474 1102:0.36220235 1103:-0.00046786835 1104:-0.0028733984 1105:0.060887486 1106:0.10951678 1107:0.060887486 1108:0.088915005 1109:0.20898704 1110:0.16395478 1111:0.54752898 1112:-0.12285703 1113:0.0016890055 1114:-0.022685913 1115:-0.12748639 1116:0.14792362 1117:-0.14068726 1118:-0.006855885 1119:-0.006855885 1120:0.00073510996 1121:-0.006855885 1122:0.062249012 1123:-0.094107307 1124:0.41769612 1125:0.48290771 1126:-0.006855885 1127:-0.006855885 1128:-0.006855885 1129:0.39259765 1130:-0.05826313 1131:0.0072873794 1132:-0.064102076 1133:-0.1596241 1134:-0.09475702 1135:-0.070782773 1136:-0.25048459 1137:-0.13537265 1138:-0.13537265 1139:0.12675421 1140:-0.068068184 1141:-0.13537265 1142:-0.079026639 1143:-0.13537265 1144:0.11427645 1145:0.009962325 1146:-0.13537265 1147:-0.13537265 1148:-0.075510003 1149:-0.11685346 1150:-0.17725503 1151:-0.075510003 1152:-0.075510003 1153:0.024107927 1154:-0.11712074 1155:0.055414341 1156:-0.11841993 1157:-0.25309658 1158:-0.25035039 1159:-0.046927687 1160:-0.046927687 1161:-0.15014054 1162:-0.046927687 1163:0.3658199 1164:0.27982822 1165:0.27982822 1166:0.080597006 1167:0.23257682 1168:0.05019448 1169:-0.24115163 1170:0.32168198 1171:0.054004662 1172:0.36039206 1173:0.2316298 1174:0.29934913 1175:0.2421249 1176:0.012142785 1177:-0.21799098 1178:-0.016264617 1179:-0.0055260481 1180:-0.17163077 1181:0.085533023 1182:0.085533023 1183:-0.25492325 1184:0.085533023 1185:-0.098258607 1186:0.13907787 1187:-0.27360371 1188:-0.058911063 1189:-0.058911063 1190:-0.058911063 1191:-0.21045664 1192:-0.12742124 1193:-0.23551258 1194:0.16750017 1195:0.16528898 1196:0.13721068 1197:-0.083484307 1198:0.049686052 1199:0.0037127601 1200:0.34497046 1201:0.22820416 1202:0.16372758 1203:0.13721068 1204:-0.10706154 1205:-0.099650837 1207:-0.11953817 1209:-0.0032941953 1211:-0.22579344 1212:-0.023024842 1213:-0.0080823852 1214:0.013179177 1215:0.00091054681 1217:0.049752444 1221:0.49983495 1222:-0.19109489 1223:0.11836884 1224:0.0014041761 1225:0.0014041761 1226:0.0014041761 1227:0.0014041761 1228:0.024698192 1229:0.11554378 1230:0.1436954 1231:0.24021286 1232:0.0072086444 1233:0.0072086444 1234:0.088479564 1235:-0.085955337 1236:0.39675322 1237:0.0366957 1238:-0.0025800881 1239:-0.10936456 1240:0.0072086444 1241:0.0072086444 1242:0.0072086444 1243:-0.24490455 1244:-0.020093227 1245:0.0072086444 1246:0.0072086444 1247:0.42563063 1248:0.05308773 1249:0.18693992 1250:0.2499432 1251:-0.068002537 1252:0.19021469 1253:-0.16713628 1254:0.12740512 1255:-0.2508513 1256:-0.39148363 1257:0.080632612 1259:-0.17094061 1260:-0.25290579 1261:-0.20880958 1262:0.076817229 1263:-0.17450581 1264:-0.051737599 1265:0.17403094 1266:-0.10761002 1267:-0.083920002 1268:0.22158366 1269:0.039549705 1270:0.27674001 1271:0.11650011 1272:-0.37165862 1273:-0.31997257 1274:-0.049616564 1275:0.019266866 1276:0.2791554 1277:-0.059940342 1278:0.062837191 1279:-0.035332955 1280:-0.15675193 1281:0.14605176 1283:-0.077046484 1284:-0.0043381266 1285:-0.05534799 1286:0.004483406 1287:-0.054558568 1288:-0.05534799 1289:-0.037728619 1290:0.054771058 1291:0.071662754 1292:-0.05534799 1293:0.018185714 1294:-0.05534799 1295:-0.0029683197 1296:-0.068557531 1297:-0.09592399 1298:-0.05534799 1299:0.050263386 1300:0.11007582 1301:-0.089306533 1302:-0.022484247 1303:-0.05534799 1304:-0.010505969 1305:-0.13685296 1306:-0.33955869 1307:-0.050741911 1308:-0.27853629 1309:0.16707431 1310:0.05908354 1311:-0.043183755 1312:-0.2264121 1313:-0.1125052 1314:0.045916855 1315:0.21279109 1316:-0.23987649 1317:0.14603207 1318:-0.34622651 1319:-0.014926434 1320:-0.055866547 1321:0.15600502 1322:-0.24677202 1323:0.49489683 1324:0.024668865 1325:-0.32807639 1326:-0.037459008 1327:-0.13222158 1328:-0.090436354 1329:-0.039114054 1330:-0.092106476 1331:0.46439856 1332:-0.1717713 1333:-0.23343712 1334:0.045947138 1335:-0.1459768 1336:-0.042630021 1337:0.27763346 1338:0.11219915 1339:-0.042630021 1340:-0.090806149 1341:0.07253217 1342:-0.1937259 1343:0.02564274 1344:-0.091536209 1345:0.39073172 1346:0.044768639 1347:-0.10877534 1348:0.20072088 1349:-0.22058661 1350:-0.20565304 1351:-0.0099116853 1352:-0.0030071042 1353:0.022705564 1354:0.01327641 1355:0.19375551 1356:0.20238276 1357:-0.076815434 1358:0.050409123 1359:-0.1281167 1360:0.099651106 1361:-0.51706344 1362:0.074880742 1363:0.053644925 1364:-0.070433512 1365:0.076266646 1366:0.076266646 1367:0.076266646 1368:0.34558284 1369:0.35367712 1370:0.23603739 1371:0.10187175 1372:0.10187175 1373:0.037458017 1374:0.17997773 1375:0.014349164 1376:-0.00021722271 1377:-0.00021722271 1378:-0.06998159 1379:0.057987738 1381:0.17008662 1382:0.027465088 1383:0.31833154 1384:-0.044559602 1385:0.055475775 1386:0.036938552 1387:0.059904307 1388:0.046608005 1389:-0.028705789 1390:0.013371033 1391:0.013371033 1392:-0.069015794 1393:-0.069015794 1394:0.039555009 1395:0.036227204 1396:-0.051242191 1397:-0.011426538 1398:0.039555009 1399:0.15190324 1400:0.0069168429 1401:0.055675186 1402:0.21790518 1403:-0.05453844 1404:0.090431176 1405:0.092825644 1406:0.14857773 1407:-0.031340163 1408:0.11473705 1409:0.076108515 1410:0.16823031 1411:0.030175684 1412:0.16936192 1413:0.14736164 1414:0.05197981 1415:-0.34261888 1416:-0.036388379 1417:-0.036388379 1418:-0.036388379 1419:-0.036388379 1420:0.21946523 1421:-0.22898291 1422:-0.0056601684 1423:-0.026540631 1424:0.10002409 1425:-0.036388379 1426:-0.036388379 1427:-0.16522056 1428:-0.12645204 1429:0.028705785 1430:-0.036388379 1431:-0.036388379 1432:0.1160972 1433:0.1160972 1434:0.042875644 1435:0.033780396 1436:0.37267345 1437:-0.099705115 1438:-0.25222689 1439:0.1160972 1440:0.073027663 1441:-0.28974846 1442:-0.11920392 1444:0.22202204 1445:0.07202822 1446:0.051682945 1447:0.14964831 1449:-0.41638723 1450:-0.3111895 1451:0.061346248 1452:0.5205043 1453:-0.050798375 1454:0.0059920605 1455:0.10571787 1456:-0.011807217 1457:-0.053376291 1458:-0.011807217 1459:0.041199595 1460:0.25707662 1461:-0.011807217 1462:-0.02603443 1463:-0.26734906 1464:0.10187273 1465:0.072337903 1466:-0.022677334 1467:0.10224967 1468:0.16210929 1469:-0.064711258 1470:0.071459234 1471:-0.037137549 1472:-0.037137549 1473:-0.039926987 1474:-0.037137549 1475:-0.11256003 1476:-0.049651571 1477:0.25326049 1478:0.0015242317 1479:-0.088095389 1480:0.056984156 1481:0.31402737 1482:-0.11315269 1483:0.057796679 1484:0.18408573 1485:0.030257998 1486:-0.14998209 1487:-0.28544486 1488:-0.02990137 1489:0.042741757 1490:-0.10168626 1491:0.072516643 1492:-0.12841414 1493:0.10212035 1494:0.011548129 1495:-0.0029419761 1496:0.10245048 1497:0.04937442 1498:-0.20036589 1499:-0.11381467 1500:-0.24454069 1501:0.14850736 1502:0.0031938711 1503:-0.1904382 1504:-0.0026120816 1505:-0.065124147 1506:-0.32004759 1507:-0.13426583 1508:0.099961877 1509:0.041469365 1510:-0.1823439 1511:-0.22734784 1512:-0.190106 1513:0.070935361 1514:-0.0031539472 1515:0.031189822 1516:0.045278605 1517:0.045278605 1518:0.04569798 1519:0.34679928 1520:0.036100686 1521:0.077183954 1522:0.21336284 1523:0.070404455 1524:0.07272622 1525:0.21336284 1526:-0.16392411 1527:-0.13833387 1528:-0.13833387 1529:-0.13833387 1530:0.094734475 1531:-0.065805793 1532:0.033799294 1533:0.065332547 1534:-0.63548064 1535:-0.030299241 1536:0.04421474 1537:0.26388139 1538:-0.054394923 1539:-0.18509139 1540:0.0099432394 1541:0.0099432394 1542:0.0099432394 1543:0.024080925 1544:-0.068775088 1545:0.12597293 1546:-0.071703129 1547:-0.071703129 1548:-0.071703129 1549:-0.092246599 1550:-0.21753037 1551:-0.092246599 1552:-0.092246599 1553:0.20272037 1554:-0.11603058 1555:-0.004651811 1556:1.0742497 1557:-0.34385481 1558:0.1094768 1559:0.2079064 1560:0.066260427 1561:-0.21120369 1562:0.037126031 1563:0.084125213 1564:0.18892606 1565:-0.12691748 1566:0.062321037 1567:0.062321037 1568:0.0084983818 1569:0.35069713 1570:0.062321037 1571:-0.085029803 1572:-0.14995527 1573:0.24034292 1574:0.13289784 1575:0.52841043 1576:-0.179827 1578:-0.06663432 1582:0.091852427 1583:-0.098342419 1584:-0.19051188 1585:-0.34492341 1586:0.0063709714 1587:0.0063709714 1588:0.0063709714 1589:0.0058349464 1590:0.12703274 1591:0.0063709714 1592:-0.01241829 1593:0.12344434 1594:0.0063709714 1595:-0.042832293 1596:0.0063709714 1597:-0.17901394 1598:-0.060920853 1599:0.02949594 1600:0.0063709714 1601:0.0063709714 1602:0.19057004 1603:-0.33645174 1604:-0.11860391 1605:0.13862351 1606:-0.048624881 1607:-0.17755534 1608:0.071968213 1609:0.050338425 1610:0.038768247 1611:-0.10989106 1612:-0.13791057 1613:0.14515474 1614:0.39919388 1615:0.17097257 1616:-0.018936951 1617:0.18886764 1618:-0.14152654 1619:0.1716729 1620:-0.07636629 1621:0.22893354 1622:-0.051624183 1623:-0.10629141 1624:-0.03230099 1625:0.21353188 1626:0.14186741 1627:-0.10629141 1628:-0.41599849 1629:0.17215927 1630:0.10444203 1631:0.39671609 1632:-0.015084293 1633:-0.10492764 1634:0.24448654 1635:0.15502594 1636:-0.028638881 1637:-0.020078825 1638:0.081701279 1639:-0.028866442 1640:-0.16336298 1641:-0.0036934318 1642:0.0094566988 1643:-0.12324081 1644:-0.08123374 1645:-0.016124075 1646:-0.08123374 1647:0.074394085 1648:-0.08123374 1649:-0.026034022 1650:0.072536051 1651:0.38528544 1652:-0.021811832 1653:-0.16336298 1654:-0.077330269 1655:0.10905482 1656:-0.16336298 1657:0.15702085 1658:-0.013466417 1659:-0.045980819 1660:-0.013466417 1661:-0.035159558 1662:-0.013466417 1663:-0.10500046 1664:-0.013466417 1665:-0.21615666 1666:0.31997821 1668:0.14984693 1669:-0.060055181 1670:-0.20997395 1671:0.13079885 1672:0.063034043 1673:-0.059843261 1674:-0.19296382 1675:0.18633988 1676:0.30733159 1677:0.079295896 1678:-0.12303567 1679:-0.12303567 1680:0.012601898 1681:-0.11268444 1682:-0.12303567 1683:0.15802154 1684:-0.12303567 1685:0.1875212 1686:-0.12303567 1687:-0.080968246 1688:0.16277315 1689:0.18648441 1690:-0.12303567 1691:-0.12303567 1692:-0.093914978 1693:-0.12303567 1695:0.68787771 1696:-0.15781862 1697:-0.23069564 1698:-0.15781862 1699:-0.15781862 1700:-0.14454176 1701:-0.21950397 1702:-0.022295594 1703:0.20891657 1704:0.19620243 1705:-0.12681119 1706:0.20296882 1707:0.089956626 1708:0.089956626 1709:0.089956626 1710:0.087531194 1711:0.089956626 1712:0.173004 1713:-0.094795436 1714:0.21851562 1715:0.33633089 1716:-0.082948387 1717:0.059997402 1718:0.22496217 1719:0.22496217 1720:-0.24688211 1721:-0.69984126 1722:0.41949254 1723:0.024790896 1724:-0.23942102 1725:-0.067676611 1726:-0.094588086 1727:-0.10194407 1728:-0.10194407 1729:-0.079976492 1730:0.049547996 1731:-0.037252791 1732:0.10107411 1733:-0.12774456 1734:-0.010482204 1735:-0.045303255 1737:0.020226963 1738:0.040029094 1739:-0.041366592 1740:0.040029094 1741:0.23202206 1742:-0.034516137 1743:0.040029094 1744:0.021289853 1745:0.040029094 1746:0.040029094 1747:0.016236518 1748:0.057001259 1749:0.040029094 1750:-0.14510716 1751:-0.0027285304 1752:-0.068516523 1753:-0.090144508 1754:-0.12480466 1755:-0.090144508 1756:0.34290484 1757:-0.015172494 1758:-0.18395114 1759:-0.033055656 1760:-0.028238291 1761:-0.033055656 1762:-0.033055656 1763:-0.14655009 1764:-0.032650255 1765:0.028696589 1766:-0.11281865 1767:0.15516794 1768:-0.012336673 1769:0.2643427 1770:-0.017984146 1771:0.065520145 1772:-0.01132105 1773:0.06781932 1774:-0.076491371 1775:0.25209263 1776:-0.2759178 1777:-0.18853341 1778:0.40322542 1779:-0.22531965 1780:-0.058132745 1781:0.072005726 1782:-0.037892304 1783:-0.056162857 1784:0.17257266 1785:-0.16334198 1786:-0.55297816 1787:-0.053083632 1788:0.31861332 1789:-0.27650058 1790:0.29889661 1791:-0.2111069 1792:0.1318474 1793:0.022646816 1794:0.00078527868 1795:0.00078527868 1796:-0.10321385 1797:-0.14247088 1798:-0.3086043 1799:-0.053744286 1800:-0.3799032 1801:-0.3799032 1802:-0.24879844 1803:-0.023593387 1804:-0.20827083 1805:-0.021487389 1806:-0.047099959 1807:6.1414707e-05 1808:0.095164783 1809:-0.078537352 1810:-0.066506356 1811:0.085480154 1812:0.23928864 1813:-0.13906807 1814:0.074275658 1815:0.13821301 1816:0.0048166877 1817:0.2204036 1818:-0.11275344 1819:0.015819972 1820:0.12072539 1821:0.10283879 1822:0.17772637 1823:0.48032516 1824:-0.064718544 1825:-0.23573233 1826:0.0047112303 1827:0.25329792 1828:-0.036230147 1829:0.19138956 1830:-0.13993923 1831:-0.038864847 1832:-0.13214496 1833:0.088348731 1834:0.088348731 1835:0.088348731 1836:0.046438143 1837:-0.0037719838 1838:0.20996279 1839:0.088348731 1840:0.067365021 1841:0.049734432 1842:0.056826182 1843:0.088348731 1844:0.11298364 1845:0.057536587 1846:0.088348731 1847:0.18286347 1848:-0.0020613521 1849:0.1071595 1851:-0.05765852 1852:0.23324724 1853:-0.050412755 1854:-0.026788501 1855:-0.17937818 1856:-0.026788501 1857:-0.026788501 1858:0.08896035 1859:-0.026788501 1860:-0.32411838 1861:-0.5548619 1862:-0.10540902 1863:-0.27609622 1864:-0.10540902 1865:-0.020635581 1866:0.026843628 1867:-0.0916977 1868:0.0091574667 1869:-0.039044145 1870:-0.1752179 1871:0.12181546 1872:-0.20538506 1873:-0.01548365 1874:0.11156745 1875:0.051450573 1876:0.12181546 1877:0.12181546 1878:0.0024069918 1879:0.039183993 1880:0.091415346 1881:0.12606448 1882:0.20935512 1883:-0.044208776 1884:0.12304869 1885:-0.022825789 1886:-0.15415247 1887:-0.15415247 1888:0.072286189 1889:0.37630641 1890:0.58574104 1891:-0.1845223 1892:-0.16127555 1893:0.0053073294 1894:-0.15415247 1895:-0.19166493 1896:-0.1407115 1897:0.017618664 1898:-0.03807158 1899:0.01667227 1900:0.49229181 1901:0.30990621 1902:0.11070275 1903:0.10464845 1904:0.21337217 1905:0.31000799 1906:0.024024261 1907:0.024024261 1908:-0.16842315 1909:0.022003125 1910:0.024024261 1911:-0.091824457 1912:0.22845787 1913:0.024024261 1914:0.027670894 1915:0.050816111 1916:0.024024261 1917:0.12417916 1918:0.013613017 1919:0.30613849 1920:-0.12881036 1921:-0.94080186 1922:0.48308209 1923:-0.50111109 1924:0.076161325 1925:-0.076063834 1926:0.1251267 1927:0.094191886 1928:-0.11394255 1929:-0.091264568 1930:-0.14655505 1931:0.10561854 1932:-0.15920557 1933:-0.069363885 1934:-0.025199996 1935:0.060172424 1936:0.10062218 1939:0.068356715 1940:0.15066917 1941:0.0288831 1942:-0.69423705 1943:0.12213331 1944:-0.013348239 1945:0.026978303 1946:0.055181801 1947:-0.34865555 1948:0.34020892 1949:0.18372263 1950:-0.13898459 1951:0.20692188 1952:-0.050990816 1953:-0.088078208 1954:-0.18672742 1955:-0.019994799 1956:-0.050990816 1957:-0.019864557 1958:-0.002216537 1959:-0.11419635 1960:-0.11419635 1961:0.010279511 1962:-0.23487726 1963:-0.11419635 1964:-0.08332146 1965:-0.1179973 1966:-0.026259724 1967:0.016345449 1968:0.028657999 1969:0.085814521 1970:-0.066642478 1971:0.1978213 1972:0.26818046 1973:-0.12428318 1974:-0.12428318 1975:-0.077614479 1976:-0.3731198 1977:0.57258302 1978:-0.215973 1979:0.14650978 1980:0.53674161 1981:-0.13448773 1982:-0.17580801 1983:0.09257748 1984:-0.021588521 1985:-0.021588521 1986:0.14137305 1987:0.14137305 1988:0.11913556 1989:0.11913556 1990:-0.013079752 1991:-0.10690992 1992:0.27150187 1993:0.029840337 1994:-0.015784591 1995:0.20479892 1996:-0.061485082 1997:-0.05409706 1998:-0.061485082 1999:0.070050992 2000:-0.18640138 2001:-0.061485082 2002:-0.16482587 2003:-0.050932236 2004:-0.15145887 2005:-0.053872876 2006:-0.011845362 2007:-0.06598556 2008:-0.47230205 2009:0.14492847 2010:-0.41752633 2011:-0.14480545 2012:-0.052199896 2013:0.18540181 2014:-0.23953037 2015:-0.0091306763 2016:-0.099142551 2017:-0.012755971 2018:0.091408737 2019:0.17351022 2020:-0.0091306763 2021:-0.0091306763 2022:-0.94005829 2023:0.31219921 2024:0.17489286 2025:0.17489286 2026:0.11992501 2027:-0.13599989 2028:-0.1516906 2029:0.084847033 2030:0.15099144 2031:0.12586544 2032:0.13183814 2033:-0.0083699273 2034:0.064181358 2035:0.052542951 2036:-0.0083699273 2037:0.077541813 2038:-0.1091421 2039:0.048775852 2040:0.11006211 2041:0.11006211 2042:-0.12628464 2043:0.28341222 2044:-0.12628464 2045:-0.12628464 2046:0.42696166 2047:0.27351114 2048:-0.14019424 2049:-0.022061177 2050:-0.13972771 2051:-0.026245009 2052:-0.13972771 2053:0.10677686 2054:-0.066162594 2055:-0.066559516 2056:0.1535079 2057:0.032796569 2058:0.011421304 2059:0.072237298 2060:-0.048583403 2061:0.39322549 2062:0.1217256 2063:0.18015054 2064:0.18015054 2065:0.21011548 2066:-0.34863305 2067:0.17411084 2068:0.081110016 2069:-0.10081713 2070:-0.13487017 2071:-0.095639884 2072:-0.083145455 2073:0.027177876 2074:0.14661655 2075:0.37878272 2076:0.2779187 2077:0.027177876 2078:0.027177876 2079:0.027177876 2080:0.0191452 2081:0.2911078 2082:0.19147696 2083:-0.14339173 2084:0.16320626 2085:0.014569656 2086:0.084640883 2087:0.37669674 2088:0.038313445 2091:-0.065508254 2092:-0.012869759 2093:-0.30487245 2094:0.3074095 2095:-0.052828249 2096:0.19575366 2098:-0.014667177 2099:0.033935305 2100:-0.098573327 2101:0.048071381 2102:0.1481688 2103:-0.066044182 2104:-0.098451562 2105:0.25917831 2106:-0.22138627 2107:0.050014488 2108:0.056925867 2109:-0.21808289 2110:0.082965031 2111:0.12356684 2112:0.23342927 2113:0.015783293 2114:-0.20732991 2115:0.042509165 2116:0.026803816 2117:-0.032300092 2118:-0.0016130281 2119:0.15152982 2120:-0.076253489 2121:0.0031987347 2122:0.070041634 2123:0.12299059 2124:-0.076253489 2125:-0.16258709 2126:-0.20348367 2127:-0.13729626 2128:0.15169258 2129:-0.20348367 2130:0.19974309 2131:0.32656875 2132:0.111792 2133:0.32656875 2134:0.28876412 2135:0.068143547 2136:0.048220038 2137:0.25714406 2138:0.088379867 2139:0.062364757 2140:-0.047035567 2141:0.18998772 2142:-0.06989044 2143:-0.019933123 2144:0.11384122 2145:-0.046857767 2146:-0.047035567 2147:-0.047035567 2148:-0.047035567 2149:0.45488757 2150:-0.068867654 2151:0.13041399 2152:-0.047035567 2153:-0.098413207 2154:-0.093912028 2155:-0.037939716 2156:0.33147788 2157:0.034365397 2158:0.04770745 2159:0.31523466 2160:0.35902396 2161:0.22487102 2162:0.57847303 2163:0.1250027 2164:0.26667365 2165:0.04588699 2166:0.04588699 2167:0.04588699 2168:-0.22830489 2169:0.13208313 2170:0.082453892 2171:-0.14900512 2173:-0.2556605 2174:0.10214926 2175:-0.19799694 2176:0.22785136 2177:-0.26859003 2179:-0.080523662 2180:0.046275206 2181:0.22054608 2182:0.046275206 2183:0.046275206 2184:-0.14030348 2185:-0.078144625 2186:0.02521948 2187:0.071195751 2188:0.071195751 2189:0.071195751 2190:-0.011728561 2191:-0.10332146 2192:0.16287185 2193:0.052422609 2194:0.071195751 2195:-0.0089164777 2196:-0.0078247441 2197:-0.0078247441 2198:-0.082874998 2199:0.13292216 2200:-0.11958394 2201:-0.075903021 2202:-0.073212795 2203:0.012302116 2204:-0.082874998 2205:-0.21268046 2206:-0.0015527762 2207:0.0858244 2208:-0.058714531 2209:-0.13508952 2210:-0.10869265 2211:-0.11825536 2212:0.10093736 2213:0.034719318 2214:0.01308729 2215:-0.22216386 2216:-0.11825536 2217:-0.30859476 2218:0.19510637 2219:-0.18819833 2220:-0.13417943 2221:0.079027779 2222:0.00028223646 2223:0.00014111823 2224:-0.37914693 2225:0.052605908 2226:0.052605908 2227:0.013209815 2228:0.052605908 2229:0.059272114 2230:0.048180252 2231:0.052605908 2232:0.052605908 2233:0.14064085 2234:0.052605908 2235:-0.072419338 2236:-0.11689585 2237:0.17350125 2238:0.17350125 2239:0.43336651 2240:0.17350125 2241:0.08454439 2242:-0.1755054 2243:-0.1755054 2244:0.099767469 2245:-0.13619399 2246:-0.26962572 2247:-0.098663025 2248:-0.098663025 2249:-0.098663025 2250:-0.060911607 2251:-0.16309796 2252:0.056638557 2253:-0.0077828057 2254:0.012484271 2255:0.15937699 2256:0.082016282 2257:-0.11885155 2258:-0.051133979 2259:0.19424249 2260:-0.17512733 2261:-0.14916255 2262:0.093930833 2263:0.093930833 2264:0.020471105 2265:0.14069124 2266:0.14069124 2268:0.079179443 2269:-0.096496902 2270:-0.012277098 2271:-0.2387394 2273:-0.0059303492 2274:0.028456913 2275:-0.058918383 2276:-0.058918383 2277:-0.058918383 2278:-0.058918383 2279:-0.058918383 2280:-0.40198809 2283:0.13695636 2284:0.18207483 2285:-0.1240118 2286:-0.1224438 2287:0.021395026 2288:-0.22767769 2289:0.13998207 2290:-0.14803517 2291:-0.095503822 2292:0.086595438 2293:-0.11630805 2294:-0.095503822 2295:0.01672888 2296:-0.025692061 2297:-0.025692061 2298:-0.025692061 2299:-0.13949253 2300:0.13020694 2301:-0.048059918 2302:0.1175089 2303:0.086875588 2304:-0.015610456 2305:0.1175089 2306:0.24585146 2307:-0.072736233 2308:-0.24900077 2309:0.19016103 2310:0.24438503 2311:0.29772151 2312:-0.051722955 2314:0.46740785 2315:0.22558866 2316:-0.13629135 2317:-0.61222619 2318:0.23835205 2319:-0.087314144 2320:0.20190549 2321:0.15265971 2322:0.21563832 2324:-0.07979548 2325:0.07478366 2326:0.11547357 2327:0.129235 2328:-0.0097378502 2329:0.098780192 2330:0.098780192 2331:-0.04207911 2332:0.098780192 2333:0.22569869 2334:0.19849099 2335:0.083534159 2336:0.14363745 2337:-0.18539505 2338:-0.089838088 2339:-0.055835035 2340:0.21318088 2341:-0.39647168 2342:0.26973554 2343:-0.018968863 2344:-0.10471416 2345:0.027153261 2346:-0.11955813 2347:-0.25884825 2348:-0.18626507 2349:0.30996153 2350:-0.18505675 2351:-0.12741461 2352:0.047207572 2353:0.16879281 2354:-0.083095752 2355:0.074678101 2356:0.0013710378 2357:-0.070994794 2358:-0.1445563 2359:-0.1445563 2360:-0.10038657 2361:0.14255078 2362:0.45868048 2363:0.14255078 2364:0.080931969 2365:0.073342942 2366:0.13055807 2367:-0.066266976 2368:-0.1974275 2369:0.027923686 2370:0.036423758 2371:0.03335904 2372:0.073788501 2373:0.04378308 2374:0.056820799 2375:0.124667 2376:0.019295402 2377:0.036423758 2378:0.2817941 2379:-0.020988232 2380:0.072226763 2381:-0.23132956 2382:-0.10645081 2383:-0.020988232 2384:-0.020988232 2385:0.32040957 2386:0.18843186 2387:-0.020988232 2388:-0.027516607 2389:0.046666086 2390:0.13168541 2391:0.16321725 2392:0.07842645 2393:0.26770249 2394:-0.062985651 2395:0.088693812 2396:0.23279303 2397:-0.036258221 2398:-0.039588906 2399:-0.050770339 2400:0.16616072 2401:0.27726376 2402:0.016901728 2403:0.160183 2404:0.098061569 2405:-0.039588906 2406:-0.039588906 2407:0.017371625 2410:0.095890641 2411:0.34295687 2412:0.058316901 2413:0.063674293 2414:0.063674293 2415:0.11250013 2416:0.377958 2417:0.063674293 2418:0.11834973 2419:0.099650286 2420:0.063674293 2421:0.11543427 2422:0.030869246 2423:0.030869246 2424:-0.15656939 2425:0.095879905 2426:0.073385715 2427:-0.0020405874 2428:0.16217521 2429:0.090077244 2430:0.048375931 2431:0.030869246 2432:0.028272226 2433:0.030869246 2434:0.40247339 2435:0.030869246 2436:-0.11980139 2437:0.030869246 2438:0.33751211 2439:0.02967268 2440:0.1538748 2441:-0.052374441 2442:0.07969141 2443:-0.11324142 2444:-0.1219072 2445:0.32372597 2446:0.2443098 2447:0.62567419 2448:0.1197753 2449:-0.20037223 2450:-0.074665442 2451:0.10133911 2452:-0.26413542 2453:-0.26741949 2454:-0.26741949 2455:-0.14032172 2456:-0.27755031 2457:0.095303841 2458:0.01435867 2459:0.040765744 2460:-0.062310588 2461:0.043912895 2462:-0.076108322 2463:0.060334947 2464:-0.11218283 2465:0.11695473 2466:0.46687174 2467:0.017463775 2468:0.2759853 2469:0.040765744 2470:0.040765744 2471:0.016037952 2473:0.085382856 2474:0.12654015 2475:-0.093453214 2476:-0.060884543 2477:-0.041266866 2478:-0.053568203 2479:-0.050968859 2481:0.11955833 2482:0.16502644 2483:0.093270548 2484:-0.037872311 2486:0.025047936 2487:0.08653871 2489:0.15477899 2490:-0.12619542 2491:-0.29203153 2492:-0.29203153 2493:0.13956182 2494:0.017481267 2495:0.01908716 2496:-0.048547514 2497:0.034578837 2498:0.22504297 2499:0.067056455 2500:-0.023588145 2501:-0.05316725 2502:0.097138606 2503:0.12506467 2504:-0.23783484 2505:0.22573371 2506:0.153661 2507:-0.096287854 2508:-0.036903583 2509:-0.17070729 2510:-0.076362804 2511:0.034287114 2512:0.17440379 2513:-0.097832441 2514:-0.1068192 2515:-0.19425386 2516:-0.097832441 2517:0.70513594 2518:0.090006344 2519:-0.14449811 2520:-0.14449811 2521:-0.23779994 2522:-0.012758847 2523:-0.10625895 2524:0.11136442 2525:-0.04152419 2526:-0.035487015 2527:-0.035476483 2528:-0.035476483 2529:-0.035476483 2530:0.12076333 2531:0.049329225 2532:0.12076333 2533:-0.10370278 2534:-0.16152847 2535:-0.098130822 2536:-0.10370278 2537:-0.08967372 2538:-0.05269701 2539:-0.0076536303 2540:0.33882889 2541:0.0024793658 2542:-0.080066331 2543:-0.10890616 2544:0.026494592 2545:0.040930621 2546:-0.0076536303 2547:0.077623479 2548:0.079503439 2549:-0.10717832 2550:-0.0076536303 2553:0.14942482 2554:0.11296238 2555:0.030834321 2556:0.28325084 2558:0.06857349 2559:0.13084236 2560:0.13084236 2561:-0.11385982 2562:-0.1243184 2563:-0.32881379 2564:-0.1243184 2565:-0.1243184 2566:-0.1060494 2567:-0.12366185 2568:-0.086366281 2569:-0.046300735 2570:-0.49716634 2571:0.33223829 2572:-0.15257318 2573:-0.13783459 2574:0.25236362 2575:0.22600156 2576:0.056542318 2577:-0.07641273 2578:-0.018277816 2579:-0.018277816 2580:0.27526769 2581:-0.031926185 2582:-0.14715709 2583:-0.28164834 2584:0.13984273 2585:-0.31552634 2586:0.24045604 2587:0.17942128 2588:0.009514966 2589:0.23513174 2590:0.029851142 2591:0.1680025 2592:-0.22248928 2593:0.19310647 2594:0.22575901 2598:0.096400023 2599:0.20565803 2600:-0.00020100897 2601:-0.0040265955 2602:-0.1254458 2603:0.23126003 2604:0.17948642 2605:-0.061803717 2606:-0.015061357 2607:0.023466496 2608:-0.023321146 2609:-0.11898778 2610:-0.030098075 2611:0.046904542 2612:0.046904542 2613:0.046904542 2614:0.046904542 2615:-0.13658366 2616:-0.094633065 2617:0.046904542 2618:-0.1273912 2619:0.17801021 2620:0.004959886 2621:-0.045180906 2622:0.0057230107 2623:0.041284148 2624:0.20716628 2625:0.24553859 2626:0.24553859 2627:-0.014770376 2628:-0.047774125 2629:-0.020808781 2630:-0.014770376 2631:-0.24210288 2632:-0.014770376 2633:0.06180083 2634:-0.15155473 2635:0.12453248 2636:-0.0055855722 2637:-0.14424305 2638:-0.058077279 2639:-0.058077279 2640:-0.058077279 2641:-0.058077279 2642:-0.01155634 2643:0.091981567 2644:-0.10137416 2645:0.041126318 2646:0.028888481 2647:-0.21300697 2648:-0.15678467 2649:-0.14913166 2650:-0.10739254 2651:0.12653221 2652:0.21668991 2653:-0.022170728 2654:-0.049925622 2655:0.15057264 2656:0.12653221 2657:0.12312435 2658:0.12653221 2659:0.17127745 2660:0.063254379 2661:0.033136174 2662:0.0017148306 2663:-0.0076099052 2664:-0.0076099052 2665:-0.20420468 2666:-0.034811314 2667:0.3193678 2668:-0.15644361 2669:-0.07405597 2670:-0.095276304 2672:-0.26217085 2673:0.12265111 2674:-0.0073383413 2676:-0.16516624 2678:0.075044483 2679:-0.037318125 2680:-0.1099757 2681:-0.15513296 2682:0.21924342 2683:-0.024363616 2684:0.038411085 2685:0.13477476 2686:0.092908293 2687:-0.22984922 2688:0.2776413 2689:0.017522566 2690:0.054590832 2691:0.054590832 2692:-0.11106656 2693:-0.12439929 2694:-0.10030004 2695:-0.026600406 2696:-0.16601719 2697:0.47090116 2698:-0.1982978 2699:-0.14463754 2700:0.25132829 2701:-0.32283777 2702:0.21146159 2703:0.039834172 2704:0.030684114 2705:0.11263285 2706:0.039834172 2707:0.011129678 2708:-0.16185014 2709:0.087867379 2710:-0.23055175 2711:-0.26893172 2712:0.082951076 2713:-0.075544029 2714:-0.096754938 2715:-0.050164964 2716:-0.073859662 2717:-0.1063908 2718:0.15371674 2719:0.16484018 2720:-0.024729263 2721:-0.089955397 2722:0.0503431 2723:0.11621909 2724:-0.089955397 2725:0.20986572 2726:0.062770493 2727:0.30806017 2728:-0.062259246 2729:-0.14002705 2730:-0.14002705 2731:0.21634451 2732:0.051420938 2733:0.12622444 2734:-0.016048739 2735:-0.016048739 2736:0.24974017 2737:-0.41348961 2738:-0.41348961 2739:-0.21315883 2740:-0.14992778 2741:0.071563505 2742:-0.22474454 2743:0.2234149 2744:-0.084333479 2745:-0.049870577 2746:-0.088257633 2747:0.24949457 2749:-0.13763009 2750:0.028864119 2751:0.05824719 2752:0.092647322 2753:0.16840763 2754:-0.36761215 2755:-0.087710746 2756:-0.026071627 2757:-0.21838002 2758:0.45713702 2759:0.23259652 2760:0.14665751 2761:0.24906166 2762:0.28842396 2763:0.11353999 2764:0.30095935 2765:-0.37726495 2766:0.22681198 2767:0.16608308 2768:0.17030849 2769:0.21695384 2770:0.3710885 2771:0.3710885 2772:0.015790619 2773:-0.31367284 2774:0.29438573 2775:0.056979358 2776:0.056979358 2777:0.056979358 2778:-0.24414261 2779:0.0402539 2780:-0.078868546 2781:-0.078868546 2782:0.056672651 2783:-0.078868546 2784:-0.059513226 2785:-0.04780997 2786:-0.14071982 2787:-0.059513226 2790:0.089643531 2791:0.02589104 2792:0.089643531 2793:0.089643531 2794:0.089643531 2795:0.10498189 2796:0.089643531 2797:0.17979805 2798:-0.084895805 2799:0.16355227 2800:0.14355943 2801:0.26210684 2802:0.13789319 2803:0.1808057 2804:0.29657295 2805:0.031219462 2806:0.031219462 2807:-0.043261144 2808:-0.1345523 2809:0.06421417 2810:-0.0045460239 2811:-0.066752277 2812:-0.0080313105 2813:-0.17079371 2814:-0.098538771 2815:0.530312 2816:0.14631397 2817:0.35617128 2818:0.051300459 2819:0.022292417 2822:-0.039584853 2823:-0.10632841 2825:-0.011359558 2826:-0.011359558 2827:-0.19129713 2828:0.29938215 2829:-0.44172299 2830:-0.011359558 2831:-0.093645968 2832:-0.011359558 2833:-0.031625539 2834:-0.011359558 2835:0.017862761 2836:0.24177298 2840:0.05248829 2841:0.28974026 2842:0.17720467 2843:-0.0041194153 2844:0.13120447 2845:-0.22940972 2846:-0.017363917 2847:0.053011924 2848:0.2110022 2849:0.099820942 2850:0.12221804 2851:-0.068810448 2852:-0.080523573 2853:0.18288675 2854:0.086723186 2855:-0.13958295 2856:-0.068810448 2857:0.0035900027 2858:0.22564577 2859:-0.040732257 2860:0.055682842 2861:-0.026271285 2862:-0.090060897 2863:-0.063021496 2864:-0.21418135 2865:-0.010377912 2866:0.12501544 2867:0.24223694 2868:0.25295076 2869:0.090560474 2870:0.051669732 2871:0.035736371 2872:0.090560474 2873:-0.080360048 2874:0.090560474 2875:0.080998383 2876:-0.022184595 2877:0.057309352 2878:0.33094797 2879:0.095329002 2880:0.057309352 2881:0.057309352 2882:0.057309352 2883:0.057309352 2884:0.042865675 2885:0.13348071 2886:0.25229675 2887:0.17589982 2888:0.13408685 2889:0.25101131 2890:0.10042909 2891:0.078511827 2892:0.12824081 2893:-0.18988761 2894:-0.013957295 2895:0.028490702 2896:-0.013957295 2897:-0.013957295 2898:-0.012769847 2899:-0.020993428 2900:0.10849831 2901:0.18063672 2902:0.25395176 2903:0.34357548 2904:-0.074270509 2905:0.21816748 2906:0.24295917 2907:0.30452049 2908:0.26073441 2909:-0.045489404 2910:-0.40525964 2911:-0.088499576 2912:-0.033032648 2914:0.31818429 2915:0.13751729 2916:-0.015733007 2917:-0.016762298 2918:-0.050496012 2919:-0.033268355 2920:-0.015953347 2922:-0.92586648 2923:0.0086601358 2924:-0.047693077 2925:0.23443423 2926:-0.068330631 2927:-0.11761198 2928:-0.019647127 2929:0.089781649 2930:-0.047693077 2931:0.0041096765 2932:-0.14559808 2933:-0.070981309 2934:0.0530308 2935:-0.0054504308 2937:-0.18074119 2939:0.29375407 2940:0.424972 2941:-0.34994465 2943:-0.0023715971 2944:0.10782474 2945:-0.092778333 2946:0.15751415 2947:-0.048071969 2948:0.16805315 2949:0.24756873 2950:0.16805315 2951:0.16805315 2952:-0.32144842 2953:-0.13936193 2954:-0.48732099 2955:0.32707578 2956:-0.13936193 2957:-0.10811552 2958:-0.030618137 2959:-0.11305465 2960:-0.0033017269 2961:-0.13936193 2962:-0.16625354 2963:-0.13936193 2964:-0.18033516 2965:0.15965888 2966:0.15965888 2967:-0.13936193 2968:0.17222941 2969:0.18804976 2970:-0.091403648 2971:-0.023536539 2973:0.14660484 2975:0.02516819 2977:-0.048604082 2978:0.032822393 2979:0.032822393 2980:0.032822393 2981:-0.26967764 2982:-0.0026889013 2983:0.20967141 2984:0.032822393 2985:0.00094654324 2986:-0.5271185 2987:0.089790843 2988:-0.31823468 2989:0.073207006 2990:-0.098395981 2991:0.090166532 2992:0.090166532 2993:-0.047188934 2994:-0.13892205 2995:0.10794044 2996:0.10794044 2997:0.12662475 2998:-0.16155796 2999:0.12877014 3000:-0.038993232 3001:0.13741674 3002:-0.11798994 3003:-0.18437591 3004:0.33425933 3005:-0.18662585 3006:0.22364953 3007:0.16710953 3008:0.18144859 3010:0.0053587165 3012:0.39303812 3013:0.023149636 3015:0.31913614 3016:0.056028191 3017:-0.12014817 3018:0.17344843 3019:-0.023554778 3020:-0.082767218 3021:-0.038387775 3022:-0.13429651 3023:0.27079698 3024:0.17522343 3025:0.17522343 3026:0.047200058 3027:0.097642459 3028:0.21513261 3029:-0.34665021 3030:0.20720525 3031:0.030028598 3032:-0.0023319619 3033:-0.12743957 3035:0.071318157 3036:-0.15963773 3037:0.27989224 3038:0.10400346 3039:0.018819874 3040:-0.19665287 3041:-0.16591495 3042:-0.16591495 3043:0.060758829 3044:0.12835354 3045:0.06106386 3046:-0.066489629 3047:-0.033180568 3048:-0.033244815 3049:0.0017973272 3050:-0.13115487 3051:-0.033244815 3052:-0.044753257 3053:-0.13020773 3054:-0.042716622 3055:-0.0081808986 3056:-0.13342704 3057:-0.11627742 3058:-0.015042445 3059:0.064237684 3060:-0.025023898 3061:-0.017780107 3065:0.064973511 3066:0.064973511 3067:0.064973511 3068:0.38048196 3069:-0.10211977 3070:-0.027979793 3071:-0.00084413285 3072:-0.10389926 3073:0.052129667 3074:-0.26150134 3075:-0.17884086 3076:-0.13941225 3077:0.1643234 3078:0.1015079 3079:0.11774852 3080:0.11774852 3081:-0.055225641 3082:-0.038160663 3083:-0.10385847 3084:-0.13274066 3085:0.32807666 3086:-0.074105322 3087:0.11094189 3088:-0.056416724 3089:-0.13419518 3090:-0.13419518 3091:-0.13419518 3092:-0.13419518 3093:-0.052169554 3094:-0.072299063 3095:-0.25101975 3096:-0.17526099 3097:-0.2364365 3098:-0.27407786 3099:-0.20048693 3102:0.03352458 3104:-0.26733372 3105:0.16970116 3106:0.14013454 3107:0.18528947 3108:-0.41679424 3109:-0.36307883 3110:-0.12195995 3111:0.0089637386 3112:0.0089637386 3113:0.0089637386 3114:0.0089637386 3115:0.1641829 3116:0.0089637386 3117:-0.046001744 3118:0.20943965 3119:-0.064790219 3120:0.0089637386 3121:0.047926236 3122:0.0089637386 3123:0.0089637386 3124:-0.035662867 3125:0.0089637386 3126:0.0089637386 3127:0.002037196 3128:-0.12209751 3129:-0.12209751 3130:-0.12209751 3131:0.041406751 3132:-0.0019241147 3133:0.16977009 3134:-0.056286108 3135:0.28236291 3136:-0.02747909 3137:-0.25218856 3138:-0.042465679 3139:0.17506568 3140:0.13113414 3141:-0.042465679 3142:-0.05875764 3143:-0.065269329 3144:-0.042465679 3145:0.12674126 3146:-0.06317842 3147:-0.094173156 3148:0.091048464 3149:-0.042465679 3150:-0.042465679 3151:-0.061842136 3152:-0.086592734 3153:-0.12908849 3154:-0.12908849 3155:-0.13668986 3156:0.2001536 3157:-0.35507131 3158:-0.046383217 3159:0.33033654 3161:0.15048607 3162:0.22434306 3163:0.025146637 3164:0.22434306 3165:-0.063674442 3166:-0.089010537 3167:0.22434306 3168:-0.06190202 3169:0.035502322 3170:0.10029702 3171:0.11904281 3172:-0.1457244 3173:0.0028751711 3174:-0.002827937 3175:-0.027141182 3176:-0.046657115 3177:-0.033517629 3178:-0.055187955 3179:-0.065456472 3180:-0.065456472 3181:-0.10332189 3182:-0.16880022 3183:0.24855767 3184:0.035852246 3185:0.035852246 3186:0.047418687 3187:0.035852246 3188:0.12926872 3189:-0.16227673 3190:0.056524117 3191:0.175551 3192:0.29561162 3193:0.18459909 3194:0.2713694 3195:0.053263571 3196:-0.2312426 3197:0.4734579 3198:-0.082646802 3199:0.22068457 3200:0.22068457 3201:0.37467933 3202:0.00054366258 3203:0.054915998 3206:0.15299606 3207:0.0070268298 3208:0.034308597 3209:-0.1230594 3210:-0.10670944 3211:0.23148546 3212:-0.15543711 3213:-0.055285521 3214:-0.10533791 3215:0.34225488 3216:-0.10533791 3217:-0.10533791 3218:-0.042723853 3219:-0.10533791 3220:-0.096475907 3221:0.06979049 3222:-0.0085421279 3223:-0.27329934 3224:-0.02854084 3225:0.024380608 3226:0.011531526 3227:0.374547 3228:0.12951662 3229:-0.21476802 3230:-0.085088879 3231:-0.17536537 3232:-0.17536537 3233:-0.17536537 3234:-0.21642792 3235:0.62800902 3236:0.03086048 3237:0.068213075 3238:0.03086048 3239:0.0045414511 3240:-0.020978464 3241:0.10290653 3242:0.13013339 3243:0.19981749 3244:0.098755389 3245:0.11738743 3246:0.056989845 3247:0.09009064 3248:0.15514496 3249:0.1069952 3250:0.079555243 3251:-0.0095890602 3252:-0.0016682111 3253:-0.034765895 3254:-0.034765895 3255:-0.043783464 3256:-0.034765895 3257:-0.034765895 3258:-0.034765895 3259:-0.034765895 3260:-0.00069610489 3261:0.12440766 3262:-0.030960558 3263:-0.034765895 3264:0.020669494 3265:0.075219937 3266:-0.034765895 3267:-0.15166162 3268:0.065089129 3269:0.02991973 3270:-0.034765895 3271:-0.034765895 3272:-0.097386442 3273:-0.21683231 3274:-0.034765895 3275:-0.28131163 3276:-0.034442697 3277:0.050912984 3278:0.13351358 3279:-0.23660789 3280:-0.014066407 3281:0.41239488 3282:-0.13759978 3283:-0.015358641 3286:0.12261046 3287:0.057217024 3288:0.36072618 3289:-0.037267711 3290:0.12349668 3291:0.10855215 3292:-0.26121852 3293:0.12349668 3294:0.12349668 3295:0.43108365 3296:-0.019065848 3297:0.050111771 3298:-0.2110064 3299:0.3530795 3300:-0.1339016 3301:0.02745535 3302:-0.050678611 3303:-0.41026691 3304:0.31171215 3305:0.1655878 3306:-0.049767207 3307:-0.0063016908 3308:0.042174432 3309:-0.071284592 3310:-0.22907014 3311:0.33581248 3312:-0.098482735 3313:0.68208128 3314:0.051179051 3315:-0.24609677 3316:-0.48384276 3317:-0.1057048 3318:0.11456398 3319:-0.1057048 3320:-0.1057048 3321:-0.1057048 3322:0.22473992 3323:-0.1057048 3324:-0.3078486 3325:0.038747191 3326:0.16092296 3327:-0.076346859 3328:-0.11450815 3329:-0.1057048 3330:0.15197651 3331:0.13818391 3332:0.15087669 3333:0.17961222 3334:0.15087669 3335:-0.13578665 3336:-0.033808637 3337:0.20770544 3338:0.23676312 3339:0.028075015 3340:0.061936188 3341:0.09486828 3342:0.0043842257 3343:0.13966763 3344:0.12791726 3345:-0.18964298 3346:0.10473908 3347:0.12946069 3348:-0.018628398 3349:0.023801919 3350:-0.010735269 3351:-0.026078861 3352:-0.048928801 3353:0.068385713 3354:0.0746672 3355:-0.035460074 3356:0.029098075 3357:-0.066234112 3358:0.085771963 3359:-0.30992359 3360:0.1842536 3361:-0.030165887 3362:0.042303547 3363:0.063633308 3364:0.042303547 3365:0.042303547 3366:-0.039433479 3367:0.066164039 3368:0.042303547 3369:0.070349552 3370:0.070349552 3371:-0.0065509751 3372:-0.0065509751 3373:-0.0065509751 3374:-0.027650671 3375:-0.0065509751 3376:-0.0065509751 3377:0.26325479 3378:-0.0065509751 3379:0.17296645 3380:0.0031285395 3381:-0.34153137 3382:0.047301475 3383:-0.032174263 3384:-0.30045542 3385:0.078005418 3386:-0.28849044 3387:0.10341807 3388:-0.13063265 3389:0.15435638 3390:0.17311676 3391:-0.036790486 3392:0.051377896 3393:0.00069910183 3394:0.016245995 3395:-0.054432917 3396:-0.13237931 3397:-0.083317995 3398:0.19917661 3399:0.016245995 3400:-0.20432666 3401:-0.13371427 3402:-0.027667016 3403:-0.0044626547 3404:0.11119568 3405:0.045589782 3406:0.087383516 3407:0.10871855 3408:-0.044521369 3409:0.087383516 3410:0.11996972 3411:-0.08262828 3412:0.12828813 3413:-0.14183949 3414:0.077660091 3415:0.18780522 3416:-0.023489246 3417:0.2393249 3418:0.2393249 3419:0.4599919 3420:-0.036144208 3421:0.24449351 3422:-0.27810729 3423:0.16273293 3424:-0.0058157002 3425:0.16273293 3426:0.16542661 3427:0.26793399 3428:0.26793399 3429:0.15423375 3430:0.26793399 3431:0.20183097 3432:0.15360242 3433:-0.057493977 3434:-0.035637375 3435:-0.10526292 3436:0.13393433 3437:0.13393433 3439:0.12126189 3440:-0.031030238 3442:-0.034246258 3443:0.053748745 3444:-0.30106997 3445:-0.015041172 3446:0.12057375 3447:-0.06074724 3448:0.16351278 3449:0.22843131 3450:0.17416354 3451:-0.14498407 3452:-0.016952287 3453:-0.016952287 3454:-0.099763811 3455:0.11002207 3456:0.236357 3457:-0.016952287 3458:-0.050504833 3459:-0.050504833 3460:-0.21221794 3461:-0.050504833 3462:-0.30178034 3463:-0.088392496 3464:-0.10174606 3465:-0.072113641 3466:0.0058933939 3467:-0.066047013 3468:-0.072113641 3469:-0.072113641 3470:-0.11248354 3471:-0.072113641 3472:0.33384323 3473:-0.017453011 3474:0.065648317 3475:0.099853225 3476:0.061294001 3477:0.060250588 3478:0.10987959 3479:0.060250588 3480:0.13453305 3481:-0.14261119 3482:-0.049545657 3483:0.034436602 3484:0.052343495 3485:0.052343495 3486:0.052343495 3487:0.01302237 3488:0.052343495 3489:0.030190397 3490:-0.061713524 3491:0.092379026 3492:0.22561029 3493:0.054959171 3495:0.14755751 3496:0.12756275 3497:0.079515904 3498:-0.65768343 3499:-0.017348291 3500:-0.020016219 3501:-0.099737383 3502:-0.22098386 3503:-0.099737383 3504:0.039750442 3505:-0.099737383 3506:-0.091347247 3507:0.13794348 3508:-0.23659368 3510:0.34921053 3512:0.03595759 3513:0.010843653 3514:0.15781009 3515:0.082322888 3516:0.15781009 3517:0.15781009 3518:0.12640308 3519:0.13672183 3520:0.030585155 3521:0.1594723 3522:0.1594723 3523:0.15776433 3524:0.003236668 3525:0.003236668 3526:0.003236668 3527:0.093968078 3528:-0.089473478 3529:0.26732802 3530:0.20215151 3531:0.160594 3532:0.11609422 3533:0.046216216 3534:0.090686426 3535:-0.016736826 3536:-0.016736826 3537:-0.016736826 3538:-0.016736826 3539:-0.032203365 3540:-0.016736826 3541:-0.051946118 3542:-0.027670862 3543:-0.02534298 3544:-0.027670862 3545:0.13722578 3546:0.010408535 3547:0.0087021943 3548:0.032914888 3549:0.36610505 3550:0.064214803 3551:0.044909254 3552:-0.037831772 3553:-0.0066786446 3554:-0.0022240118 3555:0.23521054 3556:0.0050435401 3557:-0.0022240118 3558:0.0095200222 3559:-0.0022240118 3560:-0.037345458 3561:0.4555414 3562:-0.19659252 3563:-0.028881924 3564:0.24293415 3565:-0.040815514 3566:-0.11438267 3567:0.17482559 3568:0.12448571 3569:0.2472811 3570:0.29234555 3571:0.31723985 3572:0.33525553 3573:-0.14328325 3574:-0.22195691 3575:-0.21362768 3576:0.075448252 3577:-0.11505812 3578:-0.077565104 3579:-0.29311022 3580:0.080011331 3581:0.087361544 3582:0.087361544 3583:0.12830797 3584:0.45625108 3585:0.35066473 3586:0.010846906 3587:-0.077271983 3588:-0.26759797 3589:0.0040777661 3590:0.08804664 3591:0.08804664 3592:0.08804664 3593:0.08804664 3594:0.08804664 3595:-0.19887608 3596:0.091921948 3597:0.08804664 3598:-0.011507539 3599:0.050372314 3600:0.1113392 3604:0.28178793 3605:-0.17394596 3606:-0.17394596 3607:0.08645311 3608:-0.10523374 3609:0.52339888 3610:-0.024119169 3611:-0.037227482 3612:0.12945753 3613:0.15090881 3614:0.20938158 3615:0.26910573 3616:0.0014836157 3617:0.10896043 3618:0.10896043 3619:0.10896043 3620:-0.047564667 3621:-0.012545967 3622:0.0043417229 3623:0.10896043 3624:-0.029840663 3625:-0.15259844 3626:0.60614753 3627:0.40685672 3628:0.07639958 3629:-0.036508076 3630:0.033318873 3631:0.033318873 3632:0.043618519 3633:0.019451952 3634:0.043618519 3635:0.12108608 3636:0.043618519 3637:-0.13048322 3638:0.0528423 3639:0.074252091 3642:-0.069585718 3644:0.22763728 3645:-0.070351996 3646:-0.20372227 3647:-0.023209818 3648:0.093011692 3649:0.069574803 3650:-0.052170474 3651:0.22038366 3652:-0.39916134 3653:0.082535058 3654:-0.0017862399 3655:-0.0017862399 3656:-0.053371791 3657:-0.0016357941 3658:-0.25088191 3659:-0.093316682 3660:0.079959393 3661:0.039979696 3662:0.034218311 3663:0.039979696 3664:0.039979696 3665:-0.073297739 3666:-0.097469248 3667:-0.25304455 3668:-0.0080623338 3669:-0.29069367 3670:0.3116664 3671:0.070562907 3672:0.053116575 3673:-0.085166283 3674:-0.0096680364 3675:0.13540502 3676:-0.070355542 3677:-0.0096680364 3678:-0.0096680364 3679:-0.06203961 3680:-0.0096680364 3681:-0.087464474 3682:-0.040645156 3683:-0.0096680364 3684:-0.0096680364 3685:-0.0096680364 3686:0.008551131 3687:-0.17223853 3688:0.43462837 3690:-0.039831553 3694:-0.02092823 3697:0.09989012 3698:-0.43319836 3699:-0.47915861 3700:-0.32051423 3702:0.19990961 3706:-0.12463506 3707:0.032053642 3708:-0.12463506 3709:0.048602659 3710:-0.03504153 3711:-0.038012594 3712:-0.11760496 3713:0.12447114 3714:-0.03504153 3715:-0.03504153 3716:-0.034474019 3717:-0.03504153 3718:-0.03504153 3719:0.22165412 3720:0.090014063 3721:0.078964606 3722:0.078964606 3723:-0.045223046 3724:0.31858903 3725:0.020656517 3726:0.31124833 3727:0.12885678 3728:-0.088494278 3729:0.025226824 3730:0.020656517 3731:0.020656517 3732:-0.097993746 3733:-0.097993746 3734:-0.097993746 3735:-0.23346314 3736:-0.26370811 3737:-0.065524071 3738:0.12569189 3739:0.16039348 3740:0.092558488 3741:0.092558488 3742:0.092558488 3743:0.092558488 3744:-0.27657056 3745:0.092558488 3746:0.01922312 3747:0.092558488 3748:0.092558488 3749:0.14968275 3750:0.071453944 3751:0.092558488 3752:-0.026977586 3753:-0.10068059 3754:-0.077363133 3755:-0.1019122 3756:-0.067910686 3757:-0.052194674 3758:-0.052194674 3762:-0.02681463 3764:-0.16475357 3766:0.12853673 3771:-0.18087143 3772:0.12392057 3773:-0.018835546 3774:-0.031845696 3775:0.063986041 3776:-0.064820327 3777:0.0096900761 3778:-0.031845696 3779:-0.13427071 3780:-0.11892685 3781:-0.11892685 3782:-0.13967516 3783:-0.033092771 3784:-0.11892685 3785:-0.0026184462 3786:-0.0023980257 3787:0.037827425 3788:-0.0026184462 3789:0.043462433 3790:0.17850333 3791:-0.096625373 3792:-0.088300802 3793:-0.15086173 3795:0.68230551 3797:0.040764235 3798:0.16840778 3799:0.24489576 3800:-0.033979256 3801:-0.033979256 3802:0.0094822599 3803:0.0094822599 3804:-0.2214461 3805:-0.36982718 3806:0.0094822599 3807:0.0094822599 3808:-0.039769385 3809:0.0094822599 3810:0.01896452 3811:0.0094822599 3812:0.097628415 3813:0.0094822599 3814:-0.091526851 3815:-0.091526851 3816:0.068193242 3817:0.047858179 3818:-0.037527405 3819:-0.04199395 3820:0.57034045 3821:-0.10977574 3822:-0.18632916 3823:-0.21608709 3824:-0.022326719 3825:0.085215293 3826:0.014769976 3828:-0.060111418 3829:-0.14313279 3831:0.085559227 3832:0.061695509 3833:0.19509482 3834:0.35956544 3835:-0.067800373 3836:-0.20241217 3837:-0.067800373 3838:-0.13867272 3839:-0.083241902 3840:0.34337145 3841:0.010540311 3842:0.096571691 3843:0.19924894 3844:0.076988287 3845:0.24638331 3846:0.058785409 3847:0.0095482934 3848:0.19694912 3849:0.02864291 3850:0.0095482934 3851:-0.0028110817 3852:0.0095482934 3853:-0.020229658 3854:0.0095482934 3855:0.0087443925 3856:0.0095482934 3857:-0.020945655 3858:-0.12767479 3859:0.11476288 3860:-0.020945655 3861:0.060613904 3862:-0.020945655 3863:-0.020945655 3864:-0.09240146 3865:-0.1345534 3866:-0.1345534 3867:0.1156778 3868:0.1309714 3871:0.017295536 3872:0.017295536 3873:0.11225303 3874:-0.2764985 3875:0.017295536 3876:0.039065652 3877:-0.1966185 3879:0.056149062 3880:0.3455891 3881:0.051239014 3882:-0.1963253 3883:-0.04226486 3884:-0.049843337 3885:0.12647963 3886:0.06707675 3887:-0.04226486 3888:-0.04226486 3889:-0.04226486 3890:-0.04226486 3891:0.058683235 3892:-0.04226486 3893:0.10145707 3894:0.085914887 3895:-0.12778342 3896:0.11061078 3897:0.012124632 3898:-0.13594753 3899:0.12581564 3900:0.047153652 3901:0.047153652 3902:-0.052309733 3903:0.19177131 3904:0.12779805 3905:0.033201393 3906:-0.027328946 3907:-0.16290027 3908:0.10388978 3909:-0.027328946 3910:-0.027328946 3911:-0.027328946 3912:-0.025029641 3913:-0.083681211 3914:-0.036324512 3915:-0.033268355 3916:0.027929751 3917:-0.036324512 3918:-0.011000919 3919:0.27225792 3920:-0.039877988 3921:-0.17151715 3922:0.1133698 3923:0.15859757 3924:-0.041895285 3925:-0.15759021 3926:-0.0022327057 3927:-0.25564533 3928:0.3734279 3929:-0.078969501 3930:-0.19070712 3931:-0.023937486 3933:-0.1243266 3934:-0.22904925 3935:-0.19599095 3936:-0.23466566 3937:0.067424841 3938:0.14616926 3940:-0.24486557 3941:-0.14727388 3942:-0.046916857 3943:0.010439686 3944:-0.0036839454 3945:0.072248831 3947:-0.2864317 3949:0.057981644 3950:-0.14926207 3951:0.22145486 3952:0.10584195 3953:-0.079940602 3954:-0.19259663 3955:-0.042148639 3956:0.073241174 3957:-0.087283589 3958:-0.043871857 3959:-0.17107107 3960:-0.21176659 3961:-0.21176659 3962:-0.21176659 3963:-0.068852253 3964:0.24750952 3965:-0.30853239 3966:-0.1025914 3967:-0.01277299 3968:-0.13274571 3969:-0.14377359 3970:-0.23203473 3971:-0.28059667 3972:0.006823936 3973:0.16127633 3974:0.11012353 3975:0.063865095 3976:-0.0087771248 3977:0.063865095 3978:0.063865095 3979:0.007563367 3980:0.048350252 3981:0.007563367 3982:0.007563367 3983:-0.15729655 3984:0.14143522 3985:0.17916878 3986:0.00019649873 3987:-0.2762886 3988:0.41065559 3989:0.01071586 3990:-0.24146843 3991:0.092887476 3992:0.092887476 3993:0.083950028 3994:0.11188692 3996:-0.11547105 3998:-0.055031102 3999:-0.055031102 4000:0.11135714 4001:0.022202909 4002:-0.18941964 4003:-0.33287659 4004:0.03502886 4005:-0.0083351834 4006:0.0039090589 4007:-0.0092100166 4008:0.03962253 4009:-0.078843951 4010:0.06542071 4011:0.089511603 4012:-0.026838964 4013:-0.026838964 4014:0.25290263 4015:-0.052548971 4016:-0.099070355 4017:-0.019277193 4018:-0.019277193 4019:0.027742069 4020:-0.080615275 4021:-0.053999502 4022:-0.068956479 4023:-0.053999502 4024:-0.046992499 4025:-0.1185674 4026:0.044343013 4027:0.042374421 4028:0.042374421 4029:0.042374421 4030:-0.011677807 4031:-0.15300746 4032:0.042374421 4033:0.042374421 4034:-0.015285552 4035:0.042374421 4036:-0.059423074 4037:-0.12903686 4038:0.030158851 4039:0.061699159 4040:-0.12058223 4041:0.059661873 4042:0.034836125 4043:-0.11043776 4044:-0.12563194 4045:-0.28916928 4046:0.051918503 4047:0.11644112 4048:-0.34317228 4049:0.20554066 4050:0.15208687 4051:0.16131102 4052:0.015061177 4053:0.19934401 4054:0.0025538546 4055:0.0014618954 4056:0.032936592 4057:0.032936592 4058:0.032936592 4059:-0.29286486 4060:0.032936592 4061:0.032936592 4062:-0.029766303 4064:-0.10754657 4068:-0.11523518 4069:-0.18513577 4070:-0.15814233 4071:0.53195298 4072:-0.69594604 4073:0.26201218 4074:0.53195298 4075:-0.13208725 4076:-0.17997092 4077:-0.046618253 4078:0.31493452 4079:-0.050327741 4080:-0.046093542 4081:0.08973293 4082:0.2764585 4083:0.010991252 4084:0.010991252 4085:0.010991252 4086:0.17585184 4087:0.010991252 4088:0.23089187 4089:-0.1164153 4091:-0.16650821 4092:-0.059379563 4093:-0.12812701 4094:-0.039110072 4095:-0.097113803 4096:-0.35808161 4097:0.12026377 4098:0.059339359 4099:0.020998586 4100:0.047010146 4101:0.23374192 4102:0.083194055 4103:0.041250147 4104:0.041250147 4105:0.096523568 4106:0.10311244 4107:0.096523568 4108:0.12097185 4109:0.096523568 4110:0.096523568 4111:0.096523568 4112:0.096523568 4113:0.026615117 4114:0.16532658 4116:0.0094544375 4117:-0.18895334 4119:0.14781934 4120:-0.081022732 4121:-0.16857252 4122:0.24417001 4123:-0.33404469 4124:-0.091621131 4125:-0.10146948 4126:-0.11079011 4127:-0.11079011 4128:0.1123041 4129:0.015092625 4130:-0.0069631934 4131:-0.052148946 4132:0.14685237 4133:-0.052148946 4134:0.18713251 4135:-0.2548933 4136:0.095326878 4137:-0.057753835 4138:-0.012539693 4139:-0.093204148 4140:-0.14818764 4141:-0.024883518 4142:-0.11934739 4143:-0.010893929 4144:0.061064865 4145:-0.24803421 4146:-0.12080403 4147:-0.13815737 4148:-0.12080403 4149:-0.02007536 4150:0.14624988 4151:0.14624988 4153:-0.11752111 4155:-0.019797299 4156:0.041946046 4157:-0.18541364 4158:0.099789098 4159:0.25857705 4160:-0.15539616 4161:-0.021847589 4162:-0.021847589 4163:-0.021847589 4164:-0.021847589 4165:-0.021847589 4166:0.17839977 4167:0.098924272 4168:0.098924272 4169:-0.30645627 4170:0.18381386 4171:0.16734324 4172:0.16734324 4173:-0.0097085861 4174:-0.24415122 4175:0.24906565 4176:-0.0097085861 4177:-0.29114056 4178:-0.0097085861 4179:0.17949691 4180:0.019131357 4181:0.019131357 4182:-0.026267989 4184:-0.32448211 4186:-0.04321415 4187:0.1373857 4188:-0.066383608 4189:-0.066383608 4190:-0.074743368 4191:-0.0085379621 4192:-0.21467254 4193:-0.05460687 4194:-0.05460687 4195:-0.05460687 4196:-0.05460687 4197:0.37231299 4198:-0.14604264 4199:-0.14604264 4200:-0.15945718 4201:0.055045754 4202:0.037353601 4203:-0.14629759 4204:-0.038465034 4205:-0.14629759 4206:-0.14629759 4207:0.044817228 4208:-0.056485657 4209:0.68788385 4210:0.016094442 4211:0.016094442 4212:0.016094442 4213:-0.063324064 4214:0.028901193 4215:0.028901193 4216:-0.15347852 4217:0.23243637 4218:0.028901193 4219:-0.034461237 4221:-0.0004454593 4222:0.060337022 4224:-0.094067186 4225:-0.094067186 4226:0.13625616 4227:-0.094067186 4228:-0.094067186 4229:0.31042793 4230:-0.22477995 4231:-0.18034723 4232:-0.079406098 4233:-0.096639633 4234:-0.079406098 4235:0.013403969 4237:0.11982211 4238:-0.031582497 4240:-0.031582497 4241:-0.0038748397 4242:-0.031582497 4243:-0.043126866 4244:-0.11995544 4245:-0.009983208 4246:-0.063626058 4247:-0.063626058 4248:-0.063626058 4249:0.10038062 4250:-0.063626058 4251:-0.2287118 4252:-0.063626058 4253:-0.063626058 4254:-0.063626058 4255:-0.063626058 4256:-0.079632625 4257:-0.20030993 4258:-0.010380006 4259:0.0075567379 4260:0.037640952 4261:-0.095400125 4262:0.19126932 4263:0.071517587 4264:0.31611508 4265:0.0041640359 4266:0.0041640359 4267:0.12794238 4268:0.044059824 4269:-0.0042037009 4270:-0.17869766 4271:-0.020513624 4272:-0.14261302 4273:-0.15643452 4274:0.045874041 4275:0.045874041 4276:0.052914847 4277:0.064036004 4278:0.0033575767 4279:0.052914847 4280:0.10216277 4281:-0.01275974 4282:-0.14704292 4283:-0.14704292 4284:-0.027148174 4285:-0.28645423 4286:-0.059116151 4287:-0.059116151 4288:-0.059116151 4289:-0.18020718 4290:-0.059116151 4291:0.075572439 4292:-0.13385308 4293:-0.056897067 4294:-0.056897067 4295:-0.064394072 4296:-0.056897067 4297:-0.27476507 4298:-0.18398063 4299:0.082249872 4300:0.068662807 4301:0.068662807 4302:0.047916718 4303:0.047916718 4304:0.047916718 4305:0.062330108 4306:-0.095538534 4307:0.050206047 4308:0.0014421945 4309:-0.030897211 4310:0.046591457 4311:0.023263339 4312:0.0014421945 4313:0.0014421945 4314:0.0014421945 4315:0.0014421945 4316:0.040738311 4317:0.020729281 4318:0.040738311 4319:-0.19944595 4321:-0.20611419 4323:0.060411919 4324:-0.053210299 4325:0.12968248 4326:-0.29344013 4327:0.01770092 4328:0.013625587 4329:0.013625587 4330:0.013625587 4331:0.092805915 4332:0.049464334 4333:0.2420626 4334:0.031994827 4335:-0.11774932 4336:-0.11359312 4337:-0.05899816 4338:0.031994827 4339:0.12095087 4340:0.014487599 4341:0.095436342 4342:0.065559722 4343:0.110595 4344:-0.01001606 4345:0.021383468 4346:-0.089039795 4347:0.066581354 4348:-0.031734202 4349:-0.031734202 4350:-0.005783353 4351:-0.030191233 4352:-0.005783353 4353:0.026014835 4354:0.080648348 4355:-0.10649087 4357:0.23596607 4358:-0.099415608 4359:-0.11360789 4360:0.14086345 4361:0.14086345 4362:0.14086345 4363:0.19608949 4364:-0.1668506 4365:0.0017912531 4366:0.0017912531 4367:0.0017912531 4368:-0.11132155 4369:-0.18097073 4370:-0.033753157 4371:-0.026074976 4372:-0.090407774 4373:-0.026074976 4374:0.042603247 4375:-0.026074976 4376:-0.094190836 4377:-0.024326669 4378:-0.026074976 4379:-0.026074976 4380:-0.12387686 4381:-0.026074976 4382:-0.058937494 4383:-0.16999614 4384:0.12816796 4385:0.23619965 4386:0.060970269 4387:-0.22886308 4388:0.09833163 4389:0.060970269 4391:0.060970269 4392:-0.058463275 4394:0.17485662 4395:-0.0004630679 4397:-0.14323449 4398:-0.13921463 4399:0.12712394 4400:-0.16063397 4401:-0.18033484 4402:-0.014445448 4403:-0.014445448 4404:-0.014445448 4405:-0.029500902 4406:-0.27009413 4407:-0.19702832 4408:-0.27009413 4409:-0.037197452 4410:0.049875923 4411:0.10017274 4412:0.020722095 4413:0.10263289 4414:0.020722095 4415:-0.15456188 4416:0.038506351 4417:-0.092302732 4418:-0.179307 4419:-0.27357337 4420:0.22863483 4421:0.013962726 4422:0.31721166 4423:-0.068778172 4424:-0.14715995 4425:-0.068778172 4426:-0.14715995 4427:-0.029582398 4428:-0.015473807 4429:-0.015473807 4430:0.14331295 4431:-0.076823786 4432:-0.072819777 4433:-0.25209641 4434:-0.25209641 4435:0.1126987 4436:0.1126987 4437:0.020110324 4439:0.30137208 4441:0.028145149 4442:-0.0016829331 4445:-0.030516094 4446:-0.10507809 4447:-0.12581971 4449:-0.020854089 4450:0.05969017 4453:0.063122801 4454:0.3907342 4455:0.15134433 4456:0.061784487 4457:0.1591574 4458:0.099370331 4459:-0.15637891 4460:-0.055736024 4461:0.26232547 4462:0.38414636 4463:0.26359662 4464:0.31021705 4465:-0.28721473 4466:-0.22451474 4467:0.066447929 4468:0.1016191 4469:0.071432739 4470:0.13335176 4471:-0.056308575 4472:0.04592919 4473:0.04592919 4474:-0.10719243 4475:-0.061446592 4476:-0.015169547 4477:0.062653489 4478:0.062653489 4479:0.019720521 4480:0.11057398 4481:0.019720521 4482:0.019720521 4483:-0.033354513 4484:-0.17572989 4485:-0.17114665 4486:0.018927436 4487:-0.1525607 4488:-0.1525607 4489:-0.1525607 4490:0.056409989 4491:-0.27056864 4492:-0.011790004 4493:-0.011790004 4494:-0.048542228 4495:0.0086519988 4496:0.0086519988 4497:0.0086519988 4498:0.0086519988 4499:-0.16338608 4500:0.0063811676 4501:0.12886207 4502:0.0086519988 4503:0.077214912 4504:0.0086519988 4505:0.0086519988 4506:0.47465304 4507:-0.11894924 4508:-0.022354186 4509:-0.15194948 4510:-0.022354186 4511:0.07043229 4512:0.07043229 4513:-0.12000608 4514:0.07043229 4515:0.07043229 4516:-0.19782858 4517:-0.039564189 4518:0.014280256 4519:-0.025337074 4520:-0.025337074 4521:-0.025337074 4522:0.063841313 4523:0.063841313 4524:0.29543376 4525:-0.019459648 4526:0.037647158 4527:-0.19333498 4528:0.17046987 4529:0.018437862 4530:-0.065963119 4531:0.15317294 4532:0.038774401 4533:-0.067561142 4534:-0.15807 4535:0.020593567 4536:-0.034483168 4537:0.026714828 4538:0.20080636 4539:-0.013216948 4540:-0.2171751 4541:0.037240185 4542:-0.087584816 4543:0.10024428 4544:0.15204068 4545:0.068166152 4546:0.034642469 4547:0.20153902 4548:0.1255389 4549:-0.12028853 4550:0.021222694 4551:0.037824064 4552:0.037824064 4553:0.070347056 4554:-0.1723488 4555:-0.056687269 4556:-0.066513009 4557:-0.066513009 4558:-0.071245402 4559:-0.096525908 4560:-0.040001843 4561:-0.35521141 4562:0.016678786 4563:-0.17928092 4564:-0.049311239 4565:0.094300129 4566:-0.0259765 4567:-0.019961808 4568:-0.036619831 4569:0.26077008 4570:0.11725025 4571:0.015102741 4572:-0.23613119 4573:0.086766206 4574:-0.17235895 4575:-0.20499559 4576:0.058014594 4577:-0.29345974 4578:-0.18106766 4579:-0.092179239 4580:0.3132202 4581:0.045648497 4582:0.039219465 4583:0.039219465 4584:-0.14493737 4585:-0.030181659 4586:0.026593558 4587:-0.057591505 4588:0.23646674 4589:-0.10210411 4590:0.039219465 4591:0.039219465 4592:0.039219465 4593:0.039219465 4594:-0.030557647 4595:-0.011816854 4596:0.080484897 4597:0.063883364 4598:0.040661354 4599:0.54050565 4600:0.023267893 4601:0.21385367 4602:0.21705405 4603:0.12117039 4604:0.059491545 4605:0.040661354 4606:0.040661354 4607:0.0751523 4608:-0.058545787 4609:0.040661354 4610:0.040661354 4611:0.077408984 4613:-0.18102998 4617:-0.12085331 4619:0.25212523 4620:0.35600612 4622:-0.016217748 4624:-0.31805727 4626:0.08032196 4627:-0.052166644 4628:-0.12300443 4629:-0.12300443 4630:-0.12300443 4631:-0.11637757 4632:0.019852461 4633:-0.021775994 4634:0.02274802 4635:0.01974914 4636:0.23759104 4637:0.1178201 4638:0.23759104 4639:-0.105946 4640:-0.039886639 4641:-0.0060853693 4642:-0.039886639 4643:-0.0060853693 4644:0.11688506 4645:0.15141924 4648:0.01666268 4649:-0.0079396553 4650:0.070164315 4651:0.070164315 4652:-0.0029698811 4653:0.0759326 4654:-0.15827979 4655:-0.041211367 4656:-0.056314699 4657:-0.35348502 4658:0.19354981 4659:-0.23800099 4660:0.29548892 4661:0.35422283 4662:-0.016562371 4663:0.044669386 4664:0.12872365 4665:-0.20044039 4666:-0.030858109 4667:-0.12735741 4668:0.032153338 4669:0.0092707351 4670:0.0092707351 4671:0.0092707351 4672:0.0092707351 4673:-0.063970357 4674:0.14972042 4675:-0.18061802 4676:0.065802254 4677:0.065802254 4678:-0.024556315 4679:0.042485859 4680:-0.11521529 4681:-0.019779529 4682:-0.21262215 4683:0.046668276 4684:0.053506881 4685:0.11933622 4687:0.038632959 4688:0.0099916561 4689:0.073217966 4690:0.25609508 4691:-0.062079087 4692:0.27549112 4694:-0.14744325 4695:-0.49510667 4696:0.22882429 4697:0.0012360284 4698:-0.018571582 4699:0.043868605 4700:0.0012360284 4701:0.0039193798 4702:-0.065999158 4703:0.0012360284 4704:0.0024720568 4705:-0.092024297 4706:-0.017491503 4708:-0.0058884523 4709:-0.023893926 4710:0.21460989 4711:0.17971182 4712:0.043648016 4713:0.043648016 4714:0.22695105 4715:0.1449692 4716:-0.15482877 4717:-0.2120049 4719:-0.020655304 4720:-0.0068066977 4722:-0.1695507 4723:-0.057313841 4727:0.1151919 4729:0.067504033 4731:-0.21295747 4732:0.19496562 4733:0.016027587 4734:0.016027587 4735:-0.024905514 4736:0.022065457 4737:0.016027587 4738:0.016027587 4739:0.43396887 4740:0.17659239 4741:0.26450834 4742:-0.057164796 4743:-0.13548471 4744:-0.19684052 4745:0.058195129 4746:-0.10706064 4747:-0.001920369 4748:-0.10706064 4749:-0.03284486 4750:0.079232685 4751:0.12426404 4752:-0.03284486 4753:-0.03284486 4754:0.16944495 4755:-0.04889809 4756:0.14765078 4757:0.14765078 4758:0.020240456 4759:-0.21054155 4760:0.029172704 4761:-0.15338379 4762:-0.15338379 4763:0.11164531 4764:-0.14182457 4765:0.11249457 4766:0.001752522 4767:-0.10979176 4768:-0.10979176 4769:-0.13232978 4772:-0.5054003 4773:0.10935862 4774:-0.017765418 4775:-0.049232628 4776:-0.032267503 4777:-0.032267503 4778:-0.032267503 4779:-0.032267503 4780:0.15511176 4781:0.12378624 4782:-0.029552761 4783:0.13213073 4784:-0.032267503 4785:-0.029552761 4786:0.13276663 4787:0.01318401 4788:0.13276663 4789:-0.036889441 4790:0.2006231 4791:0.13158397 4792:0.11920153 4793:0.083294138 4794:-0.13378783 4795:0.14599077 4796:0.031882763 4797:-0.10091671 4798:-0.048743609 4799:0.33807105 4800:0.097901873 4801:-0.080875382 4803:-0.037285276 4804:0.061574366 4805:0.061574366 4806:0.061574366 4807:-0.052456722 4808:0.016718069 4809:0.029518247 4810:0.016718069 4811:0.016718069 4812:-0.050965387 4813:-0.32385674 4814:0.10633869 4815:0.13356808 4816:0.10633869 4817:-0.16772532 4818:0.025330612 4819:-0.024551285 4820:-0.0026524712 4821:-0.22615205 4822:-0.11497462 4823:-0.17984915 4824:-0.17984915 4825:0.068362094 4826:0.068362094 4827:0.068362094 4828:0.10318164 4829:-0.031236138 4830:-0.031236138 4831:-0.031236138 4832:-0.042987902 4833:-0.031236138 4834:0.22286226 4835:-0.031236138 4836:0.19592084 4837:-0.10033038 4838:-0.031236138 4839:-0.031236138 4840:-0.068509176 4841:-0.031236138 4842:-0.035311315 4843:-0.22545421 4844:0.14054239 4849:-0.066939026 4850:0.01523583 4852:-0.04066423 4853:0.16994508 4854:0.17393591 4855:-0.0072734538 4856:0.56606025 4857:0.24939065 4858:-0.11113018 4859:0.36921102 4860:-0.23637776 4861:-0.05240678 4862:-0.31317279 4863:-0.05240678 4864:0.013415342 4865:-0.05240678 4866:-0.20232072 4867:-0.20232072 4868:-0.20232072 4869:-0.18529993 4870:0.06130686 4871:0.1777955 4872:0.21620955 4873:-0.077072255 4874:0.08647956 4875:-0.13671438 4876:0.06130686 4877:-0.0403741 4878:0.025237499 4879:0.025237499 4880:0.025237499 4881:-0.015618189 4882:0.28281382 4883:0.016346065 4884:0.016346065 4885:0.016346065 4886:-0.043731611 4887:0.016346065 4888:0.016346065 4889:-0.047752902 4890:-0.062023558 4891:0.040986586 4892:0.16201033 4893:-0.0080108661 4894:-0.0080108661 4895:0.020022368 4896:0.094649091 4897:0.094649091 4898:0.13927963 4899:-0.13972695 4900:-0.084283099 4901:0.30122358 4902:0.16088454 4903:0.18418202 4904:0.029721722 4905:0.096260652 4906:0.29945576 4907:0.20485617 4908:-0.0075148945 4911:-0.0077207456 4912:0.092276126 4913:-0.21063791 4914:0.22685105 4915:0.010131274 4916:0.0098181758 4917:0.08357656 4918:0.48982695 4919:-0.049932666 4920:-0.2077046 4921:-0.2077046 4922:-0.075142369 4923:-0.2077046 4924:-0.32339847 4925:-0.1238746 4926:-0.02357579 4927:-0.02357579 4928:-0.20675683 4929:0.11715174 4930:0.11715174 4931:0.40204179 4932:0.088954501 4933:0.09572269 4934:0.013407206 4935:0.088954501 4936:0.088954501 4937:0.088954501 4938:0.048279606 4939:-0.01419128 4940:0.088954501 4941:0.20540859 4942:0.088954501 4943:0.33870834 4944:0.088954501 4945:0.089704722 4946:0.1074384 4947:0.089704722 4948:0.089704722 4949:0.089704722 4950:-0.053277433 4951:0.089704722 4952:0.14333403 4953:-0.17037937 4954:-0.1401044 4955:-0.03826974 4956:-0.03826974 4957:-0.03826974 4958:-0.03826974 4959:0.046818975 4960:0.55569363 4961:-0.29908004 4962:-0.03826974 4963:0.073714659 4964:-0.29875526 4965:0.058727842 4966:0.14804515 4967:0.0063240477 4968:0.010441395 4969:0.010441395 4970:0.020882789 4971:0.58834994 4972:0.0095628742 4973:0.11545657 4974:0.010441395 4975:-0.11302448 4976:0.010441395 4977:-0.045419917 4978:-0.16354348 4979:-0.26207528 4980:-0.23636788 4981:-0.00087773666 4982:0.044925246 4983:-0.020638211 4984:0.07122571 4985:-0.010306715 4986:-0.020638211 4987:-0.13437289 4988:-0.020638211 4989:0.063957974 4990:-0.020638211 4991:-0.020638211 4992:-0.020638211 4993:0.048866615 4994:-0.020638211 4995:-0.020638211 4996:0.42702809 4997:0.17961025 4998:0.19610876 4999:0.3179605 5000:-0.058487691 5001:-0.058487691 5002:0.06778276 5003:0.17256023 5004:-0.01409414 5005:0.055186771 5006:-0.04292367 5007:-0.12359667 5008:-0.04292367 5009:-0.0074812793 5010:-0.04292367 5011:0.068401434 5012:-0.13202842 5013:-0.04292367 5014:-0.13028713 5016:0.071889922 5018:0.07502456 5019:0.30842015 5022:0.15130658 5023:-0.095239908 5024:0.022005349 5025:0.02882671 5026:0.16242801 5027:-0.25868547 5028:0.12312364 5029:0.02882671 5030:0.02882671 5031:0.02882671 5032:0.13338773 5033:-0.21774311 5034:-0.17780429 5035:-0.1715032 5036:-0.32017809 5037:-0.062506303 5038:-0.17232499 5039:-0.19373491 5040:0.10294919 5041:0.025469339 5042:-0.28696328 5043:0.27425516 5044:0.23884358 5045:-0.16953471 5046:-0.16953471 5047:-0.14440155 5048:-0.16953471 5049:0.01388855 5050:0.01388855 5051:0.01388855 5052:0.01388855 5053:-0.026651064 5054:0.017413143 5055:0.017413143 5056:-0.068618357 5057:0.048932724 5058:-0.010218934 5059:-0.010218934 5060:0.27664608 5061:0.27664608 5062:0.075668037 5063:-0.12566569 5064:-0.086950228 5065:-0.086950228 5066:-0.32015345 5067:-0.10665525 5068:-0.01989224 5069:-0.20138332 5070:-0.11773492 5071:-0.15189353 5072:-0.10665525 5073:-0.10665525 5074:-0.0094809448 5075:0.17808132 5076:-0.0094809448 5077:-0.0094809448 5078:-0.0094809448 5079:-0.29661795 5080:-0.32386434 5081:0.10420699 5082:0.14023665 5083:0.10420699 5084:0.10420699 5085:0.10494055 5086:0.10420699 5087:0.10420699 5088:0.10420699 5089:0.42299446 5090:0.12456634 5091:0.062871203 5092:-0.028161416 5093:-0.028161416 5094:-0.12787168 5095:0.016489921 5096:-0.018178357 5097:-0.083111614 5098:0.016489921 5099:0.2408381 5100:0.016489921 5101:0.0025332158 5102:0.067012578 5103:0.07206782 5104:0.07206782 5105:0.19868539 5106:0.07206782 5107:-0.038928885 5108:-0.038928885 5109:-0.038928885 5110:-0.030979101 5111:-0.038928885 5112:0.10846926 5113:-0.046436589 5114:0.04812124 5115:-0.08722683 5116:0.10862716 5117:-0.0012918793 5120:0.18156913 5121:-0.29376078 5122:0.46750259 5123:0.080209866 5124:0.080209866 5125:0.080209866 5126:-0.014639586 5127:-0.14871922 5128:-0.011276086 5129:0.02708976 5130:-0.072136655 5131:-0.35319784 5132:0.081043966 5133:0.45416725 5134:-0.011276086 5135:-0.011276086 5136:-0.038778625 5137:-0.038778625 5138:0.18451603 5139:0.18451603 5140:0.0089024026 5141:0.06661278 5143:-0.038022187 5144:0.1391125 5145:0.42229033 5146:0.047460504 5147:0.30586961 5148:0.10729281 5149:0.018959042 5150:0.030488918 5151:0.030488918 5152:0.18361615 5153:0.18361615 5154:0.18361615 5155:0.062320165 5156:0.062320165 5157:0.045558598 5158:0.045558598 5159:0.045558598 5160:0.086619258 5161:0.045558598 5162:-0.072038196 5163:0.45873708 5164:0.045558598 5165:0.045558598 5166:0.045558598 5167:0.3768416 5168:-0.04643314 5169:-0.033487078 5170:-0.04643314 5171:0.061936837 5172:0.16783699 5173:-0.17389914 5174:-0.10322998 5175:-0.083171189 5176:0.055945691 5177:0.014584769 5178:0.041933183 5180:0.13426448 5186:0.050286744 5187:0.050286744 5188:0.050286744 5189:-0.098642394 5190:0.19091687 5191:0.050286744 5192:-0.13418896 5193:0.050286744 5194:0.046056714 5195:0.050286744 5196:0.20900813 5197:0.10382488 5198:0.065875024 5199:-0.019784868 5200:0.16107278 5201:-0.10047735 5202:-0.12701552 5204:0.024663484 5205:0.14991443 5206:0.15270427 5207:0.076352134 5208:0.076352134 5209:0.076352134 5210:-0.04369906 5211:-0.04369906 5212:0.012414599 5213:0.017542534 5214:0.015203372 5215:0.017542534 5216:0.017542534 5217:-0.093988091 5218:-0.093988091 5220:-0.017239781 5222:0.30591846 5223:0.038256381 5224:0.038256381 5225:0.038256381 5226:-0.006936538 5227:0.0071218507 5228:0.13251197 5229:0.0077764052 5230:0.0077764052 5231:-0.22373633 5232:0.0077764052 5233:-0.021788601 5234:0.0087434817 5235:-0.023170929 5236:-0.11927199 5237:-0.021221604 5238:-0.10376411 5239:0.12688106 5240:0.029088471 5241:0.075912476 5242:0.061531801 5243:0.073992506 5244:0.073992506 5245:-0.032790605 5246:0.073992506 5247:0.073992506 5248:0.073992506 5249:0.073992506 5250:0.073992506 5251:0.073992506 5252:-0.069074728 5253:0.19316973 5254:-0.069074728 5255:-0.069074728 5256:0.48645118 5257:0.16974363 5258:0.34063819 5259:-0.20533818 5260:0.24006283 5261:0.24006283 5262:0.23510592 5263:0.19602817 5264:0.30138186 5265:-0.094886817 5266:-0.027805174 5267:-0.027805174 5268:-0.027805174 5269:0.021864241 5270:0.021864241 5271:-0.073975131 5272:0.049043745 5273:0.049043745 5274:0.049043745 5275:-0.12607783 5276:-0.075479865 5277:-0.056448597 5278:-0.016033167 5279:0.1289669 5280:0.15516445 5281:-0.18720631 5282:-0.16526395 5283:0.39603373 5284:-0.18720631 5285:-0.18720631 5286:-0.21988733 5287:-0.21988733 5288:-0.14553136 5289:0.066570841 5290:0.054235596 5291:0.054235596 5292:0.054235596 5293:-0.045586731 5294:0.054235596 5295:-0.023305196 5296:-0.00584932 5297:-0.082005441 5298:0.015912978 5299:0.1360568 5300:0.1184415 5301:-0.3783271 5302:-0.011436472 5303:0.089343444 5304:-0.091248855 5305:-0.098242037 5306:0.22484146 5307:0.20206906 5308:0.12394634 5309:0.32935911 5310:0.043606866 5311:0.043606866 5312:0.043606866 5313:0.043606866 5314:0.043606866 5315:0.026581129 5317:-0.0018224935 5318:-0.0018224935 5319:-0.06864056 5320:0.028506201 5321:-0.06864056 5322:-0.06864056 5323:0.093423769 5324:-0.088858604 5325:0.029284976 5326:0.046089761 5327:-0.22901666 5328:-0.22901666 5329:-0.15200372 5330:-0.059766319 5331:-0.22901666 5332:-0.22775483 5333:0.020621764 5334:0.020621764 5335:-0.19098046 5336:-0.034011446 5337:0.020621764 5338:0.0064402581 5339:0.055287238 5340:0.11057448 5341:0.050636284 5342:0.055287238 5343:0.055287238 5344:0.022851015 5345:0.0075509106 5346:0.055287238 5347:0.016174847 5348:0.055287238 5349:-0.069071412 5350:0.10727227 5351:0.10727227 5352:0.071515657 5353:0.022605643 5354:0.14850767 5355:-0.13948964 5356:0.19428481 5357:-0.022011396 5358:-0.022011396 5359:-0.022011396 5360:-0.054627597 5361:-0.24954063 5362:-0.07960894 5363:0.17476298 5364:0.08239311 5365:0.20208082 5366:0.076354168 5367:0.29545882 5368:-0.20403707 5369:-0.11526939 5370:-0.12631951 5371:-0.19662064 5372:-0.11526939 5373:0.085383601 5374:0.085383601 5375:0.12275306 5376:0.050796412 5377:-0.023975288 5378:-0.060168002 5379:-0.20396656 5380:-0.023975288 5381:-0.086896695 5382:0.026333958 5383:0.037077989 5384:0.17208256 5385:0.10327754 5386:-0.0067056785 5387:0.037077989 5388:0.037077989 5389:0.037077989 5390:0.60045034 5391:0.69829953 5392:0.11191737 5393:0.032581873 5394:-0.17133535 5395:0.087056711 5396:0.090064824 5397:0.090064824 5398:0.040283713 5399:0.090064824 5400:-0.0052441838 5401:0.090064824 5402:0.090064824 5403:0.090064824 5404:0.0078590568 5405:0.090064824 5406:-0.1125102 5407:-0.15075387 5408:-0.17223011 5409:-0.17223011 5410:0.017663058 5411:-0.013982165 5414:0.063740544 5415:-0.12347028 5416:-0.12137893 5419:0.15154888 5423:0.28150004 5424:0.068746291 5428:0.031715911 5429:-0.064776354 5431:-0.27284762 5432:-0.11487753 5433:-0.11487753 5434:-0.29679212 5436:0.015001998 5437:-0.11931146 5438:0.11717411 5439:-0.076408871 5440:-0.00048325956 5441:-0.00048325956 5442:-0.00048325956 5443:0.081868343 5444:-0.00048325956 5445:-0.00048325956 5446:-0.00048325956 5447:-0.00048325956 5448:-0.00048325956 5449:0.069401525 5450:-0.00048325956 5451:0.067112595 5452:0.14983429 5453:-0.039809994 5454:0.030538935 5455:0.030538935 5456:-0.18290161 5457:-0.028851699 5458:0.074384905 5459:0.074384905 5460:0.074384905 5461:0.058325749 5462:0.04817152 5463:0.074384905 5464:-0.047042836 5465:0.071305223 5466:-0.047042836 5467:-0.047042836 5468:0.28995979 5470:-0.23793426 5471:-0.18626241 5472:0.10176607 5473:0.075840607 5474:0.074823298 5475:0.074823298 5476:0.16135854 5477:0.074823298 5478:0.05159428 5479:0.12336491 5480:0.10179807 5481:0.03339212 5482:0.03339212 5483:0.03339212 5484:0.03339212 5485:0.03339212 5486:0.03339212 5487:0.03339212 5488:0.10903751 5489:0.10903751 5490:0.24556427 5491:0.35184896 5492:0.22490519 5493:0.39305159 5494:0.40598181 5495:-0.24464433 5496:0.20648345 5497:0.081068024 5498:-0.031083452 5499:0.073759362 5500:0.081454054 5501:0.10107749 5502:-0.19849083 5503:0.073759362 5504:-0.26128656 5505:-0.3107433 5506:0.040323745 5507:0.26415846 5508:0.021321485 5509:-0.061736748 5510:0.10605873 5511:0.090520941 5512:0.11312839 5513:0.090520941 5514:0.033732537 5515:0.35831091 5516:0.053160906 5517:-0.12722546 5518:-0.30631593 5519:0.065922856 5520:0.073817365 5521:0.049033199 5522:0.11322585 5523:-0.1605594 5524:0.00041866096 5525:-0.27786604 5526:0.00041866096 5527:0.00083732192 5528:0.00083732192 5529:0.00041866096 5530:0.00041866096 5531:0.00041866096 5532:-0.25673586 5533:0.034217816 5534:-0.047579855 5535:0.00041866096 5536:0.00041866096 5537:-0.092407271 5538:-0.092407271 5541:0.045761164 5542:0.045761164 5543:0.041911323 5544:0.045761164 5545:0.045761164 5546:0.045761164 5547:-0.11847594 5549:0.39526477 5550:0.21823375 5551:0.078548267 5552:0.25626743 5553:-0.017077122 5554:0.059930772 5555:0.054888811 5556:-0.027181059 5557:-0.027181059 5558:0.15112489 5559:-0.027181059 5560:-0.016563848 5562:-0.050975189 5563:-0.025088072 5564:-0.049027927 5565:-0.18951567 5566:-0.26971766 5567:-0.025955256 5568:-0.016885918 5569:-0.016885918 5570:-0.016885918 5571:-0.016885918 5572:-0.14202388 5573:-0.14202388 5574:-0.14202388 5575:-0.45354807 5576:-0.029598635 5577:0.035612334 5578:-0.28446341 5579:0.1430399 5580:-0.0255736 5581:-0.0255736 5582:-0.24222317 5583:-0.0255736 5584:0.015557426 5585:0.059843034 5586:0.79816264 5587:0.080243215 5588:-0.27744305 5589:-0.018424837 5590:-0.14253604 5591:-0.016874356 5592:-0.0016626084 5593:-0.0016626084 5594:0.092167459 5595:0.031239301 5596:0.031239301 5597:0.031239301 5598:0.064473286 5599:0.053551417 5600:-0.068492085 5601:0.14294174 5602:0.03959056 5603:0.03959056 5604:0.07918112 5605:0.03959056 5606:0.03959056 5607:0.03959056 5608:0.03959056 5609:0.03959056 5610:-0.22275293 5611:-0.00074330752 5612:-0.167137 5613:-0.16846059 5614:-0.15929705 5615:-0.15929705 5616:-0.16048788 5617:0.075772665 5618:-0.00581099 5619:0.012084014 5620:0.075772665 5621:0.065668993 5622:0.11432315 5623:0.16759042 5624:0.32262456 5625:0.21937667 5628:-0.079118401 5629:0.17343076 5630:-0.079118401 5631:-0.028379515 5632:0.16943115 5633:-0.097413413 5634:-0.024304226 5635:0.12254634 5636:-0.0060025887 5637:-0.0091498327 5638:-0.0060025887 5639:0.20434809 5640:0.0056635747 5641:0.12818284 5642:0.087725952 5643:0.12818284 5644:0.12818284 5645:0.12818284 5646:-0.10496987 5648:-0.099329807 5651:0.034641221 5652:0.064981528 5653:0.23225498 5654:-0.014864175 5655:-0.10023752 5656:0.16043007 5657:-0.032192409 5658:-0.013138355 5659:-0.2222061 5660:-0.032192409 5661:-0.032192409 5662:-0.17507933 5663:-0.032192409 5664:-0.064222269 5671:0.014606956 5672:0.014606956 5673:0.014606956 5674:0.014606956 5675:0.11217922 5676:0.13248336 5677:0.030469693 5678:-0.1153041 5679:-0.1153041 5680:-0.1153041 5681:0.0020555132 5682:0.0020555132 5684:-0.29387191 5686:0.065016955 5689:-0.15027902 5690:-0.15027902 5691:-0.15027902 5692:0.23344709 5693:-0.29301515 5694:0.16165422 5695:0.23050825 5696:0.085785061 5697:-0.023072582 5698:-0.19489071 5699:-0.023072582 5700:-0.023072582 5701:0.2852523 5702:0.20597649 5703:-0.14149386 5704:0.096737832 5705:0.32126856 5706:0.070256911 5707:0.11216819 5708:0.063925505 5709:0.044351865 5710:-0.069923602 5711:0.059844252 5712:0.018707452 5713:0.018707452 5714:-0.02947446 5715:-0.02947446 5716:-0.02947446 5717:-0.0039876122 5718:0.030235162 5719:-0.10844819 5720:0.049281999 5721:0.35762078 5722:0.034629058 5723:0.034629058 5724:-0.056473225 5725:0.034629058 5726:0.034629058 5727:0.10905869 5728:0.15202165 5729:-0.18046062 5730:0.034629058 5731:0.063403443 5732:0.063403443 5733:0.051070865 5734:0.063403443 5735:-0.26938871 5736:-0.00021412903 5737:0.11212683 5738:-0.033604842 5739:-0.033604842 5740:-0.12160584 5741:0.10782236 5742:0.033042863 5743:0.10782236 5744:0.040112849 5745:0.10782236 5746:0.10782236 5747:0.40621933 5748:0.11634202 5749:0.065373972 5750:0.10782236 5751:0.10782236 5752:0.10782236 5753:0.056245629 5754:0.13650279 5755:-0.040911481 5756:0.069536746 5757:0.056245629 5758:0.056245629 5759:0.039230157 5760:0.056245629 5761:0.074619919 5762:0.066454716 5763:0.075666696 5764:0.040737011 5765:0.048026949 5766:0.12527859 5767:-0.21850477 5768:0.048026949 5769:0.18403278 5770:0.19061056 5771:0.10285012 5772:0.02980352 5773:-0.14615481 5774:-0.17182803 5775:-0.17182803 5776:-0.05133801 5777:-0.17182803 5784:-0.084813446 5785:-0.016825911 5786:-0.10754928 5789:0.040267352 5790:0.10643382 5792:0.36666584 5793:0.20752931 5794:-0.30946493 5795:-0.37242931 5796:-0.0071510491 5797:-0.017874638 5798:0.072714962 5799:-0.20824525 5800:-0.017874638 5801:0.1301261 5802:-0.017874638 5803:-0.017874638 5804:-0.017874638 5805:-0.073124953 5806:-0.079534285 5807:0.040084813 5808:0.040084813 5809:0.066174254 5810:0.067893654 5811:-0.030220548 5812:0.04741805 5813:0.066174254 5814:0.012643802 5815:-0.018947691 5816:-0.010322899 5817:-0.060150273 5818:0.092656687 5819:0.092656687 5820:0.13085531 5821:-0.033843264 5822:0.022599855 5825:0.10721231 5826:-0.13341667 5827:-0.13341667 5829:-0.13217558 5831:0.064512201 5832:0.064512201 5833:0.18465506 5835:0.09569829 5836:-0.12935869 5837:-0.12935869 5838:-0.12935869 5839:-0.1542553 5840:0.12841292 5841:0.04379544 5842:-0.010818328 5843:0.012365865 5844:0.04379544 5845:0.04379544 5846:0.04379544 5847:-0.021280738 5848:0.04379544 5849:0.04379544 5850:0.04379544 5851:0.18621781 5852:0.25136977 5853:0.13945952 5854:0.12378805 5855:0.12378805 5856:0.10728179 5857:0.12378805 5858:0.13052773 5859:0.27968359 5860:-0.21246584 5861:-0.21759996 5862:-0.21759996 5863:-0.18912335 5864:0.0023108423 5865:-0.26607519 5866:0.021346467 5867:0.069503315 5868:0.069503315 5869:0.069503315 5870:0.057787005 5871:0.069503315 5872:0.29192704 5873:0.29192704 5874:0.29192704 5875:-0.077093765 5876:0.27359948 5877:-0.3960636 5878:-0.2097131 5879:-0.2097131 5880:-0.19207014 5881:-0.18275325 5882:-0.13184589 5883:-0.055732649 5884:-0.024032602 5885:-0.24252097 5886:-0.13782151 5887:0.1990533 5888:0.10692668 5889:-0.046677034 5890:0.043254003 5891:0.0025204178 5892:-0.082650669 5893:-0.034937151 5894:-0.026620066 5895:-0.014536524 5896:-0.075176895 5897:-0.061694939 5899:0.0073898248 5900:0.18206689 5901:0.18206689 5902:0.18206689 5903:0.18206689 5904:-0.058860771 5905:0.18206689 5906:-0.017043307 5909:0.1205861 5910:0.1421908 5911:0.15583296 5912:0.071183965 5913:-0.035482224 5914:-0.12107956 5915:-0.12710917 5916:-0.0836716 5917:0.095037684 5918:0.08708097 5919:0.08708097 5920:0.17808342 5921:-0.20329002 5922:-0.22601117 5923:-0.22601117 5924:-0.22601117 5925:-0.20778538 5928:0.2952188 5929:-0.056787036 5930:-0.056787036 5931:-0.093834236 5932:0.086712874 5933:0.086712874 5934:0.086712874 5935:-0.008106377 5936:0.086712874 5937:0.19509472 5938:-0.030240959 5939:-0.065487199 5940:-0.2186318 5941:-0.0080829822 5942:-0.029442426 5943:-0.029442426 5944:-0.076393224 5945:-0.076393224 5946:-0.090888254 5947:-0.034157827 5948:0.2462527 5949:0.0079018017 5950:-0.40175486 5951:0.11316385 5952:0.11201133 5953:0.0079018017 5954:0.17899193 5955:0.0079018017 5957:-0.41312453 5958:0.07206367 5959:0.11363566 5960:0.07206367 5961:0.085845932 5962:0.036820747 5963:-0.1543275 5964:-0.1543275 5965:-0.093263127 5967:0.058215979 5968:0.024042061 5969:0.024042061 5970:-0.0090536615 5971:-0.0090536615 5972:-0.0090536615 5973:-0.073996946 5974:-0.27215543 5975:0.13335173 5976:-0.042039879 5977:0.014008923 5978:-0.042039879 5979:-0.042039879 5980:-0.042039879 5981:-0.042039879 5982:-0.22273047 5983:-0.22273047 5984:-0.22273047 5985:-0.24533921 5986:-0.23215519 5987:-0.21376234 5988:-0.15614381 5989:-0.11125536 5990:-0.12147486 5991:-0.12147486 5992:-0.12147486 5993:0.13818435 5996:-0.021930045 5997:-0.039731782 5998:-0.039731782 5999:-0.039731782 6000:-0.039731782 6001:-0.059827957 6002:0.09550079 6003:-0.063128464 6004:-0.0018451303 6005:-0.045518473 6006:-0.045518473 6007:-0.092830069 6008:0.072558306 6009:0.30678341 6010:0.14931241 6011:0.011007823 6012:0.038621232 6013:0.16494571 6014:-0.29983807 6015:0.036745679 6016:0.036745679 6017:0.29249772 6018:0.049493156 6019:0.10108928 6020:0.16733143 6021:0.19363417 6022:0.20644459 6023:0.13486503 6024:0.20644459 6025:0.017883981 6026:0.017883981 6027:-0.52739125 6028:-0.52739125 6029:0.39582509 6030:-0.069374107 6031:0.17561419 6032:0.034341887 6033:-0.0029591382 6034:-0.064248592 6035:-0.0029591382 6036:0.17741849 6037:0.066644453 6038:0.087395012 6039:0.068984956 6040:0.068984956 6041:0.068984956 6042:0.21648449 6043:0.048910551 6044:0.32941729 6045:0.15378794 6046:0.027796203 6047:-0.026615463 6048:0.040155057 6050:-0.03357818 6051:-0.03357818 6052:-0.03357818 6053:0.025010433 6054:-0.03357818 6055:0.025770787 6056:-0.03357818 6057:0.028354973 6058:-0.071939155 6059:-0.11949822 6060:-0.12392953 6061:-0.013394752 6062:0.050119091 6063:-0.013394752 6064:-0.013394752 6065:0.019849675 6066:-0.030043691 6067:-0.030043691 6068:-0.015717193 6069:-0.029880481 6070:0.0097693074 6071:-0.066059574 6072:0.01302058 6073:0.01302058 6074:0.01302058 6075:0.026041159 6076:-0.00019225061 6077:0.01302058 6078:0.01302058 6079:-0.21112455 6080:-0.21161702 6081:0.065906323 6082:0.016783809 6083:0.016783809 6084:-0.12620665 6085:-0.041664235 6086:-0.041664235 6087:0.13679487 6088:-0.13954428 6089:-0.096428744 6090:-0.17692357 6091:-0.17082566 6092:-0.098162375 6093:-0.23591019 6094:-0.17082566 6095:-0.17082566 6096:0.2028355 6097:0.16289154 6098:0.2028355 6099:0.2028355 6100:0.2028355 6101:0.0028333699 6102:0.13938692 6103:0.14122036 6104:0.072629593 6105:0.13938692 6106:0.014049466 6107:0.014049466 6108:0.04395793 6109:0.056748256 6110:0.089841649 6111:0.17890142 6112:0.14002883 6113:-0.17107005 6114:0.04395793 6115:0.04395793 6116:0.35725752 6117:0.15676403 6118:0.04395793 6119:-0.13147466 6120:-0.13147466 6121:-0.089251533 6122:-0.11104425 6123:0.0060842917 6124:-0.089251533 6125:-0.1518597 6126:0.0061183572 6127:0.0061183572 6128:0.0061183572 6129:-0.12447248 6130:-0.21703923 6131:-0.21703923 6132:-0.21703923 6133:-0.032651942 6134:-0.084687315 6135:0.035364971 6136:-0.012095023 6137:-0.066619053 6138:-0.012095023 6139:0.024975266 6140:0.08267463 6141:-0.27553794 6142:-0.012095023 6143:0.17451422 6144:-0.012095023 6145:-0.012095023 6146:-0.012095023 6147:-0.011077317 6148:-0.012095023 6149:-0.012095023 6150:-0.021094672 6151:0.021809869 6152:-0.17166403 6153:0.20397608 6154:-0.021094672 6155:-0.058288794 6156:-0.054325335 6157:0.10867239 6158:-0.073409714 6159:0.10495353 6160:0.10495353 6161:0.10495353 6162:0.10495353 6163:0.10145576 6164:0.10145576 6165:0.10145576 6166:0.057061858 6167:0.10145576 6168:0.4020915 6169:-0.10723626 6170:-0.11554457 6171:-0.11554457 6172:0.3071529 6173:0.3071529 6174:-0.051341739 6175:-0.15253817 6176:-0.16468461 6177:-0.066779479 6178:-0.19223131 6179:-0.17545259 6180:-0.14662752 6181:-0.14763267 6182:-0.086391643 6183:-0.1904816 6184:-0.19888148 6185:-0.1904816 6186:0.097799763 6187:0.054830205 6188:0.054830205 6189:-0.098229662 6190:0.34657979 6191:0.054830205 6192:0.054830205 6193:0.054830205 6194:-0.0057225362 6195:0.054830205 6196:0.054830205 6197:0.020139264 6198:-0.099095881 6199:0.020139264 6200:0.020139264 6203:-0.043127898 6204:0.12506205 6205:-0.15326215 6206:0.24137403 6207:0.15687403 6208:-0.10414203 6209:0.090703808 6210:0.032135539 6211:0.030373717 6212:0.14954689 6213:0.14954689 6214:0.14954689 6215:0.19734399 6216:0.37988144 6217:0.1778276 6218:-0.067709677 6219:0.14581758 6220:-0.085278057 6221:-0.10074908 6222:-0.11281148 6223:0.19149451 6224:-0.24681719 6226:0.14491242 6228:0.13284768 6229:-0.14356597 